-1:b:-1.4773436250029768,-1.354330142582231,0.6311182917262046,-1.025155014001725,-1.0991561537816295,-0.9315163703413747,0.4862021990900046,1.4806576085569099,1.6871831342892871,-0.9475552276631296,-1.6672770394522232,-0.20899091079027476,1.246767276327519,0.29092963726149257,-0.7322442525552539,1.2548421692563192,1.1102524926268669,-0.2721044945476976,-1.6445183301444715,-1.8823388929652274,-1.3083565865742548,-0.22362322339008722,-1.0225273406343733,-1.5659147442788912,0.5094259181000245,0.9919166810056443,1.7556312776723813,-1.9093516760671707,-1.167039365983635,-1.987239601737214,-1.2526794988757803,0.18560911777213673,-0.4933580151570296,0.5872139182188836,-1.6774789637172818,0.11712863385782483,0.014557066387478619,0.15594656083057074,-1.2560937734872297,-0.6410918092353466,0.24234488782469357,-1.2754697665202879,-0.6433564493322013,-1.9453769006837867,-1.6890569436607081,1.6987413181682498,1.2353987816879415,0.7474097020559893,-1.0376921060920905,-0.21819365143794023,0.9143116706028945,1.7340650405963514,0.011964557096127036,-1.3821278922686018,0.14409317013021822,-0.18172809002907142,0.6439855939628693,0.6937078806654482,0.658954829055844,-1.1778267160018872,-0.4577763293226623,-0.8138505070562476,0.08938057868927635,-0.9013702358176922,1.4261760188391261,1.2895901657913469,-0.5180039735900032,0.27634467386820694,-0.12050347838851799,1.9995593918011865,-0.4861534221002329,1.7443816664210785,1.1954615011485168,-1.5225978292657083,0.42516456217681603,0.2209426152108342,-1.3239482955686572,-0.8581323335003864,0.8577741289314496,1.40523221785592,-0.4904382756803653,-1.4139318324740051,0.6196057825303483,-1.9693730195566719,0.5963643273245358,-0.2837342867214576,-0.522809218697095,0.4240230951298017,-1.839191668811118,0.21121217762906735,-0.008878648267377299,1.8035303328785832,1.8447304912241322,-1.8818959659451089,0.6835285680268195,1.0935524508035628,1.9764146941625156,1.4470488331979405,-0.9147973976072811,1.0580122592353536,-1.6835237073210485,-0.6048065640037822,-0.528643112396978,-0.7543452891766739,1.8560145554398286,-1.0824399023527054,1.6429436966107007,0.8465571064875148,1.1184967462871238,0.47451280825194697,1.9773406252298926,1.3969265058483353,-0.16656722660143553,-1.273213750287356,1.7964194923033825,-1.4541507792481996,0.5742045651122927,0.9572049780130836,1.0502054522075974,-1.4476338192304485,-1.323101244955744,-0.6384198822500172,1.3156339554840382,1.2344516880701408,-1.8599993643213097,-1.9564753461120157,0.9247218941177313,0.5425606367372177,-1.545353248080715,1.777908584764784,0.9106660898990558,-1.660935919853764,-0.8180839789493026,1.7536443907040011,-0.05691492983492022,-0.46844898667410295,-0.829478164653674,1.98897362581607,1.158378323784406,0.921814903317793,-0.5819458706227483,0.3583294307348482,-1.5887755552183882,0.9805705872589171,0.20437727552736104,-0.4272798302494933,0.8348712880481508,-0.5349354004153438,-1.9007150030082571,1.9648742988465442,0.4516426731348063,0.44877142529331143,-1.4287952712779162,-1.7714469054332538,-1.893359572897861,-1.8662537421253051,-0.8816276105975644,-1.8224013612798942,-0.910272322995472,1.574726384421885,1.321386547897981,1.6130528254188803,1.6855284745880783,1.9086228284043536,-1.761805881989312,0.4395173430727706,-1.4990681953165943,-0.14623910279775143,1.4505504703302918,1.738878784286175,-1.8620941672371205,-0.7132333158880392,-0.9828061403035598,1.7364211956042763,1.255472281272435,1.7604300082075859,0.19127508904179605,1.8526737446946415,-1.3616088901087684,0.5695449085108466,-1.299641231466719,0.046608470759561246,-0.9302874151319762,0.00015647168149198487,0.20963093755258522,-1.3700370335053393,-1.3916755813960147,-0.5729852364925191,1.4621530034474932,0.8628284470412655,-1.9794626133593827,-1.631748570083566,1.8741927683261488,0.8911624777219427,0.9977837428653211,-1.6480619815556308,0.7307791384569924,-0.8950210882344805,0.3138257672765414,1.6885600490730863,1.07845661864792,1.630923147732176,0.7587397386328276,0.2426996504729413,-0.724195327488742,-0.18300907359165627,1.2032406970707354,1.36803801910476,1.423546396544121,1.4854513332957828,1.3477728309133832,-1.018434256895687,1.1566048085072682,-0.022691560688275197,8.312660455027661e-05,1.5041368497885075,1.6890848676992778,0.7892071995449526,-0.8183583905726931,-0.8674537055185448,1.927576341343193,1.8619917852249523,-0.5922711490305705,-0.07917356240635409,1.9367365422795413,1.7016163269502886,1.8557130687379744,-1.9100793728065426,-1.2077033345185075,-0.8309566248464134,-1.0093837314831648,-1.4166392676000181,-0.20975375206971317,1.0886822303366992,-1.3815078511516177,0.41412573728120566,0.8137259356238666,1.2320400581165019,-0.37182069828335973,0.9380960203024882,1.1373947507584876,1.3260213876913032,0.3716525651890619,0.40362204177404837,-0.26838973407794786,1.503850910241776,-1.8451655589641605,-1.4289935727195915,-0.4180920897515502,0.15708016039879147,-1.5781640818203932,1.1422144794289963,-1.7202546670017518,-0.7057319976757803,1.3076780955143854,1.7487797502773625,-0.8047602174320174,-0.013934846134583973,-0.008018234516928017,0.1971989078172329,1.2283945174827868,1.2229130657966272,0.6252592231759468,-1.6134420549868151,-0.43084319628766315,-1.547424636015382,0.22164632254378058,-0.26480471112036663,-0.11745563284745035,1.9701249366856086,1.8897123370156685,-0.4655293958981795,0.22404224743343848,1.4374501868717027,-1.6170906772558693,-1.5601225928178644,-1.4762345041838896,-0.5630863688891773,-0.3533019059667255,-0.5610914291380826,1.878411459029017,-1.738842102983266,1.6960601094765362,1.7296213531115645,0.04631468646757103,-0.3011935380645882,0.6035407350988891,0.36596163856108427,0.7517391733181639,1.536165046198688,-0.05035876374792171,-1.5525606407206305,1.563440707438866,0.47130116376006437,-0.9169553958343416,1.4744063880880685,-0.9582176631424578,0.47896033719799264,-0.680167171702041,-1.7898283597337241,0.7318813278856469,0.28644191391340956,1.5162427416132311,-1.457740022240582,1.3677857473317165,-0.08246627470590864,-0.33331566463436413,0.09194317526117778,-1.7400709643192678,-0.9541642287829024,-1.287494350653644,-0.5928678563928854,0.24463463617514816,-1.2558711243575948,-1.9330593348340743,-0.3600618482014694,1.5504045237703399,-0.3482626724372536,0.05252620508077518,7.135197769366401e-05,1.9058002311521205,1.9781589986625323,0.9723006541196537,-0.7961238970794325,-1.9587973015778304,1.5775890788031093,1.1212860304706618,-0.38543024198623616,0.5053542013479012,-0.21607745536491973,0.18427995541320635,-1.7812727276033438,-0.00045685476078831416,0.8619881625227643,1.9076043538281506,-0.3332299741708085,-0.3195563741185206,-0.0650985648558219,0.5417380472543416,-1.223093484331018,1.800187455309817,-0.27801471088791296,-0.9635384957544312,-1.612641263578205,1.1581944595181675,1.5508606309404689,0.9477367245163001,-0.3396543158316357,0.20153255289684607,-1.6126913813259502,1.5444025536227217,-1.615220612302827,-1.225040265198483,-1.5680677934009326,-0.31059819902622676,-1.4573378259780312,-1.8927123337133125,0.2679807703481169,-1.0113659396673036,1.3080412245586113,0.8889903934023163,0.032496430084752774,1.2125661151814306,-1.7354243215134657,1.1914446274350496,-1.7344268991907326,-1.0162034192976872,0.17838035441047786,-1.5128981323273232,0.00654298291445278,-0.3722864767995655,0.32755234314681697,-0.03903391882853858,1.0138091558749205,-0.9503318893989351,1.7719852348912124,-0.7314513486025417,1.6273101243469361,1.213933340434691,-0.3011559949176727,1.9136743659183009,1.931148436092319,0.3730636941503831,1.5349947065639522,-0.5141401201729529,0.0034671559978509416,0.7104985199378836,-1.3796145936047206,-1.5509355395905207,1.07128558587024,-1.3448233749832261,1.0817285789428543,-0.5996827660066621,-1.0910266772127777,1.7913254210232847,-0.272788861684967,-0.6433253078012453,-0.07705336960641619,-0.09488296561745424,0.326731638838581,0.23032478487093458,1.990581727881848,-0.47406017160822206,1.6149581864459859,1.3546002259741676,-0.7171340105121667,1.8412115339663644,-1.7583973993575697,-0.3005452516394779,1.9199599183712814,0.023173863318104785,-0.5468698258028979,1.9790780579300045,-0.9783367029191558,0.7267681292991239,1.6963040918564187,1.0322352302223894,-0.7831049109316646,-1.5864097516790396,-1.4734622193548872,0.8361419647046449,-1.4228251373071261,-1.7855446813312912,1.074617205773364,-0.40938108892289893,-0.4244501694488476,-0.5322174100020147,1.4680271249685173,1.536101830935686,0.8008876415967495,-1.8350513686547036,1.1036532629268945,0.307067459089882,0.5631966663950213,-1.337140677588716,-0.028669850257184028,1.4633966708464177,-1.1669129979156012,-1.5223043193123251,-1.1735412976936073,-0.3644956305225134,1.7416370689148817,0.5348492802843937,0.012081934263526934,-1.6705276708693,0.9860789287873069,-0.3243057989696692,-1.799387913993621,-0.38555473410792374,0.3047204258437622,-1.734741667963576,1.4412015740410908,0.9093515297443683,-1.4985653371581011,-0.9118306866980623,-0.6204957342138306,1.4447866955191948,-0.15045258382921325,-0.3517839989812249,1.1324572398515018,1.243262332272072,-0.5288317468305367,-1.2547248077781323,0.8938259508970907,-0.2788846128089236,1.4917371167737505,1.5980945723646292,1.9219925686662604,1.160614317079532,-0.191565508141305,0.29676204727430233,-1.6293056779572868,1.2932416323126061,0.19261265854706738,1.7188508676081344,-0.20277789606976085,-0.045538587783474416,0.2867967773120986,1.3719918238503996,1.4830981431025838,-0.22240164743201615,0.4786889592185376,-1.2844790241226018,1.7531436400693359,1.9077539922141447,1.453866512206876,-0.10942523404629415,0.8233906298585496,-1.9712797357472498,-0.17439611132084198,1.7789322957451834,0.10211587679418604,-0.805445556843566,1.4950753173991194,1.8220688094995963,0.3054507467393816,-0.6783685539342056,1.7095716098010936,1.8098849885029469,0.16118723201322288,-0.7429038576575241,1.774232652259791,-1.384158994713521,1.8595579457878244,-0.5732584821103268,-0.41518025424592864,-0.958175947579789,0.5846373172331748,0.6740706824601386,0.7408209572117217,-0.6067523902388196,1.8998163506662444,1.2728226358923203,1.4119879879489317,-0.6613860531165077,-1.8962182817596638,-0.8365684852586699,-0.9107804943493373,0.8838007155750284,0.8986547951903969,-1.1617375096754636,-1.1356493845125377,1.116370360775735,1.1302158178158206,0.3024597408199668,-1.136370975211665,1.7237179856518228,1.763403701936973,-1.3989582343231008,0.8438806670668175,0.05620244150789824,-0.5182974873636107,-1.3538196463128185,1.3146329001947714,-0.4757441910080742,1.7393817850179514,-1.368853681283149,0.5855544242220161,-0.9505582101770872,0.6922117097316242,0.6218551463434467,-0.2888350878759721,-1.3087982022735538,1.3040869562287418,-0.886896523011849,-0.2758461522737406,1.454714907450352,1.0546018150348961,0.5177310683060797,1.6621273032275712,1.0481279321157715,-1.6621623903013196,-0.9967788725513262,0.9462275234442872,-0.022852444433491742,1.465376477479319,0.7205732636179171,0.10718869951019877,-1.638041233687019,-1.3488515152218938,-1.6871354081732868,-0.062196474800642096,-0.8529849504824394,1.875535106734935,-0.24930390656905263,-0.7156856593948547,-1.2242104702549819,-0.04942398966448252,-1.1432009698434271,0.6996992281490731,-0.3810951805344005,-1.3668509184306177,0.7998341567883502,-1.0707676587194315,1.357543188237288,-1.286514334626105,1.0223687872021368,0.1417634457474878,0.8579462731328505,-1.0501358244459973,-1.3722134956105094,1.5226400015306374,-0.28777301692065804,1.617105776146982,1.8019198252470634,-0.3968736027345791,0.7523338282194142,0.30607034040905395,-1.5428955842693468,1.0198323615127667,1.2882238223933102,-0.927058515284358,-1.654457224805225,1.0194455027370444,1.4164057056233545,0.5583431382781248,-1.1093147715687715,-1.5328667155721627,1.3967310859941193,1.8184157529508902,-0.2363744319903167,-1.4632113416873151,-1.2396308449868432,-0.9732973151129451,0.16828700880596523,-1.0063344362183289,-0.6832819625232743,0.8595129436766833,-1.619116027090795,0.7152828428451989,0.5586117565437547,0.33785395503231797,1.0708260691260745,-0.6942928465820557,-1.346192138016261,-1.4029462057407165,-0.48951515810755586,-1.2313812663303256,-1.4302424904396394,-1.7634915732726464,-1.705903876115904,0.0010327059541081194,-1.3951887501673532,0.3028188470961822,0.8679337628453281,1.4767535321398895,0.9944118222135265,1.1161424856849986,0.5460265963858553,0.22314001964030974,1.1910270449135854,0.4116638525368677,0.8562157259381556,-1.4461539965803505,1.6756249230435627,0.08369637531020427,0.32774952909872224,0.6560727685417305,1.0773611371305958,0.520795315955036,-0.23011682002983727,-1.2208385158905735,-1.661330128709225,0.6425530190321055,1.544341156160594,0.5617115711738564,-1.842950714036058,-0.8972327442847772,0.985831514558744,1.4456766090839994,-0.08349271772384904,1.6611737662464525,-1.3745823739998095,1.0921103534278733,1.5332643102821693,-0.30839424097594553,-1.905498534550632,-1.9805236479719244,-0.162540589378284,0.8134240926774193,1.440617796785472,-1.4565675889177725,-1.5987903595367343,-0.633832347615724,1.9581817518795515,-1.9351386724572648,-1.4310591711178335,-1.0185551025523858,-1.6140597844832834,-0.13088087638264653,0.18196224476827785,1.4935689343752956,-0.6822588594623826,-0.8972978289218876,-1.9142466137545369,1.8181090838761509,0.6083494589290075,-1.5816299937138503,0.42343830424282786,1.0737636535078228,-0.3409018711657631,0.6026876082633267,1.8148481674999764,1.859918794326113,1.567202383697698,-1.6171065217915572,-1.8496605154980177,1.2443864740982014,-1.3165498033298975,-0.6631352880984612,-1.7523701456243619,0.4209784465376015,-1.6916828598924698,-0.46064134789615135,1.860421889286055,0.8646508731614096,-1.264765299326601,-1.3808415306187345,-0.3534635749386822,0.4673405869582089,0.7687069452078642,0.24148209794168135,1.3049911752106982,0.5850515441507423,-0.502500060151904,1.3940068817580193,-0.888313743110542,1.5862627836892005,-0.31663311979318093,1.6582993352010282,-0.9249483900944002,1.535723388589574,0.7291841670651054,-0.024435583300919012,-0.9077503230269109,-0.6826985716709201,-1.8916317193838181,-1.7683914066102249,-0.5287119258850018,-0.9066661696727609,0.8097776123591629,1.1511371463736721,1.8220643511785226,-1.724133982935267,1.26717988567846,0.1971323197528529,-1.8350903138759005,0.799161043120695,-1.1216829422420984,-1.3684546388120329,0.49198159781322337,0.17063769023862263,-1.0203032321331151,-0.921935865600197,1.504589826720668,-0.38560412321630605,-1.395636103469898,1.8198257071942452,1.381273828494495,1.745010099442107,1.01377862713325,-0.6286474757936278,1.407072915264717,0.262513030634781,-0.4819319657205374,-1.5162242645545172,-0.988409075517977,1.7028928655131197,0.47279843075101574,-0.4133836849078514,0.2521849148813064,0.0921003453061606,0.9162689904548154,-1.7072975092613207,1.1589043210445265,-1.2229348443888446,0.7122980345034703,-0.7103836509797778,1.7469671719659883,-1.074588942048568,-1.37553123526672,0.6793452014014993,-0.9515579294103361,-1.7211651053255186,1.0248335799434816,1.6387962347424558,0.16500467866932428,1.182673065533199,-1.668588160346642,1.3905118304267166,0.23285567652625636,1.640344534972964,0.039310258172475444,-0.19122400791578578,0.9564435434236694,0.8997221021413679,0.0773550372635428,0.9077153343367838,1.377916925093959,-0.7342654983190435,-0.5710598741486752,-1.755373181397827,-0.26346158080292525,1.9943155797290049
0:0:-0.02502036459876458,-0.010205333085997727,0.04687014015181153,-0.0037310303613687953,-0.052168633306169235,0.01978783106741258,0.006892744329753419,0.0007911641940847146,0.032517940067322795,-0.03431057560708775,-0.04388851275808036,-0.027189060310705532,0.03281747894474208,0.020493684101085506,0.037648061389929856,-0.02135490987055315,0.02487946696639224,-0.014405397074280332,-0.011819123061986897,0.035863085677964375,0.002431296625606206,-0.03814407913525674,0.055947286455788704,-0.04749598495038115,0.02592364736670777,-0.008863687183698753,-0.00106377802889869,0.02602015305296175,0.012795186977380161,-0.03408464691059566,-0.0195892672053143,-0.008823319773550449,0.030857828603518874,0.016939512222673325,0.00215727992240699,0.01777883056169429,0.054355047182181815,-0.0016338790135279253,0.012115803803365806,-0.023683967014001737,-0.022946445883164076,-0.021376791145545606,0.01644476923059457,-0.007340359623134878,-0.1118439176927962,-0.027028573554921123,0.04341010380405477,-0.023142778530586487,0.007136274165137993,-0.018663024315772735,-0.002869830327381299,0.0046016780524515966,-0.029527007125075045,0.04183669402471129,-0.01098459504036837,0.06142681754401301,-0.039026060683430966,-0.03914898361903746,0.0003757917237852903,-0.05069230543372931,-0.005332636508309023,-0.0002864628500658764,0.060849717488795814,-0.01708923962660456,-0.03307004429077167,0.05703082700735117,0.027801428054835344,0.06705797482021934,-0.012071288862126104,0.029159842901937485,-0.011250577313882626,0.03637958046229877,0.05468678780725283,0.012771743628385348,0.054058822254957936,-0.03015855616941557,-0.03456995330134902,0.023694431079767056,-0.012206381145644278,0.039545629464328505,-0.004294888348416516,0.007540134049640211,0.050341547709753236,0.013586042506357868,-0.06346053254475958,-0.04517705255144003,0.023349735839297926,0.00857713395740282,-0.02159653474871857,0.033974483154219054,0.024481552612532813,0.029961652857258023,0.022443302447115687,0.014079571115108063,0.025337587405044316,-0.030679288688556676,0.005431713983555891,0.0027322532747486757,0.0022157325279766687,-0.028059150469574527,-0.03818062675762277,0.02261979731277138,-0.08983781069192133,0.010058812875437402,0.045697605172917106,0.06065233893329888,0.0579182066913008,-0.017205308985467214,0.02587403531557065,-0.025113644215559887,-0.0035396674331833796,0.0509663233620365,0.0167661283334047,-0.03892065362804319,0.054552140115110684,-0.03423930821586047,-0.0425939808709092,-0.04574760248941038,-0.01232385227373759,-0.033688573948725674,0.002950659285738941,-0.012474182293312467,-0.004368552370061039,-0.07018580935032738,-0.03137503726715743,0.04433600130570815,-0.034151466296339125,-0.01566162076333409,-0.0017979764887750451,0.01441847905240202,0.03929640998369251,0.03831101225381006,0.014522718175831523,-0.016498835324750234,0.03730223712884401,0.053693209777794064,-0.034023678633334845,-0.02045309338705617,-0.0038991684482167573,0.01919849387636246,-0.013643603723986127,0.06267630412229663,-8.311268454908578e-05,-0.040393156660504914,-0.03535602990456266,-0.004792858561012368,-0.009152350200997613,0.0013800304017691002,0.033524121939288554,-0.041406439803485774,-0.08805475530083076,-0.014649927158474149,-0.009082809749088318,0.005319667076193862,0.03995033593457875,-0.007831073988558198,0.07822110009675538,-0.025387284207587964,0.0006866255993397657,-0.022371755900585846,0.009210501799444454,0.024070209670357598,0.00010363965152523346,0.015231185753439732,-0.047515570040320414,0.017410158984265837,0.053944249167789275,-0.0008350095750036049,0.0650206312535114,-0.01859129479705039,0.016119954421585425,0.0015155288245564992,0.050496633012375135,0.007005191410140134,-0.03135919601725866,-0.03998901998231736,-0.025998539233179054,-0.04490041295889066,-0.10951313072060856,-0.028195638356162366,-0.0043712401352442535,0.04769186663573224,0.04626852161006052,0.00741685264492327,0.044581409605017955,-0.005641094711738063,0.008711337657800819,-0.07462668137477382,-0.027105654977345277,-0.048585975641708676,0.0013855341407307462,0.054032059629330866,0.01795221867410664,0.004895406956233013,-0.00847331603768882,-0.0293494136708899,-0.03565915786238293,0.02632975071045383,-0.02690005855610644,0.016818677140722476,-0.028991606378881412,-0.03685069355122886,-0.03913139320420495,0.006348395190072494,-0.020488604584521928,-0.025657795295563765,-0.026266503242091607,-0.005594957216276138,0.07294467976496533,0.01632900704071114,0.033503947902050364,0.0515673038644121,-0.01650380162030249,0.034241230132390714,-0.00948196899399797,-0.010663656402998276,-0.03405238045446162,-0.0011866969029657856,-0.012101158827416691,0.0011148511947701154,0.08752276259189423,0.005726364021506028,-0.006915671978934992,-0.014213317560190243,0.02071809706727204,-0.0008298767721559125,-0.022074961970445083,0.010009322845179993,0.035168675264464405,-0.001508490833444533,0.025799347708738894,-0.010819661698914426,-0.01973835324670337,-0.016194839705030124,0.03219509180560854,0.025332690645876385,-0.007909669387525589,0.08733153176732088,0.004177788898370737,0.060924765478398125,0.030710276939276606,0.04269239699191819,-0.00864958716747277,-0.004993465499588674,0.03385931742870275,0.03580159936186074,0.026729620532971603,0.031365387358538915,-0.022295128639132335,0.01624503913762588,-0.009800726858532992,0.04795171013382753,0.014393644080788493,0.015303867170907919,-0.004143835936621494,0.0008854321978204859,0.020032568335670808,-0.05368294150014678,0.058544924944492226,-0.038582260650680614,0.017888325545613173,0.04624295056534501,0.016046124229248483,0.004388542717148213,0.033128735031829185,0.051141597038969,0.04246372465527463,0.03323354691877635,-0.021920705349037693,-0.05063213298104583,-0.04060747270426981,-0.08557539616437405,-0.011389163491824974,0.05373597367047662,-0.028799809027487105,-0.022233383113098058,-0.004417315214427117,0.0761443535209129,-0.025150913828248585,0.008778442591378943,-0.04003645767481721,0.036290526014221065,0.01802632665790754,-0.03571414799913377,0.006344306864425316,0.018720730231920894,0.0289072880244744,-0.018718235126769962,0.07109059088391977,0.013572675455694716,0.043229774185408326,0.0019448195327003215,0.08125332905452415,0.04417006783680489,0.015573961529926544,0.09829314361026148,-0.0011017833831305805,-0.07611774172109202,-0.11813049989270027,-0.05083067775968984,0.09584603389595846,-0.06876966894346154,0.039879841950883725,0.008605444630235413,0.021955028332096505,-0.021037601692594245,0.03961688887501307,0.04984959798770779,-0.007429624765625759,-0.05879069707382326,-0.02999411494188718,-0.04288133973094843,0.0031991003264300885,-0.0026379699014058657,-0.054605120908001,0.05979958272263965,0.009251362536479778,-0.041586163230343136,-0.0014666529189942433,0.04086683897952948,0.09826016122441891,-0.00889527281213267,0.08204288411697908,0.052727197047091605,-0.0900679031198041,-0.042853548600815784,-0.09249439233420535,-0.02982255756688696,0.045092297853095493,-0.0298779095961638,-0.005926892750319051,-0.01087793973401327,-0.01404402694289002,-0.06445565867147414,0.06055200536761089,-0.022723181746454973,0.022429622736182764,-0.012041358713715034,0.003284641886135336,0.01820599844573796,-0.019370621761061694,-0.03687995341159903,0.005228530616497829,-0.007660080248491112,-0.011632062038831771,0.02044918377994578,0.03940996077043928,0.006130335641909417,-0.02802117818369559,0.08531437039761677,0.09247426078052944,0.023867237115681818,-0.023511944805528318,-0.015431789191186679,-0.06555468281377651,-0.008973451652083375,-0.029912577915287175,0.03433178107538107,0.003710828201808399,-0.0015011712322321586,0.05004816850988814,0.054722932095840594,0.01340897628918281,0.008343511692707577,-0.022148926195362153,-0.026933773586134847,0.009050993172153826,-0.03942128738678514,-0.031106862182895784,0.049024038178409966,-0.021694973560179274,-0.03900626155591667,0.03711025659450034,0.010236396872589468,-0.04031750189915506,-0.04736926208650422,0.05885444615896988,0.05640062759749226,0.0722842846240647,0.007089891714492511,0.04410649202463172,-0.03505949223785802,-0.02763981205282811,-0.05848114779818874,0.03168807446718243,0.04825515622965505,0.027718260179526298,0.01925734934316747,-0.01159307287527587,0.00900112305023775,0.013507628650017195,0.021750342584397543,0.06768476933685962,-0.0561614577565098,0.04234361804333859,-0.0013078495176632602,0.030939983709727947,-0.07704943856001292,-0.07377214183884437,-0.016834233789949492,-0.08632059218848914,-0.060757104727674614,-0.007651268215770372,0.05439798744305668,-0.00025050242119132064,0.03207900551701407,0.1065533383496222,0.0470965562817526,-0.02900298310130378,-0.07322328166130464,-0.1383077805012412,-0.04857661088187502,0.050996313396808886,-0.0232542879724815,0.04563871543432897,0.052343778026538404,0.004000492534720993,0.04851817555363332,-0.02858568246856069,-0.07769091835763359,-0.059252351084108576,-0.05347004268914265,0.006018247848563623,0.017443072743882442,0.04635734510555456,0.0352216588728808,-0.023759812968543657,0.0037014142230414474,-0.03302241854271511,-0.004941107954002263,-0.023240323943917923,-0.03060911575977469,0.014761346202144148,-0.00932639009001342,0.04766547691415031,-0.011791974752508786,-0.008067017698672511,-0.1072900425817355,-0.1778206244575512,-0.06305580187908112,-0.018316786884248024,0.0031063829904481705,0.02219145495361961,0.004673754431550771,-0.10943238000340291,-0.03696428714365294,-0.005641295381670573,0.030407920111540827,0.01193760251510039,0.005113903713208699,-0.047261808348132775,-0.0488678692477974,-0.01959699746470856,-0.06458729894475278,-0.07803778336332182,-0.07463142925402001,-0.05323279065215731,-0.10569551387677129,-0.060461243252659204,0.004053875910240471,0.04470957845981788,0.03216935236737393,-0.02740508215882138,-0.0004618739775061609,-0.02583405274805957,-0.010935289739999096,-0.14496424949145623,-0.04528231570533085,0.018311980704285132,-0.010159277402177081,-0.00525624682490331,-0.05532717281136129,0.02245390091001816,0.03521984748806538,0.0075787750795173695,0.010328427731661602,-0.011524937339975219,0.0016305118744227001,-0.0871618556425867,0.0031885516511207987,0.002843315442050818,0.03523059670400678,-0.027649179859456873,-0.07069652574825944,-0.012335751090099652,0.07516886713939337,-0.08954156327374954,-0.031693159793320075,-0.0008306460334746142,0.08567438613608332,0.0074875720393922296,-0.02082342476650429,-0.061131924796258036,-0.08672140117060691,-0.007369537118166235,-0.050486741535955205,-0.031436664257230636,-0.02939830210010239,-0.03964959669766683,-0.005679502035953607,0.03540979150014794,0.021764836269439685,0.052091062216053294,0.0310667316893428,-0.04195831304222257,0.020233799334953683,-0.059309266396874,-0.04050502708630553,0.021064490006527183,-0.0053832864807562,-0.03266930107434875,0.029709302879822708,-0.041993638399558164,0.029834728920640725,0.01786550889799993,0.005649977671399539,0.05261582794601748,0.03149752241467751,-0.08984370299728285,0.005228880332328516,0.013312617694449596,-0.05033293711109216,-0.01784865583943893,-0.045813929712635836,-0.07574141544637064,0.08286379329757323,-0.06194270750828541,-0.019667730044882308,0.0033815770969799733,0.036474427056683884,-0.03888057493488761,-0.002292593153264017,8.567020408950873e-05,0.01657186909780265,0.011844771020719772,0.003016499471896856,-0.03582556973954393,-0.017857845725301223,-0.01832328907755168,-0.08824898144305136,-0.004575710240463805,-0.054394519031736886,0.0962661072458065,0.08588983408606887,0.049263410230768856,0.0026976712908131956,0.053802860227232914,0.03435787711334703,0.012706904265827776,-0.0040651094307708815,0.009884512141004395,-0.09177482334050041,-0.031171128742401414,-0.028260879105129005,-0.017423633445051052,-0.020885031409341146,-0.008786453774621573,0.03257847528430033,-0.03926830941174641,0.014384731681019468,-0.05415728859895054,-0.027967463703993705,-0.005769277117653496,0.0224645851770168,-0.023935009092939313,-0.039932266411362514,-0.03152088337849756,0.010392479708951727,0.028676079669174934,-0.0313433605299495,0.07439658618889937,0.03260518172912085,0.06079828601478375,0.06996617318059653,0.06355300117401406,0.10949806860168215,-0.007110078716766485,0.015012069495513739,0.006734052372808518,-0.02513568493334728,-0.004366862486359246,0.0019229728302641918,-0.08978986338458575,-0.028279814060717348,0.021640226015365627,-0.006476125851538276,0.005258562960978182,-0.006604808574036324,-0.006870631997814151,0.10578222273088045,0.03842041707329545,-0.020979021870471546,-0.044066262433752314,-0.1030014828486446,-0.011324865735488372,0.01621595576179067,0.01058657374772254,0.02353399744430133,0.11042307096508171,-0.005219253330477791,0.08079125791494632,-0.05433622963340573,0.07374925440158138,0.047443123028906665,0.052459014010482655,0.005825212832956,0.0033295843085420886,-0.026459787253605656,-0.01862034654847128,0.021267233830901205,-0.008291649201257148,-0.03830064018041983,0.05015491483674282,-0.018082073730498846,-0.008595286361816497,-0.029448000951345043,0.022869474998009117,0.038133141450759196,-0.022969336135022844,-0.03173523979209177,-0.03746464543911351,-0.011346964971845374,-0.05711289656950028,0.04792175642651642,0.011409798919425613,-0.032942101801105905,-0.0043363021404888985,0.024639032720874317,0.0544222775223482,0.034902998641834375,0.06783504738155392,0.04021696827467692,-6.854692605563374e-05,-0.04272929491707605,-0.015213643728132201,-0.06172432842424793,0.024746810522356246,-0.031095171684164338,0.08562178652014052,-0.03028196133481563,-0.009636321547426729,0.019960377424086587,-0.011779723807200153,-0.01792615614402268,0.022285558740179547,-0.051736977545316594,0.027719723206197706,0.0445357493213237,-0.0551559017982722,0.0741674491711874,-0.013780964714955553,0.028435489302329742,0.02326704010314971,-0.012802680440443895,0.06449377169815787,0.013599438112070945,0.014359362134184407,0.0013045862815274753,0.019667111691017147,0.009468276672663431,0.024370092009708282,-0.003202377182636211,0.022732956241192464,-0.019291604996592257,-0.051304978071931434,-0.02502495500534337,-0.013487165362645817,0.0001443073504323295,-0.013631635350879322,0.029628430860841156,-0.004082094269948515,-0.01441969669766745,-0.04354600475831299,-0.017396358275657556,-0.025091929230587694,0.022383107193134702,0.034062881318253545,0.054220198788398774,-0.0038334014227668378,-0.03644832151870357,-0.006107860883313033,0.002095346874813839,-0.012858184320857283,0.02577769930887472,0.0740778241335024,-0.019444361617733424,0.019114270594790872,0.08200756663175882,-0.02114191404796089,-0.008131261533726902,-0.008353931646052836,0.06226241847274007,-0.006302482174993637,-0.003938230863619474,-0.04201275030222622,-0.0048965542946555795,-0.10533371159805179,0.009259401836879141,0.040659082035897354,-0.03962142695613963,0.033640787069742425,0.03243441368925909,0.04398377646350232,0.032928336384390494,0.028029548081230298,0.0049164440092329745,0.04253482899922156,-0.06453155245040082,-0.004576478195460317,-0.06995291890692718,-0.04272652076846399,-0.001041337278130483,0.028382557870381526,-0.003962162588981811,0.05822247461756835,0.01591436016366029,0.026736418142398775,0.04697491186966889,0.04491113599982874,0.017294213446220737,0.04332575694785178,0.06266542576191045,-0.017953704513037714,0.02438885910461284,-0.013429878818277534,0.024488211442009022,-0.01812952538102797,-0.0009909321805541002,-0.059986854460999106,0.0563647205435399,-0.006810609872505296,0.052120546541596396,-0.03505630977704539,2.775394517900321e-05,0.01630140659174131,-0.000384965562852349,-0.01573176456865478,0.0569162324683494,0.029579292645649444,-0.01985784920509472,-0.014151286160655252,-0.05406271442031514,0.02066192964839701,-0.05125154521627556,0.03426009312200826,0.032036754395365005,-0.04409493107433777,-0.026650893620125477,-0.04573799288952476,0.039918625266042035,0.007446805711854678,0.03449713900951564,-0.008535983961911554,0.0525209632872332,-0.044887763036799304,-0.007488127053080705,-0.05786646919725405,0.009147500364400487,-0.024382594422764584,-0.04378014905578442,-0.05580915726603896,0.026007385656301243,-0.05172994708386045,0.09014386176659708,0.033568928688968526,-0.019148132103347218,0.016922641921046342,-0.06170527106838162,-0.023947736393686535,0.032073384165136026,-0.05694056351050824,-0.006708621467151496,-0.04049452935348085,0.012783256516014375,0.02518593346213244,-0.0076522584504770865,0.07279254505276148,0.01133896253979344,0.03165405862518097,0.07444176668819479,-0.026526432238960826,0.038545574724148615,-0.028724665613356713,0.019470099314987437
0:1:-0.034344053375203284,-0.002184906738657066,0.06901669185633647,-0.031161458003452183,-0.042912315043639605,-0.02372886724573608,0.04606434233267386,-0.013739511149544413,-0.024446240518772394,-0.037250058751376575,-0.02190441552204661,0.009832110573600172,-0.07161723312292832,-0.03235712509821609,0.09600124008806504,0.021060159244527143,0.023894754839914805,0.022275862962994615,-0.035536957648111656,-0.0475577248425971,-0.04056137775887413,0.04652885491547171,-0.030037693365736206,-0.08799164070999858,-0.05472843572703666,0.011083974862468466,-0.007222372570637274,-0.023236193114827587,0.02095357781213507,-0.037376501474408394,0.013849120330633681,-0.04869328498312318,-0.05960384857739824,0.08105772616636875,0.00016819213935931646,-0.04939386349448447,0.006452534368746344,-0.035337784138745686,-0.005229552128415132,0.020471587857062445,-0.002713737271824343,-0.009301201695318869,0.0008628793208608511,0.025027701566614578,-0.006819970122974155,0.011267332946763273,-0.00341435671662448,0.004163157110808942,-0.032526155019843794,0.0757070319748577,-0.014045880934810502,-0.009254269926882781,0.020040237774504376,-0.025671822470225515,-0.04165390794292751,0.005709562933337536,0.0006589525353297754,0.010249561958357084,0.05217202337676547,-0.011513936239607534,-0.008159111172420776,-0.03684114909395198,0.0008787953240376467,0.03808303085351487,0.01731199690180466,0.018424808291625717,-0.0034550938728484144,-0.009394674708921757,-0.003526489907455832,-0.043154198011804,0.04740950162924891,0.019667993759609387,-0.04696278504321452,0.05492870098966958,0.01287229664855855,0.046093625014483455,-0.01255840462820305,0.02546409512265294,0.01588818113372689,-0.022559710668326103,0.02746756963017194,0.01482654591099857,-0.011527953227994495,0.01413025862939677,-0.05172245027430861,-0.05321478760692107,0.02690926292942788,0.02236274977800627,-0.0719324925810795,0.004537360503665649,-0.034550839436952537,-0.01771113359325339,-0.06940606099258718,0.04673479523669466,0.01639914048388306,0.017372742172148417,0.007347861179109072,0.02983423349971372,0.05076817476016143,0.03898349653620585,-0.008812206587150108,0.00390732287988754,0.001302490816250403,0.027963560678272895,0.020575445008715203,-0.006265124603578803,-0.03582078543039801,0.00363018681645653,-0.04229733470603923,-0.03394333330045544,0.016445742764385346,-0.008241213993419025,-0.02273375357981453,-0.0033281418082031517,-0.01591357413961041,-0.03770591433279653,-0.03315483400301132,-0.03296216395752302,0.06515754237723653,0.04720844179595577,-0.011112668001108467,-0.05001871907390153,-0.01580807324470146,0.06703588447572567,0.05091284762448846,0.039534854585379184,0.029366800867763325,0.02679464591474856,0.07154485668816969,0.034517173448308486,-0.006815815599200824,0.004231610782127149,-0.004256048102378465,-0.053899577275805265,0.006134014733825255,-0.0026708327876355307,-0.008336933828814636,-0.07122301122602125,0.00793690366091679,0.045023443355909895,-0.004138483326824876,0.0005117172619456353,0.024718034404181872,0.061916022970961604,-0.07857094125652742,0.00364925129582429,-0.0008052640860672634,-0.007757682451429125,0.07041124446804535,-0.025520002927949557,-0.008309486588940145,0.05460099409014691,0.09246428628795268,0.1711023972538496,0.007168826663639445,0.04660738866186766,0.021454768541252067,0.03313488251708067,-0.024860813339596378,-0.008931359722228756,0.005464086839720872,-0.05470892304508515,-0.0072926349792141075,0.0025706995054881224,0.021938324068023665,0.003125359784069332,-0.025088892843542227,0.03609219386579226,0.039903280273110686,0.015725131993142124,-0.015175239200245943,-0.021024561014093324,0.016587592504152582,0.0467234661803173,-0.012792446351907549,-0.010143015598800542,0.02415930208362973,-0.004324359992078027,0.017496366198634355,0.08688048274203783,0.038346265644280245,0.04785996465293206,0.07394937789698945,0.05703791300341294,0.12932473354357163,0.03335250700071069,0.06348515499808459,0.02420544647317454,0.01462127300412914,-0.0009427640265589833,0.0030916404061438426,0.029768902564412097,-0.0033868276929026027,-0.024746108347117175,-0.008677598882392406,0.03288878660034253,0.017836010862051794,-0.03249326053627045,0.045593715725531406,0.025328660003609584,0.0464034511670773,-0.04251627879304675,-0.018899291687110378,0.00910230135868955,0.04912872768490235,0.04067432382222437,0.030179578151749726,0.04882549892116571,0.01580302153504434,0.011010596571474468,-0.03543644890686718,0.048696397423651006,0.029562639208722336,0.0767075909420175,0.077916368493058,0.06725796362001547,0.03319102667377118,0.05435119103284285,-0.0070635186373651845,-0.018493444706483224,0.0010071639424925104,-0.0193533422879211,-0.01008658779349611,0.023715961806678808,-0.06569094307975461,-0.02322559473505265,0.005632268360927127,0.008668077257570437,-0.0476953740580567,-0.019988878561356956,-0.020415145939171455,0.027474517732334554,-0.0036443779871309662,0.006385527212609263,-0.07543697281275538,-0.013760987530031079,-0.004080080150436183,-0.015489659714558738,0.029273861157686397,-0.01738964227345287,0.04604901847186817,0.03066398339337588,-0.0023289212206371035,0.0060415266455986815,-0.022429027566406193,0.10820621725529522,0.031017349238421282,-0.036507075410562764,0.03908876569295707,0.022646238746038973,0.015001523343851072,-0.07135143823214407,0.06587015099022682,-0.040560345395276975,0.03811765668056849,-0.07701452558165127,0.007616215113602096,0.010051194283373342,0.018216303694918137,-0.03090204059305109,0.005769396586163081,-0.025468506428913698,0.01387757281521132,0.026948186889948267,0.058795726681142954,-0.0010274582614335876,0.06476841670481893,0.004613890745492528,0.05199826938060157,0.08905880364396714,0.08411528630385838,0.016898258791707293,0.034374032600966435,0.0545747881930442,0.02921526930586642,0.0270183017394792,-0.01545634288060046,-0.0325930997229272,-0.019109838342164828,0.02298386822204812,-0.0014501636285043666,0.03395932241040659,-0.03538353891346044,0.022574694018438982,0.08723457032947839,0.07939445740993115,-0.014645163418060226,-0.07502546582408125,-0.023275284861456868,-0.059579368077424116,-0.03446549240030833,0.09505504205704986,0.058090738148233845,-0.05065920297285408,0.044783458237292045,-0.09236085049662393,-0.025685867273036758,0.004715647826210377,-0.02147484981267579,0.04288539312659373,0.009061087839687851,0.03774060247697806,0.04708595180272181,0.0019699046099599152,0.06423850893698531,0.0066173420683999645,0.060390383254689546,0.05443563141602773,-0.022913066355751386,0.01389895459445559,0.006392321448273823,-0.004317145715991569,-0.03824812813534503,-0.05497339465829297,-0.0066432145471467564,-0.010759948610190315,-0.014056826110397429,0.009813742771103596,0.07310825022392091,0.05697505034350864,-0.017156877381526565,0.011008601118803713,0.021611452480383122,-0.07432343308727651,0.00674442707827236,0.011550502505131422,0.022307299792193647,0.048217619341014865,0.04945087298765998,0.058093793868010515,0.06950441035991842,0.06700490429266892,0.03476271036731416,-0.04146905439441668,0.05386030477529694,0.014432677308032072,0.054274433750300256,0.016090830179143083,0.03068642149825664,0.06815905083960029,-0.011749494047332967,-0.0074351776984842724,-0.027657693498232074,-0.01633446788880948,-0.04072760415131483,-0.014226849638270532,0.029937123221940094,0.061494311554162795,0.008899409497297226,0.004706016313985042,-0.09442382954131084,-0.07009524580322779,0.02432059348347225,0.0011045261692396926,0.012159345180324424,-0.08503056537226575,0.07957713617209806,0.025169268145463875,0.05387449894580499,0.02964246420042035,-0.025573217680030503,-0.04252116618021455,0.004931173472860967,-0.04046697547465362,0.03725058850669036,0.06868629461044122,0.09411755460195154,-0.014339111050953398,0.03624971256714312,-0.015197655169185705,0.033806312691664564,-0.006824824018679349,-0.034064146382644295,0.011160629747264698,0.07126935686252203,0.01653964318053069,0.05343522097825591,-0.04323471948300164,-0.0790215826340771,-0.022443532916140745,-0.052461741417019245,-0.03637052316468985,-0.004614614402920011,-0.04018248005251378,0.04157948928841879,-0.05325872916974101,-0.008873265138784349,-0.0214394108055415,0.021268701564413198,0.007937829233119935,-0.019494151883219388,-0.04448830789686929,-0.017007412418798364,0.020263865936363354,0.0008499238449807764,-0.04155093859373685,-0.0319239030828188,0.009803529682925081,0.03610445071146405,0.02360652217979794,-0.028480568716679044,0.06326572812653775,0.0062290120177554515,0.06658632351328324,0.04526103324873029,-0.054265500526697236,-0.11581670560898476,-0.08514320896572578,-0.052904122466324977,-0.013920804424522107,-0.010479188383509832,-0.012421709858877764,0.04950531355984766,0.028500772337121536,-0.013226486575628292,0.06779423539323233,-0.016281440132297133,-0.016830644587943595,-0.04232101927953739,-0.07434954537814392,0.005793160411018769,0.030590048830078737,0.06896533516375015,0.0013971677398330645,0.03291866862382103,0.053881889216079684,0.05446660020614294,0.008770401031248664,0.03565302218762673,0.07399502983086982,0.062041068160892394,-0.05521916425786108,0.02135272667316857,-0.12498226290424107,-0.10469792436965251,-0.1463518513282289,-0.08550378977880763,-0.0260571144140955,-0.011474993464316765,0.05878327271296499,0.022415775883300283,0.05988652869478946,-0.042420054214708444,-0.0434057403342875,0.03522617117251384,-0.039049006453168875,0.025971841965335873,-0.03559366459248783,0.03612841570710814,-0.0460917873204182,0.02828792944373955,-0.02731699061938337,-0.014452368681146879,-0.005536135149706486,0.042434451822522784,0.031447929628983094,0.1320395276906566,0.05558974290190809,-0.03491211369779092,0.009270191109006525,-0.005845162923135044,-0.13227093195627584,-0.08964924330994745,-0.05362216828756759,0.02174510843133666,0.06271743347564596,0.03264595336029686,0.04786956234502435,0.07360138237918643,0.03995047384260511,0.053130421447929344,0.012451628070085029,0.019631132338977876,0.050593615500716296,-0.023774601344270743,0.03811273104439766,-0.026779680651958536,-0.005484831285322784,-0.02042092067130545,0.000553725046118037,0.015682527466243795,0.028592029296340478,0.13267461963894353,0.057599197957141114,0.043277916690174285,0.037168326452769684,0.006084966726590825,-0.021945120859955192,-0.032768303564544445,-0.09302786823180335,-0.0645937563505851,-0.019132654143208788,-0.04015812054527954,0.07267576784827402,0.0628108781252697,0.11584371110203227,0.016325454705422852,0.044179871207155885,0.025807457711492888,0.055766358959663385,-0.004860540093529148,0.024871558105236863,-0.043596646081007114,0.0409772337898258,-0.030495877384151108,-0.02247270138605612,0.06417761118893313,0.049524304529753586,0.03428994287696284,0.04098299226187304,0.048597781090954174,0.02113004675725021,0.11867825779134597,0.007434204728105207,0.010053907105258992,-0.09762601602330041,-0.0074439215617506365,-0.039998144891784736,-0.012363092038123217,-0.08979901482403127,0.04435866421330315,0.09431137106870527,0.09728111120965323,0.07949815669329824,0.10792495143306964,0.023411973660665674,0.053983430193035975,0.023759008304847076,0.044537973436875586,0.006147071353650358,0.032980119276873436,-0.053003037196275915,-0.050689215589267554,0.024331888771412333,-0.003054258325283474,-0.050895269106574555,-0.03117288698403012,0.022953964599792414,0.02240768416988817,0.0580252527216313,0.04076125915490877,0.021717238925053343,0.007333454168633639,-4.775743323648835e-05,-0.05025506712163582,-0.07205514404001262,0.03782712155826141,0.09033924486902818,0.030560791552798387,0.11584218650671592,0.10705242945436524,-0.010747738730205318,0.1326544753368089,0.021241214086640595,-0.0009671927712356199,-0.006324136500657167,0.00950901108152237,-0.04539913896042267,-0.006681519828465659,-0.015984468087697122,0.009169856153829141,0.09515127260361456,0.021207892930964554,0.025097475131241293,0.0064160059951788515,0.05162087435576569,0.09384711240635865,0.07462392551699182,0.04990177142847425,0.05464230874423771,0.05370605631484479,-9.443924202727517e-05,-0.03322835284887261,-0.02726358710867198,-0.06174055724773618,0.016706026298426685,0.10324608613104509,0.054778283806269625,0.09822023548594978,0.05569407947221959,0.022157665415187378,0.02291861599563783,0.0906101709063722,-0.007703208976499238,0.005779384788332152,0.004783245703591291,-0.026091429684150784,-0.0030979660817650914,-0.01016858735570639,0.023055426967543678,0.006060360577057976,0.003910539171034728,0.028897173255112988,0.028962888425790742,0.10734970179693132,0.005416966526619422,0.06532433409694634,0.053775068746028644,0.12179568085162451,0.015454858312368668,0.040327184054349104,0.0973890419668295,0.028243073163020445,0.005174960379913449,0.05194708096105351,0.018247989946564576,0.08368821573647005,0.07155307957491247,0.03890221810204132,0.0730106132015071,-0.0282068809888943,0.010130596284687352,0.0045656613519467915,0.061551933406272394,0.022113454396322868,0.01364854219947881,0.02522699326388619,-0.00035230233910952386,-0.08805876133864916,0.013021967400596262,-0.0022585508302954208,0.048518839246002525,-0.002934866795265453,0.052258773064955986,0.08669403679533104,0.13953212785996955,0.05742736372719228,0.09116445970858629,0.07746407093939281,0.06263974869877492,0.06823403323615707,0.0462256831401239,0.06381883747054486,0.012720409775936862,-0.006627070692843926,0.024694686326113633,0.04786555114635158,-0.06379056401157919,-0.026541051981093928,0.040999353656820316,-0.013407004952805553,0.014742150741907012,-0.010215385409131703,-0.039944919258159746,0.012959126854929011,-0.025343561862065184,-0.06500251334097808,-0.06459893832527762,-0.020780266979268075,-0.008219645709265058,0.050820750182221014,-0.021285258057117902,0.051450467450968145,0.02719888438437712,0.05678810504189149,0.04747892102906493,0.019544017063658953,0.0105168195502389,0.046297279494897696,0.013803594838661021,0.010277791088975861,0.041727434946692434,-0.023531680296844572,-0.014707306992099817,0.003328806077621237,0.027492513199523345,-0.009371654527054995,0.009201699013091072,0.06062910942570883,0.014628655805724844,-0.027482389107548973,-0.034549018543902375,-0.07862078828637596,0.05690180791232301,0.012062451947664162,-0.01396306033914259,-0.04227812108031514,-0.03736784891404531,-0.012763235406294897,0.0028602640069211632,-0.003827061515558689,-0.02977209607138276,-0.012129189647978251,0.014942272839533073,-0.006003401152044859,0.003263494759395656,0.07460596456474891,-0.0026457273529708002,-0.026050033820525252,-0.02229707259463074,0.01672376395765508,0.014981126375773295,-0.012717375273508129,-0.057444060812465135,0.0051267566675499325,0.08008434073622758,-0.0013623501865433862,0.032536106867565424,0.038250346004350656,-0.046964621194566264,0.06224072120742814,-0.05655814410307882,0.036994631334554405,0.009749131107249188,-0.011369913766151056,0.0614979620810358,0.06041187375983343,0.009557964303085864,-0.05402797855726251,0.04282539247082485,-0.06636508236320979,0.038564299150865594,0.01680537327400169,0.00250306083332629,-0.027668917549207788,-0.022905062941214884,-0.008266038831062847,-0.00829034052239832,0.014450968214796921,-0.0054338576796092945,-0.004069895776490513,-0.03501727477330131,0.020188629946176505,0.03401787587261454,-0.002302805559904946,0.006406113977766647,0.03027113947546585,-0.010051447365697118,0.01398196677709818,0.02566704118294639,0.046164261779335226,-0.005702833698528965,-0.02804169638428415,0.045816819664888875,0.012329754802232865,-0.02284467504299678,-0.03791937246516399,0.06996479710374771,-0.04528233161172885,0.01557961868503216,-0.07047208298276166,0.06236045113313912,0.0027585411797027342,-0.014162940396512343,-0.008134894917972289,-0.033401303993617265,-0.020279387435129942,0.06402169710371136,0.022757497012206637,0.010343533127759019,0.031010605472661254,-0.004311225113118391,-0.031025110233909633,0.00021010536644920936,-0.06429080345037372,0.052576819638905134,-0.02095979281287125,-0.069851831266837,0.006208545914530731,0.024503615349986522,0.00986875680195825,0.0068866627881827396,0.0240726815946812,0.043650374741040006,-0.07328313651893595,0.04063066328274166,-0.05405694329247959,0.004215976799838549,-0.011396510300230513,-0.07356721962933135,0.032068025422428786,0.013126232433805065,0.008401180051930926,0.03148298305519608,-0.031667042291420325,-0.02086636096890032,-0.05432362065258441,-0.0010150092964754033,0.024960554425455698,-0.014277188269511597,0.005225521382061951,-0.014444149312644745,-0.02689023619542636,-0.03240153753822569
0:2:-0.028031523825670895,0.029147108188861463,0.009520573672011902,-0.0357213768267894,0.018617586752536587,-0.04695033959371319,0.07649704522128936,0.011022789449907783,0.02012046440087511,0.025454592063004034,0.0450149133009379,-0.0064930497879550275,-0.027557766511589286,-0.028665609401567316,-0.02818596467533113,-0.008773210730249234,0.005569375851443156,0.01978894863356459,0.0015505481980347515,0.023818017259067084,-0.005237321185732383,0.0357688996643471,-0.00591980007533765,0.015366975396395026,0.057898212373133175,-0.01704278021093689,-0.039751913244214995,0.036701827079071735,-0.09906867484513202,-0.013382793472280267,-0.03842667951140882,0.016260648018014856,-0.019240813890501363,-0.026868493100820432,-0.015088011334057403,-0.02595357510979484,-0.05087204456840559,-0.004981722809731881,-0.011411583779163516,-0.035519667278920954,-0.016295655206249444,-0.019055377731515576,0.026033005492128235,0.014323482260825754,0.021005945288176547,-0.042488346521997934,0.07324363966983333,0.03616992946438119,-0.025935375107926626,-0.03863594516829505,0.04224593925286567,0.13866212244824516,0.024945910039732157,0.014487433008189618,-0.02565460647567505,-0.011864738739109659,-0.017505080405532867,-0.08176747239495066,0.07599027447198488,-0.07350336253186264,-0.02932467004092504,-0.05304133321543828,0.03787551030391622,0.004739712615752782,-0.014316726198429917,-0.02106569596348932,-0.007921071381079628,0.07179151677835838,-0.0730995275524391,0.009192219839949124,-0.0119298584902097,0.021072934093736083,-0.02664356655518832,-0.044346442260273275,0.036244873546186385,0.004239598287212799,0.020571760095733554,0.03466527984459197,-0.003594690040458058,0.02491639682069593,0.07703484103415378,-0.007795456737766589,-0.002959813777189224,-0.053474097037382644,0.014638095826190125,-0.02807842589522977,-0.01720443160419906,-0.015847421992383648,0.12658514084499486,0.023215096781247096,0.008001116189126314,-0.04841197156013698,0.0420518588569563,0.06521780134329193,-0.029833911646486515,-0.06185224044206215,-0.0029251727729705385,-0.006043087188137214,-0.030331551483106036,-0.006247524296284897,-0.04991077520080841,0.03140239329674193,0.0614821703079434,-0.035678870521818055,0.00381388518462494,-0.0050840975419937295,0.04814016066200334,-0.014530309909618936,-0.05185747894612107,0.003051780695758406,0.055134586232991986,0.08432587068118902,-0.02782371848496198,0.05266584191429219,0.014487534247429787,0.030676632497863638,0.04782785364696118,0.05462402890788228,-0.050687383210432604,-0.013237500783468057,-0.04079756957175115,-0.022920522248868966,-0.03152155353160402,0.03335162899696759,-0.04767357149365999,0.02374643815908974,0.010542841740329108,-0.058680947631041334,-0.0021079737911800078,0.03546595263806231,-0.02061545649998845,-0.05001267865988523,0.05835009612109525,-0.024699890643023976,0.08269304248936098,-0.04015556899078312,0.038018066169666416,-0.02070414266550428,0.007796624131032453,0.00868912142333339,0.015388064939693536,-0.06502185694296256,-0.020227999876473862,0.026056674431012897,-0.04896145394130925,0.0447366065310988,0.007225644705002444,0.019457892238190447,-0.0259716563577465,-0.02645963157945463,0.06766874912190779,0.03355793026414658,0.0008692104519176442,0.07660004272710635,0.08340966716376767,-0.0015419173731347068,0.014733907011474612,0.022453717706450372,0.03702742047452646,0.0190109395848833,-0.02756836744199995,0.0015124478445119112,0.01822904713423354,-0.11526419562364303,-0.03823237420532294,-0.06129671420549588,-0.012432873530723556,0.0677534944295188,0.04739858757680509,-0.01609147780041936,-0.039983484607012836,-0.015170431112547376,0.06624380277765297,-0.04494196806714725,-0.04691117558469501,0.03753373239203774,-0.04264801513416982,-0.004881582483208062,0.02159449507879247,0.05900153859668497,0.07356882598608633,0.021978718527597686,-0.006232429819760666,0.05270034960768918,0.10239423486437502,0.0705667796776985,0.047549513128038706,-0.010318498711521492,0.06591834304043011,-0.015197562478064848,-0.024395276335751302,-0.005959910816386604,-0.04217539904722976,-0.03673361968740826,0.040017400952281984,-0.0183847163482877,0.044975094030865644,-0.005467210428738643,0.028320935484387487,0.0020169885969372682,0.049409013846757555,0.010573131157160994,-0.039129949080124696,-0.008678353481000997,-0.015706743761340996,0.04465608118054565,-0.011842067978016367,-0.013768710526581391,0.12955505744163834,0.08826490706999732,0.017936285827839966,0.046057835237363794,0.1517803431630207,0.05483094770895909,0.05387003543948531,-0.001425898160074417,0.04389514722318858,0.030034582558018337,0.048195684856617,0.002805413266189827,-0.006466617444919442,0.020451785917806206,0.00402192994797109,0.015582065365145071,-0.0029964777035429843,0.058260034429271856,-0.040296505086964994,0.045895946696174944,0.006481060023327966,-0.032959016735801934,-0.022958030148510927,-0.02551575581386923,0.040350233104663694,0.06404872360991504,-0.010365599373548673,-0.020548959118805502,0.04730265696988982,0.0643332442277516,0.007542558445703269,0.02962977791442425,-0.0020716160557348634,0.061680933845465184,0.037551934301819696,-0.015809978277471354,0.011266311553337528,0.027570745247763463,0.06315029320851608,-0.009754333343687466,-0.01639885054596062,0.011892592139918584,-0.053651251072236845,0.005230244535151584,-0.037383019190517675,0.10566687955152661,0.002079091247348567,0.06534789317955131,0.004080646347688741,0.00783186125548132,0.02237908312177454,-0.06008044569146317,-0.02213885530613804,0.05883694230885491,0.08972743664592953,0.06689584576315794,0.06493849169099343,0.02051197049589095,0.005212967554069314,-0.04492800469233178,-0.047890903789051864,-0.004994094275040767,0.02150267142890965,0.013305512132246285,0.03215659718972461,0.006805099362304906,0.07548221807740532,0.04538637880201475,-0.02158098254376234,0.02241375242175547,-0.0006225267416922433,0.015871045141104947,0.06360162870101087,0.028085469561513844,-0.01001897303207605,0.01830808074682261,-0.03406433122693764,-0.039286718638159045,0.020309933463224964,0.055536941632862886,0.07904618716269167,0.019333761630803428,0.04167104645560783,0.0659198552311137,0.05897388131299643,-0.06375209174054774,-0.042144162460271445,-0.027293738091457215,0.009691279898221656,0.011857690097728265,0.007918587328251498,0.038313740323968073,0.05917487096875562,0.12371683865228394,-0.02003146893445633,-0.016980342077297053,-0.0460064885741851,0.007096097826490599,-0.07166266978061078,-0.04146867346581715,-0.019684538024709774,-0.022114786161850378,0.049620098797534914,-0.013842860259151246,0.009665076479981181,0.002729490826655273,0.02419981367970811,-0.0075383851618819305,0.04936629698556855,0.09187147955618111,0.05544618528700604,0.0835381792581988,0.054362585682799995,0.014084452298045268,-0.061658545212002744,-0.10252282127470234,-0.04910691535203937,-0.07006464266930401,0.07270930758976338,0.030198223683351982,-0.0001865606449800784,0.05817147489415735,0.07307555683992102,-0.017059513036956155,-0.0041655549332356,-0.005444864709789271,0.041870834392629515,0.016587065556461333,0.04631594520497946,0.016426919244482866,0.025707873010344766,-0.015795891402439838,0.0262940097436423,-0.06405422543685027,0.009702124019547967,0.06265978454990065,0.05884732692771238,0.07589211449284032,-0.009752314719897081,0.03958519394695194,0.06283059089555716,-0.07594609724123019,-0.07784634643294844,-0.12953184604450996,-0.09579259414724942,0.009368917381653867,0.11789480065467894,-0.004539562370114827,0.01621442197096435,0.07095319849498342,0.06504464110105135,0.07250925585161001,0.02138955691609423,-0.009204732068593416,0.007576354525056632,-0.05754519534044782,0.04374195362719593,0.01979395265202539,-0.011287125993378189,-0.04479084671822518,0.03338674112750724,0.02838579225475756,0.029895810751215255,0.01979233932111424,0.06230107570679079,0.039573820528411054,0.06991951040590276,0.06598182466671677,0.017386445078748036,-0.06853841332523201,-0.020785716588097147,-0.03762852653140475,-0.10230646192541253,-0.05051263890900739,-0.07184097540938969,-0.03102921343183932,-0.018660719979130908,-0.013802295023431487,0.01914636154590525,0.005822337379106788,-0.002558977550995527,0.011144835933727067,0.03525905415582323,0.03277929134449917,-0.04852781722645826,0.03104325211830966,-0.014214159689952835,0.023209282809332973,-0.028667561983319937,0.005466687467627291,0.004648438045276359,0.012310726917037287,0.0629467160659061,-0.0011477088766135822,0.008855398963546555,-0.025645799546433607,-0.08384712452116276,-0.05203407155540237,-0.09837753664609382,-0.1298897589980869,-0.08500469485992142,-0.057579729854385364,-0.043992135507799054,-0.0077439504947159985,-0.002743281048803569,-0.004379903095794002,0.04033759729755742,-0.007913079145391346,0.04207638130969679,0.05359783404962362,0.01591125342313981,0.015684633491501156,-0.022112071725202607,-0.04764744436972143,-0.007993782975694308,0.0813034422368226,-0.015161578672350698,0.019227161726199645,-0.030724677739296897,-0.01841181449842169,0.07599643536768956,0.014914876770824224,0.01363265907494543,0.044212637430742906,0.028834269775600725,-0.020312709115248125,-0.12364798174908752,-0.07372317327004065,0.02523769657988711,-0.07056001118060183,-0.028171528297247877,-0.024559986669811677,0.026383086911067638,0.050875520701589544,-0.045984822129415,0.01162774122365636,-0.036078681346470014,0.02332075715652138,0.04878444342097963,-0.00865392437091394,-0.049173587791221926,-0.03154388449896228,0.036107925889805007,-0.013472522754575526,-0.02921759509798695,0.06392808326605293,0.15672647987688626,0.10180349112798831,0.00023035284314792644,0.13111897593239102,0.02052288387478593,0.04528780976011919,-0.022257501270738275,-0.040969311577881785,-0.026040825194753373,-0.031595307589349045,0.008483854666127714,-0.03083231656798501,-0.015677541726388352,-0.04295768326505413,-0.026139457955199535,0.02337295186142617,0.037899117879967074,0.046160002730094185,0.028377467944138385,0.025545658806701517,0.0530252352660701,-0.003891013111348276,0.0075905227746222255,0.014161003414615453,0.04103712812273177,-0.0492162594421787,0.0386014013998092,0.021152562662728424,0.06397744752523608,0.03238470146731349,0.061030809565361145,0.07234446960033994,0.038130710581647555,0.005026189280003981,-0.07835982293323823,-0.07120292556999082,-0.06713057428537232,-0.011685518109280497,-0.049048988230156375,0.04353757344728655,0.006665123571023671,-0.02333482568853901,0.07142119653581121,0.03968521047739854,0.08740054820166439,-0.00025961501920985266,0.047647533889272044,-0.03628965553768475,0.06811298211995888,0.05966034550471402,0.08222358047180642,-0.008909627463686811,0.04742027554428994,0.0562410733171128,0.006441468945266582,0.07748171124073887,-0.033718193611816945,0.01865232720211078,0.08633288038013641,0.05064063762122357,0.06553436345906143,0.04999966921693781,0.009032211288120151,-0.07184878189955952,-0.047117348152900376,-0.06456956467980013,0.028664231050527175,-0.03963559714241572,-0.004395759516118347,0.03982058304150298,-0.02582544737653539,0.04003448392364813,0.012834074014636205,-0.022496177790512967,-0.0021767473266363227,0.0007765826968292424,0.03246968411748546,0.038123730790019766,-0.07160653135980818,0.010407315550671125,-0.00794005977031241,-0.05035141704088083,-0.0009012401774471457,0.08848506727644236,0.054242050770697284,0.07383208125118712,0.0616506087995367,0.10259533561971076,0.04872207245478839,0.047135457911095725,-0.022005756556631378,-0.053741554418860485,-0.03124878790431375,-0.01608304287629347,0.03676886390040508,0.026620935528814824,-0.03359889607994975,0.007758360286732131,0.02342997009031276,0.03618913373766446,0.04565995458168784,-0.020695350259167904,0.0030065993296235953,-0.010166958991807458,0.025425852584653248,0.01870173406105719,0.05180829351035412,-0.004745892173519093,-0.046152569068008256,-0.01232783577358472,-0.019041859323987668,0.015761983540122492,0.036416355079247086,0.0840960200335652,0.05119385334118308,0.0696412497986458,0.04799545807018106,0.05149578720819556,-0.03532394744319263,-0.05444777953163114,-0.025057626098151504,-0.023075786324788117,0.026480749092270536,0.03854947409261761,0.05557565343376721,0.014594665917046815,-0.014776481690272661,0.049662165978299234,0.008784188807259959,0.04766867030522592,0.021720713103763136,0.05036630276803874,0.08159299211790215,0.017190189084534513,-0.04836848314737368,0.019223081627730107,0.015274281644471168,0.07061271568925512,-0.023791755758045877,0.006345703863052461,0.01972882875308259,0.02911262366016738,0.0898137096297728,0.07054732493154028,0.06144154895028322,0.05280427316701007,0.04707037195631808,0.0076890141598530614,-0.03760664299699213,0.08575128130631653,0.02742206226705366,-0.020640148953824676,0.03221070157305276,0.02793122490604521,0.11117736530189255,-0.026193395263177453,-0.05159337635283411,0.0018649568046529375,0.013323085931121848,-0.02139544194961248,0.044004128032431415,0.03271306956234816,0.03198061363624636,0.05918507585210717,0.013873143419452756,0.005160148955056457,-0.04399027593511488,0.024180610685665266,-0.047000403693067294,-0.018190176176845853,0.061523734625400166,0.06610146312077798,0.02574754939362223,0.03806087269502147,0.03869513441571808,0.08068660674676147,0.06977814046253358,0.03278233379925893,0.025592262937377156,0.06086067962815095,0.010174886333738734,0.04106526955117852,-0.000865877413038502,-0.014812087864602917,-0.009488434042508886,-0.021907147933246135,-0.004160799955438491,-0.0508997513935647,-0.021068890931646673,-0.02150588189805664,0.0013978146070477498,-0.015714498154933622,-0.007866837904658579,0.012827595828678873,0.015198962527433281,-0.04968522588121691,-0.01671190026194162,-0.03856756518410959,0.0186382643320391,0.04944266764034107,-0.011224966394301244,-0.0002128346477602784,-0.017076094130083222,0.05512756381737175,0.05014313279262409,0.029696951155545562,-0.028842975740682286,0.017718780715404205,-0.02613505233017041,0.03319942505360526,-0.06566198794109873,0.05021216622557243,0.0015554182339008466,0.014660881032811312,-0.013451526333893007,0.039234276549069094,0.012452544398826275,-0.012771961487333455,0.008523975546476449,-0.00669612854779845,-0.05524286275309231,-0.013695564428187201,-0.011102149734342426,-0.0680140074666452,-0.07932639469937627,0.06379809486540752,-0.06293356792929937,-0.06524718887400298,0.025503513423080305,0.01727337884527241,-0.002886554581396067,-0.041637167454430565,0.0604114209945168,-0.05001981018033659,0.028851585478967802,0.050095997681652175,0.03315517924108074,0.015019855443379039,0.03981712265488193,-0.0066998594080216745,0.023280608338590674,0.018065134715559907,-0.017792962914103348,0.0019741339276872563,0.002727373786991437,-0.048567520803657976,-0.004711973496045065,0.05319998651116179,0.002054772141427691,0.04638581134756937,0.032668060089716684,0.013806663472642556,-0.01123815390208928,-0.03637753623006748,0.003286975241415138,-0.05151346955105127,0.013277307783679604,0.06710621740394529,-0.0797548432730082,0.02887106848858046,0.03473946425782839,-0.03370318266544839,-0.04209313760866827,-0.01448897599803752,0.06311387394631573,0.009171978844420727,0.008629045530837754,-0.05710211545984957,-0.0022309642305399844,0.05984761834174862,-0.016889230619297913,-0.03288504435687202,0.07708181625118252,-0.012320812580939868,0.05450365440007838,-0.01576146520971164,0.003409621595560546,0.016870343985165723,-0.024305405090123012,-0.01421748040095715,0.028308737444695583,-0.0032302304239126755,0.018196216100668336,0.03702413236276102,-0.02765440032681308,0.044405592740888906,-0.04000317090069868,0.019289714941402476,-0.04216971078351076,-0.04335452441994838,0.012505193136871448,0.054687037040261254,0.01803929763278705,0.009479897846921643,-0.011075667748647412,0.04276399810630072,0.04179850355656082,0.07698051075810664,-0.06989282161869018,0.029746331620196076,0.0484519919839992,-0.009741412375750064,-0.02568613097311724,0.02069229550826919,-0.016305236661143908,0.008077410041208861,-0.00764745651894903,0.00014766859025130996,0.027049631305312915,-0.003931032140299708,0.0376360363825852,-0.003712531021983517,-0.0018756032439936673,-0.01737150959327839,0.026577846880229225,-0.01491661266496469,-0.01399470894668456,0.0369181006091648,-0.03438262073739925,0.05073269659257665,0.0527613961452453,-0.0074014481805621864,0.007779204273704459,0.01103760462168886,0.0008275131651484631,0.007261498934595593,0.03154137735293589,-0.026458457186992187,0.021909019194115708,0.03563798001487139
0:3:-0.009923050058023906,-0.007854091718613497,-0.006611438044090004,0.0077315939631119775,0.032641084909739555,0.055952954110278084,0.0004161909723437287,-0.047534461989589834,0.00029389978656837253,-0.027614934377254024,0.07505774739083851,0.002199149075754735,0.0038636345435142114,-0.008319299898708814,0.00853092058346442,-0.01166467686177695,-0.03430308617110306,-0.014553039886764553,0.052225698531444355,0.09663022967881091,0.008785925365278462,0.011411611083981647,0.04673734784054313,-0.012859945102515894,0.04925020593565226,0.03572012980483455,0.0615448852502383,0.001164552437451711,0.02324765247181193,0.02137209234946862,0.05968822267964211,0.010038806565777913,-0.0011371040101032497,0.02991729330237175,-0.04802575310672974,-0.0007865205596772028,-0.05196540553654634,0.06633632511970791,-0.032370293317522045,-0.02022268039360364,-0.04240576847253653,-0.004495441736985358,0.021618458698803338,-0.04031150318856529,0.017642780224082107,0.005358898977668243,-0.019854959338533013,-0.0009363385294147187,-0.0044810788957943,0.014272837036783314,0.04587295414953288,-0.03134438419095326,0.00875555722060832,0.0007150835648664805,-0.022727881668195872,-0.04070120154516331,-0.06282376132838922,-0.049854170614454435,0.010992696059468211,0.00861773565829875,-0.04124980169009047,-0.0570694269060552,-0.05346058323647087,-0.018349265537032585,0.06251996437398877,-0.031905786464994576,0.018275490065612736,0.05132790121107348,-0.0288334587339733,-0.0012954903396323893,-0.03044615764825241,0.014752836804640262,-0.020460719304211984,-0.027705882593025876,-0.036664378168923886,0.03613011620343543,-0.023845080820318297,0.004133613589886427,0.025002042147216016,0.035342911217368926,0.048496191306242276,0.01161859126851336,0.010605508884701019,0.0499418220465264,-0.0430854932699735,-0.002731955685291527,0.02100082953892251,0.0278942690231658,0.00928327625403077,0.06854425396716632,-0.03345010961175082,0.015874221023228954,0.03605620778984134,-0.01385747773631265,-0.05556704748075912,0.037281616985948444,-0.021652936931247684,0.023401631681268048,-0.0026326366197032274,0.025619012222210684,0.01840067669731284,-0.0317179943504187,0.03254750419414868,0.06085191397995544,-0.001778372140245634,-0.048194747336338245,0.013606467969034402,0.004283435813596609,0.020146118469673492,-0.014493449706572565,-0.018722462433987175,-0.002713173658824993,-0.01479906133685871,0.016833273137860177,-0.01913970321416133,0.0029504895522231914,-0.01908341969933923,0.037795498603463144,0.0047164221328341175,0.02933825785582034,-0.033560427029861714,-0.014165037577552093,-0.05124361329778033,0.015226223737031848,-0.027987500865249537,0.009977497775531046,0.007636637460874029,0.03812027369965146,0.041237713454759496,-0.08015635741146712,-0.030622476261358313,-0.02303359753621715,-0.01535584009029821,-0.05200079207915509,0.0020710038974816893,-0.011997219413796894,-0.007505723843472475,-0.014294704401689675,0.03347791751414335,-0.01412575135329491,-0.04989072249543065,0.0035056041530936934,-0.008168249458877702,0.03191296467838785,0.046943205987761576,-0.03098794050136722,-0.03616201740568572,0.035595495858648275,0.0391064447657049,-0.0009003888396755733,0.0011263610465809776,0.008657395891356645,0.0316620508455169,-0.008313103509929753,-0.004145226618936236,0.01418922989935143,-0.009462823661397252,-0.025213014011729207,0.052638784622049795,0.01758614788454231,0.006910395357770423,-0.0762174869183864,-0.07012209355548948,-0.02824561223154157,-0.00027898472216045933,-0.06548809796797227,-0.03970697440521015,0.007407135885631834,-0.034860630069416414,-0.053118730751731374,0.03142068065435831,0.038282324622433965,0.03089903765888613,-0.03620449688119233,-0.0006366213339814088,0.041489797335007066,0.02778486219302811,0.011645667640241148,0.06312523565518116,0.016445746304566675,-0.03207671053532287,0.0760936584128006,0.02488043848600916,-0.006151602062091391,-0.019222952195305114,-0.06364765237426818,0.059727255604529586,0.02607294130851298,0.05220390558474673,-0.04777127007516252,-0.008204300137250362,-0.05371368500553559,-0.03748856316736636,-0.018107549963313412,-0.009014669467711005,-0.00837342669664601,0.03764703680045462,-0.08999933164125183,-0.01708709658349745,-0.012244647265089741,0.038811514113373954,0.021340158810368177,-0.028753381308367895,0.02132657492657841,0.014673677373639251,-0.0013300161403110502,-0.04076210775751164,-0.005239878348921717,0.0010527592764327095,-0.019358746671391355,0.008855127024987166,-0.04157777237019762,-0.04514926810320155,-0.012708376792173544,0.051661503759901584,0.025385746889599436,0.021024425475085068,-0.034175883642076875,0.0603701077091614,-0.003361163133349018,0.00413022542450375,-0.03669777820416153,-0.010707115074129329,-0.022648487583244975,-0.046926722743755436,0.07129110615482497,0.02209995983378019,0.04606045165802211,-0.016625457747653605,0.01344976193106358,-0.018877411937585475,0.046445122512730364,0.024801020715264233,-0.011238849786902417,0.0105169775325749,0.06308582393614781,-0.007890585549591812,-0.02886068451398783,-0.026356512631262985,-0.009095955821035562,0.014061966578743347,0.0161270256744507,-0.0687334453281555,-0.023150537077468943,0.04698964747797029,-0.026405392711847758,-0.003928839615571912,-0.012226825059183734,0.024088520272642956,-0.07969064031316815,-0.010554699972156821,0.04484337202545524,0.007204507826081177,-0.022743340704876262,0.04938275832524399,0.045977885714804254,-0.03600721918135646,0.02068221070497521,0.02374794304692388,-0.029813027831450685,0.0011268562317405656,0.0007935660820947414,-0.04943631597568574,-0.05721504147425597,0.02963997466695859,-0.03042181782849474,-0.0018513733352393783,-0.008167627929550593,-0.00872476210538155,-0.050804696118756876,-0.053743721720106684,-0.009645736512714947,-0.04308833772329218,0.01758199509198866,-0.00867364732517794,-0.030600321212640905,0.05803388840431768,-0.014747923642056716,0.059866717480957204,-0.04470223436940048,-0.0576518943264324,0.04389078121767647,0.08132047275582596,-0.0067473339346753826,-0.0024717849166001854,0.014324548304596453,-0.025453138135718468,-0.023091049043256776,0.025360821287714868,-0.016308614428340317,0.00841054297811203,-0.00206470575880235,-0.015728893346189845,0.013482523013389583,0.003784123043452103,-0.012416785454707513,-0.012661124403821732,0.02174302299591034,-0.031751739312985014,-0.057311525624565415,0.030270471591809806,-0.006287765582427383,0.07971623498546243,0.026684945019808868,-0.037850847016757394,0.007294674186842397,-0.054076740102686496,-0.004937518954627202,0.00036632815812763,-0.025828311618891597,0.038508666672336614,0.015355245071460962,0.025896621920761156,-0.02094834963484,0.005795958392418261,-0.03863626964335345,-0.08471398001376221,0.02509167704855313,0.05511842122024618,0.03492004026504113,-0.036274231845499876,-0.022462013191327852,-0.0034106539448964493,-0.010318959603881067,-0.020027385322713205,-0.002898285572060349,0.03272700328758376,-0.06208411958871474,0.007553153011220768,-0.03252187737171138,0.0032102257491131406,-0.04210684490098048,0.033018954351712905,0.01854588460023138,-0.0206135957773758,-0.03660441359352509,0.06478047126770337,-0.037222155443565774,-0.10042529985793366,-0.014280470589894545,-0.015087199392587035,0.0015872542789958442,0.00199154214144346,-0.01805690277735815,0.019258134983705467,0.009116944060218063,0.07319088187625335,-0.024130663812421915,-0.061201038108687815,0.010519744193243639,-0.018035703804467212,0.062287854978747725,-0.04593121712762747,-0.05279952297791419,0.01566087099901748,0.02643998987513435,-0.04360480880346786,0.004934292770349358,0.040998601725826214,0.045483564355181645,0.0470276949936143,-0.04199608548374864,-0.03036297192521076,0.016989218984278676,0.0669616858586709,0.022143980994173074,0.02080489893432541,0.00163881741630027,0.02756481834274856,-0.01835266372410022,-0.033693550667488664,0.00256066787671212,-0.05785639531216579,0.03223224120560326,-0.039336889860070536,0.009429166740086656,0.036197949293867104,0.06137023450898382,-0.0043436461101028405,-0.04890119096523933,0.0022818698838131023,-0.032438479248815204,0.007027680016890123,0.001911684450329653,0.020743394777221088,-0.01862430074572758,-0.013132314758758737,-0.03627662627122247,0.0670348009004734,0.030534164364032692,0.033565578264182425,0.05112002480644514,-0.014263412936191763,-0.03961265223260126,-0.04394698275271321,-0.016244592918874676,-0.04362309320261558,0.007828569246556612,-0.045696303447132186,0.010317683997969618,-0.06647122901737516,-0.05392911248072639,0.009850082945885786,0.016258163287181045,-0.06466136130842862,-0.03483772195992923,-0.009712760289673291,0.0264786669309645,-0.027553931144065773,-0.01837126083279236,0.03351177347098632,-0.0005950169988631194,0.041930351552046205,0.023553741825427545,0.012027756935971865,0.0019726823685482474,-0.01453502335324902,0.007248253774419356,0.047600507800760264,0.02874268984870634,0.020192791648404654,0.05209401583500993,-0.04804082775921423,0.0186254391617533,-0.004471214982269256,0.043677310356530934,-0.00034665067127204245,0.02381915063527239,0.014403582216913548,0.036455228189863596,0.0550265220703466,-0.00030901830333703376,0.02008703072913737,0.06854249048193736,-0.031877053774000345,0.036556624025945304,0.06054649533987729,-0.021531947182146675,-0.0017546127098599614,0.0362874111643268,-0.05270069901586877,-0.05369733403972533,0.06711650720787335,-0.02848535548233199,0.006063954089002514,-0.008604212385907948,-0.006158743737145655,0.01632253413693635,-0.013372297887775681,-0.00566477159322327,-0.024377366772931883,0.06583304597839174,-0.004579886437486727,-0.05611500772049586,0.04987988253026272,0.03112043227743262,-0.003550378731864145,-0.0004093813137052684,0.017190753980923245,0.026504598565912182,0.07771085244145509,-0.034745650370093875,0.02182152868504099,0.0003745863503232335,0.02825272098939214,-0.042449367376284235,0.02691627054753895,0.031010018675436127,-0.010075339774930655,-0.01056096361231461,-0.07065880616993864,-0.015563282908926708,0.04640478255582575,-0.01736441335110651,-0.009508329242476432,-0.0031877794805637992,-0.05620725895254919,0.02079257609632454,0.019960754952562478,-0.035158141578750815,-0.007745434286769547,-0.017652972534360583,-0.02876725721457788,-0.011341280024356765,0.009989231699084266,0.022171716695150875,-0.029366444524405795,0.015859699850102292,-0.04518116622494552,0.002623688224360827,-0.044541527511405256,0.05710766963736677,-0.025585715543658537,-0.0014929318726246796,-0.026855748093495505,-0.00016301800727670045,0.08259374957758184,-0.02314785413486095,-0.032578185691393584,0.06421513684714128,0.02881189616822525,0.040373658966869716,0.03425645943840188,-0.021464877088234295,-0.03113489574324149,-0.02825020056200539,-0.06707505399127137,0.06357143231980933,-0.04061816039752106,0.026173619650572737,-0.02663156833362658,0.03465731758844521,0.04817215302692907,0.03347628720357299,-0.0023935852540357227,0.030978022613753087,0.001388097495276242,0.037634537907066994,-0.0012307970688328787,0.0046143886463758535,-0.016609300268690074,0.03394137149579355,0.004273988369937612,0.017916159674822418,0.020973275544051085,-0.007696641092677067,0.03251551967161902,-0.008939740501982785,0.001390364339073713,0.03797301291473334,-0.0339014572550132,0.00928028372943056,-0.024663272101286722,0.036211850774316184,0.007739230417016535,-0.032220288477619985,0.0065474643413775575,0.009552854523796759,-0.0043688456469006785,-0.03980660556965918,-0.038999247140815395,-0.051008829305713904,-0.018254142542811384,-0.013670113609205394,-0.0052086708868371474,-0.012547383930163716,-0.011301711095920233,0.01646544858986816,0.02197789842595668,-0.004244721831093633,-0.030014043117088697,-0.05052144930848106,-0.09385627276889845,0.025399600863551763,0.007021183276720636,-0.008112569454517023,0.02019425014714671,-0.014337308028798883,0.004601428871608168,0.010815531302550028,0.03521395437783364,-0.06930721992410868,-0.03229309732127077,-0.026544106458218194,0.003445141242216304,-0.02174764166268285,-0.013253563199450853,-0.0015651424358213049,-0.041344964922801056,0.0010183614881148252,-0.026052174328773336,0.06155719605609864,0.022478465355665996,-0.043646884959491546,-0.012635050910298299,-0.003842943397670607,-0.00684494925008129,0.004267128848722079,0.059073705079046045,-0.018676179924223615,0.009173597533732843,-0.029919541985618317,0.01783474560275717,-0.007566327408559308,-0.021957397925268397,0.013714737292017071,0.009733759230116636,-0.010411724775738387,0.008824365941784849,0.005134516422036498,0.021914718897531462,0.00500927644294934,-0.009583901343727375,0.04493831124180558,0.020696347242137276,0.009018212954620951,-0.020163483414008154,-0.0036275238408280644,-0.01743425032470349,-0.014203390613371277,-0.040619993947528917,-0.08139516607642562,-0.014081356290329994,0.04193940757964057,0.015177035894683857,0.0012811467155161341,-0.015749125069973727,-0.0009724939395953236,0.0076211368801767845,0.032122659036383075,-0.05374915697520001,0.008158322530565436,-0.0008015544417518116,0.02359399099602244,0.04387133754262805,0.014176539048358023,-0.019123933894178404,-0.00031356777895929486,-0.03220704997571797,-0.026207901772428956,-0.016477570246994897,0.09073372281330583,-0.0005266209964906491,-0.01870418813289569,0.016648289049050285,0.027179215596622917,0.03321153875728461,-0.087207686524983,0.06350792283628837,0.0391354765955117,0.060774404983155374,-0.019149084778728894,0.03413667721008482,0.018630311065569553,-0.013400151368299652,-0.031182006001815036,-0.0024901228902955565,0.03574007795962196,-0.04763952536867693,-0.002589353042580033,-0.021134505923288076,0.00829064892393855,0.022351450887396904,0.014032216909960801,-0.05899534465535957,-0.009843855564037203,0.04068226678399215,0.028946300490343146,-0.06632695033219828,-0.051986483234552724,-0.027251329341675675,0.00391395875187648,0.00833281340895217,0.011468193255453177,-0.011067277671842778,-0.030701261980559693,-0.005879669725612421,0.021043864007772334,0.011940828153569501,-0.039860489918470327,0.04003771481521711,-0.023889076184653472,-0.008241819430970214,0.007271141025337041,0.03152129644347526,0.0371267597300678,-0.026203623478637774,0.0030881457722529318,0.015845321215424254,-0.032466813846440123,0.060169756822974124,-0.02510479890352525,-0.04217760995512865,0.007481410223203641,0.0015689326777399842,0.004856424123483138,0.0476053605871149,0.01443173334141495,-0.005378610968946123,0.005535670437552598,-0.07314793777478969,0.030313255237167477,0.021267570785181364,0.05013049779508855,-0.014038655383627174,0.07495878721492254,-0.014670885812437121,0.01799241178121538,-0.013418701659704716,-0.011053590429991031,-0.015222631758233669,0.004768514803026683,-0.027632566748027377,-0.03351199335453256,-0.03858559770161832,-0.006223398008593535,0.0570951025292248,0.048069361095155895,-0.011722014943780976,-0.006512861996581633,-0.030123752965056504,0.04489152550125646,0.0680169560358076,-0.024433482895341117,0.016861609832255247,-0.006567334718021146,0.0034274085231603794,0.02631729307447198,0.009386682282473502,0.0860426308461263,0.0351489805961497,-0.03311329544028972,-0.0017259370285277555,-0.045646548468374085,-0.005790517185104254,-0.05341378237622363,-0.023333093278923786,-0.014029861228023499,-0.06244770086721578,0.057812065995724846,0.007102232878013398,-0.08254344707976792,0.04674820106060981,0.0923213472765902,-0.04495508761585548,-0.06626242101355914,-0.01706234897530875,0.018615150117327332,0.007198302164538182,0.004830906791066504,0.02090828547499147,-0.03505594179895774,-0.009625946991137198,-0.02277793779902117,-0.0221759931738005,0.02651136327886713,-0.01847017062806225,0.02259947630592974,0.03412909193900805,0.021581771742899936,9.614683541191637e-05,-0.01774773684759202,-0.06029309492559818,0.0595306228241287,0.009591644019884105,0.04837889850886429,-0.0009633531140417808,0.027525833964404868,0.02153442057414498,0.029087906773633095,-0.02537763729592432,0.05094627256130291,-0.022052461828217535,0.03642636471552925,0.027076564632833755,-0.01154143128338878,-0.04006839660168293,-0.025833634090384833,-0.025099675415397427,-0.055801605382177266,-0.009188579451379152,-0.028947359193856912,0.0010548100916614683,-0.02172201886002391,0.001611122170076135,0.01562551029449097,-0.006518223922673409,0.000603564874661983,0.09099060885309597,0.04358003731303655,0.051202940197053654,0.013435840420268904,0.11410829715613387,-0.06930175141798772,0.01675472530704069,0.009973665801538498,-0.04417674578780469,-0.021119393079784048,0.04832827198752619,-0.012281972352986085,-0.014161591583547892,-0.007365368473972248,-0.02411220892273426,0.020352629287749065
0:4:0.012975882221338957,-0.01733067881127445,-0.02698370214246617,0.03026915921404157,-0.03935173709235508,-0.004692741739244429,0.020757249244585517,-0.014888681545631678,-0.040946936386623396,0.032524845897492285,-0.05835381354518222,-0.04381265740897995,0.04800925152594388,-0.018450400074803825,-0.028820219155586625,0.035119912502890566,0.016318968485706457,-0.04311307322294443,0.012050440962561868,-0.02907049985170322,-0.027574680159389443,-0.009879036473460223,-0.04092387656935632,0.007181487721654484,0.017104175276506567,-0.0022870446154579704,0.04423466893429517,-0.01904718932468078,-0.06220309790614234,-0.0069086016754775,0.11273918661558026,-0.01617588947210313,0.04534658198820824,-0.026358079790147433,-0.02095017748139725,0.05403397314871287,-0.028018517313105083,0.005412499164603587,0.0008450167568933224,0.06035781193706835,0.04073833824761004,0.02178455199939685,-0.01473904581483395,-0.042245121594558364,0.012778021903166176,-0.009004708807451635,0.034194339545678784,0.012918420626057931,-0.003898311320351257,0.009009950979994828,-0.029173136803068277,-0.012447712044929256,0.0566255006674955,-0.03582488590432752,0.013527109919772108,0.04723227355547777,0.038391757918628096,-2.243899275619668e-05,-0.01136132565989004,0.01802491225769458,0.02508591925135769,0.00794721917591794,-0.039698972864770005,0.05192660306573638,0.026357714911098926,0.019857045749972695,0.04512485442736526,0.02259748517661742,-0.054539015915426065,-0.001389849691138511,0.011727574778461456,-0.008315785754903427,0.04445796347893829,0.03217481054139598,0.041480661255698235,-0.025182292285307578,0.003442091665094195,0.011939329480405277,0.013245285968476028,-0.023790753193216663,0.0386871384588119,0.03281707936856357,0.05045753530707924,-0.0023589941622822806,0.02172719262715071,-0.06444108493829154,-0.016272044694158876,-0.015528447320231464,-0.018839221333787463,-0.055125277263698785,0.023181192763283565,0.007492056036259946,-0.03360782072456348,0.036436871763031974,0.023396586867548242,-0.019381114004919712,-0.08330159742937053,0.05267301692302439,-0.0033540576652977268,0.02716717605313504,-0.02403361858443267,0.009391338939545548,0.07641246844151403,0.0051614803274622435,0.01934088157943704,-0.00913192064193377,-0.05573781455270484,0.0292279496024505,0.002087260231264524,0.0033148137782674702,-0.01754623118597989,-0.06496468843828537,0.022146816640478507,0.005514676543319653,-0.04623213999722921,0.029917447654917797,-0.006407963499722229,-0.0001923107864926508,-0.0050436955330644545,-0.028790931554778198,0.036895943194513246,0.018164985785182625,-0.027298252369093595,-0.02383448611555194,0.003943481046434089,-0.0009694747186177386,-0.05091880561743307,-0.02224994888945287,0.033249360100846025,-0.010661307033723757,0.028086252980117035,-0.020799895788390633,-7.091522407964138e-05,-0.0351138871043609,0.05413918579288107,0.020775571954210523,-0.03585460215200067,0.047674832521716955,0.07599997636598528,-0.004463562780644886,-0.08132519123159265,0.03053899538201448,-0.004175972448727831,0.023996064034632968,-0.04996987227714247,-0.07573854144481307,0.01948362472462147,0.018650961451048855,0.04145247612734701,0.06375766508349488,0.04258008935227827,-0.0005567580229801351,0.03912386633400301,0.010093125967064133,-0.0018535134225488475,-0.009715252552385856,-0.04500154208344142,0.013972129718315882,0.03592313134213218,-0.0267318951449332,-0.006375411985805415,-0.040586027367782794,-0.011937527971935577,0.052836069559198354,0.031651013926092555,0.04751088095247233,0.03703222533979227,-0.06827827485532159,-0.021555053555797517,-0.03983716468363754,0.008822872023041177,-0.020403906316000996,-0.014014770572462233,0.03970867002407778,0.00278243427505696,-0.07666101301848725,0.005592441050531801,0.005171228447983975,0.03153401013838951,-0.002246410154689385,0.006355016946270204,-0.09971744626344911,0.04433803139868104,-0.04517760543387751,0.004612646452671116,0.006958595892672572,0.10221257379163112,0.025498792421583916,0.002960660276729323,0.026588748028065597,0.014153134359217622,0.01500447606276213,0.026205055015276386,-0.010934307912375473,-0.0019939135866229546,0.028584311134716274,-0.018427193300307884,-0.04514433034934194,0.05447119704641529,0.010612517475565481,0.028950863586656137,0.02425299758313886,-0.04959393819193132,0.008897617474697452,-0.02149702051789034,-0.016637809564053124,-0.043212998532666504,0.08148724548090554,0.018437530300454096,0.02208787733148167,0.01626596219455183,0.030584616709822966,0.02777330735093432,-0.006475946066832083,0.010667735499364003,-0.03175647040531401,0.02068559192217636,0.0162949841801982,-0.011335785805622924,0.009067027586794193,0.05122491673460308,-0.045303837162272896,-0.01624530540974029,-0.0013805256137045389,-0.041653752232276284,0.05030183298581184,0.0038686222356021944,0.04548255681142234,0.02541375250273368,0.04327145374243945,-0.004248675833027644,0.001011311613235996,-0.02420484128064985,-0.016651515181786227,0.05203154435477374,0.04907860480211373,0.07144072123872523,-0.03140055161190534,-0.013413160645859424,-0.05328981461175465,-0.01856043281097869,0.005936505060541392,-0.07815535111943457,-0.015884750595382635,0.06496564162656633,0.011220505898190338,0.003021905180920999,-0.06068279310918231,-0.055530333483585485,-0.018376519902473083,0.03752072400838363,-0.011568147280499364,-0.012458584957904249,-0.011507456515213961,0.020452862179537196,-0.01859912935385986,-0.054980158893755245,0.014534947737215734,0.0553956973823449,0.049946427622842876,-0.011791827502152926,0.03471454840205921,0.03437141601150929,-0.02036227018525721,-0.09123282655117732,-0.0028067354628321895,-0.03022430750814996,-0.03869100591462783,-0.018696979315868383,0.04221641892335206,-0.05261876852980164,-0.04904368808543268,-0.044220022310733,-0.002897356857279806,-0.024224839360088426,0.03255437428439892,0.013018784925696976,-0.09073552861235763,0.001700937589683021,0.015491874745399791,-0.0027844282649696858,-0.010571757468757409,-0.011176851811240748,-0.04972861289211555,0.003324378142420216,0.06612907465660733,0.023088802337882658,0.03281063508436188,-0.00899642580609673,-0.0633626136614057,0.040727150213762865,0.026900210184570145,-0.017953954114834313,0.06540759156400867,0.01372678659848484,-0.03554926654943072,0.008745857548412644,-0.029765758891654667,-0.032732445102060866,-0.03636924128077597,-0.05474970449021614,-0.04128284583037244,-0.030400623488761134,0.01934248864648138,-0.038267121427461144,0.009489501681134339,0.026521650129600248,-0.03231986118298527,-0.04334222975478773,-0.001136829737239955,-0.06293674731504839,0.03753650166945479,-0.011959050890663896,-0.0614750414806686,-0.03957947569043358,-0.00424133987967414,-0.07542925669225181,-0.04014918311789868,0.08972633402309435,0.08670486529724863,0.06452337324214223,0.027015401734748225,-0.0010974550647622362,-0.006455639417084773,-0.001919162092757454,0.043873834455359494,-0.012625730564940228,-0.05210977735719835,-0.0165208856706478,0.007094442563619277,-0.029269540517429547,-0.011864839217695117,0.018413282925108156,0.03344585309602783,0.042756606178238794,-0.03468970988693248,-0.03242027536154678,-0.03698405386405295,0.03607625006774447,0.04103953952872055,-0.09332987117434259,0.008697403665562018,0.036210991041775914,0.044176170594073264,0.019917263722380882,0.07614752826468507,0.034102153391797896,0.1018460701174272,0.04597784245136292,0.015916661169706185,0.07439990838849479,-0.013279035161209533,0.008716802995848661,-0.010384188545839213,0.07889093021199867,-0.011982165312010452,-0.035079871568801296,-0.0024797169402886675,0.05584515824077067,0.004187940197646704,-0.028398655330450363,0.018463438099037038,-0.046966440156670376,-0.008613343869328187,0.0055646536163381985,0.10556339537554195,-0.046831266271064584,0.014274911660024535,0.028485932837046514,-0.04316183123785533,-0.05676882262188115,0.0521211061098139,0.1018849912977478,0.06990697314366202,0.11020857329900063,0.07340309306513375,-0.01729437596473176,0.025758940739362895,0.00023148373426830202,0.045140567123090114,0.056545152827649325,0.010391534675547405,0.10334403151526625,0.07414897167024563,-0.04270604902219498,0.08449841780923281,-0.01596137023605711,-0.036741943497984056,-0.009513701812039347,0.0075691597192416304,-0.015164589921069855,0.05354169158586206,0.0026592441788952587,-0.0028994480783060806,-0.058878826060372265,0.04395830282083482,-0.009872741902389742,-0.008546905802984976,0.0335511819461692,0.05845196439321663,-0.020754928845659843,0.0405005819508337,0.06273305659544276,0.06978837691168666,0.05665710035787415,0.006614492277938522,-0.08415943440958204,-0.023037811825909457,0.06397907525782716,0.06271204402616,-0.00012048296449817724,0.08124164300377813,0.025320232343994314,0.010122438874022277,-0.03505910949131242,-0.002026864569335803,-0.0053761540721578415,0.013935616526261936,0.01654765076808903,-0.017750027414735508,-0.0488703608374817,-0.009734215617791614,-0.009632915035221807,0.04670016814833807,-0.04102779781228105,-0.06733791848427934,-0.003652289307165752,0.01132730299375058,0.0011542426710161285,0.031983506009852294,0.00497688599188913,0.02752634309563541,0.05140181165077616,-0.0064542268239666896,-0.06407382574368925,-0.00702377394916629,-0.01832647933529255,0.05298278988506808,0.06705566360060806,0.06256321166749201,0.10975636379537622,0.001107531345344335,0.040099195780999776,-0.04410785500316803,-0.020767150054132832,0.0050945530017086306,-0.026200186360552918,0.015766632919554834,-0.026903283670825964,0.003449521155060595,0.028638637313892903,-0.0066443588012307835,0.03201145076791608,-0.0031187292414268275,-0.06204458199332639,0.07447978682491196,-0.021992382354333602,-0.01138515648478204,0.009858497909257859,-0.08486227709457546,-0.011499774560006828,-0.018523959013583852,-0.0379485529517417,-0.05800968077415815,-0.036661097873476836,0.07040815321000035,0.01465796907368765,0.03366137494693567,-0.0009548455843894742,-0.037193027706069054,0.07288392373278076,0.005700864210067997,-0.04197650445713623,-0.008827375353935626,0.01731477233243446,0.006948163384468115,0.06284518758494437,0.029881755680140752,-0.00471150219868916,0.030296344147075882,-0.012912709983954516,0.009065613454834975,0.002713260654369993,0.02800986689300169,-0.029385012940885063,-0.054363026105063175,-0.06647712062785896,-0.08253746017401033,-0.08785856584904854,-0.0895607362438498,-0.01512642114973431,-0.035861287278089966,-0.002450094736426928,-0.06949383518915042,-0.05348697646647886,0.004849560951010649,0.036029209884962485,-0.008906451638393934,0.06967951690456199,0.037476791371494594,-0.07724684897684526,0.06950542523537456,-0.045380962503439336,-0.040136483902226495,0.053364158174137886,-0.04268912946971212,-0.046651271051606394,0.04586728386728617,0.05396290508561808,0.0013258462954130706,-0.017785396650827748,0.016769773308197348,0.007112285411527659,-0.060323416291484355,-0.044269160960228426,-0.04685969345477053,-0.04167049596152902,-0.08905802409900031,-0.0962229655243157,-0.029972915638398986,0.03854025449161322,0.08083483874489485,0.04744154034316416,-0.060153185200832134,0.08384280383134012,-0.03462697811868008,0.024565824395995025,-0.04421934811771382,-0.06951744293994551,-0.0035789132335165524,0.0918891450552555,-0.05326677517180156,-0.01004091572893317,0.050621762380544284,0.024753748418101826,0.00026200464213774145,0.029123366487926322,0.006509649731969289,-0.018137391189782758,-0.029425455277904973,0.0037136074774970144,-0.03665685498256685,-0.04026562424634248,-0.03349668433341214,-0.05671396882119307,-0.07299720113027607,-0.11019996423342543,-0.044298950031395085,-0.01952643476985429,-0.03088697808797744,0.03687458236344155,0.04045057699416412,0.05241488988608561,0.04240916549120581,-0.021519206316293574,-0.037005193040034134,-0.004556566830161085,0.04662298210054741,0.02421832223742567,-0.03442406852279752,0.03119409715911,0.037291598068344534,-0.013543216011717613,-0.023363421996932032,0.024800182482235006,0.04563395906605555,0.042700565070967235,0.03542872175632187,-0.008799167998740275,-0.013120900038008393,-0.053290714422221434,-0.042409617716643686,-0.06945320902627228,0.013115802564970708,-0.04755393009213049,-0.05008284479261931,-0.006600955451419407,0.03995165141341608,0.042620111805360364,-0.04608301919466944,-0.010420237210198937,-0.01924348523343336,-0.03272591404736486,0.004333486315513013,-0.041486967831729345,0.027617515819407617,-0.03924331230087664,-0.06726198605437982,0.023607900676596814,0.052975954419009964,0.03902909842470661,-0.0019908526031120026,0.03032668071780152,0.023511804103437346,-0.0004141062295106671,0.022690193633642004,-0.0804373572588071,0.019761274679587694,-0.03669018092097951,-0.05867609640120835,0.010710423264578524,0.0058647031886190585,-0.02793155689429433,-0.00445955920931999,0.061611556450606966,0.06647271270288298,0.024937653657160573,-0.0028142966322663022,0.01770732269920909,0.052440581365423594,-0.07839952420494438,-0.0357660660711016,0.03280131090030041,-0.019222981877507945,0.04871723518447981,0.0002973936218588223,-0.04223832432683861,-0.017178562735871126,-0.06618909295074872,0.016758524377858255,-0.05240306139012208,0.0024072680855088927,0.08956011201045842,0.012993489244689726,-0.035406760675644765,0.02926665861232555,0.07436064052410235,0.009940291600819943,0.000185875693581535,-0.00034577614350486365,-0.011589797846122745,0.00033167602387063603,0.04483605763075379,0.032100742702553205,0.021906575161928895,0.01560557473773596,0.057721810873311824,0.02878544971319651,-0.029847281014480503,-0.07182559229499985,-0.012202617211923903,-0.026140584693307198,-0.009373752260602462,-0.0708093674109137,-0.000177270248757248,0.011691770611500467,-0.059199329090587234,-0.021564755325355782,0.004956144812275149,0.0033838230427435984,0.03950304432854504,0.05195354814825513,0.06666141060093807,0.07066388893939572,0.036112782456735625,-0.013594268537798257,0.03625857186548153,0.060738850799370386,0.009646749126041293,0.0709176072129497,-0.033860324449119204,0.028822075138185948,0.04304506378797646,0.0038445690065668178,-0.01057476450668234,0.022323147442181453,-0.011606239387888346,0.0023909557946573934,0.032384024878309055,0.011096762165024523,-0.045381886389112,0.008515947039466922,0.020470297780915536,0.06178051725019079,-0.025492819537766,-0.02720795084904685,-0.013935375621564142,-0.024695155965765447,0.014432494896253171,0.008890677766019092,-0.02834938027297099,0.08654620844493977,0.019677501410583897,0.024783235781923638,0.04353375890648382,0.01852050246919215,0.04152508898922826,-0.0016081952222124433,0.044054289563786354,-0.08827029919468167,0.03121539659277192,0.03665402708005216,0.03627377689850389,-0.026000010854814865,0.013850971112065588,0.00841982168743046,0.055802188785268575,0.07705285836575237,-0.024172881910815208,0.004873291860593116,0.034609991081304005,0.001600133754121994,-0.008814452399399155,-0.08380508627558028,-0.0167824848984046,-0.027181976910292394,-0.0003924842796684771,0.061051353027832676,0.011208948732953751,0.02837058781493184,-0.031314922666779176,-0.005060741660680953,-0.06438795226169315,-0.04520064705609659,-0.05346802526093779,0.03023059253986623,-0.041510665469611095,-0.0029304868712626627,0.055670827573646484,-0.046159374288277474,-0.09214044965162634,-0.014398422915074928,-0.004702854999964211,0.03393752694614243,-0.004397149766841467,0.025136361882624036,0.01240604735802794,0.031739378659794676,0.03436021173122194,-0.030022306701335228,0.021623692894628906,0.015168276688909441,-0.027952855216939604,-0.02932184209152119,0.003079786890194986,-0.00936881091650303,0.03805716512058531,0.028481844212946417,0.12107259050199991,0.025097787652094968,-0.011108071203910799,-0.005073583363279585,-0.002223511748899222,-0.013940898212423577,0.016241568919967243,-0.038172506562188624,0.0073052576733371455,0.058963000346036555,-0.05054911555885984,-0.017566484626148602,0.00016563616808643508,0.010975101617457699,0.07348948234614192,-0.02605589552566576,-0.037543709729483926,-0.012316596693650036,0.024452470513520792,-0.02010798137472689,-0.0160264612208399,0.005112489185903341,-0.05355347944075625,0.01521871066704402,0.01994792131509714,0.02230792074166991,-0.009295812188043213,0.008993794263830724,0.04735052715468029,-0.019055266036495877,-0.029168476633445226,0.009495804479841436,0.038429879344726796,-0.013102147787331573,0.036636146908508395,0.018718195283120416,-0.008777818219354265,-0.02655055864890174,0.003130869607601884,0.032164645796687236,0.005964158451951014,0.02768932832580803,0.05725385348287294,0.024876770831835347,-0.03023506417144016,0.05631468606290977
