-1:b:1.3653006090647815,1.2341674676765115,0.9501706096481173,-0.26254851693119363,1.5495685502042276,0.6668150813138605,-0.3032974384389937,-0.12684212340988132,-0.7928864086173162,-1.8494826785216882,-1.7924043254345268,-1.6245619625655108,-0.3458151685713919,1.0296074249079474,-0.4912580647054142,0.2162482387348316,1.871848543125342,-1.3986188286709411,0.31181463596409803,1.645583265835786,-1.9320684134651973,0.11173566384462066,0.003625888531358883,1.3201907456545778,1.2380914821376345,-1.2659550158291122,1.4617770633792269,-0.4435139840590039,1.9788199713853178,0.509562998345582,-1.8442508346372941,-1.5229623250478745,0.8779709059527392,-1.7331434012551306,1.4006796955867635,1.1819181661512004,0.6960573231715795,1.4207993752010653,-1.7092424774050836,-1.606619289076324,1.3776785742948447,0.3150035516264743,1.265485065777232,1.1913019463746681,1.707537025014243,-0.7893823700966147,0.5962559945328401,0.07167663582311658,1.8195058342606134,-1.6463252446529677,1.2107367036565386,-1.4502811320884494,-0.9205172925245835,1.2516886396752536,1.6325910351336828,0.5463783253454346,-1.4797510547142227,0.06883113221256357,-0.27695895684709093,0.03319744488972558,1.1350812481175423,-1.2138691205270997,1.0214575329602436,0.39892843282629553,0.7724529064699485,0.9300184508774957,-1.0000100169399704,-1.6659631128677144,0.379162031279945,-0.4962496760550061,-0.7378855270835745,-0.6208028091240931,-0.8750127099177545,-1.7157603919439963,-1.3655153485646645,-1.9685739672008413,-0.07900847629951484,1.6849067039257066,-0.7035847755450537,-0.07757178541398968,-1.644750184841151,-0.3715802539334395,1.9957902601277946,-0.6407657372506343,0.5566041303399377,0.057447924879823774,1.1506006388985455,0.3867841029977598,-0.21693649731270165,0.974526399559585,1.3279914448088483,1.4260191938431592,0.9447604672028497,-1.7014187389609465,-1.1573167505055348,1.0922315260258522,1.7194476008927793,0.7012399667122533,0.9304131970612682,-0.4351167662249266,-0.15570290334317263,-1.3813662488385634,0.5433684844686059,0.8113292445098925,0.9601003235605836,0.47159361003706873,-1.1907898942785473,-0.507448746188183,0.041010974194528975,0.9150369800729273,-0.4937139778385822,1.9787709680016592,-1.4046264086822768,0.8846661592264183,0.45615461822149456,-1.649463507666233,1.4135947978009693,-1.2455002593047637,0.18982246001529346,-0.4265769303445303,1.5091776664040844,-0.12359340973620908,1.7652232066172222,-1.5390119545158925,0.9890219392743873,0.8149427814129866,-1.6023086009682048,-0.28818313114996064,0.6550302357462829,-1.383817214414162,0.4568164349606305,-1.2263985651046045,-1.9448203021094481,-1.7728918739041166,-1.47662751970913,0.6867272532756153,1.2945409278045314,-1.985691990951329,-1.4558094659645993,0.14892898124868695,1.715003767085054,0.22715255216090569,-0.3851459606626415,0.6237353576565263,-0.3142260942389314,0.4450146526550395,-1.906630987860002,-1.129889066813289,0.8681964063256621,1.2821839627566205,1.8356636794105634,0.6729777210143663,-1.559010317408223,-1.8862212730761128,0.30074092580798756,0.9970712528097808,-0.02998663546577974,0.3843149786828491,0.12418061782499747,0.6183037945762625,0.7969917681860523,0.20439324779355433,-0.8242016365044014,-0.39194428287687066,-1.252712797883789,-1.7201487216961207,-1.533248268196119,0.30370684908426937,-1.8848168828737144,0.296008191474457,1.3905211005399682,-1.2368329524534398,-1.050318278555249,0.23922131511996403,1.5631245926487574,-0.5773243568909128,-1.8757609933470047,0.6644203836423561,1.260255673995502,-0.8188216326597896,1.9497324810167085,0.9929898775846067,0.2260931973878198,-1.7752214070304335,-0.5083860338272644,-0.034052212600639654,1.0794233596914162,0.8060939248066651,-1.2427706744464055,1.2330506996495045,1.0177867814897577,-1.1077470247522525,0.8740199675225272,-1.6851327913566232,0.0075574921947237595,-1.746980890653759,1.7609079933668939,1.8809435828844405,0.9732263729623629,0.6480363465551623,0.7056579476204686,1.237403594282571,1.2966894707790013,0.7634732193043183,-1.9476243093105858,-0.7494403615938721,0.24330906810595748,-1.6324243395574993,-0.2048316896027629,-1.1016964570931758,-1.7305410424046936,1.5998951181840362,-1.4302718469814266,-1.68352292682779,1.72735725433377,-1.3684405286309693,-1.115753419905356,-1.6198666788818876,0.7220002876429791,-1.2777127949329854,-0.34673836094536414,-0.18989815176762057,-1.3918093898780644,-1.199730896891149,1.9721166813543967,-0.24700763380403487,-1.6550715379659846,-1.0170710453090135,-1.432264007292353,1.315007364479111,-0.2298870387924657,1.8476844490410287,0.954383756786053,1.1961845019567026,-0.8906169720076469,-0.019597772263793604,1.0543174155508095,-0.8705956364162708,-0.36014401473029073,-1.6580893904416545,1.4798879535499703,0.032778643197855235,-0.11513335316214299,-0.8214298868251644,-0.38317539071672335,1.5658619094769781,0.47376351584249726,-1.0052249065792784,1.4652511280547624,-0.5792831529029331,1.6832711914266103,-0.215152198571681,-0.027784302292986795,-1.8253735436657794,1.7356793719006636,0.14706687137839283,1.3217036714370234,-0.019137759765086335,1.7027620659420122,1.6878180659408895,0.05923759694676288,1.5611335433010418,-0.04044556941970362,0.9339389810335291,-0.5551171549922373,-0.34310319209805007,-0.6056059112023545,0.09228674977304133,-1.6785174625859116,0.28967574862938944,0.11269337536919233,-1.9783758311953719,0.6047885549989789,-0.37360873101178443,1.2583119965173895,1.8754883417366528,0.7597263083562111,-0.10688915963103891,-0.13806078904369282,-1.574966823839981,-0.7891708313929454,1.8848324912568748,0.10945419407554183,-1.8215729305843364,-0.768670167646902,0.20264897058330805,-1.2991371389218247,0.23005042425134298,1.1148134699910481,-1.2135940670481697,-1.2778228929486786,0.9846787788152833,1.4548074927363481,1.0511700965770474,-1.3205069023234253,1.1699252249077134,0.879289115735026,1.3530700369079391,1.970334183658167,-0.4517921560523197,0.35501557566536696,-0.6482878411595072,-0.14302116406304713,0.5560911512286846,0.9045154977838984,0.8486571756701571,-1.0787327739968955,-1.6076578263819634,-0.5102087260836756,0.28775937230694043,-1.1218049569218103,-1.047872666628678,-0.7259256019097162,0.4978934925740932,-1.188906112892206,0.3992672842227012,-0.6791650613899509,1.369651489081358,-1.046482190596294,-0.8975471793079912,0.739293441966882,1.4554252030037707,0.2882209679057373,-1.4366273301362487,1.2063398826573355,0.32186237024905,-1.8363176121990978,0.399090381879613,-1.9309907396162873,-1.6886954254568156,-1.8606863404833467,1.9536009850110374,-1.112103184138117,1.5336483488288815,-1.1572899924617186,-0.3028828864113826,-0.5720277915077235,0.6348253645676101,-1.0226358533256148,0.387662520162264,-1.6350272871738625,-1.822842381388241,1.1090307054279855,0.44012064546953433,1.415062739702095,-0.7074933196953495,-0.5478507768030991,-0.537511448510941,1.5664763903553869,-1.1340743570597094,1.2444923582928336,1.5047309590476012,-0.41517597587483407,-1.899210595735323,-0.2416504506295919,-0.09265853129087678,0.24545613337940914,-0.5061793457783653,-0.16952930159546223,-0.25926443175060726,-1.6535031072071225,1.2231655198698423,-0.7419875429213697,0.20544613110071042,1.6283840573667954,-1.1572913728765708,0.2565843162311746,1.5835726102140424,1.2098323560173068,-1.9652187577365399,1.6207369608177478,0.13677825558718915,1.1347481008580338,-1.265569821480844,-1.7828652381399808,-1.7574514937902066,-1.454310784627594,-1.0541438903142124,-1.7412990785501634,0.21645131925535835,-1.0591992885423096,-1.7961610217163315,0.7342372458224377,-1.9300026578637035,-1.6429806774578615,-1.4110241646199153,1.4010651680144635,-0.5093332395517872,0.8019589384043183,0.5413676190143993,-1.1831215502422494,-1.121688898489003,-1.7160257443112434,1.6592491010163926,1.5490400641683963,-0.7306860234978495,1.4900875055692717,0.4059250547609209,-0.8064079906862605,-0.12698811768625712,-1.2149300934869651,-1.2291260378841566,-1.9313645407934614,1.0965856616820737,-1.5220083925503785,-1.401856163323525,-0.19654413300014706,-0.4370240466729128,-1.7808056523501437,-1.0311115204336865,-0.32895921426102903,-1.3934044166598554,1.3951166591883257,0.9038883595536064,0.1705493290603292,0.632980368591167,0.7571160330541503,1.5814250614427015,1.0223085402928636,0.09522199512957906,1.8985703501900462,-0.8505710657478671,0.9023856577383327,-1.2599650874249027,1.091983986020418,-0.413310485776976,1.961160821153611,0.16450984812076477,1.577519321274863,0.71625488776695,-0.5266091215129464,-0.4550085620452243,-1.8466129407814362,-1.9365468162138075,1.6054172636231192,1.7846643426841344,0.15871328437580257,-0.6568986435764588,-0.8858245437794371,-0.6231291193055674,-1.1402147303017962,0.7350786164750883,1.692009510719486,1.9775142216413772,-1.6035244017134174,0.07537933499602417,1.0858042611267793,1.0954487331762977,-1.3618939253249107,-1.72285985510051,0.6563903104913564,1.4877975746770316,-0.3042212469825326,1.381443009267628,-0.27570160377647157,-0.5866293774805562,0.011219476721393942,1.6441842981404644,1.68687533464699,1.1779823058211718,-1.1674985783659428,0.5297965273737529,1.0492814249035318,1.6272571737818669,0.7943709983040327,0.8139415675451901,1.3838606616716893,-1.2676043186825208,-1.0988384401379037,1.720092344001466,-0.4387037941343234,0.5426473510975282,1.2961956681180347,0.6141114092234498,-1.8065238467016678,0.27090062981751317,-1.4010607614405792,-0.31339943525236413,1.4434434455874015,0.04444864628170082,-0.5968162613370047,-1.0396733147718265,-0.4374288197962921,0.7563772689085897,-0.7621504367632604,1.4099415161952114,1.1242819524793175,1.3745583809341295,1.7880985599754948,-1.8555054966973663,-0.9002836685920546,-1.833196352486679,-1.8921087586382246,-1.88741222156371,1.4950089697140005,-1.7982227132621613,-0.5773687845373549,-0.907060521634683,-0.3101847720225323,-1.8267897010918959,-0.17487281978504352,-0.3412320334518787,-1.3151819411695813,-0.4553446740948859,-1.8946821056116026,0.7048658144677505,0.7151267780806035,0.032155117359865475,0.5181656709474621,-1.916687428179741,1.4375572260492981,-1.4767554765083264,-0.2806467194264615,-0.7937955492645719,0.23877231479198563,-0.22548880630116033,-1.4992565096696118,-0.4261245940208147,-1.286517419773419,-1.163214693175349,0.6190259765771716,-1.194434262194998,0.8833980888901827,1.1412241841694324,-0.2912606379167984,0.09856324832883691,-0.1979262739563523,-0.6051533220772304,0.852154399886252,-0.1187090001525771,-1.4606860909189447,0.11448618395358857,1.370155611466953,-0.6158593284253556,0.17878862629622197,0.3016605435432344,-1.7036103855370355,0.021531958645836752,0.2645228041492157,-0.1978122444135423,-1.8470125537288271,-1.8831178559838495,-0.20547016502769,-0.05076697156449611,0.6952987015512083,1.86995791826207,-1.8997723666083468,0.9724958907279947,0.5074617835840481,1.0178564522053248,-1.777218227516057,1.0522944424036058,0.9436290197706035,0.6987891268377584,0.41204113917329943,-1.4151156084380285,-1.8696304506616173,-1.373705850201588,-0.8964713108452234,-1.3904100050434525,-1.296786104459017,-1.1816895372178386,0.2566048223301255,-0.1221407591755893,0.05821848032660247,0.31271239302146236,0.4723724903304492,0.49027519489412796,1.795566311815133,-1.983909716555249,-1.3093948343872173,-1.609804209839624,-1.1777842197245154,0.9099224646577201,1.2170239713177198,-0.2686617380055567,1.3248264724878678,0.8579767844379792,-1.604876264565743,0.17615085108980164,-0.4755882320333993,-1.6060279737898808,0.9645139586006584,1.3125768758242713,1.7528069349539437,0.37046860768387085,0.8104536991063069,-1.4685514010125829,0.22655841454533468,-1.6885639516638324,-0.4486479031543627,1.4802467638068746,-1.6862170752226624,-1.992529350682883,1.935833292981966,-1.403227529218133,-0.14501321214650403,0.40594790101018574,1.4518170215939294,-0.5058460430040166,0.0867384218788929,-0.17611715518108217,-1.3591907050448473,1.1539278860852822,-1.1381657832182852,-1.1749405527794856,1.9771794999562853,1.884857387568063,1.0955922935747362,-1.3834320820164079,-0.16671441750934907,1.9744937145171977,1.7523995185702643,1.632130813577014,0.8998551510453604,1.994194609492922,1.4329597281194246,-1.2177589767574029,-0.5144147782053785,-0.06635765876994291,1.6063034377153642,1.2716253729937774,0.776523292544302,1.5086952351919096,0.623887084922887,-1.834306309280691,-0.30534389883431995,-0.6780285573835905,-0.3555465282149488,0.7009992170605627,1.313866871901344,0.5094143237443801,1.4776496835525252,-1.0589163401093398,0.705112513789326,0.18883813901156757,1.3804089286493715,0.1910855467798945,0.715038499016708,-0.5761165717811061,0.8617624386654624,-0.9189421028984632,-0.6729351529681975,0.601264403346391,-0.19934856301387116,0.6612812424932986,-0.4978262386902208,0.10069692025669108,-1.1980580624902917,1.9360443607163718,0.8385134929150863,-1.9214544687832862,-1.9041565329676895,1.5769324299885135,0.02873551414418161,0.2060939667586437,-1.370443682627592,1.226928523644489,-1.9048948825931116,-0.8280929381793747,-1.266477583827815,0.9621473417597749,-0.7668504878691579,0.7262551212058453,1.8668306362057756,0.41523853456570287,-0.17543298980468935,1.4479490799335029,-0.9536176114521372,-1.4846496905142006,-0.8344833673373531,-1.1025937816166675,1.6932232863981334,0.38936020650193764,0.8037807799237477,-0.6236930024748749,0.8317210701225478,1.342638835975789,-1.909657356128537,1.5505053511654416,0.7895676507925155,0.8780000259481463,1.3138046674001014,0.0758621211835924,-0.36595219600576934,1.3945580390152297,0.1262535104630291,1.862975698849499,-1.5441305051797283,0.5627092275541765,1.4742001517897807,1.5958566181502631,0.6642803558021859,1.7032219847450043,1.7396321739246483,1.4576438416093407,-1.4086564869689826,-1.0321468312561777,-0.06456681998253865,-0.9178369880656772,-0.4117546804410992,1.9669299035474925,1.4314051611354914,1.6725294697082467,-0.2669733378810058,0.153676927032343,-0.12029211624556362,0.49977154700709037,0.048099130495752734,1.827570100706431,0.6941635133624501,-1.7253385832403154,0.45986883470398127,1.0090153067222263,1.0654449385763272,-0.5023483510458793,-0.06199879622341115,0.7779373588734299,0.04938001550139321,0.7744038474692031,1.2608111381722669,0.5377894625502866,-0.1962829775700712,1.518801518350336,-0.7936137221172531,1.3258590387132638,1.9562596515324482,-0.8874522049720235,1.4078717298011165,-1.6033908656993567,0.47446874071097545,0.7468959687607323,-0.5216705705456304,1.4476698439871198,0.11064769685222267,1.9138644957268536,-0.19623951190291405,-1.4217761274841583,1.0490379608558877,1.0540109299566292,-1.1642170999737824,0.20646444651086332,-0.6150354670572451,-0.37052874598462515,1.5787786066402532,-0.017644865019508037,-0.12298783368508087,-1.7712896917530077,1.1666633253691394,1.133973166983483,0.6274367883998606,0.9658366657234567,1.2933194772807413,0.558175312054376,-0.28794110772199266,-1.7265334188428816,0.23851086822625983,-0.4694086893331533,1.5435932516723572,1.0274261248069736,-0.41933642477761746,-1.9467918635463604,0.7184224224335255,1.7928974241845366,-0.24354192395469754,-0.9641403279912751,0.3529631664152009,1.0841290051109305,-0.6186004293721608,-1.316133084507329,-0.6612360238856098,-0.8576004934419478,1.7073754753504542,-1.1801720533777038,-1.283980111194726,0.38573319123948935,-1.619202933551454,-1.6708466781947426,-0.6275192758372874,-0.6367667422247822,-1.6824922763592975,-0.6429276427343829,-0.2073430963942302,-0.296812561837986
0:0:0.04617302208265959,-0.002801769703144915,-0.013066952779382747,0.0016247300852356948,0.06404596603933975,0.02578110314129667,0.011758271575181225,0.0028869807589083753,-0.028494590055568605,0.06007422132428218,0.017806260360343322,-0.05386093645568444,-0.0022673245290188502,-0.08339736067000308,-0.016442875281892883,-0.012821900933044573,-0.07437775816467727,-0.053482445132246655,0.04565762953520463,-0.00718716508219428,0.060781657485889054,0.025935076194503512,-0.07704249591040246,0.010347480288196511,-0.0637548858062379,-0.002302110126546318,-0.053680562109403356,-0.06717581497619814,-0.022607539982318226,0.005776417938757885,-0.018474230622864667,0.010204455439409782,0.03560328297304031,-0.0521075826713836,0.04206608081800156,0.008973225468741124,-0.011182945474455688,-0.01577608482876694,-0.06127918091066886,0.008757205333059986,-0.05466260257045506,-0.013430490111282483,0.03285451292879248,-0.036631545395175054,-0.05066006039260536,-0.00829038754371864,0.003461962851257996,-0.014073582936949679,0.03413321812723323,0.02881456628770938,0.003913042359332831,-0.03773962154822881,0.030509838984169084,0.021326056868525102,-0.009749970633608792,0.036199516460036524,0.004431062840741145,0.05427325267819778,-0.04928818784928543,-0.04127812799133558,-0.01051452719129678,-0.013151040639585046,-0.0022964062424493097,-0.02585431488771647,-0.0038469468041452434,0.031759415729722955,0.004006138012578176,-0.03103151514581738,0.07623029841251037,-0.04320774709888511,0.01941620869472757,-0.023802817272085306,0.03204411928857548,-0.006153898128041264,0.03220041590047993,-0.0019023780820685654,-0.002863951287161263,0.01082128438472507,0.016265977144912173,0.06574106184619968,-0.07516365578412154,0.003553186553308632,-0.05038880409449386,-0.024579748620438872,0.015989938101662028,-0.03925533811619187,-0.06346491405623146,0.00506977976593772,-0.0200278583814461,0.042912313033380924,-0.031488238459614515,0.03453835624551117,0.013278108177059616,0.04069146144398515,0.006653651381412789,-0.004687912613383354,-0.04492956060693028,-0.020160636923080247,0.0044507773130509,-0.012874044792887215,0.04377063045672351,0.014556581794064213,0.06394968360192153,0.04624114383491687,-0.017503693155721204,-0.03476480033038192,-0.0329269620140005,0.011110824600820449,-0.03845575522465388,0.06449693984662865,-0.043467356762145186,-0.045398739030772794,0.018614851777230247,0.06085018981350967,-0.0007758509670481725,0.035860418280277216,-0.033429751901979894,0.03294199402060582,0.016662861156112853,-0.017199505916547866,0.025480985797068825,0.0732049289443367,0.029053114985053172,-0.008710695104737279,0.11029461328781774,0.05049427421472601,0.0767074965046468,0.059484414586818746,0.025526298531876046,0.03092140394600987,0.013669750925583918,0.004724168330289584,0.03464700373431894,-0.003973728913156682,-0.03069868442806495,0.045173899053736775,-0.01502914219522381,-0.01847583894768298,0.030328300725587645,0.002475474421032764,0.0012315715967247563,-0.021412240580335758,-0.016031596882680504,0.026494346387108778,-0.002517457915428835,0.009949268239218914,-0.027465288051560875,0.02970244018877042,0.02341058114200994,0.01927998877455408,0.05898102763270764,0.0366729750491499,0.03695512278214672,0.016166704010555998,-0.007922731640645369,0.024725364978787075,0.030696219825443214,-0.0005212616379480118,-0.024245003274110704,0.037197278603125834,0.06984002908327037,-0.039927341283030604,-0.00042260168479612995,-0.023566948310055312,0.04043412638636985,0.06246137676784849,-0.07731403891370459,-0.008019010682492743,-0.019900527887979576,-0.005830713013913538,-0.06758773349270188,0.02203561820287706,-0.07300006809943986,0.024777016596323295,0.013380871042597393,-0.0015646656021649583,0.10587610590117563,0.015890158046246577,0.013380607554430074,0.03216335192254754,0.01893664580073289,0.009674902316830322,-0.01681364818868771,-0.056475896672638824,-0.06469528105904188,-0.030417986370886777,-0.009250502833782056,-0.026703810749218338,-0.0020455203076644884,0.005456957482402757,-0.08843152924198132,-0.009919869451540256,-0.053233717068936925,-0.012711558958445637,0.05910047951655149,-0.02743748491972752,0.05621474887528103,-0.03962525620741662,-0.0016035928296434497,-0.017490164724619013,0.05470033126168608,0.027044560074971094,-0.019870915501598,0.009248580669831015,0.0041378280885757965,-0.03714756126568852,0.0521172571267041,-0.012353238170163495,-0.011452728456900275,-0.009791311467263133,-0.027234934935334826,-0.011034992772816872,-0.02169826964295808,0.04377471069183326,-0.013313558769063132,0.06174559514788194,0.008128779312424861,0.012764337803953127,-0.04384797564758423,-0.014302914982525122,-0.029284468913138486,0.05655428965254253,-0.06882989105439566,0.03803742100979938,0.016090638063324433,-0.05713385005376079,0.00018569612829419567,-0.006708413768936444,0.022472030147099146,-0.03303379551032657,0.051634051620649296,0.015623937981801802,-0.006675421114859098,0.01767370421569116,-0.00819792665427597,-0.0011623143698958856,-0.044531794110752164,0.0010253931090836008,0.0005631883075191014,-0.016473864973451248,-0.006164409364929499,-0.042287833616376405,0.0008888144819879768,-0.08471178400004324,-0.04024367013321679,-0.045119826391341405,-0.037352056530808565,-0.00833136723495945,0.005952952927624527,-0.06970263727666352,0.005768428425003287,-0.04253462044901637,-0.03478864252070901,0.019695571932854795,0.006226709220147543,-0.011509991461071943,0.014846449235249361,-0.04419798791258849,0.004154933856035263,0.022772490818904742,-0.0016816761796921633,-0.03219632104557242,-0.05650476748948595,-0.056653713716424116,-0.06205281600342563,0.027171278271451767,-0.031008717017436918,-0.041395647152007026,0.014969670269942767,0.12377006711585307,0.03201621871576691,0.016747864020680077,0.021837083216401536,-0.012352522940803563,-0.018693698382518015,-0.01640938301641137,0.02048841529290649,-0.0646228099531263,0.0018201094340198976,-0.009677930862818882,0.01956033521691338,0.001677049555750872,-0.030412501281820693,-0.026211112362319218,-0.004808036648737489,0.023367149654772525,-0.0563127336637582,0.002804215368174815,-0.03564151850259209,-0.007079989909262319,-0.04073444694694336,-0.09075979912159919,-0.09551306431009737,-0.0471141327911541,-0.006588027990573869,0.023369452310727217,0.0014790903037970276,0.006814938747034242,0.07529847697644847,-0.0296487011746154,0.005012715511521164,-0.043697829133794434,0.022638241031177755,-0.026850898023565887,0.015721353918171324,0.013852652807264483,-0.01707526388168167,-0.01563561489868783,0.04845886934962368,-0.03305018530987582,-0.06164253792370414,0.03820999381492224,-0.022230167257326402,-0.01463404920561877,-0.017628687163074842,-0.043393961212278086,-0.07836984379844901,-0.1017636282966698,-0.07092974439737841,-0.02656714995997626,-0.05228961327368038,-0.04835717072611326,0.04099622704059107,0.022364263726118452,0.0843511211852043,-0.025734919479943216,0.04573518016758258,-0.04588390891761765,-0.01656484481152725,-0.030482774939114166,-0.12782727054089427,-0.06698797388013468,-0.050351382410957275,-0.0063934422274636695,0.014192518401026625,-0.0012012394149266321,0.06450255269525278,0.023870094036593514,-0.0017319285193085807,0.03803025493371791,0.029850048200235436,-0.009179429566419523,0.028832618627143886,-0.0424370339609619,-0.018723942961442194,-0.12095228917570425,-0.07723185711301561,-0.0781490988604763,-0.022793205184995148,-0.05904181015751117,-0.035466294389489256,0.03227554466284151,0.013286037066699393,0.05221023043180288,0.015118712583673925,-0.015640239448618483,-0.05487522619113232,-0.06419740081117636,0.0391834351811871,0.031490239570630574,-0.01366563120859418,-0.007933353685771699,0.01667210208050747,-0.07188781105969051,0.0007491661979070018,-0.006828451961625241,-0.044430226995061495,-0.0013517448937267894,-0.010023379261491008,-0.05377604954244487,0.033959935105398575,0.02895367256870186,-0.0438554556357248,-0.07167589828585459,-0.05655660942131944,-0.02733100448683437,-0.010965554419665903,-0.033781136781867005,-0.010843102090949037,0.05474920171693402,0.08523401629535782,0.03360090464673491,-0.05313961254171747,0.004974838514463741,0.03567044194461244,0.025340189759166423,-0.005351689253416522,-0.01674239452835446,0.009732102417934324,0.0006848905397631813,0.04671625291807581,-0.016747175031971106,0.05101494488196773,-0.06625982029944856,-0.008098394880585077,-0.014731859519178088,0.050006091313828056,-0.002373382660781438,-0.08355341404962018,-0.003786493095189068,-0.04719466342089475,-0.02243653882520589,-0.0033115438746426436,-0.026715250147296067,-0.08365637101811614,-0.039245951842259916,0.04331422910657913,0.02923818790534952,0.0439435531497019,0.001792461931786646,0.09068079640539192,-0.05270227202130577,-0.02309771393656568,0.03004105732694056,-0.005780160221214071,-0.11260790717106321,-0.025950754995285843,0.008279458061860277,0.04571753250896941,-0.0646223115044653,-0.04442032249664569,-0.010503278943016751,-0.012844229621501845,-0.01783419185912618,-0.0011180637468047548,-0.02848411775423067,-0.058207027747402114,-0.013577469580752675,-0.04363405936301462,0.028250793298741264,-0.03203007329542799,0.008807920018269973,0.017514061170473934,-0.010194562854542502,0.03350147698226446,0.01667792532814982,0.011537951680903588,-0.004553781968214447,0.011965199071590422,0.05402807060287037,-0.018379654193807122,-0.006333772454257281,-0.010743497086412776,-0.028276063377646054,-0.028513350605261334,0.004841869311145654,0.010236413545712971,0.03588773552675838,0.04058960302808348,-0.010524256565862655,-0.034341966776110136,0.006699316590735096,0.008812132315490068,-0.006436469724658954,-0.020146801530958335,-0.01541741337368586,-0.0284319997131598,0.03840470591965334,-0.00484260552781199,0.036466228891042826,0.07433813987005712,-0.011158924590341871,0.021456260924370425,0.027374733926234848,0.040080251973243865,0.054691088195924345,0.02167018778974117,-0.028456021547587047,0.02546776924120719,0.025618029479808433,-0.01807733639066279,-0.029125277851630015,0.025817089351753107,-0.009846302702806916,0.027073914754759894,0.004947425387089314,0.02860092377178652,-0.010324016050961712,0.009360028074288014,-0.027565564067776376,0.005373344597449764,0.040330273434928274,-0.024959862919691288,-0.031773524795914845,0.033560483253911706,0.1167722130414884,-0.0205343978405956,0.041530641600967526,0.0499458030160551,-0.015445672181263206,0.020114011214163355,0.05674691053797088,0.04507386803588012,0.06555628251224124,0.05836917961476809,0.021113160621666138,-0.03276358656380234,0.007260705946018784,-0.03959441908042648,0.05343172811861085,-0.001380360180645182,-0.0433232280654366,0.026021209823537027,0.0061212714157058016,-0.023167671158551843,0.02881672464828529,0.03652169863789025,-0.03375730074903453,0.03272557057266616,-0.010375572959272593,0.02876481935565306,0.02691310611275167,-0.0011180156996918066,-0.02423088847996808,0.0977445584687064,0.021815176204274717,0.04033465763376101,-0.03173981295453281,-0.02672361095521861,0.03954096136382589,-0.014115938809038234,0.0595928217374873,0.010624091621501446,-0.020309554657313142,0.018343830020014485,-0.06188434857567311,-0.01733319677330418,-0.02086473131913174,-0.04365738757196604,0.05309203543954054,0.013325784721956918,-0.03416985460780802,-0.00881888570822441,0.041930222307242686,0.04222149059230466,0.04876199668397443,0.0199955178749233,0.05107111715012063,0.011327489315456291,0.04791500509567825,0.022839167418939484,-0.03537716222213787,0.05597565478661315,-0.01455530490127298,0.020299496812788535,0.07303481505800047,-0.008999777014469686,0.04741247758651836,-0.005430442867497461,-0.01890643826399745,0.006592898323609722,0.09188330223712798,0.016677992094558003,0.04484325694957006,0.012829805261414733,0.04085436981501057,0.05045125818874268,0.006429410533451278,-0.046821087850311145,-0.01680085048852844,0.008043306211910335,0.0006670084917001387,-0.003911775047674293,-0.029243584474371677,0.009250501504144052,-0.012362555343427695,0.003413496577591786,0.054208705820100615,0.0388069398589405,-0.03787986383177366,-0.06363191664999085,-0.005961288053559975,-0.051003600427822475,0.05278587925459802,-0.017273246247187322,-0.002140663305963369,-0.01709724738396784,0.0511668009990598,-0.03123938329743487,0.03242745179314221,0.011602067901293546,0.061118671686968114,0.025437004302517382,0.03573671542063744,0.02398172279467466,0.011563523910853617,0.027900122963521023,-0.017641537498955747,-0.04720059097395451,0.015545733446851402,-0.031184197054085115,-0.02251967229250978,0.03026035513092705,-0.06122209944260972,0.020110754830919994,-0.01577224504411863,-0.023398614640775264,-0.01340448475688464,-0.03364761162771815,-0.03411692943707883,-0.010284225155040072,0.033483157698517535,-0.015058508230185485,0.0035231916012174744,0.04884233628127863,-0.05309392051949716,0.014244469237330703,0.035287533036482466,0.012587710818134165,0.09287256391727332,-0.02811597908614065,0.009161403979954751,-0.00791919684581683,-0.025683977645485793,-0.04473201016183822,0.009578028400176068,-0.01918515767565404,0.04517569012143031,-0.04728853816876115,0.01445402131091154,0.06564939432407263,0.034583933530280754,0.044833890241780736,0.02053409025153871,-0.015786406458490953,-0.019662993101893754,0.0013952098472948076,-0.09096643386257175,-0.025388054830578835,-0.0835911029989946,-0.022819140940831054,-0.0018448611623398284,-0.023102669659878124,-0.007575057425191753,0.029109391358962865,-0.019155266736218035,0.07570855578137634,-0.015923474118418355,0.026132295306237466,-0.0012173005131449303,0.054749413080672965,0.020134260929400034,0.0694564523952328,-0.0483517163269863,0.00034310706956829925,-0.023778812011936063,0.018255022471755422,-0.026369078005348805,0.0010601644528782366,0.0025569924399288717,-0.013672718221731283,0.014158282900544748,-0.026104106081641324,-0.04316754863938107,0.019990611340634876,-0.022700023344851366,-0.053579324907325185,-0.011149801829365001,-0.057764690814637816,-0.08424748038812883,-0.010136846974775751,-0.009009256204008716,-0.012912654039916135,0.039775176401492356,0.012813114571227803,-0.015303241847199757,0.024624801006290612,0.021468161690303487,0.010394174100524586,0.03516363326619866,-0.04797613808922177,0.0008128481931213774,-0.05863908623386263,0.00624205801367435,0.08100328797703957,0.0401331204835167,-0.1039708136023875,0.016296622449465385,-0.01614343205750522,-0.04294613023984229,0.017399003104311958,-0.0665236533015743,-0.04701754266910125,-0.04335746229845108,-0.04424345046543973,-0.08863985878642561,-0.021606204993217623,-0.01568361626336191,0.011856215194405237,-0.00241060202315233,-0.067749988446567,-0.02508928097154895,-0.0637048034760926,0.020399252848814785,0.03146408954599307,-0.043442561077013137,0.013244581215373356,0.04673668893886235,0.024034241912004397,0.005744026070552852,0.05228247006152152,0.017307147722487447,0.04580588353947735,-0.05617655618235178,0.003383758457553783,-0.0033815050427331655,-0.03267616417821032,-0.04098590759407864,-0.03920845704935113,0.014649326363150979,0.012381783353117324,-0.03625495265416753,0.020304919729091663,0.003444267010757173,-0.019923992339884553,0.04998617611583362,0.007264313291159476,-0.006058851251772892,-0.02429555292539981,-0.03523555469775481,-0.012657667545018583,-0.04530239282812336,-0.0114026047820511,0.02979094586150605,-0.01719478206508171,0.0579324398028179,-0.0022504859904187453,-0.022269663424456524,0.03582628663582561,0.01713884324563681,0.06061796617289099,-0.011267815556689957,0.03884716658925328,0.062021401141752114,0.06033847493019589,-0.06810569523332521,-0.02206417737306804,-0.008622684662507357,0.036387474795559885,0.06187691669597794,0.011039955765025576,-0.015101909550322439,-0.018867786882278196,-0.03618497588381133,0.003407997523127094,-0.019917352281770155,0.029561771108773435,-0.02586378543579506,0.0349807325210498,0.012274164578447443,-0.00799717584743727,0.016230486630764818,0.041209189890377904,0.032155240304220914,-0.033187637001698515,-0.08813818975043858,-0.00814990340871595,0.028827332795240208,0.0073244171070779435,-0.0010307817400629596,0.006240634979458482,0.032440239732668595,0.0512606850375573,-0.028400870106130682,0.050669401412206605,-0.05679577641866817,0.05988287097302131,0.012485354822101148,0.031043502309169625,-0.028388181259674256,0.04707302851966366,-0.01058019292333739,0.04716073357749153,0.029270623252493255,-0.025993889965503753,-0.05541532849869698,-0.045452998648655464,0.02388584874194791,-0.04024817521394227,-0.0754549296606422,0.06558397606662043,-0.011691643624068545,-0.007074830049523764,0.05415346952441012
0:1:0.04556472274394977,-0.03920007736696156,-0.0014491893913871866,0.021338133835428156,-0.0070660584075903626,0.05984723367417026,-0.005207194270509842,0.0010552577644184036,0.01734151274436798,-0.0610325386690623,-0.05074883246146486,-0.003302782924443322,-0.04088131470266846,0.00399091650438922,0.016416701929484603,-0.012386567359423036,0.08602899985710542,0.02337906778533388,0.021983364201630134,0.04383537857693227,0.03251336905272487,0.008565648478496581,-0.07353174241512789,0.016480828807436787,0.010327666670478242,-0.08682556596432076,-0.01786634351279982,0.029301225627210745,-0.034669074867536294,0.021754751707782908,-0.0647703994386743,-0.04535670234260499,-0.002519201610290601,0.018475008132814975,0.025573194187082014,0.0029200544530484296,0.004642441075744836,-0.037545522589254365,-0.01588790636374313,-0.03769136478509149,-0.03906780504987359,0.009558268544955667,-0.004510876590641452,-0.0642756530895716,-0.00013648344358007785,-0.039509877997638054,0.04791299045088395,-0.04099000849479133,0.023085568348440083,-0.0025036536162524334,0.003609432263796882,-0.03906380344350365,-0.029954347627169774,0.04088974274835224,-0.018722978546312403,-0.06599558956989038,0.001194269094757193,0.03543205498573185,-0.009630823653817552,0.03226411555012621,-0.02269754954957734,0.013522208901857607,-0.061071509837495874,-0.025671299024500042,-0.061930168965331864,0.026446378470841768,-0.01140641248900271,0.05869773700739008,0.01600243262817036,-0.028337850515546048,0.02115813176195241,-0.007387555028582399,-0.005477600217716508,-0.05572922133078651,-0.02518940503102724,-0.0022228726690303314,-0.04225424903983731,0.020668210934484784,0.0160253148076418,0.061845658918799,-0.07484000960612419,0.008534006560037504,0.004408914161046526,-0.026186231356720702,0.009644691517110674,-0.00817396693038644,-0.059171480971532964,0.003474250968893536,-0.05149802308224007,-0.006510938001403395,-0.018894110318944404,0.02455797166954685,0.0030523070453672843,-0.03246236428823167,0.005836725045055479,-0.009340933568025938,-0.0006534941223974303,0.042645473122553006,0.05356695591586487,0.021119523606819672,-0.01146771761435066,0.11067829024073281,0.05355185735009326,-0.02097444371560592,-0.020740598385528837,-0.06311849847608438,0.006699220130617406,0.03860283439125842,0.020306321756450675,-0.04087841220473266,0.05526199629394261,0.010924443575372752,-0.014740463558901414,-0.05024266623437496,-0.01691049859579733,0.049317982752680685,-0.012002661441728997,-0.019759502509659212,0.010105654065037781,0.03211637247614412,0.07015673377301397,-0.06491455448668844,-0.05507045560577099,-0.04427058730383557,0.031710053225639016,0.04421600344624294,-0.062253450637309055,-0.003110211979672157,0.002703236651066284,-0.010344895318646366,0.04772975417748685,0.024759660342092878,0.0684492032678381,0.016781388834310018,-0.013398420182866017,-0.06249708189422497,0.07386815014038156,0.01654649530107412,-0.04290815954164805,0.013297808779747277,-0.004538142782472761,-0.011795311603752206,-0.026207425764663603,0.020804184965695863,-0.0981348165722073,-0.05664732887246842,-0.018023043391602944,0.019771208180124625,0.064427893323697,-0.015254221780333683,0.03461109557709368,-0.03454076550013307,-0.03814569503443386,-0.0023986516457658496,0.02940823656312213,0.024851688913909757,0.0035418125107995317,-0.002732662077262552,-0.04225824989034381,0.008676664345306437,0.056166288500298624,0.022482044488197604,0.006558269846963949,-0.03843244687532576,-0.016940454587244014,0.0708689533887679,0.006810199402438358,0.030851140997160836,-0.027762172127672565,-0.03694196541343259,0.0020070534784054636,-0.00293798741305489,0.04043326558186601,0.02397127881269196,0.05539837281981991,-0.014315095048166322,-0.01329468836205416,0.008106551885089177,0.04314664873383107,-0.04298438989167301,0.019537718122124903,0.02749345604492834,0.048477984534521956,0.001778638794045644,-0.04660403150023131,0.0017744749988800224,0.018184229899883376,-0.03779513188655998,-0.002592185348974759,0.02224162626720603,0.03330144266488287,-0.03211286753648675,0.0557021982838331,-0.03339947068203158,0.01180187811416184,0.024101660563581453,0.0670663818575937,0.1042289092137784,0.04304618911963863,-0.019640424533379428,0.04674924671941958,0.03705716203107852,-0.020209227957335325,0.03992519587137186,-0.006545024479599027,0.03862255081363008,0.038345638006056615,-0.0009101102599724199,-0.015095669982068436,-0.006361762566875428,0.037289953103707696,0.07012428278162469,0.051086696467532854,0.07275857358999918,0.04287706338122589,0.07860005021484995,-0.050486172482569903,0.043245439515808455,-0.061522523681404394,-0.008455069501137558,-0.017992080001355208,-0.055390784355580605,-0.009344741312407494,-0.0026133889412573515,0.008821159628725171,-0.019747866532914948,0.017642636780093267,-0.0007733338047538003,-0.020675926578219865,-0.0031520740540838007,-0.0031593575461779156,0.01025444182887182,0.013961176692329715,0.0900731145197003,0.03542759249455984,0.06298732317469297,0.024315635528891787,0.02924012420725156,0.07502526823368531,0.12004435144876721,0.11579159166936814,0.16954873317729155,0.10311563344794214,0.0145700725931103,0.03746815042133182,-0.0006173196069194529,-0.019235859025507777,-0.03381446392670221,0.05291437470747921,-0.05814296081268552,0.06227429935734929,-0.10172586489899473,-0.0395790756786846,0.009097909238397704,0.031593392703802285,-0.008852797440094456,0.08324020987897808,-0.036908423560759886,0.07126867970344784,0.02232433950435241,0.07970227726540313,-0.026428934354540506,0.06265607587794977,-0.04663676729770769,-0.07062288569338271,0.06196378088515812,0.1075161185968914,0.10666592207697313,0.07980647576088072,0.07274126905341516,0.07779185419058195,-0.03305627990857605,-0.038472273951157376,0.02956341558734862,0.01091489792607247,0.016201169273899908,-0.003470420646981255,-0.05387663843707196,-0.027100559333088893,0.0303327706212568,-0.05811109512928395,-0.010646348431287376,-0.0440037612623379,0.031890064903600045,0.02549067508450073,-0.014289729645546007,0.003758540654252233,-0.002697455086607806,0.022052330694236004,-0.023049971562286227,-0.01615875594273638,-0.01440072635929208,-0.014794059523816095,-0.03435083425945183,0.07579858679636953,0.13587583499877243,0.017899033828144784,0.03662632763276556,0.004828812699802509,0.0021517719956882053,-0.01178447071492002,0.0028868953102762387,-0.01784389650466891,-0.06384921887854592,-0.0718200929080712,0.0024573252822910566,0.016083518888762086,-0.022636020257462464,-0.02374435632366006,0.05171921238064087,0.0005348136277164399,0.02109762138640898,-0.004509651476635975,0.01890995890086779,-0.0700539599671967,-0.008221811336921382,0.03278659304005203,-0.02202323315553805,-0.10417147190232669,-0.07331863539217832,-0.007028941114755364,-0.031156891946310834,0.06742485656772562,0.06513812191634881,0.0015270935540665856,0.016488964178771437,-0.031032519913010703,-0.01647697551037979,-0.022441841464617508,-0.029730911559246773,0.019625714602739364,0.002231612742881106,-0.04515586891703918,0.008284096823785758,0.04010413414680036,0.0024012900211214457,-0.0025009333181332163,0.0151559091435774,0.002004540597582387,0.02474596769098786,-0.027620025817701458,-0.05236963112548359,0.005345671385485981,-0.07055605246816567,-0.016349602745143934,-0.13474924078471542,-0.1390946795563245,-0.12403295832667882,-0.07293177605065716,0.041848753416588585,0.018121352819837455,-0.035153425720832576,-0.02901136269580421,-0.09554452282650151,-0.0074090575501855735,-0.05906310393057748,-0.046658648267780226,-0.0845665068840699,0.021886379277701394,0.027023147835738653,-0.04994710363288586,0.017211718638781237,-0.07971719353393657,-0.03153945568839488,-0.004465276404039774,-0.04001274461612944,0.030477788442381738,-0.014541758116246474,-0.040162468736472,0.09156633666543867,-0.04658371869316323,-0.03735198434615344,-0.11103150228961306,-0.0817248262494606,-0.15584610320156736,-0.09504948347770202,-0.1597239786615116,-0.0989173657485908,0.033954314763843585,0.030711777126719873,-0.09998378413866386,-0.07635786823666661,-0.021119110177849443,-0.08251389088719542,-0.031333589571520104,0.013712627877521652,-0.011645067971543818,-0.023266913483657545,0.02145842249863469,0.044174221157519324,-0.027652863535410535,-0.003275203191457353,-0.003768380932713231,0.005949774138693444,-0.01843188961732012,0.007015757754433052,0.04951441905724814,0.014301830714304827,-0.02436843277891825,-0.06667060010654383,-0.14363652044450428,-0.07276468612490405,-0.10110564833694334,-0.12772648941414413,-0.11623437403188268,-0.06309137609754764,-0.05002482217295163,-0.13537012671598547,-0.17606331784601711,-0.019034340231306738,-0.07443889524033274,-0.03554568717559422,-0.030627168821241633,-0.007500108413923656,0.02701302229328675,-0.033319621211498965,0.0009524531423076149,0.03565937119549166,0.046012223327472394,0.04217411192303705,-0.03312333274094431,0.007022599428536265,-0.006593648859040135,-0.025760111356923646,-0.028472372974462905,-0.04376326522999142,-0.0035210685117426097,-0.08703823898769243,-0.10464041557832689,-0.13429529435195472,-0.10625162354546733,-0.16821905763824474,-0.17583652162458793,-0.1266758058457088,-0.02335471905544017,-0.07821164582121297,-0.08752464782688114,-0.0695452953939424,-0.04475846542631931,-0.011308367496276363,0.04534070040260375,-0.04818579018406729,-0.007491806788877576,-0.03153568904679666,0.05209339766114048,0.034856771540788554,0.02672623350155222,-0.08407481219798903,0.029432876744181033,-0.013630835304867143,0.03824690600567822,-0.05201449490267518,-0.028379010669907327,0.06621046518184635,-0.044987473742289175,0.025384698774098262,-0.09782809555856263,-0.10579637226180974,-0.11077952794572238,-0.09962007439332235,-0.1621603861606504,-0.07595030408856343,-0.04256135605532377,-0.00854644759473891,-0.025725655971194014,-0.003151808442728295,0.012049411306565668,0.0038955213519552114,-0.10141156208660768,0.04664415597062871,0.04314667570948309,0.020385749804685386,0.035529045998600337,0.013751209371439456,-0.02302664067710162,-0.016414883587346465,0.045668245209620914,0.022893375885784703,-0.04491261770242568,0.019532614299937485,0.07774537563464604,0.009548572776443803,-0.046702612008876654,-0.0062136948611771605,-0.010526766067232806,-0.07832712434828323,-0.14769334450258267,-0.10457737798564797,-0.10457724968500377,-0.02019547193039216,-0.03767504604849907,-0.04785582780438846,-0.011091222873900857,-0.012354865507807407,-0.03181741677052848,0.07657488368469932,0.021358282642065594,-0.013949731456713634,-0.0022884813738514188,0.04493649301272324,-0.039088355927265034,0.0038615853318007174,-0.0499518884228898,-0.02692706947355998,-0.03277451868325697,-0.015942039071214116,0.04763495352015251,0.019965381064865527,-0.003042090327258991,-0.011559935273336363,-0.06579610762752013,-0.054684983445694745,-0.026148318860744594,-0.07439599428945588,0.033001320471911975,-0.11027708106794004,-0.028360621850361985,-0.007913312428185645,-0.0026482699483536443,-0.006982099140642346,0.03342171545987295,0.034132145600898486,0.06268120395809013,0.0028073385102756867,0.03210182334838874,-0.013390393078379598,-0.004315155736316485,0.033101493840053876,-0.031740157012392696,-0.06834653404279713,-0.055023514237180146,-0.045950901821113256,0.0116101615911096,-0.018463942129600373,0.020396157238445862,-0.051591945974938894,-0.011135464389938884,-0.006292366462539811,0.10054843229656275,0.044484941926106206,-0.014329164617095687,0.0011455350593152236,0.018951350081046328,-0.05801456621333161,0.04762399128636841,0.028183287926425805,0.003372201707035397,0.030915181890600368,-0.06823533597696417,-0.013640533029454316,-0.02327037828098134,-0.02539025554995999,0.013875299345872956,0.013544365434428192,0.03423416332144308,0.018480364462908752,0.006598553664196763,0.04122242152952514,-0.057201524787916166,-0.06585178369978859,0.02371396159093288,-0.028796695255119648,0.01244704759627204,0.054107853092529974,0.040124316341562716,0.027411377541938068,0.07137045640664197,0.06707831614440334,0.027151072191536264,0.036698077724387525,-0.011041827386041762,-0.08906494251534933,-0.055751959836364634,0.052402072950442906,0.005917530602721719,0.0021906744149988817,-0.03202873532241201,-0.06860655731209955,0.028171048103584204,0.016644578948919422,0.031042609789097123,0.02033121616741085,0.026524925343734514,-0.024094600501724028,-0.03827694297348817,-0.020483552002414813,-0.03347280926621605,0.02914547054263928,0.01825296170704144,-0.021913298975590523,-0.01785743850390885,-0.005780167133886644,0.009718008503475912,0.05698631993215635,0.018402377267955298,0.09644654837260787,0.07936696414456859,0.0648378482111525,0.009687061760145698,0.06306123646083822,0.05332769537837232,0.0026858122151647915,0.015408008908834871,0.06449417745140636,-0.05845102969671236,-0.017247779691093843,-0.009346655130662967,0.03464923539734616,-0.005304516547932275,0.050739571277212105,0.021726101063025884,0.057652196840200454,-0.009518749179650851,0.02783182143292036,0.022494401299794332,0.020192232990904092,0.04304994333984065,0.02277447540098011,-0.046161057179022115,0.027164649362414913,0.0037827674197546267,-0.0006612992290314498,0.01685831806207834,0.07071899280758738,0.04932083951391539,0.07476152634340459,0.07762698657049569,-0.00403773714184523,-0.007949848475254179,0.021809783782059868,0.08189332257652417,-0.034572223900696496,-0.05004636262914989,-0.046434082873544405,-0.10208834698180724,-0.031185621216605626,-0.01065763331312315,0.017219859088258148,0.05421868235170272,0.017367276814267363,-0.016150348628142918,0.028544618598068693,-0.022306425153533135,0.0038769860033240075,0.017775511553915078,-0.024269976357579826,0.07050199539953456,-0.04517473892790155,0.02203013673305897,0.06844312833303559,0.013470162571487646,0.027061106713156886,-0.023133023438479183,0.05545296004600412,0.029345909698706523,0.051250489215031364,-0.028342960155857768,-0.01041499544601594,-0.005449952915370238,-0.015913877080948522,0.004358076098782157,0.003958973714501953,-0.0013278772080373418,-0.009631230418227525,-0.010043378261360002,-0.006456519217493429,-0.019600975127981413,0.008777366844825439,-0.0317936025264163,0.05128489360387549,0.04543183237147049,0.023597028761164693,0.010574648736434007,-0.03271419977273884,0.024419921700326804,-0.005124232018111239,-0.035360528727787235,0.0032217257114412067,-0.0277071333525535,0.12232714856080042,0.03095733387944863,-0.014720218270385945,0.013590675063142977,0.01653903513905498,-0.07150370803287871,0.0021960524618820075,-0.024328672010996314,0.00031436200557558404,0.06359895500622803,0.001114579341420038,0.009858033981117393,-0.049296000465416066,0.045221550695466045,-0.05689530002293945,0.0282546093844099,-0.0022953197433449217,0.003190730845136953,0.016536659649393857,-0.00844191167959056,-0.03593753206423351,-0.016473814355213626,0.03774525242875253,0.04580447605700903,-0.007095042954260419,-0.009912542197627045,0.05501895343197581,-0.005266807840736667,-0.03267568115243455,0.04963844607984803,0.025561304172239747,0.014693337267326741,0.07158469191607335,-0.014212259148167181,0.009719480562314206,0.04876611916731651,-0.013860433274267215,0.01882181406987028,0.024725381549609533,0.011769337197891774,-0.046846360141095215,-0.02899735305843407,0.019355375177778158,0.024760432154587095,0.016270715547842277,0.006414075679333873,0.03622003874224874,0.03365557590929473,0.04603204712024779,-0.012447501674572219,-0.0336537804749268,0.007369819225448037,0.017184195050649605,-0.028379048303381147,-0.0456224075348087,0.0033986758057030927,0.008649784395603526,0.0022939250504610343,0.012501152683990461,0.060995309007574716,0.04583889320904338,0.010734917091217476,0.05180362275391428,0.08671511756213575,0.06725094069430865,0.009284760184016244,0.01534632766894893,-0.005355760441529689,0.029666634406226935,0.022595103629692165,0.014031360869238648,0.0494626092798818,-0.005190174544935051,0.025575578870758307,-0.03759715406761616,-0.01708772910190642,0.009409158816963196,0.03275839078732597,-0.03137719037782334,-0.02060016171973608,0.016083560596984136,-0.020791681994686218,-0.07530353818422168,-0.020278380109847147,0.03440983140964453,0.028706538913242298,0.03234346229346968,-0.03353703777593838,-0.09631330760195099,-0.0700076424691911,0.0019753465901300076,-0.008377225253419184,-0.003174468860190543,0.0026948771336572615,-0.02777158683975285,0.0263042148453309,-0.07820541025877767,0.007164269085654227,0.0187085686952721,-0.003966979285116174,-0.047463289115710676,-0.008208102043728982,-0.03303111735737067,0.02840420542447804,-0.08287387476093958
0:2:-0.03459213583822624,0.009964783422277601,0.07079588276007599,-0.0102841010130652,-0.040429557331600904,-0.00922811118219207,0.025091594526091797,-0.02740363595939703,0.04648479468995703,0.02573892171961159,0.0141943408537392,-0.03653304519600172,-0.017913252907932657,-0.04085559250659872,0.08128891637255924,-0.08628040555753291,0.0161003728760997,-0.015888007715764534,-0.010240058416330905,-0.0070721787529771,0.04354759558107332,-0.029235781326392343,-0.03312017252098635,0.004673600236906496,-0.02408424987068678,-0.05785950689791177,0.07460718369892361,0.027359862213073228,-0.08355968724262028,0.012066743029007546,0.004780436834791253,0.01254520288161804,-0.017533516836485515,0.047861580908382904,-0.047876195229754455,-0.034841804127751674,-0.03556789313338818,-0.02657666735234201,-0.017752311423457262,-0.01784447977528581,0.0032389244056581766,0.0034267814880662314,-0.00012519599407087164,-0.01651748187016964,-0.008902143895481537,-0.01074180458707873,-0.02513562806785907,-0.01563524843721986,-0.07683302134178674,-0.021910950866635068,-0.039300688329458246,-0.08354637365994488,0.01948489238382187,-0.005379692082881436,0.01863950718841168,0.014611354855452473,-0.005558085452930612,0.022786028944110425,-0.06573558715153048,0.008667302954766346,-0.04251704930370431,-0.02297059151859658,-0.0440539721983991,-0.05194373198808236,-0.023269061261249255,-0.010168303909377615,-0.060057511036890755,-0.03878203345918394,-0.019267544164778716,-0.02332226509331377,-0.04130834962907832,0.012865944014909682,-0.022950603233398266,-0.01088088832145352,0.050110433550301224,0.011463384565579911,0.023947359748521777,-0.08165934215357469,0.0012894999291811074,0.02225722039218591,-0.007751904803448458,-0.046569694610030354,-0.03770569484731531,0.014331745015517991,0.004552834365381869,-0.07971655351661594,-0.002266833918640623,0.036229639136463015,-0.04360505414060726,0.014883556722264933,0.033892335233426815,0.009024802832161161,0.0014605461845869601,-0.006436872449512572,0.033410071184600425,-0.001183863495816574,0.0038624886330908153,0.07303065451900788,-0.0144649897470145,-0.0014867092948398959,-0.010078981264867906,0.0025107253886751126,0.04432172210991584,-0.035712318654693716,-0.06720918387830824,-0.03385490297708006,0.02728819962283412,0.014704269266777618,-0.01634749304139329,0.0017785679598874842,0.10289446327371786,-0.051106334346564156,-0.03599388338684359,-0.02247935069772727,0.02683052219580282,-0.010241574730166328,-0.061986994815830275,-0.02575999132900746,0.005296775353313967,-0.0060107904905091275,0.02037952580642771,-0.0016181781995513618,-0.03026073394158724,-0.009575803773753942,0.007311514642456671,0.06345704687121169,-0.04146238587646344,0.029392767312389944,0.03509109751541995,-0.04782978996075265,-0.04601400849776829,0.03057943904008299,0.04348931899855148,-0.0687954969265657,-0.04658718946626197,0.04185879616048802,-0.0004850835167681465,0.030200202787378817,0.04251578567675879,-0.018816421418590523,0.01912012131738642,-0.024655939324919766,0.03110113777660524,0.0050829715574691086,-0.01138865109188096,0.020017125771929677,0.023967697961470438,-0.07193904106409867,0.0001934493009567799,-0.02515158511354354,0.04023036042257213,-0.06099226990583888,-0.004084956338471224,0.005425244457189294,-0.016845111956602387,0.0028024180712609087,0.03977463413940582,0.021789465099736578,0.027867614401684303,-0.011859245797544783,-0.03300239946840098,0.06794035259501788,-0.016731572201546693,0.02078218391207022,-0.032283878422475404,-0.03220395834570452,-0.0779765820052629,-0.05368038776947364,-0.008315464367629347,0.04697804129361715,-0.011454750610444405,0.002600378294301661,-0.03452562896052387,-0.028100160891492802,-0.056167668457102304,-0.03981450866617494,-0.07891212788101191,-0.03198123616300479,0.026816246530638577,0.018606962316980724,0.007015622486721422,-0.008404623680985122,0.00453551712746489,-0.0038739798867620627,0.02870948774158342,0.006781384099591418,0.02354707057826938,-0.0010555058626926072,0.01252806775547085,-0.0567224918866412,0.03180657348219454,-0.05834792148965435,0.04073265885556717,-0.011577306893300917,-0.03496996364445973,0.016972898126072264,0.05740732585225823,-0.056345039550482263,0.04385553222568904,0.062248405919654165,-0.031659953647925156,0.015169652937903877,0.0008237310465196094,-0.05572485626275133,0.019557576956490425,0.03949337411767575,-0.028147139258820057,0.004587043436286649,-0.019172233982006962,-0.019274942029601866,0.02844773915628925,0.050723162527810256,0.018929094523154708,0.049661291491500774,-0.027675292166684403,0.03931127003703857,0.003978831093410453,-0.011751746321773966,-0.010099648117147269,0.006365761450379369,-0.04448564795827104,-0.013996478193155979,-0.0004651741328814255,0.015271360646701223,-0.0432681335308445,-0.0051591691928699925,-0.018942877123538558,-0.012465728461434204,-0.004551797124108684,0.0032737034112196514,-0.011236908210403875,0.004701351495885743,0.020433592881537142,-0.012423884315833765,0.01370592020720743,-0.05833098814920588,0.05391582733787156,-0.003113474592384581,0.005623881555098143,-0.0031338065645092933,0.034019860894630195,-0.01586210458431102,-0.029033240915352962,0.031204578490946495,0.019618332216432787,0.04368696680123015,0.00465117572006864,0.006359285728689403,-0.036361369048663245,-0.03282617129122298,-0.07580000725456552,0.011580553313354301,0.04237967914330718,-0.0023383410433627265,-0.011437233174692302,0.061527529835324106,0.005646072025018159,0.03472691070909351,0.01976214860856302,0.04188473610407333,-0.04041344805195526,0.06338627636019492,-0.02546836747660637,-0.008019118173747704,-0.032917523723611015,0.020783728491621554,-0.059760104511348326,0.024713861531188014,-0.038384585629157884,-0.014777857021986088,0.022746052881802526,0.0007322210019915287,0.04765132190501559,0.03138138760320438,-0.024370472558567086,-0.005431070330345618,0.010566183292915284,-0.026810913078654956,0.028469450217668814,0.05609895458238809,0.00884496880022238,0.01685384096899639,0.011627813736766149,-0.06550925165079148,0.05181897883949745,-0.013870804559950446,-0.07947842568953087,0.013270372900272704,-0.02812000032080969,0.019050229790463138,-0.00502260554015075,0.0390781063870983,0.07231030613279257,-0.02080580424746282,-0.009475023561323466,-0.0220538657275743,0.0007549605812152738,0.03279104451003754,0.05379570318396218,-0.0035180546919390075,0.00245267723284519,0.0210213604225335,-0.05277441692032949,-0.04255676091154896,-0.025519133824605657,0.007612587828950463,-0.027512148242579297,-0.017138570167982904,-0.028999309696342488,-0.015868646456342717,-0.018211308175040717,0.04901329984313118,-0.03015325227733041,-0.02165837938932593,-0.009588506117699427,0.011901641551688895,0.013714583538845656,0.006846669506660205,-0.015586850075134929,0.014018521942289799,-0.055661938022245075,-0.04198715683579444,-0.01615519714149908,-8.343303020138675e-05,-0.013866705735686847,-0.00215768401025335,-0.03184755456835068,0.008456471733860728,-0.010742201718021404,-0.03190610407303148,-0.030928591759237622,-0.00030260890487968556,-0.03795467041427131,-0.02121228129535836,0.044377614169904656,-0.03181813833886705,0.043772938355869026,0.05054075925638061,0.01248375923896424,0.00460981011752852,-0.018904089029482096,0.010240071042962914,-0.014672674080519093,-0.03204275638021383,0.008713910540616206,-0.05650303244411006,-0.053128127605020434,0.0036494807056490024,-0.013213827302140862,-0.013931258206906974,-0.006507541474501073,-0.025729105450089884,-0.07867687457028472,0.027480947464295614,-0.04781653887668186,-0.007970908174671155,-0.0303455275837027,0.01973797874555039,0.060669594143209916,0.04274751283202101,-0.021873429399910934,-0.03776503115894392,0.032834062293373496,0.056054744657945965,0.04570786493337838,0.06057761964115019,-0.027078233900322803,0.022293257211437986,0.026886929856866703,0.017765209297012807,0.0004740330213387039,-0.003255962238124534,0.019556332489523376,0.03254045563972253,-0.011546238845603381,0.04417382751900426,-0.008791124572470464,-0.017052033628215117,-0.023696796961272717,0.0089645950520285,-0.02749747264441905,0.043135097100056384,-0.04706641303370255,0.007112839708460275,-0.03551246448885558,-0.023223854319180108,0.03700688424949848,0.03132212754819026,-0.0441978773739207,0.0324526819646326,0.021990690231586695,0.0024752576206092235,-0.04160255779139469,-0.07168479654574075,0.00030071334423583946,-0.003487148787829599,0.05163129606055003,-0.034053360726957645,-0.015058784436953234,0.04941279941303916,-0.037731219558714744,-0.04321230067194017,-0.03841492972443186,-0.0021890250608221106,-0.07419586388681713,0.00416974541537071,0.011507779876255635,-0.06102057717955173,-0.002314668963175678,-0.0036594666122902494,-0.011688642240882658,-0.029792063245135815,0.049102255496496106,0.007398924415271961,-0.05387153201897176,-0.04162079584560519,-0.01227168169822747,-0.04952932731575815,-0.062081287727179205,0.03119287176054259,0.023911907673117475,-0.01848445509479526,0.06269589336217284,-0.032080950283693954,0.046561147165479086,0.014665542237532572,0.029330210190337148,0.022254991397513774,0.04488244162677193,-0.014707537973044535,0.010682251070461293,0.026430202984417114,0.009801753332919785,-0.06698239039179307,0.015035217087504615,-0.007050789739860361,0.024624549112221825,-0.06741733246623544,-0.029085292842593882,0.01533364311489154,-0.07619814126207451,0.023643136127908432,0.06378747796615739,-0.03016045419642792,-0.00606823260315568,0.036188735955462036,-0.06268072708062193,-0.04859500976117522,0.01052632533027012,0.017046797679578375,0.013661261983105645,-0.04424036749811131,-0.005505609288431609,0.00637395651624333,0.03466698865414995,0.047463734151521386,-0.04295446214825267,-0.003502396241981982,0.01396204337091002,0.01242272991420427,-0.07784168985303919,-0.003921256398977187,0.03777038652505353,0.05812693689209169,0.014223549559221112,-0.0380239667871238,-0.059506776914069984,-0.06362919697430969,0.005365807973738632,-0.03305263185429911,-0.011725303429177315,0.04863234733113734,0.02371939789337118,-0.003326608324926319,0.006388039652059079,0.06770490033551826,0.01436324872655533,0.012678621461971962,0.0143212575898586,-0.008356855220307217,0.012277909701583897,0.042565361885481934,0.004278257535103889,-0.007737681088820916,0.025634168361658154,0.04657282829764079,0.008753590567960321,-0.006907342237558283,-0.012238989444378203,0.06188427337482539,-0.028229701455952192,-0.04658727408621435,-0.0059237202269508,-0.015286369563486366,-0.03331161892793496,-0.01467113201656237,0.04319685414517183,0.007888834374901763,-0.07607778588089577,0.039568401285268257,-0.07118252848613028,0.005602294301320387,-0.021155758698403467,-0.0736448840407646,0.0048378316415430556,0.029599711158112014,0.023541333181160955,0.04172133397453222,-0.005538723874201321,-0.05310225490529858,0.032468465504409634,-0.030063819240760032,-0.009381792872739872,-0.004661552456999974,0.012830351386832159,0.05635489531646267,0.025054466875903552,-0.007369377548254791,-0.008494647887992897,-0.019110359601040024,-0.018489349459520774,-0.06533304150500378,0.048533161616394385,-0.019812233940433098,-0.030771767098412724,0.03571121387593794,-0.02775167092275305,0.03181942778887266,0.03195652619437671,0.020447469377184842,-0.005106220247710141,-0.006318897288271341,-0.0840764047165311,0.03544144695079788,0.002888299433654832,0.008021958930992034,0.08539315989555363,-0.018842955327240955,0.03142811035208956,0.006043619310831411,-0.037117340498854186,0.035555870873247415,0.03077164078173458,-0.016061823390546192,-0.015674580018909832,0.0026203659773436773,-0.037143774623561554,0.008450589465155329,-0.012317037705134147,-0.017000578579656145,-0.025944399259755436,0.030487162662848902,0.05588201101297947,0.04598187633991906,0.003848798374188057,0.0578672374996213,0.005671938475149151,0.015186101302342441,0.09187864262143755,-0.010941160926914188,-0.010653662925889587,0.0164131442601643,-0.06770140001110408,0.027088661461657452,0.058128218183062595,-0.03296143738375593,-0.03467491400637086,0.0004061465524167588,0.0641598905699676,-0.020358728394635622,0.06720792071828664,0.04741015124640379,0.027232443127707933,-0.09285174388138953,0.01760994065892832,0.009465957927051129,-0.032609437759760676,-0.04422391836255719,-0.09899787957572292,0.062369380278037866,0.01641950004667775,-0.042504920824091644,0.007584406648289764,-0.030724857470007222,-0.0043417342856210345,0.020312034018858765,0.06476082312621154,-0.07776901212065516,-0.03681954286169519,-0.08756278924561756,-0.04619181908451776,0.092089387355609,0.005869521692568231,-0.02271348652856046,0.02883707033921019,0.011387338437173739,-0.032327161678675935,-0.030971622397340377,0.015667048445653736,0.03411993318153941,9.129742280211725e-05,0.05193321107877537,-0.012192123487723317,0.10000422741984216,-0.021898497521967982,0.03967006684013135,-0.08506644622575764,0.026283512880769373,0.028153147748744736,-0.06379216114551038,-0.05604656810393892,0.023242951936435406,-0.021225442814480914,0.01610153279209358,0.04161845259962102,-0.013221900494458384,0.011714360544737014,0.05741126904078301,-0.04669767270542967,0.022566781881297023,-0.033945304504331315,0.011529242104346096,0.0806596888407021,-0.02241081232820786,-0.01551438350341312,0.001543169727438335,-0.017905076884680574,-0.005547978813402748,-0.04989879126017377,-0.012785028339254136,0.03751327978390536,-0.029588375178489508,0.013365660777822946,0.09219822152390882,0.019757138658496612,-0.04468302843420507,-0.07312914228114194,0.010648004320493662,-0.002524707169870599,0.025832553607046865,-0.007115975715703584,-0.07079472804602271,0.059963948679827045,-0.0005707679782848762,-0.022504020045047694,0.001596728077711841,0.00822958718275184,-0.0015449518838625716,0.002477371123735241,0.043870583757271715,0.0010859496906140522,-0.038033608150497486,-0.01938423782741595,0.0034283744842192082,0.05869596000278764,-0.0010840246770860136,0.021345853595888097,-0.0277201219373195,0.09139684972777332,0.03381121001202577,-0.030639965333608084,-0.007308211979195003,-0.04412547755312901,0.008782747047619952,0.03627984799650856,0.04520958781072665,-0.06083746116527613,-0.0003687123724711818,0.014211402480986056,-0.05249754710367067,-0.007136807692871513,0.03515320245796332,-0.013063570428627746,0.0075728210761491985,0.021572646932516377,0.0511028271187136,-0.0023818427874912605,-0.03158549777658643,0.06871281640870802,-0.032538900674078323,-0.04526099045567665,-0.043868112911972894,0.018060406468591042,0.017212715957227304,-0.02461799019000954,0.02930493886427632,-0.05679701992813216,0.02882357438737447,-0.028547558905178863,-0.05633577056051634,-0.018964876521580142,-0.011380802629439517,-0.07474402738538102,0.03549139339708131,-0.04177822191953745,0.014271201565923658,-0.004308520497132305,0.08957310079122804,-0.010006124522034473,0.04429707154530881,0.014641520412944664,-0.005540114627368476,0.025039731617358965,0.055998140103557886,0.006206316681933719,0.02659279922814914,0.017672012068859468,0.08269210740519935,0.022149689399852013,-0.1000087229552009,-0.0016422670347177718,-0.007890044108245255,0.06249250008846903,-0.06014321364948195,0.08239245305494351,0.011631952324252872,-0.012802391593106687,-0.07953588049531422,0.005306076059219292,-0.01074662782103645,-0.022461868168438686,-0.013099590703523494,-0.0586614429005179,-0.03303877178664899,0.05106565099575245,-0.02837007896828834,-0.024268321119497362,0.11670858431469502,-0.0009832767335791206,-0.008515539399416013,-0.019774620856508256,-0.01674575553217103,-0.008425146844124695,-0.06893333871936094,0.03318432007260376,-0.03688814476884142,-0.015836215329064502,-0.014191968530031025,-0.05183183535405782,-0.09223122773293724,-0.0003810212251099166,0.09070873729850751,0.013121736684032978,0.036972169518472105,-0.05076333756230666,0.02057314411334363,0.012364625855331348,0.014220317166815405,0.022489059268611875,-0.010176746122728399,-0.014540790960402186,0.0062207846129318685,-0.06429174989127917,0.04183411656761946,-0.06616743905515132,0.03470174311409227,-0.009199993015794647,0.05678455345873098,-0.06159392527684759,-0.05562676257364293,-0.021960764541995977,0.04144949970153254,-0.04562209959822112,-0.061888310269587854,0.02246382384762071,-0.021962818391709327,-0.06794876384013075,0.02486992917808039,0.04866932852424062,-0.0010655423267030026,0.02645419308042729,-0.028916846012100338,-0.008167156130060235,-0.0030669345703032334,-0.012657264607503193,0.026835811813856532,-0.02773822561404342,0.023664226008620295,-0.031043046288792266,0.040200830964754436,-0.0067982820495564944,-0.04805234814375919,0.001666783206955949,-0.014387958954463514
0:3:-0.0004647437412755843,-0.023170440416550545,-0.004018199426712208,0.018049534199217333,-0.005898650592639286,0.0012400288298702255,0.01799802917413362,0.02985134876253899,0.012628026225869875,-0.10187124310869985,-0.013833452718738252,0.020987494200808213,0.026926768985546277,-0.03450618889584815,-0.0052040594272528655,-0.023840573320179255,-0.046328296036630676,0.018752655617176466,-0.04178933454606531,0.017490268359757075,0.0022276753332648937,0.029119778740878104,0.007482303771412228,0.019672385337919998,-0.05355565414647586,-0.00474296323375263,0.027831593110399205,-0.027606567458570146,-0.004794452439019179,-0.01635419476576909,-0.010898348764229751,-0.021212364934927015,0.0015858516576311267,-0.07318558676619263,0.03284111609367041,-0.044301123831943484,-0.0006629175830465789,-0.021693710502309095,0.036203944447716456,0.026948563527092254,-0.014240141785887903,-0.08997264470840487,-0.020320353744673423,0.03242961049144038,-0.07847076870222554,-0.0005274897276304276,-0.030116153910650117,0.06954687534281236,0.014280372292335551,-0.00819955833988312,-0.028258336903385344,-0.035317680565283845,-0.0210552376420121,-0.042949690798457694,-0.010704450982122103,-0.05244492975889115,-0.013479864670248684,0.00417617306008059,0.04553781510851691,0.0024926776227658324,0.07281450439547725,-0.05362222211762835,0.04565416444702027,0.01517884011702292,0.011005300858970592,0.01929374213653524,0.031208266284830262,0.052522808624938855,0.020944712726514714,-0.06623042962874058,0.04130392467894806,-0.0562061372228405,0.007722811306087478,0.015273108641017434,-0.04375959273119631,0.07290452414540634,-0.05259849313794993,-0.0394517044714291,-0.03571063578476207,-0.022171299161180387,0.018326492356825916,-0.026315810951612093,-0.038997990495457636,-0.0014168512373435363,-0.0245158978080524,-0.02412251775409617,-0.014867566634619961,-0.026222315215937857,-0.08442521672214882,0.06370407949698732,0.0012451308593388025,-0.003570422739429392,-0.008141292381679686,0.03448289794655952,0.027866937801744686,0.05011415755764004,-0.03645685950752159,-0.03409417623634722,0.027299928891901026,-0.00026839187954493166,-0.013929773416676988,-0.03591211807554952,-0.044720824521880094,-0.03357126306439725,0.00019691614220622772,-0.035205681538556535,-0.0621387870163906,0.055958598002910365,0.0013231037155035715,-0.012671913882745385,0.020120475571088488,-0.012913996968542538,0.016766018057738613,0.016494462608287068,0.00959818586159916,0.00978028588876654,0.0043096696444716335,-0.05692975418558208,-0.07053021030082392,-0.013748384426245108,-0.00372980566340927,0.03102586571432143,-0.08812960168671706,0.012006647920977592,-0.07346067569129858,-0.017370305258971847,-0.0165567232915396,0.006490058006103435,0.008790337406469086,-0.05017509233554897,-0.03556429308153505,-0.10225953504567128,0.049179495160053835,-0.048520207325146864,0.06480234058488932,-0.06592220649461344,-0.014766373405553363,0.060495931067089566,0.1019461984757668,-0.010952513232763042,-0.040590596713212884,0.01943497942121214,-0.009208759489891864,-0.012242787100211943,-0.05104611151826245,0.040542234415813866,-0.04193148478887798,-0.01956030159671976,0.002811474831796824,0.02728525313643726,-0.010844718888404367,0.005713897927378225,-0.04022012696945282,-0.043906855060841084,0.0053778257806924735,-0.0033701369274948584,-0.006861642508232753,0.0398924197759521,-0.016920504261812148,-0.005612739113792748,-0.018778915357360596,0.028661060363118055,-0.01603677216658063,-0.005827372696495311,0.0060502380365717815,-0.11604807764489837,-0.008060890247692706,-0.005739780380880788,0.017538538086007003,0.06240990498716418,0.027465247232609423,0.028805868446818015,-0.022317681935385147,0.044787034930767924,-0.03364664058025182,0.04120653441031743,-0.03691892366126029,0.03643956936741028,-0.006292925587403813,-0.030126258803763805,-0.05819813668079504,0.09928874748231414,0.02042343351965302,-0.030914139043474988,0.03670190449456489,0.08404254024963091,-0.03198019451224849,0.007260983696298199,-0.06215932549036964,-0.0076975474172802216,-0.02511243427085042,-0.01922710093431979,-0.02532106685633954,0.008078728303867034,0.01017466748533681,0.0516250855149076,-0.024388622997218258,0.032315107477577175,-0.002976813032474065,0.04619540084434178,0.037410945109533814,0.01167931282329689,-0.015728447135897015,0.05381589961213671,-0.020755432055658135,-0.048787140046805184,-0.03771855619944153,0.07497189096568534,0.04709867517841406,0.029957965413318664,0.014213286455348534,0.004936178040579768,-0.050195871068978784,0.017250974674117858,0.04733190971954035,0.015169982654566951,-0.0424273535675972,-0.010023411406908581,-0.008856580948332065,-0.024494922188009905,0.04086835395540184,-0.00872207065803011,0.03440536173046201,0.04459406137018735,-0.03885368307716527,-0.038111651768095806,-0.002966704275975373,0.07128545552726016,0.022951134175215642,0.019155076463312964,-0.029414168942156774,-0.009080016228719054,-0.011254098473775828,4.1176013695447994e-05,0.01540618839812238,-0.05138581583947562,-0.055706450645456686,0.04700651021347153,0.02716702552377124,0.017709407729308357,0.003920467861937169,0.02419376286675249,0.02713773653200731,-0.055758836218465536,-0.02396644997845157,-0.05117217560059846,0.03545684604075387,0.10458440069204575,0.05241472359354671,-0.02414410611520666,0.02758653409457837,-0.02711051436627153,-0.04330810856123059,0.01489364083665742,0.027294391471408812,0.02862137388442625,0.01613018136699202,0.006486376630126859,0.010198411902939911,-0.003092670098185749,-0.05965565496164695,0.015073457543779156,-0.020048771579022986,-0.012890936895875445,0.007992095030112856,0.03392984867804176,0.02294306964402628,-0.015174112195878253,0.006100381839094547,0.048538370740368944,0.034449358842378625,0.02499160223686702,0.04025149042857112,0.04287293886896287,-0.0872777983476383,0.026628352878119425,0.0608993289587396,0.00420659615722621,0.010443616804185306,-0.024991381322602497,0.03809547832012522,-0.011544848486937428,-0.025174657155562812,-0.012010306492722384,-0.033681048022733064,0.0042609419816370345,0.029184718833336586,0.012162649003497315,-0.008199803770583535,-0.053931843500562994,-0.005642219814383833,-0.01759746371145708,0.014332107352120187,0.035815267870571606,-0.003114766196925867,-0.006214226155676275,0.029082629971456393,-0.011036224446027382,-0.07162571964464783,0.01804928164311021,-0.0002237934011222198,-0.036222572686608605,-0.014417629820922697,0.04027053490017832,0.004964553228583396,-0.022909268262171534,0.008587689224354985,-0.002631508103681738,-0.027456470759351495,0.009981001936999198,-0.04413482172283578,0.01774169009221993,-0.02627791765110644,-0.016252304300526103,-0.030900073020101435,0.0008905104989377739,0.00015051741893911958,0.015427268090598625,-0.035031670465876165,0.037509449959598345,-0.00017995511419410017,-0.06438930532037732,0.008651242449841102,-0.05676983877553327,-0.029043627196919622,-0.039803113223963994,0.033109352788396836,-0.035983402372887996,0.033592583392000566,-0.05743927621184094,-0.030777134193631348,0.041565662686606275,-0.053834857458911006,-0.030284025050552395,0.02632764932918371,-0.02619351860091868,-0.017856299610185953,0.00037618953181778173,0.037017649056288876,-0.009643372032034981,0.020070303876019557,0.03557923939729975,0.06501136434081091,0.0015121267288819582,-0.03143993456686394,0.016173492137062876,0.026474905027802847,0.059811012799729515,0.0626940160454315,-0.04486868603139039,0.000901296858442546,0.015846794177037386,-0.06295406572201805,-0.042102912616937264,0.055094477241544274,-0.06214087061478694,0.04336161563464997,-0.013503913651906178,0.017964795594394633,-0.04938549961668962,0.004818565080263018,0.02860170889120147,-0.04405408040827729,0.0006123762715468524,-0.02809019373005922,0.050471413014301865,0.07532554995338453,-0.02583432474361928,0.058368559499448115,-0.07027924576940361,0.061344255833736525,0.05652177636646611,0.02527026778839553,-0.0289302692768621,-0.000862589518482258,0.0657358802128961,-0.06883048756520216,-0.03226952940685566,-0.04792663163317795,0.03531750454569207,0.02886989007525395,0.009131891592716249,-0.06980762425132087,0.062206565693165405,-0.04670225913571127,-0.006540685424720322,0.026542871654427577,-0.07275918355496327,0.017711667285918165,-0.08055357768626537,0.0649566280872048,0.015049179087768169,0.04229396724917161,0.02053500848574207,0.0059328043689462285,-0.030245723454645924,-0.005264427418007227,0.03610109788922489,-0.01220779951483718,0.03877064392656377,0.028452846903447578,0.02499775611990604,0.009885766821273878,-0.009437540471226212,0.04551919811912709,-0.04827708580593727,0.016906120636884694,0.025772690187691655,0.005805031322155402,0.07448643474173466,0.015384700882030413,0.016000889746658607,-0.049536741909078974,0.04227982587888931,-0.016712905913103662,0.04721409301537556,0.02989076114408501,0.04787610444274982,0.00593946738348717,-0.00048528620774414104,-0.03917825981167101,0.06884459157472761,-0.01069637425170975,-0.011797924465535006,0.0756747247994272,0.011920149216267772,0.010271620618630038,-0.018753653837212583,-0.042881969053727036,-0.016407561716558775,0.005248583870180679,0.002269477949394306,0.06762407744740352,-0.024695308775579003,0.0267332591700641,-0.059243338844887514,-0.061122683274006884,0.06438154016881427,0.007394591166292106,-0.043231125347274794,0.017607653752530025,-0.031227040738805723,-0.007140835671235028,0.0072064124861396985,0.021399956396241093,-0.011656010291949747,-0.023716189667042743,-0.01204057774271541,0.02994050613539556,-0.03690534620470464,0.055826403526191025,-0.03667932912195664,0.03251142734803656,0.01850736958381833,0.005373921581171251,-0.052419456767818236,0.013613024196836455,0.00900276993352607,-0.02075357946356525,0.041858936866641015,0.02743674023553129,0.011037092645429444,0.06923696567554698,0.051265219048354994,-0.04043459524424155,0.020022040173170334,0.02927183095522502,0.028848495389695535,0.029833004099340633,0.03554202030129855,0.01046642760764506,-0.016613660261575524,0.045647199634525765,0.013145887638512696,0.05906304547578834,0.04548536331765951,-0.018211425050313448,-0.08295957302654787,-0.008582056243758747,0.012523625339729963,-0.03872374426024657,-0.011198212134037636,0.014259851358836836,-0.02089757308058775,-0.012051962643685523,-0.022922475058450895,0.03802258956168222,-0.002292043554597468,-0.07180706412811166,-0.02751752071065467,0.0385855513124973,0.021427201809256904,0.014779142599084256,-0.047032981718827374,0.06651711155412046,-0.0011177839924619674,0.012030205907570294,0.00850992746202667,-0.036671386694899846,-0.02058453526453709,0.0008349159679072862,0.0034054080965289194,0.030369750679817363,0.00036111663902609514,0.005357073849859676,0.0254357568471129,-0.040652981715936926,-3.174915587356249e-05,0.014424863858893288,-0.0685974825489105,-0.013233030485501044,-0.04202542909907472,0.027689698928429415,-0.004956944076194268,0.011776456238112801,-0.008109104275161897,0.022608444009216917,-0.06154060176322514,0.00220738803505628,0.039833044737450134,-0.022298761332991197,0.05071279369461129,0.016981217458078648,0.04208401401549506,0.03444432706154289,0.02779064518076455,-0.03246063363906451,-0.029633270004633186,0.03358703859491113,-0.012880795295073475,0.013607531344929712,-0.0031030353383520704,-0.012852267156068999,-0.009940253958537369,0.06826475307773917,-0.006720864908770865,-0.006974153866640302,0.0032809390591988213,-0.04339059849189675,-0.004436843677210337,0.022680501950977334,0.022181048299238736,0.0020103936287438756,0.017160166296856016,-0.025025158422124005,-0.021977448031952906,-0.006387306241166065,-0.03313454071119202,0.0020264137563250047,0.0014012392618256955,0.002774177674393193,0.051672000513588966,0.017770983945148405,-0.04986277230906769,-0.05636073713124975,0.037045028566691805,-0.006704594873934878,-0.03512027228267208,-0.0249935416137552,-0.025330664946356697,-0.04940789540854951,0.022253313703834918,-0.05583196989884017,0.0251446972128791,0.022775610540688065,-0.041192114890977294,0.045080558103741515,-0.06304143918596876,0.005754079160506104,0.0390430373275352,-0.029831738399810716,0.005552762929805218,0.024472493821452022,0.0524190678545959,-0.006606527426060015,0.033533915412994914,0.014156365623031995,0.021288620575602473,0.040286914025042656,0.0428064522550868,0.005656788333344588,0.011926391587300689,-0.058777795928508215,-0.014182110320849435,-0.006782444429274978,-0.029995809363733916,-0.055857918396867504,0.009357603476711612,-0.03394991029608274,-0.004065114130094155,-0.006237517867208243,-0.06231096809874922,-0.005448102005861359,-0.025048110605596707,-0.0943773501626965,0.07967488445443803,0.00767396046163039,0.08084429943605405,0.02561012427690921,0.0012931378432074346,-0.02429228530063455,-0.03630948305697029,0.04446337849258059,0.004998062184536556,0.009754051859660306,-0.012053168262077998,-0.026707035415315918,-0.0008948854464650576,0.01085511561098925,-0.07676350302270134,0.03379852625820213,0.011663079506462443,0.010915358969768214,-0.04100498299607891,0.05637596727053118,-0.005868779883560293,0.021271261196985875,-0.03463913003275232,0.04006314412911928,0.05107649574690946,-0.023672542006607136,-0.005178399145528045,0.04522506978160313,0.018537868665065693,0.056478883263768855,0.024319874416158658,-0.032471938534765404,0.05516126372185304,-0.003908608453913025,-0.028776170111016748,0.035978707140089196,0.015331816133080526,0.10437204626644497,0.010565060095972504,-0.008197399898164556,0.009299491750019631,0.046274201096650314,-0.0027586331422503924,-0.03320075988169668,-0.04868419149022492,-0.005677841680024478,-0.0281154735430709,-0.01347189505068998,0.027903030886987302,0.060579126790941885,-0.0344542525000617,-0.09237111882691326,0.04050562792954863,0.06062703971954804,0.0003240547154233341,0.04838538027356859,0.014199644209945276,0.0010888928491562492,-0.0014218810784012877,0.007223228267212102,-0.05850124436479306,0.06097497358599272,-0.03905257059174622,-0.012923281742441995,0.03278317564751149,0.0021368525273059605,-0.07574838301210321,-0.01628930694126254,-0.008373405901715718,-0.07209394247057292,0.012612060950687627,0.05553160258118376,0.007561047276505752,0.011279808040496005,0.06333071880186136,-0.0465377214517765,-0.050329014230205756,-0.0024850292123811965,-0.022942914291716944,-0.0005728420050312012,-0.041707887703627516,-0.025810929899839956,-0.06756228391178538,-0.00904002892826409,-0.01970770714288371,0.008434703974245809,-0.05532656280935064,-0.05047932675043907,0.011662596428574439,-0.00970249317778714,-0.052855467066043216,-0.060925605990018804,0.026697733966110707,0.03488736049440395,-0.021967914561702693,0.02166135795044664,-0.07388825796671337,0.00836102465483187,0.01597087388658848,-0.012325845628313967,0.004222699574675431,0.038652787502679864,-0.008550961459650556,-0.07047391497930562,0.017078804006591536,-0.053010309225314266,0.02754513421347371,0.02235680850247138,-0.013670919292391547,0.01989134390218942,0.012412928592516123,-0.022999973048859285,-0.002078304767722789,0.0001241600289767655,0.009942371140159894,0.0006879814718597126,0.03982246057762192,-0.0012605529252182272,-0.04517759378550093,-0.013677995479633874,-0.010371060651485462,-0.07832829439039217,0.027313742799950528,0.03749335656602349,-0.026109104336787103,0.03823063069101901,0.06819037094849066,0.03367663153972598,-0.00039889098567450886,-0.025152692133987145,0.01633167099066053,-0.02679857177066458,-0.058515837000368914,-0.03731567594299411,-0.054399291973179685,0.015997923593673306,0.022762833192247815,-0.010090749786018842,0.05491771581416114,-0.010688854211638224,0.0001283182610703296,-0.0011119170583266005,0.001994659312557326,0.06177046865809973,0.037723354997976466,0.03221308586740016,-0.019790355281751475,0.0340198420009317,0.01374796954684759,0.017251538015455786,0.0038467743753685993,0.03375175930696345,0.024708966480673597,-0.00015333296219702207,-0.05778009048108451,0.004876131351673884,0.03802775863484977,0.037741797695115126,0.015290209886380407,0.04515413447202461,-0.021764757648549567,0.0020175028270777505,-0.027776103442055923,0.049155177681561066,0.019235649841291537,-0.010961375979490179,-0.05151634872944126,-0.04194110139667914,-0.03345127222177292,-0.04613715535649283,-0.0037193931531175166,-0.029070543438852188,-0.012162335230331086,0.012675945139353282,-0.0049090760336567745,0.014228611838454249,0.03300461601343527,-0.016932777331067673,0.003655800749134606,-0.024580735708905038,0.0047845395036450284,0.004621840742198077,0.0009028968705058482,-0.02673497932676079,-0.038305927731338084,-0.0200818619146303,-0.0021320915963345256,0.018977987091312303,-0.026597459041208377
0:4:-0.004613439497985337,0.013943025018349403,-0.012116117638406936,0.02699039469104635,0.04441694124919602,-0.03467164025456293,-0.04887063412831877,-0.00089850977037082,-0.02651185237335604,-0.04044280938054643,0.025865567373807893,-0.012893536761182085,0.022140026466503128,0.006864086118979359,-0.03793705335802725,0.028791447157002423,-0.0034083814680850887,-0.039925027538794164,-0.006799410092955539,-0.00875383629646615,-0.000699381731859462,-0.09736754717118631,-0.016642423748226304,-0.07244634008477764,0.013331195343935837,0.01932058456593388,0.006753765375480295,-0.006239830541500631,-0.05239468409198427,-0.009698440082782991,-0.06998786376761046,-0.035987503987571105,-0.05410169725171427,0.019710073253168512,0.0319995525911627,-0.0024602612649298255,0.05210574688466942,-0.014771262262159794,-0.040422673479333336,-0.04602877130672519,0.0044756239377379626,0.036418531474583744,-0.006558286455918789,-0.02528581557303712,0.030943452256018564,0.0008379381577401303,0.02027850466868928,-0.05450801295398143,-0.028718735067039085,-0.06140925018566573,0.0015178467897822394,0.10398173953406235,0.051750238612573045,0.07238523963786464,-0.024548501328973932,-0.023845468953353245,0.016668773785022375,0.008537199199064953,-0.017874428663034278,-0.03858467188863742,0.02976488060074364,0.03565340795031485,0.026012931073133905,0.036421396245418784,-0.0038706208694978916,-0.014919717121473022,0.02648297019505966,-0.00837243448663061,0.03800159339613533,0.0241256510212232,0.029243224721796225,-0.0005071019082012441,0.022159645456849685,0.010220811363483167,0.002059635519783039,-0.018364385728551983,0.006285383830476111,-0.0027593540418496655,-0.05814700917321987,-0.03377415523871236,-0.07372223217658089,0.017074917250765716,0.0016013963027789657,0.0007934180114780613,-0.007699506824986043,0.030326314733043723,0.036974026488747244,-0.00492229121627332,0.006184092498184494,-0.03050103391648187,0.050544759322730726,0.012716647245619354,-0.03964186157483231,0.008298767310265263,-0.012579683944606007,0.00474057548864966,-0.009764881393229617,0.029348185308189948,-0.0026469366208290066,0.012895616944860834,0.08470615333018969,0.0515592637215661,0.013914531267668518,-0.027457145047337473,0.004569486583653296,0.014437208761516386,0.03714086623672601,0.023821699563617304,-0.024931501040137496,-0.01903854700326234,0.07965490773535955,0.023168455993413346,0.0047764316263441365,0.02396580119875099,0.03666906091330313,0.016276899324295966,0.03182244832664057,0.02426960931977669,-0.022855008305700274,-0.045849192920331315,0.035572646249866884,0.022935321602927165,-0.014521056316793603,-0.053511623988653785,-0.026033236341740013,0.03487600288079926,0.049924907955272324,-0.03640374723239307,0.07962587787175714,-0.015809912251550654,-0.014809847906603843,-0.014011947616611597,0.007160183937788009,0.009000343291735142,0.008373557546444116,0.01290770930469197,0.028556879011804003,0.024783805907009723,0.06681444818520975,0.054883184179772386,-0.021648962403230523,0.01737637383875093,-0.011486271854821197,0.018967157991155635,0.02272999731261383,-0.04485482806973022,0.04230772651208408,-0.012980847186688965,0.04172613677098745,-0.011890162959621104,0.0360830699681927,0.014747209728339082,0.04873323262959535,-0.002144992102822942,0.07043331901230877,-0.016385060121586904,-0.03093110196294945,-0.003593181722920504,0.026017794619978774,0.013888509756054627,0.005813734976329349,0.014775938106692681,0.04046122486065921,0.03889751643431849,-0.0012856853538253307,-0.018071928646876918,0.009972573628232144,-0.04351356984639042,-0.027489958916739752,0.0006909691190647282,0.044637756649217694,0.002502731096210161,-0.03182261102802178,0.011790751854255706,0.013450184926680066,-0.025581212955978077,0.10320384783483111,-0.05752793478289409,0.10691830758774663,0.03212645598375704,0.047066574581262524,0.05865083666133964,0.04517523772201916,0.039768249491536574,0.0935882842013682,-0.03814291380043468,0.08166197481994608,-0.02871804946798865,-0.06295886606164074,-0.015364127752424522,0.044987611825809064,0.0010398187346187895,0.023805977159970626,0.03093089163649303,-0.006087271144189989,0.04983419095930438,0.0010184124729905872,0.017896990854706484,0.032333562485897825,0.002135406924729286,0.042942342829297105,0.06530813472741578,0.036631438861206754,-0.043836024866874344,0.01236946335806067,-0.022847347583669228,0.023205240683578193,-0.06032231043227183,0.05590141779939205,0.02477441429627564,-0.0018949868442487878,-0.05187171461624858,0.038366226927501766,0.028946249780466594,0.05394242770968248,-0.019495292409180024,0.02910159656518783,-0.021967410665452217,0.011719493252862095,-0.01830265574440452,-0.0072005645559032995,-0.0170312548088955,-0.05754661969093936,0.0022228421675548455,0.0499598273000612,0.005094119681925054,-0.05766063365607047,0.011335648769976165,-0.013256625594788544,-0.0044124080367335386,0.004319542146292786,-0.016832448965014905,0.07023538938791415,0.04282027548013395,0.023730111885766837,-0.013212693783059658,-0.018832451310670992,-0.01723839847264942,-0.0484178048492659,-0.03922905362376261,0.022496900531591296,0.0017938051800844292,0.005744632713160911,-0.022508237474907003,0.0933290922019897,0.08373648587428802,-0.024329129138850762,0.04861700157156576,-0.012396714717928185,0.01916057138783764,-0.042724646388235664,0.03464430056288721,0.025996345851324418,0.04513709644323445,-0.00877867210795218,0.0665912961873362,0.04302500958014571,0.020252824937554783,0.01445865095725227,0.0361412723412,0.0004157760078510954,0.027773057519507933,0.09100915550852699,0.05703532381820752,0.014382200807338359,0.023079654609713826,-0.0652734054380602,-0.008987288000892798,-0.09550672491342756,-0.029759608037137286,0.09531290899782946,0.04262561826884228,0.06729821909975035,0.030698585256412204,0.027336615545828218,-7.684828315019778e-05,-0.036071755820750555,0.042722714909288764,0.002665057645652961,0.03870774415800088,-0.06701737943787528,-0.012649363787814893,-0.025003612551099362,0.029258357766039966,0.009532103653749933,0.001101777359197488,-0.060813360241199446,-0.01748404097661173,-0.03395893539612696,0.018667412486261567,0.04857447149556756,0.019675530937402944,-0.030990396811197113,-0.00014479653882345437,0.008019386486102611,-0.01594362332639463,-0.020412361684594767,0.03896340496699954,0.043607987512822514,0.001747403039160386,0.074786113449988,0.011069818558170321,-0.03645057765665805,-0.047306678389649956,-0.019914009577812947,0.01904605165253148,-0.05665714453043162,0.0032594768325851283,0.03827370222014392,-0.07925156461111281,0.00964131268011282,-0.046919458524919994,-0.022116007536282713,-0.05562716456395168,0.018644442018704695,0.04099999006467383,-0.011839860610669009,0.0015825992876419752,0.049268308060575805,-0.03802282754753725,0.04554050912023425,-0.03725453105240065,0.027789817451563305,-0.04145633119121766,0.0029510491324110876,0.00530423034425862,0.04869816842377506,0.014255782331111707,0.046442880695390924,-0.05830949588917994,-0.06744191521346767,0.013864887865410427,-0.05297062000417936,0.06981353023119917,0.016713880072797647,-0.08356130263156411,-0.013639447622047012,0.050886422888431065,0.010475064745194147,0.002787377910260571,0.0317685309431295,-0.03989370316381226,-0.023693847462837203,-0.03709285277861341,0.05427395002489676,0.0016523124719482801,0.017249373864258052,-0.03904206728223349,0.0019071465891236591,-0.08502168152391172,-0.002138701293223202,0.014544213202320145,0.046235806744753916,0.02732013516700625,0.03418184784175604,-0.0362878484641755,-0.005143898262462375,-0.00042768673580122646,0.00676744449895697,0.03039587647921102,0.04855647619300144,-0.011124398096649385,-0.05049598734234095,-0.007628994405352656,0.10002738753146331,-0.007963870571581502,0.006752200218643085,0.019092989750696128,0.05037924635453613,-0.029203409935782968,0.0044598091026298815,-0.06343562545508385,0.07744106852620891,-0.01651956094356575,0.003977993783744268,-0.0391002536165665,-0.009110657388618963,-0.009993736522012192,0.017646647801122718,0.06587693176958087,0.08539007648448908,-0.017340175827729214,0.032885350123590895,-0.014710925299770044,0.029463899108430624,-0.05058259613129509,-0.029257427946637472,0.010718692672235923,0.016200221650497924,-0.0022626259552496115,0.07200217305057606,0.002205418629219488,0.010164575422909453,0.050014167386249024,0.0016740937316613112,0.013879640746902785,-0.00512008059548249,0.01856666928685603,-0.10697705029025942,-0.062401333540034506,-0.060578358182519436,-0.045984643448250116,-0.07119558588450155,-0.002735057385301687,0.0059672443429234475,-0.006628170093359038,-0.02848131907753563,0.07624136685525039,0.020391163341136387,0.052992250252346086,-0.026223870360651165,-0.001593284756927167,-0.013625092992452651,-0.06635573116813431,-0.03555844703537842,-0.053649235027978484,-0.041529014053776056,0.02963651060105674,0.04029582638801428,0.0018192221534903692,0.026437276362327473,0.03741986851205154,-0.008865239668571157,-0.03823051193946339,-0.021401464358279887,0.007472794447839576,-0.03915670208942705,-0.01715724522616183,-0.006964758414765865,-0.006773104630190145,-0.03884556673621442,0.03193072583229159,0.01092376940910439,0.014896012011018695,0.04386690658876944,-0.025817378355397307,0.04501287777012401,-0.014225836665052222,0.010195739597454496,-0.030888191412459465,0.019687031372598435,-0.060709341921928964,0.05354825875737779,0.03257160004731874,0.024043394679092923,-0.040718457249701134,0.02477254700500016,0.005330271810429681,-0.013945725347297105,-0.00885584544056354,-0.03834568819597763,0.02893225633706241,-0.0350218309583052,0.02078793541578025,-0.06333481652984174,0.02369342943406638,0.038957021986125426,-0.014563163521039568,0.034689911194638795,0.03544399235489462,-0.04909520838844038,0.01894258259646193,0.017477521556449993,0.02429793692467509,0.03780346109292182,0.050003570175521636,0.038941080489683325,-0.02349457998290038,-0.013639828084355831,0.06334044621657182,-0.019245457801436498,-0.07326879644365739,-0.0672774525180455,0.010841173840534776,-0.024264025089840605,-0.0023768045118395024,0.0656141523408595,0.028793597034644684,-0.01459113788761671,0.009837331211631063,-0.010323841193866796,-0.09473200340564626,-0.008416507208003226,0.01115845449160101,-0.014684037548192677,0.009116953972862451,-0.038961249540850736,0.061903228257517096,-0.022799329478856604,0.008395483049932163,0.07279025444810776,0.044425001291410936,0.03835998857951527,-0.023750599777103466,-0.03232852074318944,-0.004783444914852833,0.08099906197518954,0.0005421869781125997,-0.0037135305950147077,-0.0009600952385516192,0.016805755114042847,0.0005945365685689495,-0.02905294487791849,0.025601891168706373,0.002083974851693436,-0.02890539793468819,-0.05735847802954712,-0.035379212569319994,0.011140679724303862,0.050612844135938743,-0.05060547570771385,-0.04270739146980691,-0.007024317602293552,0.030428195453791784,0.013167060527365984,-0.00904870330944295,0.019539380008100727,-0.013398452626822203,0.009861511275907906,0.0359095426449562,0.04659960343664129,-0.027125583740479835,0.029289602059330067,0.009208735187564609,-0.038089725876462914,0.055051236472623735,-0.005976572818382115,0.051811458487210936,-0.00920032046592923,0.0018196169767115639,0.003616939515946726,0.01392786235621461,0.014910635214206238,-0.04124537898786092,0.028415018232121773,0.010243111543051247,0.0323911857115622,0.031924818353443254,-0.04240838797322903,-0.004432030605792399,-0.023428602690518347,-0.019043008146475783,0.010831975058082229,-0.01090566866080967,0.05863138248482172,0.07735520566334546,0.02313548214254422,0.08135661782083689,-0.03326404291435855,0.06363943857057353,0.008405688611899383,0.0008197698355675751,0.0171339895589118,0.006509063267394575,0.07825069745625217,0.029505856595593714,-0.010941067598910276,-0.05356413357787414,0.01352837192378488,-0.08361234464712161,-0.01704053210328664,0.016878301535328544,0.009496644860837298,0.020701072907355688,-0.03072275046053511,0.052244644984308704,-0.0033087098553741725,0.0017392780001600392,0.09946627792928858,-0.04983225758972628,0.007188614235197417,0.02981689133764027,0.06200185884716441,0.003315612730318986,-0.017697980534068583,0.052381783412069886,0.03618927114100004,0.0012264100498394087,-0.0006097423884707492,0.05976646919236607,0.01318260234845754,-0.004980273943098071,-0.007937139668267602,-0.0066321415397025745,0.08137559187719337,0.05237415133632138,0.014907429879860146,-0.041899278107270045,-0.07207918221578606,0.01304485156662206,-0.024843578295587747,0.003759959261937356,-0.002107344564348569,-0.07907923339891078,0.032644450474130796,0.025646122052734317,0.08050457155396222,0.0620170793505194,0.029581665663499703,0.014760569186370618,-0.005523819776335492,0.0006709023433503081,0.010981953083441074,0.023983607463762886,0.06830379559638293,0.07208340508591508,0.058762384399874475,0.02211534207933644,0.04108230546721738,0.035645701417233965,0.06054173929147409,-0.01436027172702353,0.0073778970229855766,-0.062443760939678766,0.012778334924097932,0.007880099681061542,0.017957495419921966,0.03943206053883008,0.03203845491617637,-0.02248692399424179,0.04353284107638803,-0.004205933293382856,0.025313060793180707,0.009702943099125887,0.030606846117367022,0.043469676250908355,-0.030334912355559913,-0.010437558426158705,0.03283260827360964,-0.014092335391210069,0.059388585830124775,0.05488627847723196,0.04090022798876178,0.0006183511480821759,0.05175106678255025,0.013406609342342373,0.009468872428178635,0.054141756671661774,0.05146068758650495,0.01597093224842325,0.012785284687133677,-0.010880651186470877,0.03835596547837474,0.0062283622785296,-0.0005627360334265418,-0.005715297209502053,0.01266935420610695,-0.03548258883941349,-0.038498365970199816,0.0009505964039241008,-0.029242538961497828,-0.03952969026116714,0.02486531721546037,0.04928278380231845,0.043217938690277354,0.012631060939464023,0.011923439332930458,0.03758780010944839,-0.008452569369648305,-0.01743830782256617,-0.03528523596296593,-0.017995142730114884,-0.01597601970258791,0.0210689874733036,0.006982415442886684,0.028155451367270663,0.019857598702203466,-0.0395784982358043,-0.01997449459821616,0.036809393964689574,-0.019637549012137174,-0.022640586298231156,-0.0006367302046747388,0.02903553148956118,0.008934761168344848,-0.040889519744831355,0.0032020301249344077,0.00967454388301624,-0.05198824060041048,0.05737283121935631,-0.03184167910010092,0.05190351344887835,0.025219298020814702,0.018328174027017155,0.0032093615600173506,0.0340291345996571,0.0001589262281940709,-0.008535281501572893,0.07464349411679962,0.04331378772424665,0.042407359653143045,0.07544091744417339,-0.044915582091574785,-0.06735116064925531,0.05716006889412951,0.018374184061865834,0.03445390320280032,0.021208488457954585,0.07405296072692448,-0.08765343213779786,0.032250760379663394,0.0125116258401165,0.0071009480372704005,-0.013274466148835318,-0.0384383285597146,-0.02419875383506582,0.055090740606646406,0.00950508458456541,-0.024340238833256166,-0.0532339371858449,0.050417543644868,-0.06661419913457998,0.04462843831452921,-0.0476655035906326,-0.004352426451308929,0.06228763271852336,0.004484053678155371,2.1319162760392234e-05,-0.02916695682029181,0.03241880993982421,0.04723813558977121,0.016915543690123616,-0.00445937523285376,-0.00037287965457929344,-0.005407757132198884,0.028710372599174656,0.021554092696497662,-0.021042087770239498,0.021402914869994384,-0.028942173064118806,0.025989910003496607,-0.00400934170606589,-0.06338771096002362,-0.05852903488537632,-0.036288409745989146,0.0032859616328856814,-0.021056867486985077,-0.026418877811130483,0.03208342387235273,-0.013556670731681732,0.0256453424578865,-0.014113873477109075,-0.009161595885256956,0.02103675243751714,0.08226879327170843,0.007566659305559164,0.03903955719897516,-0.0037273068285129073,-0.05490479227247448,0.04350276112307267,-0.0030321461919924505,-0.02787923890069854,0.04972807981201771,-0.01311211789138472,0.038910232241017,0.02379347256945169,0.021677431114816476,-0.058126633310707866,-0.025634735314668863,-0.011681004891662284,0.025931567760303226,-0.029691475688017683,-0.00332566644391458,0.01798110837858882,0.02156475519496219,0.011836670519177198,0.042667722330429494,0.0064799671319351135,0.03616402886159993,-0.015963501165626115,-0.015951010617762756,-0.00517173433193078,0.014970857196541735,-0.007493464163692799,-0.060801561327620914,-0.056113557640009054,-0.09861310195348197,-0.010951026506241853,-0.014264026029856852,0.027199131314258874,0.04509067415588752,-0.01485263984771666,0.04678614272089461,-0.005443469827806258
