-1:b:1.3653900092376474,1.2341749965057556,0.9502153877589183,-0.26254851693119363,1.5496697034974807,0.666863925151002,-0.3032974384389937,-0.12684212340988132,-0.7928864086173162,-1.8494826785216882,-1.7924043254345268,-1.6245619625655108,-0.3458160922772534,1.029604987665315,-0.4912579177946485,0.21628172692814387,1.871879527425638,-1.3986188286709411,0.3118859590282576,1.645689234290508,-1.9320684134651973,0.11177118811764855,0.003546774679966584,1.3202067885737008,1.2381367770383733,-1.2659550158291122,1.4617790026982358,-0.4435139840590039,1.978827701358082,0.5096307614910329,-1.8442508346372941,-1.5229623250478745,0.8779358950473773,-1.7331434012551306,1.4006872179693985,1.1818986770990056,0.6960561595038952,1.4208712575824802,-1.7092424774050836,-1.606619289076324,1.3777053946792466,0.3150259570695563,1.2655595654014344,1.1913060401283335,1.7076023555881314,-0.789381017200313,0.5962236915009295,0.07173002847419921,1.8195493598676669,-1.6463252446529677,1.210774267257833,-1.4502811320884494,-0.9205172925245835,1.251707306108837,1.6326095029151817,0.5463908426601961,-1.4797510547142227,0.06893342029152155,-0.27695895684709093,0.0331500203418083,1.1350833386457295,-1.2138691205270997,1.0214210626289735,0.3989409442343801,0.7723732059510584,0.9299826044672586,-1.0000100169399704,-1.6659631128677144,0.3793175789170701,-0.4962213742947786,-0.7378540270008248,-0.6206102376184401,-0.8749972457880562,-1.7157603919439963,-1.3655153485646645,-1.9685739672008413,-0.07891354427972407,1.6850307649646399,-0.7035883033904323,-0.07759094332875155,-1.644750184841151,-0.37157944374052304,1.9958294904547713,-0.6407657372506343,0.5565904464589381,0.05740301419072491,1.1506463928357702,0.386781518096794,-0.2169344620529362,0.9745106921525496,1.3280174910173597,1.4260455133206553,0.9447509910764625,-1.7014187389609465,-1.1573167505055348,1.0922230146773677,1.719516103339731,0.701323753995656,0.930440617075715,-0.4344418370224166,-0.15498252547918356,-1.3813662488385634,0.5434934491400799,0.8113557506892133,0.9600644057181323,0.47151548315833125,-1.1907898942785473,-0.5074493257003398,0.04096984163117523,0.9150267920648532,-0.4937139778385822,1.9787722861777406,-1.4046264086822768,0.884639118712352,0.4562695347421263,-1.649463507666233,1.4136059667646443,-1.2455002593047637,0.1898649772656769,-0.42644681283956726,1.5093048661186246,-0.12309418482757413,1.7652143093532844,-1.5390119545158925,0.9890924806580136,0.8150154146305638,-1.6023086009682048,-0.28567733683621926,0.6550828265376201,-1.383817214414162,0.4568527231995001,-1.2263985651046045,-1.9448203021094481,-1.7728918739041166,-1.47662751970913,0.6867627519720279,1.2946338588266941,-1.985691990951329,-1.4558094659645993,0.1489528248353842,1.7150692436169976,0.22720149712652032,-0.3851459606626415,0.6237605660739164,-0.3142623709078986,0.444947680763315,-1.906630987860002,-1.129889066813289,0.8682505125104825,1.282272678295002,1.8356910421986405,0.6730192466329417,-1.559010317408223,-1.8862212730761128,0.3007648137481934,0.997017984366645,-0.027836589869016878,0.38426916947095396,0.12414651916953184,0.6183685756167935,0.7969646369714124,0.20441698497725275,-0.8241166817078085,-0.3913529316372646,-1.252712797883789,-1.7201487216961207,-1.533248268196119,0.3036913230963162,-1.8848168828737144,0.2959994308818239,1.3905080248530641,-1.2368329524534398,-1.050318278555249,0.2391896737605326,1.5632242745045852,-0.5769466772563652,-1.8757609933470047,0.6644228662813705,1.2603199986449907,-0.8181317910362638,1.949829472865941,0.9930219077477519,0.2259985029434029,-1.7752214070304335,-0.50756898953574,-0.033773685459625724,1.0794237935637467,0.8060772997606173,-1.2427706744464055,1.2330697769647527,1.0178262071460074,-1.1077470247522525,0.8740278322789172,-1.6851327913566232,0.0075955227595384455,-1.746980890653759,1.7608697698029887,1.880900726974818,0.9732730601603202,0.6480992886564523,0.7056853297375776,1.2374683739144647,1.2967347298188427,0.7634964827083812,-1.9476243093105858,-0.749485639124196,0.24333259003981134,-1.6324243395574993,-0.20308161552847312,-1.1016964570931758,-1.7305410424046936,1.599906170011274,-1.4302718469814266,-1.68352292682779,1.7274022721162823,-1.3684405286309693,-1.115753419905356,-1.6198666788818876,0.7220028527138472,-1.2777127949329854,-0.3459764077729205,-0.19002866178132186,-1.3918093898780644,-1.199730896891149,1.972144999216513,-0.2470050755262586,-1.6550715379659846,-1.0170710453090135,-1.432264007292353,1.3149846548201582,-0.22934743863359705,1.84776095693354,0.9544244912276305,1.1962853681452232,-0.8891499892291537,-0.017694772535500267,1.0543261959168562,-0.8667843725301201,-0.35328544528638084,-1.6580893904416545,1.4799687429572468,0.03278444601503686,-0.11140581044936014,-0.8202378460123834,-0.38095487482931417,1.565977586597379,0.47372080880525147,-1.0052249065792784,1.4653414434825403,-0.5792287289510384,1.683307938866572,-0.2151433124185305,-0.027784773781424896,-1.8253735436657794,1.7357784015440032,0.1470483094960336,1.3217949456629898,-0.01915906606676831,1.7028106820418174,1.6878928522320102,0.05922078864407201,1.5612028356986491,-0.03605040795812559,0.9339441124093972,-0.5537699188457752,-0.3410682801986709,-0.6000031851155948,0.09224322865255345,-1.6785174625859116,0.28971948623795185,0.11270741943081768,-1.9783758311953719,0.6047705953811322,-0.3716565066531721,1.258313812289445,1.8755985357084461,0.759693834369651,-0.10648714664999595,-0.13814911437803903,-1.574966823839981,-0.7891709246724254,1.8848589662454047,0.10941161196131165,-1.8215729305843364,-0.7685575269567922,0.2026608286985132,-1.2991371389218247,0.23009923896275905,1.114866181169458,-1.2135940670481697,-1.2778228929486786,0.9846924611414266,1.4547748685950528,1.0511834782499763,-1.3205069023234253,1.1699593191026307,0.8792813454934731,1.3531703894989227,1.9703456091351281,-0.44940307151287356,0.35497689976398505,-0.6462270507591389,-0.14250016303857793,0.5559841630270096,0.9045304384953906,0.8486873685698448,-1.0787327739968955,-1.6076578263819634,-0.5102086837207762,0.28769977503761085,-1.1218049569218103,-1.047872666628678,-0.7258326964766006,0.49790010634608417,-1.188906112892206,0.3992920150171173,-0.6769161014993016,1.3697285203343808,-1.046482190596294,-0.8905599735850755,0.7395067916040688,1.4554094438240575,0.2882922938044328,-1.4366273301362487,1.2063681785565972,0.3219508826370156,-1.8363176121990978,0.3990506651292933,-1.9309907396162873,-1.6886954254568156,-1.8606863404833467,1.9536349143319218,-1.112103184138117,1.5337079291008844,-1.1572899924617186,-0.30288431344510974,-0.5720277865029987,0.6348135210338245,-1.0226358533256148,0.3877157772428752,-1.6350272871738625,-1.822842381388241,1.1090899198999253,0.4400744747536385,1.4152059003048578,-0.7042995988016328,-0.5394482171985125,-0.5259956687432179,1.566561786563678,-1.1340743570597094,1.2445372712497484,1.5048125567450341,-0.40975581172305603,-1.899210595735323,-0.23619350289056645,-0.09141538670078332,0.2453922097849715,-0.5050212501942352,-0.16825667546241352,-0.2586084309226903,-1.6535031072071225,1.2232316656317694,-0.7419839688880742,0.20540065272066896,1.6285175234989158,-1.1572913728765708,0.25657662678415283,1.5835772069834553,1.2098410858970383,-1.9652187577365399,1.6208247054584457,0.1367371983488406,1.1348462867777662,-1.265569821480844,-1.7828652381399808,-1.7574514937902066,-1.454310784627594,-1.0541438903142124,-1.7412990785501634,0.21660293458287003,-1.0591992885423096,-1.7961610217163315,0.7343094455869545,-1.9300026578637035,-1.6429806774578615,-1.4110241646199153,1.401015205261655,-0.5078073053849517,0.8020265182758783,0.5413894526163077,-1.1831215502422494,-1.121688898489003,-1.7160257443112434,1.659283900070903,1.5489991111590524,-0.7306547861183428,1.490182504398547,0.40599956716656593,-0.8054775080074308,-0.1255751387841476,-1.2149300934869651,-1.2291260378841566,-1.9313645407934614,1.0966065148502921,-1.5220083925503785,-1.401856163323525,-0.18712907677965615,-0.4313070161916004,-1.7808056523501437,-1.0311115204336865,-0.32767864621015647,-1.3934044166598554,1.3951049117274388,0.903916546791824,0.17048566366197862,0.6329848864672025,0.7570757286565095,1.581532321764957,1.0223902153640538,0.09527934618152605,1.8986628107136028,-0.850569840972194,0.9024598267208088,-1.2599650874249027,1.0920118498812672,-0.4128154597418404,1.961152775603048,0.16445770854213615,1.5775571795609526,0.7163129101353166,-0.5240724293508404,-0.4483394995283225,-1.8466129407814362,-1.9365468162138075,1.605550020815563,1.7847489485759682,0.1588863516897153,-0.6548742449978705,-0.885303462386667,-0.6235653097835531,-1.1402147303017962,0.7350245537541855,1.6920064374313906,1.9775472677068933,-1.6035244017134174,0.07539345006638941,1.0858361869640154,1.0954430844702676,-1.3618939253249107,-1.72285985510051,0.6564065520360922,1.4878058786819732,-0.3042914192270914,1.3814438500191313,-0.27525089452563584,-0.5854851176137125,0.011231501181383148,1.644244762608869,1.6869547827086813,1.1780670778695992,-1.1674985783659428,0.5298269266830254,1.0492692250185156,1.6273543691957786,0.7945305011045019,0.8140334731638248,1.3840069451178263,-1.2676043186825208,-1.0988384401379037,1.7201562840858087,-0.4384282993526978,0.542596823344592,1.2961463789896024,0.6140771843490498,-1.8065238467016678,0.2709092166624297,-1.4010607614405792,-0.31339923281402376,1.4434749024608942,0.044576832558395674,-0.596459954903649,-1.0396733147718265,-0.4366266941756644,0.7563626413193966,-0.7601254557818186,1.4098864987187922,1.124326249563722,1.3746282357001713,1.7880705162374786,-1.8555054966973663,-0.895324177012805,-1.833196352486679,-1.8921087586382246,-1.88741222156371,1.4950515005613778,-1.7982227132621613,-0.5775724988539023,-0.9069032431448648,-0.3099083130096575,-1.8267897010918959,-0.17470656917224786,-0.3411342445731806,-1.3151819411695813,-0.4553446740948859,-1.8946821056116026,0.7048399092466449,0.715151684595303,0.03212741229365432,0.5182346709626606,-1.916687428179741,1.4375188226176516,-1.4767554765083264,-0.2777107187352103,-0.7887938294741177,0.23879731181297736,-0.2129823012412758,-1.4992565096696118,-0.4237582462784076,-1.286517419773419,-1.163214693175349,0.6191183720894627,-1.194434262194998,0.8834748250284005,1.1412229623967565,-0.2904908991065697,0.0986171348966676,-0.19695170242479884,-0.6048720802274937,0.8521767985655145,-0.11869092128386259,-1.4606860909189447,0.11445960099517011,1.3701446553370868,-0.615859219407507,0.1788145476401789,0.3016792255369583,-1.7036103855370355,0.02158822396050724,0.26447732887610276,-0.1975159493301745,-1.8470125537288271,-1.8831178559838495,-0.19697453055335698,-0.043216878742313475,0.6953718213064538,1.8700936190897461,-1.8997723666083468,0.9725709454817395,0.5074501845830922,1.0179795888137908,-1.777218227516057,1.0524057809214968,0.9435652782252105,0.6988252355980663,0.41211292576286235,-1.4151156084380285,-1.8696304506616173,-1.373705850201588,-0.8964725127730744,-1.3904100050434525,-1.296786104459017,-1.1816895372178386,0.2565555320639919,-0.12179629372448285,0.05825976938299717,0.31273925923253815,0.47238942206408285,0.490278338706895,1.7955352545400596,-1.983909716555249,-1.3093948343872173,-1.609804209839624,-1.1777842197245154,0.9099752653638075,1.217071768045608,-0.26782354255404567,1.3248938351712454,0.8580223039396334,-1.604876264565743,0.1761707176805799,-0.47505535172235097,-1.6060279737898808,0.9645975280952261,1.312575793943398,1.7528346491854807,0.3704967743724559,0.810495970470095,-1.4685514010125829,0.22651274786220169,-1.6885639516638324,-0.44863420960425576,1.4802897144648255,-1.6862170752226624,-1.992529350682883,1.935867317283698,-1.403227529218133,-0.14283328420239647,0.40594738879221454,1.4518472275194814,-0.5047689042323181,0.08671596117194437,-0.17471819998213658,-1.3591907050448473,1.1539803215321136,-1.1381657832182852,-1.1749405527794856,1.9772518476172563,1.8849112545944051,1.0955968022349942,-1.3834320820164079,-0.1658599180233723,1.9746016424820334,1.7524920199693461,1.632190064853732,0.8999100295902461,1.9942510280847443,1.4329589590506073,-1.2177589767574029,-0.5144326644618885,-0.06654062426352875,1.6064031196250488,1.2716852142147945,0.776570779413609,1.5087373115521585,0.6238692522344602,-1.834306309280691,-0.3036351309680832,-0.6771971256975375,-0.3563278894291606,0.7010358745655804,1.3140053570449763,0.5094682872720581,1.477725297569311,-1.0589163401093398,0.7051286238277885,0.18888399516098087,1.3804747443241354,0.19109959748180116,0.7150303643657343,-0.576025323421692,0.8618372151796736,-0.9189418862648814,-0.6729353018965618,0.6013082226721337,-0.19934856301387116,0.6612298491115288,-0.497829712414509,0.10065845226096372,-1.1980580624902917,1.9360424430771708,0.8384506604430548,-1.9214544687832862,-1.9041565329676895,1.5769056707350437,0.028747188726802958,0.2060216678058921,-1.370443682627592,1.2269830880044212,-1.9048948825931116,-0.8280003367708667,-1.266477583827815,0.9621560163260326,-0.766830318262132,0.7262789567965429,1.8668823880998284,0.41527674493766176,-0.17521783510452357,1.4479419372148408,-0.9536183799808274,-1.4846496905142006,-0.8344833673373531,-1.1025937816166675,1.6932585770531663,0.3894439362949005,0.8038778379545217,-0.6236933549681204,0.8317544439026349,1.3427265082857276,-1.909657356128537,1.5505543459729039,0.7895435421316265,0.8780030953061748,1.3137741510778014,0.07584797787086271,-0.3647814907659522,1.3945278421888738,0.12625954071295054,1.8630315742417904,-1.5441305051797283,0.5627832197772377,1.474222601993232,1.595863239620424,0.6642444265782272,1.7032918745292354,1.7396568245189508,1.457685956881556,-1.4086564869689826,-1.0321468312561777,-0.06456621615365891,-0.9178369880656772,-0.4117546804410992,1.966951556213062,1.4313933079382077,1.6725646923636261,-0.2669560827901546,0.15369039663115594,-0.12031296014643524,0.4998073321798763,0.04806645851346212,1.8275336305641339,0.6941697021775932,-1.7253385832403154,0.4599343587623151,1.009034133865078,1.0654720917049054,-0.5016573423112776,-0.06157483370473751,0.7779825880958375,0.049365478066965875,0.7743991171113921,1.2608188416890518,0.5377403267716846,-0.19626086487618286,1.5189101993614378,-0.7936146570424245,1.3258876286205192,1.9563187695296531,-0.8874522049720235,1.4078780562758033,-1.6033908656993567,0.47445652619586764,0.7468677282244149,-0.5216713455455826,1.4476727047395068,0.11069439487509536,1.9139426129790573,-0.19620594509077077,-1.4217761274841583,1.049104824399834,1.0541198764386983,-1.1642170999737824,0.2064305468062485,-0.6147625537400206,-0.370466721511713,1.5787945611903265,-0.017494840535525406,-0.12304442470315338,-1.7712896917530077,1.166685536731775,1.1340423003004714,0.6274657886934254,0.9658775391706654,1.2933877501618232,0.558179200275848,-0.28794110772199266,-1.7265334188428816,0.2385582624701732,-0.4694086893331533,1.543537810780512,1.0273708384582623,-0.41933642477761746,-1.9467918635463604,0.718494873598113,1.7928353064117253,-0.2435392179474634,-0.9641387155497516,0.3529195820454135,1.0841226119425593,-0.6186082340754352,-1.316133084507329,-0.6612555511981905,-0.8576032827153384,1.7074026236023192,-1.1801720533777038,-1.283980111194726,0.3857479865769578,-1.619202933551454,-1.6708466781947426,-0.6275200303599381,-0.6367667422247822,-1.6824922763592975,-0.6429276427343829,-0.2073430963942302,-0.296812561837986
0:0:0.046496045002052885,-0.0025097259107917194,-0.012842136387951559,0.0015626083775837558,0.06441260213729726,0.02593884797470488,0.011686508249215764,0.0028569685942978033,-0.028682195219951242,0.059636614501722585,0.01738215886931251,-0.05424532469935199,-0.0023489426148395544,-0.08315265085635033,-0.016558413891936907,-0.01277073212661904,-0.07393484991663178,-0.05381337288231481,0.04573142805599447,-0.006797808700479081,0.060324510020164486,0.025961538707462588,-0.07704162774046922,0.010659867978603216,-0.06346193074785016,-0.002601648239780216,-0.053334703714438755,-0.06728075499406459,-0.022139294021805152,0.0058970014510250435,-0.018910599536791035,0.009844106725855882,0.03581097506799634,-0.052517759341023415,0.04239965885799294,0.009256157533486341,-0.011021501435670798,-0.015453481730684017,-0.0617035719761142,0.008345092288096012,-0.0543677696235297,-0.013378957119349395,0.03313396965457998,-0.03637018555639472,-0.05025742319538989,-0.008495419265778799,0.0035886887532455836,-0.014059228336135545,0.034561127192115564,0.02842324074744431,0.004200107001477221,-0.03808209708002138,0.030292035026244,0.021622218063930866,-0.009363667138099387,0.03632880102150939,0.00408093836282263,0.05428954416103652,-0.049353721373766465,-0.041270428762065034,-0.01024689908016019,-0.013437931852198525,-0.00205380330218655,-0.025756558470793837,-0.003666145986560016,0.031975842828716045,0.0037533202593253733,-0.03145259306924392,0.07630392064433358,-0.04336771163164787,0.019180179081892516,-0.024012306733015173,0.031816202182356895,-0.0065808298064788905,0.03187559803298058,-0.0023078434663765138,-0.002794128735590549,0.011271008081220094,0.016124155305163784,0.06573448118000497,-0.07554415762327753,0.0034679018930313856,-0.049916571431472496,-0.024731360453056263,0.016121621952967197,-0.03924176328147686,-0.06319265716628006,0.005162996095580743,-0.02007792543416913,0.04316489250766756,-0.031132665710633042,0.03500994282485779,0.013731722007769573,0.04073548786334313,0.007008862945742865,-0.0036623626461232987,-0.04362989722380954,-0.01906690914338027,0.005599043566390136,-0.012072758999023122,0.044738205540197015,0.015369819440155095,0.06512305625089301,0.047319365815054644,-0.016661299975956202,-0.034336293145405865,-0.033089180820914256,0.011018622909115613,-0.03843732137008783,0.06471499401680711,-0.043583764217894505,-0.04493054677391703,0.01828250257129881,0.061059679371311675,-0.0006674576338475745,0.03547473648560936,-0.03306301105191043,0.03282227755145032,0.017089584442006697,-0.016523921194786594,0.027137829519648986,0.07520176170175533,0.03214579089456653,-0.005787343578697959,0.1141478163046287,0.05418644264887374,0.07932504066433395,0.06192263533166499,0.028036006857320706,0.03273015030658565,0.015589370035727535,0.005789845926145333,0.03489860276663169,-0.004377396966699688,-0.03140724442273043,0.04490899513038134,-0.014981740461428307,-0.01901625094607646,0.02997291896247758,0.0025105344540880706,0.0016373587498409328,-0.02135845587527802,-0.016119575389350525,0.026667073053291083,-0.002421467533552221,0.010646194725482241,-0.02678926730791529,0.031386052654281106,0.02651381439281511,0.023244627054351194,0.06332478630357423,0.040596054811499506,0.03982689082085544,0.018106479482162534,-0.006346213053783229,0.025939505374331408,0.03112595175676923,-0.0005903519644608217,-0.024685359188989,0.03657885390652836,0.06885352909634113,-0.04157298374970177,-0.0026048568884030616,-0.025355318787525085,0.039139256679775206,0.06169972065339325,-0.07774195199575323,-0.00794776066152935,-0.02034649515050215,-0.005760603447360123,-0.06725536884255859,0.021841391539989846,-0.072855029716733,0.02582810602797188,0.015601511935770208,0.0010613363314562407,0.10886727250736382,0.01933124928147525,0.015972178020941367,0.03310878515260459,0.019610544203339967,0.009549966999065853,-0.01738917398056725,-0.05771120109108175,-0.06603341480266552,-0.03243419828171249,-0.011307470418899877,-0.029054637294871368,-0.005220600163989187,0.0023526372750691626,-0.0918514491132789,-0.013454969654322736,-0.055065959167526005,-0.013959373658427492,0.05892742444852615,-0.027862791871737305,0.05663138808608142,-0.03917564604394526,-0.00135273449543372,-0.017176096677597976,0.05549489506075553,0.0286038233956984,-0.017567113140612545,0.011758233866926033,0.005721128470801065,-0.03666395850094769,0.05111963157245049,-0.014970462329201843,-0.013898107098779693,-0.012024406119059123,-0.02903587063193104,-0.011927287362589039,-0.02368226990826195,0.04102227576636892,-0.01569406035972445,0.058635509716772796,0.0047645110226365315,0.008659229360312994,-0.04779281001086608,-0.018780931687693018,-0.03224740700737527,0.0552611252048305,-0.06940450758829479,0.037738445005131356,0.016555700686226603,-0.057184843889222424,-0.00016744750176647853,-0.006733184935423221,0.02287212440359389,-0.031507074578573185,0.053014270786994035,0.016992025167731125,-0.006875670436669446,0.015504072052385411,-0.01241631874440358,-0.0056999811584546745,-0.04809484699193063,-0.0015560790815532452,-0.000519561979028621,-0.017263862076676916,-0.006296841088445272,-0.04295274810596944,-0.0005729360033345925,-0.08702325344933425,-0.043146004787196525,-0.04827672407814351,-0.041332773778325796,-0.012962209900062551,0.0030382771726753357,-0.07129278368105521,0.0059057825075846055,-0.04260148184882856,-0.03479505368921707,0.019270976000896656,0.006679476052146409,-0.01124119398759127,0.01578839169856288,-0.043351830214859395,0.004971950147799059,0.022197030722293603,-0.004943184599657906,-0.0371432108609136,-0.06299283427196596,-0.06294361685563395,-0.06696855328783566,0.024544056898229704,-0.03152994004699142,-0.040156607263024065,0.016591987586546668,0.12547970501286473,0.032111397010951025,0.014658270404347041,0.019420883253403527,-0.015586248324939184,-0.021834502889577837,-0.019662762411527344,0.017926692106972893,-0.06580533084421587,0.0015732790630383629,-0.010067483662587985,0.01937381916273365,0.002130952726089928,-0.030345816556083486,-0.026419376686609458,-0.004623316378804754,0.0237135128825262,-0.05725081620658837,0.00021231582989527766,-0.0403862370474819,-0.01450418085690533,-0.049391227555770696,-0.09865356676380992,-0.10107623196307369,-0.0496960148376701,-0.006692550496816776,0.026337853798678205,0.005914704134387269,0.010539050339216186,0.0767216474455765,-0.03077961419352623,0.003269951519494616,-0.04584752946871271,0.02037605706078893,-0.02905203517248647,0.014293778785842605,0.013355946269566937,-0.017480327494708594,-0.016029193051901123,0.04833827697196243,-0.03297371214459683,-0.06185813973997035,0.03813247054351975,-0.02218025664621678,-0.014733714881473231,-0.019507666969784555,-0.04692694699819322,-0.08434318304334291,-0.10924166751605091,-0.08028797656251502,-0.03558395215960047,-0.0584442796031653,-0.05086084921870617,0.042054653653527986,0.02605787917005937,0.08943500744048768,-0.022474081727046992,0.04616619647750623,-0.04608797014456278,-0.01777455503859164,-0.031740748591603474,-0.12946654943246427,-0.0679312401100716,-0.05146918396693623,-0.0063068508838402156,0.013839516761309295,-0.0012755302925897178,0.06436723796197305,0.024026999454063815,-0.001934275154421364,0.03822524635165783,0.02961332976722723,-0.01017254334083177,0.02708079493950349,-0.04598540142050135,-0.02369123125714283,-0.12804273163200255,-0.08553773285204369,-0.08611268333096074,-0.02809989625108516,-0.061536095784615975,-0.033425337715209905,0.036066243732432036,0.016193995545964724,0.05307692190104853,0.015192857656739493,-0.015435051766935801,-0.05467979340791957,-0.06448714559772083,0.038298368393275974,0.030317801987410083,-0.014552215051574948,-0.007676383502429736,0.016497407016603113,-0.07183696310594201,0.0011344635419576687,-0.007100051083260215,-0.044346814208268096,-0.0008961329618861399,-0.009664033668811592,-0.054954213963199036,0.03259319076604813,0.026284419702953317,-0.04708256887046091,-0.07653108458904564,-0.062174968304234766,-0.0324606303338479,-0.014647856646707138,-0.0346348674073866,-0.009740670475937815,0.05623579599543958,0.08570710422644978,0.03344496526036726,-0.05248022620177231,0.0056393619864624125,0.03626432624965867,0.02514274402007065,-0.005822790603351794,-0.017798805360203552,0.009515715947367973,0.0008762698823193898,0.046495465722945176,-0.016994387779133587,0.0506077488228272,-0.06586450764270874,-0.0077185986600457595,-0.014825064431792795,0.05045291645179703,-0.002813536179268452,-0.08461550429510385,-0.004764300462510304,-0.0484962267657901,-0.024016189299734182,-0.0053157427537533705,-0.027649638506312815,-0.0846259217814278,-0.0391001418849487,0.04391376552154047,0.029243578221763704,0.043857742326245,0.0025630477860866057,0.09253231967650535,-0.05081544961734456,-0.02114792535186625,0.030697708682141236,-0.006228249523341831,-0.11323805718719197,-0.026160772015021688,0.008778833153517072,0.04606067903056875,-0.06459656957797702,-0.04397144173491085,-0.010702346792361539,-0.012618537988173724,-0.017987435238320384,-0.0005682119352409919,-0.028426957443966956,-0.057317052790979,-0.012859840758917667,-0.0426458364428731,0.028778458862919326,-0.03193334723173141,0.009093684510026531,0.017456383503548667,-0.010052251663447594,0.03431297750607183,0.017467014186777617,0.012569816489055908,-0.0026048567333799423,0.014287912970806832,0.056468333388197955,-0.016702768665519376,-0.005198579404679265,-0.010402343714099404,-0.02830965569875498,-0.02904474311150848,0.00512958601581348,0.01064408923965007,0.03616096340226164,0.04026750243547302,-0.010931220545344074,-0.03416145755766536,0.007327853165062887,0.00941846469123128,-0.005172261380686707,-0.018852048114404208,-0.014160748956476224,-0.027807513298964328,0.03867198744771679,-0.004948816208509222,0.036556092781687144,0.07392226105050617,-0.010896470212383564,0.022094412322667286,0.028344275368610904,0.04146522330974549,0.0568069535757402,0.024397543786272305,-0.02624789488853684,0.02731130738399379,0.027388439308150103,-0.017781127504127314,-0.029015348051519122,0.02630472992945151,-0.00922125804471492,0.02684138301071548,0.005029693799690061,0.028269418235047344,-0.01039702588898683,0.00974179674540658,-0.027060032765312683,0.006405601116945448,0.04152725672201472,-0.023790277882232928,-0.030677820283782596,0.03293292398534712,0.11514698359165382,-0.02237860019133218,0.04051909093855301,0.04949328473768268,-0.016113702509521825,0.02006049583874874,0.056671113243433234,0.044906290474708885,0.0659293055266576,0.06056116444461576,0.02294781728796531,-0.030999978946467447,0.008285081749925746,-0.03905594536726163,0.05339351519429936,-0.0009098302689164972,-0.04282757050693862,0.025855248374846127,0.006020742012813125,-0.02361558339625873,0.02898438937303551,0.03674041102805841,-0.033035512998025804,0.03444070428998434,-0.009195770359677564,0.02987168742081802,0.026516063062222192,-0.0029548573363995414,-0.027647705187096215,0.09485911277323711,0.019765483333276202,0.03882767360834594,-0.03261796962747507,-0.02774265926476671,0.03855350586521757,-0.014240360994347017,0.0600106934708982,0.012684516168945925,-0.01805441241926464,0.019610310145643635,-0.06094086887424906,-0.016620203773743413,-0.020102369724098783,-0.04267748191481876,0.05357735892113489,0.013060115744507493,-0.0341313718579411,-0.008494687937383201,0.041785031128165076,0.04234103962523092,0.04965658060728095,0.02140274289495613,0.052700084685700095,0.011781426562623628,0.04701303975891524,0.0199730461718676,-0.03919179550804238,0.05274278276473749,-0.016909757025824545,0.018557911768082382,0.07194205725065925,-0.010502787586317702,0.047226097716429924,-0.004723751966873388,-0.016983343505830615,0.008140722562836891,0.09364966897218521,0.0177690871469931,0.045775654548635414,0.013769444805250854,0.04136059990030783,0.050714596691255734,0.006499984088914574,-0.046953414560433095,-0.017124610903506785,0.007736473142693128,0.0003869317331681349,-0.003761814454062886,-0.0284297050000102,0.011176622912697599,-0.0105389166234741,0.004050378108448343,0.05345995844766072,0.037097717979547196,-0.04130043692295011,-0.067112326173213,-0.008745985490309296,-0.05299850309709164,0.05220377027765627,-0.016734207494569723,-0.001159616827529294,-0.01484859663501564,0.05340295320728276,-0.02997401959526164,0.03343929440077396,0.012278316333860492,0.06155340373423033,0.026517623156737023,0.03697112589319061,0.02511847780642183,0.011883549733374894,0.028135758062830935,-0.017989312628819466,-0.04714701401439018,0.015149453749468392,-0.031195895809060712,-0.02152019516364967,0.031363840617514134,-0.059949850885869835,0.021416223996800213,-0.016421968520695798,-0.024714728315111043,-0.015417410058612973,-0.03573071801193259,-0.03619836479259979,-0.011303247926471853,0.03331773350674451,-0.014690944507558961,0.0050522502295370884,0.05002236504020847,-0.05228869925922624,0.015340982509696786,0.036278579829840264,0.013385394762903147,0.09329642091482568,-0.02731045848589267,0.010472782147381498,-0.006940397692575104,-0.025151584414065287,-0.04450374443737946,0.010049795640629038,-0.01884610614175597,0.04488778565627295,-0.04733791125059912,0.01483831921528199,0.0670834327914011,0.03624335611286839,0.04600189975475653,0.0213354674461016,-0.016077348309694407,-0.0213838948036017,-0.0006893627578652071,-0.0937107206459839,-0.02819465315755429,-0.08600747339896574,-0.02447766257736813,-0.0032670232100653236,-0.024099589240195275,-0.008981128500076931,0.02854578726647142,-0.01927842947253062,0.07635515599051139,-0.015302302990717161,0.026901016302008817,-0.0009149399946031026,0.05519186071431664,0.01996858138269356,0.06929379762483594,-0.04820961183231887,0.0002959391278212048,-0.023622316072540412,0.018163447211244053,-0.02618663353439462,0.0013083049049254,0.003814775865915748,-0.012726489048389744,0.014128287885389805,-0.026949908842331376,-0.04417791722614123,0.017317804822221842,-0.026540465593350247,-0.058886074692375695,-0.016297267489099813,-0.06324856743672315,-0.08860390232379865,-0.013652099311289717,-0.010952612313032807,-0.014175845351994483,0.039596889360450076,0.013255204271058071,-0.015001979796786484,0.024813818701977023,0.021967091165494522,0.010244702261589916,0.034831980221669306,-0.048173963351643485,0.000551963045640383,-0.058238435744716315,0.006334204312095841,0.08120037876741923,0.04001965222886553,-0.10360109765543937,0.01693162163095306,-0.016337341847638066,-0.04249176343698618,0.017254684424350842,-0.06718787208360044,-0.04815992822793996,-0.04537003625742895,-0.047066540586889666,-0.09137267879284336,-0.02437250879234909,-0.01742171657157695,0.010046454746062635,-0.003046262697916994,-0.06779916519938718,-0.024933484423244553,-0.06360960561676356,0.020824721572007567,0.031900976314074146,-0.04308945347030436,0.012933523487785861,0.04651062824790371,0.024020682166238292,0.0055268563005183655,0.052185044624952805,0.01777255343653396,0.04614506874039637,-0.05578726742577535,0.0033323133824046834,-0.0032945801618923807,-0.03261945769056657,-0.04078041647476746,-0.039029160407272355,0.01536237631506994,0.01298345386896462,-0.03614854837025769,0.02097534775524964,0.00412841546047042,-0.01925649604760332,0.05023680698985165,0.007621426425730656,-0.00555632229155279,-0.02405459699160561,-0.03492511594920291,-0.012273569419129141,-0.04514720797161562,-0.011461466429631079,0.030127617708400105,-0.01739366348914899,0.05824771633057221,-0.0017859308101252794,-0.02247964383903536,0.036159405687696974,0.016759464303506475,0.06073022760428142,-0.011091022035910522,0.03872697765913683,0.06237775751875728,0.06039407235826866,-0.06760973033013389,-0.02201785784155208,-0.008793914942305726,0.03684056534097464,0.062340700755325766,0.010985898765352851,-0.014800584995263814,-0.01873069403243469,-0.03601764861756905,0.0040092441389643334,-0.019745074219492228,0.02967289508042678,-0.026193596849898235,0.03530573108270161,0.012565423200337784,-0.0078415818976891,0.01646106531595243,0.041515269206446256,0.03228731049127686,-0.03325576686022404,-0.08854670550040854,-0.008093487654258274,0.028716265820995658,0.007689643045411976,-0.0007877013225945714,0.006141470606603476,0.03198012825512013,0.05143195601331558,-0.027973252334721872,0.05061846895181985,-0.057013586243250626,0.05997764397945626,0.012751609824169369,0.030917515515977972,-0.02866161857343082,0.046972367109086144,-0.010742281671359764,0.04759792755266589,0.02901646119017942,-0.026274725925331116,-0.055309039067215786,-0.04582954588506261,0.023495431119740246,-0.040390218346938976,-0.0756043901842247,0.06518588090866805,-0.01184376698599041,-0.007123889580952481,0.05408324058764277
0:1:0.04591268863827779,-0.038885248763274004,-0.001206952915335344,0.02127118385379815,-0.006670981822747764,0.0600170651369446,-0.0052845352441674084,0.001022912969896609,0.017139326378540737,-0.061504157525642436,-0.05120589631412963,-0.0037170469043782376,-0.04096920474941414,0.004255231031595017,0.016292579206295257,-0.012331523674418027,0.08650632758274271,0.023022419399044626,0.02206298957067823,0.04425495991621536,0.03202069079919465,0.008594244220302822,-0.0735307586834337,0.016817536047193483,0.010643387943451377,-0.0871483850228495,-0.017493646907142037,0.02918812937577343,-0.03416430673766346,0.021884739254532107,-0.06524068417286695,-0.04574505837247879,-0.0022954176513431874,0.01803291833222194,0.025933435193795436,0.0032256469992971494,0.004800904984682054,-0.03721747032590078,-0.01636864773976197,-0.038155153061031094,-0.038758702736394854,0.009595804263135343,-0.004235092956380385,-0.06401013859589588,0.0002613316122169385,-0.03976645182787795,0.04802067543482453,-0.04100281613234255,0.023520260846878794,-0.0029324451397793314,0.003919556487574346,-0.03943149750575584,-0.030189079921774224,0.041208901651360874,-0.0183066053452274,-0.06585621733779046,0.000816931956892226,0.03544958929088296,-0.009701468818479924,0.03227274251639749,-0.02241055902268067,0.013211851318372487,-0.06082045295618827,-0.025597588998242028,-0.06182167852816485,0.026503095931047466,-0.011951028855808394,0.05793455657463403,0.01567284202672343,-0.029044229650639918,0.020064784960393184,-0.008702994764759713,-0.007084590257023141,-0.05763075870256255,-0.02698038301060423,-0.0038578249548864175,-0.04296067141497076,0.020716089972813045,0.01565400456355937,0.06176313263110162,-0.07527403704969514,0.008442256099912266,0.004917856851110456,-0.026349626887723077,0.009786557532882734,-0.008159408322284147,-0.058877949890459705,0.003571166186924598,-0.051559715647866426,-0.006261460343159318,-0.018569703032332404,0.02494495793147415,0.0032590915954292315,-0.03301629364864031,0.005380060910978322,-0.009237593751479237,-0.0003243003169111475,0.04248722567914837,0.05289392162283444,0.01937378362590447,-0.013907977213794961,0.10719551835815568,0.05031615456737255,-0.023522359243474417,-0.022286451552474027,-0.06413779460847782,0.005758313930548306,0.03816622830443643,0.02020547962027127,-0.04065536337285868,0.055132642565901606,0.01142899089528865,-0.015098643880606888,-0.05001682539508433,-0.01679422599864736,0.04890236674305199,-0.011637300817822847,-0.02004450324609527,0.010251568580341302,0.03214807594285798,0.07054083549375045,-0.06470621230709771,-0.05381804740980849,-0.04284157214569061,0.03450840193683799,0.04693665354614946,-0.061487630018473634,-0.003326536369064074,0.001116770185215721,-0.013312142758310897,0.045526225211279324,0.023208716698538776,0.06739284233804069,0.016107137023059617,-0.01397912687158958,-0.06249150511530602,0.07412496811713236,0.016026309759994653,-0.0432807373563511,0.013332037813251357,-0.00410085265929053,-0.01173717585841557,-0.026305259768683593,0.020986279614371207,-0.09814738317264528,-0.056289756608830024,-0.018315433123141035,0.01973175887545415,0.06509158032995692,-0.014221686237033208,0.03622538284170441,-0.032099173229388114,-0.03592197947026819,-0.0017135603860065022,0.027601904172448354,0.02015238467141727,-0.0040013330593838175,-0.010180593298739524,-0.04746796359164858,0.006191293781426309,0.05578215100179632,0.022609187198338824,0.006121502275216544,-0.03888327300900047,-0.017279336548899595,0.07045682242216447,0.006441249976392282,0.030925424969398378,-0.028242801221138203,-0.036866414169594824,0.0023694136206670944,-0.0031763314170583307,0.04032018416467538,0.024395212138115355,0.05628125723774679,-0.014002992750058752,-0.012869412215960267,0.00870409006575898,0.044005605409105766,-0.04131524818116889,0.022745911088462238,0.03028814259703666,0.04992651211920645,0.0003662809421563707,-0.04904926413802372,-0.0010706938525105376,0.016945192254027148,-0.03747402886279201,-0.0023667249824120364,0.022728551773941945,0.03311887296696511,-0.03301208729080953,0.05595056468854749,-0.03362033225942284,0.011880747891026132,0.023659884282132768,0.06751541621157324,0.10471428871021378,0.04332596740810673,-0.019307224636068758,0.04726738604907196,0.038100942729989845,-0.019019171543977132,0.0409215673295089,-0.0063295372000633345,0.038338235005367864,0.03876098444098927,0.0015384781472722437,-0.009150187816974993,-5.921140141744884e-05,0.04362056144224138,0.07608811624309046,0.05523848214257311,0.07606226848479355,0.04684372433384743,0.08242746391877087,-0.04762279205233511,0.043557805268246735,-0.06155360942183029,-0.009264164248905625,-0.01801713593935576,-0.054965202797493784,-0.009560259107139746,-0.002917536215711115,0.009324490394515666,-0.019785511171347785,0.017340723587060985,-0.00068656327365176,-0.020465612050704157,-0.0018902248249270015,-0.002422222347042812,0.010895079020271252,0.01357962303150622,0.08875892087655661,0.035398955117800286,0.06680287315930422,0.0316435159238732,0.037486003148202364,0.08447891580885715,0.12926551696206617,0.12452686754779614,0.17650497111164917,0.10880159027338959,0.019655536350255652,0.040972261287662924,0.00047022000994329617,-0.01965036295792539,-0.03486094811202481,0.05308854590383446,-0.05788233928707314,0.06281282233939606,-0.10178459943464745,-0.03958439852074887,0.008670998894855115,0.03222216523589891,-0.00828450099355943,0.08437951974570616,-0.03593513307255618,0.07218474194050964,0.0217548236942364,0.07726028865485204,-0.028715761160180497,0.06178569397132558,-0.044252907629746825,-0.06654095133046908,0.06820872647283692,0.11664014796383386,0.1171338712325158,0.08837297961860122,0.07879283913874027,0.08186645097558377,-0.02996336447519828,-0.0361342202444571,0.029589901534384986,0.010643542370924986,0.015531407204866737,-0.0036728816475545666,-0.053680519118661334,-0.02708131575598419,0.02993665483892547,-0.058310033680208706,-0.010122854134054775,-0.04376617108023664,0.03198034478924068,0.026096852076544153,-0.013327326894914856,0.003256571826700081,-0.0044796714356678665,0.019134839174101345,-0.02660125890198218,-0.019364779022500916,-0.016670822872561913,-0.016542724757319487,-0.03281909933176149,0.08178065850966608,0.14500124710186751,0.02463929754663832,0.03870983006644279,0.005095262926324572,0.0026605301722407155,-0.010786821764698406,0.0027309092366693613,-0.01880613679037618,-0.06494411638670601,-0.07225162186693387,0.0026503689658902794,0.0158338697826978,-0.02304778260257479,-0.0238732677640773,0.051839606412869874,0.0004712810380576215,0.021333679420233585,-0.003935213414236449,0.019561813022988726,-0.0710893369271542,-0.010341617631678068,0.029077768425722867,-0.02578069955811991,-0.11015771510372264,-0.08160129680660724,-0.014900933226391532,-0.03381692958236145,0.07162153369903448,0.07064444104465675,0.0019924662500685505,0.012060430426030219,-0.03550070243085886,-0.01711590988974486,-0.022210505639685074,-0.03023187850286135,0.018320817078185715,0.0015001677556453798,-0.046191437693951516,0.00852210589888751,0.039778025117225516,0.0023229275337406804,-0.0026462947258267828,0.015353722880963695,0.0019043076455022509,0.025273663948283835,-0.0272672711585975,-0.052487232050221024,0.004688839060913864,-0.07265341979106857,-0.01886833435893145,-0.1391386532912035,-0.14665341022232706,-0.13570982999913128,-0.08384814728795403,0.03592049705934636,0.020524734821099205,-0.03429052749949141,-0.03527686514861324,-0.10477499336724624,-0.012873446528075089,-0.059790844227627565,-0.04563615036374583,-0.08506774646621519,0.020698775135729295,0.025612613971486738,-0.05117758392689962,0.017400366139684688,-0.07989300634738354,-0.03148604739730928,-0.0040499184714687,-0.040296014148191145,0.030637034292361972,-0.013829718676951248,-0.03926608019790938,0.09120132217452527,-0.0473625749567314,-0.03943229786815564,-0.1126392022625087,-0.08481093376388234,-0.16309874125185986,-0.10727854238993684,-0.17187649981164652,-0.10526254848234799,0.03247774905188057,0.026366464978712346,-0.10945979116344613,-0.08570010887217977,-0.024707828697051404,-0.08242174171742342,-0.031028393971503084,0.012211962876822979,-0.01326100497872521,-0.0249196718534904,0.020901880627451675,0.04421723755556124,-0.027906818430896214,-0.0035445864634687163,-0.004205007791353876,0.006377706996990438,-0.017995142778108198,0.006979584117186178,0.05022192962324857,0.01425139962700479,-0.026044317411960793,-0.0686730858149201,-0.14465627438517714,-0.07350267869318486,-0.10586544962295409,-0.13675170331310516,-0.1260763554015054,-0.0686769945458292,-0.0527831652835905,-0.14040403413485833,-0.18469376813553254,-0.024563397889304117,-0.07428797289097926,-0.03421267716119394,-0.03009069951126819,-0.009039515526913214,0.024722327164096697,-0.03463349843582273,0.0005145863276924017,0.036025354948972646,0.046376514265604005,0.0422010258099634,-0.032638759489586916,0.006806964891093206,-0.006352789834612455,-0.02598704212224563,-0.027822194441990446,-0.04380089491848653,-0.00399019708256579,-0.08837140457383463,-0.10457704811161474,-0.13401425486845486,-0.10932824573135552,-0.17567653500220393,-0.18426455375906794,-0.13212656936750683,-0.026163993459008987,-0.08286705708784665,-0.09335999437452693,-0.07060481151470743,-0.04127680658567917,-0.008657608870163123,0.0452376778505741,-0.04959492865589047,-0.008984790983734068,-0.03218914028622781,0.051342256055666766,0.03492267997728208,0.02712140806007119,-0.0837853887272918,0.02908610559084226,-0.014069617005323732,0.03843905126565224,-0.0514016011913391,-0.027562477335664266,0.06759147664927237,-0.0448352773558699,0.024460178899513397,-0.09889947844064124,-0.1072172077007446,-0.1152503203399043,-0.10755054792650323,-0.17066236797624718,-0.08050769077877376,-0.045136575304054224,-0.012550034063718012,-0.02853285506642045,-0.0012528232493178844,0.016854436036396463,0.006351426033890356,-0.10151531373789509,0.046329789861173726,0.04206841689723666,0.019951560343292134,0.03580763856896286,0.014105397679437252,-0.023334367653157564,-0.01632929705698637,0.04531097412945152,0.022814823167854936,-0.04453111840950817,0.020010891511747918,0.07921930948391653,0.011687079590418516,-0.04510525493326696,-0.006569668736844335,-0.013840603057209855,-0.0836862101001631,-0.15608838217736778,-0.11426050545977358,-0.11225063509596893,-0.02488101341406324,-0.04021549999410955,-0.0504860283409127,-0.012145133564117087,-0.010627122995493232,-0.028609190272329933,0.07724759227442617,0.021219966645453076,-0.014256012583203713,-0.0022873771215564612,0.04447904179490009,-0.038826293024423836,0.004123410716506474,-0.050162914060078063,-0.027031838851531625,-0.03325648151301292,-0.015761370093959153,0.04784013157205939,0.02066472853944777,-0.0007322914266335858,-0.008963654099027628,-0.06288549859405466,-0.0554518713897999,-0.03081067764890221,-0.08319088424234107,0.021777058970466147,-0.12078660870986939,-0.035465341820641684,-0.010651138432255236,-0.0037816397816146444,-0.007918009708430143,0.03356077959061565,0.03456913282681231,0.06328188508155262,0.0028321105440460965,0.03196991188934174,-0.012804030999637513,-0.0033370214875509153,0.033764457484517646,-0.03099060326425155,-0.06805525340646938,-0.055334334517662086,-0.04591283778230617,0.011959620571859885,-0.018614083899403437,0.02050709887464458,-0.0507346390543195,-0.009266062172754143,-0.0029350031568518994,0.10398959100986996,0.04535858663212857,-0.018237368313352296,-0.006472464698624163,0.009580811107724775,-0.06607993087857696,0.042764470916631485,0.026647458265150775,0.0024365875246637136,0.03020236314353267,-0.06971496185289651,-0.014780668249324318,-0.02497124518072498,-0.025512879210237916,0.014243836345263316,0.014789053176783586,0.0352972112834618,0.018588048414218683,0.006397577230462143,0.041032926580600315,-0.057381190438558535,-0.06620146598671152,0.023383280591910145,-0.02909353362933961,0.012585132227618393,0.05488439819492468,0.04242854206871899,0.03076772333558828,0.07517121402680756,0.06951040064145232,0.02741828406423449,0.033508683053863925,-0.016106333753027516,-0.0942666669978441,-0.06004635685653193,0.04959438411674665,0.003530128883726974,-0.0012232558033229363,-0.03439916436068481,-0.07014474472249128,0.026375972021014153,0.016188090985247344,0.031343596186124485,0.020655493995552634,0.02726818041026906,-0.023323171942934134,-0.03747651451125063,-0.020232473078556648,-0.033243962714418075,0.028771889647648215,0.018310670011716417,-0.02234152827419349,-0.017901093546363517,-0.004788715595388673,0.011075780202610104,0.05932972115026212,0.021558880747362168,0.09866436428188136,0.08135854921894897,0.06600038584126158,0.009592932518773235,0.06055116744881761,0.04935898557099041,-0.002031807165317893,0.010833972882983638,0.06185646549806704,-0.05978226761478258,-0.01821032887366175,-0.009446248987841235,0.03510999110739015,-0.0043786259495674,0.051313116633774275,0.022335779824391947,0.058897663999991516,-0.008486014603620197,0.028424730731277673,0.022740278888459566,0.020700863118522435,0.043415415289804575,0.02246408018264873,-0.04624004392664661,0.02751901541300309,0.005414204325304092,0.0017743152872498195,0.01903117283458039,0.07386476292023107,0.05265233225240122,0.07775146899374955,0.07982108916171807,-0.0046097562078673115,-0.011072300872986272,0.01822888592723987,0.07995662359131792,-0.03517367733480767,-0.049177206116105286,-0.046432154336181704,-0.10215112840504066,-0.031536375722208486,-0.010215821762643428,0.01757429964701215,0.054955471909844546,0.01771876614608183,-0.015649767369172476,0.028366246133282303,-0.02247478214077391,0.004030508647718152,0.01772467758696846,-0.024101155026307813,0.07039013965813376,-0.04499962369681769,0.02245654769172981,0.07023366559677975,0.01518486719516343,0.02891985113012902,-0.021231676447074948,0.05830300982424084,0.030865431999199527,0.05107591488135232,-0.030556791223169687,-0.012926940926702508,-0.008081812540685171,-0.017663440488664525,0.0032713012079288806,0.003322715794623774,-0.0028951556960152345,-0.010393045293258192,-0.010070826836626788,-0.006555533377420671,-0.01943028352466466,0.009437011409516062,-0.03185361246920367,0.0509275540010482,0.04522223088533143,0.023315866885687788,0.011006455295731962,-0.03261486248957692,0.02462511598655738,-0.005222920149334551,-0.03481520981737672,0.004248209019119482,-0.027702072716935394,0.12376744152250214,0.03243459044566836,-0.012894611339041986,0.01525904183451223,0.017363371574188387,-0.07145598268660888,0.0021590224056158834,-0.025169883790328206,-0.0002521109282393997,0.06249231153055017,0.0012575188771631648,0.010031048445967946,-0.04909891915006357,0.04538677247296022,-0.05633768960517791,0.02882616222111833,-0.0018507601469899665,0.002868930029908528,0.016275152099797092,-0.008456147373139771,-0.036171580880082564,-0.016578811970945285,0.03824690507787361,0.04616888709384028,-0.006654396764274261,-0.009874945622885838,0.05537427853412896,-0.004602918320297623,-0.031208196235583012,0.05186808819607603,0.028949453300424147,0.01841179762196724,0.07541259784043437,-0.009436310371909744,0.01424718118704151,0.052435843594198374,-0.011261503384868914,0.021478146891793164,0.027485091815987378,0.013724708941668435,-0.045365962860404806,-0.02791427181070379,0.019923056148062772,0.024896194871892093,0.01672097212732056,0.00623966687324543,0.036560750052588485,0.03415621015618181,0.04580574643679741,-0.012088450761988664,-0.0340626458163072,0.007490832937008062,0.01737467185820515,-0.0284921488459799,-0.04518744017409375,0.0036270617629223156,0.009556636816795666,0.0029857908723445047,0.013157655836674885,0.06252756100761914,0.04756430972835078,0.011967872347181439,0.05349512703947129,0.08815711136060532,0.06864739411433501,0.011109735357515558,0.01651194775874778,-0.004534211083591992,0.029773109389498502,0.02321378672899721,0.01446571915637651,0.049678921077050575,-0.004938394989714943,0.02590602815008371,-0.03745468735588593,-0.017161154204808897,0.008968892073027772,0.032819121118591775,-0.03149688978993484,-0.020206576914655116,0.016345480334424067,-0.02089697212238436,-0.07579420147984275,-0.02008448981470022,0.03489189762447162,0.028687863889273562,0.032159013332493866,-0.03335121760330314,-0.09593794052135446,-0.07003368014153474,0.001827273333477101,-0.008311591537121504,-0.0032186627887702724,0.003303711731130245,-0.027928695920868135,0.026089229973790942,-0.07804214279216234,0.006769206357301781,0.018296257825858166,-0.004111081641075975,-0.04762308273959085,-0.00863713827791142,-0.033195064175173455,0.028351332848175544,-0.08294956208834901
0:2:-0.03459111351447271,0.009965707529987303,0.07079659423182702,-0.010284297600780038,-0.04042839702969908,-0.009227611880049839,0.025091367426921585,-0.02740373093461714,0.046484201002630135,0.025737536887666442,0.014192998760191996,-0.036534261614694793,-0.017913511843343433,-0.040854821574103445,0.08128854853470519,-0.08628024362952379,0.016101774462036363,-0.015889054955652505,-0.010239824906535057,-0.007070946560561969,0.04354614891163959,-0.02923569764429662,-0.03312016983507049,0.004674588762041618,-0.024083322814283624,-0.05786045480348963,0.07460827822835248,0.027359530124354384,-0.0835582055637837,0.012067124600495333,0.004779055920279123,0.012544062537399899,-0.017532859454283976,0.04786028318747127,-0.047875146442475175,-0.03484091915808378,-0.03556737195214771,-0.02657560347570428,-0.017753591248141326,-0.017845682759093713,0.0032399559782169845,0.003427017361938852,-0.00012424841602811922,-0.01651658986456842,-0.00890086532484394,-0.010742395650120683,-0.0251351816291416,-0.01563519474775175,-0.07683165893760673,-0.021912183580959668,-0.039299781756450824,-0.08354745958287046,0.01948420313067687,-0.005378754854271045,0.018640729622841346,0.01461176397120599,-0.005559193441967361,0.022786080524679442,-0.06573579452930989,0.008667327791675216,-0.042516199397672046,-0.022971500423965036,-0.044053207383331704,-0.05194343327889961,-0.023268482909113118,-0.010167607561104339,-0.06005825981157951,-0.03878328087769994,-0.01926726019952963,-0.023322636657640256,-0.041308902121502074,0.012865479254821115,-0.022951258407484673,-0.010882173026538142,0.050109411097212994,0.011461910561985353,0.02394730062642156,-0.08165808050018868,0.001288973106708615,0.0222571623017208,-0.007753136338419959,-0.04656997283682311,-0.037704200453754624,0.014331265231158486,0.004553251125073017,-0.07971651052142827,-0.0022659723717959926,0.03622992874864554,-0.04360521657485055,0.01488428640495223,0.03389332959707318,0.009025870595059675,0.001461253585762406,-0.006438146416038014,0.03340920462379109,-0.001183045671589542,0.0038637761230854418,0.0730311796185444,-0.014464293071574676,-0.0014870348243786905,-0.010079097561278113,0.0025096910669528405,0.044322129016505826,-0.03571171114642413,-0.06720846500197208,-0.03385454989232153,0.02728730799843301,0.014703889305489368,-0.016347462349051493,0.0017792531054818962,0.10289409359689083,-0.051104852709454515,-0.03599493512501036,-0.022478688301465568,0.0268308637914851,-0.010242809794319312,-0.06198593636084459,-0.025760923918734736,0.0052969175039145255,-0.006011109845978629,0.02038065588126491,-0.0016182705560111301,-0.03025935008614097,-0.00957680502370117,0.007312572925460621,0.06345806958937208,-0.04146312261080543,0.029392986423240692,0.0350919245137013,-0.04783069301746062,-0.04601363426668069,0.03057852267029073,0.04348786278092198,-0.06879682440982937,-0.04658829511649818,0.0418593103673169,-0.00048411416936038374,0.03019871596636975,0.0425146956143981,-0.01881630989608795,0.01912140547889656,-0.02465576922052369,0.03110084939194715,0.005083438597608692,-0.011388886387941334,0.020017458956510043,0.023966270338746376,-0.07193988708795843,0.00019409939644894563,-0.025150579238270954,0.040231974355774414,-0.060991269538304076,-0.004085558350033269,0.005424467966275317,-0.016844203346820002,0.002803810727306859,0.03977521290113634,0.02179027296401555,0.02786802084271751,-0.011858705823532226,-0.033001793358210726,0.0679405056529131,-0.016732189309303414,0.020781890663962438,-0.03228481641271493,-0.032205246336626435,-0.07797773005125776,-0.053680160372900354,-0.008316875656667366,0.04697826292811934,-0.011453709442770934,0.002599452194369349,-0.03452641540438819,-0.02809998179225374,-0.05616649800103977,-0.039814940798332255,-0.07891350869952661,-0.031980453485842705,0.026817662879446202,0.0186069940302968,0.007017753088541623,-0.00840325438765661,0.004536322144866876,-0.0038745638490853035,0.02870984607944045,0.006782063368040119,0.02354850477045992,-0.001054485877929472,0.012527237430920574,-0.05672156501954921,0.031807335584364375,-0.05834875093427952,0.040733313291438256,-0.011578568665443155,-0.03496995797551554,0.0169715900441026,0.05740864434382821,-0.056343631184946105,0.043856260962907345,0.06224889117275858,-0.031659425265930664,0.015170579490287458,0.0008247019807299177,-0.05572427688932534,0.019556363775167625,0.03949334581545306,-0.02814631554424857,0.004586508429720346,-0.019171944382939756,-0.019275382510019364,0.02844688440338512,0.05072488092129216,0.018928665759645916,0.04966075386627033,-0.02767326258804063,0.03931096851159821,0.0039783958253337085,-0.011752861969818902,-0.010099101563436833,0.006364804740962341,-0.04448590730001794,-0.0139966204374628,-0.00046621627408505504,0.015270462327570743,-0.04326665686819277,-0.005159354143162019,-0.01894411638680061,-0.012466490010861192,-0.0045528695564024555,0.0032746880306646345,-0.011237065816122247,0.004702872358241451,0.020434803961022676,-0.012422353845279127,0.013705910043875613,-0.05833040853216046,0.05391695348432825,-0.003113834109901061,0.00562380793404837,-0.003134823299362998,0.034021362778209545,-0.015861529751099963,-0.029032659579630464,0.03120466221091187,0.019618771246317467,0.04368843927675686,0.004651615141210916,0.006358538000034226,-0.036360271884743854,-0.03282660502103508,-0.07579874686613614,0.011580392218015018,0.04237965833915309,-0.0023397078231787724,-0.01143593352017722,0.06152763994475952,0.005647061705918234,0.034726899698550424,0.01976348086267144,0.04188637072080451,-0.040412814596788485,0.06338814304936183,-0.02546780156297425,-0.008017948194510013,-0.03291778772729339,0.02078356805888383,-0.05976053346312222,0.024713987487437496,-0.03838575973089424,-0.014777507910958332,0.022746540739314782,0.0007314156182642977,0.0476525150833858,0.0313817542786027,-0.024369323285187653,-0.005429637860190454,0.010566752139141192,-0.026810992960664377,0.028469346808133008,0.0560977752989076,0.00884437789496494,0.016855252277588804,0.011627895675206161,-0.06551061558483313,0.05181840767390133,-0.013870609687520736,-0.07947928558376692,0.013271107637673599,-0.028118520690788497,0.019050012297056364,-0.005023142863322448,0.03907912614084911,0.07231143591466706,-0.02080501129312517,-0.009476012313563958,-0.022052989732850543,0.0007556378620725938,0.03279207915422314,0.05379724643862058,-0.0035180039725679307,0.00245360755187909,0.02102160338768845,-0.052774106956195346,-0.04255627135631623,-0.025518456543118424,0.0076132232836961106,-0.02751295596228552,-0.017139773929413456,-0.028999691723878805,-0.015868431017367533,-0.018212148145784222,0.049012515230460796,-0.030153782881485174,-0.021657940664381318,-0.00958907794028878,0.0119025598962821,0.01371478861849619,0.006848250346364073,-0.015587403898974948,0.01401804142626479,-0.05566137212877679,-0.041986067076908856,-0.016154981330795792,-8.450872960813283e-05,-0.013865802464779113,-0.002157442973946988,-0.03184892545267136,0.008456975790712539,-0.010743133061124904,-0.03190666310593396,-0.03092939553406735,-0.00030096333327482116,-0.03795550115933081,-0.0212111329302,0.04437674762913089,-0.03181836512820612,0.043772510040229834,0.050541234587428395,0.012482993522791598,0.004610100410518129,-0.01890529706559513,0.010238839660556871,-0.014671411454558008,-0.03204174487402277,0.008715624100622916,-0.056503173929502826,-0.05312848026059162,0.003649101932931853,-0.013212652543849642,-0.013932107364574729,-0.0065066096502557555,-0.025727978754135968,-0.07867718336817622,0.02747952539771769,-0.04781671784827851,-0.007970940094129315,-0.030344978682701047,0.01973823797174442,0.06067014376264486,0.04274765243297206,-0.02187465736893709,-0.03776411526941902,0.03283350671880591,0.05605489846829506,0.04570908426111118,0.06057675309934276,-0.027078041783399894,0.022294442938153344,0.02688786933682164,0.017763943601727568,0.0004756650761266133,-0.003255125303894296,0.01955776656017245,0.03253980397461011,-0.011547542715179658,0.04417251159699057,-0.00879221351266771,-0.01705282293657202,-0.023698100788887892,0.008964757158034053,-0.027498265738092283,0.043133752193618285,-0.047065863223405745,0.0071114151244476,-0.03551347440118218,-0.023224356699002902,0.037008607417154595,0.031322229485624124,-0.044197213549621285,0.032453087333679353,0.02198980434898999,0.0024744177367664547,-0.04160384269516647,-0.07168355414433643,0.00030187319401003517,-0.003487695889749807,0.051632448175118154,-0.034052847484774953,-0.015058928129572697,0.049413440638503565,-0.037731585669967704,-0.04321298350321693,-0.038416362062052865,-0.0021882039578260634,-0.07419700351676195,0.004168695751472775,0.011507636379271442,-0.06102090216247476,-0.002316002372017051,-0.0036602386747643188,-0.011688888176060336,-0.02979307223805725,0.04910342312403838,0.007400126627533802,-0.05387070272364195,-0.04161985319510251,-0.012270970487962923,-0.049528143152701015,-0.0620805222259946,0.031192943080611046,0.023913329291169245,-0.018485091974024204,0.06269656906872001,-0.032081893704209885,0.04656200116249724,0.01466545130184875,0.029332162855404048,0.022255750535562512,0.044884152836386255,-0.014706740460504122,0.010681962501047198,0.026429864907759577,0.009800370649740075,-0.06698384041450775,0.01503641920652379,-0.007049453410627273,0.024624668032869907,-0.06741782365187396,-0.029085955977750752,0.015333216566789067,-0.07619885464538993,0.02364419769551236,0.06378945886490403,-0.030158514818582907,-0.00606925545534981,0.03618879240308799,-0.06267991405111767,-0.048594189525079025,0.010525305588784773,0.017045507658648686,0.013661753469952697,-0.04423925348531429,-0.005505817028302598,0.006375141410910644,0.03466727388578828,0.047463931883926586,-0.042953923202713955,-0.003500869887728166,0.013963406564906532,0.012423611990884507,-0.07784256403766716,-0.003920859697100788,0.03777117218559061,0.05812815537210252,0.014224144430030913,-0.03802335728948256,-0.05950574066162937,-0.06363009604091531,0.0053652260620496136,-0.03305082815059312,-0.011724987463734859,0.048633180832161046,0.023720544123162386,-0.0033261485139966687,0.0063866869862776315,0.06770510317867569,0.014362199658228226,0.01267838679883359,0.01432233840478439,-0.008356821887064967,0.012277467309391782,0.04256469765981133,0.0042783914255098724,-0.007736477247283253,0.025634234306675472,0.04657427604953889,0.008754661976636305,-0.006906312980500702,-0.012237650587221923,0.0618828840331916,-0.028230373596265842,-0.046588646723493006,-0.005925136975906128,-0.015287782795828838,-0.033310497916697976,-0.014672345174500508,0.04319687039626023,0.007888705086206588,-0.07607741478293345,0.039567432756165324,-0.07118252190855583,0.005602038836311236,-0.021156743463487785,-0.07364522498791588,0.00483641296574995,0.029600238927997468,0.023541868652077542,0.041721358040274284,-0.005538335864140629,-0.05310362080158933,0.03246993317663358,-0.03006438881051056,-0.009381297773816483,-0.004661620103980212,0.012830836464987453,0.05635488489506576,0.025053344281822137,-0.00736969564795762,-0.00849561119002411,-0.019111230578035314,-0.018488885911080655,-0.0653339337774766,0.048533870190238526,-0.019811054327765403,-0.03077144233160716,0.0357119216100513,-0.027751271825553744,0.03181927611980236,0.031957216614145995,0.02044738050896988,-0.005107313961527557,-0.0063188115762535715,-0.08407537879128711,0.03544098581557955,0.002888433314605318,0.008022184808987982,0.08539188428799521,-0.01884291135072551,0.03142853053162368,0.006043947684407561,-0.03711809608919691,0.035555189980304276,0.030772046461317298,-0.016061536596418048,-0.0156740415735355,0.0026217667389899714,-0.03714519711077507,0.008451322053151437,-0.012316638933775277,-0.016999742336976632,-0.025945461022105064,0.03048849691733701,0.055883436229735045,0.04598308851727129,0.003849517280462978,0.057866322380211554,0.005670539157761677,0.015185072716475316,0.09187797137268362,-0.01094220202030437,-0.01065463391677496,0.016412259449811995,-0.06770120790253721,0.027088570143759552,0.05812826179117715,-0.03296120307508927,-0.034674487461193566,0.0004068127942234313,0.064161690372659,-0.020359495326907305,0.06720768138801882,0.047409607613877455,0.027232020933365818,-0.09285093427140038,0.01761096775524271,0.009465885884403316,-0.032608241572829266,-0.04422284591704301,-0.09899847688891003,0.06237025590640195,0.01641986858659869,-0.04250564099907569,0.007585255986241179,-0.030723867058365713,-0.004340421829794193,0.020312311425308635,0.06476142998193854,-0.07777011172375874,-0.036819373242139866,-0.08756405358690011,-0.04619215501208422,0.09209049572815187,0.005868259108549812,-0.022714978469160155,0.028838520884556393,0.011386405918022067,-0.03232696027137941,-0.03097073135833453,0.015668869270913682,0.03412030029078734,9.210724053997289e-05,0.05193377276831457,-0.01219253225798676,0.10000574447171538,-0.02189864643808879,0.03966993143502175,-0.08506422104346863,0.026285622592451232,0.028154323303504668,-0.06379310079028913,-0.05604669137852117,0.023244430415153717,-0.02122413064222838,0.016102754901813645,0.04161912639759143,-0.01322040728751274,0.011715433493833565,0.05741035722281789,-0.046698057889230996,0.022566732123367364,-0.03394410172093301,0.011530194271970454,0.08066027028556194,-0.022409673687651364,-0.01551383552809031,0.0015420594390503873,-0.017904745291918926,-0.005547768428724525,-0.049898325486169175,-0.012783758408675027,0.03751500817142532,-0.029587248467412723,0.013367511416527146,0.09219816082270754,0.019758289636306603,-0.04468267528734506,-0.07312807667770602,0.010648147398520103,-0.0025241717766342816,0.02583212226123092,-0.007115330424852043,-0.07079541611967222,0.05996344480800584,-0.00057031776144488,-0.02250416931071074,0.0015972232054557393,0.00822921442548222,-0.0015448765016561666,0.0024764740571682664,0.043872033399365254,0.0010865775079055952,-0.03803504687255769,-0.01938566314693812,0.003429579975379295,0.058696116880585715,-0.0010834885316821864,0.021345477440881288,-0.027718517008428086,0.09139614629008048,0.033811269612192954,-0.03064032080431594,-0.007307170075224828,-0.04412599490646012,0.008783297719417705,0.03628124583336285,0.04520989873851899,-0.06083759243597532,-0.00036762820051102754,0.014210688443124907,-0.052498658760645175,-0.0071374325266362285,0.035152376871917544,-0.013062302586350355,0.007573112646393387,0.021573248812371586,0.051102360117715726,-0.0023812200118392608,-0.03158449241694606,0.06871138651993874,-0.032537739699360926,-0.04526039926972924,-0.04386745549332844,0.018061390183029827,0.01721277588639746,-0.024618248079693775,0.029305998711188018,-0.056796915993947844,0.028824969338163347,-0.028548715099435726,-0.05633534919537442,-0.018963772683757884,-0.011379607699443593,-0.07474353001650022,0.035492668742378185,-0.041776919336404934,0.014272293014030438,-0.004309575252889455,0.08957232795354722,-0.0100061728673173,0.044296384299087825,0.014641212104550279,-0.0055386418488445775,0.02504080340000682,0.05599939244545053,0.006206116787750215,0.026592914301966964,0.017671921990700352,0.0826924816319591,0.022149725400617194,-0.1000073545473649,-0.0016417472697854692,-0.007891335985165246,0.06249284444754258,-0.06014245812398873,0.08239325082953884,0.01163157645001114,-0.012802437853019667,-0.07953529798935295,0.005306113025731601,-0.010746047978320964,-0.02246092411850324,-0.013099188047323867,-0.0586615898621289,-0.03303763451982205,0.05106505676349275,-0.028369086195746088,-0.02426685632304735,0.11670791981960274,-0.0009822225630327108,-0.008516739965886415,-0.019774265596942026,-0.016745196288306667,-0.008425537454245284,-0.06893225475337615,0.03318440294675132,-0.03688671170345956,-0.015836362252841928,-0.014193033109344506,-0.05183104983913858,-0.0922304384851648,-0.00038189295267453615,0.09070889187637857,0.013121276272458604,0.03697189210511852,-0.05076215542333368,0.02057313095917202,0.012364533743340341,0.014218990883213092,0.022489932833068188,-0.010175897015584296,-0.014540321144904104,0.006221507815662973,-0.06429078147377301,0.04183453451159986,-0.06616765465600496,0.034700450342518604,-0.009199814408444218,0.056784201980906494,-0.06159276950784254,-0.05562599329729135,-0.021961078527351758,0.04144804200766252,-0.045621561639828424,-0.061886967833363886,0.02246364149246072,-0.0219635403077229,-0.06794849956381746,0.02487074093076867,0.04866886533340393,-0.0010665278039722322,0.02645369796078286,-0.0289174881563125,-0.008165877695601275,-0.003067818244413454,-0.012658226009680985,0.02683610064063746,-0.027739438020071394,0.023662974933450834,-0.03104351615491812,0.040200354174711225,-0.0067995418445677466,-0.048052829546882586,0.0016666279552486304,-0.014388181197970923
0:3:-0.0004647437412755843,-0.023170440416550545,-0.004018199426712208,0.018049534199217333,-0.005898650592639286,0.0012400288298702255,0.01799802917413362,0.02985134876253899,0.012628026225869875,-0.10187124310869985,-0.013833452718738252,0.020987494200808213,0.026926768985546277,-0.03450618889584815,-0.0052040594272528655,-0.023840573320179255,-0.046328296036630676,0.018752655617176466,-0.04178933454606531,0.017490268359757075,0.0022276753332648937,0.029119778740878104,0.007482303771412228,0.019672385337919998,-0.05355565414647586,-0.00474296323375263,0.027831593110399205,-0.027606567458570146,-0.004794452439019179,-0.01635419476576909,-0.010898348764229751,-0.021212364934927015,0.0015858516576311267,-0.07318558676619263,0.03284111609367041,-0.044301123831943484,-0.0006629175830465789,-0.021693710502309095,0.036203944447716456,0.026948563527092254,-0.014240141785887903,-0.08997264470840487,-0.020320353744673423,0.03242961049144038,-0.07847076870222554,-0.0005274897276304276,-0.030116153910650117,0.06954687534281236,0.014280372292335551,-0.00819955833988312,-0.028258336903385344,-0.035317680565283845,-0.0210552376420121,-0.042949690798457694,-0.010704450982122103,-0.05244492975889115,-0.013479864670248684,0.00417617306008059,0.04553781510851691,0.0024926776227658324,0.07281450439547725,-0.05362222211762835,0.04565416444702027,0.01517884011702292,0.011005300858970592,0.01929374213653524,0.031208266284830262,0.052522808624938855,0.020944712726514714,-0.06623042962874058,0.04130392467894806,-0.0562061372228405,0.007722811306087478,0.015273108641017434,-0.04375959273119631,0.07290452414540634,-0.05259849313794993,-0.0394517044714291,-0.03571063578476207,-0.022171299161180387,0.018326492356825916,-0.026315810951612093,-0.038997990495457636,-0.0014168512373435363,-0.0245158978080524,-0.02412251775409617,-0.014867566634619961,-0.026222315215937857,-0.08442521672214882,0.06370407949698732,0.0012451308593388025,-0.003570422739429392,-0.008141292381679686,0.03448289794655952,0.027866937801744686,0.05011415755764004,-0.03645685950752159,-0.03409417623634722,0.027299928891901026,-0.00026839187954493166,-0.013929773416676988,-0.03591211807554952,-0.044720824521880094,-0.03357126306439725,0.00019691614220622772,-0.035205681538556535,-0.0621387870163906,0.055958598002910365,0.0013231037155035715,-0.012671913882745385,0.020120475571088488,-0.012913996968542538,0.016766018057738613,0.016494462608287068,0.00959818586159916,0.00978028588876654,0.0043096696444716335,-0.05692975418558208,-0.07053021030082392,-0.013748384426245108,-0.00372980566340927,0.03102586571432143,-0.08812960168671706,0.012006647920977592,-0.07346067569129858,-0.017370305258971847,-0.0165567232915396,0.006490058006103435,0.008790337406469086,-0.05017509233554897,-0.03556429308153505,-0.10225953504567128,0.049179495160053835,-0.048520207325146864,0.06480234058488932,-0.06592220649461344,-0.014766373405553363,0.060495931067089566,0.1019461984757668,-0.010952513232763042,-0.040590596713212884,0.01943497942121214,-0.009208759489891864,-0.012242787100211943,-0.05104611151826245,0.040542234415813866,-0.04193148478887798,-0.01956030159671976,0.002811474831796824,0.02728525313643726,-0.010844718888404367,0.005713897927378225,-0.04022012696945282,-0.043906855060841084,0.0053778257806924735,-0.0033701369274948584,-0.006861642508232753,0.0398924197759521,-0.016920504261812148,-0.005612739113792748,-0.018778915357360596,0.028661060363118055,-0.01603677216658063,-0.005827372696495311,0.0060502380365717815,-0.11604807764489837,-0.008060890247692706,-0.005739780380880788,0.017538538086007003,0.06240990498716418,0.027465247232609423,0.028805868446818015,-0.022317681935385147,0.044787034930767924,-0.03364664058025182,0.04120653441031743,-0.03691892366126029,0.03643956936741028,-0.006292925587403813,-0.030126258803763805,-0.05819813668079504,0.09928874748231414,0.02042343351965302,-0.030914139043474988,0.03670190449456489,0.08404254024963091,-0.03198019451224849,0.007260983696298199,-0.06215932549036964,-0.0076975474172802216,-0.02511243427085042,-0.01922710093431979,-0.02532106685633954,0.008078728303867034,0.01017466748533681,0.0516250855149076,-0.024388622997218258,0.032315107477577175,-0.002976813032474065,0.04619540084434178,0.037410945109533814,0.01167931282329689,-0.015728447135897015,0.05381589961213671,-0.020755432055658135,-0.048787140046805184,-0.03771855619944153,0.07497189096568534,0.04709867517841406,0.029957965413318664,0.014213286455348534,0.004936178040579768,-0.050195871068978784,0.017250974674117858,0.04733190971954035,0.015169982654566951,-0.0424273535675972,-0.010023411406908581,-0.008856580948332065,-0.024494922188009905,0.04086835395540184,-0.00872207065803011,0.03440536173046201,0.04459406137018735,-0.03885368307716527,-0.038111651768095806,-0.002966704275975373,0.07128545552726016,0.022951134175215642,0.019155076463312964,-0.029414168942156774,-0.009080016228719054,-0.011254098473775828,4.1176013695447994e-05,0.01540618839812238,-0.05138581583947562,-0.055706450645456686,0.04700651021347153,0.02716702552377124,0.017709407729308357,0.003920467861937169,0.02419376286675249,0.02713773653200731,-0.055758836218465536,-0.02396644997845157,-0.05117217560059846,0.03545684604075387,0.10458440069204575,0.05241472359354671,-0.02414410611520666,0.02758653409457837,-0.02711051436627153,-0.04330810856123059,0.01489364083665742,0.027294391471408812,0.02862137388442625,0.01613018136699202,0.006486376630126859,0.010198411902939911,-0.003092670098185749,-0.05965565496164695,0.015073457543779156,-0.020048771579022986,-0.012890936895875445,0.007992095030112856,0.03392984867804176,0.02294306964402628,-0.015174112195878253,0.006100381839094547,0.048538370740368944,0.034449358842378625,0.02499160223686702,0.04025149042857112,0.04287293886896287,-0.0872777983476383,0.026628352878119425,0.0608993289587396,0.00420659615722621,0.010443616804185306,-0.024991381322602497,0.03809547832012522,-0.011544848486937428,-0.025174657155562812,-0.012010306492722384,-0.033681048022733064,0.0042609419816370345,0.029184718833336586,0.012162649003497315,-0.008199803770583535,-0.053931843500562994,-0.005642219814383833,-0.01759746371145708,0.014332107352120187,0.035815267870571606,-0.003114766196925867,-0.006214226155676275,0.029082629971456393,-0.011036224446027382,-0.07162571964464783,0.01804928164311021,-0.0002237934011222198,-0.036222572686608605,-0.014417629820922697,0.04027053490017832,0.004964553228583396,-0.022909268262171534,0.008587689224354985,-0.002631508103681738,-0.027456470759351495,0.009981001936999198,-0.04413482172283578,0.01774169009221993,-0.02627791765110644,-0.016252304300526103,-0.030900073020101435,0.0008905104989377739,0.00015051741893911958,0.015427268090598625,-0.035031670465876165,0.037509449959598345,-0.00017995511419410017,-0.06438930532037732,0.008651242449841102,-0.05676983877553327,-0.029043627196919622,-0.039803113223963994,0.033109352788396836,-0.035983402372887996,0.033592583392000566,-0.05743927621184094,-0.030777134193631348,0.041565662686606275,-0.053834857458911006,-0.030284025050552395,0.02632764932918371,-0.02619351860091868,-0.017856299610185953,0.00037618953181778173,0.037017649056288876,-0.009643372032034981,0.020070303876019557,0.03557923939729975,0.06501136434081091,0.0015121267288819582,-0.03143993456686394,0.016173492137062876,0.026474905027802847,0.059811012799729515,0.0626940160454315,-0.04486868603139039,0.000901296858442546,0.015846794177037386,-0.06295406572201805,-0.042102912616937264,0.055094477241544274,-0.06214087061478694,0.04336161563464997,-0.013503913651906178,0.017964795594394633,-0.04938549961668962,0.004818565080263018,0.02860170889120147,-0.04405408040827729,0.0006123762715468524,-0.02809019373005922,0.050471413014301865,0.07532554995338453,-0.02583432474361928,0.058368559499448115,-0.07027924576940361,0.061344255833736525,0.05652177636646611,0.02527026778839553,-0.0289302692768621,-0.000862589518482258,0.0657358802128961,-0.06883048756520216,-0.03226952940685566,-0.04792663163317795,0.03531750454569207,0.02886989007525395,0.009131891592716249,-0.06980762425132087,0.062206565693165405,-0.04670225913571127,-0.006540685424720322,0.026542871654427577,-0.07275918355496327,0.017711667285918165,-0.08055357768626537,0.0649566280872048,0.015049179087768169,0.04229396724917161,0.02053500848574207,0.0059328043689462285,-0.030245723454645924,-0.005264427418007227,0.03610109788922489,-0.01220779951483718,0.03877064392656377,0.028452846903447578,0.02499775611990604,0.009885766821273878,-0.009437540471226212,0.04551919811912709,-0.04827708580593727,0.016906120636884694,0.025772690187691655,0.005805031322155402,0.07448643474173466,0.015384700882030413,0.016000889746658607,-0.049536741909078974,0.04227982587888931,-0.016712905913103662,0.04721409301537556,0.02989076114408501,0.04787610444274982,0.00593946738348717,-0.00048528620774414104,-0.03917825981167101,0.06884459157472761,-0.01069637425170975,-0.011797924465535006,0.0756747247994272,0.011920149216267772,0.010271620618630038,-0.018753653837212583,-0.042881969053727036,-0.016407561716558775,0.005248583870180679,0.002269477949394306,0.06762407744740352,-0.024695308775579003,0.0267332591700641,-0.059243338844887514,-0.061122683274006884,0.06438154016881427,0.007394591166292106,-0.043231125347274794,0.017607653752530025,-0.031227040738805723,-0.007140835671235028,0.0072064124861396985,0.021399956396241093,-0.011656010291949747,-0.023716189667042743,-0.01204057774271541,0.02994050613539556,-0.03690534620470464,0.055826403526191025,-0.03667932912195664,0.03251142734803656,0.01850736958381833,0.005373921581171251,-0.052419456767818236,0.013613024196836455,0.00900276993352607,-0.02075357946356525,0.041858936866641015,0.02743674023553129,0.011037092645429444,0.06923696567554698,0.051265219048354994,-0.04043459524424155,0.020022040173170334,0.02927183095522502,0.028848495389695535,0.029833004099340633,0.03554202030129855,0.01046642760764506,-0.016613660261575524,0.045647199634525765,0.013145887638512696,0.05906304547578834,0.04548536331765951,-0.018211425050313448,-0.08295957302654787,-0.008582056243758747,0.012523625339729963,-0.03872374426024657,-0.011198212134037636,0.014259851358836836,-0.02089757308058775,-0.012051962643685523,-0.022922475058450895,0.03802258956168222,-0.002292043554597468,-0.07180706412811166,-0.02751752071065467,0.0385855513124973,0.021427201809256904,0.014779142599084256,-0.047032981718827374,0.06651711155412046,-0.0011177839924619674,0.012030205907570294,0.00850992746202667,-0.036671386694899846,-0.02058453526453709,0.0008349159679072862,0.0034054080965289194,0.030369750679817363,0.00036111663902609514,0.005357073849859676,0.0254357568471129,-0.040652981715936926,-3.174915587356249e-05,0.014424863858893288,-0.0685974825489105,-0.013233030485501044,-0.04202542909907472,0.027689698928429415,-0.004956944076194268,0.011776456238112801,-0.008109104275161897,0.022608444009216917,-0.06154060176322514,0.00220738803505628,0.039833044737450134,-0.022298761332991197,0.05071279369461129,0.016981217458078648,0.04208401401549506,0.03444432706154289,0.02779064518076455,-0.03246063363906451,-0.029633270004633186,0.03358703859491113,-0.012880795295073475,0.013607531344929712,-0.0031030353383520704,-0.012852267156068999,-0.009940253958537369,0.06826475307773917,-0.006720864908770865,-0.006974153866640302,0.0032809390591988213,-0.04339059849189675,-0.004436843677210337,0.022680501950977334,0.022181048299238736,0.0020103936287438756,0.017160166296856016,-0.025025158422124005,-0.021977448031952906,-0.006387306241166065,-0.03313454071119202,0.0020264137563250047,0.0014012392618256955,0.002774177674393193,0.051672000513588966,0.017770983945148405,-0.04986277230906769,-0.05636073713124975,0.037045028566691805,-0.006704594873934878,-0.03512027228267208,-0.0249935416137552,-0.025330664946356697,-0.04940789540854951,0.022253313703834918,-0.05583196989884017,0.0251446972128791,0.022775610540688065,-0.041192114890977294,0.045080558103741515,-0.06304143918596876,0.005754079160506104,0.0390430373275352,-0.029831738399810716,0.005552762929805218,0.024472493821452022,0.0524190678545959,-0.006606527426060015,0.033533915412994914,0.014156365623031995,0.021288620575602473,0.040286914025042656,0.0428064522550868,0.005656788333344588,0.011926391587300689,-0.058777795928508215,-0.014182110320849435,-0.006782444429274978,-0.029995809363733916,-0.055857918396867504,0.009357603476711612,-0.03394991029608274,-0.004065114130094155,-0.006237517867208243,-0.06231096809874922,-0.005448102005861359,-0.025048110605596707,-0.0943773501626965,0.07967488445443803,0.00767396046163039,0.08084429943605405,0.02561012427690921,0.0012931378432074346,-0.02429228530063455,-0.03630948305697029,0.04446337849258059,0.004998062184536556,0.009754051859660306,-0.012053168262077998,-0.026707035415315918,-0.0008948854464650576,0.01085511561098925,-0.07676350302270134,0.03379852625820213,0.011663079506462443,0.010915358969768214,-0.04100498299607891,0.05637596727053118,-0.005868779883560293,0.021271261196985875,-0.03463913003275232,0.04006314412911928,0.05107649574690946,-0.023672542006607136,-0.005178399145528045,0.04522506978160313,0.018537868665065693,0.056478883263768855,0.024319874416158658,-0.032471938534765404,0.05516126372185304,-0.003908608453913025,-0.028776170111016748,0.035978707140089196,0.015331816133080526,0.10437204626644497,0.010565060095972504,-0.008197399898164556,0.009299491750019631,0.046274201096650314,-0.0027586331422503924,-0.03320075988169668,-0.04868419149022492,-0.005677841680024478,-0.0281154735430709,-0.01347189505068998,0.027903030886987302,0.060579126790941885,-0.0344542525000617,-0.09237111882691326,0.04050562792954863,0.06062703971954804,0.0003240547154233341,0.04838538027356859,0.014199644209945276,0.0010888928491562492,-0.0014218810784012877,0.007223228267212102,-0.05850124436479306,0.06097497358599272,-0.03905257059174622,-0.012923281742441995,0.03278317564751149,0.0021368525273059605,-0.07574838301210321,-0.01628930694126254,-0.008373405901715718,-0.07209394247057292,0.012612060950687627,0.05553160258118376,0.007561047276505752,0.011279808040496005,0.06333071880186136,-0.0465377214517765,-0.050329014230205756,-0.0024850292123811965,-0.022942914291716944,-0.0005728420050312012,-0.041707887703627516,-0.025810929899839956,-0.06756228391178538,-0.00904002892826409,-0.01970770714288371,0.008434703974245809,-0.05532656280935064,-0.05047932675043907,0.011662596428574439,-0.00970249317778714,-0.052855467066043216,-0.060925605990018804,0.026697733966110707,0.03488736049440395,-0.021967914561702693,0.02166135795044664,-0.07388825796671337,0.00836102465483187,0.01597087388658848,-0.012325845628313967,0.004222699574675431,0.038652787502679864,-0.008550961459650556,-0.07047391497930562,0.017078804006591536,-0.053010309225314266,0.02754513421347371,0.02235680850247138,-0.013670919292391547,0.01989134390218942,0.012412928592516123,-0.022999973048859285,-0.002078304767722789,0.0001241600289767655,0.009942371140159894,0.0006879814718597126,0.03982246057762192,-0.0012605529252182272,-0.04517759378550093,-0.013677995479633874,-0.010371060651485462,-0.07832829439039217,0.027313742799950528,0.03749335656602349,-0.026109104336787103,0.03823063069101901,0.06819037094849066,0.03367663153972598,-0.00039889098567450886,-0.025152692133987145,0.01633167099066053,-0.02679857177066458,-0.058515837000368914,-0.03731567594299411,-0.054399291973179685,0.015997923593673306,0.022762833192247815,-0.010090749786018842,0.05491771581416114,-0.010688854211638224,0.0001283182610703296,-0.0011119170583266005,0.001994659312557326,0.06177046865809973,0.037723354997976466,0.03221308586740016,-0.019790355281751475,0.0340198420009317,0.01374796954684759,0.017251538015455786,0.0038467743753685993,0.03375175930696345,0.024708966480673597,-0.00015333296219702207,-0.05778009048108451,0.004876131351673884,0.03802775863484977,0.037741797695115126,0.015290209886380407,0.04515413447202461,-0.021764757648549567,0.0020175028270777505,-0.027776103442055923,0.049155177681561066,0.019235649841291537,-0.010961375979490179,-0.05151634872944126,-0.04194110139667914,-0.03345127222177292,-0.04613715535649283,-0.0037193931531175166,-0.029070543438852188,-0.012162335230331086,0.012675945139353282,-0.0049090760336567745,0.014228611838454249,0.03300461601343527,-0.016932777331067673,0.003655800749134606,-0.024580735708905038,0.0047845395036450284,0.004621840742198077,0.0009028968705058482,-0.02673497932676079,-0.038305927731338084,-0.0200818619146303,-0.0021320915963345256,0.018977987091312303,-0.026597459041208377
0:4:-0.0041724576754963725,0.01434173752206512,-0.011809198384022548,0.02690558378338455,0.044917486570138214,-0.034456301664762545,-0.04896860813840547,-0.0009394835139743324,-0.026767978047857483,-0.04104024678566103,0.025286567958708643,-0.013418318147150752,0.022028943774770063,0.007198666286476679,-0.038095088427403716,0.02886128296012401,-0.0028037131390007855,-0.040376822634496184,-0.006698638029763321,-0.008222270170410318,-0.0013234967629678965,-0.09733141137414604,-0.016641239737301763,-0.0720198561610387,0.01373114077642068,0.018911643791072553,0.00722594114918762,-0.006383098627675999,-0.05175540652912564,-0.00953381187853848,-0.07058361113297999,-0.03647946569671702,-0.05381812994036107,0.01915020213943364,0.03245711934900592,-0.00206819002668902,0.05233308134162264,-0.014319421963010288,-0.04098044886537703,-0.04655633051134732,0.004918792019624935,0.03651871515002887,-0.0061593379936235445,-0.024915430595485625,0.031497377836007624,0.0005687147409381723,0.02045827496325341,-0.054490327457524516,-0.028136883733006525,-0.06194247433547806,0.0019115067706674837,0.10351532068941424,0.051452884401585186,0.0727895653818263,-0.02402110530463292,-0.02366895626327794,0.016190770589531642,0.008559441102232578,-0.01796390077881525,-0.03857406438146412,0.030130913369836077,0.03526182254905852,0.0263472192597206,0.03656641962390273,-0.0036101231925506115,-0.014613719464195426,0.026165680361164893,-0.008886915099195357,0.03816926388899553,0.02395884848546649,0.028887523465247266,-0.0009120417511332975,0.02165481420057466,0.009442235919684258,0.0014064992684061787,-0.019146258444825526,0.006203935215470968,-0.0022482882852612046,-0.05838890162880052,-0.033800606457862425,-0.07425041761868659,0.01695697369009236,0.002246103565333298,0.0005864317964712945,-0.00751973365000077,0.030344832477340385,0.037345700509202495,-0.0047961399952317595,0.006114571893283394,-0.030174788650012562,0.05100006452378045,0.013282094427217056,-0.039168785292461435,0.00804038295021139,-0.012529760658487875,0.005605847019271156,-0.008624047118566213,0.030045189572330225,-0.0021104575388047717,0.012732718849970898,0.08446071346210085,0.05087492073798568,0.013880095320128703,-0.027315708094100288,0.0048585237510339555,0.014580807658842508,0.03675010191546795,0.02364567926574731,-0.02492444099142828,-0.018741362731966693,0.0794954726318112,0.023807641014666835,0.004322695905268984,0.024251543345697613,0.036816463246174505,0.01574630162740975,0.03228294329517049,0.02392877008209378,-0.022619880999926643,-0.04562347432993036,0.0365966237670984,0.02379114174368287,-0.012723423052207377,-0.052545089899208655,-0.024215871528439032,0.03656934076621534,0.05083040858701514,-0.03522956044940494,0.08086346972737378,-0.01561242921314828,-0.014393055723956258,-0.014490360950313919,0.006256975271657746,0.008100995688334924,0.007617884409042451,0.012978867595089994,0.02894111341998124,0.02415827419868751,0.06635153637235736,0.054931679075024505,-0.021094970250841154,0.01744982585746466,-0.011610236339273794,0.019170213478555215,0.022655491625202365,-0.04453980367718043,0.04199489178292498,-0.012675900805756982,0.04312844692445171,-0.009905031528585934,0.03846967649836626,0.01704815862809728,0.05037788963057383,-0.0007295807341917025,0.07286001684140954,-0.013421662915977343,-0.028527912624064535,-0.0017109213807227075,0.026955433367113184,0.014267363188284445,0.005967901638370138,0.014649394870209867,0.03992180929155129,0.0385590933381986,-0.0017432656247731134,-0.018588721306516086,0.009498302429194425,-0.04341500375255537,-0.028098810311072843,0.0007865816655648075,0.045089694874709395,0.0021194502880164563,-0.03209943096024872,0.012124413255516601,0.014503250058941045,-0.024733741058007682,0.10429160601668049,-0.05523316300238215,0.10976076309643014,0.0348901596409637,0.050954328416350655,0.06242559682876922,0.049368351166749244,0.04365785878436065,0.09742277809010381,-0.03521716629318529,0.08383545788955771,-0.027141535778158886,-0.0623689507917757,-0.01430279181199672,0.045612150652455795,0.0007724432829053261,0.024236502061305426,0.030509256848349015,-0.006044081131144956,0.04927408446941757,0.0015872301970197458,0.01850442905817646,0.032662217126717775,0.0023883360702922794,0.0433453374533044,0.06618140569217457,0.038009244097152145,-0.04203935531518848,0.014050783632642897,-0.0203960520135358,0.026813517642582056,-0.056269137861404986,0.06099657652259328,0.029386860202305815,0.0025348960498668533,-0.046474207646878596,0.041711825202512834,0.030703784694695382,0.05623581872703473,-0.017812598151267026,0.031216048356742257,-0.020383392631730942,0.013456107148919663,-0.017852061748786386,-0.006719904650905561,-0.01678828898796688,-0.05791353699771687,0.0018405483237940764,0.050595646346347174,0.005021783555049854,-0.05815439510339527,0.011121048941568783,-0.013384243419826204,-0.0032231155716831708,0.005578062839347037,-0.014271194998516756,0.07311723758770773,0.04663033829995938,0.02841370478742728,-0.007189283863914656,-0.012613971830803693,-0.012891123415406453,-0.04466210565154322,-0.036315922425271235,0.025158981007357643,0.0025963520201278574,0.0066272311263105375,-0.02030389137506169,0.09657196521393122,0.08746485219460585,-0.021721300416124568,0.049698282138001,-0.011067888859529175,0.019392980128189734,-0.042079509022181716,0.034586119096231216,0.025987890089354017,0.044557062302783154,-0.008160278968172818,0.06683251750179016,0.043951698796466106,0.021165381833393032,0.0164189828453292,0.03845776767458253,0.0028708077777989524,0.03203998538379899,0.09612373160537979,0.0626421116769576,0.01792474758746381,0.024834483693027015,-0.06425591972570001,-0.007861636930547408,-0.09574416544208363,-0.03006257385256589,0.09579068814792799,0.04463491801968688,0.0714759660966072,0.03432407953568581,0.030513085629729247,0.001980184825410261,-0.03503734843973892,0.04307615318541121,0.0027195613833379526,0.03821031806063107,-0.06727162582247939,-0.012028971384708076,-0.02490453003358912,0.028883547369295832,0.009786673493761786,0.002014684081071239,-0.06010645483737132,-0.016060674092548775,-0.031405540570801235,0.021704201150537925,0.05211605293393422,0.02277105346661847,-0.03007914742838399,-0.0008846672850968398,0.006403448614695715,-0.016386545403552284,-0.02083289900161459,0.03887689879685695,0.045538490822346823,0.005283638737665946,0.07932723002413361,0.0146021578816192,-0.03426973317783992,-0.046198446008768504,-0.019103028831422893,0.01960703373742116,-0.05693481925431122,0.002750503563479183,0.038109251583388196,-0.07914560270084893,0.00935021180938923,-0.047075494220812676,-0.02193168512805601,-0.05493207341048424,0.018681261269463623,0.041770630846059774,-0.010471319405124389,0.004610129927911353,0.05084529113188887,-0.03816712583111631,0.0443216254091677,-0.03888833783792889,0.02600692036150728,-0.04335091764465713,0.0027022325290870907,0.006203551899477589,0.05144540866943982,0.019452504696661804,0.05034638862779046,-0.056009521164044576,-0.06689179946275078,0.014587086652928809,-0.05316621485488918,0.07049160371071611,0.016388133584197696,-0.08365601727014663,-0.013824083239703376,0.05110219916222185,0.010198337954505464,0.003060173319646092,0.031568382545763295,-0.04041528479190924,-0.023742760217002907,-0.03720310024347998,0.05544679996607989,0.002501490750133465,0.016804795831024334,-0.040778100586624996,0.0005487823665622361,-0.08721285887672796,-0.0035514980871889784,0.013939069164364241,0.04677183792199263,0.02944871309046812,0.03893939262814398,-0.031002130510745116,-0.0013458127671854814,0.0009328702724319564,0.00660160028257482,0.02957798027661876,0.04777011801220682,-0.010621101335874456,-0.05068520880341633,-0.007557670385381733,0.10055337661345554,-0.008335590068332361,0.006867303226392455,0.019711327472998183,0.05089018879930351,-0.030325731227745206,0.0038535675939171963,-0.06442132696611397,0.07761511605149841,-0.017165277772421026,0.001985183708452791,-0.0413180631691263,-0.010294345315570538,-0.01071206704754217,0.016170140246608563,0.0661797893125497,0.0871629126499699,-0.014293573375506102,0.037751788240494084,-0.01117510940320446,0.03117709613175151,-0.050797906073089594,-0.02980165743631328,0.00941437732254836,0.01598717810879748,-0.002002877745813432,0.07168160482484996,0.0018585795542397584,0.009610091787429838,0.05055116302151509,0.0021898014106669795,0.013697658220334067,-0.0046823504761735425,0.01782079502827658,-0.10877936579750304,-0.06388416222465311,-0.061670045144883806,-0.046901897740615955,-0.07270198310299236,-0.0024829628850855604,0.006902455378768559,-0.005366487953719763,-0.027233829353891674,0.07816249751115757,0.02275261512501743,0.05588495642978257,-0.023101640412220837,0.00028178332024423534,-0.01223976905295606,-0.066437041978648,-0.036696729296828275,-0.05466299036284732,-0.04179851523944861,0.030247363324308225,0.04070705478662833,0.0018522072137751157,0.02705057357357189,0.037144997303637475,-0.00857306922300715,-0.03857695002999791,-0.02107794966917585,0.006572599947060071,-0.039712188622616156,-0.018269418863592894,-0.007075083835116951,-0.00654164328507322,-0.03835066473427783,0.03380123973211864,0.01422382550482743,0.01837956669937638,0.04775747596214134,-0.022017375414815042,0.04812543414875574,-0.011947905954986068,0.0117757671589134,-0.029928101649282217,0.019792437763732403,-0.060624797815937,0.05330548811078775,0.03233081071968474,0.023264780993733546,-0.04048768752128143,0.025233474881052022,0.005694121360552308,-0.014385472502833138,-0.009413207774592815,-0.038132953782721225,0.02956824367643703,-0.034887900047956985,0.021046160523251336,-0.06378630847646166,0.023164131069380936,0.03892972048458511,-0.013111391456221916,0.037533229812739974,0.0401479916317715,-0.04342615816276882,0.024424428571402555,0.02145234433009262,0.02774474038378485,0.04077055951884086,0.05239170619538652,0.04066484514945284,-0.022981683754477858,-0.013194272638573598,0.06439789850916686,-0.019427464379932514,-0.07324361531755276,-0.06672933249689907,0.011415695766924418,-0.024695040742823023,-0.0022761193175217234,0.06516156842891402,0.028692046740512792,-0.014124617429433597,0.010136796046748931,-0.009911533846274417,-0.09443526586823757,-0.00793719458128878,0.012023692052190574,-0.014259615788498605,0.011119821247579799,-0.03549013174386156,0.0676610316295342,-0.01619901527526082,0.012262896934267426,0.07511245427026468,0.045681404859893374,0.03958304275669777,-0.0227390519474298,-0.030498142799179482,-0.004024026619094033,0.082288546981268,0.0013365066143439233,-0.0031340078605766987,-0.0010268504169360364,0.017289063396167,0.0009313429586151526,-0.02935707257630058,0.02546128965322679,0.0014719801270630028,-0.02867783992462477,-0.05713552740971458,-0.03499145872543219,0.01222634352317401,0.05126748952991829,-0.048559280481990284,-0.04144581303642892,-0.005638309755650921,0.031983058291026475,0.01639535742105347,-0.004650852850105997,0.023408709354353675,-0.010757442913011138,0.010381712874635933,0.03590371632815979,0.0475649759811727,-0.026190996158403028,0.03146649469728047,0.011512726668368608,-0.03639588180963692,0.056469695587849,-0.004740639246348498,0.05280241418054265,-0.008157310281437631,0.0021686197773061345,0.0032073715781023838,0.013972450750708297,0.015353237859910213,-0.04144446405037429,0.028469509959205296,0.010691082694999703,0.03282688448138527,0.033526510051394245,-0.0400186357082128,-0.0016279314049834149,-0.021341330187526222,-0.016943111551520347,0.013686070804915577,-0.008013032706977686,0.06119448950250584,0.07879450440750578,0.022048904794897517,0.08102457194603348,-0.032980847338083666,0.06537999971071234,0.010189644200683074,0.0035461828867290905,0.019356003818990983,0.008414236057379856,0.07997145269278402,0.030242165139206422,-0.010892625550059449,-0.05372939188432873,0.013297769632348584,-0.08405822204345004,-0.017459432228295203,0.016493182477085092,0.009574734914606085,0.02095360138009142,-0.02979567945061246,0.05384677846762784,-0.0007674125388711112,0.005161645718566939,0.1035192440696816,-0.047110953512595595,0.009483009988975727,0.03133725804628459,0.06299366692115534,0.003967209522223579,-0.017872870852390765,0.05151545245285751,0.03693845230917471,0.003289070452160983,0.0016073657170859908,0.06244210473203516,0.015211516104486547,-0.003645690918541683,-0.005995485908481099,-0.005025313108060497,0.08258618407952356,0.052666890377930535,0.015200407920644997,-0.04237393929300273,-0.07200607141923746,0.012499617854546024,-0.024984786104879333,0.004415123818795643,-0.002099484626126748,-0.07867646720240015,0.03481541476010076,0.02765790130580451,0.08351991854849419,0.06546113195433147,0.03304309373781112,0.0171348798956269,-0.00334509955932365,0.0021319120506859287,0.01109296687565331,0.02463570212266889,0.06911673416087971,0.07397692996047579,0.06225937016781394,0.025353683934035177,0.04360068200541851,0.03700403794767132,0.06194709094347681,-0.012755384379073153,0.00842050322642391,-0.06181014996332359,0.013080426083524098,0.008524207516844485,0.018420360770593627,0.0390386838004104,0.031873094820227856,-0.02242203924635609,0.044325638842602585,-0.0033781460686348576,0.0261957505018323,0.01156004532441878,0.0327141155824224,0.04540373991942658,-0.027345601943594942,-0.007357256221531639,0.03591961877846702,-0.011252612032107374,0.06155318651930518,0.05606191944646459,0.042647399310917274,0.002150070888279233,0.05418505698609737,0.01534443533833077,0.011461452768895774,0.0553898781810193,0.052571063213714735,0.016275504114884962,0.013267853598330355,-0.01113531197500616,0.038136986120869486,0.006422429007762993,-0.0006271314936181214,-0.005501623327612801,0.012506866991071576,-0.03544142210732273,-0.03883038907717771,0.0015593476922641676,-0.028961906132320563,-0.03983795982781714,0.02486693443398131,0.05090559304704801,0.04499481819061572,0.015339296430015439,0.014645894681049758,0.04097215272072046,-0.0070634993055043735,-0.016771204527126434,-0.034876479575556917,-0.016715383174134194,-0.015211993499164125,0.022144203665268557,0.008151541368534694,0.028709955918104563,0.020131367276777303,-0.03890106077524767,-0.020200151099101313,0.03634427800148962,-0.019908319008580352,-0.022996756580564888,-8.975066573186685e-05,0.029161334227370328,0.009193784301458924,-0.04109963209120197,0.0034725717646918643,0.0100800023178203,-0.05271853039656394,0.05801794632512096,-0.031079411588376418,0.05317939764576792,0.027145710632543868,0.020504839545389585,0.005701118630367287,0.03707939235760414,0.0021535318998416775,-0.006727125779120822,0.07507472172656582,0.044276278408302956,0.04341814711072892,0.0762602920217044,-0.04453872477278458,-0.06670142323752476,0.05779248700777733,0.018882191049461317,0.03402462969854625,0.020883954673075363,0.07403334477204089,-0.08794992053146104,0.03211775148442761,0.013147031953294952,0.007563218472898058,-0.012733747277711517,-0.0385057760809434,-0.024082166623262125,0.05522390362243228,0.010019794825763975,-0.023743547388169462,-0.051801733946411105,0.051824218761044996,-0.065657339058845,0.04652243618145656,-0.04562017874670046,-0.0025506273028505547,0.06326273760899351,0.005470358973703103,0.00119147975498808,-0.02845279817634044,0.03310863404904136,0.047892971257484235,0.017208512293061536,-0.00448608998582379,0.0001264291468993444,-0.005658869262340359,0.029140138618534518,0.02218742700880165,-0.02132876098359624,0.02185771267446262,-0.029460115561936666,0.02614317836596843,-0.0037680206675972557,-0.0635517801014852,-0.05804129680479849,-0.03619207796431958,0.004036109601621868,-0.020880853267893337,-0.02653672652985623,0.03285170814775943,-0.012708690162654659,0.025808395343489606,-0.013463211519221105,-0.008797922414650982,0.021418665252936248,0.08324957259652144,0.007952565058442284,0.03929626197391407,-0.004110159402618268,-0.05441834140859839,0.043919769228709014,-0.002809330494200826,-0.027564094367113334,0.0501460796073442,-0.012931777634738347,0.03881721877826829,0.02323575139824305,0.02175444997386885,-0.05827826614974253,-0.02513612531901601,-0.011349149746694957,0.025796544909037714,-0.030318638195655934,-0.003090207123800902,0.018568505627955593,0.0215011596904614,0.011546986395180491,0.04281309002163673,0.006863059621856205,0.03601145713136736,-0.01631980753911763,-0.016075187169250733,-0.005382150357195079,0.015584736722500275,-0.007824993334976292,-0.06117518670771218,-0.0559635932709603,-0.09912786603948315,-0.011484513347609145,-0.01445893156518937,0.02699478780107841,0.044547179571492485,-0.015060324421901498,0.04671916479083967,-0.005539349031655284
