-1:b:1.3653573822278278,1.2341719439287346,0.950199974997942,-0.26254851693119363,1.5496327697844883,0.6668440634012017,-0.3032974384389937,-0.12684212340988132,-0.7928864086173162,-1.8494826785216882,-1.7924043254345268,-1.6245619625655108,-0.3458157513587051,1.02960476505318,-0.49125795844540193,0.21626797887415228,1.8718660283386166,-1.3986188286709411,0.31186283969315565,1.6456481231003046,-1.9320684134651973,0.11176012759718472,0.0035752953122394166,1.3202029146349066,1.2381209605701842,-1.2659550158291122,1.4617749809128868,-0.4435139840590039,1.9788252053246587,0.509609610847338,-1.8442508346372941,-1.5229623250478745,0.8779464032045965,-1.7331434012551306,1.400682543925364,1.1819015010677902,0.6960563116741578,1.4208486976634123,-1.7092424774050836,-1.606619289076324,1.3776972702136223,0.31502005413304907,1.2655326383812782,1.1913035054227643,1.7075793905546885,-0.7893814197416774,0.5962283050199576,0.07171427593628567,1.8195322999771677,-1.6463252446529677,1.210760004981455,-1.4502811320884494,-0.9205172925245835,1.2516965319423219,1.632600170111291,0.5463855313184811,-1.4797510547142227,0.06890040011996086,-0.27695895684709093,0.03316406655833675,1.1350794982438617,-1.2138691205270997,1.021429163389245,0.398937632379251,0.772397835664784,0.9299903838482797,-1.0000100169399704,-1.6659631128677144,0.37926528898349066,-0.4962306562510577,-0.7378651878661906,-0.6206735450300045,-0.8750016232885354,-1.7157603919439963,-1.3655153485646645,-1.9685739672008413,-0.07894606074197907,1.684988495825405,-0.7035871335867728,-0.07758430017687827,-1.644750184841151,-0.3715797296241731,1.9958155414547591,-0.6407657372506343,0.5565933414094114,0.05741448894401907,1.1506300566586964,0.38678152277251643,-0.21693521309314417,0.9745110981600971,1.3280059785611638,1.4260329968739747,0.9447499220262013,-1.7014187389609465,-1.1573167505055348,1.0922242773733888,1.7194910092384463,0.7012966783625815,0.9304290583417002,-0.43465423005269405,-0.15521899183372068,-1.3813662488385634,0.5434534988444485,0.8113467780176126,0.9600728300401946,0.4715403350993538,-1.1907898942785473,-0.5074487444103007,0.04098468590002294,0.9150274869765589,-0.4937139778385822,1.9787656168985621,-1.4046264086822768,0.8846449333688683,0.456233224936897,-1.649463507666233,1.4136015061009468,-1.2455002593047637,0.18985304345584436,-0.4264887728707118,1.50926026666388,-0.12325235500041673,1.765210437690792,-1.5390119545158925,0.9890647870682897,0.8149832905796746,-1.6023086009682048,-0.28647274386487376,0.6550621825385965,-1.383817214414162,0.4568414965775889,-1.2263985651046045,-1.9448203021094481,-1.7728918739041166,-1.47662751970913,0.6867490126360337,1.2946017142957817,-1.985691990951329,-1.4558094659645993,0.14894587488744346,1.7150451271495808,0.2271865091818669,-0.3851459606626415,0.6237486593384232,-0.3142498243133636,0.4449691018700651,-1.906630987860002,-1.129889066813289,0.8682280113402074,1.2822424328788675,1.8356726834805936,0.6729992910263057,-1.559010317408223,-1.8862212730761128,0.3007480447351694,0.9970232262484636,-0.02866096969493731,0.3842783436047795,0.12415489411720114,0.6183437600805094,0.7969693595759327,0.2044122224922483,-0.8241539366458333,-0.3915562908255904,-1.252712797883789,-1.7201487216961207,-1.533248268196119,0.30369366771793577,-1.8848168828737144,0.29600142760870396,1.3905088607925071,-1.2368329524534398,-1.050318278555249,0.23919267627719257,1.5631893683457678,-0.5770654463839784,-1.8757609933470047,0.6644189943583964,1.2602916554798107,-0.8183449194307668,1.9497886650053649,0.993003740387829,0.22601843086561715,-1.7752214070304335,-0.5079032268007647,-0.03391758800987728,1.079419633027511,0.8060768937319991,-1.2427706744464055,1.2330614493883443,1.0178147269314222,-1.1077470247522525,0.8740224719184448,-1.6851327913566232,0.007580530646022815,-1.746980890653759,1.7608766922368555,1.8809091176996406,0.9732555303715185,0.6480810664061752,0.7056708105008102,1.2374448783762741,1.2967169819933493,0.7634869518982114,-1.9476243093105858,-0.7494692727162198,0.2433229572954219,-1.6324243395574993,-0.20371204270220708,-1.1016964570931758,-1.7305410424046936,1.59989029657984,-1.4302718469814266,-1.68352292682779,1.7273792040263454,-1.3684405286309693,-1.115753419905356,-1.6198666788818876,0.7220006453657586,-1.2777127949329854,-0.3462584608473386,-0.18998969593773524,-1.3918093898780644,-1.199730896891149,1.9721316089076428,-0.24700597567081684,-1.6550715379659846,-1.0170710453090135,-1.432264007292353,1.3149882134982336,-0.2295330602548856,1.8477337764290842,0.9544098041885783,1.1962520832153072,-0.889644527575821,-0.01836812219088011,1.0543222428405208,-0.8681353585076343,-0.35574273031638465,-1.6580893904416545,1.4799322367600594,0.03277409125630348,-0.11272031955200072,-0.820584608523868,-0.381780130611736,1.5659371532777375,0.4737354733899066,-1.0052249065792784,1.4653088053083507,-0.5792514576021635,1.683292334892453,-0.2151464229674526,-0.027784616323511237,-1.8253735436657794,1.735739590560142,0.14705339999015168,1.32176106494816,-0.019146010701410716,1.7027889940961891,1.6878682048247964,0.05922882855362935,1.5611846796502618,-0.03750492244128314,0.9339475312011193,-0.5541986922222404,-0.34174535460417577,-0.6017609444993204,0.09224846118331242,-1.6785174625859116,0.2896983864810554,0.11270076354968224,-1.9783758311953719,0.6047773834151507,-0.3722705601858803,1.2583149753242626,1.8755611554685039,0.7597043753014726,-0.1066316004240321,-0.13811832729885812,-1.574966823839981,-0.7891708925530412,1.8848478762008418,0.10942444242640965,-1.8215729305843364,-0.7685956239667763,0.20265361046946492,-1.2991371389218247,0.2300871823650077,1.1148525256608057,-1.2135940670481697,-1.2778228929486786,0.9846956717926649,1.4547913902757983,1.051179620078999,-1.3205069023234253,1.1699322300191077,0.8792723449340711,1.353132843006246,1.9703359906301643,-0.45016021350817664,0.3549927610530689,-0.6469673348966967,-0.14267632472126654,0.556016513984696,0.904527910914147,0.8486731692090553,-1.0787327739968955,-1.6076578263819634,-0.5102086958775068,0.28771646726217404,-1.1218049569218103,-1.047872666628678,-0.7258641093386748,0.4978967730295578,-1.188906112892206,0.3992882557856471,-0.6776931450319286,1.3697113753923926,-1.046482190596294,-0.8929374344557707,0.7394489752805278,1.4554086795308816,0.28825487616141227,-1.4366273301362487,1.2063497235671499,0.32192150828757204,-1.8363176121990978,0.39906706047816,-1.9309907396162873,-1.6886954254568156,-1.8606863404833467,1.9536245988278522,-1.112103184138117,1.5336857444755472,-1.1572899924617186,-0.30288382654012347,-0.5720277880658627,0.6348160560626932,-1.0226358533256148,0.3876982501230132,-1.6350272871738625,-1.822842381388241,1.109073994978635,0.44009597343994417,1.415167700920264,-0.7053029313617977,-0.5422525159913119,-0.5300216590459997,1.5665352482081092,-1.1340743570597094,1.2445062978543484,1.5047695070420608,-0.41166601703975925,-1.899210595735323,-0.23821213275880712,-0.09197896031982458,0.24541862235200668,-0.5054670156465564,-0.16867357450872675,-0.25883638351999594,-1.6535031072071225,1.2232078583296757,-0.7419852932760308,0.20541600797312026,1.6284700368190796,-1.1572913728765708,0.2565755827793972,1.5835718223139508,1.2098378292995278,-1.9652187577365399,1.6207970361431574,0.13675838905506546,1.1348217946823058,-1.265569821480844,-1.7828652381399808,-1.7574514937902066,-1.454310784627594,-1.0541438903142124,-1.7412990785501634,0.21654072304357877,-1.0591992885423096,-1.7961610217163315,0.734290713313461,-1.9300026578637035,-1.6429806774578615,-1.4110241646199153,1.401034895762122,-0.5083358501837331,0.8020031923886388,0.5413817717100589,-1.1831215502422494,-1.121688898489003,-1.7160257443112434,1.6592692366473214,1.5490100332325323,-0.7306657418166133,1.4901468403429068,0.4059779880247197,-0.8058009994981116,-0.12600519164797072,-1.2149300934869651,-1.2291260378841566,-1.9313645407934614,1.0966037293927415,-1.5220083925503785,-1.401856163323525,-0.19026296199916312,-0.43325992029136806,-1.7808056523501437,-1.0311115204336865,-0.3282326853018788,-1.3934044166598554,1.3951096682263375,0.9039136016193029,0.17050814157768127,0.632989035896274,0.7570868182522115,1.5814980072747975,1.0223592965389805,0.09526017530564429,1.898629545316743,-0.850570290165852,0.9024372077122774,-1.2599650874249027,1.0920007559991272,-0.4129849625101542,1.961156873623744,0.1644832550583669,1.577552426361447,0.7163044447878686,-0.5247668585660897,-0.4504518102293181,-1.8466129407814362,-1.9365468162138075,1.605498067294592,1.7847175573897491,0.1588359659111775,-0.6555802024445222,-0.8855273133420376,-0.623414372091049,-1.1402147303017962,0.735045685117633,1.692008742454034,1.9775387334240826,-1.6035244017134174,0.07538946769075328,1.085825937581005,1.0954447480456464,-1.3618939253249107,-1.72285985510051,0.6563982189462543,1.4878005431833805,-0.3042681614182479,1.3814399225789926,-0.27540207946124484,-0.5858535511111616,0.0112333589338437,1.6442351301716975,1.686934641509169,1.1780409864779913,-1.1674985783659428,0.5298168891392951,1.0492708667584718,1.6273214774840274,0.7944800494847771,0.8140043997173663,1.3839578235801913,-1.2676043186825208,-1.0988384401379037,1.7201339817835506,-0.43848273071615046,0.5426136103932396,1.2961605654652306,0.6140850189500141,-1.8065238467016678,0.2709058446526955,-1.4010607614405792,-0.31339930190875026,1.443461581031483,0.04453699587643232,-0.5965874512865093,-1.0396733147718265,-0.4368877670192588,0.7563693222772165,-0.7608104072772258,1.40990448862191,1.1243172762025577,1.3746061380347,1.7880758897133895,-1.8555054966973663,-0.8969300180892216,-1.833196352486679,-1.8921087586382246,-1.88741222156371,1.4950381949546483,-1.7982227132621613,-0.577476943108653,-0.9069186004800006,-0.30999447919934753,-1.8267897010918959,-0.17476476393372292,-0.3411677894791567,-1.3151819411695813,-0.4553446740948859,-1.8946821056116026,0.704846941837165,0.715140514390645,0.03213622929636724,0.5182116839780295,-1.916687428179741,1.4375275736893829,-1.4767554765083264,-0.2786927718350167,-0.7904669601728759,0.23879191447166104,-0.2172776345683988,-1.4992565096696118,-0.4244956359172487,-1.286517419773419,-1.163214693175349,0.6190877182713338,-1.194434262194998,0.8834500744720911,1.1412179735821069,-0.29066293208144484,0.09860074478430322,-0.19729916858743324,-0.6049626220109996,0.8521691850300502,-0.11868315998668777,-1.4606860909189447,0.11447053098164085,1.370146347865196,-0.6158592576677444,0.17880346565540742,0.301669876421851,-1.7036103855370355,0.021570346552814985,0.2644862752585785,-0.19756384019299533,-1.8470125537288271,-1.8831178559838495,-0.19994734691364419,-0.04583982722905176,0.6953439794871452,1.8700406336031228,-1.8997723666083468,0.9725411104255822,0.5074528224353224,1.0179427373200987,-1.777218227516057,1.0523651051780882,0.9435827252720685,0.6988108174694144,0.41208775103280104,-1.4151156084380285,-1.8696304506616173,-1.373705850201588,-0.8964721149432215,-1.3904100050434525,-1.296786104459017,-1.1816895372178386,0.25656733706106544,-0.12190918422218314,0.058245760913000315,0.31272951683705585,0.4723818483875893,0.49027353431517423,1.7955364122278208,-1.983909716555249,-1.3093948343872173,-1.609804209839624,-1.1777842197245154,0.9099542977426429,1.2170497572284416,-0.2680392812472415,1.3248699574214873,0.8580040526636145,-1.604876264565743,0.1761595224441458,-0.47520490635027324,-1.6060279737898808,0.9645699607259494,1.3125725069356549,1.7528234988164406,0.3704877285401691,0.8104791192915836,-1.4685514010125829,0.2265271760381067,-1.6885639516638324,-0.448638977387918,1.4802735378546519,-1.6862170752226624,-1.992529350682883,1.9358487187500013,-1.403227529218133,-0.14377252132978352,0.40594194249959903,1.4518278303486636,-0.5051544896229261,0.0867201408529687,-0.17520647857822375,-1.3591907050448473,1.153955304650164,-1.1381657832182852,-1.1749405527794856,1.9772244730576867,1.884887605164315,1.0955902382623641,-1.3834320820164079,-0.16616980236104054,1.974566475544851,1.7524598147113843,1.6321685808715696,0.8998886949224301,1.9942289621748441,1.4329559821124165,-1.2177589767574029,-0.514426497560518,-0.06647811707262609,1.6063667993228767,1.2716594206310907,0.7765476388731004,1.508710786129938,0.6238640369463295,-1.834306309280691,-0.3042658643025146,-0.6774782822561245,-0.3560230637347133,0.701023431975194,1.3139553279770915,0.5094496938278275,1.477699797825894,-1.0589163401093398,0.705122143293355,0.18886759106753245,1.3804483239186967,0.191091836420953,0.7150293499442882,-0.5760631832686169,0.861811931518064,-0.9189419627554203,-0.6729352553832465,0.6012906170513974,-0.19934856301387116,0.6612444582119965,-0.49782853289993223,0.10067063572483685,-1.1980580624902917,1.9360345451904455,0.8384627343810794,-1.9214544687832862,-1.9041565329676895,1.576901944890159,0.028738169162726885,0.2060411083524102,-1.370443682627592,1.2269637021270567,-1.9048948825931116,-0.8280071604439305,-1.266477583827815,0.962149444166854,-0.7668628512898491,0.7262704594973006,1.8668620075446472,0.41526055629599795,-0.17528129539979256,1.447942155973086,-0.953618094637757,-1.4846496905142006,-0.8344833673373531,-1.1025937816166675,1.6932474695716666,0.3894159382380223,0.8038424988022105,-0.6236931879898857,0.8317445383918891,1.3426962826079676,-1.909657356128537,1.5505278147427368,0.7895437013383783,0.8780020809858131,1.3137789264925244,0.0758543582614455,-0.36517217762098075,1.394534320955937,0.12625916503137796,1.8630110756699287,-1.5441305051797283,0.5627581744823446,1.474213188606499,1.5958616130508878,0.6642506306478385,1.703268669667395,1.739643671053034,1.4576689388282997,-1.4086564869689826,-1.0321468312561777,-0.06456643509010589,-0.9178369880656772,-0.4117546804410992,1.9669389796405545,1.4313930230407745,1.6725480989647423,-0.2669622645888192,0.15368507917886046,-0.12030466269581307,0.49979475495558534,0.04807408010594057,1.8275411608665826,0.6941647723624804,-1.7253385832403154,0.45991411890647027,1.00902675275873,1.0654594541177655,-0.5018966773202235,-0.06172108998631923,0.7779637482365993,0.04936911396446389,0.7743981892747949,1.2608099173556881,0.5377513901592963,-0.19626884231147218,1.5188697109727587,-0.7936143198102366,1.325875762746897,1.9562922764106894,-0.8874522049720235,1.4078727830901263,-1.6033908656993567,0.4744564437595202,0.7468759944186824,-0.5216710679356782,1.4476696705112184,0.11068252242684211,1.9139144110592057,-0.1962159416594958,-1.4217761274841583,1.0490838800998499,1.0540807118298823,-1.1642170999737824,0.20643994290668224,-0.6148542146857254,-0.37048588868180365,1.578783702118265,-0.017546652387414444,-0.12302532390616158,-1.7712896917530077,1.1666750852426795,1.134017439066138,0.6274561250606284,0.9658626137484669,1.2933607916659466,0.558177003637198,-0.28794110772199266,-1.7265334188428816,0.23854229392404527,-0.4694086893331533,1.5435530194821676,1.0273833089052853,-0.41933642477761746,-1.9467918635463604,0.7184703224465517,1.7928514633802184,-0.24354012710343226,-0.9641392163401615,0.3529347161274445,1.0841227457229545,-0.618605636096387,-1.316133084507329,-0.6612490680212012,-0.8576023769642214,1.7073898908162433,-1.1801720533777038,-1.283980111194726,0.3857432780767602,-1.619202933551454,-1.6708466781947426,-0.6275197556374109,-0.6367667422247822,-1.6824922763592975,-0.6429276427343829,-0.2073430963942302,-0.296812561837986
0:0:0.04638461018973876,-0.0026104588867905108,-0.012919688772758012,0.0015840368102931807,0.06428612647065894,0.025884424960063494,0.011711262488266636,0.002867321072910046,-0.02861748217852212,0.0597875638027779,0.01752844960416148,-0.054112732761282936,-0.0023208049329618255,-0.08323705041950999,-0.016518512889655463,-0.01278838821128224,-0.07408762798390234,-0.05369922175395522,0.04570597297311876,-0.006932121421620178,0.060482199724421724,0.025952413704572887,-0.07704192114392053,0.010552114604471986,-0.0635629843863347,-0.0024983247390916426,-0.05345400786141094,-0.06724455669564966,-0.022300804964567194,0.005855406631556896,-0.018760077243345497,0.009968406402284274,0.03573933320303293,-0.05237627514328203,0.04228448390920035,0.009158328462125375,-0.011077364392307106,-0.01556476472453938,-0.061557433279398215,0.00848672905068631,-0.05447008685570763,-0.013397141115424548,0.03303758914790133,-0.0364606529307861,-0.05039669055845012,-0.00842503576493119,0.0035446647592511952,-0.014064365101602484,0.03441333342971054,0.02855820053388375,0.00410105542323792,-0.03796400684523752,0.030367164922582734,0.021520058229830514,-0.009496917685673288,0.03628420614642179,0.004201711263288307,0.05428391987396164,-0.04933111442364227,-0.04127309469557644,-0.01033924158222057,-0.01333897470110413,-0.00213767291787171,-0.02579090898393379,-0.0037289280145143015,0.031901079845960426,0.0038402264691919626,-0.03130812618460712,0.07627682371352004,-0.0433147076105909,0.019257871258225874,-0.02394640050608538,0.03188750186749608,-0.006438494580519228,0.03198407495355045,-0.0021706156346461467,-0.0028209845445542384,0.011113705319620665,0.01617181200755333,0.06573620613786622,-0.07541314384552893,0.0034972690490865078,-0.05007946537020516,-0.024679063050489895,0.01607619606781671,-0.03924644715935097,-0.06328656409121457,0.005130786008761342,-0.02006073593356525,0.04307741535787605,-0.03125523210395546,0.034851374775494395,0.013583495304243333,0.04073084192216323,0.006904963589485263,-0.003993267408812906,-0.04405336655477191,-0.019418904931305055,0.005232012380423292,-0.012327776134099485,0.044415389200763496,0.015088878533942824,0.0647099761895628,0.04693530113034996,-0.01696316745494414,-0.0344918308408586,-0.03303722225773589,0.011048024522211765,-0.03844489988822077,0.06463957985018119,-0.04354364500303774,-0.04509204790100584,0.01839714402055244,0.06098742265455236,-0.0007048666419758665,0.03560769442382226,-0.03318971994321246,0.03286444155036874,0.016949985539350634,-0.016740728258940143,0.026576355359844726,0.07453183494299259,0.03111786645682416,-0.006754438536615334,0.11289668019926133,0.05300382430064093,0.07852516045607141,0.061165306076657905,0.027265993004830947,0.032176618239191164,0.014966155420903859,0.0054359817017370195,0.03481092964614328,-0.0042441435031420165,-0.031167556510854705,0.04499827047843901,-0.014998543566955184,-0.018830249847422202,0.03009538938990692,0.0024984216910901,0.0014973811736798317,-0.021377002138995307,-0.016089223477930254,0.0266072385616735,-0.002455329142446399,0.010407175000084475,-0.02699862097347895,0.03084639615066499,0.025479250396491595,0.021934304894652066,0.061896707661641806,0.039328211100282735,0.03896099803213871,0.017548228735114677,-0.006809710850096619,0.025565658268092296,0.030980191888211734,-0.0005765758882824843,-0.024558279098807572,0.03676527537903259,0.0691743660644832,-0.041016259707783546,-0.001860469006419352,-0.024744041409145993,0.039582130798466286,0.061961131931556744,-0.07759473016979294,-0.007972386337884491,-0.02019266197628987,-0.005784786787177643,-0.06737008366909948,0.02190725264691775,-0.072906873449937,0.025469278422207454,0.0148668545310705,0.0002084881165831142,0.10788197529416539,0.01820550733555507,0.015146765333693269,0.032869938089270696,0.019469457735528304,0.009648636669487174,-0.01714642057671386,-0.05726104062716698,-0.06557401785252386,-0.031749863071815515,-0.01065907857380344,-0.028323144831852363,-0.004192223295393442,0.0033780446006244787,-0.09068918570101364,-0.012243671965597697,-0.05443817242880983,-0.0135310212842056,0.058986216085151234,-0.027716267908539857,0.05648766943741097,-0.03933081913525039,-0.001439569334072793,-0.017286641457259326,0.05521562358244109,0.028060502555682282,-0.01833943748572307,0.010921772351184404,0.005210648762196402,-0.03678077958862608,0.05147507884402284,-0.01406833506118576,-0.013062331018420557,-0.011308195580597926,-0.028450437115474545,-0.01163447001287482,-0.022977140379204033,0.04197468750565134,-0.014901876406983648,0.05960207625815531,0.005834990543633636,0.009984376469123571,-0.04647254325493148,-0.017247120968715227,-0.031227555708827858,0.05570667018406313,-0.06920692726967673,0.03784142821913369,0.01639529299455889,-0.05716738939869599,-4.620127341627159e-05,-0.006727973745971151,0.02272514384314935,-0.03204488954521427,0.05252469810223611,0.01650689531391704,-0.006814395968719234,0.01623019567204838,-0.010996789270830731,-0.0041552212248829375,-0.04689608036376692,-0.0007167491076949903,-0.00018615949249803737,-0.016987719020980584,-0.006193954720753208,-0.04269006478683026,-7.245706108057669e-05,-0.08631933475868611,-0.042253369353898916,-0.04728859352662847,-0.04001296969055286,-0.011373304418264745,0.004048815624688558,-0.07074151983328389,0.005858831285978512,-0.0425784043724776,-0.03479284314711773,0.01941733905602948,0.00652287449640051,-0.011337823748723854,0.015454634900309315,-0.043651678392139105,0.004667726568165836,0.022351223395466094,-0.003850961317937409,-0.03546585471080885,-0.060815040457967096,-0.06084203379329633,-0.06535896770143856,0.02538200972831829,-0.0313449380062489,-0.040531657727413184,0.01609386382722347,0.12492766212581498,0.03205177165129329,0.01529273454931104,0.020162766484305525,-0.014553708000138358,-0.020785468392212444,-0.01854672119879831,0.018817826852872387,-0.06539273650079758,0.0016594493988634574,-0.009933137948496451,0.019438155645569662,0.001974365657884217,-0.030369291183791985,-0.026351097776753304,-0.00469272766828093,0.023590267197062295,-0.056936780310137394,0.0010774908095552488,-0.038764755015865134,-0.011977687053536712,-0.046497136833915126,-0.09605152661402018,-0.09926800002875652,-0.04886438170080189,-0.006609017863860901,0.0253879424867047,0.00445497063602324,0.009275058433486976,0.07617931945775004,-0.030463635907590443,0.0037969336076010296,-0.0451522306695134,0.021123769020737936,-0.028300106155574448,0.0147916048347828,0.013531557759499173,-0.01733954133598837,-0.01589337247583163,0.04837987744915426,-0.033000177070092646,-0.06178444121688573,0.03815685059420976,-0.02220009805842396,-0.014698105361506465,-0.01885311534023811,-0.045708180934393466,-0.08231383294922112,-0.10674880654250439,-0.07720132958103458,-0.03264046465812784,-0.05643369097393607,-0.049999234030141816,0.041776249239936857,0.024891787936209282,0.08772718756774488,-0.023614818229467236,0.04598657808059376,-0.046058651835219164,-0.017412616320331493,-0.031358990567695574,-0.12893414793340927,-0.06761750185908219,-0.051083060378394135,-0.006335063809197187,0.013962024270378251,-0.0012498579933795074,0.06441391426511069,0.023972741981750992,-0.0018650520872843946,0.03815688770903172,0.02969355154206613,-0.00982635594760142,0.02768944411695725,-0.04477327481733354,-0.022037998332631988,-0.12573699186151266,-0.08287747620358171,-0.0835588582781861,-0.026358169814064834,-0.06063638648819776,-0.03403069803678257,0.03486261004682166,0.015226955496824422,0.052791882451077715,0.015160821375997967,-0.015548230543816027,-0.05480267206221321,-0.06443938400484715,0.038572614367665896,0.03071031023557467,-0.014250229381721878,-0.00776505435648231,0.016557494397991975,-0.07185455227689426,0.0010015552885340503,-0.007006461795425093,-0.04437590882112729,-0.001053931325052099,-0.009788429357185135,-0.05454596228419175,0.03305909954129583,0.027174312541322666,-0.046062838414916416,-0.07503848550951955,-0.060470822258365205,-0.030885832621002196,-0.01344174024583088,-0.03431917124874946,-0.010036542241546544,0.05578320745267862,0.08556958573578265,0.03351096517933992,-0.05272381387579807,0.005362348618214904,0.035999395308490896,0.025156018113171474,-0.005693810604505627,-0.0174488746419027,0.009584517850551276,0.0008090026498993527,0.046570679543489334,-0.016909440932487557,0.05074822350930218,-0.06600096693295737,-0.007849786216358571,-0.014793425800630998,0.05029757870126651,-0.002666744178591429,-0.08426797202861248,-0.004478381125275291,-0.04815880920033782,-0.02365680006156308,-0.004824775502354066,-0.027485266715377515,-0.08433426110299308,-0.039116215728661585,0.04377081446676418,0.029291112439287795,0.043892422673484595,0.0023048492049158016,0.09187187330633771,-0.05152599926168396,-0.021892054878694313,0.030409975554513653,-0.006114882881560652,-0.11304826748026903,-0.026094384565832435,0.008604290228076756,0.04594119184770777,-0.06460547734308097,-0.044126276963917715,-0.010633762720778971,-0.01269648875741286,-0.01793598248714843,-0.0007622700438230532,-0.02846192272955271,-0.05765260818046841,-0.013159090631431301,-0.0430785791652374,0.028468607517920706,-0.03209212141940842,0.00892396338622479,0.01750693261149058,-0.010008822072333794,0.03414290591093278,0.01723583994675976,0.012202927489232435,-0.003301896335536023,0.013458956215145755,0.05555942224344845,-0.017360892487814018,-0.005651035870409648,-0.010565594326504658,-0.02832865914324768,-0.028870126828626146,0.005027537490586143,0.01050245456815268,0.036066578624122055,0.04037860730297161,-0.010790888280441745,-0.03422391452863185,0.007108604594195787,0.009200271975835402,-0.005628988044850399,-0.01932323999921322,-0.014627939715797275,-0.02806458805054598,0.038528758640330216,-0.004947876632493085,0.036533457564245204,0.07414441932427002,-0.010861207365468745,0.02200652657934052,0.028058929696855337,0.04096980787896548,0.05601537326930762,0.023398883823382777,-0.027080087382180124,0.02660728850268166,0.026728732610202414,-0.01792609730601479,-0.029074849628750486,0.026136005135526,-0.009438340266217796,0.026920039510143257,0.00500109461720954,0.028383768666730345,-0.010371860251619793,0.00961085828858692,-0.027230985615013976,0.006040731781236009,0.041100588523796985,-0.02419955014314286,-0.031058923601249722,0.033154985762080875,0.11573144857488993,-0.02171293523197908,0.04092910104948273,0.04976316106919438,-0.015739040179850585,0.020205177623929177,0.05674329946902709,0.04493688057069343,0.065718070660619,0.05973493081566224,0.022263219602786096,-0.03163314997111052,0.007904974869534644,-0.039260606925687315,0.05340357566459614,-0.0010629480020822486,-0.04299523919186189,0.025911842135262347,0.006055316886954744,-0.023461079760753234,0.028926565149802585,0.03666649543816234,-0.033280172070702274,0.03384850160265477,-0.009605698596985362,0.029502340040188865,0.02666306970146954,-0.002295354234279449,-0.02645928324585004,0.09589624679964469,0.020550272578999204,0.039470112514437446,-0.03218895230096373,-0.027301114843205795,0.03890987294947081,-0.014250112434215222,0.05978294069300619,0.011923011049115573,-0.018842162898600405,0.019183721458965068,-0.06125878453672361,-0.016855011992776735,-0.02033913836762396,-0.04301575479558278,0.05340724653090346,0.013151941271766247,-0.03414469873174874,-0.008606514380428313,0.041835172871138165,0.04230002440464513,0.04935379889780339,0.020923572754177285,0.052146547615071114,0.01164246963514058,0.04734703425324131,0.020982241177537327,-0.03787498782972242,0.053896136465008404,-0.016022543621625782,0.019260959200754164,0.0724054729652878,-0.009920868571669607,0.04728743841315219,-0.0050385375643522655,-0.017709575813414452,0.007589343510186869,0.09306602318813499,0.017412080081916796,0.04546326840240471,0.013453147528445664,0.04120750006206662,0.050628833748071395,0.006479412440061165,-0.04690770738410226,-0.01701292905014922,0.007842312985563923,0.00048368790110492663,-0.003813186070240452,-0.028709397304167914,0.010522877876468856,-0.011155666706721272,0.0038540072508617606,0.05376316078288002,0.037678337526577434,-0.040145587007594206,-0.0659001934701582,-0.007746092314686099,-0.05223608864004909,0.052462769199881076,-0.016908373205429834,-0.0015481813113184903,-0.015685880130794642,0.05259319317991991,-0.030403143601677098,0.03313202923467041,0.01207979700197199,0.061419421216480224,0.02616013143307126,0.03657696237589642,0.02476332625833762,0.0117943126269673,0.028054867825839148,-0.017869353559380383,-0.04716549639896562,0.015286251790540863,-0.031191505234066795,-0.021865688673651674,0.030991124389742674,-0.0603725046188858,0.020949935948421098,-0.016203769249962637,-0.024290341668729617,-0.014764823504327814,-0.03502440388836919,-0.035467600598212044,-0.010940710325987963,0.03336958960541525,-0.014844106925063846,0.004487458243161836,0.049592500777332724,-0.05257678635537688,0.014973622065040127,0.035966418727747494,0.01314198756611042,0.093183487607437,-0.027550644873520855,0.010069760620724223,-0.007247009996119991,-0.025317974420524088,-0.044582474909887974,0.00988706067857466,-0.01896305738478955,0.044987115840859605,-0.04732074616535266,0.014704595446254931,0.06658850383645529,0.03567570533773699,0.04556490571688877,0.021036115183394138,-0.016018222185718283,-0.020839502020180506,-9.260420784232325e-06,-0.0927863941784533,-0.02724952228038805,-0.08519776587291797,-0.023903554567233098,-0.0027712374298515872,-0.023731193174003434,-0.008472064855424066,0.028754995055683095,-0.01921432858267659,0.07616567564240904,-0.015482723429225746,0.026683082234881812,-0.0009852290857344777,0.05506053727593524,0.0200291816417174,0.06934995737486285,-0.04825863280218122,0.00031220936738759987,-0.02367628852993451,0.018194864931162638,-0.026250546920808318,0.001219690687574235,0.003360532943293653,-0.013099936216154129,0.014090844262410829,-0.026718612223597994,-0.04391603018352089,0.018150062442780893,-0.025282899764908523,-0.057088295537029723,-0.014529017465664781,-0.061350629815707367,-0.08708564281719652,-0.01242151799540284,-0.010265761451139888,-0.013728247382571966,0.0396708464055383,0.013122778892022829,-0.01508836334450406,0.02476602399036232,0.021810642168267103,0.010302521904318209,0.03494629313062417,-0.048105707618359216,0.0006419534860032406,-0.058376636527056096,0.006302418177109127,0.08113225404323836,0.04005905207843673,-0.10373061406882388,0.01669435138790558,-0.016332087497591945,-0.04271545092460262,0.017236583802198894,-0.06701033198742964,-0.0478099728605534,-0.04469985274610573,-0.0461146353097342,-0.09044498302007274,-0.02342244061938658,-0.01681732240134232,0.010675965517887484,-0.0028249580794510983,-0.06777768388871266,-0.024981471899526635,-0.0636376175270945,0.020681514942478826,0.03175376714022729,-0.043209298475243366,0.013040822764604412,0.04658833384542515,0.0240253405084408,0.005601767438341199,0.05221865082302161,0.017612017004673075,0.04602805471661376,-0.055921585774500036,0.003349181497126248,-0.003326657535849014,-0.03264382291174241,-0.04085939886344162,-0.039101055580547384,0.015106966452776803,0.012768854551807936,-0.03618903721288798,0.020740472707212174,0.003891744833432767,-0.019486609174241467,0.05015102895181279,0.007499635708028195,-0.005728018962464717,-0.024136383393211308,-0.035030721962870354,-0.012404654199981343,-0.04519904576817774,-0.01143981100064378,0.030012359710224958,-0.01732476839420736,0.05813895127745503,-0.0019462047281646635,-0.02240721261725789,0.036044499536039096,0.016890328319324972,0.060691504690311655,-0.011152003414671428,0.038768202129381764,0.062254278815222844,0.06037407585971802,-0.06778202995815849,-0.022035077646431228,-0.008735453000008865,0.03668484871408336,0.0621825260576444,0.011007107357815096,-0.014902565944773263,-0.01877681582536695,-0.03607452298248867,0.003802855090154271,-0.019803578027649944,0.02963491256946759,-0.026079428963621382,0.03519419941565209,0.012465336059141352,-0.007895083161770712,0.016381544079625315,0.041409684481019844,0.03224175014278471,-0.03323226595942622,-0.08840579095395036,-0.008112953935289746,0.02875457756859294,0.00756366277511425,-0.0008715515240072492,0.006175664732835766,0.03213881792112278,0.05137287398343541,-0.028120735946956868,0.05063604144468654,-0.05693842974676872,0.05994506271234582,0.012659993310553255,0.03096121606298354,-0.028567440851852945,0.047006774373726794,-0.010686444000504568,0.04744707816390302,0.029104088082629386,-0.026177907504714933,-0.05534572786178569,-0.045699613067671195,0.023630099914989273,-0.04034128881576584,-0.07555285268413156,0.065323200947452,-0.011791293135098448,-0.007106966851238281,0.054107465550262517
0:1:0.04578222984512845,-0.03900319493983812,-0.0012977497158630537,0.02129627285775151,-0.006819062369937106,0.059953356234551676,-0.005255552293812275,0.0010350339392811256,0.017215094204133547,-0.06132742189302224,-0.05103461506016601,-0.003561804582015583,-0.040936311259751675,0.00415620196984742,0.016339190663603037,-0.012352193424039178,0.08632745234590368,0.023156070709407887,0.022033178359596308,0.04409770084381364,0.03220531828302147,0.008583556376903103,-0.07353110336171569,0.016691375234310836,0.010525072722648191,-0.08702741099957745,-0.017633329615831368,0.029230511348558245,-0.034353416181682216,0.02183603654951982,-0.06506444849261443,-0.045599524860271405,-0.002379286752893413,0.018198581867213518,0.02579837006016431,0.0031109433832136927,0.004741070765072834,-0.03734104358448928,-0.016189646414663594,-0.03798309870365526,-0.03887568778003493,0.009580826447234113,-0.004339368611441161,-0.0641111661996474,0.00011057301988188741,-0.03967213925129037,0.04797864407799813,-0.04099900979744696,0.023356516898244476,-0.0027721048061441615,0.003803285626621376,-0.03929368042775816,-0.030101115753242296,0.04108929175806269,-0.01846262131542473,-0.06590843562970204,0.0009583362218853398,0.035443005906214485,-0.009674993912877275,0.03226952441665773,-0.02251826506999164,0.013328107722261286,-0.06091494203818961,-0.02562619791566988,-0.061863760662946264,0.02647867403650391,-0.011754005160598735,0.05821271601568829,0.01578448454465278,-0.028795944568430976,0.020448806035941795,-0.00824763700904075,-0.006529961457967045,-0.056966995145899334,-0.02635568573605851,-0.0032805677630861627,-0.04271791625370966,0.020685941630559587,0.015787341308436283,0.06179253748533175,-0.07511187225506481,0.008476591987099834,0.004727134520454649,-0.026288395636817515,0.00973337524920794,-0.008164886970671295,-0.05898791660868946,0.003534992043444095,-0.05153663711031872,-0.006355176136046207,-0.01869165013444346,0.02481244172527904,0.003198955508503951,-0.032794228884690975,0.0055806987852245445,-0.00924281173739166,-0.00041850727116538185,0.0425660519968102,0.05316925945329161,0.020020788778665817,-0.013046798705753065,0.10840220858024403,0.051422914753138496,-0.022650850185841762,-0.02176044235182313,-0.0637848341690147,0.006099170318954797,0.03832504821951146,0.02024170359138421,-0.04073902727523949,0.055181054008222756,0.011239904572095862,-0.014964418488925907,-0.05010144438108864,-0.01683785794165696,0.049058323632492275,-0.011773798104432581,-0.019925888023888488,0.010229692990516332,0.03219725388360475,0.07039793214289018,-0.06473479015128318,-0.05412418362868071,-0.04316343848766943,0.03378273967301395,0.046239949320640926,-0.06142003801498687,-0.0030662853576477467,0.001889507415452422,-0.012192154257229696,0.04631749466006406,0.02375607564637423,0.06777027459457745,0.016344113887904424,-0.013771939953709456,-0.062498170570161576,0.07402681446825715,0.016220647737250897,-0.04314112062466077,0.013319156198392896,-0.004264740057087043,-0.011758903618322564,-0.02626859765387958,0.02091844646634089,-0.09813973214412204,-0.05639651002089006,-0.018102521786102443,0.019899991914324962,0.06495330748245924,-0.014440414659072746,0.03585785979451502,-0.03277659291216517,-0.03641524642147883,-0.0018332086818534901,0.028206411167517827,0.021697903951032268,-0.001525060834592373,-0.007791062166216126,-0.04597481752475157,0.006809811154914661,0.055782774584828755,0.022531039281107466,0.006258472890535298,-0.03873087011265085,-0.01715447923351695,0.07061244685279287,0.006581010290447229,0.03089757509756839,-0.028062689069760047,-0.03689472115593247,0.0022338097336277417,-0.0030862002145848584,0.04036806326441371,0.024300769628576527,0.056091944552037816,-0.013911316957238597,-0.012905243224581763,0.008602736185777926,0.04385413493952509,-0.04173020465001559,0.021738935978029904,0.02919807806787489,0.0493113584688953,0.0007526360805452571,-0.04837508307261585,-0.00026262056952786983,0.01698942642440612,-0.038093332871698894,-0.0028020204158757593,0.02236758334655565,0.033151587207906945,-0.032692386117133744,0.05586641553482746,-0.033527246175168314,0.011854531668280766,0.023825738563195434,0.06734712489191232,0.10453241273800407,0.04322224943077544,-0.019428538732494987,0.04708560166180324,0.03775106264991408,-0.019327316890177214,0.04069715889398093,-0.006300015975067109,0.0385144515046115,0.038626940215126734,0.0006700255103209017,-0.011277994473724432,-0.0025154890847112043,0.041279253468071576,0.07394257544296452,0.05384233999493681,0.07482011986451441,0.04521079739102889,0.08061172148124772,-0.04902332990121238,0.043105250331698534,-0.06162691816901411,-0.008960231402707495,-0.01798276405716004,-0.0551028672237294,-0.00947488583174422,-0.002803385481843669,0.009135853885764296,-0.01977074161702823,0.017458507369125353,-0.0007089552481109894,-0.020522728043833746,-0.002329708735903618,-0.002670947436642544,0.010645964787691866,0.013657910715283687,0.08911027972662783,0.035340950983738,0.06555055297127423,0.02915723294011683,0.034691545762699255,0.08134325192270425,0.1263521014913763,0.12176929470953768,0.1741182411778312,0.10668599846496316,0.017450386076682346,0.03930262191298173,-0.0002735497982779398,-0.019640109445084968,-0.034473984434706416,0.05304713067806345,-0.05795754582866331,0.06261427934925598,-0.10176250200240994,-0.03958234469489072,0.008832132665707143,0.03199369162482195,-0.008481909790166837,0.08398368554065248,-0.036252423984315024,0.07182029119933007,0.021808961224401357,0.07800691285285435,-0.027965359311576867,0.062011951220258474,-0.04513394469548875,-0.06797707269527269,0.06615582155782761,0.11378025183481033,0.11395384338086091,0.08563036523573155,0.07665458639436472,0.08016476450886723,-0.03144756972226251,-0.03734385310204156,0.029311924072582287,0.010698191067231301,0.015760867888055453,-0.0036006434730252827,-0.05375065293257501,-0.02708764426186496,0.030085165629878223,-0.05823539805167346,-0.01031725783505958,-0.04384824367276963,0.03196335820886238,0.025903729727760044,-0.013635514148955967,0.003455475277954084,-0.003920094835615398,0.020174015188235125,-0.025350307251129186,-0.01835372902600519,-0.016028935008196098,-0.0159376369391617,-0.03324224635618623,0.08009454801996094,0.14207575635573516,0.022330257074447225,0.037766721343980625,0.004584846708894075,0.002152476774643822,-0.011365838080876338,0.002739186982834834,-0.018489402102284416,-0.06456225641667132,-0.0721076553497588,0.0025729204774804096,0.01592715718157012,-0.022893196992685824,-0.02382487988003005,0.0517958603991097,0.0005014514441947322,0.021261453012165824,-0.004117763988527841,0.01936338546665932,-0.07065983287267934,-0.00953911042898891,0.030398204419978713,-0.024556163931597333,-0.1082267306859883,-0.07884863283691997,-0.012017794464645628,-0.03265973046199676,0.07041972374948627,0.06889716196646252,0.001680118525252863,0.01326500486593176,-0.03411079263480306,-0.01689550338633938,-0.022200939145271145,-0.029972713959738974,0.01878597883403158,0.001749988033601544,-0.04581812971984808,0.008428257674850134,0.039899173101098306,0.0023523654339098793,-0.00259178699416581,0.015280580672088222,0.0019463793397707953,0.025089459351566142,-0.027370409989610368,-0.05240676665898067,0.004960170121137404,-0.07187664677100002,-0.018025160766138724,-0.137744597775685,-0.14419741988543092,-0.1316684925926954,-0.07984905751067027,0.03819383407268118,0.019867573151066294,-0.03450869874275303,-0.033185426340860684,-0.101611095942666,-0.01094333445766461,-0.05945020841881048,-0.04585747866240183,-0.08473850289993502,0.021152459886848166,0.026117474411405647,-0.050731710606994,0.017326110566882828,-0.07982813310096466,-0.031506147217502084,-0.00420556218885544,-0.04018937574238122,0.030580172642993293,-0.014086754705312805,-0.039580677218990085,0.09136159188230292,-0.0470747649817558,-0.03870609530047673,-0.11217750338439368,-0.08393342444294855,-0.16075443416313925,-0.10298760896129135,-0.1674137219412641,-0.10296697223175136,0.033108727432466095,0.027817379601553307,-0.10626764278473033,-0.08243156904926484,-0.023397339931765095,-0.08231655640253299,-0.030967065800811083,0.012903347945382277,-0.01260526137981052,-0.02433470637917988,0.021092535001756677,0.04419726614630136,-0.027812432401457574,-0.0034435797678276114,-0.004041339221986578,0.006217510455563037,-0.018157391884184974,0.00699843205085251,0.04996811019834748,0.014274080226345721,-0.025459955895369934,-0.0680366730557677,-0.1444604076675037,-0.07351178076044015,-0.10445220412025352,-0.13373634125953823,-0.1226005358614228,-0.06666147757843126,-0.05190119264410855,-0.13890175137553515,-0.18207193069813207,-0.022754246695631673,-0.0742910084203965,-0.034583923419080786,-0.030161282144152503,-0.008378108230997796,0.02563973274820767,-0.03421335023147175,0.0006609586389731852,0.035884338520056035,0.04624078605280661,0.04219099108193402,-0.03282032949751765,0.006887726434596428,-0.0064425157601798524,-0.025899780424703873,-0.02806019796439293,-0.04379793294153464,-0.0038817608306692666,-0.08802167425147792,-0.10483438735719791,-0.134427134915763,-0.10859103051475454,-0.1733781670619413,-0.18145532864416694,-0.1302840145875212,-0.025353237425622205,-0.08173549861860716,-0.09181760879753703,-0.07049339464244388,-0.04251373873623062,-0.009571091782819719,0.04535929160274079,-0.04900408260162293,-0.008377766286085815,-0.032020420048370746,0.0516069383841267,0.03489538802413851,0.02697496309033427,-0.08389374440617763,0.029216074927124715,-0.013905210103373344,0.03836719364330887,-0.05162695877009782,-0.02785346936499034,0.06708055571675595,-0.04494042874340939,0.024663408158480594,-0.09875301679695994,-0.10708091856859871,-0.11412172538097148,-0.10519589949634815,-0.16795664913665578,-0.07910336861457902,-0.044396679664979295,-0.011598750734623669,-0.028048407615375033,-0.002312763050014218,0.01506738909160726,0.005479142707673829,-0.10139135193635027,0.046541316628341524,0.04251579423407345,0.020069508007444132,0.03570230375014638,0.013975082713263923,-0.023218117739738583,-0.016361196716219713,0.04544485878968047,0.02284428068242789,-0.044668992215951726,0.019869844686636877,0.07870354625573722,0.010936953023417108,-0.04567818739688164,-0.006499929241661721,-0.012805118058762261,-0.08207012671027467,-0.1535727669349995,-0.11123627148612135,-0.10977564441804133,-0.023331523257767727,-0.03945422578534855,-0.049924778564405345,-0.01219407136257737,-0.01161394114231813,-0.029848195716919775,0.07715468871437914,0.021431705471449743,-0.01401735823396462,-0.002262667136678145,0.04464411492319361,-0.038906472045860424,0.004037378456490556,-0.05008288341953455,-0.02699254332639995,-0.03307584320424542,-0.015829039130991762,0.047770302944111685,0.020448325503927247,-0.0014795089386247869,-0.009736579961171664,-0.06373716913774063,-0.05502703878578972,-0.029115014084087513,-0.0803283284173204,0.025387282184812995,-0.11729178031366277,-0.03299285345075338,-0.00971439094701671,-0.0035857189175004032,-0.007952211941069893,0.0331005700015449,0.034163240176620036,0.06318788715153974,0.0030086784693628904,0.032191822087553196,-0.012876993930066005,-0.003654183441473794,0.03361154223011467,-0.031298857382435014,-0.06818827151849101,-0.05521762892437311,-0.0459269341727503,0.011828682491126175,-0.018557721428015875,0.02046635712637783,-0.051009500003187644,-0.00979776797079535,-0.003910415285653394,0.10298310864545564,0.04524539384749741,-0.016787004340724193,-0.003953040188506108,0.012841067989467967,-0.06320978624525063,0.044521222661197436,0.027043640747166923,0.0026064186390290073,0.030218292760312796,-0.06940494892735564,-0.014333370923356016,-0.02416267061386016,-0.025237760758728398,0.014229840960612507,0.014276858686108946,0.03480632792286197,0.01856677207246906,0.006467249460718271,0.04109860390386968,-0.05731320302903819,-0.06607033310855384,0.023507200818470683,-0.028982184156885773,0.012534915728724366,0.05462065800630343,0.04166873915697329,0.029745869766620858,0.07405536294532954,0.06889415180858036,0.027231438410905275,0.03441567913803883,-0.014429454937745506,-0.09249148970341259,-0.058494735050822026,0.05056530113598313,0.0042967742790180445,-0.0001582781452396213,-0.03358300139400531,-0.06947645530888608,0.02724346028398327,0.0165887378858098,0.031397737246077174,0.02057663218196384,0.026960795754191316,-0.02351875499528649,-0.0376476903147946,-0.020262696362124216,-0.03332894231083064,0.028911926796780753,0.018289015072721595,-0.022180929637844928,-0.017882915691793767,-0.0051472254902311864,0.010632911655106995,0.05860606946465695,0.020408850712574696,0.09783807732924428,0.08043409122524643,0.06529018318967306,0.00950127234441584,0.06145823583804852,0.05077484406626597,-0.00035736106480475845,0.012482865837624478,0.06290308542910888,-0.05905417367951305,-0.017637431706421194,-0.009207806754415683,0.03507552870964475,-0.0046905372294374,0.05115360640097023,0.02223219948836394,0.058624232940728646,-0.008756695715726704,0.028259697826346065,0.022648313710013288,0.020510258731709113,0.043278464988352916,0.02258041446413941,-0.0462092885658741,0.02739277068570459,0.004830940465384056,0.0008886352248343278,0.018040220001034196,0.0725380176845514,0.051242315743199325,0.07648715542964847,0.07898679733887928,-0.004348220321482689,-0.009879771078556157,0.01963572049134652,0.08098163725920865,-0.03456199911203049,-0.04907334048029393,-0.04612987982984181,-0.10204753584293617,-0.0314044359456588,-0.010358836126689485,0.01752352916356768,0.05484308575407795,0.01770120629416667,-0.01576110561999845,0.02844357746494323,-0.02241170019293595,0.003972980157910317,0.017743727235177677,-0.0241643582214869,0.07043245108484376,-0.04506308922357877,0.02230840673240102,0.06947250653084693,0.01427723895693343,0.027970862553969755,-0.022259818086803575,0.05692785812329088,0.030070385955396878,0.05109883549914131,-0.02954625553076215,-0.011693366903872304,-0.006762530088726158,-0.01672390033114136,0.0038406085427972864,0.0036066680181830943,-0.002330282516084171,-0.010137589162886209,-0.010047551027528563,-0.006494526464723712,-0.019456736020986944,0.009244008590230727,-0.0318031891066344,0.0510618334233174,0.04530077261858192,0.023421230191750676,0.010844648036298796,-0.032652080840132304,0.024548255030046973,-0.005185728330449828,-0.03501650999743516,0.0037973335199653234,-0.028017417276750764,0.12292942530646131,0.03161783347688405,-0.01369640893814829,0.014590713836783576,0.01713294600853616,-0.07141677494295769,0.0022222643171160546,-0.024792761074331243,2.014589517132297e-05,0.06294945837402534,0.0012208272382722722,0.009967376272808586,-0.04917696826806706,0.04532246928544704,-0.05654752846446531,0.02861149116749749,-0.002018150778253022,0.0029894996699310183,0.016373264890123588,-0.008450817765693095,-0.03608387284009269,-0.016539464901205975,0.038058935405160324,0.04603230957127949,-0.0068192610972888194,-0.009887718146211784,0.05524560596224629,-0.0048393544736423915,-0.031725905126113105,0.05109166602000681,0.02776791574063351,0.017138528896032422,0.07411956073840464,-0.011079021362245716,0.01269232775620028,0.051185834404878616,-0.012128155186824545,0.020577082256531917,0.026529443281002346,0.013043086599655807,-0.04588893961653879,-0.028300490909351623,0.019720472046398065,0.024848264479056328,0.01655225739665248,0.006305134747763874,0.036433134619862334,0.03396853076344712,0.045890550922229455,-0.012222990655197155,-0.03390942659329151,0.007445490272436129,0.01730331048596078,-0.028449856016626765,-0.045348568503195325,0.003548674568828716,0.009233176377006016,0.002759696098611347,0.012958751190216005,0.06201222883665878,0.046985392677196466,0.011574947671689406,0.05293352730338238,0.0876864085992011,0.06818383656900881,0.010477509255972446,0.01611621764259478,-0.004814301518489674,0.029750044008354227,0.02299206538235399,0.01430813511949594,0.04959964099889663,-0.005032478630942048,0.025782173933111902,-0.03750808326967942,-0.01713363869767714,0.009133878736358665,0.032796332943664,-0.03145203333216425,-0.020354073533788593,0.016247309755862475,-0.02085747203642134,-0.07561009508086894,-0.020156596020627138,0.034712314437763854,0.028696683015113272,0.03223079749014731,-0.03341646373956035,-0.09607345242176318,-0.07001720646430534,0.0018918102783623935,-0.008325429038562373,-0.003194199091782185,0.0030828505852032373,-0.027864111435291522,0.02617387987559885,-0.07810120076930097,0.006918517964711975,0.018451247004678123,-0.004056618615278753,-0.047563121636601306,-0.00847636016395939,-0.033133626333670146,0.028371146449965707,-0.08292119882953568
0:2:-0.03459149988408435,0.009965358286203289,0.07079632534538512,-0.010284223305601874,-0.04042883554490376,-0.009227800583738847,0.02509145325310521,-0.027403695041220113,0.0464844253712066,0.025738060248631178,0.014193505969298543,-0.03653380190110791,-0.017913413985407935,-0.040855112928666476,0.08128868754937714,-0.08628030482958524,0.016101244764734943,-0.0158886591787642,-0.010239913160577836,-0.007071412245914692,0.043546695642463606,-0.0292357292722174,-0.03312017084343487,0.004674215172932071,-0.0240836731762079,-0.05786009656740225,0.07460786457942749,0.02735965562858822,-0.08355876552736978,0.01206698038927199,0.0047795778007526405,0.012544493500631375,-0.017533107891994266,0.047860773627102345,-0.04787554280515514,-0.034841253608460535,-0.03556756892033717,-0.026576005547266898,-0.01775310757192076,-0.01784522812286983,0.0032395661190538134,0.0034269282169272462,-0.00012460653604935443,-0.016516926975730838,-0.008901348534345249,-0.010742172273432679,-0.02513535034687542,-0.015635215043440117,-0.07683217382642435,-0.02191171770886564,-0.03930012437617806,-0.0835470491867412,0.0194844636158514,-0.00537910905751255,0.01864026763285792,0.014611609355667946,-0.00555877470652931,0.022786061022866597,-0.06573571615630944,0.008667318409118923,-0.04251652059876561,-0.02297115692698538,-0.044053496422530654,-0.05194354616994386,-0.023268701476028983,-0.010167870725127018,-0.06005797683179641,-0.03878280944854188,-0.019267367530476445,-0.023322496237125418,-0.04130869332419169,0.012865654882232267,-0.022951010802815974,-0.010881687505898009,0.0501097975065795,0.011462467623039558,0.023947322961770146,-0.08165855732016267,0.0012891722057876388,0.022257184257185533,-0.007752670912031552,-0.046569867688362424,-0.03770476522561177,0.01433144655309154,0.004553093622941292,-0.07971652676651589,-0.002266297975804566,0.03622981929796565,-0.04360515518727392,0.014884010641664827,0.033892953799972654,0.009025467059239595,0.0014609862433795705,-0.006437664953755085,0.03340953211775363,-0.0011833547457721,0.0038632895426069097,0.07303098116380322,-0.014464556363771437,-0.0014869118578916644,-0.010079053672046178,0.002510081961758742,0.04432197522617515,-0.03571194074070555,-0.06720873667953998,-0.033854683324152764,0.027287644964523648,0.014704032901915489,-0.016347473945403326,0.0017789941737409469,0.10289423330656573,-0.05110541265599029,-0.0359945376481154,-0.022478938634404096,0.026830734683304536,-0.010242343034169193,-0.06198633637792653,-0.02576057147087197,0.0052968637781805545,-0.006010989165421797,0.02038022878764279,-0.0016182356989735008,-0.03025987318556593,-0.009576426937937643,0.007312171915696937,0.06345768306666204,-0.04146284376311552,0.0293929033614024,0.03509161179004579,-0.047830351663682234,-0.04601377562528059,0.030578868985608673,0.043488413120236505,-0.06879632272229687,-0.04658787726494854,0.04185911603228072,-0.00048448051792711203,0.030199277871430074,0.042515107574918456,-0.018816352044914848,0.019120920157389372,-0.024655833511556795,0.03110095837937585,0.005083262089458832,-0.011388797460784151,0.020017333044067144,0.02396680987136529,-0.0719395673553981,0.00019385370483992887,-0.025150959420477955,0.040231364722768864,-0.060991647994713835,-0.004085330839670732,0.005424761606874502,-0.016844546376716566,0.0028032846519686905,0.03977499413229901,0.02178996755131829,0.027867867326388997,-0.011858909133467042,-0.033002022304785356,0.06794044780736816,-0.01673195609726521,0.020782001437239878,-0.032284461923869995,-0.032204759574190174,-0.07797729617734149,-0.0536802463101848,-0.008316342296937302,0.04697817916739145,-0.011454102924392223,0.0025998021895840807,-0.03452611818852678,-0.028100049475801643,-0.05616694035371807,-0.03981477751795374,-0.07891298686329122,-0.03198074957923873,0.026817127614782832,0.018606981690260253,0.0070169471549430505,-0.008403771330188717,0.004536018589733317,-0.003874343167174091,0.028709710463334214,0.00678180643893745,0.023547962665241534,-0.0010548706189029214,0.01252755224528185,-0.05672191527707867,0.03180704756367332,-0.0583484374674067,0.040733065962275765,-0.011578091811707984,-0.034969960122013276,0.016972084399424187,0.05740814605697722,-0.05634416343762512,0.04385598555148927,0.06224870777778992,-0.03165962495628618,0.015170229318041805,0.0008243350366063834,-0.055724495826829604,0.019556821837348817,0.03949335578909227,-0.028146627626194284,0.004586710323970703,-0.01917205354812787,-0.019275215247082034,0.028447208422336077,0.05072423190775813,0.018928827497428153,0.04966095674181653,-0.027674029750239634,0.039311082386177726,0.003978561269167232,-0.011752439541615516,-0.010099308086206803,0.006365166304230152,-0.04448580935618717,-0.013996566669279203,-0.0004658224241109666,0.015270801823759011,-0.04326721493793188,-0.005159284246277404,-0.018943648039707203,-0.012466202203200343,-0.004552464258704175,0.0032743159203116904,-0.0112370063195216,0.004702297419952085,0.020434345382005177,-0.012422933310099436,0.013705913159730394,-0.058330628307512775,0.05391652861264944,-0.0031136982514114874,0.005623835622757335,-0.0031344382055397252,0.03402079548920609,-0.01586174744796773,-0.029032880485337472,0.031204629934885958,0.01961860513861444,0.04368788474251759,0.004651449858428955,0.006358820628497485,-0.0363606865384151,-0.03282644110928692,-0.07579922320148903,0.011580453099033034,0.04237966620158008,-0.0023391912845434513,-0.011436424700528325,0.061527598333337895,0.005646687672707401,0.03472690385792545,0.019762977593254058,0.041885752688941943,-0.04041305521184011,0.06338743709003822,-0.02546801614688257,-0.008018390860838448,-0.032917687546832136,0.020783628255951845,-0.059760371793125044,0.0247139401005127,-0.038385315793910066,-0.0147776395669951,0.022746355682714714,0.0007317193736791309,0.047652064096662256,0.03138161631966691,-0.024369756106291194,-0.005430178935205615,0.010566537160871338,-0.026810962806483603,0.028469385896730048,0.05609822097821345,0.008844601212139824,0.016854718907091885,0.011627864712324418,-0.06551010012168375,0.05181862351512868,-0.013870683201697659,-0.07947896012631485,0.013270828612118372,-0.02811908065597014,0.019050094314573725,-0.0050229398936815,0.03907873995417393,0.0723110093606084,-0.02080531092274837,-0.009475638640550217,-0.02205332079763007,0.000755381873498114,0.03279168809781479,0.05379666326527257,-0.0035180243781116277,0.002453255300819303,0.021021511216993076,-0.05277422310671207,-0.04255645548041227,-0.02551871250521658,0.007612983127154941,-0.02751265070577684,-0.01713931899930746,-0.02899954734658055,-0.015868512431487,-0.018211830700840665,0.04901281175427044,-0.030153582379459993,-0.02165810622248944,-0.00958886210499516,0.011902211664798906,0.013714710712560961,0.006847652561959978,-0.015587194815530727,0.01401822170737471,-0.05566158583273003,-0.041986478924317665,-0.016155062900434433,-8.410219719007041e-05,-0.013866143835306466,-0.0021575340751059245,-0.03184840736848906,0.008456784797307422,-0.010742782206346875,-0.031906452081069105,-0.030929091729960122,-0.0003015840070174235,-0.037955187177213266,-0.021211566930685693,0.044377075115521525,-0.03181827941899651,0.043772671910907564,0.05054105494930572,0.012483282905164834,0.004609990697505537,-0.01890484048465472,0.010239305006672755,-0.014671888969122582,-0.03204212777145967,0.008714976408777681,-0.05650312147696351,-0.05312834723825295,0.0036492443444426843,-0.013213096496152318,-0.013931786447673757,-0.006506961815747446,-0.025728404569614623,-0.07867706713607807,0.027480062830536684,-0.04781665071893328,-0.007970928108881914,-0.030345186966977068,0.019738139492412706,0.06066993567411121,0.04274760083748239,-0.02187419327208695,-0.037764461412773995,0.03283371668335408,0.05605484034285257,0.04570862343541179,0.06057708058612402,-0.02707811438817072,0.02229399482312481,0.026887514597569183,0.017764421656965054,0.00047504873071884155,-0.003255441719623984,0.01955722409873341,0.03254004903502843,-0.011547049526518572,0.04417300891525147,-0.008791801976239653,-0.017052524638150622,-0.023697608041388173,0.008964695878443583,-0.0274979660091097,0.04313426046578328,-0.047066071016037415,0.007111953545562285,-0.0355130931877513,-0.023224167213013083,0.037007955946819084,0.03132219104021051,-0.04419746453540596,0.03245293413354297,0.02199013914511603,0.002474735148868155,-0.04160335709943774,-0.07168402368203976,0.0003014348613334715,-0.003487489129668815,0.05163201311348276,-0.03405304160553199,-0.015058873070259075,0.04941319806044572,-0.03773144810724188,-0.04321272653011925,-0.038415820542331884,-0.0021885142736491415,-0.07419657282347139,0.0041690924444521575,0.011507689784897232,-0.06102077983362573,-0.002315498445067617,-0.003659946893972668,-0.011688795367141352,-0.029792690897756425,0.04910298230092374,0.007399671943319044,-0.053871016259736275,-0.04162020952274147,-0.012271239704857344,-0.049528590686107175,-0.062080811535067,0.03119291612158838,0.02391279201802418,-0.0184848512823042,0.06269631369559597,-0.032081537163134215,0.04656167877126243,0.01466548606888692,0.029331426046096416,0.02225546432434289,0.044883505209832066,-0.014707043352524993,0.010682070580867611,0.02642999206810574,0.009800893198635183,-0.06698329241639903,0.015035964885245237,-0.007049958448932966,0.02462462307526046,-0.06741763824272552,-0.029085705427202877,0.015333377809192094,-0.07619858457006781,0.02364379652414136,0.06378871016055146,-0.0301592478694774,-0.006068869521286037,0.0361887710688016,-0.06268022131654565,-0.04859449951121914,0.010525690973371988,0.017045995188273246,0.013661567723654098,-0.04423967449874508,-0.0055057384153013944,0.006374694210302953,0.034667167228572354,0.04746385774865627,-0.0429541276675363,-0.0035014484938338288,0.013962890584570899,0.012423278629192895,-0.07784223366248204,-0.00392100962108043,0.037770875269551946,0.058127694872001506,0.014223919600811827,-0.038023587641882316,-0.059506132299275344,-0.0636297561455632,0.005365446600922621,-0.03305150932481951,-0.01172510674981766,0.048632865361250825,0.023720110321774845,-0.0033263222847509785,0.006387198190883225,0.06770502651857568,0.014362596126127206,0.012678475483602599,0.014321929936348714,-0.008356834496119427,0.012277634463360514,0.042564949217732316,0.004278341741511008,-0.007736931526315447,0.0256342086203618,0.0465737275835918,0.008754255372676139,-0.006906701965205256,-0.012238156568705789,0.06188340909847504,-0.028230120013227476,-0.046588127971183106,-0.005924601552743313,-0.015287248701677754,-0.033310921570440535,-0.014671886706170464,0.04319686423261413,0.007888754765535329,-0.07607755545063581,0.03956779797032137,-0.0711825250130725,0.005602135374221204,-0.021156371297315298,-0.07364509613586949,0.00483694911711064,0.02960003947267783,0.023541666282636736,0.04172134894762586,-0.0055384825090668815,-0.05310310407747895,0.032469379434749236,-0.030064172094919517,-0.009381485321965241,-0.004661595537516451,0.012830651533037448,0.056354886633446497,0.02505376853685431,-0.007369575623263036,-0.00849524713525043,-0.01911090141509096,-0.01848906110491386,-0.06533359655534364,0.0485336025951025,-0.019811500276868062,-0.030771564531881263,0.03571165496730597,-0.027751423279972844,0.03181933246736965,0.031956955332480656,0.02044741409499385,-0.005106900621034782,-0.006318843967022102,-0.08407576651216495,0.035441160089548195,0.002888382715065566,0.008022099443175945,0.08539236637046356,-0.018842927819582415,0.03142837271095961,0.006043825251868441,-0.03711780959192926,0.035555447326220214,0.030771891969363623,-0.01606164703071159,-0.01567424488311054,0.0026212373544866416,-0.03714465951898788,0.008451045206480268,-0.012316789524937732,-0.01700005807314241,-0.025945059532363503,0.03048799282987297,0.05588289770204411,0.04598263034091297,0.0038492450719765873,0.057866667837356785,0.0056710679916759455,0.015185461443564984,0.09187822505367918,-0.010941808566323931,-0.010654266956200222,0.016412593840711337,-0.06770128050177286,0.027088604624986908,0.0581282453070118,-0.0329612916288993,-0.03467464831612911,0.0004065619952851617,0.06416101242219294,-0.02035920524694636,0.06720777182702432,0.047409812736014516,0.027232180849420844,-0.09285123927872016,0.017610580553191296,0.009465913817160367,-0.03260869225226845,-0.04422325097734773,-0.09899825074381738,0.062369924966706125,0.016419729163545612,-0.04250536933595866,0.00758493506791671,-0.03072424130284104,-0.004340917840631606,0.020312206584146366,0.0647612006325995,-0.07776969615756452,-0.036819437341395464,-0.08756357576222565,-0.046192028058255896,0.09209007684295209,0.005868736269112322,-0.022714414629284634,0.02883797268213093,0.011386758626859424,-0.03232703557444698,-0.030971067402849325,0.0156681811872442,0.03412016141651762,9.180117817775423e-05,0.05193356075250907,-0.012192376815199421,0.10000517175991507,-0.02189858978582119,0.03966998258365634,-0.08506506201599486,0.026284825154711654,0.028153878809465245,-0.06379274561827908,-0.05604664485364685,0.02324387165302136,-0.021224626552603727,0.016102293031801728,0.041618871747093195,-0.013220971611572062,0.011715028000073324,0.05741070182053713,-0.04669791231753984,0.0225667509438937,-0.03394455629160053,0.011529834418248014,0.08066005053836493,-0.022410103918117184,-0.015514042398551468,0.0015424798428026057,-0.017904870852609354,-0.005547848343928002,-0.04989850164411112,-0.012784238364636937,0.037514354945902224,-0.029587674296456073,0.013366811990677224,0.09219818362647547,0.019757854392163467,-0.04468280845969162,-0.07312847933820882,0.010648093324376542,-0.002524374112799722,0.02583228526873028,-0.0071155743020067655,-0.07079515608028261,0.05996363523317708,-0.0005704879137715338,-0.022504112899662677,0.0015970360897089011,0.008229355299637128,-0.0015449049871690756,0.002476813079982956,0.043871485544467174,0.0010863402454612374,-0.03803450314523537,-0.01938512448583704,0.003429124488742332,0.05869605799601074,-0.0010836912691030002,0.021345618667227055,-0.027719124341048104,0.0913964119633921,0.03381124705150421,-0.030640187087138587,-0.0073075639360976235,-0.04412579895073568,0.008783089663665962,0.03628071755191261,0.04520978122768976,-0.06083754284417725,-0.00036803793446046564,0.014210958295102556,-0.052498238639006094,-0.007137196387079334,0.03515268888054133,-0.013062781738923517,0.007573002446859707,0.02157302133930459,0.05110253660853954,-0.0023814553776015652,-0.031584872374819724,0.06871192690895012,-0.03253817846600118,-0.045260622691340846,-0.04386770394925934,0.018061018413986375,0.017212753204432912,-0.024618150884915164,0.02930559800452196,-0.056796955374631045,0.02882444214620831,-0.028548278146097224,-0.05633550844580659,-0.018964189854067157,-0.011380059293416515,-0.07474371798224924,0.03549218675219631,-0.041777411617256774,0.014271880525093707,-0.004309176635575243,0.08957262002730794,-0.010006154596536282,0.044296644025798,0.014641328621633299,-0.005539198449131312,0.025040398348304897,0.05599891915097725,0.006206192331035143,0.026592870811767415,0.017671956035355676,0.0826923401990316,0.022149711797792584,-0.100007871698678,-0.0016419437029290642,-0.007890847754117773,0.06249271429918547,-0.060142743657326775,0.08239294932788674,0.011631718442036773,-0.012802420408062495,-0.07953551813707296,0.005306099056087832,-0.010746267114659324,-0.02246128089949244,-0.013099340216044687,-0.058661534323715535,-0.033038064330156734,0.05106528133809529,-0.02836946139052467,-0.024267409911670167,0.11670817094811962,-0.0009826209598280179,-0.008516286243231927,-0.019774399856971197,-0.01674540763674257,-0.008425389833315604,-0.06893266441116615,0.03318437162304613,-0.03688725330159161,-0.015836306729720827,-0.014192630779474457,-0.051831346710063064,-0.09223073677184326,-0.00038156350607215463,0.09070883346022444,0.013121450249411453,0.03697199694131262,-0.050762602184201394,0.020573135917300193,0.012364568559349053,0.014219492117365035,0.022489602690316406,-0.010176217920055049,-0.014540498702123698,0.0062212344965932,-0.0642911474681276,0.04183437656061499,-0.06616757317530896,0.03470093891167702,-0.009199881912320117,0.056784334812744995,-0.06159320629639329,-0.05562628402099145,-0.021960959864809858,0.04144859290488349,-0.04562176495397595,-0.06188747516693334,0.022463710408583578,-0.021963267478612457,-0.06794859943536262,0.02487043414940819,0.04866904038490489,-0.001066155368648113,0.02645388507994155,-0.028917245474484002,-0.008166360850288679,-0.003067484282927044,-0.012657862672907149,0.026835991483630514,-0.027738979822966206,0.0236634477445453,-0.031043338581254843,0.040200534365020864,-0.006799065738037449,-0.04805264761318013,0.001666686628565348,-0.014388097206857891
0:3:-0.0004647437412755843,-0.023170440416550545,-0.004018199426712208,0.018049534199217333,-0.005898650592639286,0.0012400288298702255,0.01799802917413362,0.02985134876253899,0.012628026225869875,-0.10187124310869985,-0.013833452718738252,0.020987494200808213,0.026926768985546277,-0.03450618889584815,-0.0052040594272528655,-0.023840573320179255,-0.046328296036630676,0.018752655617176466,-0.04178933454606531,0.017490268359757075,0.0022276753332648937,0.029119778740878104,0.007482303771412228,0.019672385337919998,-0.05355565414647586,-0.00474296323375263,0.027831593110399205,-0.027606567458570146,-0.004794452439019179,-0.01635419476576909,-0.010898348764229751,-0.021212364934927015,0.0015858516576311267,-0.07318558676619263,0.03284111609367041,-0.044301123831943484,-0.0006629175830465789,-0.021693710502309095,0.036203944447716456,0.026948563527092254,-0.014240141785887903,-0.08997264470840487,-0.020320353744673423,0.03242961049144038,-0.07847076870222554,-0.0005274897276304276,-0.030116153910650117,0.06954687534281236,0.014280372292335551,-0.00819955833988312,-0.028258336903385344,-0.035317680565283845,-0.0210552376420121,-0.042949690798457694,-0.010704450982122103,-0.05244492975889115,-0.013479864670248684,0.00417617306008059,0.04553781510851691,0.0024926776227658324,0.07281450439547725,-0.05362222211762835,0.04565416444702027,0.01517884011702292,0.011005300858970592,0.01929374213653524,0.031208266284830262,0.052522808624938855,0.020944712726514714,-0.06623042962874058,0.04130392467894806,-0.0562061372228405,0.007722811306087478,0.015273108641017434,-0.04375959273119631,0.07290452414540634,-0.05259849313794993,-0.0394517044714291,-0.03571063578476207,-0.022171299161180387,0.018326492356825916,-0.026315810951612093,-0.038997990495457636,-0.0014168512373435363,-0.0245158978080524,-0.02412251775409617,-0.014867566634619961,-0.026222315215937857,-0.08442521672214882,0.06370407949698732,0.0012451308593388025,-0.003570422739429392,-0.008141292381679686,0.03448289794655952,0.027866937801744686,0.05011415755764004,-0.03645685950752159,-0.03409417623634722,0.027299928891901026,-0.00026839187954493166,-0.013929773416676988,-0.03591211807554952,-0.044720824521880094,-0.03357126306439725,0.00019691614220622772,-0.035205681538556535,-0.0621387870163906,0.055958598002910365,0.0013231037155035715,-0.012671913882745385,0.020120475571088488,-0.012913996968542538,0.016766018057738613,0.016494462608287068,0.00959818586159916,0.00978028588876654,0.0043096696444716335,-0.05692975418558208,-0.07053021030082392,-0.013748384426245108,-0.00372980566340927,0.03102586571432143,-0.08812960168671706,0.012006647920977592,-0.07346067569129858,-0.017370305258971847,-0.0165567232915396,0.006490058006103435,0.008790337406469086,-0.05017509233554897,-0.03556429308153505,-0.10225953504567128,0.049179495160053835,-0.048520207325146864,0.06480234058488932,-0.06592220649461344,-0.014766373405553363,0.060495931067089566,0.1019461984757668,-0.010952513232763042,-0.040590596713212884,0.01943497942121214,-0.009208759489891864,-0.012242787100211943,-0.05104611151826245,0.040542234415813866,-0.04193148478887798,-0.01956030159671976,0.002811474831796824,0.02728525313643726,-0.010844718888404367,0.005713897927378225,-0.04022012696945282,-0.043906855060841084,0.0053778257806924735,-0.0033701369274948584,-0.006861642508232753,0.0398924197759521,-0.016920504261812148,-0.005612739113792748,-0.018778915357360596,0.028661060363118055,-0.01603677216658063,-0.005827372696495311,0.0060502380365717815,-0.11604807764489837,-0.008060890247692706,-0.005739780380880788,0.017538538086007003,0.06240990498716418,0.027465247232609423,0.028805868446818015,-0.022317681935385147,0.044787034930767924,-0.03364664058025182,0.04120653441031743,-0.03691892366126029,0.03643956936741028,-0.006292925587403813,-0.030126258803763805,-0.05819813668079504,0.09928874748231414,0.02042343351965302,-0.030914139043474988,0.03670190449456489,0.08404254024963091,-0.03198019451224849,0.007260983696298199,-0.06215932549036964,-0.0076975474172802216,-0.02511243427085042,-0.01922710093431979,-0.02532106685633954,0.008078728303867034,0.01017466748533681,0.0516250855149076,-0.024388622997218258,0.032315107477577175,-0.002976813032474065,0.04619540084434178,0.037410945109533814,0.01167931282329689,-0.015728447135897015,0.05381589961213671,-0.020755432055658135,-0.048787140046805184,-0.03771855619944153,0.07497189096568534,0.04709867517841406,0.029957965413318664,0.014213286455348534,0.004936178040579768,-0.050195871068978784,0.017250974674117858,0.04733190971954035,0.015169982654566951,-0.0424273535675972,-0.010023411406908581,-0.008856580948332065,-0.024494922188009905,0.04086835395540184,-0.00872207065803011,0.03440536173046201,0.04459406137018735,-0.03885368307716527,-0.038111651768095806,-0.002966704275975373,0.07128545552726016,0.022951134175215642,0.019155076463312964,-0.029414168942156774,-0.009080016228719054,-0.011254098473775828,4.1176013695447994e-05,0.01540618839812238,-0.05138581583947562,-0.055706450645456686,0.04700651021347153,0.02716702552377124,0.017709407729308357,0.003920467861937169,0.02419376286675249,0.02713773653200731,-0.055758836218465536,-0.02396644997845157,-0.05117217560059846,0.03545684604075387,0.10458440069204575,0.05241472359354671,-0.02414410611520666,0.02758653409457837,-0.02711051436627153,-0.04330810856123059,0.01489364083665742,0.027294391471408812,0.02862137388442625,0.01613018136699202,0.006486376630126859,0.010198411902939911,-0.003092670098185749,-0.05965565496164695,0.015073457543779156,-0.020048771579022986,-0.012890936895875445,0.007992095030112856,0.03392984867804176,0.02294306964402628,-0.015174112195878253,0.006100381839094547,0.048538370740368944,0.034449358842378625,0.02499160223686702,0.04025149042857112,0.04287293886896287,-0.0872777983476383,0.026628352878119425,0.0608993289587396,0.00420659615722621,0.010443616804185306,-0.024991381322602497,0.03809547832012522,-0.011544848486937428,-0.025174657155562812,-0.012010306492722384,-0.033681048022733064,0.0042609419816370345,0.029184718833336586,0.012162649003497315,-0.008199803770583535,-0.053931843500562994,-0.005642219814383833,-0.01759746371145708,0.014332107352120187,0.035815267870571606,-0.003114766196925867,-0.006214226155676275,0.029082629971456393,-0.011036224446027382,-0.07162571964464783,0.01804928164311021,-0.0002237934011222198,-0.036222572686608605,-0.014417629820922697,0.04027053490017832,0.004964553228583396,-0.022909268262171534,0.008587689224354985,-0.002631508103681738,-0.027456470759351495,0.009981001936999198,-0.04413482172283578,0.01774169009221993,-0.02627791765110644,-0.016252304300526103,-0.030900073020101435,0.0008905104989377739,0.00015051741893911958,0.015427268090598625,-0.035031670465876165,0.037509449959598345,-0.00017995511419410017,-0.06438930532037732,0.008651242449841102,-0.05676983877553327,-0.029043627196919622,-0.039803113223963994,0.033109352788396836,-0.035983402372887996,0.033592583392000566,-0.05743927621184094,-0.030777134193631348,0.041565662686606275,-0.053834857458911006,-0.030284025050552395,0.02632764932918371,-0.02619351860091868,-0.017856299610185953,0.00037618953181778173,0.037017649056288876,-0.009643372032034981,0.020070303876019557,0.03557923939729975,0.06501136434081091,0.0015121267288819582,-0.03143993456686394,0.016173492137062876,0.026474905027802847,0.059811012799729515,0.0626940160454315,-0.04486868603139039,0.000901296858442546,0.015846794177037386,-0.06295406572201805,-0.042102912616937264,0.055094477241544274,-0.06214087061478694,0.04336161563464997,-0.013503913651906178,0.017964795594394633,-0.04938549961668962,0.004818565080263018,0.02860170889120147,-0.04405408040827729,0.0006123762715468524,-0.02809019373005922,0.050471413014301865,0.07532554995338453,-0.02583432474361928,0.058368559499448115,-0.07027924576940361,0.061344255833736525,0.05652177636646611,0.02527026778839553,-0.0289302692768621,-0.000862589518482258,0.0657358802128961,-0.06883048756520216,-0.03226952940685566,-0.04792663163317795,0.03531750454569207,0.02886989007525395,0.009131891592716249,-0.06980762425132087,0.062206565693165405,-0.04670225913571127,-0.006540685424720322,0.026542871654427577,-0.07275918355496327,0.017711667285918165,-0.08055357768626537,0.0649566280872048,0.015049179087768169,0.04229396724917161,0.02053500848574207,0.0059328043689462285,-0.030245723454645924,-0.005264427418007227,0.03610109788922489,-0.01220779951483718,0.03877064392656377,0.028452846903447578,0.02499775611990604,0.009885766821273878,-0.009437540471226212,0.04551919811912709,-0.04827708580593727,0.016906120636884694,0.025772690187691655,0.005805031322155402,0.07448643474173466,0.015384700882030413,0.016000889746658607,-0.049536741909078974,0.04227982587888931,-0.016712905913103662,0.04721409301537556,0.02989076114408501,0.04787610444274982,0.00593946738348717,-0.00048528620774414104,-0.03917825981167101,0.06884459157472761,-0.01069637425170975,-0.011797924465535006,0.0756747247994272,0.011920149216267772,0.010271620618630038,-0.018753653837212583,-0.042881969053727036,-0.016407561716558775,0.005248583870180679,0.002269477949394306,0.06762407744740352,-0.024695308775579003,0.0267332591700641,-0.059243338844887514,-0.061122683274006884,0.06438154016881427,0.007394591166292106,-0.043231125347274794,0.017607653752530025,-0.031227040738805723,-0.007140835671235028,0.0072064124861396985,0.021399956396241093,-0.011656010291949747,-0.023716189667042743,-0.01204057774271541,0.02994050613539556,-0.03690534620470464,0.055826403526191025,-0.03667932912195664,0.03251142734803656,0.01850736958381833,0.005373921581171251,-0.052419456767818236,0.013613024196836455,0.00900276993352607,-0.02075357946356525,0.041858936866641015,0.02743674023553129,0.011037092645429444,0.06923696567554698,0.051265219048354994,-0.04043459524424155,0.020022040173170334,0.02927183095522502,0.028848495389695535,0.029833004099340633,0.03554202030129855,0.01046642760764506,-0.016613660261575524,0.045647199634525765,0.013145887638512696,0.05906304547578834,0.04548536331765951,-0.018211425050313448,-0.08295957302654787,-0.008582056243758747,0.012523625339729963,-0.03872374426024657,-0.011198212134037636,0.014259851358836836,-0.02089757308058775,-0.012051962643685523,-0.022922475058450895,0.03802258956168222,-0.002292043554597468,-0.07180706412811166,-0.02751752071065467,0.0385855513124973,0.021427201809256904,0.014779142599084256,-0.047032981718827374,0.06651711155412046,-0.0011177839924619674,0.012030205907570294,0.00850992746202667,-0.036671386694899846,-0.02058453526453709,0.0008349159679072862,0.0034054080965289194,0.030369750679817363,0.00036111663902609514,0.005357073849859676,0.0254357568471129,-0.040652981715936926,-3.174915587356249e-05,0.014424863858893288,-0.0685974825489105,-0.013233030485501044,-0.04202542909907472,0.027689698928429415,-0.004956944076194268,0.011776456238112801,-0.008109104275161897,0.022608444009216917,-0.06154060176322514,0.00220738803505628,0.039833044737450134,-0.022298761332991197,0.05071279369461129,0.016981217458078648,0.04208401401549506,0.03444432706154289,0.02779064518076455,-0.03246063363906451,-0.029633270004633186,0.03358703859491113,-0.012880795295073475,0.013607531344929712,-0.0031030353383520704,-0.012852267156068999,-0.009940253958537369,0.06826475307773917,-0.006720864908770865,-0.006974153866640302,0.0032809390591988213,-0.04339059849189675,-0.004436843677210337,0.022680501950977334,0.022181048299238736,0.0020103936287438756,0.017160166296856016,-0.025025158422124005,-0.021977448031952906,-0.006387306241166065,-0.03313454071119202,0.0020264137563250047,0.0014012392618256955,0.002774177674393193,0.051672000513588966,0.017770983945148405,-0.04986277230906769,-0.05636073713124975,0.037045028566691805,-0.006704594873934878,-0.03512027228267208,-0.0249935416137552,-0.025330664946356697,-0.04940789540854951,0.022253313703834918,-0.05583196989884017,0.0251446972128791,0.022775610540688065,-0.041192114890977294,0.045080558103741515,-0.06304143918596876,0.005754079160506104,0.0390430373275352,-0.029831738399810716,0.005552762929805218,0.024472493821452022,0.0524190678545959,-0.006606527426060015,0.033533915412994914,0.014156365623031995,0.021288620575602473,0.040286914025042656,0.0428064522550868,0.005656788333344588,0.011926391587300689,-0.058777795928508215,-0.014182110320849435,-0.006782444429274978,-0.029995809363733916,-0.055857918396867504,0.009357603476711612,-0.03394991029608274,-0.004065114130094155,-0.006237517867208243,-0.06231096809874922,-0.005448102005861359,-0.025048110605596707,-0.0943773501626965,0.07967488445443803,0.00767396046163039,0.08084429943605405,0.02561012427690921,0.0012931378432074346,-0.02429228530063455,-0.03630948305697029,0.04446337849258059,0.004998062184536556,0.009754051859660306,-0.012053168262077998,-0.026707035415315918,-0.0008948854464650576,0.01085511561098925,-0.07676350302270134,0.03379852625820213,0.011663079506462443,0.010915358969768214,-0.04100498299607891,0.05637596727053118,-0.005868779883560293,0.021271261196985875,-0.03463913003275232,0.04006314412911928,0.05107649574690946,-0.023672542006607136,-0.005178399145528045,0.04522506978160313,0.018537868665065693,0.056478883263768855,0.024319874416158658,-0.032471938534765404,0.05516126372185304,-0.003908608453913025,-0.028776170111016748,0.035978707140089196,0.015331816133080526,0.10437204626644497,0.010565060095972504,-0.008197399898164556,0.009299491750019631,0.046274201096650314,-0.0027586331422503924,-0.03320075988169668,-0.04868419149022492,-0.005677841680024478,-0.0281154735430709,-0.01347189505068998,0.027903030886987302,0.060579126790941885,-0.0344542525000617,-0.09237111882691326,0.04050562792954863,0.06062703971954804,0.0003240547154233341,0.04838538027356859,0.014199644209945276,0.0010888928491562492,-0.0014218810784012877,0.007223228267212102,-0.05850124436479306,0.06097497358599272,-0.03905257059174622,-0.012923281742441995,0.03278317564751149,0.0021368525273059605,-0.07574838301210321,-0.01628930694126254,-0.008373405901715718,-0.07209394247057292,0.012612060950687627,0.05553160258118376,0.007561047276505752,0.011279808040496005,0.06333071880186136,-0.0465377214517765,-0.050329014230205756,-0.0024850292123811965,-0.022942914291716944,-0.0005728420050312012,-0.041707887703627516,-0.025810929899839956,-0.06756228391178538,-0.00904002892826409,-0.01970770714288371,0.008434703974245809,-0.05532656280935064,-0.05047932675043907,0.011662596428574439,-0.00970249317778714,-0.052855467066043216,-0.060925605990018804,0.026697733966110707,0.03488736049440395,-0.021967914561702693,0.02166135795044664,-0.07388825796671337,0.00836102465483187,0.01597087388658848,-0.012325845628313967,0.004222699574675431,0.038652787502679864,-0.008550961459650556,-0.07047391497930562,0.017078804006591536,-0.053010309225314266,0.02754513421347371,0.02235680850247138,-0.013670919292391547,0.01989134390218942,0.012412928592516123,-0.022999973048859285,-0.002078304767722789,0.0001241600289767655,0.009942371140159894,0.0006879814718597126,0.03982246057762192,-0.0012605529252182272,-0.04517759378550093,-0.013677995479633874,-0.010371060651485462,-0.07832829439039217,0.027313742799950528,0.03749335656602349,-0.026109104336787103,0.03823063069101901,0.06819037094849066,0.03367663153972598,-0.00039889098567450886,-0.025152692133987145,0.01633167099066053,-0.02679857177066458,-0.058515837000368914,-0.03731567594299411,-0.054399291973179685,0.015997923593673306,0.022762833192247815,-0.010090749786018842,0.05491771581416114,-0.010688854211638224,0.0001283182610703296,-0.0011119170583266005,0.001994659312557326,0.06177046865809973,0.037723354997976466,0.03221308586740016,-0.019790355281751475,0.0340198420009317,0.01374796954684759,0.017251538015455786,0.0038467743753685993,0.03375175930696345,0.024708966480673597,-0.00015333296219702207,-0.05778009048108451,0.004876131351673884,0.03802775863484977,0.037741797695115126,0.015290209886380407,0.04515413447202461,-0.021764757648549567,0.0020175028270777505,-0.027776103442055923,0.049155177681561066,0.019235649841291537,-0.010961375979490179,-0.05151634872944126,-0.04194110139667914,-0.03345127222177292,-0.04613715535649283,-0.0037193931531175166,-0.029070543438852188,-0.012162335230331086,0.012675945139353282,-0.0049090760336567745,0.014228611838454249,0.03300461601343527,-0.016932777331067673,0.003655800749134606,-0.024580735708905038,0.0047845395036450284,0.004621840742198077,0.0009028968705058482,-0.02673497932676079,-0.038305927731338084,-0.0200818619146303,-0.0021320915963345256,0.018977987091312303,-0.026597459041208377
0:4:-0.0043168014511989535,0.014211257856279923,-0.011909653352601576,0.026933340458946423,0.04475365758427239,-0.03452679813930836,-0.04893654347966643,-0.0009260737422938654,-0.026684153956756534,-0.04084471915036621,0.025476061260436948,-0.013246569169656768,0.02206524789984088,0.007089090248126561,-0.03804333591626943,0.028838413356217212,-0.0030016081103206526,-0.040228960405007896,-0.00673161187846971,-0.008396250787261427,-0.0011192381491956758,-0.0973432293689437,-0.016641617423745182,-0.07215942917208848,0.013600245974740396,0.019045480778846952,0.007071402909466073,-0.006336210250980511,-0.05196461273357373,-0.00958768988765,-0.07038863660914277,-0.03631845785084019,-0.053910935168714154,0.019333432251701317,0.032307103658422306,-0.002197057899318428,0.05225839655624008,-0.014467171127361329,-0.04079798298315736,-0.04638408164000585,0.004773165200268623,0.03648572219633501,-0.006289567829996833,-0.025036656233532798,0.031315809163178304,0.0006569573051418545,0.020399486639190178,-0.05449611867256511,-0.02832728748747645,-0.06176797850278351,0.0017825570007676498,0.10366786587508416,0.05155020165226477,0.07265723602990559,-0.024193705625416638,-0.02372672252234214,0.016347210132280184,0.00855215557844423,-0.017934616692285816,-0.038577540105410986,0.030011084875857724,0.03538995994856807,0.026237490872678765,0.0365178932191887,-0.00369589082279207,-0.014713737805323725,0.026269574665957376,-0.008718551421287492,0.03811355773476289,0.024014424105163384,0.02900757094154598,-0.0007764154496702128,0.02182170771807248,0.009699665217088507,0.0016226680875174673,-0.018888428389820165,0.006230294474471194,-0.0024160491536881798,-0.05831001646982418,-0.033792174011747236,-0.07407775293635593,0.016995485682913317,0.002035104140073029,0.0006541736633386254,-0.007578574740628333,0.030338765988134415,0.03722407058544004,-0.004837425177496649,0.006137271813081529,-0.03028189202533955,0.05085056867857925,0.013100075808008285,-0.03931741539678838,0.008131565492067049,-0.012532236856433199,0.005340227219087733,-0.008978768745323001,0.029839492835525935,-0.0022498477802839556,0.012820816078591769,0.08457069592460423,0.05112030249863961,0.013904255335553421,-0.027355811012802635,0.004764028850178416,0.014533117378611958,0.03687784536702247,0.02370318137340555,-0.024926722153438805,-0.0188386947693361,0.07954766182867971,0.02359844686634231,0.004471193257177329,0.024158028144315793,0.03676820347938923,0.015919961694048055,0.032132468260802315,0.024042003302960753,-0.022688745796396344,-0.04568203561033215,0.03625115468472843,0.023504067699056427,-0.013291145416352523,-0.05283980367560912,-0.02475900747044409,0.03606153959346417,0.050611133456197444,-0.035555518833488946,0.08056184365136286,-0.015603235341934016,-0.014483337212744933,-0.014310358339366074,0.006564937908526967,0.008404783233503351,0.00787250413627841,0.012959450513072566,0.028815995858542755,0.024362321505520895,0.06650285568178844,0.05491580995167062,-0.021276285815639038,0.01742580253344023,-0.011569679003944455,0.01910381825368972,0.022680282285056825,-0.0446395611388906,0.0421265530690366,-0.012736363581941615,0.04266638877666515,-0.01054836174544058,0.037705775665051344,0.016296519048288848,0.049861093709299975,-0.001217914638670289,0.07201663545353212,-0.014421745443847526,-0.0293399737475912,-0.0023437848595024677,0.02660884316991071,0.01412482229261859,0.005921958918011269,0.01471096143977312,0.04011254702646357,0.03867774826612839,-0.001591157195152087,-0.018420170075540337,0.009653364138391586,-0.0434472641128093,-0.027899547137457445,0.0007552918494830145,0.04494174844130139,0.0022446320477958184,-0.03200790416698404,0.012022195586771495,0.014194656242082567,-0.024968208890030638,0.10391483272386516,-0.056005085739223026,0.10883003172168478,0.03399196717368416,0.049677296980133394,0.06110613380516914,0.047889849996131044,0.04228678476435919,0.09607489705792782,-0.03623785414866796,0.0830292982450608,-0.02776726435026037,-0.06262376077433872,-0.014670920608460345,0.045418123861288226,0.0008659946477478658,0.02409709047237996,0.030646649537322056,-0.006058443622441699,0.04945734708557168,0.0014010640496838157,0.01830562926706249,0.032554445674015095,0.002304905700312351,0.043212726608841644,0.06589253380564379,0.03757666885959475,-0.04262633026706505,0.013469637944607081,-0.02121822513430006,0.025597053079023407,-0.05764468134488474,0.059255711125093646,0.02770886317946072,0.0009201552123792752,-0.04837878367295936,0.04053219989781694,0.030039527110412495,0.05539479054427289,-0.01851441805255609,0.030419180115655746,-0.020997356629790256,0.012858828729708985,-0.018005563544385008,-0.0068820460524214614,-0.01687066405396556,-0.05779453206207799,0.0019655671633718136,0.0503875859962498,0.005045352788408075,-0.057992980360473484,0.011190059633475434,-0.013345293991407449,-0.00362307842803137,0.005136110577417376,-0.015166409703944162,0.07211078524505818,0.04530966126230041,0.02680370162473972,-0.009197384827894098,-0.014697947002227667,-0.014398419360481614,-0.04598046946999639,-0.03732026641972877,0.02427240923124442,0.0022797250674228896,0.00626946283711116,-0.021177416492619883,0.09536423870710373,0.08612345736250088,-0.02263856937676731,0.04932680068702404,-0.011510838195308317,0.019313144200702806,-0.042292324009044625,0.034604896457273514,0.02599065326060516,0.04474683646204353,-0.00836272237110154,0.06675133593166829,0.043643022125079645,0.020858431060373547,0.015733539598105466,0.0376133251169602,0.0019951560252915506,0.030591393784732555,0.09436498877326562,0.0607301598988011,0.016702704680024917,0.024220902133246357,-0.06457751952792422,-0.008184178395775128,-0.09566381989128786,-0.02999640692482223,0.09555412407468172,0.04384542176010278,0.0699833569960428,0.033026022465281385,0.02942522960332076,0.0012817480436026335,-0.03538933713698605,0.04295322479550824,0.0026996684547205972,0.038372991796778125,-0.06718841994455893,-0.012231952451705877,-0.02493733312699976,0.029003799319115252,0.009698286777493419,0.00170911416315674,-0.060361001510743126,-0.016583671665822326,-0.03227176510890939,0.02066689222555399,0.05086833486441958,0.021691523047337204,-0.030374259192064774,-0.0006164080626603207,0.007007524719852664,-0.016235503533742833,-0.02070552613736193,0.03886728918153098,0.04482032244557857,0.004031571638145665,0.07774907390951495,0.013385656776469848,-0.035031114760734554,-0.04658531889393426,-0.019382141682824615,0.01941635154948343,-0.056845949831040445,0.0029170190946497124,0.03816308216348347,-0.0791803960961424,0.009444705017947716,-0.04702585759634757,-0.021995843738516294,-0.05516272989396001,0.018672896541024567,0.04151435512167581,-0.010953761534472318,0.0035532888577968743,0.050280755239128186,-0.03811148006446995,0.044824709145724284,-0.03826007096241155,0.026612049940460014,-0.042744533005004186,0.0027549009500888893,0.005857613183532371,0.0505225781628803,0.01772815771590822,0.0490365313694334,-0.05679485507188021,-0.0671083162512697,0.014335043962370064,-0.05311209623597414,0.0702642141350345,0.016493235984999653,-0.08362510020451126,-0.013763651897713256,0.05103145156692674,0.01028827210857685,0.002969703812865685,0.03163051316478079,-0.04024124081394946,-0.0237135812396027,-0.037164776145129655,0.055027247839434724,0.0021730209356147314,0.016963199129517173,-0.040096676749848875,0.0011707782760654976,-0.08640158443577416,-0.003087735345913885,0.014141524317575696,0.046605334850035554,0.028796185322352147,0.03740034879718459,-0.03275732870314592,-0.0026123724550933093,0.00048402816425885425,0.006648111278832346,0.02984546442805366,0.04802571960429127,-0.010789409683978653,-0.05062505802539926,-0.007581187308642497,0.10038122759140974,-0.008213870988834918,0.006829252580649741,0.0195079449941229,0.050723412137004986,-0.02994664293964361,0.004070915158540116,-0.06409559004459693,0.07752350660463486,-0.016986892672902692,0.0026923784723753862,-0.0404202279828547,-0.009705193541742258,-0.010423805695352109,0.016663204852982647,0.06606526733759285,0.086617950664475,-0.015230370725672862,0.03617447490793839,-0.012341512716924123,0.030618210660201567,-0.050706177322767075,-0.029597114620334746,0.009849663015281411,0.016059565031073125,-0.002090877432719559,0.07178441584153318,0.001971528246145456,0.009791574411734033,0.05037544067466688,0.0020209129530970537,0.013757031008614454,-0.004823084792596797,0.018080303904829096,-0.10817173627112091,-0.06340299408443877,-0.06135303805751974,-0.046636545292064166,-0.07215801945708378,-0.0024421714248097355,0.006720850544111469,-0.00576138278337935,-0.027699227308260313,0.07747648957564927,0.021945424988739172,0.05495733149555077,-0.02409761462727252,-0.000315461746971177,-0.01266737169313626,-0.0663773495127111,-0.03628663971825836,-0.054335155195286824,-0.04170655429034354,0.030043839722950043,0.04057014352304053,0.0018413505929195044,0.026849857448406938,0.03723495936544343,-0.00866846997026686,-0.03846423893101587,-0.021183989463265943,0.006873178354546298,-0.03952897267527636,-0.017923148414968993,-0.007087530163555022,-0.006660821727517653,-0.03851079050847285,0.03321894182904338,0.013148678947772835,0.017160118178853077,0.046383669758813716,-0.023392339197703373,0.04702252268638508,-0.012720412099947587,0.011288683970625914,-0.030214366253860352,0.019790000915755678,-0.060621318681669145,0.05341308127753427,0.0323968957202404,0.023516427807059693,-0.04056896721866031,0.025080341645648544,0.005574803214762647,-0.014241554466403579,-0.009230781061346695,-0.03820239521891514,0.029357510257494994,-0.03493826815658816,0.020954706995630023,-0.06365165481844737,0.023308266866667666,0.03889153726621093,-0.01365281511476683,0.03653717570088365,0.038518548051332806,-0.04542031826158151,0.022467485451058932,0.02004142263929646,0.026497230163784864,0.039698445042492966,0.05153697169093832,0.040115762813136856,-0.02312249480569794,-0.013305672627214405,0.06408295062335093,-0.019357723305423822,-0.07326773045526917,-0.06691085653170299,0.011220327891627585,-0.024557954443611994,-0.00230940400745039,0.06530968881996675,0.028725283200596353,-0.014275027607254779,0.0100459513360361,-0.01005693255951263,-0.09454877496497609,-0.008110168844551572,0.011725393459286656,-0.014411442714404588,0.0104391622426126,-0.03670593547375084,0.06564006759533028,-0.018512338471314897,0.010869526324680027,0.07427773855210859,0.04519375542919432,0.039108383695470615,-0.023135695802396675,-0.031087984026705765,-0.0042135148570925105,0.08192053356995253,0.0011083628318673204,-0.003326170092119571,-0.0010172219494456582,0.017129122500336092,0.0008170441957634651,-0.029260493515150216,0.025507067354818967,0.0016722705795899591,-0.02875230841113298,-0.057205291025656864,-0.03511029933236142,0.011878902553318804,0.051063330449384874,-0.04920678621583525,-0.041836573251298505,-0.006051084418894222,0.03145059553495392,0.015276439900483389,-0.0061853474318874155,0.022058437105867024,-0.011699702399783208,0.0101534314345521,0.03585624577557991,0.0472080041758103,-0.0265142403423987,0.03082060235160591,0.010833898743887311,-0.036891192640873864,0.05604356981318681,-0.005150278876807093,0.05248092615471182,-0.008527045030755253,0.002038215845941117,0.003340209283301211,0.013957600507327528,0.015208389912588893,-0.041379319839753924,0.02845206612458585,0.010554169454482914,0.032707643979404746,0.03303213228102671,-0.04078315064587503,-0.0025234040280990386,-0.02200506433993285,-0.017653647653979743,0.012747070032144708,-0.00896571947009591,0.06034536119798092,0.07827197012142678,0.02238924534836149,0.0811362585039386,-0.033053145593048235,0.06488390753748366,0.0096833921551671,0.0027210519101104995,0.018651627970573906,0.007747309985322054,0.07934600207676766,0.029972188056635814,-0.010937349204142759,-0.05368226689626157,0.013372119722209056,-0.0839124171175423,-0.01732233577238826,0.016619322253982754,0.009549605913209835,0.020873814244357147,-0.030088044983300803,0.05334662295168863,-0.00156969465961858,0.004086958986623683,0.10214662537172381,-0.04808206123318609,0.008691248853667703,0.030813007172271895,0.06266755672647623,0.003742842998228356,-0.017826251578851163,0.05179382663160413,0.036736703583642144,0.0026799310601259203,0.0009345637760244385,0.06160117857513851,0.014548644586712222,-0.004132524506613187,-0.006700805090490936,-0.005564779291951541,0.08221776618961665,0.052594008480611694,0.015104245082648864,-0.04221859286972571,-0.0720300057094166,0.012678067412848484,-0.024938252553339767,0.004200319386118967,-0.0020937164606602927,-0.07878726560855567,0.03408638333062574,0.026975327014538034,0.08245068304793304,0.06421617605582931,0.031836886341189134,0.01631624374212731,-0.004104044127138834,0.0016028139558975458,0.011022374983437926,0.024437247844385262,0.06891126232864597,0.073400087959249,0.06112978955765138,0.024274106362587436,0.04272782837018594,0.03651252946911592,0.061471652927573874,-0.013248521108591042,0.008105425365163524,-0.061997876326148144,0.012981290677505475,0.008313406009635758,0.018268878877882564,0.03916742667533485,0.03192749863780525,-0.02244364763302147,0.04406744882794535,-0.003642768939940012,0.02585467462711059,0.010903540579282476,0.03194863865833536,0.04467650468582072,-0.028405767030495337,-0.008425980821264455,0.03485210207503933,-0.012225779944854628,0.06086952854279909,0.05573913082950885,0.04216649558353843,0.0017050293903851652,0.05337091637043209,0.014672489462654032,0.010780394527065494,0.05496926193438644,0.05223443122143062,0.01620038274136558,0.013130308113869785,-0.011049007028176294,0.038208665108499025,0.006358915979602948,-0.0006060563283419422,-0.005571533707183965,0.012560065432556425,-0.03545460566199439,-0.03871965893699845,0.001339040118041605,-0.029116159346795966,-0.03980192325639889,0.02476479805783949,0.05024569627878239,0.04429135740545842,0.014369638283004907,0.013733182272265259,0.039885028228492936,-0.0074788020961971974,-0.0169427414658009,-0.034983289100420256,-0.017125800557399058,-0.015478197441833137,0.021770051119707135,0.007762263009354177,0.02852919353945764,0.020047236838494863,-0.03911292451569511,-0.02012124906605639,0.036496106601662755,-0.019819672639036195,-0.022880190171312983,-0.00026876217660564344,0.02912016198301297,0.009109024389467766,-0.041029922909267234,0.0033853138893921676,0.009929413451702859,-0.05256171910324941,0.05772351602060394,-0.03140905965574652,0.05271282398225552,0.026480148109062462,0.01978440327576081,0.00487165154360662,0.036068530905018686,0.0015002243895977123,-0.00730952360945172,0.07493739368625464,0.043955582755858896,0.043079381972045167,0.07598474752654409,-0.044666795235745065,-0.06691728944147031,0.057583618778933934,0.01871456904093734,0.03416406074591024,0.02098988403694902,0.07403971585909108,-0.08785288664304182,0.032161282261937735,0.012939082876932148,0.007411926281285392,-0.01291070636738155,-0.03848399402760851,-0.024121518072363412,0.055177635885887776,0.009847573124652084,-0.02394370375469696,-0.052278119762008614,0.05135118524195567,-0.0659897208993112,0.045877398693308244,-0.04631230506714991,-0.003156109153848578,0.06293371025237235,0.0051344598654975435,0.0007910412972486359,-0.028703577773216245,0.03287099806199415,0.047671780849340255,0.017109125945911376,-0.00447868711688219,-3.745545044300379e-05,-0.005576944695019806,0.028999451369268212,0.021980079025001376,-0.021234939379809824,0.02170887068258214,-0.029290604796540415,0.026093018238098408,-0.0038469849912153445,-0.06349825420586887,-0.05820119689250337,-0.03622410414956866,0.00378983652247708,-0.020938813559867004,-0.026498981498187094,0.03259868178315581,-0.012988578326322806,0.025751920171597945,-0.013679674311744973,-0.008920468416378613,0.021289536706449126,0.08292307283911492,0.007820903278461196,0.03920709953923849,-0.003988580984684314,-0.054579835436500496,0.04378249383711185,-0.002882566982488853,-0.027667275062631308,0.05000925781595802,-0.012990803966908384,0.03884765996301186,0.023418280816097717,0.02172923267199819,-0.058228640180234964,-0.02529930818664326,-0.011457762676257558,0.025840726740587135,-0.030113385908606204,-0.0031672402140339867,0.01837624600274783,0.021521931014235413,0.01164176618965351,0.042765625095887994,0.006737940241156098,0.036061649427892514,-0.016203030126702767,-0.016034707031041616,-0.005313369238044875,0.015383654514781499,-0.007716682590188459,-0.061053237624359546,-0.05601303279089289,-0.09895936327381732,-0.011310035059877741,-0.014395315204512305,0.02706163714016597,0.04472505295198794,-0.014992353998004486,0.04674108513959643,-0.0055079699552164196
