-1:b:1.3653667391842805,1.2341791831615694,0.950212432550969,-0.26254851693119363,1.5496530152344277,0.6668461597521103,-0.3032974384389937,-0.12684212340988132,-0.7928864086173162,-1.8494826785216882,-1.7924043254345268,-1.6245619625655108,-0.3458160273506794,1.0296043126700376,-0.49125792477031155,0.21625864690011892,1.8718760429739971,-1.3986188286709411,0.31188788972477605,1.6456786330206283,-1.9320684134651973,0.11179383055022098,0.003564138322103148,1.3202074156306407,1.23813691082595,-1.2659550158291122,1.4617623630969558,-0.4435139840590039,1.9788450273031943,0.5096359852606431,-1.8442508346372941,-1.5229623250478745,0.8779386475007508,-1.7331434012551306,1.4006864874577525,1.1818872539032614,0.6960464594953091,1.4208666702127435,-1.7092424774050836,-1.606619289076324,1.3777111975207952,0.3150190420035351,1.2655398150925332,1.1913099856428544,1.7075996165825775,-0.7893810394339973,0.5961994915031315,0.07173478606998543,1.8195548449217882,-1.6463252446529677,1.2107649084925403,-1.4502811320884494,-0.9205172925245835,1.2517027575289705,1.6326143260773405,0.5463898599045824,-1.4797510547142227,0.06892391560984051,-0.27695895684709093,0.033160535223231695,1.1350686841482662,-1.2138691205270997,1.021404879065388,0.3989342997234655,0.7723785878336797,0.9299834271927985,-1.0000100169399704,-1.6659631128677144,0.3793017973218326,-0.4962231870597279,-0.7378560135629598,-0.6206216861649988,-0.8749979355171422,-1.7157603919439963,-1.3655153485646645,-1.9685739672008413,-0.07892001344529262,1.6850410039810675,-0.7035881426416731,-0.07758960614664377,-1.644750184841151,-0.3715794909241529,1.9958333007793096,-0.6407657372506343,0.5565914725712333,0.05739574228398545,1.1506552749869268,0.3867842539282851,-0.21693461240848833,0.974494629732006,1.3280174955419826,1.4260512348334369,0.9447452471464036,-1.7014187389609465,-1.1573167505055348,1.0922248736375308,1.7195028454666612,0.7012997019987802,0.9304378543491285,-0.43449371203756765,-0.15502684488707064,-1.3813662488385634,0.5434713496460297,0.8113504806708174,0.9600726736348482,0.4715297411611638,-1.1907898942785473,-0.5074491957061826,0.0409844418321408,0.9150229335826348,-0.4937139778385822,1.9787660533631406,-1.4046264086822768,0.8846401792642942,0.4562503508797157,-1.649463507666233,1.4136135582910054,-1.2455002593047637,0.1898655230360002,-0.4264533797739015,1.5092902720503902,-0.12314692090661648,1.7651942703875656,-1.5390119545158925,0.9890522140390064,0.8149620535464231,-1.6023086009682048,-0.2859385861166708,0.655032877076757,-1.383817214414162,0.45683937117716245,-1.2263985651046045,-1.9448203021094481,-1.7728918739041166,-1.47662751970913,0.6867569938908553,1.2946353818047025,-1.985691990951329,-1.4558094659645993,0.14896057871458607,1.7150692653078752,0.2272166010169163,-0.3851459606626415,0.6237484850608427,-0.3142600462021744,0.44495885235227955,-1.906630987860002,-1.129889066813289,0.8682469856069036,1.2822515402506858,1.835653549710837,0.6729798305148528,-1.559010317408223,-1.8862212730761128,0.3007080892344291,0.9969738347764766,-0.028102610782185466,0.38423190573753496,0.12412963006813732,0.6183462912940433,0.7969562455665641,0.204435150033777,-0.824124530582994,-0.3913927123057519,-1.252712797883789,-1.7201487216961207,-1.533248268196119,0.30368341354030887,-1.8848168828737144,0.296008856064403,1.3905019704212362,-1.2368329524534398,-1.050318278555249,0.2391691890500187,1.5632215099039297,-0.5769791779541643,-1.8757609933470047,0.6644323473473353,1.2602864841707417,-0.8182066756036454,1.9497832168172988,0.9929676099056464,0.22593626874538217,-1.7752214070304335,-0.5077269640694602,-0.033835798734713644,1.0794112564973433,0.8060655406004222,-1.2427706744464055,1.2330793558088058,1.017833892387426,-1.1077470247522525,0.8740185616986783,-1.6851327913566232,0.007592847381025598,-1.746980890653759,1.7608743764524455,1.8808928171220363,0.9732697622561458,0.6480989834289796,0.7056697776481037,1.237464427948768,1.2967434364929578,0.7634964628804505,-1.9476243093105858,-0.7494616904688878,0.24332709782061018,-1.6324243395574993,-0.20325344406773838,-1.1016964570931758,-1.7305410424046936,1.599838522856969,-1.4302718469814266,-1.68352292682779,1.7273709837179945,-1.3684405286309693,-1.115753419905356,-1.6198666788818876,0.7220121787793273,-1.2777127949329854,-0.3460335535206693,-0.19002248770306637,-1.3918093898780644,-1.199730896891149,1.972131431251976,-0.24700523135400954,-1.6550715379659846,-1.0170710453090135,-1.432264007292353,1.3149837807880798,-0.22938089294900846,1.8477741921040935,0.9544504665583918,1.1963060630284044,-0.8892351341504434,-0.01778475937812815,1.054314923096408,-0.8670170698409542,-0.35378206336338686,-1.6580893904416545,1.4799281120539212,0.03276844355727166,-0.11164248343035071,-0.8203412759244532,-0.3811172947648078,1.5659724558435724,0.47372949357865785,-1.0052249065792784,1.4653302035385491,-0.5792336540017408,1.683295542810811,-0.21514389558901595,-0.02778474394594634,-1.8253735436657794,1.7357543457813132,0.14703524965914105,1.3217952148073222,-0.019155503295840953,1.702801067338757,1.6879029082011032,0.059237857160205916,1.5612230766265498,-0.036327933647696535,0.9339739453371889,-0.5538960346433797,-0.3412050033868864,-0.6002831652285877,0.09220625222632803,-1.6785174625859116,0.28970531972224217,0.11271000045550607,-1.9783758311953719,0.6048004854736904,-0.37178587193307616,1.2583209651864309,1.8755921790827628,0.7597106445611118,-0.1065151614105239,-0.13814321084021638,-1.574966823839981,-0.7891709184235034,1.8848507405389274,0.10940951875263807,-1.8215729305843364,-0.768564677908665,0.2026542412807686,-1.2991371389218247,0.23011122558320507,1.1149071612178965,-1.2135940670481697,-1.2778228929486786,0.9847335676650194,1.4548205625942052,1.0511777085952085,-1.3205069023234253,1.1698981377715092,0.8792615017220732,1.3531990714339381,1.970370738011944,-0.4496020696475783,0.3550072984025343,-0.6463717440772532,-0.14253799978519513,0.5559820865090769,0.9045384160230185,0.8486794656470432,-1.0787327739968955,-1.6076578263819634,-0.5102086856953424,0.28771221107169753,-1.1218049569218103,-1.047872666628678,-0.7258385540524123,0.4979274188410305,-1.188906112892206,0.3993174994280092,-0.6770876496135663,1.3697665154371965,-1.046482190596294,-0.8910507099331171,0.7395175814105802,1.455407296072094,0.2882036657105412,-1.4366273301362487,1.2063763628399775,0.32198282525255123,-1.8363176121990978,0.3990783414235738,-1.9309907396162873,-1.6886954254568156,-1.8606863404833467,1.9536375449397263,-1.112103184138117,1.5336906986015777,-1.1572899924617186,-0.3028842236547386,-0.5720277867676409,0.6348101816572106,-1.0226358533256148,0.38771364952399157,-1.6350272871738625,-1.822842381388241,1.109127521287079,0.44011785912994145,1.4152434540988874,-0.7045614362322018,-0.5400518767871438,-0.5268307164046989,1.5665814625488041,-1.1340743570597094,1.2444595032452817,1.5047599624109238,-0.4101101440130322,-1.899210595735323,-0.23666880605528867,-0.09159302306626906,0.24542959176453452,-0.505124114173416,-0.16833490201728693,-0.2586506856657403,-1.6535031072071225,1.2232259683954134,-0.7419842263201315,0.20539892362832482,1.628501628742863,-1.1572913728765708,0.256568308707764,1.5835830157100534,1.2098405842330948,-1.9652187577365399,1.620860465314096,0.1367973611373908,1.134889239757437,-1.265569821480844,-1.7828652381399808,-1.7574514937902066,-1.454310784627594,-1.0541438903142124,-1.7412990785501634,0.2165552166776676,-1.0591992885423096,-1.7961610217163315,0.7343605184077954,-1.9300026578637035,-1.6429806774578615,-1.4110241646199153,1.4010460367237505,-0.5079095131328636,0.8020061326657147,0.5413989458868955,-1.1831215502422494,-1.121688898489003,-1.7160257443112434,1.6592705173934112,1.548998150225149,-0.730656854339509,1.4901792340309434,0.40602848091404853,-0.8055454342139606,-0.12569747703041104,-1.2149300934869651,-1.2291260378841566,-1.9313645407934614,1.096646434466543,-1.5220083925503785,-1.401856163323525,-0.18781767021856144,-0.43166613266771303,-1.7808056523501437,-1.0311115204336865,-0.32788147938200357,-1.3934044166598554,1.3951233517455492,0.9039631592565329,0.17050328763944558,0.6329913621013343,0.7570653230484642,1.5815365841477513,1.0223711609887027,0.09527807861125977,1.8986712393141918,-0.850569927304717,0.9024523451660649,-1.2599650874249027,1.092009760626686,-0.4128509683604587,1.961197097311938,0.16451611527593876,1.5776069691711907,0.716377011537877,-0.5242838394747047,-0.4487825868877133,-1.8466129407814362,-1.9365468162138075,1.605509336814627,1.7847768014215915,0.15895667165817814,-0.6551435688620532,-0.8853985870938772,-0.6235655920831255,-1.1402147303017962,0.7350585205775999,1.6920193900650746,1.977563820929623,-1.6035244017134174,0.07541560362561617,1.0858233384648295,1.0954439947644503,-1.3618939253249107,-1.72285985510051,0.6563821829244596,1.487806097673872,-0.30428817392175334,1.3814370150215411,-0.27528725377447233,-0.5855661995144227,0.01126866680312203,1.644316160055154,1.686993121207004,1.1780840577072709,-1.1674985783659428,0.5298139327466546,1.0492598784906972,1.627386667997953,0.7945929980684188,0.8140893022553459,1.384030132073751,-1.2676043186825208,-1.0988384401379037,1.720149051512658,-0.43843022097737855,0.5426046241529567,1.2961500909767856,0.614083333202398,-1.8065238467016678,0.2709210302368764,-1.4010607614405792,-0.31339924647494605,1.44347752816007,0.044573121860921654,-0.5964818735355873,-1.0396733147718265,-0.43667340916915,0.7563626113207303,-0.7602588856734874,1.4099092536267597,1.1243406395681366,1.374625009608606,1.788070152804992,-1.8555054966973663,-0.8955918365583236,-1.833196352486679,-1.8921087586382246,-1.88741222156371,1.4950772547667652,-1.7982227132621613,-0.5775518776864291,-0.9068959577571831,-0.30992291868148447,-1.8267897010918959,-0.17471940493582916,-0.34113978891445323,-1.3151819411695813,-0.4553446740948859,-1.8946821056116026,0.7048519296512296,0.7151393389969741,0.03212706413766749,0.5182251948076896,-1.916687428179741,1.4375158275433182,-1.4767554765083264,-0.27789043864446994,-0.7890993336924358,0.23877415649995629,-0.21372990858347676,-1.4992565096696118,-0.4238992834193032,-1.286517419773419,-1.163214693175349,0.6191179895393218,-1.194434262194998,0.8834529980133192,1.1411990976513782,-0.2904756614102468,0.09859172294663364,-0.1970103642601423,-0.6048819758610862,0.8521755297720289,-0.11868803594017778,-1.4606860909189447,0.11446071017536141,1.3701440731052774,-0.6158592269424239,0.17881416518787224,0.3016710636609414,-1.7036103855370355,0.021578300396978143,0.2644428483755137,-0.1974987161254001,-1.8470125537288271,-1.8831178559838495,-0.1975725050782186,-0.043802899328074255,0.6953192379022479,1.8700544095454237,-1.8997723666083468,0.9725585087195991,0.5074442154663319,1.0179773923008535,-1.777218227516057,1.0523722033776743,0.9435377180545077,0.698791750568304,0.4120913783287878,-1.4151156084380285,-1.8696304506616173,-1.373705850201588,-0.896472442287307,-1.3904100050434525,-1.296786104459017,-1.1816895372178386,0.2565371700788967,-0.1218134666193077,0.058241361789927885,0.3127252755628687,0.47235740182725117,0.49023234996113246,1.795495059861472,-1.983909716555249,-1.3093948343872173,-1.609804209839624,-1.1777842197245154,0.9099434606653786,1.2170445151265485,-0.267805823602125,1.3248972937819459,0.8580029179752741,-1.604876264565743,0.17614362195123573,-0.47518156334608275,-1.6060279737898808,0.9645744016532529,1.3125708886566945,1.7528323919727655,0.37050227896130533,0.8104832797986414,-1.4685514010125829,0.22650477394072863,-1.6885639516638324,-0.44863511301994163,1.4802712450329514,-1.6862170752226624,-1.992529350682883,1.9358479126909451,-1.403227529218133,-0.1431098155659751,0.4059031088452281,1.451791103585297,-0.5049155251692259,0.08669370344244738,-0.17479743413242443,-1.3591907050448473,1.1539526997857383,-1.1381657832182852,-1.1749405527794856,1.9772253293761495,1.8848994174191074,1.0955715813583056,-1.3834320820164079,-0.16590430860065214,1.9745882111752153,1.752495292050485,1.63220090775961,0.8998959563202827,1.994243664397266,1.432958242222618,-1.2177589767574029,-0.5144315405511795,-0.06652896895031805,1.6063892110220936,1.2716555180730087,0.7765369480960833,1.5087072992000834,0.6238282844608551,-1.834306309280691,-0.3038516839297526,-0.6772308840754488,-0.35632035166405845,0.7010275627632538,1.3139667274481546,0.509455268081193,1.47772521120818,-1.0589163401093398,0.705120864652716,0.18889041110304916,1.3804623762425339,0.19107566591962877,0.7150276209884968,-0.5760322449382952,0.8618314973738861,-0.918941902671081,-0.6729352933611762,0.6013066700288756,-0.19934856301387116,0.6612563871647937,-0.49782948823343576,0.10064472815780591,-1.1980580624902917,1.9360247885052655,0.8384427336179366,-1.9214544687832862,-1.9041565329676895,1.5768673450874113,0.028732362890121314,0.20602245877757738,-1.370443682627592,1.2269657925827584,-1.9048948825931116,-0.827991147508717,-1.266477583827815,0.9621657951636563,-0.7668397146281846,0.7262828061092511,1.8668605876692308,0.4152620217725089,-0.17522854946632316,1.4479425455521977,-0.9536183233719309,-1.4846496905142006,-0.8344833673373531,-1.1025937816166675,1.6932601932310383,0.38944840503187533,0.8038641347893671,-0.6236933187214712,0.8317504443112316,1.3427381483757737,-1.909657356128537,1.5505269198879392,0.7895234523518214,0.8780188015376335,1.3137700402945933,0.07587361786033267,-0.36486396380253316,1.3945452806529313,0.12627269447399214,1.8630354267933795,-1.5441305051797283,0.5627741852143636,1.4742253356142505,1.595859321170732,0.6642326409147323,1.703291079988875,1.739648703086355,1.4576970990743976,-1.4086564869689826,-1.0321468312561777,-0.06456626632052523,-0.9178369880656772,-0.4117546804410992,1.966943003181941,1.4313899269890442,1.672551844315557,-0.26695724419215927,0.15368243696636572,-0.12031112964223925,0.4998152920347142,0.048061668842206605,1.827520557801654,0.6941664549821178,-1.7253385832403154,0.45992907868489524,1.0090481499250228,1.0654728422962565,-0.5017020635603693,-0.061604088343110194,0.77798087363778,0.04936219942232383,0.7743974892633986,1.2608127156378706,0.5377387280705184,-0.1962623200497769,1.5188920184273498,-0.7936145914641871,1.3258914603919885,1.956298403235471,-0.8874522049720235,1.4078724205525088,-1.6033908656993567,0.4744513423089845,0.7468721500438745,-0.5216712935680222,1.4476838363966802,0.11071062711890454,1.9139375223943516,-0.1962078867246722,-1.4217761274841583,1.0491095221329876,1.0541134354951591,-1.1642170999737824,0.2064121162566352,-0.6147793083785922,-0.37046954624677153,1.578781447283891,-0.017504674067959802,-0.12304131008544078,-1.7712896917530077,1.1666705560727082,1.1340343385616518,0.6274677037110684,0.9658867731992725,1.2933830117852978,0.5581757724454085,-0.28794110772199266,-1.7265334188428816,0.2385348009730518,-0.4694086893331533,1.5435340247243388,1.0273670075234675,-0.41933642477761746,-1.9467918635463604,0.718497700241496,1.7928300806581843,-0.24353936828467357,-0.9641387956245381,0.3529388788106691,1.0841151103771556,-0.6186077649299881,-1.316133084507329,-0.6612543358753398,-0.8576031147002273,1.7073942952124905,-1.1801720533777038,-1.283980111194726,0.38574894603128457,-1.619202933551454,-1.6708466781947426,-0.6275199771944989,-0.6367667422247822,-1.6824922763592975,-0.6429276427343829,-0.2073430963942302,-0.296812561837986
0:0:0.0464656853451736,-0.0025371647274932446,-0.012863263633129217,0.0015684458130693967,0.0643781462703762,0.025924018979292664,0.011693251685631385,0.0028597887691017925,-0.02866456638962273,0.059677735418891924,0.01742201072121344,-0.05420920461092177,-0.002341269855674961,-0.08317560710551894,-0.016547524772052357,-0.01277554460702603,-0.07397646862126663,-0.05378227635479572,0.04572449464484563,-0.006834398643599297,0.06036746712709984,0.02595905592448676,-0.07704170545961468,0.010630515473971978,-0.06348945835800633,-0.002573501324996637,-0.05336720573261753,-0.0672708940194151,-0.022183288407855443,0.005885671442350495,-0.01886959494307896,0.009877967874352791,0.035791458464118006,-0.05247921784840021,0.042368351401124375,0.009229615184769282,-0.011036747990997832,-0.015484101747884118,-0.06166418764978266,0.008383070642892143,-0.0543962096140007,-0.01338434039085632,0.033107258752887385,-0.036395279902465105,-0.05029507869303774,-0.008476497508993276,0.0035763574020331876,-0.014060685385680784,0.03452082445107779,0.028459965166662566,0.004173142206661256,-0.03804990709779009,0.030312501568471463,0.021594387814292057,-0.009399964820214405,0.03631665315767134,0.004113838763166517,0.05428801137237593,-0.049347562837462944,-0.041271159211075874,-0.010272060063966403,-0.013410958382630886,-0.002076617029583391,-0.025765773214514984,-0.0036830425941054156,0.031956112007255434,0.0037778353500781373,-0.03141221050390392,0.07629853006554342,-0.04335134878352752,0.01920302628484021,-0.02399299084899467,0.031837907556183535,-0.006540547848653594,0.031906833465210255,-0.002267350443437862,-0.002797914303813524,0.011230371649402989,0.016138278063752867,0.06573543782971034,-0.07550814381012758,0.0034759985673881145,-0.049960945538312956,-0.024717113834197772,0.016109246320378807,-0.039243040278129665,-0.06321823565654144,0.005154274128746661,-0.020073164267144585,0.04314172784440538,-0.031164751113707645,0.03497137223096509,0.013699348015291345,0.04074953277305983,0.007001692495605659,-0.003726495563393955,-0.043714248729268136,-0.01913248757842896,0.005515701997397161,-0.012141260792622233,0.04465672907518904,0.015326991530141235,0.06504818896527653,0.04724610819565059,-0.01672181538597927,-0.03436706806358313,-0.033070366829918464,0.011027907292322454,-0.03843894763965101,0.06469455029308888,-0.04357282259106398,-0.04497454212554225,0.018313732669788464,0.061039999853043404,-0.0006776340437841458,0.03551109880210534,-0.0330965192240174,0.03283939543939435,0.017064951510818487,-0.016555039993573835,0.02701676485339573,0.07506218859618946,0.031903796045133194,-0.006001492837407878,0.11386597303797015,0.05389871317413604,0.07910818169200158,0.06173641705377714,0.027862233994304642,0.0326319854843963,0.015489042563419179,0.005744903053748977,0.03490640784214564,-0.0043337680636326105,-0.03134916429767955,0.04492223143592668,-0.014993065110341196,-0.018967456586672597,0.03000598008755388,0.002507230384420449,0.0015992266116002607,-0.021363505028118988,-0.016111216715127996,0.026651637337271612,-0.002425366916455915,0.010601578782258439,-0.026798652685413468,0.031301986727440695,0.026272789916944313,0.022942483995190003,0.06299189502484887,0.04030714677239393,0.03961340389158,0.01794760656940748,-0.006508019503278147,0.025788699894592603,0.031044310899652004,-0.0005938222618513185,-0.024644251398401453,0.0366282146516927,0.06892793246469921,-0.04145620255240852,-0.0024521022165197343,-0.025234376585240467,0.039232436727206124,0.06176107351442909,-0.0777037014609961,-0.007954487504348812,-0.02030458862181721,-0.005767188478582963,-0.0672865012434944,0.021862273440663122,-0.07285718135291255,0.025776977347723797,0.015467914209890585,0.0008719912506815393,0.10863446086599832,0.019051479791137794,0.015751821412452665,0.03300630604028177,0.019496791476490256,0.009494140303315452,-0.01740944917684831,-0.057678255588203414,-0.06600022259338664,-0.03230131759374157,-0.011169326339833656,-0.028906228489619913,-0.004992457183067248,0.0025547178101194773,-0.09163017934081624,-0.013214053845555431,-0.05495155457070229,-0.01386642743478717,0.05893853146294743,-0.02782321730880775,0.05659223664986355,-0.03921777713155375,-0.0013757770301896736,-0.017201513765398718,0.05543761143219469,0.028515426381513546,-0.017710478006815182,0.011551924793530757,0.005581129147266266,-0.036739729375709025,0.051126596881287185,-0.014841499256267855,-0.013790442592673395,-0.011949942541528678,-0.028962689617626883,-0.011938866549932611,-0.023602215665811527,0.04117443920888449,-0.01553014592088655,0.05884306674433063,0.005001939952043431,0.008938162694062649,-0.04753858917201681,-0.018477670197266823,-0.032050438866451876,0.055347246978806934,-0.06935765821851857,0.037766063008210185,0.016511961790404102,-0.057179873580178946,-0.00013327876600734996,-0.006725369930375577,0.02285431578810169,-0.031596129327663425,0.05293527340819929,0.016893504287448874,-0.006869285033810561,0.01562607774807211,-0.01215164892531048,-0.005428779466201226,-0.04788273371346784,-0.0013869880650566977,-0.0004640554319768435,-0.017260855945485043,-0.006356711194414135,-0.04293765251354598,-0.00045735127767827707,-0.08686419590105703,-0.04294666795051555,-0.04808353681072687,-0.04107741472261567,-0.012650594783447757,0.003221374792773029,-0.07118385163099307,0.0058855432602167735,-0.04259566290140276,-0.034794447025896,0.019311047380104366,0.006638042819984688,-0.011260538548209706,0.015716729841823752,-0.043405595817447955,0.0049037915943927635,0.02219587343109839,-0.004747185097941137,-0.03683174464306317,-0.06257048155419034,-0.06254182261892173,-0.06664052211970464,0.02473334263537133,-0.03151076013311084,-0.0403062371059564,0.016434843158705047,0.12533910244375238,0.032077902186565414,0.014821621554771102,0.01958453932226865,-0.015372466548971876,-0.02163634238542425,-0.019460810161711795,0.018092112043564222,-0.06572569815618949,0.0015906410237859706,-0.010031367601765715,0.019391351181072707,0.0020885173126034763,-0.030351035312623127,-0.02639413479555774,-0.004630476121684981,0.023691970943262627,-0.05717825622540906,0.00037330844891794707,-0.04008242768737398,-0.014008792278464077,-0.0488209497804839,-0.09815284191408573,-0.10072434879459678,-0.04951915089809446,-0.006702370665662116,0.026065023402197813,0.005573322992097342,0.010253073998441511,0.07659174575692856,-0.030682035817514747,0.0033905120407017016,-0.045696879429546776,0.02052569850980027,-0.028910423164150986,0.014383312209320692,0.013384085821771759,-0.017446234997169897,-0.015992558811290587,0.04834961327004111,-0.03298068155362075,-0.061836640708048646,0.03814421697732246,-0.022178262368739782,-0.014726718366819248,-0.01936711309198372,-0.0466855227065038,-0.08394268095432762,-0.10876807189922567,-0.07968725561096546,-0.03500921022717646,-0.05804829802565163,-0.0506748987228718,0.04196107434091968,0.02577174183647592,0.08906072782724381,-0.02274364383694882,0.04613530157651432,-0.04605482194011699,-0.017673329078604073,-0.031645528716338925,-0.12934746230295432,-0.06788259002896672,-0.051387308046819624,-0.006322189304567702,0.013870659052243795,-0.0012686081675262317,0.06437995432179501,0.02401241161963097,-0.0019142827607238843,0.03820973398121977,0.0296404128226578,-0.010091169886451213,0.027196193212645797,-0.045747452558213914,-0.023376123703580783,-0.1275930682884692,-0.08502481380102656,-0.08561416934161602,-0.027743021929256376,-0.06133468147031219,-0.033596595503210834,0.03576453927743366,0.01597629433919001,0.052991246957443214,0.015216550842155252,-0.015425800730365605,-0.054685510724497836,-0.06446466698816676,0.03835710243060659,0.030397091801386618,-0.014482643340558541,-0.007701280303420707,0.01651382790581804,-0.07184168588025784,0.0010982569050756736,-0.0070744915449850775,-0.044354093327386275,-0.0009367492992545849,-0.009694919370516968,-0.05486024370260104,0.03267742871591,0.02646238644254539,-0.046886690418650345,-0.07623195984410625,-0.06183351628513679,-0.032135919469209843,-0.01438162354645605,-0.0346084712143084,-0.009845095747201467,0.05611304438624798,0.08565191064878541,0.03344485177312096,-0.05249001775728789,0.005630344330249096,0.036244453088717286,0.025164935742705164,-0.005802244668952301,-0.017725150280655914,0.009525235577792557,0.0008601804550185812,0.04651775380873701,-0.016970722233467402,0.05064598032873261,-0.06590159642432733,-0.007753952380998799,-0.014814061003747693,0.05041415219825039,-0.0027853130883417026,-0.08453750242178022,-0.004698697646594552,-0.04841154426162183,-0.02392648453504301,-0.005190619099350172,-0.02758933194112579,-0.08455604065079562,-0.03915414877908444,0.043837926395097655,0.029229750542911232,0.04384105511262678,0.002506144064291565,0.09245339007286459,-0.05090943686738564,-0.02127991453715721,0.030647183415118226,-0.006201865457956192,-0.1132016223881738,-0.02615038541390819,0.008735610880149184,0.04603107288569163,-0.0645989036998826,-0.04401363101359856,-0.010683597387788039,-0.012639341890942485,-0.01796891450862051,-0.0006115720172645497,-0.028427485765501363,-0.057385547224529744,-0.012902977528251534,-0.04271806743378594,0.02873846904075866,-0.031923858613692346,0.009094602939211162,0.017456030129429395,-0.010089771599258324,0.03423206890823838,0.017380011493185542,0.012490842561062114,-0.0027072475144446525,0.014181223040801036,0.056332997973636965,-0.01680129493093287,-0.005278002976848016,-0.010437900977497725,-0.028321057941683443,-0.02899779860816572,0.0051101718106618494,0.010609821990260757,0.036135654829676615,0.04029777296216171,-0.010892967382584611,-0.03417763821944089,0.007276719721263889,0.00938076453601611,-0.005262483962157939,-0.01892607376252606,-0.014223893065268148,-0.02782777381704315,0.03866760344921698,-0.004910575644803582,0.036520206487801375,0.07390912672276762,-0.010958704273267745,0.022040386998347795,0.02826385538244023,0.04137019766977724,0.05670018201684003,0.024240678918733053,-0.026362347865841785,0.02720682494996558,0.02726567803458145,-0.017795885182371296,-0.029023057932837572,0.026267554974256334,-0.009265756401425884,0.026868440260000834,0.005022417472461109,0.028300569055864113,-0.010390134998719205,0.009707810959294343,-0.027088679363969227,0.006344806739528032,0.041463304297648815,-0.0238465996894769,-0.03072902862724166,0.03301716090118242,0.11530365039924265,-0.022233339303163027,0.04052792516002002,0.04946260676296623,-0.016076289845182126,0.020070926007498196,0.056699482544532755,0.04497425143980833,0.06595081820721192,0.06043762242231243,0.02286842760056945,-0.031086450934901342,0.008240963856282812,-0.039073635916891024,0.05342888161825927,-0.0009309656842386148,-0.042853856543281985,0.025874846781347945,0.006030350340015819,-0.023573483118429748,0.028968663781780594,0.036722375092412975,-0.03307711709243933,0.03433405323607728,-0.009247471715760746,0.029812697118582813,0.02658630167837476,-0.002783349119742217,-0.02738687280529223,0.09500227261411014,0.01983961865292831,0.03889382904998316,-0.03256292975373476,-0.027656270942174144,0.03864412199404276,-0.014215645176801572,0.05999705687475099,0.012557926359398617,-0.018179198061488475,0.019568926701235397,-0.06097520987081321,-0.01663254093454492,-0.020115964461324704,-0.042728075037949086,0.05354985271319915,0.013087767704647445,-0.034134675770656174,-0.008525150549231563,0.04179870592293666,0.04233227876836596,0.04960231758847691,0.021334810373432385,0.05261327647717487,0.011781725663933679,0.04712899047355223,0.020221977002738225,-0.03893981146744223,0.05288614212427666,-0.0168092569307834,0.018638071197394836,0.07199156041754194,-0.01038954284142027,0.047205856048216734,-0.004827963309357585,-0.01718466999078534,0.007982304726376064,0.09346775530543218,0.01761839109724913,0.04564806662308242,0.013681798715471545,0.04135250815346502,0.050723589656132585,0.006506942742510921,-0.04693844744286126,-0.01709403646724548,0.007765305547887883,0.00041328091069146796,-0.003773065559497286,-0.0284786481609611,0.011064405758068038,-0.010635043065612637,0.004044626668112659,0.053569652331772855,0.03718905783143457,-0.04113641441990873,-0.06693921597034384,-0.008603513975128804,-0.052888596896041105,0.05220752824626153,-0.01682350261937712,-0.001296531378269065,-0.01509562610736748,0.053151180121012075,-0.03014148450587694,0.03327697296594664,0.012133238194681649,0.061422220733959254,0.026390865885376365,0.03689488443209988,0.025058570977195674,0.01186546530705843,0.028115109463150392,-0.017956642481766916,-0.04715205112871859,0.015186809329732882,-0.031191871772143043,-0.021593734310528457,0.03131291645235912,-0.059996886091146465,0.021316228549105073,-0.01639406310037936,-0.02466448497611235,-0.01536556720042596,-0.03567151456126136,-0.036116727435917095,-0.011296788130170985,0.033264409077905614,-0.014780360675089345,0.004859047486287676,0.049858637696636086,-0.05243873014461465,0.015156633979817502,0.036108671114481766,0.013242688737367671,0.09320900153085394,-0.027404278443730515,0.010391882387839725,-0.006998070641933261,-0.025193551822186203,-0.044524693652312666,0.010005461009488794,-0.018877965731140135,0.04491485027476114,-0.047330995053020714,0.014814346010518708,0.06698222990429405,0.03613727371046151,0.045877009318256654,0.021221441882403113,-0.016120031260800975,-0.021325809956336626,-0.0006216674838014416,-0.09360889464921682,-0.028086436008294594,-0.08591866088741382,-0.02439007617556428,-0.003189435222702385,-0.024037352818728416,-0.008885942272702634,0.028535953726257883,-0.019309209739255977,0.07627376860101706,-0.015381553889063324,0.02686164032167061,-0.0009187519674821054,0.055162563946973255,0.019986444843351506,0.06930900620377194,-0.0482229709373886,0.0003003713919579506,-0.02363701513410174,0.018172838157517104,-0.026199059113503172,0.0013010426211734552,0.0037190685575553884,-0.01283038383993152,0.014073413352034166,-0.02695884362349619,-0.04420409289032914,0.017444780680152674,-0.026311103680459292,-0.058528717158844876,-0.015953350569371298,-0.06285516720521103,-0.08828922678727914,-0.013387012137711428,-0.010807676554668579,-0.014070259726818203,0.03962315021013214,0.0132315787063653,-0.015032441576110512,0.024806638877238645,0.02192886584725326,0.010262452231237137,0.03486369312157352,-0.048155359629108954,0.0005764778292022647,-0.058276082643196524,0.006325546844380759,0.08118202427829528,0.04003155382485074,-0.10363073044965823,0.016878532269342182,-0.016321242237542197,-0.042540657447682324,0.017252043483199857,-0.06715181219649247,-0.04809371101812636,-0.04523519257288995,-0.04687514706902799,-0.09119770418914895,-0.024184670639561492,-0.017310887397901684,0.010182776447244492,-0.0030037555785216983,-0.06780194706086898,-0.024950976115883663,-0.06361777049006327,0.020787134118877355,0.03186216689735384,-0.04312159364547618,0.012963355720159778,0.04653228956030515,0.024021987929848693,0.0055472632495530165,0.05219419947149785,0.01772882080706857,0.04611320732032871,-0.05582405060851368,0.0033372746171181347,-0.0033017037631650724,-0.032622963312343614,-0.040798275408725396,-0.03904254352614227,0.015302190820239578,0.01293887479944986,-0.036143562095473265,0.020928761716089768,0.00407947163215225,-0.01930401168707134,0.0502264645113166,0.007600481917178274,-0.005592969439771055,-0.024069631996940365,-0.034949671228565266,-0.0123064317959068,-0.0451603398743364,-0.011455803658851032,0.030095643882744497,-0.017375222135171724,0.05821812206748458,-0.0018295580839393717,-0.02245991245737052,0.0361281030592609,0.016795113679271854,0.06071967889903301,-0.011107631157401697,0.03873830520794423,0.06234454716501756,0.06038963256279691,-0.06765527783115745,-0.02201980828356886,-0.008773183940722675,0.03680414151811611,0.062303772496650256,0.010998012900521706,-0.014820997417641315,-0.018734955254412364,-0.036025702570345985,0.003959662023494855,-0.019755879214482942,0.029666589008113975,-0.02615992402303145,0.03527678559794389,0.012538837658971451,-0.00785595505859875,0.01643946477751249,0.04148650718851482,0.032274898364895,-0.03324936485247424,-0.08850831820512234,-0.008098793629656374,0.02872670253178922,0.0076553239691691324,-0.0008105442886731191,0.006150787336067632,0.032023372923256105,0.051415898509695884,-0.028013332077307523,0.0506234490344751,-0.05699280695574772,0.05996910927704678,0.012726935056831415,0.03093000196029522,-0.028634862903221973,0.04698335330033588,-0.010725902865404952,0.04755778950529814,0.029041062983676102,-0.026247693747430797,-0.05531861347232087,-0.04579395952907616,0.023532259425366967,-0.04037670289254519,-0.07559031571651811,0.06522328900463847,-0.011829472299887437,-0.007119279568438271,0.05408983984099785
0:1:0.04577863235211354,-0.039006417861430345,-0.0013002453549141358,0.021296960901708028,-0.00682313060301346,0.05995158914126151,-0.005254757461786693,0.0010353663462491012,0.01721717207038147,-0.061322575073111285,-0.0510299178218087,-0.003557547197310207,-0.040935280290264324,0.004154032142697668,0.016340753034232106,-0.012352765163218796,0.08632254664327711,0.02315973597952221,0.022032369799484027,0.04409338538869664,0.03221038153003921,0.008583275771758115,-0.07353110473367681,0.016687919405594758,0.010521829865367574,-0.08702409339295818,-0.01763716704345523,0.029231673637037346,-0.0343585844269184,0.0218347056640473,-0.06505961538345796,-0.045595533731180034,-0.0023816072668399225,0.018203090550754444,0.02579569567143749,0.0031092982372249987,0.004733982060745681,-0.03735444468870473,-0.016197532762964185,-0.03799328512656072,-0.03889050054884677,0.009568248071122326,-0.004355913276010168,-0.06412441751261928,9.659008451310448e-05,-0.03968485129161098,0.04796507958181425,-0.04100781504402406,0.023343601886386952,-0.0027702152288139595,0.0038005774689859034,-0.039289253540177115,-0.030098703412972112,0.04108600891767671,-0.01846689238738158,-0.06590986202393138,0.0009622141099888962,0.03544282197579634,-0.009674274854292422,0.03226948136616016,-0.022521820949022192,0.013331088626649175,-0.06092014208962509,-0.025634840060418405,-0.061890894522070146,0.02642550203817807,-0.011831130535264424,0.05812419827720562,0.015668526110744072,-0.028951460771216145,0.020202994957154306,-0.008561764423558771,-0.006905155256611389,-0.057364730877520545,-0.02675052369970014,-0.003589349622924528,-0.04290751077694866,0.020576182843896257,0.015736140705506094,0.06177512341744502,-0.07511151023917904,0.008478539925527356,0.004721907170829096,-0.026286716423397312,0.009731910700954164,-0.008165044799987599,-0.058990913532132566,0.0035333554347886206,-0.051537935242052434,-0.00635723883389067,-0.018699012286102563,0.024808257558591416,0.003176293936913629,-0.032832130463505214,0.005517770284562084,-0.009317434031320413,-0.0004696246794015147,0.042445864865565605,0.052809620961850934,0.019399749414776103,-0.013854224635406854,0.10751570266813663,0.050493293145275966,-0.023414703864349247,-0.022259059258145253,-0.06410542302276438,0.005920339338150197,0.03823781065597213,0.020209480969992852,-0.0407443633856386,0.055181357366311384,0.01123471636079819,-0.014960737475134746,-0.05010369578375844,-0.016839019986982135,0.04906402043032886,-0.01177614074190198,-0.019918292660952075,0.010241917134948318,0.0322121657796462,0.07037719801764555,-0.06474279341822003,-0.05410563595910375,-0.04287194504441078,0.03420237566452177,0.04655070973692543,-0.06161292131098775,-0.003465814883584851,0.0010578874553805742,-0.013067027311672747,0.04566193599143026,0.02342370082614716,0.0676395569803854,0.01630510793878741,-0.013816814149623609,-0.06254568536079372,0.07400356045709675,0.016222320417111455,-0.043137683974251335,0.0133176770920467,-0.004269236727320988,-0.011759479242478605,-0.02626746485898372,0.020923590977398182,-0.09811976331344131,-0.05633546510462112,-0.01809217257122623,0.019866589983745443,0.06487632221549311,-0.014495623111472957,0.03588214663531541,-0.03240805016527264,-0.03611897205004692,-0.001857687585938613,0.02739428959469338,0.020072067603216965,-0.003767047609395927,-0.009836447952387153,-0.04720459208433026,0.006266659482951504,0.055745993703071865,0.02259980828285639,0.006224212473895834,-0.03881827716678631,-0.017153357104410287,0.07062467988613441,0.006590605397407097,0.030895833454267805,-0.028057749651778322,-0.03689547863617512,0.002232398553813705,-0.0030601654371032743,0.04041461007640276,0.02438326659492499,0.056138689699976714,-0.014047115211809026,-0.012921087829854624,0.008425664604227957,0.04369129096268567,-0.04157182346227904,0.02208820502272756,0.029699407859274985,0.049501473759962784,0.00030051151297762056,-0.04913199526394357,-0.0009739584698689255,0.01689796582798176,-0.03765244479017401,-0.00230290112498331,0.02259390881971938,0.03306131303016036,-0.03285386897691688,0.05586885643644825,-0.03346619130036263,0.01187559846727923,0.02383118363858127,0.0673425284187096,0.10452919817837779,0.043228410855939876,-0.019381991881049564,0.04717754897930195,0.03797562804059184,-0.01918703756973023,0.04066886231545721,-0.006362561022997205,0.038216523232799206,0.0385089934992251,0.001270556172641101,-0.009778535636380453,-0.0007099372951437793,0.04311999025619558,0.0753232208269199,0.05484916268762414,0.0758225418251579,0.046461217357166094,0.08223339028326089,-0.047736671405720126,0.04364231115995464,-0.06160054631081771,-0.00909008175735051,-0.0179757431924688,-0.05497333984829458,-0.009432041261841311,-0.0027998230436798973,0.00913084265149882,-0.019762908442987993,0.01749568490587293,-0.0006090189262605028,-0.020359828103336773,-0.00203615494547982,-0.0024483021980307644,0.010671119679816534,0.013468359111571846,0.0886564906714426,0.035385028719414444,0.06645021005688799,0.031016836336468713,0.03702043421378691,0.08389163201365,0.12865830609362391,0.12366797944040143,0.17596317625478236,0.10846667044976861,0.019360259661524142,0.04075492354404501,0.00024840625858628146,-0.01965998381817979,-0.034692242957812584,0.05297068073084194,-0.05784726188333729,0.06264104768474378,-0.1017631457301585,-0.039581786525487585,0.008847705267016687,0.03204012981386727,-0.008333147238787284,0.0842014500989487,-0.03598678064121754,0.07196934197007038,0.021562554705008438,0.07735582611033023,-0.02869143946742531,0.06186910542009797,-0.04446154861698607,-0.06669723690245265,0.06794869280728442,0.11607494174894675,0.11630482228875585,0.08776889426093903,0.07828922852627912,0.08148848060690132,-0.029994169234392087,-0.03634058185200985,0.02960770507618929,0.01057651983799922,0.015436874338985952,-0.00371510174516733,-0.05368353953666966,-0.027071065855764395,0.030090940479350018,-0.058232701767073125,-0.010310520311227882,-0.04379025422730389,0.03212385435125955,0.026125251749158078,-0.013393297337306874,0.00340773050883963,-0.004396837703982704,0.01926970146742074,-0.02621041629766981,-0.01899317553014042,-0.01655216828848182,-0.01645032484741122,-0.03288331344945123,0.08146923681780284,0.14409601408826378,0.023956772539340792,0.038326076590371044,0.004819849703660676,0.0027246242349562677,-0.010852534225391374,0.002821010252589646,-0.018716545393862558,-0.06490822634702632,-0.07229386835130217,0.0025685673591483976,0.015938122014756924,-0.022889707948149533,-0.023823241026132355,0.05180832412038516,0.0005669725261041396,0.021404781679343413,-0.003908163899824795,0.019494481758553485,-0.07088870669775973,-0.010171614234651832,0.029446187089609607,-0.025579402864913326,-0.1096346295164482,-0.08093388926349972,-0.014292584226806388,-0.03360121087466419,0.07122763488302855,0.0701701949664661,0.0017022151846246886,0.012125007529552615,-0.03507808111918313,-0.01697219806514479,-0.021952439012725613,-0.029987294367547653,0.018573491794061682,0.0013979957656019477,-0.04602868598979997,0.008382480686309621,0.039893828321702865,0.002352780138586146,-0.002590159491735651,0.01528901805213103,0.0019943009043101576,0.025208634431611605,-0.027152888204225144,-0.052316081617371744,0.0046772197399055325,-0.0724901827925924,-0.018747369139725134,-0.13873770833618962,-0.1460708379260849,-0.13481179561044876,-0.08307154267944743,0.03647322580774139,0.020106650219184362,-0.03469682943969911,-0.034957611640261135,-0.10411870049541452,-0.012369647631744987,-0.059585115509401425,-0.04559481101723361,-0.08489264469697673,0.020822568388349682,0.025735664963076114,-0.050957910030053045,0.017288870699546766,-0.07982123000766914,-0.03150629411526365,-0.004209808311286325,-0.04018313282685013,0.030605866458897606,-0.014004474357364419,-0.03941968137669834,0.09139966889534018,-0.04740877078340263,-0.039250409796764966,-0.11256455218011441,-0.08446201048134315,-0.16243349669310833,-0.10622529885734001,-0.1708360478209924,-0.10491013765018119,0.0325124962977199,0.026501112392445448,-0.10885703715404868,-0.08496324121611054,-0.024361197042968928,-0.08211837451255073,-0.030788138047740592,0.012529574963224164,-0.013204166481790128,-0.0247606711065717,0.02087737223434421,0.04417081943351789,-0.027793964171390767,-0.0034356649632265534,-0.00403658771310494,0.006214486567788953,-0.018149823614787276,0.007042267360075177,0.05005767823352675,0.014235187633682913,-0.02583960144498691,-0.06848737840871405,-0.14444379897070408,-0.07332070357167363,-0.10536039067241706,-0.13614945829198466,-0.1253290343147929,-0.06839817741579357,-0.05278955250036732,-0.14016090991863958,-0.18415429710256928,-0.024167683257093488,-0.07411676906840535,-0.0340608406714482,-0.030126739916121553,-0.008915839634136663,0.024938401606191582,-0.034596236770032686,0.00048637769501827017,0.035873077563136804,0.04626883228204793,0.04219149290977986,-0.03282519292552171,0.006890369079785431,-0.006441949964169195,-0.02586879668537574,-0.02795111236811663,-0.04375504313428922,-0.004098088458346488,-0.08826568591377375,-0.10467628277859238,-0.13406250826721008,-0.10904250557012778,-0.17516118549096713,-0.1837487542364211,-0.13187799149906754,-0.02631243829209279,-0.08290007775222791,-0.09309832768027343,-0.07045410250999865,-0.041323547775145096,-0.008692413401097419,0.04543221090396671,-0.049472119009552666,-0.008949466454615473,-0.03230559031193263,0.05152567154996444,0.03491216392614845,0.02700648724695243,-0.08389365429880549,0.029219783949043055,-0.013900506402918938,0.03837297909248054,-0.051561766765907256,-0.02758693943843346,0.06739978798052253,-0.044803628093072284,0.024593193407565057,-0.09880841035251106,-0.10724858248867404,-0.1150780408643059,-0.10735038165160933,-0.17033918100334008,-0.08057709582469208,-0.04520574227746639,-0.012552242075572038,-0.02848894041806409,-0.001385437426738537,0.016503742424611754,0.006364572655617872,-0.10132352813242519,0.04630190935395457,0.042241740992941236,0.01994306213234915,0.035689381148233,0.01403271863941743,-0.023167875883912982,-0.01635707212884608,0.04544853045921007,0.022845503526112025,-0.044670436328155684,0.019996146091194607,0.0791800908150622,0.011648259750100007,-0.045144505723254395,-0.006569823648798034,-0.013521207473414208,-0.08340170508691779,-0.15571671379806237,-0.11408784997382625,-0.11224778729625619,-0.024669148423540753,-0.040105358883062055,-0.05023959160456848,-0.01187041958775405,-0.01054113713492824,-0.02886758954196845,0.07748660166257439,0.021403595603623437,-0.014058524227571036,-0.0022112323928123916,0.04469227664953461,-0.03881865790610271,0.004139982004742957,-0.050042587855546314,-0.026987955769264854,-0.03307054232882521,-0.015830628214853988,0.04777269981205371,0.020637792802376095,-0.0008826405052530791,-0.008904162472826445,-0.0630875828620039,-0.05516097642637791,-0.030370718723527805,-0.08256702932007245,0.022161156137113478,-0.12046042323079216,-0.035192071382172306,-0.01059742533405491,-0.0036985371698934595,-0.007820733880019005,0.03347969292852348,0.03462991346766122,0.06326105773244396,0.0028712866999628262,0.03214101534725675,-0.012756380952484015,-0.003326714576305465,0.03383309758662343,-0.031083053305734996,-0.06806176884739132,-0.0551946286430636,-0.04592468571377131,0.011825099706128836,-0.018554031605213944,0.02048499890459968,-0.050796650854740194,-0.009184118991536712,-0.0030449599554175266,0.10386793138674816,0.0454811050063665,-0.01772588473177845,-0.005952285699309485,0.009892987749477368,-0.06582484728767901,0.0428289810783515,0.02644777931923621,0.002570816784033918,0.03003297609398905,-0.06982063746541074,-0.014938484150921428,-0.02489895563225353,-0.025787623796924806,0.01387972105843829,0.014343698154497446,0.035002212374407225,0.018691421191473434,0.006567273335205079,0.041161054589182414,-0.05729620806580291,-0.06606529209270419,0.023510599222135792,-0.028977808465489387,0.012555050298813998,0.054849474339570846,0.04230564544957205,0.030628403020920104,0.07502852238372071,0.06949254522524653,0.027179562421645886,0.03355241250080746,-0.015970112414715992,-0.09406268501262535,-0.05984736342741905,0.04954397624043756,0.0033971319056597393,-0.0012324966602842618,-0.03462798177708388,-0.07040191198796093,0.026337791802536235,0.015897882766723492,0.031022707813476654,0.02036550451054237,0.026915720791051752,-0.02346836068832924,-0.03761110527304015,-0.020260207030134536,-0.03332474861843329,0.02891601707390104,0.01828842481076515,-0.02217588591249034,-0.017861691939831437,-0.004973954799461491,0.01113958516731202,0.05940264756950534,0.021211262406356672,0.09856338762625191,0.08107033805834028,0.06554911308587973,0.00918933848286558,0.06051785826249532,0.04937671166960829,-0.0019332195168865998,0.011021243080525427,0.06170912751744775,-0.059837981864402943,-0.018333313746944992,-0.009878086888982203,0.03463277887119204,-0.004821410839048761,0.05115825348541705,0.022180532690139254,0.058708444152445305,-0.00864684264521251,0.0282672507759175,0.022650845776455267,0.02050505881757522,0.0432747229791005,0.022583633697566767,-0.0461929728110451,0.027500903493290662,0.005177395306802029,0.0015202145730951087,0.01868305539597971,0.07334922203697652,0.05218160346386435,0.07747120952742685,0.07949940867568417,-0.004750201651652237,-0.011046555119142381,0.018251663996498402,0.08001808389855188,-0.035117875705930016,-0.049241351627748293,-0.046301378929665446,-0.10231333622594169,-0.031649892506731,-0.010468180435331913,0.017422927376753706,0.05489002624848575,0.017773441839572034,-0.01573768163915976,0.028454909088107033,-0.02240893720114306,0.00397145818267594,0.01774424965509367,-0.024166070682001755,0.07043804912648577,-0.04501955154212167,0.022524685242240168,0.06993569197888024,0.01486277787420463,0.028712687131334767,-0.021481994321857073,0.05771917164203689,0.03063759925228982,0.05107899110587402,-0.030167709048501756,-0.01266995241096591,-0.007559225368640203,-0.01731574533459474,0.0035623321712680424,0.0033585738530011464,-0.002694752850800885,-0.010366750124191049,-0.01018942279323538,-0.006612409598490182,-0.019422269596840413,0.009286075145157084,-0.031767363562301254,0.05107188268742665,0.045303995960366696,0.023424119688126396,0.01084021261938511,-0.032653095102913934,0.024546184679955566,-0.0051660120543760195,-0.03492008448795759,0.004055024584479155,-0.02760796630399115,0.1234892962601173,0.03223001378277025,-0.013092147476445886,0.015063599057023374,0.017356501107877436,-0.07137388618540558,0.0021013561010520118,-0.025070662591575987,-0.0003152411763600468,0.06273196741730391,0.0012279071588827647,0.00991577926192325,-0.04923265613286843,0.045326410745917894,-0.0565114895322419,0.02864743565799005,-0.0019987536463208365,0.0030045136366410492,0.016376366048593844,-0.008449990356224013,-0.036081467523924694,-0.01653838584228519,0.03805378760306526,0.046028393241356984,-0.006819555476970479,-0.009855964724018281,0.055337708404447204,-0.00463786500339988,-0.03134479824323344,0.05172257950548743,0.028590023870160776,0.018132734870957852,0.07532900694870057,-0.009760650584995896,0.013893448497908523,0.05213158026767143,-0.01137079148478269,0.021326846986910855,0.027254014326966298,0.01359951425684419,-0.045522923585569273,-0.02808617089540484,0.019842671473998354,0.024903391055949377,0.016567525694710362,0.006315569889854361,0.03643039122962934,0.03396397256041765,0.04589287661095758,-0.012226678023012468,-0.03390522469031394,0.007444250381331913,0.01730134718454054,-0.028442334272664772,-0.04533368525315135,0.0036038394203860196,0.009343194905035074,0.0029614206913135214,0.013238835506795414,0.06235363043120285,0.047379756191201335,0.011995730311802072,0.053379582614559426,0.0881228548159448,0.06859408348116416,0.010868028605384963,0.01644229577620994,-0.0045749541211031215,0.029911825915986633,0.023079359432513664,0.014345536420857646,0.04961376389486283,-0.005033524596144852,0.025778991066987025,-0.037509501630779096,-0.01713288410899696,0.009138403351079539,0.03279569542888793,-0.031450803183103025,-0.020358121993891407,0.01624461199124339,-0.02085590882472971,-0.07560342082315298,-0.020155647536996068,0.03471439916635232,0.02870927312052847,0.03225029666305431,-0.03339134762380859,-0.09605010094779176,-0.0699806739780706,0.001945328926505381,-0.008260878493554929,-0.0031450913283977418,0.0031255643003008865,-0.02782149626697682,0.02620834916128203,-0.07808416704029299,0.006927255892351598,0.018459432621276008,-0.004050505630825999,-0.04756073164184334,-0.008471950965018644,-0.033131941454683504,0.02837168982063888,-0.08292042099200693
0:2:-0.034591186734897646,0.009965641346554338,0.07079654327591649,-0.010284283521428409,-0.0404284801318983,-0.00922764764145192,0.025091383691463215,-0.02740372413261774,0.04648424352172977,0.025737636067495236,0.01419309487915336,-0.03653417449639994,-0.017913493298710174,-0.04085487678731571,0.08128857487876187,-0.0862802552282144,0.016101674081152047,-0.015888979953719486,-0.010239841631394008,-0.007071034811606697,0.04354625252018738,-0.029235703637544075,-0.03312017002519827,0.004674517964909753,-0.024083389210077813,-0.057860386915748255,0.07460819983909289,0.027359553908108358,-0.0835583116794714,0.01206709727144532,0.004779154819546547,0.012544144207341668,-0.017532906534381575,0.04786037612852329,-0.047875221555331755,-0.03484098253861493,-0.03556740927897628,-0.026575679670893988,-0.017753499588793423,-0.01784559660298753,0.0032398820979363287,0.003427000468259578,-0.00012431628274918138,-0.016516653748930812,-0.008900956896112096,-0.01074235331899772,-0.025135213602749673,-0.01563519859397722,-0.07683175651197527,-0.021912095295593282,-0.0392998466852429,-0.08354738181050957,0.01948425249407375,-0.005378821978031052,0.018640642073198724,0.014611734670655617,-0.005559114089260811,0.02278607682816161,-0.06573577967718815,0.008667326014044135,-0.04251626026762698,-0.02297143532936699,-0.04405326215822827,-0.05194345467249631,-0.02326852432829923,-0.010167657432203448,-0.06005820618532853,-0.03878319153923884,-0.019267280540521372,-0.02332261004737085,-0.041308862553484614,0.012865512535822271,-0.022951211485106714,-0.01088208101766242,0.05010948432394827,0.011462016128169506,0.023947304858380668,-0.08165817086064314,0.0012890108371233244,0.022257166462553078,-0.00775304813751728,-0.046569952910608066,-0.03770430748134016,0.014331299592678521,0.00455322127748536,-0.07971651359996033,-0.00226603407557217,0.03622990800722371,-0.04360520494157905,0.014884234145753444,0.03389325838125029,0.009025794122623724,0.0014612029227443805,-0.00643805517624367,0.033409266685727926,-0.001183104242697245,0.003863683912745381,0.07303114200938055,-0.014464342967000237,-0.0014870115265122285,-0.010079089249182417,0.002509765143703946,0.04432209987119257,-0.035711754656072354,-0.06720851648591793,-0.03385457517744115,0.02728737185539107,0.014703916517825545,-0.016347464545983553,0.0017792040365649268,0.10289412007265535,-0.05110495882264599,-0.03599485980091658,-0.02247873574083157,0.02683083932360206,-0.010242721340661332,-0.06198601216620856,-0.025760857127894294,0.005296907322451976,-0.006011086977227475,0.020380574943725034,-0.0016182639544133856,-0.030259449400183516,-0.00957673344111408,0.00731249680409609,0.06345799697415196,-0.0414630691415143,0.02939297058512466,0.035091864948778424,-0.047830628412090834,-0.04601366105391088,0.030578588298176352,0.04348796707329886,-0.06879672933723717,-0.04658821593129345,0.0418592735392208,-0.00048418359480814643,0.03019882245052014,0.042514773683219896,-0.018816317883478952,0.019121313507322293,-0.02465578140374634,0.03110087004567421,0.005083405147851914,-0.01138886953547277,0.020017435096041758,0.023966372583194045,-0.07193982649685068,0.00019405283600131622,-0.025150651382274417,0.04023185895331836,-0.060991341073134406,-0.004085514974560873,0.005424523787687953,-0.016844268196422516,0.002803711130125377,0.039775171559614374,0.021790214918030987,0.027867991716571575,-0.011858744144731651,-0.033001836718639536,0.06794049469143973,-0.016732145115173295,0.02078191165162921,-0.032284749235096936,-0.03220515409242343,-0.07797764782972497,-0.053680176658726014,-0.008316774582016642,0.04697824705520666,-0.0114537840098604,0.002599518520419271,-0.034526359080320805,-0.028099994619404857,-0.05616658182992603,-0.03981490985857853,-0.07891340985164863,-0.03198050959383392,0.02681756155540857,0.018606991743226556,0.00701760031590624,-0.008403352242560998,0.0045362647474926476,-0.0038745220340297547,0.02870982036686951,0.006782014660544157,0.023548401800429556,-0.001054558728870294,0.012527297302148426,-0.05672163137344038,0.03180728100295255,-0.0583486915305546,0.040733266420725604,-0.011578478298994372,-0.03496995838271139,0.016971683727199854,0.057408549915795234,-0.05634373205001673,0.043856208770481075,0.062248856418115915,-0.03165946310910888,0.015170513130263219,0.0008246324428370915,-0.05572431835936716,0.019556450448489422,0.0394933474608887,-0.02814637493398983,0.004586546582240483,-0.019171965372882453,-0.019275351085372504,0.028446945709584313,0.05072475807405611,0.018928696462181444,0.04966079229646337,-0.027673407975776356,0.03931098999101174,0.003978427152053311,-0.011752781701631668,-0.01009914068025588,0.0063648732592229956,-0.04448588874535297,-0.01399661024726364,-0.0004661416373130541,0.015270526663996456,-0.04326676262614435,-0.005159340897331885,-0.018944027632408003,-0.0124664354697004,-0.004552792750222717,0.003274617513615117,-0.011237054551260532,0.004702763406107453,0.02043471661217256,-0.012422463964543459,0.013705910479343626,-0.05833045020299783,0.05391687294340533,-0.00311380879596617,0.005623812973439283,-0.0031347499866483416,0.03402125547145933,-0.015861570993155515,-0.02903270173576347,0.031204655943331785,0.01961873966208997,0.043688334478024796,0.00465158404401535,0.006358591591872859,-0.036360350464860615,-0.03282657395935521,-0.07579883713502003,0.011580403755241777,0.04237965982913043,-0.002339609936219546,-0.011436026602818524,0.06152763205883038,0.005646990823954001,0.03472690048568238,0.019763385667320027,0.04188625313381502,-0.04041286085554222,0.063388009097181,-0.025467842161396536,-0.008018032074723163,-0.03291776862675742,0.02078357923324725,-0.05976050293029061,0.024713978611435185,-0.03838567554231957,-0.014777532752764744,0.02274650563752443,0.0007314729279484888,0.04765242958177579,0.03138172825062129,-0.024369405185206534,-0.00542974031439574,0.010566711400134578,-0.02681098724945116,0.028469354216315346,0.05609785975762773,0.008844420214818818,0.01685515120062121,0.011627889807815485,-0.06551051790168452,0.051818448574366176,-0.013870623553280061,-0.07947922378330921,0.013271053956501513,-0.0281186272748886,0.019050027824363505,-0.005023104111499302,0.03907905294740383,0.07231135534112867,-0.020805068044318024,-0.009475941500438742,-0.022053052474162706,0.0007555893417652606,0.03279200503787359,0.053797136094079025,-0.0035180078657467396,0.002453540735545244,0.021021585910177224,-0.05277412933083485,-0.04255630618685756,-0.025518505049072732,0.007613177772165055,-0.027512898114470517,-0.017139687717614968,-0.02899966436357388,-0.01586844644524014,-0.018212087988192665,0.049012571423380495,-0.03015374489133021,-0.021657971969032238,-0.009589037240491255,0.011902493384550796,0.013714773748048747,0.006848137309174413,-0.015587363943450505,0.014018075628193767,-0.05566141249477889,-0.04198614512456972,-0.016154996792455092,-8.44316894420945e-05,-0.013865867156692798,-0.0021574602376218444,-0.03184882727453601,0.00845693990930985,-0.010743066618253158,-0.03190662305625084,-0.030929338502669677,-0.0003010811395248775,-0.037955441658650085,-0.02121121517648818,0.044376809689632805,-0.03181834888582115,0.0437725407156282,0.05054120054495593,0.012483048362369189,0.0046100796190447655,-0.018905210550623566,0.010238927712436388,-0.014671502273817623,-0.032041817720220155,0.008715501490389096,-0.05650316394415446,-0.05312845478075494,0.0036491290398928023,-0.013212736655552842,-0.013932046549027834,-0.006506676390940591,-0.025728059451431112,-0.07867716138377825,0.027479627244241533,-0.0478167051730284,-0.007970937690854414,-0.030345017976016363,0.01973821943022756,0.06067010380749195,0.04274764248049012,-0.02187456945083878,-0.0377641808660997,0.03283354650823266,0.05605488745335075,0.04570899693091567,0.0605768151599187,-0.02707805554270731,0.022294358017896452,0.026887802079825843,0.017764033826421267,0.00047554803870487156,-0.003255185337800493,0.01955766386609044,0.032539850305869,-0.011547448949961727,0.04417260584158138,-0.008792135524213799,-0.017052766407353457,-0.023698007410481874,0.00896474554221114,-0.02749820893777437,0.04313384851403516,-0.04706590259988417,0.007111517252946769,-0.03551340184561186,-0.023224320617631106,0.03700848345903131,0.031322221703799294,-0.04419726128090858,0.03245305830158865,0.021989867794727627,0.0024744778881342945,-0.04160375067206105,-0.07168364312483147,0.00030179012759490764,-0.003487656707800197,0.051632365692231945,-0.034052884664596494,-0.015058917963312725,0.0494133945935785,-0.0377315594198301,-0.04321293480546938,-0.03841625929171894,-0.0021882627629193486,-0.07419692189797548,0.004168770927010173,0.011507646428641301,-0.06102087902235129,-0.0023159068750428103,-0.00366018338067303,-0.01168887060246003,-0.029792999883034146,0.049103340153019655,0.0074000407352141605,-0.053870762395394484,-0.04161992118698131,-0.012271021774607207,-0.04952822796317154,-0.062080577052588466,0.03119293797139321,0.023913227474498085,-0.01848504636160735,0.0626965206736044,-0.03208182613768273,0.0465619400316217,0.01466545750678153,0.029332023099343137,0.02225569645501428,0.04488403028385357,-0.014706797974489195,0.010681982858251091,0.026429888957900122,0.009800469675677128,-0.06698373656580246,0.015036333107829094,-0.007049549117869094,0.02462465951470002,-0.06741778853363944,-0.02908590850283022,0.015333247212267203,-0.07619880297860299,0.023644122002172304,0.06378931687445392,-0.030158654175906352,-0.0060691826616362556,0.03618878836064373,-0.06267997228009385,-0.04859424826896609,0.010525378621318636,0.017045600048238196,0.01366171826912609,-0.04423933326984904,-0.005505802144861209,0.006375056433430097,0.03466725354747933,0.04746391799203092,-0.042953961786467335,-0.0035009798453869176,0.013963308626958106,0.012423548817465073,-0.07784250142972252,-0.003920888109041348,0.03777111591804968,0.058128068105430156,0.014224101824875749,-0.03802340094114758,-0.05950581487907765,-0.0636300315221546,0.005365268406182116,-0.03305095681351637,-0.011725010253642528,0.048633120565920875,0.02372046158173198,-0.003326181444302685,0.006386783862408403,0.0677050886514051,0.01436227479111163,0.012678403605091579,0.014322260997660173,-0.008356824277188656,0.01227749898145683,0.04256474519787819,0.004278381819901267,-0.007736563223888764,0.025634229498567685,0.04657417204776035,0.00875458457649769,-0.006906386695218101,-0.01223774647326999,0.061882983535998325,-0.028230325575232605,-0.046588548417030064,-0.0059250355102233665,-0.015287681582001228,-0.03331057820178085,-0.01467225831838496,0.043196869480107675,0.007888714955922988,-0.07607744187272505,0.0395675015262244,-0.07118252278231033,0.005602057130085825,-0.021156672935917414,-0.0736452005697327,0.004836514569430282,0.02960020113052811,0.023541830301291908,0.04172135631731456,-0.005538363654814934,-0.05310352295185509,0.03246982810528083,-0.030064347495303734,-0.009381333263563904,-0.0046616153638901385,0.012830801059792025,0.05635488489063471,0.02505342468052263,-0.007369672919060561,-0.008495542199609163,-0.019111168199817105,-0.018488919111469073,-0.06533386987444068,0.048533819420311486,-0.019811139048190794,-0.030771465253499844,0.035711871383979805,-0.027751300924316286,0.031819286320567526,0.03195716697148149,0.02044738687390764,-0.0051072356311933,-0.006318817714324135,-0.0840754522663953,0.03544101884147007,0.0028884237255831276,0.00802216863118485,0.08539197564531814,-0.01884291451632439,0.03142850057321662,0.006043924819185623,-0.03711804158616076,0.03555523881358853,0.030772017145896974,-0.016061557971948363,-0.01567408013616045,0.0026216664151169403,-0.037145095234125874,0.008451269577404608,-0.012316667510607435,-0.016999802320246327,-0.02594538525051609,0.0304884014186177,0.05588333425286975,0.04598300175008442,0.003849465452821737,0.057866387606086984,0.005670639372063626,0.015185146382432076,0.09187801944665934,-0.010942127458575378,-0.010654564375694474,0.016412322818756906,-0.06770122166100787,0.027088576675745796,0.05812825866660103,-0.032961219857767524,-0.034674517985562724,0.00040676516318999815,0.06416156246046441,-0.020359440281538722,0.06720769852109681,0.04740964628448914,0.027232051376266813,-0.09285099212958481,0.017610894370709756,0.009465890977604587,-0.03260832692718857,-0.044222922769729264,-0.09899843390533508,0.06237019317665094,0.01641984217864706,-0.04250558948942689,0.007585195096946113,-0.030723937942109276,-0.004340515826709828,0.020312291557388992,0.06476138651836627,-0.07777003297164163,-0.03681938538934414,-0.08756396303645293,-0.046192130953728365,0.09209041634632346,0.005868349533144085,-0.022714871618351465,0.028838416991450882,0.011386472562318927,-0.0323269746453309,-0.03097079480531075,0.01566873889854832,0.03412027395661245,9.204923489397826e-05,0.051933732649039104,-0.01219250254733696,0.10000563612876512,-0.021898635610847234,0.039669941112089636,-0.08506438041785959,0.02628547148091222,0.02815423910599019,-0.06379303359693829,-0.05604668256293175,0.023244324525690346,-0.02122422462045793,0.016102667374933585,0.04161907813909693,-0.013220514230665609,0.011715356650394646,0.057410422526012216,-0.046698030302447124,0.022566735691325588,-0.0339441878655416,0.011530126076450866,0.08066022864083087,-0.022409755213543894,-0.015513874879371883,0.0015421390754625332,-0.01790476912183628,-0.005547783567187383,-0.049898358867262994,-0.012783849367415287,0.037514884375523964,-0.029587329170697955,0.013367378867555707,0.09219816514056227,0.019758207348769114,-0.04468270018378686,-0.07312815297736851,0.010648137150284866,-0.002524210120598368,0.025832153151229487,-0.007115376641448158,-0.07079536684075624,0.059963480894641444,-0.0005703500067064505,-0.02250415862050175,0.00159718774702613,0.008229241121948434,-0.0015448819000175814,0.002476538303887038,0.04387192957724914,0.001086532545105787,-0.038034943833190275,-0.019385561069658976,0.0034294936024392548,0.058696105675066036,-0.0010835268916039886,0.021345504103889593,-0.02771863217838346,0.0913961966733689,0.033811265473067384,-0.03064029547418476,-0.0073072446236145975,-0.0441259574608427,0.008783258340639748,0.03628114572018472,0.04520987646887218,-0.06083758303941447,-0.00036770584732437,0.014210739581589665,-0.05249857914524577,-0.00713738777687,0.03515243599929612,-0.013062393388530573,0.007573091762597639,0.021573205703910303,0.05110239356371702,-0.0023812646152982994,-0.031584564421196615,0.06871148892667756,-0.032537822849479606,-0.045260441610112764,-0.04386750257674708,0.018061319730606942,0.01721277157939472,-0.024618229716404726,0.029305922728603374,-0.05679692348473082,0.028824869431907135,-0.028548632294335182,-0.05633537937497222,-0.0189638517399149,-0.011379693278922572,-0.07474356563741043,0.03549257740228238,-0.041777012626857186,0.014272214845024578,-0.004309499712679849,0.08957238330315777,-0.010006169404907027,0.044296433518751455,0.014641234185188931,-0.005538747328029052,0.02504072664036568,0.055999302752821306,0.006206131103491178,0.02659290606002998,0.017671928442537514,0.08269245482972916,0.02214972282280101,-0.10000745255068301,-0.0016417844952257286,-0.00789124346265218,0.062492819783147975,-0.06014251223392198,0.08239319369289778,0.011631603353061752,-0.012802434550308231,-0.07953533970900765,0.005306110378312674,-0.010746089505964273,-0.022460991730862835,-0.013099216884133624,-0.05866157933746043,-0.03303771597246054,0.05106509932164304,-0.028369157297228557,-0.02426696123226561,0.11670796740986063,-0.0009822980615909042,-0.008516653982906743,-0.019774291040022072,-0.016745236339586547,-0.00842550947924805,-0.068932332385587,0.03318439701103246,-0.036886814339913164,-0.01583635173111653,-0.014192956865584815,-0.051831106097879116,-0.0922304950129894,-0.00038183052070153587,0.09070888080576942,0.013121309240061073,0.03697191197176556,-0.050762240087560764,0.020573131897630548,0.012364540341576555,0.014219085869887155,0.022489870268491342,-0.0101759578292914,-0.014540354793075725,0.0062214560201454515,-0.06429085083244446,0.04183450457876945,-0.06616763921495754,0.03470054292910559,-0.009199827201706654,0.05678422715328251,-0.06159285228147111,-0.05562604839098205,-0.02196105604013665,0.04144814640576582,-0.045621600169355354,-0.06188706397569022,0.022463654552431173,-0.021963488605092434,-0.06794851848912545,0.02487068279375753,0.04866889850669795,-0.0010664572253961235,0.02645373342105068,-0.028917442166729358,-0.008165969256516678,-0.0030677549568446883,-0.012658157155331027,0.026836079954714966,-0.027739351189158306,0.0236630645337966,-0.031043482503710116,0.0402003883217823,-0.00679945161971847,-0.048052795069428826,0.0016666390741701754,-0.014388165281185432
0:3:-0.0004647437412755843,-0.023170440416550545,-0.004018199426712208,0.018049534199217333,-0.005898650592639286,0.0012400288298702255,0.01799802917413362,0.02985134876253899,0.012628026225869875,-0.10187124310869985,-0.013833452718738252,0.020987494200808213,0.026926768985546277,-0.03450618889584815,-0.0052040594272528655,-0.023840573320179255,-0.046328296036630676,0.018752655617176466,-0.04178933454606531,0.017490268359757075,0.0022276753332648937,0.029119778740878104,0.007482303771412228,0.019672385337919998,-0.05355565414647586,-0.00474296323375263,0.027831593110399205,-0.027606567458570146,-0.004794452439019179,-0.01635419476576909,-0.010898348764229751,-0.021212364934927015,0.0015858516576311267,-0.07318558676619263,0.03284111609367041,-0.044301123831943484,-0.0006629175830465789,-0.021693710502309095,0.036203944447716456,0.026948563527092254,-0.014240141785887903,-0.08997264470840487,-0.020320353744673423,0.03242961049144038,-0.07847076870222554,-0.0005274897276304276,-0.030116153910650117,0.06954687534281236,0.014280372292335551,-0.00819955833988312,-0.028258336903385344,-0.035317680565283845,-0.0210552376420121,-0.042949690798457694,-0.010704450982122103,-0.05244492975889115,-0.013479864670248684,0.00417617306008059,0.04553781510851691,0.0024926776227658324,0.07281450439547725,-0.05362222211762835,0.04565416444702027,0.01517884011702292,0.011005300858970592,0.01929374213653524,0.031208266284830262,0.052522808624938855,0.020944712726514714,-0.06623042962874058,0.04130392467894806,-0.0562061372228405,0.007722811306087478,0.015273108641017434,-0.04375959273119631,0.07290452414540634,-0.05259849313794993,-0.0394517044714291,-0.03571063578476207,-0.022171299161180387,0.018326492356825916,-0.026315810951612093,-0.038997990495457636,-0.0014168512373435363,-0.0245158978080524,-0.02412251775409617,-0.014867566634619961,-0.026222315215937857,-0.08442521672214882,0.06370407949698732,0.0012451308593388025,-0.003570422739429392,-0.008141292381679686,0.03448289794655952,0.027866937801744686,0.05011415755764004,-0.03645685950752159,-0.03409417623634722,0.027299928891901026,-0.00026839187954493166,-0.013929773416676988,-0.03591211807554952,-0.044720824521880094,-0.03357126306439725,0.00019691614220622772,-0.035205681538556535,-0.0621387870163906,0.055958598002910365,0.0013231037155035715,-0.012671913882745385,0.020120475571088488,-0.012913996968542538,0.016766018057738613,0.016494462608287068,0.00959818586159916,0.00978028588876654,0.0043096696444716335,-0.05692975418558208,-0.07053021030082392,-0.013748384426245108,-0.00372980566340927,0.03102586571432143,-0.08812960168671706,0.012006647920977592,-0.07346067569129858,-0.017370305258971847,-0.0165567232915396,0.006490058006103435,0.008790337406469086,-0.05017509233554897,-0.03556429308153505,-0.10225953504567128,0.049179495160053835,-0.048520207325146864,0.06480234058488932,-0.06592220649461344,-0.014766373405553363,0.060495931067089566,0.1019461984757668,-0.010952513232763042,-0.040590596713212884,0.01943497942121214,-0.009208759489891864,-0.012242787100211943,-0.05104611151826245,0.040542234415813866,-0.04193148478887798,-0.01956030159671976,0.002811474831796824,0.02728525313643726,-0.010844718888404367,0.005713897927378225,-0.04022012696945282,-0.043906855060841084,0.0053778257806924735,-0.0033701369274948584,-0.006861642508232753,0.0398924197759521,-0.016920504261812148,-0.005612739113792748,-0.018778915357360596,0.028661060363118055,-0.01603677216658063,-0.005827372696495311,0.0060502380365717815,-0.11604807764489837,-0.008060890247692706,-0.005739780380880788,0.017538538086007003,0.06240990498716418,0.027465247232609423,0.028805868446818015,-0.022317681935385147,0.044787034930767924,-0.03364664058025182,0.04120653441031743,-0.03691892366126029,0.03643956936741028,-0.006292925587403813,-0.030126258803763805,-0.05819813668079504,0.09928874748231414,0.02042343351965302,-0.030914139043474988,0.03670190449456489,0.08404254024963091,-0.03198019451224849,0.007260983696298199,-0.06215932549036964,-0.0076975474172802216,-0.02511243427085042,-0.01922710093431979,-0.02532106685633954,0.008078728303867034,0.01017466748533681,0.0516250855149076,-0.024388622997218258,0.032315107477577175,-0.002976813032474065,0.04619540084434178,0.037410945109533814,0.01167931282329689,-0.015728447135897015,0.05381589961213671,-0.020755432055658135,-0.048787140046805184,-0.03771855619944153,0.07497189096568534,0.04709867517841406,0.029957965413318664,0.014213286455348534,0.004936178040579768,-0.050195871068978784,0.017250974674117858,0.04733190971954035,0.015169982654566951,-0.0424273535675972,-0.010023411406908581,-0.008856580948332065,-0.024494922188009905,0.04086835395540184,-0.00872207065803011,0.03440536173046201,0.04459406137018735,-0.03885368307716527,-0.038111651768095806,-0.002966704275975373,0.07128545552726016,0.022951134175215642,0.019155076463312964,-0.029414168942156774,-0.009080016228719054,-0.011254098473775828,4.1176013695447994e-05,0.01540618839812238,-0.05138581583947562,-0.055706450645456686,0.04700651021347153,0.02716702552377124,0.017709407729308357,0.003920467861937169,0.02419376286675249,0.02713773653200731,-0.055758836218465536,-0.02396644997845157,-0.05117217560059846,0.03545684604075387,0.10458440069204575,0.05241472359354671,-0.02414410611520666,0.02758653409457837,-0.02711051436627153,-0.04330810856123059,0.01489364083665742,0.027294391471408812,0.02862137388442625,0.01613018136699202,0.006486376630126859,0.010198411902939911,-0.003092670098185749,-0.05965565496164695,0.015073457543779156,-0.020048771579022986,-0.012890936895875445,0.007992095030112856,0.03392984867804176,0.02294306964402628,-0.015174112195878253,0.006100381839094547,0.048538370740368944,0.034449358842378625,0.02499160223686702,0.04025149042857112,0.04287293886896287,-0.0872777983476383,0.026628352878119425,0.0608993289587396,0.00420659615722621,0.010443616804185306,-0.024991381322602497,0.03809547832012522,-0.011544848486937428,-0.025174657155562812,-0.012010306492722384,-0.033681048022733064,0.0042609419816370345,0.029184718833336586,0.012162649003497315,-0.008199803770583535,-0.053931843500562994,-0.005642219814383833,-0.01759746371145708,0.014332107352120187,0.035815267870571606,-0.003114766196925867,-0.006214226155676275,0.029082629971456393,-0.011036224446027382,-0.07162571964464783,0.01804928164311021,-0.0002237934011222198,-0.036222572686608605,-0.014417629820922697,0.04027053490017832,0.004964553228583396,-0.022909268262171534,0.008587689224354985,-0.002631508103681738,-0.027456470759351495,0.009981001936999198,-0.04413482172283578,0.01774169009221993,-0.02627791765110644,-0.016252304300526103,-0.030900073020101435,0.0008905104989377739,0.00015051741893911958,0.015427268090598625,-0.035031670465876165,0.037509449959598345,-0.00017995511419410017,-0.06438930532037732,0.008651242449841102,-0.05676983877553327,-0.029043627196919622,-0.039803113223963994,0.033109352788396836,-0.035983402372887996,0.033592583392000566,-0.05743927621184094,-0.030777134193631348,0.041565662686606275,-0.053834857458911006,-0.030284025050552395,0.02632764932918371,-0.02619351860091868,-0.017856299610185953,0.00037618953181778173,0.037017649056288876,-0.009643372032034981,0.020070303876019557,0.03557923939729975,0.06501136434081091,0.0015121267288819582,-0.03143993456686394,0.016173492137062876,0.026474905027802847,0.059811012799729515,0.0626940160454315,-0.04486868603139039,0.000901296858442546,0.015846794177037386,-0.06295406572201805,-0.042102912616937264,0.055094477241544274,-0.06214087061478694,0.04336161563464997,-0.013503913651906178,0.017964795594394633,-0.04938549961668962,0.004818565080263018,0.02860170889120147,-0.04405408040827729,0.0006123762715468524,-0.02809019373005922,0.050471413014301865,0.07532554995338453,-0.02583432474361928,0.058368559499448115,-0.07027924576940361,0.061344255833736525,0.05652177636646611,0.02527026778839553,-0.0289302692768621,-0.000862589518482258,0.0657358802128961,-0.06883048756520216,-0.03226952940685566,-0.04792663163317795,0.03531750454569207,0.02886989007525395,0.009131891592716249,-0.06980762425132087,0.062206565693165405,-0.04670225913571127,-0.006540685424720322,0.026542871654427577,-0.07275918355496327,0.017711667285918165,-0.08055357768626537,0.0649566280872048,0.015049179087768169,0.04229396724917161,0.02053500848574207,0.0059328043689462285,-0.030245723454645924,-0.005264427418007227,0.03610109788922489,-0.01220779951483718,0.03877064392656377,0.028452846903447578,0.02499775611990604,0.009885766821273878,-0.009437540471226212,0.04551919811912709,-0.04827708580593727,0.016906120636884694,0.025772690187691655,0.005805031322155402,0.07448643474173466,0.015384700882030413,0.016000889746658607,-0.049536741909078974,0.04227982587888931,-0.016712905913103662,0.04721409301537556,0.02989076114408501,0.04787610444274982,0.00593946738348717,-0.00048528620774414104,-0.03917825981167101,0.06884459157472761,-0.01069637425170975,-0.011797924465535006,0.0756747247994272,0.011920149216267772,0.010271620618630038,-0.018753653837212583,-0.042881969053727036,-0.016407561716558775,0.005248583870180679,0.002269477949394306,0.06762407744740352,-0.024695308775579003,0.0267332591700641,-0.059243338844887514,-0.061122683274006884,0.06438154016881427,0.007394591166292106,-0.043231125347274794,0.017607653752530025,-0.031227040738805723,-0.007140835671235028,0.0072064124861396985,0.021399956396241093,-0.011656010291949747,-0.023716189667042743,-0.01204057774271541,0.02994050613539556,-0.03690534620470464,0.055826403526191025,-0.03667932912195664,0.03251142734803656,0.01850736958381833,0.005373921581171251,-0.052419456767818236,0.013613024196836455,0.00900276993352607,-0.02075357946356525,0.041858936866641015,0.02743674023553129,0.011037092645429444,0.06923696567554698,0.051265219048354994,-0.04043459524424155,0.020022040173170334,0.02927183095522502,0.028848495389695535,0.029833004099340633,0.03554202030129855,0.01046642760764506,-0.016613660261575524,0.045647199634525765,0.013145887638512696,0.05906304547578834,0.04548536331765951,-0.018211425050313448,-0.08295957302654787,-0.008582056243758747,0.012523625339729963,-0.03872374426024657,-0.011198212134037636,0.014259851358836836,-0.02089757308058775,-0.012051962643685523,-0.022922475058450895,0.03802258956168222,-0.002292043554597468,-0.07180706412811166,-0.02751752071065467,0.0385855513124973,0.021427201809256904,0.014779142599084256,-0.047032981718827374,0.06651711155412046,-0.0011177839924619674,0.012030205907570294,0.00850992746202667,-0.036671386694899846,-0.02058453526453709,0.0008349159679072862,0.0034054080965289194,0.030369750679817363,0.00036111663902609514,0.005357073849859676,0.0254357568471129,-0.040652981715936926,-3.174915587356249e-05,0.014424863858893288,-0.0685974825489105,-0.013233030485501044,-0.04202542909907472,0.027689698928429415,-0.004956944076194268,0.011776456238112801,-0.008109104275161897,0.022608444009216917,-0.06154060176322514,0.00220738803505628,0.039833044737450134,-0.022298761332991197,0.05071279369461129,0.016981217458078648,0.04208401401549506,0.03444432706154289,0.02779064518076455,-0.03246063363906451,-0.029633270004633186,0.03358703859491113,-0.012880795295073475,0.013607531344929712,-0.0031030353383520704,-0.012852267156068999,-0.009940253958537369,0.06826475307773917,-0.006720864908770865,-0.006974153866640302,0.0032809390591988213,-0.04339059849189675,-0.004436843677210337,0.022680501950977334,0.022181048299238736,0.0020103936287438756,0.017160166296856016,-0.025025158422124005,-0.021977448031952906,-0.006387306241166065,-0.03313454071119202,0.0020264137563250047,0.0014012392618256955,0.002774177674393193,0.051672000513588966,0.017770983945148405,-0.04986277230906769,-0.05636073713124975,0.037045028566691805,-0.006704594873934878,-0.03512027228267208,-0.0249935416137552,-0.025330664946356697,-0.04940789540854951,0.022253313703834918,-0.05583196989884017,0.0251446972128791,0.022775610540688065,-0.041192114890977294,0.045080558103741515,-0.06304143918596876,0.005754079160506104,0.0390430373275352,-0.029831738399810716,0.005552762929805218,0.024472493821452022,0.0524190678545959,-0.006606527426060015,0.033533915412994914,0.014156365623031995,0.021288620575602473,0.040286914025042656,0.0428064522550868,0.005656788333344588,0.011926391587300689,-0.058777795928508215,-0.014182110320849435,-0.006782444429274978,-0.029995809363733916,-0.055857918396867504,0.009357603476711612,-0.03394991029608274,-0.004065114130094155,-0.006237517867208243,-0.06231096809874922,-0.005448102005861359,-0.025048110605596707,-0.0943773501626965,0.07967488445443803,0.00767396046163039,0.08084429943605405,0.02561012427690921,0.0012931378432074346,-0.02429228530063455,-0.03630948305697029,0.04446337849258059,0.004998062184536556,0.009754051859660306,-0.012053168262077998,-0.026707035415315918,-0.0008948854464650576,0.01085511561098925,-0.07676350302270134,0.03379852625820213,0.011663079506462443,0.010915358969768214,-0.04100498299607891,0.05637596727053118,-0.005868779883560293,0.021271261196985875,-0.03463913003275232,0.04006314412911928,0.05107649574690946,-0.023672542006607136,-0.005178399145528045,0.04522506978160313,0.018537868665065693,0.056478883263768855,0.024319874416158658,-0.032471938534765404,0.05516126372185304,-0.003908608453913025,-0.028776170111016748,0.035978707140089196,0.015331816133080526,0.10437204626644497,0.010565060095972504,-0.008197399898164556,0.009299491750019631,0.046274201096650314,-0.0027586331422503924,-0.03320075988169668,-0.04868419149022492,-0.005677841680024478,-0.0281154735430709,-0.01347189505068998,0.027903030886987302,0.060579126790941885,-0.0344542525000617,-0.09237111882691326,0.04050562792954863,0.06062703971954804,0.0003240547154233341,0.04838538027356859,0.014199644209945276,0.0010888928491562492,-0.0014218810784012877,0.007223228267212102,-0.05850124436479306,0.06097497358599272,-0.03905257059174622,-0.012923281742441995,0.03278317564751149,0.0021368525273059605,-0.07574838301210321,-0.01628930694126254,-0.008373405901715718,-0.07209394247057292,0.012612060950687627,0.05553160258118376,0.007561047276505752,0.011279808040496005,0.06333071880186136,-0.0465377214517765,-0.050329014230205756,-0.0024850292123811965,-0.022942914291716944,-0.0005728420050312012,-0.041707887703627516,-0.025810929899839956,-0.06756228391178538,-0.00904002892826409,-0.01970770714288371,0.008434703974245809,-0.05532656280935064,-0.05047932675043907,0.011662596428574439,-0.00970249317778714,-0.052855467066043216,-0.060925605990018804,0.026697733966110707,0.03488736049440395,-0.021967914561702693,0.02166135795044664,-0.07388825796671337,0.00836102465483187,0.01597087388658848,-0.012325845628313967,0.004222699574675431,0.038652787502679864,-0.008550961459650556,-0.07047391497930562,0.017078804006591536,-0.053010309225314266,0.02754513421347371,0.02235680850247138,-0.013670919292391547,0.01989134390218942,0.012412928592516123,-0.022999973048859285,-0.002078304767722789,0.0001241600289767655,0.009942371140159894,0.0006879814718597126,0.03982246057762192,-0.0012605529252182272,-0.04517759378550093,-0.013677995479633874,-0.010371060651485462,-0.07832829439039217,0.027313742799950528,0.03749335656602349,-0.026109104336787103,0.03823063069101901,0.06819037094849066,0.03367663153972598,-0.00039889098567450886,-0.025152692133987145,0.01633167099066053,-0.02679857177066458,-0.058515837000368914,-0.03731567594299411,-0.054399291973179685,0.015997923593673306,0.022762833192247815,-0.010090749786018842,0.05491771581416114,-0.010688854211638224,0.0001283182610703296,-0.0011119170583266005,0.001994659312557326,0.06177046865809973,0.037723354997976466,0.03221308586740016,-0.019790355281751475,0.0340198420009317,0.01374796954684759,0.017251538015455786,0.0038467743753685993,0.03375175930696345,0.024708966480673597,-0.00015333296219702207,-0.05778009048108451,0.004876131351673884,0.03802775863484977,0.037741797695115126,0.015290209886380407,0.04515413447202461,-0.021764757648549567,0.0020175028270777505,-0.027776103442055923,0.049155177681561066,0.019235649841291537,-0.010961375979490179,-0.05151634872944126,-0.04194110139667914,-0.03345127222177292,-0.04613715535649283,-0.0037193931531175166,-0.029070543438852188,-0.012162335230331086,0.012675945139353282,-0.0049090760336567745,0.014228611838454249,0.03300461601343527,-0.016932777331067673,0.003655800749134606,-0.024580735708905038,0.0047845395036450284,0.004621840742198077,0.0009028968705058482,-0.02673497932676079,-0.038305927731338084,-0.0200818619146303,-0.0021320915963345256,0.018977987091312303,-0.026597459041208377
0:4:-0.004271246595650528,0.01425244328302639,-0.011877948152374692,0.02692457968006225,0.04480536458348121,-0.034504551245347265,-0.04894666397787281,-0.0009303062392412105,-0.02671061117155183,-0.04090643311084435,0.02541625190348262,-0.013300777924307925,0.022053915594782147,0.007124037860454105,-0.03805957653097005,0.028845632106350685,-0.002939146992861307,-0.04027562983755692,-0.006721203406971114,-0.008341338811357495,-0.0011837078493412809,-0.09733949682490885,-0.016641495936050413,-0.07211537535880091,0.013641560217724242,0.019003238102708094,0.00712017801247199,-0.006351009526908312,-0.051898577622199266,-0.009570683969750911,-0.07045017599226207,-0.036369276405578424,-0.05388164754296717,0.019275600850706263,0.03235540964341622,-0.0021544404080576693,0.05228259655205345,-0.014421642985399469,-0.04085626870841726,-0.046439274429863016,0.004819502447193453,0.036496282347477225,-0.006250065061214718,-0.025000616708424604,0.03137397234457251,0.0006270515640653711,0.020416014079511196,-0.054495166894641255,-0.02826812482310057,-0.06182326219204361,0.001823726146215421,0.10362010114454166,0.0515194856209817,0.0726990020070569,-0.02413922680702911,-0.02370848882021846,0.016297833461080866,0.008554454056414279,-0.01794386119455928,-0.038576457376939564,0.03004884624690973,0.035349619844819366,0.02627297807240439,0.0365363804035316,-0.003666488621509719,-0.01468046379030908,0.026239209655207443,-0.008765683220408242,0.038141976925865954,0.02399923048734334,0.028952954746220342,-0.0008506594956621064,0.021734918832724392,0.009582743974847879,0.0015203715956459334,-0.018993285183205574,0.006213813735578282,-0.002367688654142882,-0.058336823421553434,-0.033794836140858875,-0.0741315925533268,0.016983726387460294,0.0021017018849927988,0.000632792445853656,-0.007560004165492754,0.030340679293777033,0.0372624530926801,-0.00482419734231094,0.006130254594506829,-0.030246046415610725,0.050902361558964,0.013174295653334266,-0.03924405538685741,0.008150208276902899,-0.012464995762353425,0.005504379393510126,-0.008773580722491165,0.029974801572495248,-0.0021975337355157137,0.012740028304855478,0.08445995251639184,0.050993248431431853,0.01386391858786723,-0.027360300215963574,0.00479387452362532,0.014549266863232456,0.03683769800328849,0.023683504202810502,-0.024926856362950393,-0.018807639380177012,0.07953119352997257,0.023664473671425067,0.0044243233623261985,0.024187539413810175,0.03678344271743455,0.015865518459069115,0.03218060066042944,0.024016334322380595,-0.02263889587168051,-0.04560303124732075,0.03644501162437339,0.02372509907336881,-0.012966887994988657,-0.052569518639167596,-0.02441898106709337,0.036350543596215326,0.05076877389792088,-0.03534666511575537,0.08072956856670228,-0.015557203641873917,-0.01442220388869862,-0.014387719393238867,0.006422871294741266,0.008255939124072752,0.007746063246819634,0.01294049618494569,0.02885025638845007,0.024300938154249895,0.0664563873321493,0.05492087934472947,-0.021219058248358413,0.017433388231412193,-0.01158240022076469,0.019125122708869315,0.022677165735616355,-0.04457716547795385,0.04214185309339212,-0.012615029185781335,0.042943354356788144,-0.010154143653230863,0.038163830943022364,0.016805901208759716,0.05026644112538089,-0.0008331884707906038,0.07256609048159393,-0.013776607011623582,-0.02876573994396538,-0.001876398413591078,0.026876832076659717,0.01420780245954533,0.005927432305710527,0.014660256323964208,0.04000757331467141,0.038605429954681546,-0.0016473934668200286,-0.018466341385164526,0.009607952899573884,-0.043437007707953265,-0.027962440137737014,0.0007651665299028733,0.04498891816570275,0.002208021250778368,-0.032026295024867785,0.012115105499127702,0.01438251866311042,-0.024789526817268995,0.10423361919331665,-0.055505746871153554,0.10943899065278742,0.03467081980729587,0.050498167879546134,0.06201156436705701,0.0489654376216065,0.04338452924557635,0.0970979841640139,-0.035429734716227824,0.08363132796407087,-0.027305032683115023,-0.062331592332268024,-0.01441984354022937,0.04553320437254776,0.0008540312728601946,0.024166977949677367,0.030624437222978723,-0.006046952559851795,0.04940022138641424,0.0014598264446808314,0.01836835725632974,0.0325908940117187,0.0023387696343914657,0.04328419575533458,0.06608982989819225,0.03786996996227245,-0.0422517144630376,0.013957939515654468,-0.020601344341697757,0.026491166399283467,-0.05651446294509377,0.06060365612012516,0.029025801102015816,0.00223971137660836,-0.04700880825461107,0.04145985306395199,0.03058973599959879,0.055996845762001604,-0.017864927005914022,0.031153221189009643,-0.020391888027611185,0.013320161505668688,-0.017806284142905634,-0.006728940388474298,-0.016792474377262626,-0.05781782853172218,0.001927022341023968,0.0504530480797434,0.005039192986377398,-0.05803714770991041,0.011187573152596698,-0.013300688233624906,-0.0033415223773954144,0.005516224047259319,-0.014540076709330833,0.07286672023565327,0.0463017328146937,0.028144408073697964,-0.007586542399365438,-0.013068087122746718,-0.01313174596543107,-0.044917577591304506,-0.036510510229230256,0.024800873784097118,0.0024639028683620286,0.006571651665355112,-0.020406482463434565,0.09639886211314004,0.0871549383014796,-0.02190365873671041,0.04968841674536743,-0.01122506175235334,0.01940964766240707,-0.04220760687720798,0.03460095327028597,0.025989866983627572,0.04468854031165444,-0.008289336402926705,0.06680980595250958,0.04382559488313797,0.02111218092456878,0.016198004350223297,0.038179717433584566,0.0026871560932255176,0.03169880167652524,0.09582371507686936,0.06226440699705131,0.017758835371660724,0.024766690133993144,-0.06432924926507033,-0.008048294042275733,-0.09576791047189873,-0.03013463344899286,0.09570174281562639,0.044629200541218696,0.07120291476535219,0.0341238801381848,0.03025558338998931,0.001755852796012488,-0.03514138953584884,0.0430594210484991,0.00272317130846716,0.0383235665445651,-0.06721457070767527,-0.01216600780212359,-0.024916353554840023,0.029002105392234613,0.009811827184599917,0.0019506850993021346,-0.06008212536920106,-0.01617322885585209,-0.03161260455765545,0.021604294891940424,0.05199301847001341,0.022560504584351708,-0.030171876279144957,-0.0008605983438686231,0.006521410386619761,-0.01656924794989538,-0.020968923810431268,0.038734933439596886,0.04528398475589299,0.00513102065144714,0.0790523187027855,0.014429771189887168,-0.034395364565991085,-0.04629713055924251,-0.019202118638275256,0.019526940907441694,-0.056861524112396124,0.00286618138369142,0.038146146951135385,-0.07916722434088844,0.00942690485456954,-0.0470108274841883,-0.021904227259240735,-0.054997003942663096,0.01875318072157765,0.04172389438811896,-0.01049547693959486,0.004382060778488877,0.050840110846235534,-0.03806379528578527,0.044425066233432856,-0.03881378817500409,0.026011104213300707,-0.04331517746962908,0.0025569711693542523,0.00604705224048859,0.051373782219976113,0.019171475360506163,0.050247116251873176,-0.05604295152469081,-0.06682698022898674,0.014439673627732269,-0.05309706894635421,0.07036855662121119,0.016468591902115116,-0.08363431837233794,-0.013782703235610263,0.05105558200053496,0.010268960586769163,0.003023175229001853,0.031667146729023286,-0.040282244233334805,-0.02378347973383055,-0.037195633758091845,0.055329699106485726,0.0025220686793844672,0.016913064300257786,-0.04056820637472203,0.0006488441719024196,-0.08699522798022949,-0.0036527475160194225,0.0137594955273641,0.04669034019601766,0.02937923091998121,0.038723238822648554,-0.031264023225567386,-0.0015528539116305222,0.0009019022627569201,0.006629125316757119,0.029644831555525154,0.047905898477114156,-0.010716843377677924,-0.05063499267954421,-0.007572882754453976,0.10043555274031138,-0.00825197064603342,0.006846734893004516,0.019590268077701287,0.0507968611350721,-0.030145865799341223,0.003823081494178866,-0.06434197887570325,0.07757680805972392,-0.017016601201087136,0.002267508720935338,-0.040995547682657875,-0.010057279745258718,-0.010683563381904534,0.016221742394604725,0.06605936461398247,0.08706673967331562,-0.014382189020981857,0.037495948881339565,-0.011232769392804908,0.031199177459886526,-0.05067941893239518,-0.029821064563150618,0.009527003933811111,0.015960618447229978,-0.0020474956843242287,0.07176310148303318,0.00193864413820675,0.009734261727378945,0.05043105909051349,0.002076800168612921,0.01374743138383914,-0.004785352438988299,0.017854650756238204,-0.10860828420862831,-0.06376028744763845,-0.061505897953542096,-0.04673409601694947,-0.0724352189392463,-0.0024536567976750742,0.006956524994154357,-0.005474016586603266,-0.027424133984642756,0.07799256735123156,0.022653480796453192,0.05576649527084111,-0.02319509786979408,0.00029833645666244463,-0.012354154823934576,-0.0664458979400075,-0.03660911482384293,-0.0546291362668582,-0.04181802082809932,0.030126663608651884,0.0406275847285113,0.0018451627907750893,0.026913204590011175,0.037206546696286605,-0.008638280710941764,-0.03848913706559911,-0.02115320800252731,0.0066574985270029955,-0.039765443748376886,-0.018184869208270088,-0.007117286607606621,-0.006546318268673252,-0.038280777111020625,0.03376635666735085,0.014073555315990968,0.018130198305770506,0.04731153162074567,-0.02243577190321041,0.047910936607341297,-0.012006746174546466,0.011799477642656809,-0.02989778141413023,0.01988991514311512,-0.06063465946537658,0.053256911751975416,0.03224580693787021,0.023399290931149307,-0.040506618217688695,0.025147562198361305,0.005614193541857086,-0.014286948430651616,-0.009288502113396553,-0.038180333607483616,0.029451443327567613,-0.034878321013771155,0.02096500597007568,-0.06372943692563932,0.023250142014825576,0.03896197949852639,-0.013248842315477898,0.03732524574686324,0.03974026814415132,-0.04385417272345837,0.02388821710448041,0.021040301729990107,0.027387376312360028,0.0405442854114316,0.05226663373561372,0.04055124531658499,-0.02289241650533638,-0.013118198874216514,0.06427757728348646,-0.0193705980105451,-0.07326893607951349,-0.06682800256413493,0.011347370474803551,-0.024574633029796587,-0.0022966176830418457,0.06526293790444725,0.02871474053592015,-0.014227624443525202,0.010123914315094937,-0.009902095417137978,-0.09439126850759769,-0.007927962334091581,0.011955577166700902,-0.014207376316867627,0.010980845086356529,-0.03576061551462482,0.06710168897874855,-0.01686608763454138,0.011979032923410458,0.07492900972965373,0.04567612440771274,0.03966408649652513,-0.022640648671348695,-0.03062589072547283,-0.003906432313813896,0.08229624088536835,0.0013763234011938876,-0.0031298012478847667,-0.0009065458382850052,0.017274340230287316,0.0009310237913376843,-0.02927003084919847,0.025493769590244904,0.0016090605832625097,-0.028728826438750743,-0.05718486668665417,-0.035008159102680014,0.012147292216091659,0.05134925627611072,-0.048727946122294113,-0.041400547430121934,-0.005649223074759947,0.031948240747786,0.016077466675499703,-0.005068063401734146,0.02309521706560391,-0.01100311744254281,0.01036365373856185,0.03596275712248447,0.04750814000214105,-0.026150647407917567,0.03134212458725787,0.01137394320648608,-0.03642210886523415,0.056419261462677464,-0.004774367154017243,0.05280217565670161,-0.008251791156594435,0.0021539283682093665,0.0033092315406129088,0.013963640029476764,0.015254106097704202,-0.04139987567330656,0.028456977182337067,0.010656236435846058,0.03291162870894418,0.033460102520599534,-0.04014041163800948,-0.0017251914816200165,-0.021322099611937973,-0.017009808335225536,0.013395643640144143,-0.008312558191277079,0.06089715836860455,0.07852556531182271,0.02217559567349855,0.08095371975806274,-0.03306257461076042,0.06517996977401946,0.010115361099476741,0.0032571068928178106,0.01907643510299725,0.008157778968836425,0.07978558054905882,0.03027060185058674,-0.010792949914628685,-0.05364778650165762,0.013358915585731062,-0.08395785168417945,-0.01736560722733547,0.016578919813168967,0.009556679651117984,0.020948176260397845,-0.029841129692907354,0.05376720794656688,-0.0009001764401216393,0.004997353838072557,0.1031444043964645,-0.04730173370194423,0.009286328693557042,0.031213074428596457,0.06290725085568062,0.0038025716790695096,-0.01800478854016279,0.051493681302367485,0.03673668888214521,0.0030245638005743604,0.0014494570891206014,0.062144166125426184,0.014968502092801607,-0.0038097246190202678,-0.006259444762312654,-0.005194697883376166,0.08244635801890836,0.05263496017760982,0.015139918669637445,-0.042267669716176015,-0.07202245862666214,0.01262177752075885,-0.02495241902851177,0.004298294918635952,-0.0020027669723949727,-0.07857100202325411,0.03458006439197097,0.027570420639026646,0.08327026683050488,0.06508775488581921,0.03262217334008012,0.016898086960187932,-0.003597050835595405,0.0019401208183045303,0.011047725042633232,0.02443196365319298,0.06902749881130357,0.07380844310466203,0.061820136280530215,0.02492286555600168,0.04325503068459409,0.03687760163941769,0.06179714357422787,-0.012944354847629009,0.008282650854666803,-0.0619307226807411,0.013014603839224752,0.008379924955335129,0.018316685298314584,0.03912679123696167,0.031910371880969464,-0.02242209511055523,0.0441948440941535,-0.003486308901102744,0.026041751017008737,0.011289983400769992,0.032459472048336255,0.04526492718311249,-0.027636039411154383,-0.007643242760632065,0.03562959046573379,-0.011559144476370582,0.06133088529865987,0.0559544356563095,0.04248796015521398,0.002118666208001942,0.05393803724085623,0.01515079624806887,0.0112087905052275,0.055241235576235476,0.05247625657719313,0.016296721819305728,0.01319771665363803,-0.011070846147107447,0.03818577626904376,0.006378933944145573,-0.0006127082367279829,-0.005549463831084375,0.012543004428588442,-0.03544900430426754,-0.03874577857944239,0.0014183642544395103,-0.029072947031077018,-0.03981466491890417,0.024847350732534745,0.05059345093692221,0.044801802437678256,0.01512399332691981,0.014553267357726007,0.04072966558530986,-0.0070117569453497204,-0.01673077955948419,-0.034798410719181355,-0.016812595344851508,-0.015201975186294356,0.02205574040166239,0.007996480255191696,0.0286388209500787,0.02012435074754158,-0.039016166003557055,-0.02013513455214448,0.036450726146428934,-0.019847881803688898,-0.022916981772474025,-0.00021226070548174036,0.029133158342396014,0.00913566560195285,-0.04105363422511949,0.003412870483489606,0.009981953997670072,-0.05258712055350482,0.05788415886718636,-0.03117805572392939,0.053052974900573556,0.026961926405406674,0.020379389415239244,0.00558034443965778,0.036832900078559654,0.0020395716860113293,-0.006919864820588762,0.07514270836416043,0.044196911356864016,0.043284271895955365,0.07612897627969388,-0.04459514851306235,-0.06683012265577391,0.057662691376735804,0.01877449183356895,0.03412469110992657,0.02095800193608152,0.07403791689896011,-0.08788351323731271,0.03214754273770696,0.013004718442959837,0.007459661879366684,-0.012854787369757557,-0.0384876615853381,-0.024097475329848465,0.055221989858207816,0.009962305251743905,-0.02378092943907978,-0.05198260433264674,0.05170537643710114,-0.06562117043558319,0.04638499533060814,-0.04579572546638987,-0.0027136854735359114,0.063232920380947,0.005415813120352305,0.0010796197702119114,-0.02849989815853569,0.033024772897684386,0.047786020508469265,0.01716197804259881,-0.004474143602906873,1.602775254364267e-05,-0.00560184114437335,0.029044101434824127,0.0220457687706328,-0.02126455208769761,0.021755849277895478,-0.029344107109195848,0.02610885048635019,-0.0038220583608953827,-0.06351431448181996,-0.05814724056034924,-0.03620370769351023,0.0038897362462794742,-0.020880640963013133,-0.02645354270425365,0.03275134610552283,-0.012813881234442898,0.025861441412933582,-0.013512740534884224,-0.008787233455140011,0.021415160524052686,0.08310660618525147,0.007929810898461514,0.03928655965946228,-0.003994057730452264,-0.054509661466548814,0.043834585789508204,-0.0028559991326008462,-0.027634167389226957,0.05005248336606734,-0.012972166185730542,0.03883805187835694,0.023360669454601128,0.021737188805852133,-0.058244303516602376,-0.025247803435198907,-0.011423482262514724,0.025826856553144647,-0.030177887392463094,-0.003142382798471466,0.018438303460691783,0.021517914985633442,0.011615547107385056,0.042785787522386785,0.006782741580497327,0.03605345987521277,-0.01622865672185817,-0.016032774451549072,-0.005324147722923835,0.015457451360651539,-0.007742563061048671,-0.06108480929171738,-0.05599313002392882,-0.09901119272771845,-0.011364031103591696,-0.01441404325321998,0.0270407707022445,0.04466891116539359,-0.015013807354445866,0.046734166467794484,-0.005517874064577919
