-1:b:1.3653824465962532,1.2341574607571668,0.9502177707806106,-0.26254851693119363,1.5496825566544012,0.6668618941005192,-0.3032974384389937,-0.12684212340988132,-0.7928864086173162,-1.8494826785216882,-1.7924043254345268,-1.6245619625655108,-0.34581645648171494,1.0295888078754603,-0.49125788089174216,0.21627988486739158,1.8718661932046656,-1.3986188286709411,0.311912113376259,1.6457119993991765,-1.9320684134651973,0.11179654385059502,0.003524004599810134,1.3201892854982797,1.2381355621981873,-1.2659550158291122,1.4617640685581148,-0.4435139840590039,1.978815385070611,0.5096411512266287,-1.8442508346372941,-1.5229623250478745,0.8779175710760841,-1.7331434012551306,1.4006762048031618,1.181880780783181,0.6960332149038414,1.4208628719252658,-1.7092424774050836,-1.606619289076324,1.3776999798959753,0.3150183053655294,1.2655602754736837,1.1913051856683021,1.7075960785249213,-0.7893805545951722,0.5962049968368237,0.0717423598013069,1.8195570513564747,-1.6463252446529677,1.2107670445299503,-1.4502811320884494,-0.9205172925245835,1.2517028038990425,1.6326046091832753,0.5463877524938321,-1.4797510547142227,0.06896123317399416,-0.27695895684709093,0.03314556742634067,1.1350729221767344,-1.2138691205270997,1.0214018279414159,0.3989277947573134,0.7723441956539825,0.9299747466912962,-1.0000100169399704,-1.6659631128677144,0.37934741012308065,-0.4962122456642201,-0.73784118500546,-0.6205463095746172,-0.8749923962261544,-1.7157603919439963,-1.3655153485646645,-1.9685739672008413,-0.07888125344815251,1.6850592767795323,-0.7035896791558834,-0.07759778434668631,-1.644750184841151,-0.37157906453725903,1.9958172614291216,-0.6407657372506343,0.5565895501255276,0.057384514770467444,1.1506548199333795,0.3867829805198367,-0.21693362121210977,0.9745026729448882,1.3280116136686537,1.4260622133755494,0.9447525762846708,-1.7014187389609465,-1.1573167505055348,1.092217294486566,1.719508872971081,0.701327650345258,0.9304415998496657,-0.43421527168701757,-0.1547371372136646,-1.3813662488385634,0.5435140964090516,0.8113555390420869,0.9600529025117331,0.4715077466965666,-1.1907898942785473,-0.5074505527204722,0.04095680497270426,0.9150199703138788,-0.4937139778385822,1.9787602828755733,-1.4046264086822768,0.884632979942305,0.4562785080301832,-1.649463507666233,1.4136001424700764,-1.2455002593047637,0.1898821215967528,-0.4263961193457094,1.5093167975149158,-0.12291141231699271,1.7651955011406593,-1.5390119545158925,0.9891016345948449,0.8150177626887884,-1.6023086009682048,-0.2851930886522341,0.655076235927516,-1.383817214414162,0.45686210075104616,-1.2263985651046045,-1.9448203021094481,-1.7728918739041166,-1.47662751970913,0.6867633638565916,1.2946468623496206,-1.985691990951329,-1.4558094659645993,0.1489680301541289,1.7150825298992982,0.22722249734809807,-0.3851459606626415,0.6237589609363808,-0.31427581370145624,0.4449396534819877,-1.906630987860002,-1.129889066813289,0.8682667373277656,1.2822659980730693,1.8356783834869594,0.6730055200914062,-1.559010317408223,-1.8862212730761128,0.3007366308968041,0.996974947473734,-0.027168315761394085,0.38423115746070474,0.12412563996266746,0.6183721991694406,0.7969522070687224,0.2044338500714358,-0.8240707841186635,-0.3911506737755787,-1.252712797883789,-1.7201487216961207,-1.533248268196119,0.30368629227325517,-1.8848168828737144,0.29600856041204276,1.3904986429024166,-1.2368329524534398,-1.050318278555249,0.23918484232139203,1.5632341424249618,-0.5768073099708759,-1.8757609933470047,0.6644266014172294,1.2603142216423193,-0.8179770586350286,1.9498182415419694,0.9929911826715334,0.2259412226724499,-1.7752214070304335,-0.50759548817752,-0.033703830549985214,1.0794105088999304,0.8060615937630591,-1.2427706744464055,1.2330632367179273,1.0178281868820143,-1.1077470247522525,0.874010747129759,-1.6851327913566232,0.007611403933131025,-1.746980890653759,1.760854288927309,1.8808799093940076,0.973280895528279,0.6480997250138133,0.7056895614153063,1.2374796540542332,1.2967418384268734,0.7634923817262637,-1.9476243093105858,-0.7494508528202669,0.24332281431602015,-1.6324243395574993,-0.20228248474637653,-1.1016964570931758,-1.7305410424046936,1.5998611153417286,-1.4302718469814266,-1.68352292682779,1.7273838353371935,-1.3684405286309693,-1.115753419905356,-1.6198666788818876,0.7219775830411128,-1.2777127949329854,-0.34567264423332267,-0.19006792309835596,-1.3918093898780644,-1.199730896891149,1.9721303199769062,-0.24700413499300314,-1.6550715379659846,-1.0170710453090135,-1.432264007292353,1.3149768074317159,-0.229150090367201,1.8477758666825561,0.9544317697504676,1.1963073580118102,-0.8885045168851035,-0.016813182336432232,1.0543055531900187,-0.8652307811495527,-0.3499473119238946,-1.6580893904416545,1.4799575833447742,0.032781373680869544,-0.11012237742957856,-0.819913733715711,-0.3800311856414967,1.5659818934498382,0.4736986856094754,-1.0052249065792784,1.465341281421896,-0.5792022755997746,1.6832925373787997,-0.21513997204537888,-0.027784929291792652,-1.8253735436657794,1.7357794050837136,0.1470368991289866,1.3218108988512802,-0.019168903742798723,1.7028238700643674,1.6879052234009282,0.05921046782216664,1.561206969279027,-0.03441756333464521,0.9339321642360594,-0.5535629549749408,-0.34044728419057446,-0.5979504011938235,0.09220638506102335,-1.6785174625859116,0.2897192392572171,0.11271127381379147,-1.9783758311953719,0.6047810660968563,-0.3710369023777685,1.2582872633673867,1.8756002456541063,0.7596832271164023,-0.10633348984351973,-0.13818144338520677,-1.574966823839981,-0.7891709569968921,1.8848416184778969,0.1093947705073429,-1.8215729305843364,-0.768518577858451,0.20266195431766176,-1.2991371389218247,0.2301041930323767,1.1148848944079832,-1.2135940670481697,-1.2778228929486786,0.9846823049972406,1.45474781796498,1.0511500027462926,-1.3205069023234253,1.1699414639042678,0.8792627357713696,1.3532024615057687,1.970354620660478,-0.44879510928221206,0.35497347266620355,-0.6454274400268092,-0.1423320775837751,0.555951020525038,0.9045201305763853,0.8486906810439794,-1.0787327739968955,-1.6076578263819634,-0.5102086719854928,0.28770524468632247,-1.1218049569218103,-1.047872666628678,-0.7258001403759267,0.4979203018093278,-1.188906112892206,0.3993013768702931,-0.6761952346158577,1.369728237017593,-1.046482190596294,-0.8883219217495817,0.7395127105994621,1.455370621029655,0.2882688347772991,-1.4366273301362487,1.2063934983102458,0.3220020556171313,-1.8363176121990978,0.3990549762710407,-1.9309907396162873,-1.6886954254568156,-1.8606863404833467,1.953612198264454,-1.112103184138117,1.533705167237747,-1.1572899924617186,-0.30288484481195466,-0.5720277848765286,0.6348067502451882,-1.0226358533256148,0.3877248982364355,-1.6350272871738625,-1.822842381388241,1.1091082989897854,0.4400601161627832,1.415220543728626,-0.7036971393936796,-0.5370711393361478,-0.5224125922533776,1.5665551617448785,-1.1340743570597094,1.2445135885872225,1.504816780648514,-0.40769153474637193,-1.899210595735323,-0.23480388203559371,-0.09121064689215079,0.2453814030825829,-0.5046145077636801,-0.16781401796001602,-0.2583679318366129,-1.6535031072071225,1.2232338937978564,-0.7419824799935075,0.20537820093386025,1.6285423183404775,-1.1572913728765708,0.2565732164758152,1.5835780108653255,1.20981993195584,-1.9652187577365399,1.6208541944170272,0.13674624041044062,1.1348633660232468,-1.265569821480844,-1.7828652381399808,-1.7574514937902066,-1.454310784627594,-1.0541438903142124,-1.7412990785501634,0.21663622346664438,-1.0591992885423096,-1.7961610217163315,0.734342700724753,-1.9300026578637035,-1.6429806774578615,-1.4110241646199153,1.4009972884314492,-0.5072638890107596,0.802027256659741,0.5414032219861696,-1.1831215502422494,-1.121688898489003,-1.7160257443112434,1.6592678136704804,1.5489766527464608,-0.7306432645869525,1.490208232852385,0.40602862606432444,-0.8051530956878351,-0.12532898068175718,-1.2149300934869651,-1.2291260378841566,-1.9313645407934614,1.0966159462506881,-1.5220083925503785,-1.401856163323525,-0.18435641823673066,-0.42930446273086836,-1.7808056523501437,-1.0311115204336865,-0.32758673261833504,-1.3934044166598554,1.395092266651834,0.9039196959027969,0.17047592305638942,0.6329597886284516,0.7570472971260813,1.5815458639505193,1.0223904105385413,0.0952963128452329,1.8986765270001849,-0.8505693655666189,0.9024549001629385,-1.2599650874249027,1.0920073598642612,-0.4126496520050507,1.9611510517515756,0.1644729091258804,1.5775655735558252,0.7163409839225994,-0.5239365133606999,-0.44617677181034204,-1.8466129407814362,-1.9365468162138075,1.6055849103888649,1.7847913802515494,0.15896243086006698,-0.6546700619737087,-0.8852192654724141,-0.6238489973044158,-1.1402147303017962,0.7350087395693561,1.6919944343565423,1.9775371636692576,-1.6035244017134174,0.07541713002023824,1.085834559673178,1.0954290825047266,-1.3618939253249107,-1.72285985510051,0.6563930357145132,1.4878008104482912,-0.3043176297546845,1.3814378458424996,-0.2751161319634371,-0.5851671436006393,0.011252293387238987,1.6442806733947057,1.6870002721403032,1.1781149632265202,-1.1674985783659428,0.5298390102111223,1.049288661337609,1.6274027297086366,0.7946139925318242,0.814074917767315,1.3840488832566786,-1.2676043186825208,-1.0988384401379037,1.720145060386093,-0.43831141626736597,0.5425816113829433,1.296132531591746,0.6140712172580621,-1.8065238467016678,0.27092687676210353,-1.4010607614405792,-0.31339916450375516,1.4434805051025208,0.044603608461126855,-0.5963001930814067,-1.0396733147718265,-0.4363841249627139,0.7563476738145388,-0.7594894061096309,1.4098926560596736,1.124336749359568,1.3746415062531867,1.7880694973159734,-1.8555054966973663,-0.8938126411107218,-1.833196352486679,-1.8921087586382246,-1.88741222156371,1.4950498112219643,-1.7982227132621613,-0.5776565193252561,-0.9068425700227482,-0.3098211270527958,-1.8267897010918959,-0.17463496787130825,-0.3410952985363913,-1.3151819411695813,-0.4553446740948859,-1.8946821056116026,0.7048325757412995,0.715153471008549,0.03212211141945971,0.5182414502881882,-1.916687428179741,1.4375069890666883,-1.4767554765083264,-0.27670849361435434,-0.7868445662196506,0.2387837389866985,-0.20796833457519226,-1.4992565096696118,-0.4229296660987402,-1.286517419773419,-1.163214693175349,0.6191409093415132,-1.194434262194998,0.8834562500071289,1.1412018346472432,-0.29006850750885016,0.0986091477241523,-0.19660904184316425,-0.604784564053945,0.852175902963916,-0.11871953138758079,-1.4606860909189447,0.11445136058552709,1.3701265764188268,-0.615859179820483,0.1788251128731096,0.30169008904031897,-1.7036103855370355,0.021596736003289204,0.2644510482408845,-0.19740840022881956,-1.8470125537288271,-1.8831178559838495,-0.19369193484410405,-0.04043735440908176,0.695371813264862,1.8701208955492488,-1.8997723666083468,0.972583274954814,0.5074419318376883,1.0179833182929936,-1.777218227516057,1.0524019359085237,0.9435155607381159,0.6988112919188452,0.41211817970219367,-1.4151156084380285,-1.8696304506616173,-1.373705850201588,-0.8964729021573256,-1.3904100050434525,-1.296786104459017,-1.1816895372178386,0.2565321891116742,-0.12166216356582253,0.058254554592743375,0.3127363161328851,0.4723633466544661,0.49024233745861623,1.7954968709675625,-1.983909716555249,-1.3093948343872173,-1.609804209839624,-1.1777842197245154,0.9099630317183494,1.2170550389696473,-0.2676342315290295,1.3248989522301409,0.858008424871932,-1.604876264565743,0.17615546999977097,-0.47504896843316574,-1.6060279737898808,0.9646012633713273,1.3125658744421844,1.7528286384980218,0.3705034762218159,0.8104975778615433,-1.4685514010125829,0.22649101809693944,-1.6885639516638324,-0.44862923095670537,1.480276366741923,-1.6862170752226624,-1.992529350682883,1.9358545708575727,-1.403227529218133,-0.14209433302909555,0.40590975678153823,1.4518042994797262,-0.5043501903122913,0.08667853391464717,-0.1741850241204265,-1.3591907050448473,1.15396392861812,-1.1381657832182852,-1.1749405527794856,1.9772235108556433,1.8849160589709044,1.0955818525154473,-1.3834320820164079,-0.1654648523649934,1.9746104969051186,1.7525070435915362,1.6322036627206844,0.8999135118866427,1.994256871770142,1.4329575383331252,-1.2177589767574029,-0.5144390874616317,-0.06660537945713475,1.6064030773255698,1.2716697568291544,0.7765718462879508,1.5087274426739106,0.623843325537909,-1.834306309280691,-0.30352846193519556,-0.676925639186084,-0.3569073431362955,0.7010025071049196,1.3139882556744158,0.5094513941101771,1.4777095598223697,-1.0589163401093398,0.7051088441580812,0.18888780184641263,1.3804832299528866,0.19109921839496927,0.7150443397986925,-0.5759890731191033,0.8618415712090058,-0.9189414865955368,-0.672935487280993,0.6013236203430633,-0.19934856301387116,0.6612336145580507,-0.49783092394533135,0.10063778609547556,-1.1980580624902917,1.9360259445571766,0.8384445267380787,-1.9214544687832862,-1.9041565329676895,1.5768686674760937,0.028726412699201242,0.20597670899568502,-1.370443682627592,1.226950368108004,-1.9048948825931116,-0.8280184820995885,-1.266477583827815,0.9621519958394451,-0.7668230262631452,0.7262916134145349,1.8668715291301048,0.4152818068529996,-0.17515391536667657,1.4479397730294203,-0.9536186840821416,-1.4846496905142006,-0.8344833673373531,-1.1025937816166675,1.6932488352531931,0.38946709341261415,0.8039038860653132,-0.6236935518793068,0.831747305944229,1.342744330629272,-1.909657356128537,1.5505476252974495,0.7895395953176186,0.8779916580590491,1.3137409100395068,0.07584687525274245,-0.36441229367750294,1.3945227488639076,0.12625133637070077,1.86302896670066,-1.5441305051797283,0.5627984419425687,1.474212564471044,1.595840239199736,0.6642304441343115,1.703286942196657,1.7396470642841326,1.4576978304977062,-1.4086564869689826,-1.0321468312561777,-0.06456597826893061,-0.9178369880656772,-0.4117546804410992,1.9669484348659296,1.4313757050452238,1.6725569274399457,-0.2669494373655029,0.15369078038112344,-0.12032097982631987,0.4998167143245376,0.04806085877721863,1.8275114279620892,0.6941692050218127,-1.7253385832403154,0.4599367860581715,1.0090355376470799,1.0654787839852264,-0.5014054250072004,-0.06142377598856914,0.7779979074514878,0.0493632333602486,0.7743987568309647,1.2608117831798664,0.5377357753626426,-0.19625204042687894,1.5189234454761624,-0.7936149907552543,1.3258895936005761,1.9563148063276696,-0.8874522049720235,1.407871152145824,-1.6033908656993567,0.47445166946389983,0.7468632508249694,-0.5216716653755593,1.4476691212814603,0.1107097444817925,1.9139378205652229,-0.1961970028126024,-1.4217761274841583,1.0491139254281545,1.054134268467294,-1.1642170999737824,0.20641465311701782,-0.6146682040397787,-0.37044763020668336,1.5787854758518514,-0.01743963963277723,-0.12306315687591557,-1.7712896917530077,1.166684458082904,1.1340496901788744,0.6274774176409744,0.9658962034554255,1.2934116778301512,0.5581807250889594,-0.28794110772199266,-1.7265334188428816,0.2385615455693976,-0.4694086893331533,1.5435036356911749,1.027355678302575,-0.41933642477761746,-1.9467918635463604,0.7185086337089113,1.7928085817664372,-0.24353826626967479,-0.9641382088671269,0.3529137017176361,1.084096324365349,-0.6186108394743381,-1.316133084507329,-0.6612620928153556,-0.8576041897639453,1.707385849016029,-1.1801720533777038,-1.283980111194726,0.3857416508742466,-1.619202933551454,-1.6708466781947426,-0.6275203278909356,-0.6367667422247822,-1.6824922763592975,-0.6429276427343829,-0.2073430963942302,-0.296812561837986
0:0:0.04661239943760323,-0.0024045136134686457,-0.012761151538144208,0.001540229505225926,0.06454467952790713,0.025995659659005858,0.011660656057245035,0.0028461569404268435,-0.028749778552509795,0.05947896997462955,0.01722937953510815,-0.054383797638459394,-0.0023783248643253667,-0.08306451421968256,-0.016600110147392995,-0.012752312123567642,-0.07377529546825196,-0.05393258708550216,0.04575802707121835,-0.006657543279745365,0.060159826125099396,0.025971083602372408,-0.07704131463295222,0.010772407076436856,-0.06335639471794949,-0.0027095545652136965,-0.05321011662927864,-0.06731855883677289,-0.021970599269346,0.00594044711457032,-0.019067798116722295,0.0097142938445012,0.03588579160638511,-0.052665514586319226,0.04252000945853436,0.009358478981140178,-0.010963021348988989,-0.015337160452048089,-0.06185567058548189,0.008197808914281653,-0.054259667790511876,-0.013358583940948725,0.03323538347792214,-0.036275138501777666,-0.050111323212044395,-0.00856842007552136,0.003634846142753547,-0.014053626719431377,0.03471570303124263,0.028282322041057528,0.0043035543052648536,-0.03820539511976791,0.030213572808161736,0.021728906107535848,-0.009224498926595912,0.03637537811655408,0.003954808684537279,0.0542954167253999,-0.04937733208986581,-0.04126763730525558,-0.010150446248433228,-0.013541289351727843,-0.001966032029709497,-0.025719883809777293,-0.0035999993858329272,0.032054015993399465,0.0036630639177847087,-0.03160174787935004,0.07633573415404066,-0.04341686854231204,0.01910676537828296,-0.024072057653807374,0.03175027182070808,-0.006722114845118507,0.03176907474551803,-0.0024455919306920885,-0.0027619608533385165,0.011438208650077147,0.016075874231925212,0.06573327847800617,-0.075680582945041,0.003437354796425729,-0.04974645215006186,-0.024785977461800394,0.016169054766782164,-0.039236884821967674,-0.06309457298098392,0.005196715436745116,-0.02009576316753822,0.043256552778543345,-0.031004277980144584,0.03517846189851143,0.013895770635880851,0.040748899834846,0.00711992725831464,-0.0033077945567721134,-0.043176908283459936,-0.0186825827734304,0.006006708447324484,-0.011774157946552847,0.04510799359046466,0.015687317578042724,0.06557814336349804,0.04774351259517036,-0.016328433141567563,-0.03416252273549375,-0.033137181471093624,0.01099181406225499,-0.038427199559432426,0.06479415545903977,-0.04362563343961704,-0.044761887622356444,0.018162776299454106,0.06113514045100937,-0.0006284090952830045,0.035336008315824174,-0.032930333124288946,0.03278057493421933,0.017241539657375043,-0.016288084847851558,0.027751229540429658,0.07591533932072604,0.033183294250635036,-0.004893227637608394,0.11533136156798421,0.05517749608787215,0.07990318553743586,0.0624452537100111,0.028717141307874654,0.03324528801740817,0.016266511141812056,0.006208124665535236,0.03502398536445352,-0.004491991133491235,-0.031641560736786215,0.044824404795651425,-0.014960366139340795,-0.019209461778130838,0.029845053507400448,0.0025231860724956394,0.0017835423519748143,-0.021339060187923194,-0.016151268523534795,0.026729927853901148,-0.0023843639790938607,0.010899517830885152,-0.02654000427715924,0.0319688356820118,0.027572484065282375,0.024478468338387908,0.0645918243670957,0.041653662624319805,0.04044418809007794,0.018402813693919873,-0.0061504174399160975,0.02605364812425923,0.031032766908146728,-0.0008115688125293757,-0.024860795706307684,0.03646599647251201,0.0685942048292979,-0.04210056386814483,-0.0033486643153409572,-0.025973336916216054,0.03868648780121725,0.06142915092196253,-0.07789522276653124,-0.007922015977115098,-0.020507151462458906,-0.005735342233090723,-0.06713542754955748,0.02177406109179466,-0.07279709360549982,0.026214049098579106,0.016394665611105533,0.001929507957987903,0.10972158742299017,0.020275900883428958,0.016612231520079745,0.033122946212048796,0.01959254863754275,0.009324222705261963,-0.017740501770660184,-0.05824819012744452,-0.06669032505950737,-0.033335255907438036,-0.012089472005774152,-0.02977202470182982,-0.006191104918334558,0.0013596966384392898,-0.09301442449326863,-0.014691564944226179,-0.055707692552377085,-0.014400891909699549,0.05886756142006917,-0.028015640485910265,0.05678147085567823,-0.039013497238427806,-0.0012615186344463257,-0.01705722118569668,0.05579509079636263,0.029178859451236234,-0.016741252538879016,0.012569698063257327,0.0059796792657331255,-0.036767822097799566,0.05057056202684744,-0.01598694129234857,-0.014758283087073321,-0.0127076208550603,-0.029533989966291,-0.012152586326708053,-0.024488680809561375,0.03980749584906983,-0.01665752754978046,0.05762910182025996,0.003761333738606413,0.00736390243437548,-0.04911205404168615,-0.020352103369850924,-0.03329891865044631,0.05480146769933237,-0.06960940018816184,0.037631042905394145,0.016723198378064085,-0.0572029412815232,-0.0002934145528144569,-0.00673370772157927,0.023038671131348016,-0.030943585927177972,0.053510155469554906,0.0174366842174578,-0.007113776574910657,0.014589748756215614,-0.014002190319438099,-0.007264078955878494,-0.04920859317979388,-0.0022670999251971423,-0.0006958566455759532,-0.017456988899180615,-0.006576186958974515,-0.04349301215437086,-0.0012628143962531571,-0.0877139343722756,-0.04398909133446322,-0.04922054669725081,-0.04265143116800273,-0.014593902025491823,0.001992440456135176,-0.07186436524156167,0.0059552144837125825,-0.04262564244955804,-0.03479736110608536,0.01911821705197037,0.006843440369975673,-0.011135402825235593,0.016149321662959414,-0.04302142819859592,0.005269730835486699,0.021992680045959893,-0.00610992567971393,-0.03884932441510216,-0.06518923016299859,-0.06498254590935462,-0.06848157580400238,0.023854779579594743,-0.031532314972832265,-0.039804760730546875,0.016858492232618223,0.12576062495067267,0.0320803181487609,0.014045007990171355,0.0187176044065211,-0.01658932306151333,-0.02287674776647211,-0.020807089797337502,0.016997847231307886,-0.06623715833388227,0.0014826066376901791,-0.010207885713872291,0.01930663001407639,0.0022945047431597435,-0.03032087943503473,-0.02648643785602979,-0.00454309109753871,0.023853377069708737,-0.05757734455570833,-0.0007092797996378024,-0.04202254170239339,-0.017026724416153938,-0.05226360764618438,-0.10118520349108896,-0.10274665671384924,-0.05034472509649983,-0.006672380839773996,0.027111522955550672,0.00714312933705471,0.01159934869549855,0.07724925653452751,-0.031069682551227665,0.002780467690934109,-0.04650805795601491,0.01964167819005603,-0.029820700056562524,0.013773830215274414,0.013170119130477052,-0.017628197503490373,-0.016171201132856885,0.048294829377773504,-0.03294595354943783,-0.061934455192332594,0.03811009165857733,-0.022155739362784685,-0.014765111325681318,-0.020178882216499376,-0.048166048936993784,-0.086387436126154,-0.11169954441884787,-0.0832941109140077,-0.038382817549227725,-0.06027347643970469,-0.05157680850402407,0.04221306529912766,0.02700729548916819,0.09091353588795113,-0.021398310320155576,0.04636444524745217,-0.04608129593311383,-0.01809952532100844,-0.032088012017591185,-0.12997919482172435,-0.06823939024197093,-0.05186961430397693,-0.006278353415917109,0.01371089811447948,-0.0013023926659048006,0.06431849157580821,0.02408378529167241,-0.0020060629735667145,0.038298273112553134,0.02953194272353005,-0.01053042967725435,0.026458169173244943,-0.047208556849802984,-0.025310956053595807,-0.13024255357471579,-0.0880152287752038,-0.08843347334675017,-0.029622245787836437,-0.06244362403616783,-0.03301188416243586,0.03705778487153535,0.017036891191413224,0.05339170367966612,0.01528931664480927,-0.015236281542580945,-0.054488739988573655,-0.0644883346559861,0.03804949065777267,0.029929279764102718,-0.014860323709497247,-0.007583185412032636,0.01643474341644734,-0.07181857036586736,0.0012732718602380016,-0.007197739910581499,-0.04431619560380745,-0.0007302667630051326,-0.00953251107922755,-0.055374260939682146,0.032129036770592055,0.025413012349281942,-0.04801043396675129,-0.0778369567002372,-0.0636164404156917,-0.03375303316996582,-0.01567228609440105,-0.03510484650881752,-0.009672743664371168,0.05646584300001433,0.08581874967228799,0.033431965179214075,-0.05212366751934148,0.006042607978507993,0.036636188516054276,0.025190517592738524,-0.005922878178896168,-0.01813921398429134,0.009454133988846047,0.0009485551031426213,0.046417839842887325,-0.017082790645778587,0.05046107582953688,-0.06572197171095756,-0.007581547683044773,-0.014857224185633492,0.05061775711650723,-0.0029533323345104193,-0.08494874543184033,-0.0049930771162274646,-0.048704804545420095,-0.02414774682138901,-0.005529943615009554,-0.027611102825369042,-0.08496670568564735,-0.039324347912599554,0.04379381628130947,0.02912003118702993,0.04384096936730298,0.002900431275209146,0.09337165884340154,-0.0499129092611959,-0.020234727105192373,0.031082753104465014,-0.006306083386163481,-0.11340713468814408,-0.02621842688917551,0.00896444818284754,0.04618670125065453,-0.06458720488583458,-0.04380972294335244,-0.010773951675784073,-0.012536965668641101,-0.018039227611696507,-0.00035880915459570047,-0.02836632231941548,-0.056928903780921664,-0.012483471562511084,-0.042076836792594816,0.029282775443794335,-0.0315755710315032,0.0092823842175215,0.01716627101003143,-0.010401945821840085,0.03428877456350279,0.017668034975382007,0.012942471863820512,-0.0017980195747438253,0.015326318408431286,0.057622386641879055,-0.015854441486916736,-0.004631128317780048,-0.010180311487563919,-0.028258716288349355,-0.029213886467176386,0.005240695266868711,0.010793538017542223,0.03625977152653986,0.040151471650984226,-0.01107776894760594,-0.03409578428146704,0.007560595226603492,0.009658636179021893,-0.004664819679922587,-0.01832141417673731,-0.01361853496526766,-0.027455218948086058,0.03893963928955305,-0.004889265227556987,0.03634935878003324,0.07335434300383936,-0.011247531802913005,0.022077463101963127,0.028559535187781874,0.04195643784640926,0.057713699377895826,0.02560613428304017,-0.02516059620629782,0.028212338801489194,0.028184642571324622,-0.017568386870713677,-0.028918514702207212,0.026494448950299194,-0.008986678071826178,0.026761091462003027,0.005059855966892522,0.028149995888610113,-0.010423311814698195,0.009880334422792467,-0.026869691138571673,0.006803548859337114,0.042000676393019576,-0.023332772971733994,-0.030231090324736715,0.03276770331622791,0.11454449101086318,-0.0232595579581423,0.03975192888651313,0.048857494983007926,-0.01664168519500081,0.019814371084348695,0.0565322117506651,0.04489649692554369,0.06626640988477336,0.061611467290697455,0.02387137630000058,-0.030182322956225385,0.008780771220840358,-0.0387802108871599,0.053417114897840276,-0.0007291423429887589,-0.04264090012660859,0.025797019179298213,0.005984772068364807,-0.023776940311968125,0.029044765320185236,0.03681944037118489,-0.032766650130216075,0.035077396521248465,-0.00875491518427194,0.030286862619260585,0.026414453694849693,-0.003604174556782253,-0.028986836879882846,0.09350483711636177,0.018630397822278065,0.037934326819145193,-0.033132476884718313,-0.02823699456221327,0.03818782695376196,-0.014152613180158244,0.06041157995589959,0.013674132726129965,-0.017063969032470372,0.020170689508911037,-0.06053144064747669,-0.016350638119733474,-0.019847792737739612,-0.04231052274598031,0.05376809864004504,0.01296506282141802,-0.03411718164058911,-0.008377896579836203,0.041732667556571686,0.04238470592048902,0.04998475950862884,0.021918218250941188,0.05328964779603274,0.0119614956192514,0.046694048925428104,0.018885410140110935,-0.04071462425976008,0.05126754198492483,-0.018046037555722247,0.017755423123203242,0.07143575779637432,-0.011109818330559533,0.04719249960503953,-0.004308577929793199,-0.01610580575108961,0.008825721864998267,0.09429387383695147,0.01810684058222304,0.046024239922917036,0.014014842190964412,0.04153110547738069,0.0508284174484445,0.006530308728808928,-0.04700008291893362,-0.01724108665422718,0.007625938864890679,0.0002858706869070048,-0.003707170330114487,-0.02812945048958817,0.011877609624192802,-0.00988004111852349,0.004296700032248933,0.053186784175168075,0.036409294555061596,-0.042686469002938585,-0.0685886684329037,-0.009878257222130581,-0.053778838860007804,0.05198055317861882,-0.01648264303080969,-0.0006642477852350663,-0.013865470916481467,0.05434495998458146,-0.0295250096923615,0.03361299893110398,0.012279781872219588,0.06147343708906966,0.02669446987256121,0.0372409106364485,0.025472140155410408,0.011969189619624246,0.028220338695327436,-0.01811458670142171,-0.047127728129134044,0.015006558139461461,-0.031199733269794094,-0.021155276874979458,0.0317658557864049,-0.059491189733977795,0.02193903223938304,-0.016638046365153116,-0.02523752559319385,-0.016243721163176246,-0.03661635232880628,-0.03700822285467163,-0.011708577578479484,0.03325783033921179,-0.014536597264675299,0.005637271225049867,0.05042908154128031,-0.052123737201218344,0.015508470459251243,0.03632999057968082,0.013357198850396794,0.093158417616675,-0.027183104885895946,0.0108227691879443,-0.00665276942020995,-0.024982902646151137,-0.04442140411403383,0.010219751661630968,-0.018723965208243737,0.04478405005245461,-0.047355204243673274,0.01498194309112142,0.0676082294494872,0.03685353782389484,0.04648152854717991,0.021655490414099966,-0.016181616582285646,-0.022036203721856055,-0.0015403463640482988,-0.09477143163272714,-0.029263978053937247,-0.0869462922580182,-0.025174342183306303,-0.003901909284807923,-0.02464265333481872,-0.009694038790494873,0.028080158862379998,-0.019600895820435876,0.0763867934894558,-0.015226849564308876,0.027097953754418244,-0.0008520424768242792,0.055329594371455765,0.019904902246948672,0.06923525740958043,-0.048158413184420774,0.0002789472358137655,-0.023565924368144267,0.018130987967387532,-0.02612011998795332,0.0013974377866949061,0.004293045002681263,-0.012320369129513502,0.014189799260835577,-0.027127177153627793,-0.04445928307694314,0.01638184767238294,-0.027956466857336888,-0.06089272212920273,-0.018263195731354855,-0.06533892132803457,-0.09022756927010017,-0.015011769268558503,-0.011691909826695273,-0.014678459493803872,0.039472823469721245,0.013369223930481879,-0.014923740457404902,0.02485371122926225,0.0221233814382605,0.010181968599229702,0.03471277686314829,-0.04824513764491954,0.00045798115692206247,-0.05809409995615413,0.006367407589231501,0.08127174354151684,0.03997096453297711,-0.10347463997368317,0.017177475480022422,-0.01633703108533631,-0.042241600320973634,0.017302913424777758,-0.06732642646417487,-0.04845873257372594,-0.04599161346531692,-0.047984478678758206,-0.09227388868429628,-0.025314269438771426,-0.018024947786586337,0.009397895827178064,-0.0032807286630524997,-0.0678343023391931,-0.024892981428293794,-0.06358600836859618,0.02097044139854273,0.032051486323962354,-0.042965978237170445,0.012821467539254774,0.04642971938713265,0.024015834010820847,0.0054486225437966615,0.05214994785295684,0.017940219094370016,0.04626727208953569,-0.055646983580681604,0.0033157050509462897,-0.0032587803694804525,-0.03258913384155184,-0.04068876295142617,-0.03894169115938616,0.01564148677998549,0.013216728115670647,-0.036099491697830485,0.021226610063649745,0.004377568829165707,-0.01901612932720322,0.050325738166322846,0.007746010128073822,-0.005380885626965468,-0.023972840987930497,-0.03481816299200283,-0.012139307117005609,-0.04509545810788235,-0.011485633963310798,0.030246919657599045,-0.01746597938567331,0.05836132696779726,-0.001618551284180922,-0.022555287685174896,0.036279413450697115,0.016622795927150862,0.06077066911839931,-0.01102731628159356,0.03868409654216118,0.0625071351604522,0.060415670211734884,-0.06742835988899068,-0.021998551848790918,-0.008854479781583048,0.03700229081449623,0.06250426439362906,0.010961386717435543,-0.01469617976554961,-0.018684823931428955,-0.035960162856745206,0.0042229174268488155,-0.019685510523814537,0.02971175279089142,-0.026313635776752786,0.03542125575874747,0.012669384047302832,-0.007785839918751638,0.01654410812291627,0.04162553048072996,0.03233488337418472,-0.033280310123203385,-0.0886938701900231,-0.008073169901184236,0.028676254788881635,0.007821206078940424,-0.0007001407610309885,0.0061057666513938645,0.0318144106462317,0.05149365740805647,-0.02781925478899316,0.05060010805013967,-0.05709208503276422,0.060011674957468834,0.012847102920132364,0.030871641332384393,-0.02875988264619751,0.04693654963801853,-0.010800694127368783,0.04775537202380966,0.028924943323305675,-0.02637580030468047,-0.055270765404913935,-0.04596534656684187,0.023354768033966296,-0.04044126302041903,-0.07565819686296642,0.06504247015801064,-0.011898568269274601,-0.007141562903745063,0.054057941147703965
0:1:0.04597963864892431,-0.03882455811200025,-0.0011603143850674338,0.021258286442777993,-0.006594907744587631,0.06004969246228156,-0.0052994344017434575,0.0010166819882117524,0.017100376694024436,-0.06159501135547605,-0.051293946231801966,-0.003796851748088768,-0.04098604166721368,0.0043064684317243055,0.016268758683155204,-0.012320984052873052,0.08659828087786081,0.022953713766630437,0.022078374889490462,0.044335766696965886,0.031925780034739434,0.0085998073794607,-0.07353053794368128,0.016882423854021212,0.01070421040416849,-0.08721057368939894,-0.017421882028721723,0.029166342232533237,-0.03406699386498231,0.021909799668415633,-0.06533128099405168,-0.04581987224423806,-0.0022523281993251515,0.017947734310849096,0.02600346144336577,0.0032853846959140206,0.004828067113911046,-0.03716059469001009,-0.016468731813755945,-0.03825364936194804,-0.038706081213506195,0.009596421301069184,-0.004189823930735362,-0.06396404064409472,0.00033357149868008074,-0.039824116574554994,0.04803450047926023,-0.04101008570790629,0.023599243641454846,-0.0030165245701404848,0.003979537169763596,-0.03950197160907202,-0.030234299334978808,0.04127037414484941,-0.018226367166324912,-0.06582935403081645,0.0007442407919054482,0.03545295648764691,-0.009715084184519874,0.03227440817636662,-0.02235560490113655,0.01315196631166016,-0.06077350547817311,-0.025587475579410258,-0.06181765330620342,0.026479407557504362,-0.012105525373580357,0.05772925825878878,0.015541793550734786,-0.029267760009379067,0.01971455431309473,-0.00913043253441486,-0.007600349424399157,-0.058218879616327726,-0.027549570687862294,-0.00435216826805036,-0.04320460169588695,0.02066563150917039,0.01555191517249665,0.06173648549725493,-0.07535971902264552,0.008425507704307361,0.005015903380699817,-0.026381103809314896,0.009813860906657246,-0.008156646113744597,-0.058821358389234676,0.003589220426165356,-0.05157299446370703,-0.0062127364471199825,-0.018508795153847166,0.025018248838040012,0.003295544581407406,-0.03313752425612535,0.005253526055892337,-0.009240996133316769,-0.0002488295804430409,0.04245774092996868,0.05268522116337327,0.018881356694336035,-0.014654208814136151,0.10608363229098293,0.04917776743206733,-0.024448279509344112,-0.022874842551266723,-0.0645293839591505,0.005459183370483945,0.03802323919955907,0.02016448955456424,-0.040614114283974774,0.05510709198657607,0.011526171477259189,-0.015167644628869856,-0.049973277342177956,-0.01677180980257841,0.048823096189032085,-0.011566346982686356,-0.020096123025262626,0.010288817027227762,0.03217051987062552,0.07070866868045397,-0.06455223864363965,-0.053574445238662706,-0.04253261246228607,0.03519453265002716,0.0470718296410799,-0.062097046687837006,-0.004527423557887812,-0.0001985224699584152,-0.01484527872259844,0.04464014323243987,0.0228234050570629,0.06717132518721325,0.0159885776510091,-0.014104343855004737,-0.06251497109656212,0.0741636798747809,0.01592506275318927,-0.04335257414807196,0.013337967584563579,-0.004016622354498374,-0.011725886433785958,-0.02632401674579857,0.021026032169492583,-0.09813855079730419,-0.05618595831652824,-0.018250643408680874,0.019745979689712177,0.06513128878727885,-0.01436105958852134,0.03606527906530877,-0.032052432407304765,-0.03610198212671905,-0.0023384001238995057,0.026012288269873382,0.017459949749061298,-0.0075931030457356136,-0.013676785985137913,-0.0494810876144055,0.0056742967216242435,0.05590771878517355,0.022783217903852324,0.00607120389664227,-0.03899903116661327,-0.01733623325573014,0.0703841679845888,0.006372953730975325,0.03093901994458243,-0.028335390805424535,-0.03685183482695872,0.002440586375026463,-0.0032053278585743323,0.040327086617076305,0.024587627538337653,0.0565725912637188,-0.014059729203111661,-0.013398138913637536,0.008037016980855712,0.04364188355553101,-0.04146199350144012,0.023330663153449553,0.031151172323068094,0.050386620867899704,-4.776676995282283e-05,-0.05044732257475684,-0.0027716205297663864,0.016429822668788615,-0.03675174764698472,-0.001584363485144552,0.023204659981368995,0.03310781218726062,-0.033258414466016226,0.05600443405902218,-0.03362900872945446,0.011908930573963156,0.023575236691361676,0.06760189903335137,0.10480892439734348,0.043385133350431634,-0.01920999997720004,0.04742814066420637,0.038448370401720965,-0.018623217200919893,0.040926741650373584,-0.0074295007577700484,0.0372297818422074,0.03840920772992674,0.0023966629258588916,-0.0066372090164342964,0.003152742864806879,0.046923489043708654,0.07880001208517781,0.05657728279041155,0.07654781413409352,0.048029510412846935,0.08463067773973605,-0.04574693496813517,0.0442954081112165,-0.06143067548742965,-0.009486351171137915,-0.018028199490335007,-0.054803996469388105,-0.009577033657501649,-0.0029759021020298432,0.009421498589399167,-0.01978846840580038,0.01730134755913658,-0.0006082274640312536,-0.020325287276824408,-0.001508573843186545,-0.0021870391750068783,0.010799483795655842,0.012648251396341308,0.08755851307140047,0.03495487268001282,0.06828327818684,0.03474409729885274,0.04101216220760172,0.08844999359216761,0.1329044566652487,0.12663796708206052,0.178008316999932,0.11060063986873848,0.022404769641171923,0.04302611262379469,0.0013394322753547034,-0.01959640123331724,-0.03517753729708727,0.053074534783920026,-0.05776086922754433,0.0629380497840341,-0.10179643152158721,-0.039585158564792985,0.008595070064810337,0.032371836134062026,-0.008081237597022095,0.08473313554210173,-0.03558611265780786,0.07236915173782697,0.021358578670003032,0.07622682124772254,-0.029589495935750963,0.06166535245320081,-0.04297226013472676,-0.0646726064993765,0.07065868152075819,0.1200514321513505,0.12023055440518947,0.09038643890813396,0.08011861264717038,0.08380462779856485,-0.027804140878966356,-0.034617982604030435,0.03006237021697214,0.010615616472977507,0.015238236814857014,-0.0037597452994959624,-0.053583148416351,-0.027064311362525354,0.02986192223625723,-0.05834802683121674,-0.010015785236149379,-0.043686469590570154,0.03209383811141915,0.02633874697450019,-0.013008847926373197,0.0030634326933537026,-0.005234701703304427,0.01811149416361753,-0.027525283366441774,-0.019964113826408565,-0.01698837546352543,-0.016795432561979507,-0.031921050339122015,0.08405429190805751,0.14718850813307582,0.026108744779090812,0.03920061426215228,0.006106618228773878,0.0038193028468780964,-0.009833990504415368,0.002913374835383796,-0.019052739035217772,-0.06533930075650994,-0.07242638633761392,0.002703030378068126,0.015793871125150145,-0.023127428279147298,-0.02389798197367918,0.05187070509283662,0.0004967057449051557,0.02146311120187063,-0.003709465120469865,0.019743167640399472,-0.07146001592637054,-0.011119166557245756,0.027925154653646252,-0.0267665520922622,-0.1116627596352499,-0.08387774045635389,-0.017247857342032148,-0.03452807003035631,0.07224182833945819,0.07168505049227619,0.001476393850923565,0.011189579625110923,-0.03601206749891175,-0.016695947260554955,-0.021627887682120407,-0.03014395400182077,0.017964049671573435,0.0011491659626487712,-0.04651955205320112,0.0085474943582842,0.039710829176596955,0.0023075838259954593,-0.0026742429108034273,0.015398195688684196,0.0019125880116424077,0.025447373270697397,-0.027076748476992492,-0.05247810731429466,0.004371149310845275,-0.07339447431965167,-0.01956559692204716,-0.14010504413934907,-0.14857746392504478,-0.1391096102544386,-0.08736194573269186,0.03347553198350368,0.02026032556708377,-0.03491297248396314,-0.037491248068912485,-0.10700435470719413,-0.01395360255409851,-0.05943630100786033,-0.044976280255003845,-0.08504877134465104,0.020308086666113584,0.025095867673893022,-0.051561080089656604,0.01741858290552898,-0.07992142059524912,-0.031475204816395666,-0.003969884214491319,-0.040348356632233844,0.03068351295348574,-0.013640796570885119,-0.03899802858684361,0.09113793091030918,-0.04770990861534919,-0.0400637526038329,-0.11284720473117932,-0.08511416829342065,-0.1647344146273058,-0.11075700840141424,-0.1758532128824285,-0.10835721844393291,0.03115957999507839,0.024320611886792777,-0.11202149467320043,-0.08800249534660333,-0.025267660235202972,-0.0818185923034441,-0.030536013130569542,0.01193638727998557,-0.01377149109411541,-0.025499237152712798,0.020668452555602092,0.04421647677256243,-0.027941991763448658,-0.0035927078887004124,-0.004288970694350455,0.006461227620481004,-0.017903765166925087,0.006997573199071659,0.05041507644886733,0.014221347392084905,-0.026553957075193833,-0.06914210804553618,-0.1443963702749745,-0.07281366301932228,-0.10654784706944968,-0.13944138767659042,-0.1298837065203789,-0.07139024641745591,-0.05432911432124574,-0.1414968187620939,-0.186570099667092,-0.025718066640759558,-0.0735501110731517,-0.033193222792941936,-0.029512563479581862,-0.009326261189033255,0.02409880476493912,-0.03507692521649913,0.0003381129265248211,0.03610087268243145,0.04647027331889238,0.04220680688041495,-0.032545331129721966,0.006765799661158545,-0.006304382415160501,-0.026011741879630634,-0.027618358350250415,-0.0437516388279232,-0.004110314674675029,-0.08851257706969383,-0.10394912344835373,-0.13296695148483767,-0.10929349083662458,-0.17789758661430946,-0.1878532334871895,-0.13469602630457558,-0.027105885794806012,-0.0833646106084461,-0.0943044466329149,-0.07009330957367738,-0.039419564963795596,-0.007159057340861875,0.045777838537555286,-0.049752066579628794,-0.009329622207388633,-0.03240507929691806,0.051173175301372255,0.03495857807832729,0.027223851132931295,-0.08372722074958554,0.029019383058776445,-0.014153956852356472,0.038481536030136,-0.05123390073616174,-0.027200260302659665,0.06812402471894975,-0.044604611872285704,0.024503845933785597,-0.09863243036181911,-0.10678709744192807,-0.11588254052623821,-0.11057146551578721,-0.17418204691630218,-0.0824960326251172,-0.04529394666323211,-0.012971176361334808,-0.028530073852256678,0.0002942403324197395,0.019079487464392406,0.00780279865058723,-0.10092903760828768,0.04659369277724429,0.04200214667546265,0.01988485390776686,0.03588108130118919,0.014230147802673126,-0.023358716071461595,-0.01630920861672985,0.04524214853974065,0.022799963885140204,-0.04445341634650735,0.020202520129656492,0.07986603433093925,0.012619339218676272,-0.044352289672243465,-0.006449545166660071,-0.014518470417013226,-0.0851980919656933,-0.15915449919140437,-0.11841869773378352,-0.11574160662263291,-0.026006168371246325,-0.040392953118797884,-0.050484715158817375,-0.011507831913539351,-0.0090748103992564,-0.026973924627234937,0.07814414010376182,0.021726647300775524,-0.013880045620806395,-0.002055296148273514,0.04445982271924921,-0.03868309536402548,0.004262625325492882,-0.05017607083614657,-0.027049396737031453,-0.033349117463966856,-0.015726401758595913,0.04788570629530205,0.020941487161952026,0.000194257891618589,-0.00777908174075621,-0.06161351658203547,-0.05532093356410654,-0.03220239907558217,-0.08627743110213289,0.017071871566559628,-0.125416723704925,-0.038381471011931144,-0.01110317109652171,-0.0034613881066580363,-0.007405831654746375,0.03439749671283028,0.0354806289464683,0.06397220739909719,0.003292977085868278,0.03240548393451684,-0.012183284561022674,-0.0030023685463579047,0.033850646259992755,-0.030666622980601386,-0.0678598546141825,-0.05537970163821334,-0.045903557816107235,0.012026963734946904,-0.01864159446792299,0.02054239185949725,-0.05041720220259383,-0.008388792983358626,-0.0015431696024706502,0.10549272845950558,0.04585549711727819,-0.019660300745576204,-0.009425399503332965,0.0052846893791739374,-0.06948269972590189,0.04137770533748686,0.026736003356690026,0.0028330611589952315,0.030547199412208615,-0.06949692290814731,-0.014763628925386635,-0.025331277047778593,-0.025602298063231697,0.014385735320938274,0.015031941335040148,0.03539525619511141,0.018693672594893948,0.0065592130852524435,0.04105848309194267,-0.05740402352630083,-0.06626772505080142,0.023319577381582534,-0.02914985129679986,0.012625713531089572,0.05518774243228248,0.04330217827743056,0.03211668440366836,0.07677301322127567,0.0704813301609172,0.027290185730308128,0.031925949567975696,-0.018657735761459113,-0.0961157780128626,-0.060898740920532976,0.04941628538279919,0.0034010894424921726,-0.0017858867102284878,-0.03490113412565659,-0.07054532362026802,0.025543002097918925,0.015269570889028933,0.030720457078212356,0.020069494960392623,0.026782116201406303,-0.02384231729169871,-0.037456258042541976,-0.02030816148602862,-0.03319516924959654,0.028700046502488547,0.018321744406186686,-0.02242370751290945,-0.017896488941545937,-0.004481803564484638,0.011655240931178203,0.06031657334495451,0.023086109088823435,0.09985313192104542,0.08207188984144821,0.06599917573610958,0.008767627314611722,0.05937437946408628,0.04781275943475506,-0.0038017441802180463,0.009009457180159565,0.060414518177457834,-0.060917540880860044,-0.019436222546034564,-0.010686721157554003,0.03396761609047459,-0.005206047804673231,0.05055601730974445,0.02202146604404543,0.058753098568603716,-0.008476846437925217,0.028439861106871574,0.02279137911898291,0.020798869658486117,0.043485838083096,0.02240429559813476,-0.04624528072751447,0.027660466856582393,0.0059584728154215075,0.0026901856156465176,0.02015364678511345,0.07522450618911868,0.05396594463352982,0.07869350668428027,0.07966391282561548,-0.00571845892631657,-0.013094720794020078,0.01591216425603837,0.07799269230264734,-0.036660476711322935,-0.05020664984474688,-0.04746580177193896,-0.103330143552503,-0.03263327971168616,-0.010745234265173658,0.017243264296677736,0.05496203923723267,0.01774835213963574,-0.015571901667231648,0.028327955011407054,-0.0225056783497233,0.004060123236984945,0.01771488480510974,-0.024068541286430874,0.0703713254312363,-0.0449340681243573,0.022690904929620535,0.07097127578413065,0.016154168123735393,0.03003118436062672,-0.01996965729636002,0.05942052064648243,0.03105543029532025,0.049986767403339,-0.03264127713978081,-0.01519442936135982,-0.010036262664897643,-0.018811340738357454,0.002436229138519934,0.0029955907898046993,-0.0034690199978499384,-0.010750839515848872,-0.010169571481933004,-0.006606069423668961,-0.01938427657376066,0.009561037138225474,-0.031860942816834825,0.050864013190499435,0.04518315728696342,0.02326170316251531,0.011089658152872698,-0.03259570339183925,0.02466457421919719,-0.005225701047192713,-0.03463463702053924,0.00467706271676806,-0.027233890769373055,0.12462702777738607,0.033322050336597166,-0.012021637164851908,0.015973339188767,0.01770160832640336,-0.0713525019710526,0.002149116809030862,-0.025452911237543122,-0.0005209220712118974,0.062195699717615495,0.0013710572927628565,0.010093752056997193,-0.04905799933743309,0.045444232508864146,-0.05619173016508336,0.028970738802607875,-0.0017454329021680296,0.0028157081589588293,0.016224988894602194,-0.008458383738249498,-0.03621666862623956,-0.016599038972855546,0.038343570207865135,0.04623893764169964,-0.006566932670506551,-0.009846048727137605,0.05550579444020823,-0.004338179812921222,-0.03067415746294105,0.05270250429011163,0.030116153926764963,0.01972276915243939,0.07686703469272871,-0.007726040213156997,0.01583383047721009,0.05370396048686343,-0.010305782540760887,0.022455268117031173,0.028474955528954578,0.014460027618895192,-0.04484292909057338,-0.027568173888069612,0.02011111660111291,0.024958919117847703,0.01682168427072148,0.006212090662075484,0.03662692656519457,0.034253044656463394,0.04576215131014276,-0.01201926731964643,-0.03414141065285474,0.007514148562655792,0.01741144217645684,-0.028509185022572787,-0.04509216754199386,0.0037039212671323013,0.009797470782408186,0.003227886890519082,0.013428252689594177,0.06300081966329543,0.04809728872502378,0.012416444390891778,0.05405092912768769,0.08866511299714759,0.06914416449405694,0.011687757817952074,0.01692402411941577,-0.004237716755621403,0.029886045662959812,0.02338517872750334,0.01457218356565554,0.049729625474709244,-0.004889162326037733,0.02596980716053514,-0.037427253415868215,-0.017175298999300533,0.00888407799217011,0.0328307725217226,-0.03151994898247748,-0.020130768935025956,0.016395909520470233,-0.020916988284778743,-0.07588792211972357,-0.020045766344383167,0.03498831500877103,0.02869070964854268,0.032132832055376634,-0.03330070327943565,-0.09585257196756372,-0.07002123103009605,0.0018243389634779823,-0.008266574438650436,-0.0032028533107558827,0.0034469445538002786,-0.027937086737797753,0.026065111945383166,-0.078000319175906,0.00669469110149336,0.018218898398545007,-0.004136237498705455,-0.0476534490813698,-0.008719788885431812,-0.03322664729802643,0.02834114734353832,-0.08296414268340041
0:2:-0.03459068491824945,0.009966094936137544,0.07079689250463393,-0.010284380014666661,-0.040427910586754635,-0.00922740255147804,0.0250912722219629,-0.027403770750314842,0.04648395211586684,0.0257369563357077,0.014192436125108092,-0.036534771564120355,-0.017913620394950935,-0.04085449838316983,0.08128839432902465,-0.0862801757390924,0.01610236204426978,-0.015889493981608244,-0.010239727001767902,-0.007070429976128281,0.04354554243604782,-0.029235662555177587,-0.03312016872450206,0.004675003173956645,-0.02408293416295931,-0.057860852186321414,0.07460873707799885,0.02735939090547162,-0.0835575844101046,0.01206728457553822,0.004778477010594306,0.012543584480064644,-0.01753258387244926,0.04785973915437052,-0.04787470676734188,-0.03484054816249426,-0.03556715346255244,-0.026575157464111734,-0.01775412777875055,-0.017846187076320404,0.0032403884409930852,0.0034271162483042517,-0.00012385115631761233,-0.01651621591439729,-0.008900329308401353,-0.010742643436473978,-0.025134994477395926,-0.01563517222938571,-0.07683108778000518,-0.021912700361871772,-0.03929940169422209,-0.08354791482560497,0.01948391418062428,-0.005378361943641623,0.018641242098866733,0.014611935482876337,-0.005559657935300152,0.02278610216701438,-0.06573588146662851,0.008667338196775735,-0.04251584309657017,-0.022971881457052708,-0.0440528867626776,-0.05194330805243918,-0.02326824046555443,-0.010167315641589441,-0.060058573714370185,-0.03878380382293194,-0.019267141126546962,-0.023322792419921277,-0.04130913373169077,0.012865284455461859,-0.022951533068088198,-0.010882711603118433,0.05010898246242795,0.0114612926273132,0.02394727586065788,-0.08165755156406909,0.0012887522504034588,0.022257137944893965,-0.007753652624921352,-0.046570089475423355,-0.03770357396437508,0.014331064095020152,0.004553425837624337,-0.07971649250577605,-0.0022656111824910044,0.03623005015999841,-0.043605284670384215,0.014884592301632154,0.03389374646143475,0.009026318232604112,0.0014615501427461066,-0.006438680490778505,0.033408841342472406,-0.001182702824378705,0.003864315879221147,0.07303139976498382,-0.014464001006078704,-0.0014871711595235663,-0.010079146171228019,0.0025092574565758175,0.04432229962214308,-0.035711456461192996,-0.06720816363963628,-0.033854401885328636,0.027286934209906268,0.014703730017090796,-0.01634744948979309,0.0017795403313761104,0.1028939386202478,-0.05110423157440182,-0.035995376036743326,-0.022478410614638483,0.026831007016135333,-0.010243327560331068,-0.06198549263114481,-0.025761314880825673,0.005296977105145103,-0.006011243699528658,0.020381129655115647,-0.001618309163034912,-0.030258770051263335,-0.009577224513165278,0.0073130175652307864,0.06345849870261144,-0.04146343166873506,0.029393078520364588,0.03509227116323895,-0.04783107179869715,-0.04601347738723842,0.030578138519956322,0.0434872523025169,-0.06879738091996172,-0.046588758629354465,0.041859525941678646,-0.0004837077800134171,0.030198092658355966,0.04251423863632155,-0.018816263138525243,0.019121943841184076,-0.024655697898696143,0.03110072849476631,0.00508363439602106,-0.01138898503683073,0.0200175986236715,0.02396567184795352,-0.07194024175973689,0.0001943719422833047,-0.0251501576554911,0.04023265050240643,-0.06099084967129274,-0.004085810745420173,0.005424142141410081,-0.016843822875448687,0.002804394263787036,0.039775455966665214,0.02179061139488226,0.02786819067677926,-0.011858480432379527,-0.03300153944118337,0.06794056982212564,-0.01673244799276275,0.020781767850270853,-0.03228520963881923,-0.0322057862907019,-0.07797821133734693,-0.05368006504593548,-0.008317467300020377,0.04697835584355507,-0.01145327296393916,0.002599063952942951,-0.03452674509892442,-0.028099906712952843,-0.056166007302033624,-0.03981512188073344,-0.07891408763250053,-0.031980125140655916,0.0268182567132107,0.018607007889285626,0.007018647325881937,-0.008402680723991862,0.004536659061025715,-0.003874808653508853,0.028709996593619225,0.006782348454719015,0.02354910564378589,-0.0010540597006386486,0.01252688796221413,-0.05672117647724541,0.03180765508140451,-0.0583490986556788,0.04073358764728479,-0.011579097628030452,-0.03496995558927757,0.016971041667418814,0.05740919707879743,-0.056343040772841406,0.04385656647452852,0.062249094611990276,-0.03165920375128561,0.01517096793371282,0.0008251090270362318,-0.05572403399705197,0.019555855541041868,0.039493334551542324,-0.028145969345209444,0.004586284433969115,-0.019171823262015508,-0.019275568239026843,0.02844652489961957,0.05072560131827065,0.018928486684110953,0.049660528921582105,-0.027672411554815896,0.03931084206391419,0.003978211807299183,-0.011753330616041016,-0.010098872460655883,0.006364403667367846,-0.04448601585410018,-0.013996680093418644,-0.00046665316256035627,0.015270085732466469,-0.04326603781322595,-0.005159431677831952,-0.018944635913171096,-0.012466809269102645,-0.0045533191435678565,0.0032751008030079054,-0.01123713168740805,0.0047035101066785455,0.02043531215753326,-0.012421711002590043,0.013705906817500228,-0.05833016414322988,0.05391742504326097,-0.0031139844121535164,0.005623778227411407,-0.003135249970213642,0.03402199248172424,-0.015861287896141107,-0.029032414046091064,0.03120469817834033,0.019618955595218524,0.0436890541536625,0.004651798421429822,0.006358224499670884,-0.03635981191286918,-0.032826786836641315,-0.07579821847734361,0.011580324685143303,0.042379649617498856,-0.002340280807288628,-0.011435388657970728,0.06152768610078287,0.005647476620926517,0.034726895096247164,0.019764039336116854,0.041887055705548785,-0.040412548213863655,0.06338892614368179,-0.02546756281349074,-0.008017457212098499,-0.03291789867957004,0.02078350159338342,-0.05976071217659052,0.02471404019766758,-0.038386251962132904,-0.014777361318924606,0.022746746553711096,0.0007310786715506036,0.04765301533272023,0.03138190738815526,-0.02436884354704032,-0.005429037691614221,0.010566990606647104,-0.02681102636314708,0.02846930343810664,0.05609728091737856,0.008844130174486176,0.01685584393300598,0.01162793001698798,-0.06551118737593187,0.051818168279050725,-0.013870528027863958,-0.07947964660594879,0.013271416427048844,-0.02811789993528236,0.019049921356102353,-0.0050233676713485505,0.03907955416277611,0.07231190915817298,-0.020804678910389084,-0.009476426820213624,-0.02205262248570637,0.0007559219140563409,0.03279251305621139,0.053797893836506426,-0.00351798050356217,0.002453998490954459,0.021021705926558595,-0.052773978756497426,-0.04255606746769131,-0.025518172611498278,0.007613489686616894,-0.027513294576121807,-0.017140278572636638,-0.028999851878202424,-0.015868340708491555,-0.018212500279963503,0.04901218630360131,-0.030154005222461772,-0.021657756950855665,-0.009589317283103001,0.011902945914737026,0.013714875202791542,0.0068489137417715945,-0.015587635521759293,0.014017841986267007,-0.055661135030841906,-0.04198561022790688,-0.016154890841309475,-8.495968641903246e-05,-0.013865423783671848,-0.0021573419063656628,-0.03184950013187201,0.00845718832385561,-0.010743521778089477,-0.03190689701994223,-0.030929733321791643,-0.00030027555741149925,-0.03795584946059787,-0.02121065149968072,0.04437638435621148,-0.03181846020356755,0.04377233048091014,0.05054143385434823,0.012482672517758874,0.004610222116803722,-0.018905803522882014,0.01023832349699545,-0.014670881705669332,-0.03204132020688159,0.0087163426506061,-0.05650323190622264,-0.05312862683091189,0.0036489452229948836,-0.013212160069254044,-0.013932463350114374,-0.0065062189965221975,-0.025727506396685064,-0.07867731167547098,0.02747892923618332,-0.04781679175817666,-0.007970952933450017,-0.030344746948374565,0.019738347712284703,0.06067037391623022,0.04274770922621932,-0.02187517219115676,-0.0377637312955619,0.03283327381052982,0.05605496294001664,0.045709595456352406,0.06057638982599007,-0.027077961245112057,0.02229494002241085,0.026888262624970582,0.017763413204012268,0.0004763487986449215,-0.0032547743432493853,0.019558368340620632,0.032539531907870574,-0.011548089724257252,0.04417195993358815,-0.008792670020308728,-0.017053153831966428,-0.023698647382052872,0.008964825151561877,-0.027498598220374385,0.04313318837930875,-0.04706563271787766,0.00711081805803297,-0.035513896518747666,-0.023224566558477728,0.037009329249828485,0.031322271420413994,-0.0441969351785311,0.03245325727805165,0.02198943296755377,0.002474065639017877,-0.041604381355040805,-0.07168303329576457,0.00030235942223471733,-0.003487925240267018,0.051632930538837,-0.034052632271790007,-0.015058989176241154,0.04941370981778988,-0.037731738041907936,-0.043213268865639136,-0.03841696272411242,-0.0021878597303832546,-0.0741974812746582,0.004168255709318839,0.011507578085778068,-0.06102103724214534,-0.002316561366281581,-0.003660562340305955,-0.011688991012667002,-0.029793494993135137,0.04910391306778997,0.007400631374464612,-0.05387035538036983,-0.0416194586954715,-0.01227067185898771,-0.04952764670649149,-0.06208020129667713,0.031192972991083215,0.023913925284038712,-0.018485358967519863,0.06269685235201254,-0.03208228920680529,0.04656235853613919,0.014665412412992514,0.02933298009876931,0.02225606822870399,0.04488487143996369,-0.014706404700175708,0.01068184259062107,0.02642972444880408,0.009799790998590964,-0.06698444829586853,0.015036923189072893,-0.007048893173183947,0.02462471791986513,-0.06741802914379666,-0.029086233846801417,0.015333037923910761,-0.07619915331322909,0.02364464293371372,0.06379028914488931,-0.03015770239979957,-0.00606968351590359,0.03618881607270499,-0.06267957320753341,-0.04859384566707842,0.010524878090763218,0.01704496685354943,0.013661959513954738,-0.0442387864642544,-0.005505904273347843,0.006375637212447978,0.034667392185795606,0.047464014441986876,-0.04295369634034367,-0.0035002282963458834,0.013963978746283483,0.012423981790097712,-0.07784293051505803,-0.003920693387712441,0.03777150154845079,0.05812866620432871,0.014224393845838904,-0.038023101756079494,-0.05950530621375222,-0.06363047283213442,0.005364982085826298,-0.0330500723966761,-0.011724855705931963,0.048633530121303045,0.023721025368208408,-0.0033259557560362486,0.0063861199190809875,0.0677051882191199,0.014361759865750667,0.012678288422935401,0.014322791512035273,-0.008356807889987472,0.012277281952758389,0.042564418418248484,0.004278446559906992,-0.007735973148873693,0.02563426302440157,0.046574884334456966,0.008755112644976751,-0.0069058814851586095,-0.012237089315942277,0.0618823015906724,-0.028230654390944385,-0.046589222163179754,-0.005925730908176361,-0.015288375253857744,-0.033310027968520964,-0.01467285376756914,0.04319687734410629,0.007888650049669831,-0.07607725954098721,0.039567027211450057,-0.0711825183801858,0.0056019317605403764,-0.021157156298634024,-0.07364536792044798,0.004835818225707007,0.029600460177141952,0.023542093138185925,0.0417213681244491,-0.005538173189076729,-0.05310419417396198,0.03247054741560251,-0.03006462884103032,-0.009381089368111835,-0.0046616468732636005,0.012831041165258638,0.05635488406327357,0.02505287366573393,-0.0073698285382051915,-0.008496015027387225,-0.019111595710716175,-0.01848869156540065,-0.06533430785323305,0.04853416695387682,-0.01981056001045811,-0.030771306672965203,0.035712217241725006,-0.027751104517075263,0.031819213501958606,0.031957506568224305,0.02044734324463979,-0.005107772470374957,-0.006318775648261479,-0.08407494870491368,0.035440792497594076,0.0028884894469150906,0.008022279506066937,0.08539134952529763,-0.018842893125772673,0.03142870554093856,0.006044083838838298,-0.03711841375252699,0.03555490448496357,0.030772218686414374,-0.016061413773553256,-0.01567381620550532,0.0026223539779362186,-0.037145793448649135,0.00845162914430971,-0.012316471964936416,-0.016999392229446762,-0.025945906913024588,0.03048905609504485,0.05588403365472177,0.04598359671154722,0.0038498189179856264,0.057865939192038966,0.005669952535593125,0.015184641510694721,0.09187768997022037,-0.010942638469513264,-0.010655040977474571,0.016411888517884134,-0.06770112737439946,0.027088531932680977,0.05812828007848341,-0.03296110484302983,-0.034674309048414315,0.00040709086908087387,0.06416244270777541,-0.02035981716221977,0.06720758103717087,0.04740937988798938,0.027231843453587073,-0.09285059620622782,0.017611396950739554,0.009465854654746648,-0.03260774197301699,-0.04422239689814624,-0.09899872788154977,0.06237062298765533,0.016420023308510005,-0.04250594239258846,0.007585611885675789,-0.030723451899679996,-0.004339871615847685,0.020312427725765962,0.06476168439695217,-0.07777057270152424,-0.036819302143435526,-0.08756458362652748,-0.046192295837434026,0.09209096038891106,0.005867729805606194,-0.022715603923418717,0.028839128996227842,0.011386014444047583,-0.03232687649261479,-0.030970358496509687,0.015669632539602327,0.03412045445020519,9.244673670448107e-05,0.0519340079590825,-0.012192704705969415,0.10000637963849586,-0.02189870941403684,0.0396698746772116,-0.08506328817629263,0.026286507122408532,0.028154816315846043,-0.06379349494302161,-0.056046742874851646,0.023245050244659983,-0.021223580532164627,0.016103267249137763,0.041619408880086826,-0.013219781291004838,0.011715883299346919,0.057409974968705695,-0.04669821937044547,0.022566711226238805,-0.03394359746980139,0.01153059345209328,0.08066051405045248,-0.02240919647465157,-0.01551360617845189,0.0015415931710187716,-0.01790460588152315,-0.005547679554427787,-0.04989813014934984,-0.012783226010705764,0.03751573278153524,-0.02958677610988974,0.013368287274669979,0.09219813557135076,0.01975877259712789,-0.04468252738514062,-0.07312763006151075,0.010648207383356494,-0.0025239473281377083,0.02583194145270082,-0.007115059893121567,-0.07079570457514937,0.059963233573817415,-0.0005701290103375037,-0.02250423188615418,0.0015974307661281465,0.008229058156730609,-0.0015448449081414354,0.002476097987166117,0.04387264112130999,0.0010868406951471319,-0.038035650016435975,-0.019386260670373863,0.0034300852087610677,0.05869618213102354,-0.0010832635135868112,0.02134532096607196,-0.02771784302685353,0.09139585172981243,0.033811294754592255,-0.030640468818809413,-0.007306732924264151,-0.04412621202096595,0.008783528543819252,0.03628183184566204,0.04521002909461135,-0.06083764742694123,-0.00036717369246047567,0.014210389102607883,-0.05249912479165794,-0.007137694470670141,0.0351520307681194,-0.013061771072122082,0.007573234896909798,0.021573501152780294,0.05110216434055689,-0.002380958925049002,-0.03158407093072231,0.06871078707916997,-0.03253725298145551,-0.04526015143357824,-0.043867179888252825,0.018061802573193272,0.017212801054230724,-0.024618355735557373,0.029306443245537814,-0.05679687228578699,0.028825554143809988,-0.028549199801455254,-0.05633517253623171,-0.01896330992557856,-0.011379106759792638,-0.07474332151262013,0.035493203405817096,-0.04177637325964886,0.014272750583273255,-0.00431001742966258,0.08957200396302185,-0.010006193134591796,0.044296096190381835,0.014641082854901696,-0.005538024423539207,0.025041252712284346,0.05599991746225834,0.0062060329913799905,0.026592962545753284,0.017671884223098535,0.0826926385237956,0.02214974048796648,-0.10000678088752775,-0.0016415293703002287,-0.007891877568336392,0.062492988822133166,-0.06014214138728113,0.0823935852818344,0.011631419018850918,-0.012802457156863165,-0.07953505377885631,0.0053061285213151545,-0.010745804895162222,-0.022460528348467925,-0.013099019253093949,-0.05866165146695776,-0.03303715773194817,0.05106480764807624,-0.028368669998964587,-0.024266242234770693,0.11670764124866939,-0.000981780631179695,-0.008517243269712154,-0.019774116666559503,-0.01674496184729417,-0.008425701206746369,-0.0689318003287412,0.03318443769749137,-0.03688611091625701,-0.015836423840365738,-0.014193479404368145,-0.051830720522253,-0.09223010759302681,-0.0003822584000105193,0.0907089566725249,0.013121083313244944,0.0369717758186166,-0.050761659841061985,0.020573125476121116,0.012364495116893925,0.014218434876005232,0.022490299054665014,-0.010175541038323339,-0.014540124181505198,0.0062218110076124305,-0.06429037547640991,0.04183470972376634,-0.06616774504061683,0.03469990838428897,-0.009199739525215207,0.0567840546336849,-0.06159228499523143,-0.0556256708082041,-0.02196121015690723,0.041447430910385004,-0.04562133610207472,-0.0618864050665206,0.022463565045727663,-0.021963842950451427,-0.06794838878327829,0.024871081232919055,0.04866867115209349,-0.0010669409376820383,0.026453490391866376,-0.028917757357820588,-0.008165341742793321,-0.0030681887000036673,-0.01265862905058384,0.026836221726890635,-0.02773994628729963,0.023662450455269417,-0.031043713133280092,0.04020015429385603,-0.0068000699782983206,-0.0480530313616423,0.0016665628703239944,-0.01438827436732913
0:3:-0.0004647437412755843,-0.023170440416550545,-0.004018199426712208,0.018049534199217333,-0.005898650592639286,0.0012400288298702255,0.01799802917413362,0.02985134876253899,0.012628026225869875,-0.10187124310869985,-0.013833452718738252,0.020987494200808213,0.026926768985546277,-0.03450618889584815,-0.0052040594272528655,-0.023840573320179255,-0.046328296036630676,0.018752655617176466,-0.04178933454606531,0.017490268359757075,0.0022276753332648937,0.029119778740878104,0.007482303771412228,0.019672385337919998,-0.05355565414647586,-0.00474296323375263,0.027831593110399205,-0.027606567458570146,-0.004794452439019179,-0.01635419476576909,-0.010898348764229751,-0.021212364934927015,0.0015858516576311267,-0.07318558676619263,0.03284111609367041,-0.044301123831943484,-0.0006629175830465789,-0.021693710502309095,0.036203944447716456,0.026948563527092254,-0.014240141785887903,-0.08997264470840487,-0.020320353744673423,0.03242961049144038,-0.07847076870222554,-0.0005274897276304276,-0.030116153910650117,0.06954687534281236,0.014280372292335551,-0.00819955833988312,-0.028258336903385344,-0.035317680565283845,-0.0210552376420121,-0.042949690798457694,-0.010704450982122103,-0.05244492975889115,-0.013479864670248684,0.00417617306008059,0.04553781510851691,0.0024926776227658324,0.07281450439547725,-0.05362222211762835,0.04565416444702027,0.01517884011702292,0.011005300858970592,0.01929374213653524,0.031208266284830262,0.052522808624938855,0.020944712726514714,-0.06623042962874058,0.04130392467894806,-0.0562061372228405,0.007722811306087478,0.015273108641017434,-0.04375959273119631,0.07290452414540634,-0.05259849313794993,-0.0394517044714291,-0.03571063578476207,-0.022171299161180387,0.018326492356825916,-0.026315810951612093,-0.038997990495457636,-0.0014168512373435363,-0.0245158978080524,-0.02412251775409617,-0.014867566634619961,-0.026222315215937857,-0.08442521672214882,0.06370407949698732,0.0012451308593388025,-0.003570422739429392,-0.008141292381679686,0.03448289794655952,0.027866937801744686,0.05011415755764004,-0.03645685950752159,-0.03409417623634722,0.027299928891901026,-0.00026839187954493166,-0.013929773416676988,-0.03591211807554952,-0.044720824521880094,-0.03357126306439725,0.00019691614220622772,-0.035205681538556535,-0.0621387870163906,0.055958598002910365,0.0013231037155035715,-0.012671913882745385,0.020120475571088488,-0.012913996968542538,0.016766018057738613,0.016494462608287068,0.00959818586159916,0.00978028588876654,0.0043096696444716335,-0.05692975418558208,-0.07053021030082392,-0.013748384426245108,-0.00372980566340927,0.03102586571432143,-0.08812960168671706,0.012006647920977592,-0.07346067569129858,-0.017370305258971847,-0.0165567232915396,0.006490058006103435,0.008790337406469086,-0.05017509233554897,-0.03556429308153505,-0.10225953504567128,0.049179495160053835,-0.048520207325146864,0.06480234058488932,-0.06592220649461344,-0.014766373405553363,0.060495931067089566,0.1019461984757668,-0.010952513232763042,-0.040590596713212884,0.01943497942121214,-0.009208759489891864,-0.012242787100211943,-0.05104611151826245,0.040542234415813866,-0.04193148478887798,-0.01956030159671976,0.002811474831796824,0.02728525313643726,-0.010844718888404367,0.005713897927378225,-0.04022012696945282,-0.043906855060841084,0.0053778257806924735,-0.0033701369274948584,-0.006861642508232753,0.0398924197759521,-0.016920504261812148,-0.005612739113792748,-0.018778915357360596,0.028661060363118055,-0.01603677216658063,-0.005827372696495311,0.0060502380365717815,-0.11604807764489837,-0.008060890247692706,-0.005739780380880788,0.017538538086007003,0.06240990498716418,0.027465247232609423,0.028805868446818015,-0.022317681935385147,0.044787034930767924,-0.03364664058025182,0.04120653441031743,-0.03691892366126029,0.03643956936741028,-0.006292925587403813,-0.030126258803763805,-0.05819813668079504,0.09928874748231414,0.02042343351965302,-0.030914139043474988,0.03670190449456489,0.08404254024963091,-0.03198019451224849,0.007260983696298199,-0.06215932549036964,-0.0076975474172802216,-0.02511243427085042,-0.01922710093431979,-0.02532106685633954,0.008078728303867034,0.01017466748533681,0.0516250855149076,-0.024388622997218258,0.032315107477577175,-0.002976813032474065,0.04619540084434178,0.037410945109533814,0.01167931282329689,-0.015728447135897015,0.05381589961213671,-0.020755432055658135,-0.048787140046805184,-0.03771855619944153,0.07497189096568534,0.04709867517841406,0.029957965413318664,0.014213286455348534,0.004936178040579768,-0.050195871068978784,0.017250974674117858,0.04733190971954035,0.015169982654566951,-0.0424273535675972,-0.010023411406908581,-0.008856580948332065,-0.024494922188009905,0.04086835395540184,-0.00872207065803011,0.03440536173046201,0.04459406137018735,-0.03885368307716527,-0.038111651768095806,-0.002966704275975373,0.07128545552726016,0.022951134175215642,0.019155076463312964,-0.029414168942156774,-0.009080016228719054,-0.011254098473775828,4.1176013695447994e-05,0.01540618839812238,-0.05138581583947562,-0.055706450645456686,0.04700651021347153,0.02716702552377124,0.017709407729308357,0.003920467861937169,0.02419376286675249,0.02713773653200731,-0.055758836218465536,-0.02396644997845157,-0.05117217560059846,0.03545684604075387,0.10458440069204575,0.05241472359354671,-0.02414410611520666,0.02758653409457837,-0.02711051436627153,-0.04330810856123059,0.01489364083665742,0.027294391471408812,0.02862137388442625,0.01613018136699202,0.006486376630126859,0.010198411902939911,-0.003092670098185749,-0.05965565496164695,0.015073457543779156,-0.020048771579022986,-0.012890936895875445,0.007992095030112856,0.03392984867804176,0.02294306964402628,-0.015174112195878253,0.006100381839094547,0.048538370740368944,0.034449358842378625,0.02499160223686702,0.04025149042857112,0.04287293886896287,-0.0872777983476383,0.026628352878119425,0.0608993289587396,0.00420659615722621,0.010443616804185306,-0.024991381322602497,0.03809547832012522,-0.011544848486937428,-0.025174657155562812,-0.012010306492722384,-0.033681048022733064,0.0042609419816370345,0.029184718833336586,0.012162649003497315,-0.008199803770583535,-0.053931843500562994,-0.005642219814383833,-0.01759746371145708,0.014332107352120187,0.035815267870571606,-0.003114766196925867,-0.006214226155676275,0.029082629971456393,-0.011036224446027382,-0.07162571964464783,0.01804928164311021,-0.0002237934011222198,-0.036222572686608605,-0.014417629820922697,0.04027053490017832,0.004964553228583396,-0.022909268262171534,0.008587689224354985,-0.002631508103681738,-0.027456470759351495,0.009981001936999198,-0.04413482172283578,0.01774169009221993,-0.02627791765110644,-0.016252304300526103,-0.030900073020101435,0.0008905104989377739,0.00015051741893911958,0.015427268090598625,-0.035031670465876165,0.037509449959598345,-0.00017995511419410017,-0.06438930532037732,0.008651242449841102,-0.05676983877553327,-0.029043627196919622,-0.039803113223963994,0.033109352788396836,-0.035983402372887996,0.033592583392000566,-0.05743927621184094,-0.030777134193631348,0.041565662686606275,-0.053834857458911006,-0.030284025050552395,0.02632764932918371,-0.02619351860091868,-0.017856299610185953,0.00037618953181778173,0.037017649056288876,-0.009643372032034981,0.020070303876019557,0.03557923939729975,0.06501136434081091,0.0015121267288819582,-0.03143993456686394,0.016173492137062876,0.026474905027802847,0.059811012799729515,0.0626940160454315,-0.04486868603139039,0.000901296858442546,0.015846794177037386,-0.06295406572201805,-0.042102912616937264,0.055094477241544274,-0.06214087061478694,0.04336161563464997,-0.013503913651906178,0.017964795594394633,-0.04938549961668962,0.004818565080263018,0.02860170889120147,-0.04405408040827729,0.0006123762715468524,-0.02809019373005922,0.050471413014301865,0.07532554995338453,-0.02583432474361928,0.058368559499448115,-0.07027924576940361,0.061344255833736525,0.05652177636646611,0.02527026778839553,-0.0289302692768621,-0.000862589518482258,0.0657358802128961,-0.06883048756520216,-0.03226952940685566,-0.04792663163317795,0.03531750454569207,0.02886989007525395,0.009131891592716249,-0.06980762425132087,0.062206565693165405,-0.04670225913571127,-0.006540685424720322,0.026542871654427577,-0.07275918355496327,0.017711667285918165,-0.08055357768626537,0.0649566280872048,0.015049179087768169,0.04229396724917161,0.02053500848574207,0.0059328043689462285,-0.030245723454645924,-0.005264427418007227,0.03610109788922489,-0.01220779951483718,0.03877064392656377,0.028452846903447578,0.02499775611990604,0.009885766821273878,-0.009437540471226212,0.04551919811912709,-0.04827708580593727,0.016906120636884694,0.025772690187691655,0.005805031322155402,0.07448643474173466,0.015384700882030413,0.016000889746658607,-0.049536741909078974,0.04227982587888931,-0.016712905913103662,0.04721409301537556,0.02989076114408501,0.04787610444274982,0.00593946738348717,-0.00048528620774414104,-0.03917825981167101,0.06884459157472761,-0.01069637425170975,-0.011797924465535006,0.0756747247994272,0.011920149216267772,0.010271620618630038,-0.018753653837212583,-0.042881969053727036,-0.016407561716558775,0.005248583870180679,0.002269477949394306,0.06762407744740352,-0.024695308775579003,0.0267332591700641,-0.059243338844887514,-0.061122683274006884,0.06438154016881427,0.007394591166292106,-0.043231125347274794,0.017607653752530025,-0.031227040738805723,-0.007140835671235028,0.0072064124861396985,0.021399956396241093,-0.011656010291949747,-0.023716189667042743,-0.01204057774271541,0.02994050613539556,-0.03690534620470464,0.055826403526191025,-0.03667932912195664,0.03251142734803656,0.01850736958381833,0.005373921581171251,-0.052419456767818236,0.013613024196836455,0.00900276993352607,-0.02075357946356525,0.041858936866641015,0.02743674023553129,0.011037092645429444,0.06923696567554698,0.051265219048354994,-0.04043459524424155,0.020022040173170334,0.02927183095522502,0.028848495389695535,0.029833004099340633,0.03554202030129855,0.01046642760764506,-0.016613660261575524,0.045647199634525765,0.013145887638512696,0.05906304547578834,0.04548536331765951,-0.018211425050313448,-0.08295957302654787,-0.008582056243758747,0.012523625339729963,-0.03872374426024657,-0.011198212134037636,0.014259851358836836,-0.02089757308058775,-0.012051962643685523,-0.022922475058450895,0.03802258956168222,-0.002292043554597468,-0.07180706412811166,-0.02751752071065467,0.0385855513124973,0.021427201809256904,0.014779142599084256,-0.047032981718827374,0.06651711155412046,-0.0011177839924619674,0.012030205907570294,0.00850992746202667,-0.036671386694899846,-0.02058453526453709,0.0008349159679072862,0.0034054080965289194,0.030369750679817363,0.00036111663902609514,0.005357073849859676,0.0254357568471129,-0.040652981715936926,-3.174915587356249e-05,0.014424863858893288,-0.0685974825489105,-0.013233030485501044,-0.04202542909907472,0.027689698928429415,-0.004956944076194268,0.011776456238112801,-0.008109104275161897,0.022608444009216917,-0.06154060176322514,0.00220738803505628,0.039833044737450134,-0.022298761332991197,0.05071279369461129,0.016981217458078648,0.04208401401549506,0.03444432706154289,0.02779064518076455,-0.03246063363906451,-0.029633270004633186,0.03358703859491113,-0.012880795295073475,0.013607531344929712,-0.0031030353383520704,-0.012852267156068999,-0.009940253958537369,0.06826475307773917,-0.006720864908770865,-0.006974153866640302,0.0032809390591988213,-0.04339059849189675,-0.004436843677210337,0.022680501950977334,0.022181048299238736,0.0020103936287438756,0.017160166296856016,-0.025025158422124005,-0.021977448031952906,-0.006387306241166065,-0.03313454071119202,0.0020264137563250047,0.0014012392618256955,0.002774177674393193,0.051672000513588966,0.017770983945148405,-0.04986277230906769,-0.05636073713124975,0.037045028566691805,-0.006704594873934878,-0.03512027228267208,-0.0249935416137552,-0.025330664946356697,-0.04940789540854951,0.022253313703834918,-0.05583196989884017,0.0251446972128791,0.022775610540688065,-0.041192114890977294,0.045080558103741515,-0.06304143918596876,0.005754079160506104,0.0390430373275352,-0.029831738399810716,0.005552762929805218,0.024472493821452022,0.0524190678545959,-0.006606527426060015,0.033533915412994914,0.014156365623031995,0.021288620575602473,0.040286914025042656,0.0428064522550868,0.005656788333344588,0.011926391587300689,-0.058777795928508215,-0.014182110320849435,-0.006782444429274978,-0.029995809363733916,-0.055857918396867504,0.009357603476711612,-0.03394991029608274,-0.004065114130094155,-0.006237517867208243,-0.06231096809874922,-0.005448102005861359,-0.025048110605596707,-0.0943773501626965,0.07967488445443803,0.00767396046163039,0.08084429943605405,0.02561012427690921,0.0012931378432074346,-0.02429228530063455,-0.03630948305697029,0.04446337849258059,0.004998062184536556,0.009754051859660306,-0.012053168262077998,-0.026707035415315918,-0.0008948854464650576,0.01085511561098925,-0.07676350302270134,0.03379852625820213,0.011663079506462443,0.010915358969768214,-0.04100498299607891,0.05637596727053118,-0.005868779883560293,0.021271261196985875,-0.03463913003275232,0.04006314412911928,0.05107649574690946,-0.023672542006607136,-0.005178399145528045,0.04522506978160313,0.018537868665065693,0.056478883263768855,0.024319874416158658,-0.032471938534765404,0.05516126372185304,-0.003908608453913025,-0.028776170111016748,0.035978707140089196,0.015331816133080526,0.10437204626644497,0.010565060095972504,-0.008197399898164556,0.009299491750019631,0.046274201096650314,-0.0027586331422503924,-0.03320075988169668,-0.04868419149022492,-0.005677841680024478,-0.0281154735430709,-0.01347189505068998,0.027903030886987302,0.060579126790941885,-0.0344542525000617,-0.09237111882691326,0.04050562792954863,0.06062703971954804,0.0003240547154233341,0.04838538027356859,0.014199644209945276,0.0010888928491562492,-0.0014218810784012877,0.007223228267212102,-0.05850124436479306,0.06097497358599272,-0.03905257059174622,-0.012923281742441995,0.03278317564751149,0.0021368525273059605,-0.07574838301210321,-0.01628930694126254,-0.008373405901715718,-0.07209394247057292,0.012612060950687627,0.05553160258118376,0.007561047276505752,0.011279808040496005,0.06333071880186136,-0.0465377214517765,-0.050329014230205756,-0.0024850292123811965,-0.022942914291716944,-0.0005728420050312012,-0.041707887703627516,-0.025810929899839956,-0.06756228391178538,-0.00904002892826409,-0.01970770714288371,0.008434703974245809,-0.05532656280935064,-0.05047932675043907,0.011662596428574439,-0.00970249317778714,-0.052855467066043216,-0.060925605990018804,0.026697733966110707,0.03488736049440395,-0.021967914561702693,0.02166135795044664,-0.07388825796671337,0.00836102465483187,0.01597087388658848,-0.012325845628313967,0.004222699574675431,0.038652787502679864,-0.008550961459650556,-0.07047391497930562,0.017078804006591536,-0.053010309225314266,0.02754513421347371,0.02235680850247138,-0.013670919292391547,0.01989134390218942,0.012412928592516123,-0.022999973048859285,-0.002078304767722789,0.0001241600289767655,0.009942371140159894,0.0006879814718597126,0.03982246057762192,-0.0012605529252182272,-0.04517759378550093,-0.013677995479633874,-0.010371060651485462,-0.07832829439039217,0.027313742799950528,0.03749335656602349,-0.026109104336787103,0.03823063069101901,0.06819037094849066,0.03367663153972598,-0.00039889098567450886,-0.025152692133987145,0.01633167099066053,-0.02679857177066458,-0.058515837000368914,-0.03731567594299411,-0.054399291973179685,0.015997923593673306,0.022762833192247815,-0.010090749786018842,0.05491771581416114,-0.010688854211638224,0.0001283182610703296,-0.0011119170583266005,0.001994659312557326,0.06177046865809973,0.037723354997976466,0.03221308586740016,-0.019790355281751475,0.0340198420009317,0.01374796954684759,0.017251538015455786,0.0038467743753685993,0.03375175930696345,0.024708966480673597,-0.00015333296219702207,-0.05778009048108451,0.004876131351673884,0.03802775863484977,0.037741797695115126,0.015290209886380407,0.04515413447202461,-0.021764757648549567,0.0020175028270777505,-0.027776103442055923,0.049155177681561066,0.019235649841291537,-0.010961375979490179,-0.05151634872944126,-0.04194110139667914,-0.03345127222177292,-0.04613715535649283,-0.0037193931531175166,-0.029070543438852188,-0.012162335230331086,0.012675945139353282,-0.0049090760336567745,0.014228611838454249,0.03300461601343527,-0.016932777331067673,0.003655800749134606,-0.024580735708905038,0.0047845395036450284,0.004621840742198077,0.0009028968705058482,-0.02673497932676079,-0.038305927731338084,-0.0200818619146303,-0.0021320915963345256,0.018977987091312303,-0.026597459041208377
0:4:-0.004135910929024773,0.014374830428722556,-0.01178374896622243,0.026898548334218363,0.044958995597112396,-0.03443847544477188,-0.04897673552657687,-0.0009428824717054581,-0.026789224833356915,-0.041089806926090114,0.025238537333112647,-0.01346185114150521,0.022019953532123188,0.0072270286267165475,-0.038108084679419035,0.028867053382431326,-0.002753552853394727,-0.04041430108528805,-0.0066902591321889825,-0.008178183070738665,-0.001375269933382449,-0.09732839242076224,-0.016641129211086268,-0.07198446780076423,0.01376431823626028,0.01887772030041606,0.0072650975756379035,-0.006394983364736996,-0.051702344874578664,-0.009520147406972797,-0.0706330310769534,-0.03652027615013652,-0.0537946185360465,0.019103761243898447,0.03249671598916793,-0.0020323193848086956,0.05235301003386352,-0.014283885079716558,-0.04102772948138244,-0.04660146765409019,0.004956669651102477,0.03652804557230557,-0.006128503690099524,-0.02488793216398262,0.03154482123287385,0.0005429812718376302,0.02046989617180755,-0.05449004713317847,-0.02809000162012135,-0.06198705652292238,0.0019449205004060956,0.10347729118353625,0.05142821752213087,0.07282310126267223,-0.023977344458729986,-0.023654307073037235,0.016151118058081053,0.00856128198274804,-0.01797132702819346,-0.038573202429306806,0.030161173276228914,0.035229491183376434,0.02637653641526999,0.03658449983784238,-0.0035848512979721955,-0.014587410142947456,0.02614131380036859,-0.008922301264886296,0.03819916745514213,0.023948727397124222,0.028830872791821407,-0.0009945320700766817,0.02156098834432618,0.009323668088803624,0.0013009956067693332,-0.019246328947935872,0.006186586978691852,-0.0022115470706540368,-0.058411374336576824,-0.0338025487424837,-0.07429288263335157,0.016947972631246935,0.002299586197130231,0.000569261351843544,-0.007504832168670928,0.03034635053289794,0.03737653497844978,-0.004785326729456307,0.006109068956072718,-0.030144382460274677,0.051045518654038065,0.013356411349282579,-0.039081715662258196,0.008097193961500168,-0.01242701209019605,0.0058025702013438174,-0.008383851218456778,0.030222042808390966,-0.002013525631576689,0.012716161084660215,0.08439468695075204,0.050753010328337345,0.01382414293187077,-0.027329262686883845,0.0048863384895433196,0.014597601678009447,0.03671941352659011,0.0236299161425943,-0.024924464448594447,-0.018715963027108807,0.07948224417027615,0.023860656441481044,0.004285056470806725,0.024275242165375712,0.03682869692592167,0.015702888939342165,0.03232169874726538,0.023915585910079983,-0.022558015705100035,-0.04551248447549925,0.03687556772372811,0.024147458380355872,-0.012276746123180195,-0.052187805369424356,-0.02380141009534155,0.036768853462101396,0.05090629678918173,-0.03522889650337218,0.08095535574779388,-0.01564866409293571,-0.014354210351155592,-0.014550450648977685,0.006112224266379325,0.00794251309379047,0.00748141914438794,0.012945177147947124,0.02896620490588049,0.024112405378619653,0.06631557857370934,0.054935851194995784,-0.021049019061656814,0.017455956919554903,-0.011620392519319938,0.019187462908724823,0.022655701539023323,-0.04447366448979664,0.04206004773119636,-0.012490641360891749,0.04351940814552085,-0.009484206063722187,0.03888343632783184,0.017492725750899305,0.05074288362261465,-0.0003837389792348679,0.07334898641687217,-0.01286807081031878,-0.028087048390440426,-0.001476901429062104,0.027101078836914885,0.014370073708388824,0.005973241937861473,0.01458430529731145,0.039804216737813584,0.03847756002633015,-0.0017908162170533677,-0.018617905727734516,0.009465030797043578,-0.04340670065369767,-0.028149317293641205,0.0007945161803520615,0.04512795096460919,0.0020926768882603766,-0.03210702219982498,0.012217843575010363,0.014725034001049438,-0.02447571037150943,0.10458118465785701,-0.05478934838110655,0.11038900892349991,0.03562883246934241,0.05196797871063122,0.06362843021077551,0.05080775493074182,0.045150381505311935,0.09857329534909177,-0.03448715713295591,0.08435021780336423,-0.026594899042046403,-0.0619506856190958,-0.013987654797600675,0.04575515275405522,0.0007859785335273536,0.0243200079183248,0.030512384290051764,-0.006028367002320912,0.0492289146032917,0.001634407467538697,0.018554762250314785,0.03269357161582053,0.00242255458975854,0.043426097657609665,0.06637581329843498,0.038363573223309,-0.04159813260803647,0.01437636938203783,-0.019831737494840948,0.027833305107371493,-0.05475317192462896,0.06292135817268743,0.03140265119445746,0.004592807801102489,-0.04447403242014826,0.042974125745996176,0.031218896247685594,0.05676382580782466,-0.016969947039239423,0.03223039406856065,-0.019555379869386765,0.014056179407541261,-0.017559091670525814,-0.0065059416520818975,-0.01667793456863033,-0.05791945581884983,0.00181045277942942,0.05064800545753831,0.005017742150771033,-0.05818475868676477,0.011135137376594873,-0.013303363222966576,-0.0029304181375669302,0.006018242326067597,-0.013616959951365233,0.07377285018261495,0.047620467071594196,0.029969362284367373,-0.0050267414645741365,-0.010313381647012882,-0.011014346765053957,-0.04302490618224814,-0.03498830752825219,0.02571055873505476,0.0025761406532218466,0.006811736006431127,-0.01924110407163589,0.09793549076816342,0.08879323145816864,-0.020759736165488017,0.050200388691977134,-0.010708674627158231,0.01953400616300922,-0.04199555519811581,0.03458487408169391,0.02598731758829017,0.0445113340493643,-0.008094664559543465,0.06690586167152185,0.04416550054729208,0.021493336850639633,0.016946657342994127,0.039108529570406766,0.0037083703704764433,0.03346276732344577,0.09805580016924843,0.06476789232782626,0.01943701989206806,0.025671683132469682,-0.06371792627224282,-0.0076505525572027645,-0.09607002209033537,-0.030519270281654822,0.095988357469644,0.04573978270443287,0.07305262209373359,0.035773344710663,0.03159532805386719,0.0025871344132480587,-0.034714202523385584,0.04322191037093562,0.0027539310005692606,0.03817230191717751,-0.06729255282520392,-0.011974834878785425,-0.02488006394433489,0.028910589743954166,0.009944285720743882,0.002323567011945762,-0.05973711071362628,-0.015567339385282972,-0.030506379828548837,0.02306215298854383,0.05373081609318724,0.024027322949720497,-0.029666152589831893,-0.001033530575873278,0.00600401155441571,-0.017003807418604557,-0.021443012579280416,0.0384954086395033,0.04620293959185218,0.006761126482122871,0.08104577228769612,0.015999644274126545,-0.03340725147808054,-0.045805476877906114,-0.018869885194200346,0.019741758659171833,-0.05693602447867342,0.0027111931978582625,0.03809568064449463,-0.07913343777562627,0.009344809767184896,-0.04704014449915226,-0.02180333310173542,-0.05472373155813595,0.01881905080973409,0.042075416481078015,-0.009783728184898541,0.005796161816485226,0.05175084658179295,-0.03790059120067716,0.04400665526746998,-0.039464157553011366,0.025103463876940846,-0.04427262785349229,0.002150464618334046,0.006498678469406621,0.0527286625841048,0.021384058343691836,0.05202758154473297,-0.05493862122365747,-0.0664590969840795,0.014719949640286174,-0.053114873810295275,0.07060526856677714,0.016375864703641604,-0.08366294655592106,-0.013839370199256497,0.05112299868591539,0.010189658704493978,0.003122218263709435,0.031641817313732584,-0.040433435980392125,-0.023832991977866314,-0.03720385234298399,0.055915520377561236,0.003127793805464394,0.016942524528939906,-0.04115516882478446,1.297196360729174e-05,-0.08804416379109922,-0.004535493003141141,0.013194263728424034,0.04679835339620692,0.030467858238347502,0.040802061231634365,-0.028937807257421837,0.00011541068190501162,0.0015746857030824917,0.006625067797709564,0.029349108448949685,0.04765392681496713,-0.010544718825033484,-0.05068505957295315,-0.0075502208988802244,0.10059699992368698,-0.008365874089527027,0.006885424556737435,0.019791642592443513,0.05096479375186176,-0.03054387712069914,0.003527836479095543,-0.06468800894273267,0.07777982197126175,-0.017006153701095247,0.0016669105418383654,-0.04181783492180454,-0.010632522014883568,-0.011273194122885147,0.0153926561461176,0.06593459005714354,0.08788697411368859,-0.012929623875639675,0.03958657654260214,-0.009578375106371047,0.032076176533580844,-0.050637840773261576,-0.030038289032209637,0.009029352407494124,0.01585783795494584,-0.0019527157704051828,0.07167462041717819,0.0018347503794140594,0.009564048676134604,0.050595990790544464,0.0022366678842623603,0.013697014289907323,-0.00465747859747629,0.01753375100200682,-0.10930308101003525,-0.06428113209717674,-0.06172691653454466,-0.04683575879945684,-0.07286638654202987,-0.0025096600089985223,0.007008209005034622,-0.005240651422843447,-0.027124847247825067,0.07889154864140172,0.023887243390803396,0.057121616080773055,-0.021794785744238005,0.0012254901784729585,-0.011704659451310193,-0.0664211056206309,-0.03702609222648256,-0.05502881185760601,-0.04194323221833223,0.030332127874593495,0.0407661863705795,0.0018556500747710953,0.027101449077598053,0.03712213992527357,-0.008548866157150243,-0.03858860709404681,-0.02105266061107801,0.006318986192360604,-0.04001330841689372,-0.01854154565521724,-0.007019421498146247,-0.006239217047760351,-0.037906214100334915,0.0343836569233631,0.01510753682126126,0.019392899308567677,0.04884690844539066,-0.02062724574258955,0.049411563505470664,-0.010906565268214673,0.012551289720532646,-0.029381669023526603,0.020098095395084094,-0.06052925155941884,0.053170996987345356,0.032132716019236264,0.02315343913899271,-0.04040344967390022,0.02530426626172712,0.0057273521153272475,-0.01442190335423897,-0.009459697219147451,-0.038115297200942026,0.02966612281817733,-0.03479405026539137,0.021064013214399564,-0.0638461447825352,0.023162980158838036,0.03913771396049523,-0.012444141994471152,0.03859510657916628,0.041480824284129005,-0.04163752843354202,0.026094096815831386,0.022873002532814306,0.0290060525000781,0.04195510885891015,0.05337022307843649,0.04127815246487203,-0.022538274293595423,-0.0127638189298132,0.06476931648998759,-0.019339207005228166,-0.0732206962570573,-0.06663045314313273,0.011578449466666522,-0.024684966612269148,-0.002263794759710071,0.06512402454223504,0.028683533247515436,-0.014085864570974079,0.010244208061232654,-0.009683731860188413,-0.09418617418814915,-0.007656942026056376,0.012375702928917903,-0.013888670494532688,0.011789752037796572,-0.034513337325805304,0.0692625108688087,-0.014336306070932628,0.013838466014412005,0.07610876900878172,0.04642861128879127,0.04037301338338154,-0.022020173703788226,-0.029840000513053605,-0.00341583222746387,0.08296188620311896,0.0018383910221308787,-0.0028156649349197426,-0.0008450864815986579,0.017499783095347714,0.0010945494945120019,-0.029346814919103955,0.025451749165027425,0.0014212247858242345,-0.028658996058160063,-0.057119375736585806,-0.0348526924643171,0.012596240344479804,0.05172587064048066,-0.04785094844198549,-0.040737154607938954,-0.005061768904540541,0.032505219768998034,0.01717234199488858,-0.003446035039730439,0.0246993023676084,-0.009704674947612091,0.010811581684268394,0.036168523959593434,0.04802403500722348,-0.02558935102166738,0.032305841742019094,0.01237337435513703,-0.03564360623682355,0.05707059552710817,-0.0042748293678311795,0.0531960231889905,-0.00781685294902284,0.002334373314269675,0.003191545869197472,0.013978681690224943,0.015389957632539137,-0.04146097836871044,0.028473186811608514,0.010822631898461228,0.033157553509587316,0.034149436350262435,-0.039086084516955596,-0.0005553738588511978,-0.02051913269687046,-0.01625328295332209,0.014306348889759294,-0.007253652906292497,0.0620583576425385,0.07926554809019835,0.021968067351174892,0.08095270140345918,-0.032773610566116065,0.06597870105278596,0.011005886694872437,0.004396488781949351,0.020011674224878387,0.008914686550412696,0.08042316736462868,0.03066137093867931,-0.01064374102423504,-0.0536487027126856,0.013296057642390903,-0.0840940635890634,-0.017494181892183457,0.016460259623108476,0.009579895090617978,0.02105177867931405,-0.029471449304436785,0.054427620936594236,0.0001804674299414077,0.006356127113676947,0.10468404042878963,-0.046239352273267385,0.010072660503912409,0.03190804665764619,0.06355082797886595,0.0042988034219257594,-0.017835448655295107,0.051420514634937214,0.03718022195577543,0.003958595855101152,0.0024283139224218456,0.06311402678734414,0.01568760809583184,-0.003318014765458062,-0.005655215258579241,-0.0047863704843774,0.08280724494385486,0.05270318144974458,0.015233198667123448,-0.042413383670730456,-0.07200003706480453,0.012454429600154452,-0.024995648569449042,0.004515624589765768,-0.0019582303015458703,-0.07836024620508937,0.03553865885012474,0.02855459109236236,0.08451933232071836,0.06643550251057775,0.03387401066595082,0.017897552450529042,-0.002637297282617028,0.002653196697424839,0.011226991076654192,0.02467610055370755,0.06929109368016588,0.07442756296340614,0.06294959089388602,0.02592939142802833,0.044005479134061325,0.03725979753686534,0.06229926735929325,-0.012489737160413437,0.008566411316923301,-0.0617556209408666,0.013108754566507159,0.00857761676598599,0.01845875260260757,0.03900605114503967,0.03185939749478745,-0.022393240758009372,0.04445967784183042,-0.003204145098248804,0.02650821888502081,0.012122434626569636,0.03338518369131738,0.04611130404866281,-0.026562657643595423,-0.006482725765718183,0.036791210458318284,-0.010564692705945582,0.06189979577266699,0.056095006361415296,0.042745220095297236,0.0024232927881742547,0.05459751671935468,0.01566265870419887,0.01182565539702275,0.055672333345807845,0.052841174212734744,0.016398557474435617,0.01334408126926753,-0.011148187715206167,0.03811815287395817,0.006438484197249927,-0.0006324733888910528,-0.005483860472182875,0.012492998033252737,-0.03543812451759045,-0.03885608356059606,0.0016163219886423396,-0.028880297082519178,-0.03973251723885505,0.025162732242038775,0.05134699418074735,0.04549624407554577,0.016013064513794802,0.015368873537138197,0.04171137496957673,-0.006703476325991964,-0.016603970115060995,-0.034779198798545075,-0.01638824533412657,-0.014906647349665795,0.022432695611454168,0.008391589283591046,0.028867031716038587,0.02023357139597018,-0.038803676918339414,-0.020204707803024212,0.03630970996713011,-0.019931322450611542,-0.023026302519702863,-4.436882314373175e-05,0.02917177970040247,0.00921509881806929,-0.04112760012168155,0.003482553712623423,0.010114280869582657,-0.0527318832869854,0.05819064337602791,-0.030799371194118536,0.05360612546745027,0.027755517670334812,0.021286479692880125,0.006636782074001097,0.03805752816569899,0.002864698561494518,-0.006234944946580041,0.0753843827953737,0.04459661245827917,0.043667411498616276,0.07642927644748997,-0.044449729347558635,-0.06661292984381444,0.057867737222056306,0.01893666944341104,0.03399742829368369,0.02085976019664576,0.07403211257063845,-0.08797451558744428,0.03210671779374975,0.013199754398108767,0.0076015260819068805,-0.012688822757642826,-0.03850616160278585,-0.024053550223087448,0.05528442262340827,0.010161487429102611,-0.023533447190733373,-0.05144997288544085,0.052269529906506774,-0.06515437883629097,0.047169000788301996,-0.04497302539539039,-0.0019968969339837894,0.06366130430741894,0.005841678290000707,0.0015600630034620126,-0.02818220591919736,0.033300615628136944,0.048023220815425836,0.017269447504635375,-0.004476614639381976,0.00017083931685871515,-0.005677950782359143,0.029176239505109426,0.0222403916506611,-0.021352541825889613,0.0218954470206804,-0.029503081239525646,0.026155894436197268,-0.003747977561197586,-0.06356394953161464,-0.0579953241991332,-0.036167733320833645,0.004133255781514377,-0.020805014584590487,-0.026459160922666133,0.03302604818645177,-0.012508216635213454,0.02596042509903876,-0.013258923429648541,-0.008621363673879261,0.02158397130309231,0.08345911917344932,0.008092115886973948,0.039399994854669176,-0.004088620703807681,-0.05434673952460576,0.04396847901614462,-0.002785325682261153,-0.027537096662796728,0.050180818631761166,-0.012916819048327123,0.03880950288998132,0.023189485899413203,0.021760819832155952,-0.05829084478096372,-0.025094769006952632,-0.011321632868972047,0.025785458844469037,-0.030370257362758342,-0.003069897401685743,0.0186192866438501,0.02149968855958727,0.011528505799381672,0.042833071397611694,0.006902589922760328,0.036010057021872606,-0.016332709716724514,-0.016063309237701186,-0.005383165997709405,0.01565145250594279,-0.007839860898484475,-0.06119558651103129,-0.055944347561180205,-0.09916860301393045,-0.011527035596301208,-0.014472876215359032,0.026978218733408395,0.0445020942325169,-0.0150775527985882,0.04671360866798959,-0.005547302646153878
