-1:b:1.3653930073792424,1.2341563707655803,0.9502196554175906,-0.26254851693119363,1.5496886747031273,0.6668717785016784,-0.3032974384389937,-0.12684212340988132,-0.7928864086173162,-1.8494826785216882,-1.7924043254345268,-1.6245619625655108,-0.34581652659521456,1.0295861200671033,-0.4912578749041329,0.2162857534464761,1.8718693931516734,-1.3986188286709411,0.31191176249556546,1.6457185215645753,-1.9320684134651973,0.11179651079834953,0.003518915101042673,1.3201878886483465,1.2381360649923037,-1.2659550158291122,1.4617639713787873,-0.4435139840590039,1.9788143794397746,0.5096406330822983,-1.8442508346372941,-1.5229623250478745,0.8779179701043252,-1.7331434012551306,1.400676596522054,1.1818838012886475,0.6960333247627383,1.4208629450751211,-1.7092424774050836,-1.606619289076324,1.3776989363876693,0.31501844324569844,1.2655662717143472,1.191303562244039,1.7075991910443475,-0.7893804864840647,0.5962098686460356,0.07174430739510212,1.8195567884296175,-1.6463252446529677,1.210771335869216,-1.4502811320884494,-0.9205172925245835,1.251705048587557,1.6326042727117243,0.54638909945114,-1.4797510547142227,0.068964809577893,-0.27695895684709093,0.033145820020648496,1.135077529004968,-1.2138691205270997,1.0214053583025537,0.3989288379652184,0.7723448175634187,0.9299749585361639,-1.0000100169399704,-1.6659631128677144,0.3793554156637385,-0.49621042537760335,-0.7378387660814228,-0.6205348437487668,-0.8749914614846925,-1.7157603919439963,-1.3655153485646645,-1.9685739672008413,-0.07887495712369653,1.6850614486032516,-0.7035898468973599,-0.07759909680928077,-1.644750184841151,-0.3715790033601625,1.9958188789855469,-0.6407657372506343,0.5565856854423669,0.0573839164176656,1.1506561265324375,0.38678380087020714,-0.21693345441101122,0.9745038699003024,1.3280138760657796,1.4260623837111626,0.9447552916999238,-1.7014187389609465,-1.1573167505055348,1.0922138072275491,1.7195120288038261,0.7013315273986608,0.9304416565495612,-0.43417856788358405,-0.15469370466484453,-1.3813662488385634,0.5435198103284238,0.8113574399951959,0.9600507208206353,0.47150306803223113,-1.1907898942785473,-0.5074507770928942,0.0409539457567417,0.9150208031024477,-0.4937139778385822,1.9787615940963426,-1.4046264086822768,0.884633091190949,0.4562868135403306,-1.649463507666233,1.4135988847334777,-1.2455002593047637,0.18988057868080585,-0.4263866608887669,1.5093202374634664,-0.1228715861212121,1.765199845562339,-1.5390119545158925,0.9891101577159236,0.8150295561923229,-1.6023086009682048,-0.2850753645640147,0.6550799141130443,-1.383817214414162,0.45686217600507234,-1.2263985651046045,-1.9448203021094481,-1.7728918739041166,-1.47662751970913,0.6867679261087587,1.2946496034282025,-1.985691990951329,-1.4558094659645993,0.14896457908444732,1.715087693166832,0.22721881373460232,-0.3851459606626415,0.6237645339792542,-0.3142782703903848,0.44493844138738636,-1.906630987860002,-1.129889066813289,0.8682702335100131,1.2822695767255246,1.835684585836072,0.6730122564593451,-1.559010317408223,-1.8862212730761128,0.300747585352607,0.9969865410303115,-0.026983555211688312,0.3842354619913905,0.12412541083502796,0.618376927100783,0.796955507868832,0.20442684489306384,-0.8240610160063839,-0.3911121397950309,-1.252712797883789,-1.7201487216961207,-1.533248268196119,0.30368698307896713,-1.8848168828737144,0.2960101753053827,1.3904986571424078,-1.2368329524534398,-1.050318278555249,0.23919409475226186,1.563238147385422,-0.5767777819315677,-1.8757609933470047,0.664424409477514,1.2603191165424517,-0.817941493323764,1.9498283119475839,0.9930022716310896,0.2259536015990393,-1.7752214070304335,-0.5075435890677245,-0.03366488837022962,1.0794087968542372,0.8060662530327786,-1.2427706744464055,1.2330626379928944,1.0178254706639462,-1.1077470247522525,0.8740165348215074,-1.6851327913566232,0.007616258445767151,-1.746980890653759,1.760854370042627,1.8808829782829553,0.9732833019738227,0.6481009416824819,0.7056939274514863,1.237480817759044,1.296740114357963,0.7634938113469527,-1.9476243093105858,-0.7494473068570862,0.24332463704594093,-1.6324243395574993,-0.2021380807971563,-1.1016964570931758,-1.7305410424046936,1.599878129071292,-1.4302718469814266,-1.68352292682779,1.7273913895762443,-1.3684405286309693,-1.115753419905356,-1.6198666788818876,0.7219812533443833,-1.2777127949329854,-0.3456127997451326,-0.19007402486597733,-1.3918093898780644,-1.199730896891149,1.9721353794794791,-0.24700396222046733,-1.6550715379659846,-1.0170710453090135,-1.432264007292353,1.3149787770839325,-0.22911420457697235,1.8477744556399809,0.9544285776885956,1.1963041609960121,-0.8884121335024266,-0.016675919186137162,1.0543060491964438,-0.8649655416541333,-0.34945994463291125,-1.6580893904416545,1.4799710456689106,0.03279006334761538,-0.10986040974278247,-0.81984554972757,-0.3798681813337812,1.5659866293936855,0.4736965403157731,-1.0052249065792784,1.4653486776667783,-0.5791965905873522,1.683299946590667,-0.2151393606251083,-0.027784957473591408,-1.8253735436657794,1.7357904104957633,0.14703646692311803,1.321816311377505,-0.019172156418093413,1.7028300681667574,1.6879029447380949,0.05920289745802597,1.561198370709244,-0.03414042906071092,0.9339227984736664,-0.5534757368845618,-0.3403286416708962,-0.5976198363294536,0.09222040223734045,-1.6785174625859116,0.28972867462169877,0.11270921945507571,-1.9783758311953719,0.6047724158643384,-0.37090757521586276,1.2582848835984934,1.8756086011971056,0.7596817203382529,-0.10630397332399039,-0.1381874769293748,-1.574966823839981,-0.7891709628787226,1.884843404958672,0.10939271963177614,-1.8215729305843364,-0.7685114366799433,0.2026657065302385,-1.2991371389218247,0.23009884559105842,1.1148770077134176,-1.2135940670481697,-1.2778228929486786,0.9846674321561091,1.454736604103411,1.0511535983360318,-1.3205069023234253,1.1699645073626996,0.8792727058327445,1.353198162601223,1.9703478099512677,-0.4486543993597662,0.3549629273229329,-0.6452765365396925,-0.14229778537086135,0.5559509162135922,0.9045176008162138,0.8486939474999734,-1.0787327739968955,-1.6076578263819634,-0.5102086699750741,0.2877015062834423,-1.1218049569218103,-1.047872666628678,-0.7257941594338886,0.49791567152218463,-1.188906112892206,0.39929350551667697,-0.6760371179893602,1.3697226083324907,-1.046482190596294,-0.887861200045652,0.7395154443236721,1.4553801948390688,0.28829697083780587,-1.4366273301362487,1.2063930631558843,0.32199276267044574,-1.8363176121990978,0.39904104912149274,-1.9309907396162873,-1.6886954254568156,-1.8606863404833467,1.9536111426223977,-1.112103184138117,1.5337090791027885,-1.1572899924617186,-0.3028849404674557,-0.5720277845883429,0.6348056339015199,-1.0226358533256148,0.3877266373878959,-1.6350272871738625,-1.822842381388241,1.109101966534715,0.4400496843632627,1.4152150845719638,-0.7035129504555824,-0.536569378709462,-0.5217039273052085,1.5665582718422357,-1.1340743570597094,1.2445359994297314,1.5048367857738183,-0.40732208873560954,-1.899210595735323,-0.23446622906823605,-0.0911040681925697,0.2453686720023231,-0.5045207063657389,-0.16772617471402432,-0.25832279433260114,-1.6535031072071225,1.2232396131182661,-0.7419821990793084,0.20537519926560605,1.6285460911113396,-1.1572913728765708,0.2565765006421955,1.5835750846174035,1.2098171931968098,-1.9652187577365399,1.620849532738909,0.13673415460928526,1.13485860922821,-1.265569821480844,-1.7828652381399808,-1.7574514937902066,-1.454310784627594,-1.0541438903142124,-1.7412990785501634,0.21665480299343143,-1.0591992885423096,-1.7961610217163315,0.7343291050863586,-1.9300026578637035,-1.6429806774578615,-1.4110241646199153,1.4009905023032614,-0.5071597940979342,0.8020323392877649,0.5414016377515072,-1.1831215502422494,-1.121688898489003,-1.7160257443112434,1.6592734087770664,1.5489775269911947,-0.7306411218392392,1.4902136209504582,0.406025702970946,-0.8050851767116373,-0.1252415572532923,-1.2149300934869651,-1.2291260378841566,-1.9313645407934614,1.0966070871115923,-1.5220083925503785,-1.401856163323525,-0.18380936963657013,-0.4289847475535175,-1.7808056523501437,-1.0311115204336865,-0.32750620626904575,-1.3934044166598554,1.395087767642705,0.9039118788687258,0.17047068730135867,0.6329567972666589,0.7570506376699042,1.581546587570315,1.0223976817521,0.09529552532931773,1.8986801772287365,-0.8505692758246683,0.9024584351244813,-1.2599650874249027,1.0920126664743304,-0.4126151252041045,1.9611441511662384,0.16445699808956615,1.5775521424241723,0.7163271879466837,-0.5238625348124609,-0.4458559974040471,-1.8466129407814362,-1.9365468162138075,1.6055913782217488,1.7847841627530203,0.15894395821666665,-0.6545576931358271,-0.885171642181271,-0.6238780194018823,-1.1402147303017962,0.7350028760806758,1.6919907955043385,1.9775338917463476,-1.6035244017134174,0.07541528978270465,1.0858348369627675,1.095426799966306,-1.3618939253249107,-1.72285985510051,0.6563986594064414,1.487802661848929,-0.3043216910593469,1.3814379094983527,-0.27508366842576043,-0.5850943414043878,0.011239121401280475,1.6442594117231335,1.6869793798437691,1.1781012196530167,-1.1674985783659428,0.5298330754427935,1.0492802310367255,1.6273898734304708,0.7945998295412671,0.8140621689886196,1.384048377740409,-1.2676043186825208,-1.0988384401379037,1.7201489274114345,-0.43829121294882584,0.54257985088581,1.296131875647182,0.6140711598983132,-1.8065238467016678,0.27092538429707286,-1.4010607614405792,-0.31339915151283476,1.4434810785669066,0.044603341028042934,-0.5962739149566564,-1.0396733147718265,-0.43633772845832247,0.7563443464242833,-0.7593621774524857,1.4098787842739369,1.1243224129669211,1.3746298143275109,1.7880602713480471,-1.8555054966973663,-0.8935253875767134,-1.833196352486679,-1.8921087586382246,-1.88741222156371,1.4950478859807457,-1.7982227132621613,-0.5776702974447182,-0.9068348610572557,-0.3098049506573203,-1.8267897010918959,-0.17462192256354186,-0.34108800981136217,-1.3151819411695813,-0.4553446740948859,-1.8946821056116026,0.7048326738769076,0.7151579576814797,0.03212194225801592,0.5182463344085381,-1.916687428179741,1.4375074587879855,-1.4767554765083264,-0.2765130413463661,-0.7865276897082116,0.23877893559785468,-0.2071265880085937,-1.4992565096696118,-0.4227919226984647,-1.286517419773419,-1.163214693175349,0.6191381054543234,-1.194434262194998,0.8834633457365632,1.141210601128016,-0.2900156247945768,0.0986122621981856,-0.1965441542351398,-0.6047676496276638,0.8521736422278139,-0.11872230062835494,-1.4606860909189447,0.11444894430178724,1.3701233880695147,-0.615859172374378,0.1788269903079616,0.30169116030699195,-1.7036103855370355,0.021600170301528592,0.264457093302203,-0.19738641843431579,-1.8470125537288271,-1.8831178559838495,-0.19310069149566067,-0.03990747872627609,0.6953761419768055,1.8701259423530114,-1.8997723666083468,0.9725871977053339,0.5074382328107426,1.0179840855411135,-1.777218227516057,1.0524116075671903,0.9435206982266189,0.6988147718922907,0.41212104420160833,-1.4151156084380285,-1.8696304506616173,-1.373705850201588,-0.8964729731086267,-1.3904100050434525,-1.296786104459017,-1.1816895372178386,0.25653773687909015,-0.1216364962687554,0.05825990883537465,0.31273731699137025,0.47237122786206354,0.4902521008323648,1.7955050210212118,-1.983909716555249,-1.3093948343872173,-1.609804209839624,-1.1777842197245154,0.909967680229724,1.2170630564981355,-0.2675676379630149,1.324899569353132,0.8580188545848175,-1.604876264565743,0.17615804874259844,-0.47502215631472017,-1.6060279737898808,0.9646018578803901,1.3125674580221147,1.7528274181223478,0.3705024723387324,0.8105004587028181,-1.4685514010125829,0.2264926878407613,-1.6885639516638324,-0.44862835837055987,1.4802784524057406,-1.6862170752226624,-1.992529350682883,1.9358623654943086,-1.403227529218133,-0.14194916411627181,0.40591648558445464,1.45181682057243,-0.5042493009112932,0.08668112171701266,-0.17407569509200452,-1.3591907050448473,1.1539762105367142,-1.1381657832182852,-1.1749405527794856,1.9772311628992896,1.8849170608563113,1.0955839933884692,-1.3834320820164079,-0.1654135845711602,1.9746139680426422,1.7525118277436809,1.6322053934572098,0.8999184199403949,1.994259556969691,1.4329556100584946,-1.2177589767574029,-0.5144402543046402,-0.06661698505589965,1.6064099726268235,1.271678646171425,0.7765777508337268,1.5087409973542854,0.6238543196507451,-1.834306309280691,-0.3034309698461614,-0.676857008386586,-0.356960559643253,0.7010098657060231,1.3140068268010923,0.5094620190825662,1.4777124488347466,-1.0589163401093398,0.705110555776235,0.18888921435931666,1.3804879622093709,0.19110195424972604,0.7150425898250135,-0.5759815001240789,0.861843946686255,-0.9189414090432702,-0.672935498333915,0.601322537259861,-0.19934856301387116,0.6612278710786912,-0.49783114517106497,0.10063925739689702,-1.1980580624902917,1.9360314273438939,0.8384447624063992,-1.9214544687832862,-1.9041565329676895,1.5768813798554027,0.028733492135790895,0.2059830397162411,-1.370443682627592,1.2269571659639458,-1.9048948825931116,-0.8280161604242442,-1.266477583827815,0.9621520893943036,-0.7668314933460907,0.7262894249451665,1.8668736735767917,0.41528751329862806,-0.17514788577517185,1.44793952608706,-0.9536187418226643,-1.4846496905142006,-0.8344833673373531,-1.1025937816166675,1.69325070845702,0.38947159520200964,0.8039101362888131,-0.6236935834136693,0.8317479836261709,1.3427465941964698,-1.909657356128537,1.5505562830085284,0.7895427370028939,0.8779887751995586,1.31374351124788,0.075842996060391,-0.36434859260137287,1.3945212085614165,0.12625078949404853,1.8630322140961801,-1.5441305051797283,0.5628005638639291,1.4742137328632516,1.59583601024244,0.6642354871678119,1.7032863611345066,1.7396489608066885,1.4576979442940035,-1.4086564869689826,-1.0321468312561777,-0.06456593390631934,-0.9178369880656772,-0.4117546804410992,1.9669511727199012,1.4313788600051203,1.6725598944980626,-0.2669481698789635,0.1536935269483986,-0.1203228335143017,0.49981657527830436,0.048061907523360904,1.8275121501018423,0.6941688576089214,-1.7253385832403154,0.4599376546735117,1.0090320779072048,1.0654796920164735,-0.5013603624970272,-0.06139375900002488,0.7779998859318584,0.04936464160158991,0.7743993866403015,1.2608190556337935,0.537733255561346,-0.1962503410034125,1.5189310138629553,-0.7936150544767423,1.3258895425571036,1.9563248129010236,-0.8874522049720235,1.4078703250819724,-1.6033908656993567,0.47445050005721723,0.7468564534073296,-0.5216717322934186,1.447672305879498,0.11071043250539035,1.9139429243853499,-0.1961953329550495,-1.4217761274841583,1.0491150350770382,1.0541432993099105,-1.1642170999737824,0.2064158154954642,-0.6146517005876039,-0.3704454340225903,1.5787885111344266,-0.017429225857400987,-0.12306590420963176,-1.7712896917530077,1.1666896681617114,1.1340512934982991,0.627476060786427,0.965897341375396,1.293416298669964,0.5581817427163078,-0.28794110772199266,-1.7265334188428816,0.23856246485690288,-0.4694086893331533,1.543504379587999,1.027357699958282,-0.41933642477761746,-1.9467918635463604,0.718510495402519,1.792805192711604,-0.24353810362504144,-0.9641381209485135,0.35290669514328504,1.0840974282946703,-0.6186112721948902,-1.316133084507329,-0.6612632450894045,-0.8576043441907557,1.707390537245121,-1.1801720533777038,-1.283980111194726,0.38574494415859717,-1.619202933551454,-1.6708466781947426,-0.6275203853339183,-0.6367667422247822,-1.6824922763592975,-0.6429276427343829,-0.2073430963942302,-0.296812561837986
0:0:0.04663170594410138,-0.0023870618599144758,-0.012747715252317627,0.0015365169902742167,0.06456659221527905,0.026005088844564636,0.011656367340293902,0.002844363354673002,-0.028760990204669688,0.05945281773359972,0.017204034399148277,-0.05440676943295529,-0.002383196713362948,-0.08304988968095266,-0.01660702775182077,-0.012749253122794449,-0.07374882656846976,-0.05395236397616528,0.045762437681827355,-0.006634272641699918,0.060132506096951234,0.02597266482130537,-0.07704126445744185,0.01079107515534639,-0.06333888698627374,-0.002727455549684715,-0.05318944707119418,-0.06732483025782576,-0.021942617610460888,0.005947653697207888,-0.01909387637790754,0.009692758699421114,0.03589820307610217,-0.05269002753680827,0.042539986925212575,0.00937547036989057,-0.010953410958499513,-0.015318073468901022,-0.06188122370425504,0.008172899591797778,-0.05424218084003857,-0.013355639845341421,0.033251796746107155,-0.03625973846482254,-0.05008726608433209,-0.008580781931376274,0.0036423594333737856,-0.014052716312704201,0.03474131231799743,0.028258909705415867,0.004320714886053768,-0.03822584001834583,0.03020055641693715,0.02174660547825284,-0.009201413161089113,0.03638310425244021,0.003933884559808897,0.054296391820274716,-0.049381249254236585,-0.04126717329478931,-0.010134462831570344,-0.013558441202096653,-0.0019515203751720256,-0.02571392501294321,-0.0035893764645781043,0.03206630641717991,0.003646815837345301,-0.03162821333034196,0.07633887122442103,-0.0434277479172777,0.019091916268786722,-0.024084031155966207,0.03173764577271661,-0.006747311844746535,0.03175012765910001,-0.002468679632987084,-0.0027562613801880493,0.011466121381535596,0.01606791389964446,0.06573315162366124,-0.07570315532376373,0.0034322972268993417,-0.04971823063860306,-0.024795038081939547,0.016176924918080933,-0.039236073621647514,-0.0630783041980385,0.005202332778423402,-0.020098704704540504,0.04327193364917722,-0.03098282382103032,0.035211403989794256,0.01392814014133369,0.040755457545361376,0.007141776441898546,-0.0032448508567002304,-0.04309857584762854,-0.01861725480751619,0.00607517618449459,-0.01172669269963019,0.04516908272398334,0.015744846271466845,0.06565959484981612,0.04781968766578874,-0.016268632198135943,-0.03413095725121589,-0.03314389891121847,0.010987884988950963,-0.03842526495715057,0.06480733166651735,-0.04363257162874662,-0.04473390743230226,0.018142914459803722,0.061147659475382345,-0.0006219216372296692,0.03531304851437901,-0.03290808475763991,0.032775086184225775,0.017269841360285792,-0.016240077925519805,0.027865400687645002,0.0760496182472255,0.033377531218890304,-0.004720475268849136,0.11554476056291703,0.05536490656930512,0.08001968045499865,0.06255494701404071,0.02884550493636406,0.03335137767660542,0.016389694734902694,0.006281856332270536,0.03504729997796093,-0.00451210902787214,-0.031683240812710727,0.04480729183553326,-0.014958677399215624,-0.019241994213354336,0.0298237727989448,0.0025252899768963685,0.0018077941061769001,-0.02133584678400786,-0.0161565009239496,0.026740589396694842,-0.002377031883392176,0.010945541912392541,-0.026489241140601687,0.03208247193984318,0.027774455276004275,0.024742092160138455,0.06486469111727343,0.041884412381046406,0.040590845624390484,0.01847835740532429,-0.006091745454685423,0.026093097344690043,0.031038697935401958,-0.0008200355791410424,-0.024878314993250675,0.03643066609088875,0.0685334524017276,-0.042204440042867386,-0.0034885555383068786,-0.026089153393650342,0.038604082308361855,0.06138173024813361,-0.07792112710241779,-0.007917738907361919,-0.02053380333976007,-0.005731151656589872,-0.06711550726479888,0.021763688768922484,-0.07278456820755032,0.026284210828681175,0.0165435726199033,0.0020950684936468433,0.10991095717481159,0.0204850937782099,0.016754581893593943,0.03315591748837689,0.019603554954094764,0.009290855052937913,-0.017808658214057915,-0.058347211818877996,-0.06678889383845447,-0.033462568911625884,-0.01220046442768821,-0.029907167900187083,-0.0063840024443755986,0.001165050909317738,-0.09323708129500403,-0.014922642334037634,-0.05582957455783206,-0.01448023160038309,0.05885636682733645,-0.02804106588435985,0.05680637016503408,-0.038986556311349826,-0.0012462293589720849,-0.017036208269733122,0.05584984809047089,0.029282691583751654,-0.016589605975518742,0.012708063256264506,0.006058694355095716,-0.03675749354494495,0.05048855335135554,-0.01616412889454809,-0.014917148315662529,-0.012834533121520834,-0.029640692078777287,-0.012220086221334936,-0.02463340484872351,0.03961785267708627,-0.016801664651667925,0.05744916656105017,0.003567122817302061,0.007117301436786966,-0.04936364707493505,-0.020645438614020375,-0.0334953345395328,0.05471588245799171,-0.06964517102424966,0.03761313447150895,0.016750973543922035,-0.057205874649295885,-0.000313986638801052,-0.006732109255623117,0.023072143633997854,-0.030840937224046096,0.053600779532328655,0.017506808333709538,-0.007153742954964705,0.014437836179482239,-0.014271368950484946,-0.007546744279356911,-0.049418154002732965,-0.002398595459033239,-0.0007323324888709528,-0.017501967706779926,-0.006603701393743517,-0.043557134028497015,-0.0013535062172430209,-0.08783994775206802,-0.04414255537008296,-0.04940711114071084,-0.042902300923362585,-0.014898696604253235,0.0017939567931394725,-0.07197024742569635,0.0059613929239532406,-0.04262977383988211,-0.03479774248652052,0.019092938252801922,0.006870988677521983,-0.011115824883770628,0.016213980993805853,-0.04296165908897048,0.005316435828861028,0.021940064706715178,-0.006340390051557952,-0.03918333037295622,-0.06560538171919812,-0.06538630512653887,-0.06878094850576885,0.02371041918870072,-0.03154854737494986,-0.03974377399829798,0.016933645367397106,0.12584706350258398,0.03209295758775631,0.013937103295853678,0.018594547692940187,-0.01678407552190253,-0.023077164559950337,-0.021025462040602405,0.016822154842825354,-0.06631805423589004,0.0014657802900072338,-0.010231317107701452,0.019295485477042913,0.00232169554362616,-0.030316377980142663,-0.02649561352662758,-0.004527489687320859,0.023876516198864724,-0.057643086165147545,-0.0008933943371697833,-0.04234454011135132,-0.017510132592414025,-0.052816161349329475,-0.1016752006237493,-0.10307298055910515,-0.05047908284697386,-0.006673957541496571,0.0272692850441941,0.007386757221266107,0.011826964770062266,0.07734991052709833,-0.031117648102149214,0.0026959731526865443,-0.046638492557851255,0.01950134883740987,-0.029966411339888577,0.013674139094098163,0.013133228346000593,-0.017654080995148962,-0.01619489005363613,0.048287622200793336,-0.032941274195628006,-0.06194665050626343,0.03810776242284363,-0.02215076474448205,-0.014775155569813061,-0.020309478448435548,-0.048409972007913575,-0.08678059402290261,-0.1121721922075907,-0.08386264818307382,-0.03891221735974198,-0.06062308947789798,-0.051719301626529934,0.042257233310155594,0.027201616598600244,0.09121766846523682,-0.021189441853914817,0.046402642278811,-0.046077354646347775,-0.01816052705891341,-0.03215818681717375,-0.13007477891260164,-0.06830145537408316,-0.051943237314977096,-0.006276277120773386,0.013688716205245827,-0.0013068758705212901,0.06431040507263978,0.024093273675910708,-0.002017589557318033,0.03831116790859179,0.02951876372796605,-0.010597415326452992,0.026332953050646025,-0.047447573212003887,-0.025626002524035393,-0.13065834292792664,-0.08847828107988495,-0.08886711349277408,-0.029913437457947764,-0.06260253543008623,-0.03292530126008389,0.03726079708450876,0.017209639708956802,0.05344456866927005,0.015299590831424603,-0.015213502915321848,-0.054466303438852066,-0.06449566951613116,0.03800022664788899,0.029855811364633264,-0.014915581503746255,-0.007568171407055869,0.01642429840495448,-0.07181549654451531,0.00129629898930096,-0.0072139104677475425,-0.04431089464392533,-0.0007021414846812806,-0.009511023602298727,-0.05545251885569224,0.03203302364391802,0.0252412163043034,-0.04819347073448425,-0.07808200967589787,-0.06388220146441675,-0.03399152505739431,-0.01585120127275494,-0.035170073800831134,-0.009634080295430253,0.056524736879925576,0.0858361759209085,0.033417479031143234,-0.052073591773606494,0.0060955857291606335,0.036692615545336864,0.025194729937587486,-0.005948312414078038,-0.018203942027062405,0.009440140336172236,0.0009609404228233359,0.04640547335766759,-0.017097277802295804,0.0504367367514269,-0.06569829465939545,-0.0075586828881754895,-0.014861967123184942,0.050645147395831445,-0.00298321115869799,-0.08501559452201249,-0.005044230819028817,-0.04875035977574382,-0.024176814496783022,-0.005570709542931765,-0.027597421507963776,-0.08498167605429556,-0.039336623123320744,0.04378729440252845,0.02907761000332364,0.04382366521808119,0.0029493895447090224,0.0935041884173702,-0.04976870752059224,-0.020082264563569003,0.03114524746206734,-0.006325955812461381,-0.11344505905419347,-0.026231949407895923,0.008996043046252256,0.04620849454595601,-0.0645856266680958,-0.043782897400068146,-0.0107858099423399,-0.01252332292159301,-0.018046684146650938,-0.0003222825689850175,-0.028357404900771075,-0.05686733124150132,-0.012425340449481638,-0.04198786913322546,0.029361769155191335,-0.031511161392160314,0.009351833621116416,0.017158283950018994,-0.010442357745575231,0.03426830765078903,0.017677290157273606,0.012990869113944646,-0.0016591267956665638,0.01549133366307414,0.057814736993379356,-0.015710185813023563,-0.004535591889049666,-0.010148954753840212,-0.02826042128252847,-0.029245142095475567,0.005260988347381822,0.010819816973706504,0.03627626779073988,0.040132223884193526,-0.011102070933594221,-0.034084640245127154,0.007601430232433582,0.00970274530161389,-0.004577341494089233,-0.01823220049961799,-0.013532569008044436,-0.027409605625400114,0.03896618195212736,-0.004879385806584519,0.036354929497612806,0.07328077460131337,-0.011305425755516145,0.022044031781947013,0.02857486597015368,0.04203108822949231,0.057871017380508635,0.02581802909037806,-0.024981316059016337,0.028364417062596885,0.028317241939940178,-0.017539682375375957,-0.0289097578398545,0.026525497949165158,-0.008944519515936004,0.026749542907100715,0.005065026556361087,0.02813018446828277,-0.010427662482061846,0.009903769762144304,-0.026834110696499772,0.006876296907767477,0.042083789105238675,-0.02325949898704758,-0.030167285039922574,0.03271767528893859,0.11442167257120653,-0.023387469661327084,0.03964092678637209,0.0487579585981298,-0.016756425429662918,0.01975154176336908,0.056496530677962,0.04488724638603173,0.06632085251548932,0.06179386093984598,0.024016940144973947,-0.03005351414703904,0.008857065156577245,-0.03874131492126928,0.053416809195584246,-0.0006974336895671809,-0.04260606450861075,0.025788540046930913,0.0059788709865267855,-0.023803706237979536,0.02905478575881587,0.03683303672154094,-0.03271678199032349,0.03519191907891251,-0.008677430198381887,0.030346242447605882,0.026378682619628772,-0.00373653812003692,-0.02923227069943665,0.0932829597810483,0.018446572655762276,0.03777033862913343,-0.033250168506512946,-0.028363000955706926,0.038098678249248306,-0.014144253978158761,0.06047537596306831,0.013838308945033748,-0.016901394643015835,0.020247378470813763,-0.060477258183094906,-0.016308978349933202,-0.019800902037447554,-0.04224747500230516,0.05380129195521958,0.012949895244081735,-0.03411473599509067,-0.00835852298785331,0.041723979481399796,0.042392395975786534,0.05004458476990353,0.02201302852164848,0.053390787180668794,0.011978100730769266,0.04662324225475812,0.01869097269491143,-0.040993864823676,0.05100043105606273,-0.018260062947164597,0.017583382577110656,0.07130263003747692,-0.011258285105201615,0.04715145419586946,-0.004249047308565159,-0.015956192590888072,0.00894119424603408,0.09440309668159519,0.01815244828064868,0.0460578322719771,0.014061598845811001,0.041564909172369144,0.05085160014402663,0.006539014271496708,-0.047007137192291486,-0.017260373595265166,0.007607601919558554,0.0002690853811379625,-0.003697660886222459,-0.028074510107836702,0.01200381851886685,-0.0097667497424186,0.004325463291269356,0.053125533620703214,0.03628268042386836,-0.042939362577272405,-0.06885660537384604,-0.010108920350731293,-0.05395906257248406,0.05189735328533533,-0.016484334051242087,-0.0006122838737716211,-0.01371567478821899,0.0545134561061761,-0.029432286838937914,0.033673263938351336,0.012299326150429883,0.06147960196615452,0.026749717535572898,0.03731967264551747,0.02554887613829873,0.011990454288280118,0.028234732216666114,-0.018135370685218925,-0.04712452655088616,0.014982865466421002,-0.031199871189032398,-0.02109091535890435,0.03184033469255948,-0.0594116808641771,0.022015645527654573,-0.01668805075321397,-0.02533751490829883,-0.016402391247931157,-0.03677911631385208,-0.03716740759996156,-0.01180139051819789,0.03322753943104945,-0.014521241794298725,0.005736592395159157,0.05051376216850828,-0.05204402217659691,0.015590164803837955,0.03639077382766182,0.013390278424697751,0.09316450169322764,-0.02714855764691883,0.01089569686219539,-0.006590991946240538,-0.024950100935917936,-0.04440765594650734,0.010247945641951467,-0.018703703456893674,0.04476684124700473,-0.04735769243277609,0.015008195922661097,0.06770675433794587,0.0369768567659186,0.04656553243702414,0.021702690727684437,-0.0162092643631497,-0.02216150787655127,-0.001688313086552814,-0.09495124273572618,-0.02944214788177609,-0.08709351106371889,-0.025272053937405597,-0.003977028341756867,-0.024682924644813045,-0.009764938819259912,0.028047950742798044,-0.019609002715392454,0.0764157137062962,-0.015203264103082037,0.027129893360843715,-0.0008430422907530084,0.05535258154295749,0.019895156047592424,0.06922548131126909,-0.04814992054411203,0.00027612838720839257,-0.02355657379265703,0.0181257549750889,-0.026102516375683026,0.0014401313598617449,0.004403645774924165,-0.012222818574313602,0.014217047189851725,-0.0271617952302074,-0.0445185852226567,0.01621605275899771,-0.02819916286221646,-0.06122858300541853,-0.01859818049568655,-0.06568189577722487,-0.09049270697861397,-0.01522279035361187,-0.011804307162528067,-0.014746848478906286,0.039472786556250944,0.013391507921200833,-0.014911643853805757,0.024855010330654338,0.022141977255763914,0.010168063137928122,0.034693058650565836,-0.048256972663720345,0.00044239014940928196,-0.05807015664283883,0.006372915057777268,0.0812836296067312,0.03997938803163743,-0.10342573317054314,0.017247548857763986,-0.01630730667200771,-0.042172309887098185,0.017334505759693457,-0.06733780920016177,-0.048506178919079844,-0.046095010872863995,-0.048135954899089214,-0.09242704855407298,-0.02547151031572267,-0.01812118499322136,0.009301194579974643,-0.0033021037628107003,-0.06781921163857628,-0.024880402975989088,-0.06358481562715812,0.02099312410228834,0.03207535878053924,-0.04294609385218603,0.012802964461528956,0.04641645795479754,0.024015041528984944,0.005435644052882723,0.05214412551800127,0.01796803238028364,0.04628755012244506,-0.05562375555423369,0.003313136595740497,-0.0032522939431699686,-0.032583185361601284,-0.0406726617693979,-0.038925678933542644,0.015689803743698192,0.013258010912443018,-0.03608895469461553,0.02127061317086822,0.0044186581838308835,-0.018976988449530413,0.05034063213388544,0.007767606014061237,-0.005351060285693228,-0.023959143368188933,-0.0348008093835318,-0.012117279742514727,-0.045087371035480835,-0.011490219484870058,0.03026626668157659,-0.017478131322577504,0.058380183258357136,-0.0015907685128407902,-0.022567836526122122,0.036299321080787865,0.016600123498329154,0.06077737788087028,-0.011016749772116058,0.03867703648602769,0.0625287542779394,0.06041950414764033,-0.06739790107517277,-0.021994665046875424,-0.008863452099344622,0.03703020857735454,0.06253225908522397,0.010958054471388376,-0.014677786131662842,-0.018675883242746213,-0.035949291796862716,0.0042595480840205684,-0.01967478880137881,0.02971891163159338,-0.026333142879705024,0.035440574677795836,0.012686714581526225,-0.007776550320653044,0.016557893371035755,0.0416438238873543,0.03234277707991915,-0.03328438169702107,-0.08871828389156344,-0.008069797048016183,0.02866961720890996,0.007843031742506073,-0.0006856138132240559,0.006099845038442116,0.03178692391792702,0.051503900182863514,-0.02779368921950868,0.050597109664019396,-0.05710503586156062,0.06001738110750824,0.012862976520394568,0.030864126701402355,-0.028775906117458963,0.04693102112969614,-0.010810111895695251,0.04778171647889949,0.028909931434318588,-0.026392404721975217,-0.05526431525930366,-0.04598784954788687,0.023331462135595733,-0.04044967820140608,-0.07566711238735203,0.06501867921146602,-0.011907659459407204,-0.007144494797455549,0.05405374412885814
0:1:0.04601540321615973,-0.03879222867040437,-0.0011354240346916574,0.021251409040157057,-0.006554314674565136,0.06006715939758366,-0.00530737921370652,0.0010133593857372819,0.017079607203003375,-0.061643458161307535,-0.05134089788230173,-0.0038394068035522786,-0.04099507242773693,0.00433354635430064,0.016255942021991827,-0.01231531768405541,0.08664731413127737,0.02291707724355641,0.022086546013608686,0.04437887549117022,0.03187516991312601,0.008602736788299273,-0.07353044503955536,0.0169170063104275,0.010736643173872126,-0.08724373511208332,-0.017383591971965418,0.02915472447794746,-0.03401515778301252,0.02192314991989166,-0.06537959075284615,-0.045859765918781985,-0.002229336345682236,0.017902324381009305,0.026040353609013068,0.003316614039941424,0.004844868620274342,-0.037126010490425354,-0.016516978718719304,-0.038300084612513,-0.038673569247830504,0.00960108845627202,-0.004160498691540047,-0.06393558503251262,0.0003759336197056088,-0.03984853357469085,0.04804715127085061,-0.04101026096995133,0.02364488580585369,-0.0030603064927690006,0.004011326482691486,-0.039539824768414986,-0.030258412089888713,0.04130316211603498,-0.01818360087122561,-0.06581504107225718,0.0007054790274073554,0.03545476266988079,-0.0097223413039882,0.032275282015470655,-0.022326035396948073,0.013120112967558219,-0.06074745583929295,-0.025579191045884193,-0.06180451399530023,0.026489389322686376,-0.01215373113626188,0.0576591981067575,0.01551945558094301,-0.029323506324144075,0.019631606903669916,-0.009224146305240622,-0.00771410903551206,-0.058359890142815056,-0.027680711029863355,-0.004479070140516093,-0.043252466097038804,0.02068411299934118,0.015520432360644067,0.061730046422007676,-0.07540379074772403,0.008416031088847517,0.005068183575415756,-0.026397888531668474,0.009828440073348899,-0.008155143531058671,-0.058791216832317084,0.0035991532664255295,-0.05157920318773648,-0.006187066823230326,-0.018475102354192197,0.025066711030886066,0.003328845511737816,-0.03318373088410548,0.005211756771355747,-0.009222365244665437,-0.00020852184294270994,0.04245678112890604,0.05265083251024724,0.01876111213376629,-0.014814924781068621,0.10584694493455364,0.04897176268772213,-0.024610196183848194,-0.022970756570088402,-0.0645959606889,0.005382180420501117,0.037987381088394175,0.020157295275405846,-0.040590862751094775,0.05509391774936392,0.011578004418529787,-0.015204438519225769,-0.04995008931270126,-0.01675983858799464,0.04878021359811136,-0.01152916739248938,-0.02012572070802162,0.010300984598356301,0.03217681877374856,0.07077996875196708,-0.06450546110240452,-0.05344950319848737,-0.04244476039035594,0.035375108329101866,0.04720321124410636,-0.062130423091806365,-0.004602532421735986,-0.00033058370567701895,-0.015056062818855517,0.044511086947948746,0.022718281441355227,0.06709216147206941,0.015934176535608264,-0.01415321003755375,-0.06250802377128331,0.07419275750515861,0.015872300165022744,-0.043390828453684846,0.013341592162673535,-0.003971696284864605,-0.011719932886801588,-0.026334067133015254,0.021044140432830392,-0.09814275391157859,-0.05615891451677629,-0.018274441281174652,0.019750895487127662,0.0652063233845958,-0.01427570803168607,0.036196590597501396,-0.031888061357148875,-0.03601396240414769,-0.0023352175724601692,0.025890510738142702,0.01716151983880803,-0.008074301502094922,-0.014126057454098406,-0.04977191339220042,0.005557277846581151,0.05592480309625225,0.022816640170557394,0.006045787018322032,-0.03902972542632894,-0.01736927676897887,0.07034092164055293,0.006333981107584377,0.030946723511335927,-0.028384763183232836,-0.036844076843614626,0.0024775303011283297,-0.003231702978467774,0.040310257974712334,0.024623814595208772,0.056672733061815105,-0.01403510176106229,-0.01341494845802019,0.008052304470610437,0.04369993045033902,-0.041346406223370456,0.023588742020213573,0.031418250194054545,0.050518840459101925,-0.0001258940912867856,-0.05057433800225992,-0.00289130859788582,0.01647602404549508,-0.03663784303240133,-0.0014907676104556854,0.023303181407554115,0.033115184074356645,-0.03333030838194423,0.056025298189532204,-0.033660833364189624,0.011913983868477931,0.023529621628780185,0.06764802905313216,0.104858633588168,0.043412618628407645,-0.019181134102585224,0.04747031806994276,0.03853359963815116,-0.018509989300719728,0.04095038308956751,-0.007538041529645029,0.037129654139157635,0.038429165719654074,0.002576576653992571,-0.006198671139525662,0.0036642236346301677,0.04737044538934275,0.07918119806801749,0.056809354583264485,0.07676037100524274,0.04840180676705993,0.08495567562305978,-0.04546397064031782,0.044380230332156996,-0.06141221517928005,-0.009561333290468252,-0.01804285220594293,-0.0547799705532325,-0.0096042502618381,-0.0030073024700738595,0.009473194234774024,-0.01979326966184352,0.017265430854365726,-0.0006118272032774766,-0.020324365733884804,-0.001412938508308828,-0.0021377813596818148,0.010814960993981491,0.012539157442306978,0.08740581326917561,0.03491565907263183,0.06853371598999673,0.03523792286189949,0.041533206864254026,0.08902782603124919,0.13339902754389607,0.12714519421705103,0.17842311462498167,0.11102708857679226,0.022804733326849545,0.04334565096753836,0.0014944303392222965,-0.01959925566738018,-0.03526719876366355,0.05308918119032058,-0.057751202510698305,0.06298950630421302,-0.10180243851079164,-0.03958577598665436,0.008549747768078946,0.03242881839315463,-0.008042110965328949,0.08481937079288861,-0.035526077035936104,0.07242029899975341,0.02128582446105992,0.07601528615460969,-0.029744656279655744,0.06160046402463034,-0.042803191544292164,-0.06443037944800278,0.07100602330620225,0.12055917352133257,0.12081202277032252,0.09086428368565401,0.08052168088884075,0.08415672992554324,-0.027526341977161525,-0.03438916055780735,0.030107073270416743,0.01060971613561822,0.015202969656511927,-0.0037693405607542203,-0.05356910923777081,-0.027063735413030136,0.029821199703469862,-0.058368558659987656,-0.00996380359604704,-0.04367014044286916,0.03208248010378809,0.02636689061976672,-0.012954691790838543,0.0029813666161588553,-0.0054118304182965635,0.017884442446133027,-0.02778739544724326,-0.020185394125035058,-0.017115100156162095,-0.01690518936752427,-0.03182998463868536,0.08439710139031642,0.1477462878891163,0.02656287457277769,0.03942766596416743,0.006261521654252819,0.003937669378042501,-0.00972756917440772,0.0028940640960576393,-0.01912369889270123,-0.06541384743981385,-0.07244783238300775,0.002726036555497903,0.015767949657197085,-0.023169658459769638,-0.023911285544788646,0.05188134789432059,0.00048204721449645607,0.021468061455053963,-0.0036840366561879598,0.019773644181301953,-0.07157662467584205,-0.01130900047734411,0.027631860768313813,-0.02700381723974607,-0.1120312517550265,-0.08438194350521122,-0.017735085198545317,-0.03467880224451632,0.07248879516492542,0.0720046180041897,0.0015748510835374649,0.011014075245164002,-0.03623683337209457,-0.01671371811358343,-0.02163626509592959,-0.030204458027993503,0.01784518973427461,0.001108093395008873,-0.04660285133107378,0.008577702994998493,0.03967852961049593,0.0022995408358254398,-0.0026892004800146622,0.015417234965579254,0.0018964699494888047,0.025484897259380752,-0.027073775109634636,-0.052521248343461314,0.004300268420226326,-0.0735789343022224,-0.019743743822596707,-0.14036732556449466,-0.1489934215775597,-0.1397903066531546,-0.08802170146475828,0.03307859285343262,0.020371072452607185,-0.03485168463794446,-0.03784733670456186,-0.10755005311234975,-0.014278549856019727,-0.059492976083967954,-0.044930070124043216,-0.08510315128377648,0.020214063961020455,0.0249873258605484,-0.05166356715261872,0.017442677065757167,-0.07993928175492095,-0.0314696782910304,-0.003927221620207126,-0.04037789128716537,0.030696337170541484,-0.013579884181921485,-0.038932254844427173,0.0910778157296522,-0.047780883216762514,-0.04023720942586515,-0.11293825648816122,-0.08525387389546685,-0.16510628995043777,-0.11146055373098639,-0.1765846890272029,-0.1088017302616759,0.031002709909261517,0.024040392788150816,-0.11256234414014053,-0.08856905942187003,-0.025483505540268278,-0.08184582056400967,-0.030547485128732465,0.011817931809034525,-0.013870547278388058,-0.025623674649460228,0.02063518104933757,0.0442252616105604,-0.027968509910995684,-0.0036207519157213375,-0.004333859084375095,0.00650503622139735,-0.017860520346067756,0.006987505759833764,0.050471943723077645,0.014207370540346959,-0.0266975322598018,-0.06928810436055442,-0.14443750136457606,-0.07276701223847631,-0.10674740096554428,-0.13989958569733169,-0.1304552606068947,-0.07179400248643111,-0.05451969707121739,-0.14179661352536824,-0.1870331318917032,-0.02605044736177197,-0.07352754915046274,-0.03311207924130625,-0.0294462927236301,-0.009402415472584672,0.023958117393793214,-0.035161588969432764,0.00031453851100556344,0.03614125346285753,0.04650540316225076,0.04220949722038747,-0.032495569586209035,0.006743644258774416,-0.006280085646864865,-0.026038523766611515,-0.027565236069431263,-0.043762732785841155,-0.004130892354619132,-0.08858685512916672,-0.10386700534488368,-0.13281909335351655,-0.10934564055901047,-0.17824026360563291,-0.18836570323757995,-0.1350761660725449,-0.02729999263997269,-0.08355216306692996,-0.09458915488186372,-0.0701123168251153,-0.03917180061329228,-0.006949171591854255,0.04581199259915974,-0.049801086974053596,-0.009391811524142101,-0.03242792336851592,0.05111021903081824,0.03496592095769824,0.027262172830736443,-0.08369773207703186,0.028983738797993656,-0.014199032550946119,0.03850069944046187,-0.05117740480097631,-0.02714477665410595,0.06823108925590463,-0.044592422165852394,0.024460984813456776,-0.09862940822970914,-0.10672092434967889,-0.11596292732286985,-0.11091665720565888,-0.17466762631054428,-0.08275765913596791,-0.04543512990548586,-0.013142728830374855,-0.028634279987697495,0.0004817251027011726,0.019431835080419544,0.007993649888911764,-0.10087938772313176,0.04663634859096247,0.041952015034202594,0.01986439381889951,0.03591359328753971,0.014263164709214177,-0.023393402361136358,-0.016300821907083124,0.04520544805075786,0.022791856594284017,-0.04441395412267822,0.0202411669564711,0.07996535998931782,0.012759208123989388,-0.044240830116063154,-0.006447729995583554,-0.01469234716669975,-0.08541629800599553,-0.15954494613428413,-0.11895715855681645,-0.11617859953629982,-0.026308031050618474,-0.04054820692773221,-0.050629611411324736,-0.01154485039906651,-0.008944215153520048,-0.026747135727276754,0.07820137153017008,0.021760133035034282,-0.013864646321765714,-0.0020412857658334183,0.044415741876352416,-0.0386614900190053,0.0042827675714918,-0.05020058467921646,-0.027060401140979184,-0.0333986669036282,-0.015707877737775003,0.04790692408155709,0.02099598814787598,0.00036546862369977063,-0.007610202562899531,-0.06138981833418818,-0.05536659889126724,-0.03246963202185761,-0.08678201780542885,0.01639182364257545,-0.12609323932771302,-0.038886802975390156,-0.011289169294149193,-0.0035314353495699276,-0.007438795668253739,0.034442806492389955,0.03549657156160112,0.06397552645537409,0.003303369429564014,0.03241686560225797,-0.012111979966412386,-0.002934291199356036,0.03388095426228033,-0.0305996928534414,-0.06783503195417728,-0.05541332635814668,-0.04589988447636058,0.012062855193093521,-0.01865720922198014,0.020552042965591624,-0.0503507156377599,-0.008264669921304377,-0.0013007219741595125,0.10573809072823162,0.0459278182904486,-0.01988312862998505,-0.009919592743308,0.004662961225051226,-0.07001195052543621,0.04110861699403905,0.02669461527526232,0.0027479927175924697,0.03049729311275768,-0.06959117467502823,-0.014876998630680217,-0.02552984479948112,-0.02565916840891588,0.01441212171760347,0.015111390086259172,0.035474255683601116,0.01871667081120569,0.006564151673127251,0.041047733813767556,-0.05742347007946626,-0.06630377812180571,0.023285608345084682,-0.02918048073169192,0.01263764376102983,0.055242646597425636,0.0434646068426639,0.032360301821217075,0.07704396709111053,0.07066231268288027,0.027368326459552186,0.031699750810378624,-0.01899532076023898,-0.09645364357911179,-0.06115146117406893,0.049273974344926905,0.003224383611564797,-0.0020412928110007792,-0.03507528101894284,-0.07067606732098422,0.025370215019065796,0.015221615169071175,0.030736229345416352,0.02009151741991229,0.026863351549273613,-0.023746901418878426,-0.03735557117422726,-0.020285236357158495,-0.033172131420335725,0.028661629999430942,0.018327679537448873,-0.02246779960850422,-0.01790335450714461,-0.004399728908224044,0.011735384616282735,0.06045344279053689,0.023359817855930835,0.10003523360585836,0.08224372512411765,0.06608198920193777,0.008777280761850113,0.05921751443055495,0.04754178753131997,-0.0041529041188675545,0.008639417068052194,0.06020462851568523,-0.061045568616795665,-0.019505393063620854,-0.010663388120427813,0.03401727680389105,-0.005115105631301866,0.0505830396436667,0.022048956573654577,0.058831709632927394,-0.008393626895972391,0.028491805101911846,0.022816236681144717,0.02085111589833465,0.043523377088304956,0.02237240282652598,-0.04625507190261862,0.027685615453013124,0.006085049951683644,0.0028765874573191464,0.020354268783361634,0.07549308681424417,0.0542451864189471,0.07888871943421333,0.07977581343948102,-0.005783492653151862,-0.013319794072736181,0.015663351172796106,0.07784152566251369,-0.036711269799684636,-0.050113680101730756,-0.047451915500839846,-0.10332718304398424,-0.03265711649135565,-0.010691854945031283,0.01726447403715286,0.05498795333776592,0.01774041945143859,-0.015544609100248024,0.02830810315478317,-0.022523028759068676,0.004075887801031501,0.017709662911854315,-0.024051218869523643,0.07035931499724732,-0.04492209341413946,0.022706178756737274,0.07113393618365828,0.016341631706715355,0.030191681817642233,-0.019791670361835892,0.059677302183506815,0.03117871781972981,0.049931759775181564,-0.03286020925323169,-0.015418020665099223,-0.010292130707211529,-0.01896660448317811,0.002346878705996149,0.0029737110859436645,-0.003576301846167484,-0.01079170612293013,-0.010147396020183153,-0.006601869611055091,-0.019394118899645065,0.00958570107632952,-0.0318904005858542,0.050826693717811705,0.04516158252771443,0.02323282095265718,0.011134012708419442,-0.03258550084364598,0.024685619681223344,-0.005242408972755966,-0.03459545938300788,0.004771698930433043,-0.02718603326519074,0.12480469861017057,0.033486922387156885,-0.011864741438976582,0.016097843407248374,0.017720560024591263,-0.0713952136174366,0.0021147825568752156,-0.025551329554345623,-0.0005791829673433322,0.062081099983676356,0.0013775801053733203,0.010112383115669777,-0.049031702953671395,0.04546380777404942,-0.056136822747412184,0.029026475570194197,-0.0017014430219108785,0.002781634858651369,0.016198023597758557,-0.008459900371917574,-0.036240711171143455,-0.016609824799230552,0.038395094655043,0.04627638766767998,-0.006522121889883393,-0.009845040623953685,0.05553313672434346,-0.004291547386085037,-0.03056889001206119,0.0528522992522577,0.030351755444563214,0.019957800095545004,0.07708298680798818,-0.0074268287635531754,0.016119513816611173,0.05393353189467275,-0.010157515702855823,0.022619480475676374,0.028661005032925072,0.01459084155198749,-0.0447363778502368,-0.02748442316610549,0.020154487114603638,0.02496673714885037,0.016866095814417833,0.0061933349769320465,0.03666184288012791,0.0343044469392897,0.04573890468817663,-0.011982388231776752,-0.03418341113593351,0.007526576897346137,0.017431009569687916,-0.02852119331788703,-0.04504983474054487,0.0037193176461259936,0.009873124539106772,0.0032658714612098117,0.013448221848996635,0.06309768805086151,0.0482038442513106,0.01246896165480242,0.054147310521912684,0.08873943024406095,0.06922183757200459,0.011814640413727285,0.01699476691346493,-0.004188093339183287,0.029874934593240154,0.023435869163531197,0.0146109212461675,0.04974961982726036,-0.004863573807696636,0.026003740463421778,-0.037412622393458335,-0.017182841555442807,0.008838851816073872,0.0328370205929324,-0.031532245043365784,-0.020090337276026656,0.016422820449003502,-0.020927867686938443,-0.07593858039189662,-0.020026352367296656,0.03503673172368426,0.028686934459279344,0.03211123873549824,-0.033285823778676164,-0.09581879300767057,-0.07003017749700338,0.0018007059040088915,-0.008270309374001103,-0.0032154008400190484,0.0035017894626412547,-0.027959485232849485,0.02603835251572791,-0.07798618128093586,0.006653048793700601,0.01817597034461978,-0.004151655311933535,-0.047669966454336785,-0.00876386141315748,-0.033243488651034256,0.028335716035179117,-0.08297191762539821
0:2:-0.0345905990751322,0.009966172528669916,0.0707969522456732,-0.010284396521325236,-0.04042781315673046,-0.009227360625028514,0.025091253153383408,-0.027403778724991865,0.0464839022663937,0.025736840057088095,0.01419232343505527,-0.036534873701774676,-0.017913642136741192,-0.040854433652197736,0.08128836344320534,-0.0862801621412904,0.016102479730191088,-0.015889581914016928,-0.010239707391532066,-0.0070703265086875825,0.04354542096518968,-0.029235655526296464,-0.033120168503024155,0.004675086175452859,-0.024082856320341024,-0.057860931778038284,0.07460882898036114,0.027359363021353306,-0.08355746000020552,0.012067316617084989,0.004778361060905374,0.012543488730069835,-0.017532528676921885,0.04785963019010466,-0.047874618705531044,-0.03484047385651585,-0.03556710970240239,-0.0265750681332288,-0.017754235240344092,-0.017846288085902898,0.0032404750582412127,0.0034271360537793125,-0.00012377158933567472,-0.016516141016133058,-0.00890022195031576,-0.010742693065528948,-0.025134956993322684,-0.015635167718849496,-0.07683097338282706,-0.021912803867802963,-0.03929932557206367,-0.08354800600606857,0.01948385630688405,-0.005378283247918832,0.018641344742132113,0.014611969834829404,-0.005559750968563995,0.02278610650280048,-0.06573589887928422,0.008667340280724278,-0.04251577173344675,-0.022971957774083063,-0.044052822546154786,-0.051943282971501116,-0.02326819190756494,-0.010167257173289842,-0.06005863658588865,-0.038783908563513374,-0.019267117276442713,-0.023322823617172698,-0.041309180120350876,0.01286524544150934,-0.02295158807960614,-0.010882819474499041,0.050108896611264477,0.01146116886131844,0.023947270901508964,-0.08165744562278639,0.0012887080150916356,0.022257133066216427,-0.007753756031827137,-0.04657011283692773,-0.03770344848562675,0.014331023809508814,0.004553460830751739,-0.07971648889801959,-0.002265538839804502,0.03623007447750624,-0.04360529830919042,0.014884653569495436,0.033893829954720324,0.009026407890385791,0.001461609540333439,-0.006438787460486649,0.0334087685809398,-0.0011826341558589415,0.0038644239862901247,0.07303144385813105,-0.014463942508397255,-0.0014871984579572033,-0.010079155898328243,0.0025091706088521534,0.04432233379343989,-0.03571140545041143,-0.06720810328032996,-0.03385437224131545,0.02728685934388738,0.014703698113212201,-0.016347446914846256,0.0017795978595308449,0.10289390758001124,-0.05110410716790896,-0.035995464346853905,-0.02247835499698765,0.026831035702907076,-0.010243431263567648,-0.06198540375696676,-0.02576139318653383,0.005296989043155236,-0.006011270507162853,0.02038122454729666,-0.0016183168897032846,-0.030258653938630038,-0.009577308459198033,0.007313107244573907,0.06345858502761834,-0.0414634932967409,0.029393097332703965,0.03509234084564839,-0.04783114766181669,-0.04601344605911112,0.03057806157276619,0.043487130029936164,-0.06879749238324939,-0.046588851466238874,0.04185956911915514,-0.0004836263842893782,0.030197967816135835,0.04251414710828666,-0.01881625377292332,0.019122051670134033,-0.024655683613182783,0.03110070428029748,0.005083673612453633,-0.011389004795699327,0.020017626597418913,0.023965551976368914,-0.07194031279686665,0.00019442653104089264,-0.02515007327076095,0.040232785823019555,-0.060990765258780964,-0.004085861097494695,0.00542407699062365,-0.016843746652294295,0.002804511228684085,0.03977550480214895,0.021790679424362695,0.0278682248890142,-0.011858435512093346,-0.03300148861398617,0.067940582674883,-0.016732499802570168,0.020781743259369028,-0.03228528839798611,-0.0322058944379807,-0.07797830773402809,-0.05368004595295355,-0.008317585800132813,0.04697837445393265,-0.011453185542099873,0.0025989861921560764,-0.03452681113336799,-0.028099891674962837,-0.05616590901996426,-0.03981515814439422,-0.07891420361579103,-0.031980059249536626,0.02681837572469944,0.018607010809879823,0.007018826613021215,-0.008402566198642455,0.004536726141007362,-0.00387485767955927,0.028710026761750666,0.006782405637020903,0.02354922612550176,-0.0010539743439201726,0.012526817690549471,-0.056721098666296536,0.03180771907308186,-0.05834916830071867,0.04073364259727255,-0.011579203573826597,-0.03496995511065028,0.016970931833177702,0.057409307785323535,-0.05634292252013493,0.04385662766563726,0.06224913535859129,-0.03165915938381967,0.015171045735171912,0.0008251905542171642,-0.055723985370617735,0.019555753911245227,0.03949333262653944,-0.028145899766849936,0.004586239678908475,-0.019171799336855415,-0.019275606008595573,0.02844645221771928,0.05072574515167922,0.018928450769485697,0.049660483941928873,-0.02767224106684646,0.03931081677259389,0.0039781747418108394,-0.011753424727327128,-0.010098826590327308,0.006364323336428944,-0.044486037585077805,-0.013996692043342326,-0.00046674066685357767,0.015270010304318796,-0.04326591382349985,-0.0051594472071975084,-0.01894473996898953,-0.012466873213263119,-0.0045534091912788266,0.0032751834767922655,-0.011237144916598864,0.004703637858753193,0.020435414325418334,-0.01242158194067813,0.013705906414353434,-0.058330114891447446,0.053917519006241435,-0.0031140148331556617,0.005623772069289135,-0.003135335846064463,0.03402211831371387,-0.01586123938643321,-0.029032364582137857,0.031204705542432428,0.01961899257285811,0.04368917664729116,0.004651834891488382,0.006358161695491122,-0.03635971978535582,-0.0328268232514421,-0.07579811264703326,0.011580311159122662,0.042379647870634925,-0.0023403955701454997,-0.011435279527655865,0.06152769534504801,0.005647559724504451,0.03472689416412685,0.01976415103398073,0.0418871929015349,-0.04041249448504661,0.06338908313395547,-0.025467514657550885,-0.008017358444287784,-0.03291792112035717,0.020783488279151253,-0.059760747910028666,0.024714050638108807,-0.03838635072421382,-0.014777332185153258,0.02274678804343364,0.0007310113710008302,0.04765311554686573,0.03138193783439019,-0.024368747944754663,-0.005428917561990607,0.010567038368668432,-0.02681103304754964,0.028469294750338773,0.05609718189781467,0.008844080558606662,0.01685596243467309,0.011627936894642532,-0.0655113018998408,0.05181812031898326,-0.013870511800713328,-0.0794797191895966,0.013271478698038134,-0.028117775354040832,0.019049903248980288,-0.005023412494105428,0.0390796405173128,0.07231200382898738,-0.02080461235502908,-0.00947650984165609,-0.022052548929849182,0.0007559787490591815,0.0327925998979799,0.053798023377545544,-0.0035179754291891027,0.0024540769984725728,0.021021726544132226,-0.05277395352129852,-0.04255602684701852,-0.025518115743525985,0.007613543044596586,-0.02751336239700996,-0.01714037964751289,-0.02899988395547499,-0.015868322620296263,-0.018212570808838074,0.04901212042291551,-0.030154049792973286,-0.021657720336759386,-0.009589365342523873,0.011903023571186016,0.013714892663777149,0.006849046923520937,-0.015587681707561972,0.014017802651892734,-0.055661087579762174,-0.041985518727179164,-0.016154872717081804,-8.505000845598691e-05,-0.013865347936726141,-0.0021573216621724556,-0.03184961524662678,0.0084572311119913,-0.0107435991951137,-0.03190694377788716,-0.030929801023815144,-0.0003001381825996501,-0.037955919227716406,-0.021210555074258234,0.0443763115963612,-0.03181847924620981,0.04377229451701497,0.05054147376516601,0.012482608223733975,0.004610246493518355,-0.018905905012384934,0.010238219931658106,-0.014670775822327077,-0.03204123496644392,0.008716486729777942,-0.05650324297268511,-0.05312865625305484,0.0036489139088257323,-0.013212061437730224,-0.013932534650377033,-0.006506140752534999,-0.025727411787345392,-0.07867733729662856,0.027478809831125363,-0.04781680651171428,-0.007970955580417667,-0.030344700196264823,0.019738369910820015,0.06067042014792946,0.04274772009128918,-0.02187527531589147,-0.03776365438959061,0.03283322716144062,0.056054975852159135,0.04570969784421403,0.06057631706605297,-0.027077945114009225,0.022295039583231997,0.026888341280142,0.017763306762207942,0.00047648520750419093,-0.0032547040146822205,0.019558489158301728,0.032539478123525395,-0.011548199375359244,0.044171849441050896,-0.00879276145412018,-0.01705322010692961,-0.023698756859073404,0.008964838771822543,-0.02749866481317495,0.0431330754530691,-0.047065586549531344,0.007110698428349971,-0.035513980881294684,-0.023224608321926833,0.037009473949401496,0.031322279755091345,-0.04419687946122583,0.0324532913165591,0.02198935858365049,0.0024739951174400014,-0.04160448924310436,-0.07168292897595288,0.0003024568078255972,-0.0034879711763994175,0.05163302702682279,-0.03405258939423064,-0.015059002041394633,0.04941376376417549,-0.037731768183996164,-0.043213325266738045,-0.03841708307155682,-0.0021877907853471343,-0.07419757696467844,0.0041681675733760415,0.01150756651036018,-0.06102106422368571,-0.002316673327115519,-0.003660627167203577,-0.011689011606819275,-0.029793579751851575,0.04910401093798593,0.007400732748398893,-0.053870285725904334,-0.0416193796971646,-0.01227061209691943,-0.04952754727328566,-0.06208013701791644,0.03119297898233019,0.02391404465553494,-0.018485412443568827,0.06269690909025774,-0.032082368421930046,0.046562429988825496,0.014665404295122432,0.0293331430602043,0.022256131461101503,0.04488501578451238,-0.014706336639733567,0.010681818989463103,0.02642969640534526,0.009799674900394321,-0.06698457004828787,0.01503702413333519,-0.007048780962130992,0.024624727913380672,-0.06741807030176852,-0.02908628950046683,0.015333002029873819,-0.07619921343166906,0.023644732317851077,0.06379045550819862,-0.03015753967594163,-0.006069769281732327,0.03618882081421448,-0.06267950494011902,-0.04859377679651838,0.010524792467281836,0.01704485853581926,0.013662000782099826,-0.04423869292489625,-0.005505921814147209,0.006375736226669395,0.03466741514110821,0.0474640305876609,-0.04295365049841843,-0.003500098967501496,0.013964093781126907,0.012424055858698468,-0.07784300391673116,-0.003920660076845818,0.037771567517625684,0.05812876852006078,0.014224443803480778,-0.03802305057477757,-0.05950521919729545,-0.06363054843279144,0.005364932988973404,-0.03304992090584906,-0.011724829222884715,0.04863360017287462,0.023721121725800993,-0.0033259171487946384,0.006386006341321316,0.06770520525244678,0.014361671779815491,0.012678268719251757,0.01432288226495502,-0.008356805085836678,0.012277244820839668,0.04256436225233989,0.004278456926673789,-0.007735872585223421,0.025634269014625805,0.04657500682968293,0.008755203768480789,-0.006905795060793778,-0.012236976898923958,0.06188218493339284,-0.02823071057776083,-0.046589337417863565,-0.005925849866735507,-0.015288493917141427,-0.03330993384845015,-0.014672955640933238,0.0431968789919912,0.007888639072570714,-0.07607722821439443,0.03956694616832284,-0.07118251768354708,0.005601910315795836,-0.021157238985291437,-0.07364539654837231,0.004835699105359252,0.02960050449067113,0.023542138100675652,0.041721370144016334,-0.005538140606702905,-0.053104309161992914,0.03247066984208588,-0.030064677745456205,-0.009381047539531472,-0.004661651814911411,0.012831082948415045,0.056354884714212364,0.025052779406144796,-0.007369855124083317,-0.008496095911880714,-0.019111668843057674,-0.018488652639498535,-0.06533438278283708,0.04853422625700153,-0.019810460792643474,-0.030771279397477293,0.03571227641511335,-0.02775107066160083,0.03181920105927291,0.03195756467240464,0.020447335780539175,-0.005107864305007583,-0.006318768452671826,-0.0840748625639222,0.035440753777980304,0.0028885006898872628,0.008022298473563054,0.08539124241779869,-0.01884288951738715,0.031428740178324636,0.006044110288329792,-0.0371184778172323,0.035554847307363815,0.030772253581623533,-0.016061388362345427,-0.015673771119009635,0.002622471594909257,-0.037145912889026134,0.008451690642968452,-0.012316438568133773,-0.016999322271563,-0.02594599618732733,0.03048916826859609,0.05588415332987172,0.045983698601019904,0.0038498794516588436,0.057865862390798294,0.005669835041301643,0.015184555144587131,0.09187763360817056,-0.010942725885825918,-0.010655122507569389,0.01641181422401278,-0.06770111124596069,0.027088524284454768,0.05812828374116776,-0.03296108516826469,-0.03467427347358644,0.00040714601933455386,0.064162592485326,-0.020359881641377555,0.06720756094544182,0.04740933441960709,0.02723180793297747,-0.09285052879929312,0.017611482642105866,0.009465848138970319,-0.03260764236808407,-0.044222306870790914,-0.09899877807444148,0.062370696518186615,0.01642005434627448,-0.042506002526938855,0.0075856830332245,-0.030723368765413057,-0.004339761414040064,0.020312451019621796,0.06476173535371954,-0.07777066503065588,-0.036819287903702674,-0.08756468978804371,-0.046192324043126835,0.09209105345512703,0.005867623791640162,-0.022715729195509717,0.02883925079465397,0.01138593587970921,-0.03232686025242622,-0.030970284001204804,0.015669785415775097,0.034120485352036205,9.251473949061981e-05,0.05193405506013386,-0.012192739479925998,0.10000650683024606,-0.021898722057228048,0.039669863318245624,-0.08506310132676143,0.026286684384633944,0.02815491513823009,-0.06379357400357838,-0.056046753177788566,0.02324517439026114,-0.02122347035040355,0.016103369867312943,0.04161946545852584,-0.013219655910238956,0.011715973390558224,0.05740989840711661,-0.04669825171372192,0.022566707038351935,-0.033943496473665076,0.011530673403226579,0.0806605628742598,-0.02240910091370904,-0.01551356035349374,0.0015414993350685348,-0.017904577973304026,-0.005547661654873324,-0.04989809100348703,-0.012783119372037579,0.03751587791914881,-0.02958668149629356,0.013368442677885088,0.09219813055053047,0.0197588694936262,-0.04468249784340071,-0.07312754065876313,0.010648219397868312,-0.0025239023727147702,0.02583190523998621,-0.007115005708313092,-0.07079576234981577,0.05996319126576501,-0.0005700912048619321,-0.0225042444193755,0.0015974723383909554,0.008229026857652309,-0.0015448385809019398,0.002476022664191034,0.04387276284122034,0.0010868934088577246,-0.038035770819985985,-0.01938638034810994,0.0034301863747118327,0.05869619497769056,-0.0010832183989645144,0.021345289891028362,-0.02771770783724306,0.09139579278417347,0.03381129985116759,-0.03064049821086987,-0.007306645307115259,-0.04412625563590802,0.008783574758897838,0.036281949217451745,0.04521005520388468,-0.06083765843893704,-0.0003670826592454351,0.014210329147752113,-0.052499218132903376,-0.007137746935381038,0.03515196144706849,-0.013061664615986143,0.007573259383168976,0.02157355169507865,0.05110212512838769,-0.0023809066324231,-0.03158398651105065,0.06871066701731489,-0.032537155497027515,-0.045260101794421186,-0.04386712468819377,0.018061885169282404,0.017212806098315398,-0.024618377266196232,0.029306532298790357,-0.05679686352124691,0.028825671274113503,-0.028549296882312357,-0.05633513715263036,-0.018963217240543753,-0.011379006428042175,-0.07474327975175275,0.03549331049294306,-0.0417762638865629,0.014272842229957665,-0.004310105993147765,0.08957193907103334,-0.010006197193910753,0.04429603848515473,0.014641056967519021,-0.005537900759710759,0.025041342704270983,0.056000022617391704,0.006206016208070801,0.02659297220854308,0.01767187665835527,0.08269266994773328,0.022149743509670528,-0.10000666599016944,-0.0016414857273665772,-0.007891986041906404,0.062493017738711305,-0.060142077948422794,0.08239365226936593,0.011631387496363678,-0.012802461017759378,-0.07953500486548584,0.005306131624882725,-0.010745756208051394,-0.02246044907993133,-0.01309898544529606,-0.05866166380544383,-0.03303706223571651,0.05106475775279482,-0.028368586639085536,-0.024266119239307833,0.11670758545376059,-0.000981692117104131,-0.008517344076320791,-0.01977408683747356,-0.016744914891494746,-0.00842573400470986,-0.06893170931236077,0.03318444465809638,-0.03688599058520224,-0.01583643617539383,-0.014193568792696794,-0.051830654563427156,-0.09223004131839826,-0.0003823315953742166,0.0907089696500174,0.013121044668982318,0.03697175252832255,-0.05076156058137559,0.020573124379976885,0.012364487379715036,0.014218323513448197,0.02249037240531027,-0.010175469739625064,-0.014540084731479322,0.006221871734457084,-0.06429029415835744,0.04183474481715161,-0.06616776314373016,0.03469979983559861,-0.009199724526699052,0.05678402512154344,-0.06159218795370662,-0.055625606217378616,-0.021961236520960915,0.04144730851385048,-0.04562129092878561,-0.06188629235117819,0.022463549734264617,-0.021963903566675463,-0.06794836659541809,0.024871149390941014,0.04866863225946724,-0.0010670236841386883,0.026453448817695884,-0.0289178112761625,-0.008165234397753088,-0.0030682628984694637,-0.012658709775554488,0.026836245978891594,-0.02774004808802703,0.023662345407653898,-0.031043752586042386,0.040200114259765066,-0.00680017575808294,-0.04805307178307458,0.0016665498344792613,-0.014388293028198669
0:3:-0.0004647437412755843,-0.023170440416550545,-0.004018199426712208,0.018049534199217333,-0.005898650592639286,0.0012400288298702255,0.01799802917413362,0.02985134876253899,0.012628026225869875,-0.10187124310869985,-0.013833452718738252,0.020987494200808213,0.026926768985546277,-0.03450618889584815,-0.0052040594272528655,-0.023840573320179255,-0.046328296036630676,0.018752655617176466,-0.04178933454606531,0.017490268359757075,0.0022276753332648937,0.029119778740878104,0.007482303771412228,0.019672385337919998,-0.05355565414647586,-0.00474296323375263,0.027831593110399205,-0.027606567458570146,-0.004794452439019179,-0.01635419476576909,-0.010898348764229751,-0.021212364934927015,0.0015858516576311267,-0.07318558676619263,0.03284111609367041,-0.044301123831943484,-0.0006629175830465789,-0.021693710502309095,0.036203944447716456,0.026948563527092254,-0.014240141785887903,-0.08997264470840487,-0.020320353744673423,0.03242961049144038,-0.07847076870222554,-0.0005274897276304276,-0.030116153910650117,0.06954687534281236,0.014280372292335551,-0.00819955833988312,-0.028258336903385344,-0.035317680565283845,-0.0210552376420121,-0.042949690798457694,-0.010704450982122103,-0.05244492975889115,-0.013479864670248684,0.00417617306008059,0.04553781510851691,0.0024926776227658324,0.07281450439547725,-0.05362222211762835,0.04565416444702027,0.01517884011702292,0.011005300858970592,0.01929374213653524,0.031208266284830262,0.052522808624938855,0.020944712726514714,-0.06623042962874058,0.04130392467894806,-0.0562061372228405,0.007722811306087478,0.015273108641017434,-0.04375959273119631,0.07290452414540634,-0.05259849313794993,-0.0394517044714291,-0.03571063578476207,-0.022171299161180387,0.018326492356825916,-0.026315810951612093,-0.038997990495457636,-0.0014168512373435363,-0.0245158978080524,-0.02412251775409617,-0.014867566634619961,-0.026222315215937857,-0.08442521672214882,0.06370407949698732,0.0012451308593388025,-0.003570422739429392,-0.008141292381679686,0.03448289794655952,0.027866937801744686,0.05011415755764004,-0.03645685950752159,-0.03409417623634722,0.027299928891901026,-0.00026839187954493166,-0.013929773416676988,-0.03591211807554952,-0.044720824521880094,-0.03357126306439725,0.00019691614220622772,-0.035205681538556535,-0.0621387870163906,0.055958598002910365,0.0013231037155035715,-0.012671913882745385,0.020120475571088488,-0.012913996968542538,0.016766018057738613,0.016494462608287068,0.00959818586159916,0.00978028588876654,0.0043096696444716335,-0.05692975418558208,-0.07053021030082392,-0.013748384426245108,-0.00372980566340927,0.03102586571432143,-0.08812960168671706,0.012006647920977592,-0.07346067569129858,-0.017370305258971847,-0.0165567232915396,0.006490058006103435,0.008790337406469086,-0.05017509233554897,-0.03556429308153505,-0.10225953504567128,0.049179495160053835,-0.048520207325146864,0.06480234058488932,-0.06592220649461344,-0.014766373405553363,0.060495931067089566,0.1019461984757668,-0.010952513232763042,-0.040590596713212884,0.01943497942121214,-0.009208759489891864,-0.012242787100211943,-0.05104611151826245,0.040542234415813866,-0.04193148478887798,-0.01956030159671976,0.002811474831796824,0.02728525313643726,-0.010844718888404367,0.005713897927378225,-0.04022012696945282,-0.043906855060841084,0.0053778257806924735,-0.0033701369274948584,-0.006861642508232753,0.0398924197759521,-0.016920504261812148,-0.005612739113792748,-0.018778915357360596,0.028661060363118055,-0.01603677216658063,-0.005827372696495311,0.0060502380365717815,-0.11604807764489837,-0.008060890247692706,-0.005739780380880788,0.017538538086007003,0.06240990498716418,0.027465247232609423,0.028805868446818015,-0.022317681935385147,0.044787034930767924,-0.03364664058025182,0.04120653441031743,-0.03691892366126029,0.03643956936741028,-0.006292925587403813,-0.030126258803763805,-0.05819813668079504,0.09928874748231414,0.02042343351965302,-0.030914139043474988,0.03670190449456489,0.08404254024963091,-0.03198019451224849,0.007260983696298199,-0.06215932549036964,-0.0076975474172802216,-0.02511243427085042,-0.01922710093431979,-0.02532106685633954,0.008078728303867034,0.01017466748533681,0.0516250855149076,-0.024388622997218258,0.032315107477577175,-0.002976813032474065,0.04619540084434178,0.037410945109533814,0.01167931282329689,-0.015728447135897015,0.05381589961213671,-0.020755432055658135,-0.048787140046805184,-0.03771855619944153,0.07497189096568534,0.04709867517841406,0.029957965413318664,0.014213286455348534,0.004936178040579768,-0.050195871068978784,0.017250974674117858,0.04733190971954035,0.015169982654566951,-0.0424273535675972,-0.010023411406908581,-0.008856580948332065,-0.024494922188009905,0.04086835395540184,-0.00872207065803011,0.03440536173046201,0.04459406137018735,-0.03885368307716527,-0.038111651768095806,-0.002966704275975373,0.07128545552726016,0.022951134175215642,0.019155076463312964,-0.029414168942156774,-0.009080016228719054,-0.011254098473775828,4.1176013695447994e-05,0.01540618839812238,-0.05138581583947562,-0.055706450645456686,0.04700651021347153,0.02716702552377124,0.017709407729308357,0.003920467861937169,0.02419376286675249,0.02713773653200731,-0.055758836218465536,-0.02396644997845157,-0.05117217560059846,0.03545684604075387,0.10458440069204575,0.05241472359354671,-0.02414410611520666,0.02758653409457837,-0.02711051436627153,-0.04330810856123059,0.01489364083665742,0.027294391471408812,0.02862137388442625,0.01613018136699202,0.006486376630126859,0.010198411902939911,-0.003092670098185749,-0.05965565496164695,0.015073457543779156,-0.020048771579022986,-0.012890936895875445,0.007992095030112856,0.03392984867804176,0.02294306964402628,-0.015174112195878253,0.006100381839094547,0.048538370740368944,0.034449358842378625,0.02499160223686702,0.04025149042857112,0.04287293886896287,-0.0872777983476383,0.026628352878119425,0.0608993289587396,0.00420659615722621,0.010443616804185306,-0.024991381322602497,0.03809547832012522,-0.011544848486937428,-0.025174657155562812,-0.012010306492722384,-0.033681048022733064,0.0042609419816370345,0.029184718833336586,0.012162649003497315,-0.008199803770583535,-0.053931843500562994,-0.005642219814383833,-0.01759746371145708,0.014332107352120187,0.035815267870571606,-0.003114766196925867,-0.006214226155676275,0.029082629971456393,-0.011036224446027382,-0.07162571964464783,0.01804928164311021,-0.0002237934011222198,-0.036222572686608605,-0.014417629820922697,0.04027053490017832,0.004964553228583396,-0.022909268262171534,0.008587689224354985,-0.002631508103681738,-0.027456470759351495,0.009981001936999198,-0.04413482172283578,0.01774169009221993,-0.02627791765110644,-0.016252304300526103,-0.030900073020101435,0.0008905104989377739,0.00015051741893911958,0.015427268090598625,-0.035031670465876165,0.037509449959598345,-0.00017995511419410017,-0.06438930532037732,0.008651242449841102,-0.05676983877553327,-0.029043627196919622,-0.039803113223963994,0.033109352788396836,-0.035983402372887996,0.033592583392000566,-0.05743927621184094,-0.030777134193631348,0.041565662686606275,-0.053834857458911006,-0.030284025050552395,0.02632764932918371,-0.02619351860091868,-0.017856299610185953,0.00037618953181778173,0.037017649056288876,-0.009643372032034981,0.020070303876019557,0.03557923939729975,0.06501136434081091,0.0015121267288819582,-0.03143993456686394,0.016173492137062876,0.026474905027802847,0.059811012799729515,0.0626940160454315,-0.04486868603139039,0.000901296858442546,0.015846794177037386,-0.06295406572201805,-0.042102912616937264,0.055094477241544274,-0.06214087061478694,0.04336161563464997,-0.013503913651906178,0.017964795594394633,-0.04938549961668962,0.004818565080263018,0.02860170889120147,-0.04405408040827729,0.0006123762715468524,-0.02809019373005922,0.050471413014301865,0.07532554995338453,-0.02583432474361928,0.058368559499448115,-0.07027924576940361,0.061344255833736525,0.05652177636646611,0.02527026778839553,-0.0289302692768621,-0.000862589518482258,0.0657358802128961,-0.06883048756520216,-0.03226952940685566,-0.04792663163317795,0.03531750454569207,0.02886989007525395,0.009131891592716249,-0.06980762425132087,0.062206565693165405,-0.04670225913571127,-0.006540685424720322,0.026542871654427577,-0.07275918355496327,0.017711667285918165,-0.08055357768626537,0.0649566280872048,0.015049179087768169,0.04229396724917161,0.02053500848574207,0.0059328043689462285,-0.030245723454645924,-0.005264427418007227,0.03610109788922489,-0.01220779951483718,0.03877064392656377,0.028452846903447578,0.02499775611990604,0.009885766821273878,-0.009437540471226212,0.04551919811912709,-0.04827708580593727,0.016906120636884694,0.025772690187691655,0.005805031322155402,0.07448643474173466,0.015384700882030413,0.016000889746658607,-0.049536741909078974,0.04227982587888931,-0.016712905913103662,0.04721409301537556,0.02989076114408501,0.04787610444274982,0.00593946738348717,-0.00048528620774414104,-0.03917825981167101,0.06884459157472761,-0.01069637425170975,-0.011797924465535006,0.0756747247994272,0.011920149216267772,0.010271620618630038,-0.018753653837212583,-0.042881969053727036,-0.016407561716558775,0.005248583870180679,0.002269477949394306,0.06762407744740352,-0.024695308775579003,0.0267332591700641,-0.059243338844887514,-0.061122683274006884,0.06438154016881427,0.007394591166292106,-0.043231125347274794,0.017607653752530025,-0.031227040738805723,-0.007140835671235028,0.0072064124861396985,0.021399956396241093,-0.011656010291949747,-0.023716189667042743,-0.01204057774271541,0.02994050613539556,-0.03690534620470464,0.055826403526191025,-0.03667932912195664,0.03251142734803656,0.01850736958381833,0.005373921581171251,-0.052419456767818236,0.013613024196836455,0.00900276993352607,-0.02075357946356525,0.041858936866641015,0.02743674023553129,0.011037092645429444,0.06923696567554698,0.051265219048354994,-0.04043459524424155,0.020022040173170334,0.02927183095522502,0.028848495389695535,0.029833004099340633,0.03554202030129855,0.01046642760764506,-0.016613660261575524,0.045647199634525765,0.013145887638512696,0.05906304547578834,0.04548536331765951,-0.018211425050313448,-0.08295957302654787,-0.008582056243758747,0.012523625339729963,-0.03872374426024657,-0.011198212134037636,0.014259851358836836,-0.02089757308058775,-0.012051962643685523,-0.022922475058450895,0.03802258956168222,-0.002292043554597468,-0.07180706412811166,-0.02751752071065467,0.0385855513124973,0.021427201809256904,0.014779142599084256,-0.047032981718827374,0.06651711155412046,-0.0011177839924619674,0.012030205907570294,0.00850992746202667,-0.036671386694899846,-0.02058453526453709,0.0008349159679072862,0.0034054080965289194,0.030369750679817363,0.00036111663902609514,0.005357073849859676,0.0254357568471129,-0.040652981715936926,-3.174915587356249e-05,0.014424863858893288,-0.0685974825489105,-0.013233030485501044,-0.04202542909907472,0.027689698928429415,-0.004956944076194268,0.011776456238112801,-0.008109104275161897,0.022608444009216917,-0.06154060176322514,0.00220738803505628,0.039833044737450134,-0.022298761332991197,0.05071279369461129,0.016981217458078648,0.04208401401549506,0.03444432706154289,0.02779064518076455,-0.03246063363906451,-0.029633270004633186,0.03358703859491113,-0.012880795295073475,0.013607531344929712,-0.0031030353383520704,-0.012852267156068999,-0.009940253958537369,0.06826475307773917,-0.006720864908770865,-0.006974153866640302,0.0032809390591988213,-0.04339059849189675,-0.004436843677210337,0.022680501950977334,0.022181048299238736,0.0020103936287438756,0.017160166296856016,-0.025025158422124005,-0.021977448031952906,-0.006387306241166065,-0.03313454071119202,0.0020264137563250047,0.0014012392618256955,0.002774177674393193,0.051672000513588966,0.017770983945148405,-0.04986277230906769,-0.05636073713124975,0.037045028566691805,-0.006704594873934878,-0.03512027228267208,-0.0249935416137552,-0.025330664946356697,-0.04940789540854951,0.022253313703834918,-0.05583196989884017,0.0251446972128791,0.022775610540688065,-0.041192114890977294,0.045080558103741515,-0.06304143918596876,0.005754079160506104,0.0390430373275352,-0.029831738399810716,0.005552762929805218,0.024472493821452022,0.0524190678545959,-0.006606527426060015,0.033533915412994914,0.014156365623031995,0.021288620575602473,0.040286914025042656,0.0428064522550868,0.005656788333344588,0.011926391587300689,-0.058777795928508215,-0.014182110320849435,-0.006782444429274978,-0.029995809363733916,-0.055857918396867504,0.009357603476711612,-0.03394991029608274,-0.004065114130094155,-0.006237517867208243,-0.06231096809874922,-0.005448102005861359,-0.025048110605596707,-0.0943773501626965,0.07967488445443803,0.00767396046163039,0.08084429943605405,0.02561012427690921,0.0012931378432074346,-0.02429228530063455,-0.03630948305697029,0.04446337849258059,0.004998062184536556,0.009754051859660306,-0.012053168262077998,-0.026707035415315918,-0.0008948854464650576,0.01085511561098925,-0.07676350302270134,0.03379852625820213,0.011663079506462443,0.010915358969768214,-0.04100498299607891,0.05637596727053118,-0.005868779883560293,0.021271261196985875,-0.03463913003275232,0.04006314412911928,0.05107649574690946,-0.023672542006607136,-0.005178399145528045,0.04522506978160313,0.018537868665065693,0.056478883263768855,0.024319874416158658,-0.032471938534765404,0.05516126372185304,-0.003908608453913025,-0.028776170111016748,0.035978707140089196,0.015331816133080526,0.10437204626644497,0.010565060095972504,-0.008197399898164556,0.009299491750019631,0.046274201096650314,-0.0027586331422503924,-0.03320075988169668,-0.04868419149022492,-0.005677841680024478,-0.0281154735430709,-0.01347189505068998,0.027903030886987302,0.060579126790941885,-0.0344542525000617,-0.09237111882691326,0.04050562792954863,0.06062703971954804,0.0003240547154233341,0.04838538027356859,0.014199644209945276,0.0010888928491562492,-0.0014218810784012877,0.007223228267212102,-0.05850124436479306,0.06097497358599272,-0.03905257059174622,-0.012923281742441995,0.03278317564751149,0.0021368525273059605,-0.07574838301210321,-0.01628930694126254,-0.008373405901715718,-0.07209394247057292,0.012612060950687627,0.05553160258118376,0.007561047276505752,0.011279808040496005,0.06333071880186136,-0.0465377214517765,-0.050329014230205756,-0.0024850292123811965,-0.022942914291716944,-0.0005728420050312012,-0.041707887703627516,-0.025810929899839956,-0.06756228391178538,-0.00904002892826409,-0.01970770714288371,0.008434703974245809,-0.05532656280935064,-0.05047932675043907,0.011662596428574439,-0.00970249317778714,-0.052855467066043216,-0.060925605990018804,0.026697733966110707,0.03488736049440395,-0.021967914561702693,0.02166135795044664,-0.07388825796671337,0.00836102465483187,0.01597087388658848,-0.012325845628313967,0.004222699574675431,0.038652787502679864,-0.008550961459650556,-0.07047391497930562,0.017078804006591536,-0.053010309225314266,0.02754513421347371,0.02235680850247138,-0.013670919292391547,0.01989134390218942,0.012412928592516123,-0.022999973048859285,-0.002078304767722789,0.0001241600289767655,0.009942371140159894,0.0006879814718597126,0.03982246057762192,-0.0012605529252182272,-0.04517759378550093,-0.013677995479633874,-0.010371060651485462,-0.07832829439039217,0.027313742799950528,0.03749335656602349,-0.026109104336787103,0.03823063069101901,0.06819037094849066,0.03367663153972598,-0.00039889098567450886,-0.025152692133987145,0.01633167099066053,-0.02679857177066458,-0.058515837000368914,-0.03731567594299411,-0.054399291973179685,0.015997923593673306,0.022762833192247815,-0.010090749786018842,0.05491771581416114,-0.010688854211638224,0.0001283182610703296,-0.0011119170583266005,0.001994659312557326,0.06177046865809973,0.037723354997976466,0.03221308586740016,-0.019790355281751475,0.0340198420009317,0.01374796954684759,0.017251538015455786,0.0038467743753685993,0.03375175930696345,0.024708966480673597,-0.00015333296219702207,-0.05778009048108451,0.004876131351673884,0.03802775863484977,0.037741797695115126,0.015290209886380407,0.04515413447202461,-0.021764757648549567,0.0020175028270777505,-0.027776103442055923,0.049155177681561066,0.019235649841291537,-0.010961375979490179,-0.05151634872944126,-0.04194110139667914,-0.03345127222177292,-0.04613715535649283,-0.0037193931531175166,-0.029070543438852188,-0.012162335230331086,0.012675945139353282,-0.0049090760336567745,0.014228611838454249,0.03300461601343527,-0.016932777331067673,0.003655800749134606,-0.024580735708905038,0.0047845395036450284,0.004621840742198077,0.0009028968705058482,-0.02673497932676079,-0.038305927731338084,-0.0200818619146303,-0.0021320915963345256,0.018977987091312303,-0.026597459041208377
0:4:-0.004129597629437561,0.01438053750087644,-0.01177935520746823,0.02689733429480013,0.044966161353945926,-0.03443539212660086,-0.048978137991347794,-0.0009434689969674158,-0.026792891185637387,-0.04109835904019232,0.02523024915259182,-0.013469363209302681,0.02201840825019185,0.007231932230824879,-0.03811032870409227,0.028868054358201032,-0.0027448971794284,-0.04042076837906136,-0.006688816665674304,-0.008170573218794556,-0.0013842039286659086,-0.09732787526629146,-0.016641112796831396,-0.07197836311350653,0.013770043417197309,0.018871866451731674,0.00727185674457081,-0.006397034198865901,-0.051693194279204525,-0.009517790790291514,-0.07064155899870937,-0.0365273184153759,-0.05379056107206494,0.019095746263479176,0.032503564317215364,-0.0020260980345046782,0.05235638805982689,-0.014277917714204339,-0.04103618043893554,-0.046609672510664155,0.004962815499537165,0.036529191210800886,-0.0061236338749352725,-0.024883524208119765,0.03155283961487141,0.0005383269031142267,0.020471783046453446,-0.05449004000838584,-0.02808198091521475,-0.061994788240381606,0.0019506889265172565,0.10347074160309588,0.05142396099731351,0.07282888912456381,-0.023969795101534422,-0.023651780333741882,0.016144275604236112,0.008561600861464161,-0.017972608796882374,-0.03857305327058225,0.03016637924480878,0.03522390569970283,0.026381543879995334,0.03658748899294626,-0.0035808592370711895,-0.014583658851175631,0.026135692938376223,-0.008930389181162094,0.03820169498912647,0.023943290950220963,0.028817113195705648,-0.0010122400433586812,0.021541501313707957,0.009300110494848388,0.0012802062969484744,-0.0192653372601497,0.0061826670582289765,-0.00220582683633971,-0.05841561977288381,-0.03380296734821322,-0.07430023312677099,0.016946412934461638,0.002308814998332909,0.000566298414281644,-0.007502258743075849,0.030346615617943204,0.03738185164418716,-0.004783453614117615,0.0061081166323595,-0.03013910326610394,0.05105329660795111,0.013374593319799944,-0.03906153065358537,0.008109918564766568,-0.012408191944990389,0.00583732296857651,-0.008343554416505075,0.030248707336667853,-0.0020027738031335655,0.012702529034682842,0.084372519089405,0.05072532866759557,0.013809681495370504,-0.027335041581972662,0.004889253819316708,0.014599514096754812,0.03671366805393601,0.02362700718833391,-0.02492454727157148,-0.01871156950293915,0.07947996078429104,0.023869806196154822,0.004278561397639169,0.024279331146701742,0.036830811112338886,0.015695410510117514,0.03232832872227017,0.023913649295369183,-0.022546169968059658,-0.04548841631383506,0.03692821827633132,0.024212819745385653,-0.012189109496910376,-0.052111529748778786,-0.02372128102210897,0.03683095387226106,0.05095005451104629,-0.035190762985805556,0.080990832103024,-0.015631555293050034,-0.014343756955095037,-0.014566903499679216,0.006082666061680303,0.00791099452568366,0.007454941984223341,0.012937756429058821,0.0289700459864114,0.024104523361572903,0.06630939073312311,0.054936567458505337,-0.021041088396051524,0.017457007968082867,-0.01162214621614097,0.019190430097501234,0.022655488158712756,-0.044462248086911536,0.042072580012167224,-0.012452020401429557,0.04359903240147901,-0.009365561499612271,0.03901344541948617,0.01763045618658538,0.05086764843393374,-0.0002667251463489887,0.0734977507270785,-0.012713761965982534,-0.027955116614439026,-0.0013746684227262768,0.027154493374966716,0.01437374483847696,0.005960581516583435,0.01456482817518966,0.03977714114754012,0.03845923841650093,-0.001800592925296693,-0.01862305635868844,0.009459356174888876,-0.04340526311356062,-0.028158032795133923,0.000795884335802736,0.04513455897859466,0.0020880602630012537,-0.032108570349027456,0.012233183118978736,0.01477062588395321,-0.02441995022909448,0.10467532542722802,-0.05465746368534784,0.11054551355452137,0.03581937481778525,0.05219710966105696,0.06388595753971445,0.051090803726449696,0.045435593902084175,0.0988274616375695,-0.03429195661380312,0.08449241326700074,-0.026501315236616772,-0.06189430127673168,-0.013943745523463677,0.04577130825163123,0.0007828949492897405,0.024332590430283102,0.030512687544256303,-0.006025592765038154,0.049221118028679206,0.0016425508945305644,0.018563452264363355,0.03269900955272934,0.0024284676678559447,0.043440339793837886,0.06640958651227752,0.03843037218561448,-0.04152366650889322,0.014484962794941962,-0.01968196738506905,0.028054434799382886,-0.05445914715257078,0.06327581814228865,0.031770674041749825,0.004947450803415807,-0.04414194657072075,0.04321077291002468,0.03136176643569099,0.056907715611632013,-0.016824006903121348,0.03239511095749756,-0.019420817042938878,0.014154393788140991,-0.017511470927594766,-0.00646927578272589,-0.01665864136892555,-0.057920274717844514,0.0018052633773896027,0.05065703590391653,0.005017060282864916,-0.05818996015568567,0.011137629959372723,-0.013288918571330272,-0.002877482544194466,0.006097761655431348,-0.013504272157200913,0.07391106955134262,0.04783067780997423,0.03028333531150564,-0.004633600490208917,-0.009911638034209514,-0.01068608886389387,-0.042742523052632535,-0.03477183375098923,0.0258505223938112,0.002621079201391796,0.006887891581577476,-0.019065905189268848,0.09817105922612841,0.08901690020397818,-0.02059448500646769,0.05028758075256859,-0.010645407249435282,0.019559178526818825,-0.04198076344115535,0.03458468274020602,0.025987220085399738,0.04450345389262953,-0.008083289076237907,0.0669188019890672,0.04420319756456284,0.021550799767260154,0.017035928294299164,0.039212484795358965,0.0038455850350528863,0.03370156238600892,0.09838468584340752,0.06510815464032685,0.0196704300712297,0.025792250743058097,-0.06364301963724739,-0.0076074060241524645,-0.09608596598496094,-0.030554085281277864,0.09603409872579503,0.045922007657987415,0.07332993232953286,0.03601963433574951,0.0317838985178472,0.0026940949857054306,-0.03465671617762605,0.04324809923828679,0.002760316862314781,0.038165809919783515,-0.06729616261785112,-0.011965484338413475,-0.024875727575188127,0.028915588354368173,0.009971880514921764,0.0023762905271561907,-0.05967953083942025,-0.015496428462559652,-0.03037144032837984,0.02327216476750697,0.053976027135169725,0.02420678385420206,-0.029632809547081668,-0.0010871959058017114,0.005927370953663837,-0.01706791646944916,-0.021511272895390444,0.038467239464189354,0.04630935612136406,0.007010271486805371,0.0813446492563841,0.01623648382764392,-0.03325735047445723,-0.045736137510005256,-0.018828107164077953,0.019766025138299857,-0.05693584482611839,0.0027044726879678176,0.038093338822997945,-0.07913130628615306,0.009344055961811672,-0.04703386677197131,-0.021781257605399854,-0.05469079717922742,0.018831803094600672,0.04210664486969301,-0.009692642018241793,0.0059682306445491004,0.051868777077774215,-0.037898991615555315,0.043913801686989204,-0.03957980880498653,0.024990597160467212,-0.04438314864926802,0.0021059857457291302,0.006551877227419733,0.05293231197425835,0.021710920639166954,0.05230951646398094,-0.05476170081119242,-0.0663866400891498,0.014741456767254675,-0.05310544350358256,0.0706257700823332,0.016374045780392515,-0.08366412343633181,-0.013842008177249555,0.051126608221596814,0.010188290792626639,0.0031328929606768132,0.031653914749978584,-0.04044253075121749,-0.023864902759053452,-0.03723125630238799,0.0559610924752752,0.0031950365769869596,0.01692126926393292,-0.04126579628651902,-0.00011321309030595496,-0.08816963633268815,-0.004658087004141535,0.01311934802329445,0.046826196197322124,0.030620038141883896,0.041100025803566316,-0.028605665455991424,0.0003501527789872656,0.001672384149334256,0.0066216902343296385,0.029304233958335944,0.047632315807652176,-0.010530900970065763,-0.05068469528650384,-0.0075488980976579235,0.10060452790755481,-0.008371115981738364,0.006888613395258536,0.01980543272631748,0.050975928665785895,-0.030590696070809234,0.0034505071293456473,-0.06476729101429197,0.07776724815043137,-0.017026037714545,0.001561093607809233,-0.041951140556815834,-0.010704785731347043,-0.011329354725025012,0.01531083392694762,0.06593505439935299,0.08800562328405227,-0.012726053994282806,0.03987282436103739,-0.009337922703323924,0.03220586663091171,-0.05062779408958331,-0.030094294675508892,0.008954615418418238,0.015832099755707214,-0.001943699637630716,0.07167382497001604,0.0018307526278053682,0.009556102520258255,0.05060371589842644,0.0022447555544715674,0.013696708325550424,-0.004655546749216157,0.017472898482149463,-0.10941729054017993,-0.06438527809470308,-0.06178037489318738,-0.046874248731291084,-0.0729458136302207,-0.0025409665628552567,0.007067030002023674,-0.005170787321363061,-0.027057795484255902,0.0790087416675712,0.024060694235231588,0.05730275762224884,-0.021610503577770824,0.0013490594712074633,-0.011642455067917504,-0.06643942164602328,-0.03710037829803662,-0.05510458298404428,-0.04197244714621217,0.03034691277279238,0.04077689608242319,0.0018562529756046928,0.027110226955075332,0.037118193587421994,-0.008544736601883244,-0.038590729218705676,-0.021050195977143516,0.00626514128663183,-0.04008695052107495,-0.01862171611038043,-0.007050970595487754,-0.006232106492349967,-0.037865748031099676,0.03450424216008858,0.015320623100102902,0.01962795244101296,0.0490534226705205,-0.02040191020658692,0.049601117489974984,-0.010759374306170716,0.012638947455383862,-0.029323951989593675,0.02012227682802172,-0.06053290991621973,0.05313052929544897,0.03208485297481498,0.023130329855775823,-0.040388319714333334,0.025317332603585367,0.005733123825488421,-0.01442819012844986,-0.009467721586177025,-0.03811224893208172,0.029683570340196058,-0.0347794626444153,0.021058947430874934,-0.06387294526892758,0.023136679455526745,0.03914163995304213,-0.012360123227465613,0.03877724653802613,0.04178269351666775,-0.041251458210525414,0.026445069081162783,0.0231173947104644,0.029207332426841166,0.04212742571449268,0.05350548022604135,0.04135425843699403,-0.022498079425014614,-0.012715153740040185,0.06481381418410186,-0.01934122047135592,-0.07322736947789614,-0.06661477897678988,0.011607862188276833,-0.024682185779522216,-0.002261586795229877,0.06511754595682452,0.028682063286189056,-0.014079052759538949,0.010264671144803962,-0.009645725232533825,-0.09414794064652882,-0.007618625188268198,0.012418428978235842,-0.013846744472435847,0.011908339781478773,-0.03427835001255902,0.06962040347025195,-0.013932959452589827,0.014131289205788787,0.0762859713680221,0.04654230866783301,0.04047592947086743,-0.02193429394462091,-0.029755951261873113,-0.00334924565860218,0.08305198667816431,0.0019062622616741287,-0.002773269145905364,-0.0008189778309868021,0.017537194706488107,0.0011245509302395809,-0.029344306081459572,0.02545014898523456,0.0014124673687267628,-0.028655746254406263,-0.057116452730303635,-0.03482655890296466,0.012660292406287653,0.051802638618087565,-0.047737979863783996,-0.04062860052232889,-0.004966714629274175,0.032617073876595896,0.01737040276352389,-0.003166698932041881,0.02496053084453789,-0.009520943907077304,0.01086111362378243,0.036180175392884484,0.048068848070220785,-0.025526448697976364,0.03241154125094485,0.012495787071533636,-0.035541119889456914,0.057154118779814224,-0.0041957188246821665,0.05327054190041608,-0.007758147998112999,0.0023617456634382897,0.0031890981686834405,0.013979800979336808,0.01539629220794413,-0.04146382914710796,0.02847375347824307,0.010847001746740258,0.033214740393972236,0.03425671313821305,-0.038931300847960246,-0.00036704948155482676,-0.02034818256685457,-0.016107445188993142,0.01445353020687622,-0.007097569931955558,0.062204212364636795,0.07932303047895191,0.02191348623996905,0.08088784811231152,-0.03278663496185842,0.06604229992589293,0.01112078304696646,0.004536603660978071,0.020119259794136726,0.00900469141825078,0.08052114090036899,0.030742666114409897,-0.01059788878278583,-0.053632154625498245,0.01329612283923429,-0.08410023263970626,-0.017500178305592758,0.01645455856817576,0.009580697905663713,0.02106946829729607,-0.02941376110547395,0.054527979653606194,0.0003392482521827708,0.006571408233773666,0.10491895873793736,-0.046056576619578814,0.01020929871741717,0.03199847156553071,0.06361436838647033,0.004314201720104388,-0.01788853819364873,0.05133986513754802,0.0371682903336758,0.004052599996432872,0.002579636869456753,0.0632785744947342,0.015813400845731795,-0.003215622420737438,-0.005545926479115201,-0.004692744186838756,0.08286764107496197,0.052718123735981004,0.015239035555208273,-0.042420190062960925,-0.07199899207572213,0.012446632221715607,-0.024997592301876374,0.004533148670833959,-0.001932797278377734,-0.0783089530095059,0.035652251158258715,0.028712711385094587,0.08471637585231391,0.06663039777992405,0.03405162496622142,0.018036884503330644,-0.0025218355799074893,0.0027296974089578915,0.011235715951682837,0.024672668541194032,0.06933087483575735,0.07456458742500202,0.06314619703840697,0.026112085051002838,0.044147465579539816,0.03736003107447011,0.06238418181733013,-0.012423474003415662,0.008608198548791666,-0.061740338376301565,0.013113696964411331,0.008586832337988909,0.018465376559754502,0.039000420088194314,0.03185697076093546,-0.022388129710226586,0.04448771807593834,-0.0031610997180560644,0.02656140151265395,0.012220100650692917,0.03351403594115696,0.04625237177494867,-0.02638674830496953,-0.006287714759695078,0.03698799470242887,-0.010392406060448015,0.06201741064809373,0.05616362330026904,0.042845941930434915,0.002549668667555397,0.054746929450810305,0.015791079488428762,0.011931493335797285,0.055743077020031374,0.052889569303888696,0.01641842890754908,0.013357023956806605,-0.01114945744095273,0.038114926984015814,0.006441253483527057,-0.0006333951880930673,-0.005480802532494278,0.012490590712134375,-0.03543283938710471,-0.038839803294416275,0.0016476605770369451,-0.028844957708748124,-0.03970128884603107,0.025213097904913898,0.05143144210252345,0.04560929443634264,0.01617230755879052,0.015556673426194385,0.04189834188422011,-0.006580094923703575,-0.016533944078134324,-0.03471657621893147,-0.016306374421344992,-0.014830971369386553,0.022508235555790863,0.008440537316043526,0.028895820929325945,0.02024590885893265,-0.038795213019411016,-0.020209722097165223,0.03630383813678118,-0.01993527963713516,-0.023031400976659608,-3.653906370312604e-05,0.029173580839050813,0.00921877255908983,-0.04111859793440223,0.0035068574853385263,0.010142658186151628,-0.052711710015675574,0.058242419427304605,-0.030729833787500802,0.053693104483802934,0.027868140983717503,0.021429283444870672,0.006812693528123387,0.038239961039424814,0.003000771161431295,-0.006137501344006709,0.07545234316470846,0.04466908340025548,0.04372994805935524,0.07646526040420569,-0.04443553569097974,-0.06659837021858084,0.057880227257409066,0.01894586554487816,0.03399279723329907,0.02085563637269937,0.07403190660595287,-0.08797875971837942,0.03210481381646385,0.01320885000596988,0.007608137484646499,-0.012681069819958656,-0.03850614797703991,-0.024048415432244584,0.05529504790757566,0.010186018962479728,-0.02349786586660025,-0.05139117641986816,0.05234331445442138,-0.06507089325503651,0.04727781281506826,-0.044864630182150714,-0.0019051026075611198,0.06372652837270328,0.005903502769578479,0.0016231712779017995,-0.028135116873359855,0.033334114633645176,0.048046003726368254,0.0172801197474205,-0.00447513940064045,0.0001783591815765621,-0.005681272543786016,0.029182472335051748,0.02224954454335206,-0.02135664545584289,0.021901957152860422,-0.029510495410955826,0.026158088334712504,-0.0037445229628981,-0.0635660191172732,-0.05798733758258213,-0.03616353466133644,0.004149993448745296,-0.020792102284144888,-0.026446243266615647,0.03305515967667495,-0.012474725774783724,0.02598551729094122,-0.01322441814931265,-0.008591468975830036,0.021611985639300415,0.08349486736328753,0.008116090764012004,0.03941816475225175,-0.0040846311230757415,-0.05433419609651389,0.04397700382590513,-0.002781130378365847,-0.027532438336781154,0.0501868168058786,-0.01291423541772121,0.038808171433765255,0.02318150230974653,0.02176192265081727,-0.05829301535369787,-0.025087631785273443,-0.011316882434709517,0.025783546611648674,-0.030379164153252425,-0.003066394161221973,0.018628052830878806,0.02149944946048533,0.011525317122552661,0.04283647732619778,0.006909351416735926,0.036009765987367985,-0.01633487882727378,-0.016061162827871185,-0.0053833434930806905,0.01566292776038721,-0.007842453981600685,-0.06119905914685183,-0.05594098550964517,-0.09917564548358973,-0.011534353862286106,-0.014475255144311493,0.026975363542760956,0.0444943142916229,-0.015080525732925005,0.046712649901606576,-0.005548675124482907
