-1:b:1.3653971911322011,1.234157182317155,0.9502202289679889,-0.26254851693119363,1.5496940590594936,0.6668755197056158,-0.3032974384389937,-0.12684212340988132,-0.7928864086173162,-1.8494826785216882,-1.7924043254345268,-1.6245619625655108,-0.34581659438985873,1.0295856465089916,-0.491257869370698,0.2162877419503101,1.8718730822841871,-1.3986188286709411,0.3119156387744361,1.6457249105773035,-1.9320684134651973,0.1117984254525765,0.0035152144445151066,1.3201888682491874,1.238138116084473,-1.2659550158291122,1.4617625726596026,-0.4435139840590039,1.9788169195547867,0.5096428155476949,-1.8442508346372941,-1.5229623250478745,0.877917275683318,-1.7331434012551306,1.4006781717946428,1.1818841962877695,0.6960332807113317,1.4208647607343705,-1.7092424774050836,-1.606619289076324,1.3777024460712823,0.31502125263729414,1.2655705290109684,1.191304157925615,1.7076040329001831,-0.7893804194459872,0.5962096815388978,0.07174703084452373,1.8195607075450997,-1.6463252446529677,1.2107737348075231,-1.4502811320884494,-0.9205172925245835,1.2517070278778721,1.6326059590224842,0.5463896579590363,-1.4797510547142227,0.06896804428766858,-0.27695895684709093,0.03314543526500744,1.135078494991433,-1.2138691205270997,1.0214047836012383,0.39892897311550307,0.7723412477581826,0.929973775756119,-1.0000100169399704,-1.6659631128677144,0.3793619747998588,-0.49620860801654426,-0.7378363411242019,-0.6205237385371248,-0.8749906723177655,-1.7157603919439963,-1.3655153485646645,-1.9685739672008413,-0.0788687337791325,1.6850682130042445,-0.7035900086242464,-0.07760040440263957,-1.644750184841151,-0.37157893843470086,1.9958209162306986,-0.6407657372506343,0.5565833721258223,0.05738011298847718,1.150659377723881,0.3867830355788664,-0.2169332850835044,0.9745021904353014,1.3280170921737118,1.4260655009743743,0.9447551582040237,-1.7014187389609465,-1.1573167505055348,1.0922126529181186,1.719516231740892,0.7013351304496566,0.9304427559564639,-0.43414272811208626,-0.1546513474847444,-1.3813662488385634,0.5435268553561993,0.811358756577397,0.9600494444548231,0.47150147538056275,-1.1907898942785473,-0.5074510395416535,0.040953722890842044,0.9150199251536607,-0.4937139778385822,1.9787613740972345,-1.4046264086822768,0.8846311180293215,0.4562927218259018,-1.649463507666233,1.4135991617571944,-1.2455002593047637,0.18988311718637496,-0.4263778765949099,1.5093262489841994,-0.12283058474864735,1.7652007533508196,-1.5390119545158925,0.9891118039895355,0.8150323115773551,-1.6023086009682048,-0.2849307897878882,0.6550803008145378,-1.383817214414162,0.4568633741721527,-1.2263985651046045,-1.9448203021094481,-1.7728918739041166,-1.47662751970913,0.6867684243604436,1.2946569303866136,-1.985691990951329,-1.4558094659645993,0.14896504487982823,1.7150917274520352,0.22722177913987332,-0.3851459606626415,0.6237666319254614,-0.3142806777021121,0.4449363245795687,-1.906630987860002,-1.129889066813289,0.8682749373483856,1.282272351575456,1.8356846641340885,0.6730128818765542,-1.559010317408223,-1.8862212730761128,0.3007475984018832,0.9969841085671493,-0.02678531507381239,0.38423206434379714,0.12412251950916009,0.6183792285637928,0.7969540940742015,0.2044286213251818,-0.8240516198517285,-0.3910736365108398,-1.252712797883789,-1.7201487216961207,-1.533248268196119,0.3036864558212063,-1.8848168828737144,0.2960116553150092,1.3904987111594524,-1.2368329524534398,-1.050318278555249,0.23919336541956687,1.5632435121545252,-0.5767480028394985,-1.8757609933470047,0.6644237473422925,1.2603222624018522,-0.8179088147885218,1.9498326586923176,0.9930034477667302,0.22594763226967493,-1.7752214070304335,-0.5074758991668146,-0.03362711915803195,1.0794093425406128,0.8060653901344026,-1.2427706744464055,1.233064304362725,1.0178284584209527,-1.1077470247522525,0.8740186177172765,-1.6851327913566232,0.0076196667194438706,-1.746980890653759,1.7608529669329287,1.8808841703239767,0.9732851591783975,0.6481027677626844,0.705695765625531,1.2374848167177872,1.296743712243687,0.7634957900624967,-1.9476243093105858,-0.749444581731308,0.24332598557356147,-1.6324243395574993,-0.2020114377504302,-1.1016964570931758,-1.7305410424046936,1.599879367461702,-1.4302718469814266,-1.68352292682779,1.7273922119295408,-1.3684405286309693,-1.115753419905356,-1.6198666788818876,0.7219822600258778,-1.2777127949329854,-0.34555193032636994,-0.19007973029774278,-1.3918093898780644,-1.199730896891149,1.9721367818191553,-0.24700378875897866,-1.6550715379659846,-1.0170710453090135,-1.432264007292353,1.314979383417422,-0.22907914707365815,1.8477781754631388,0.9544308374786069,1.1963113106869927,-0.8883120280524412,-0.01651410756451193,1.054305818252351,-0.8647096308984547,-0.3489752722837331,-1.6580893904416545,1.4799747173186137,0.032792909019393246,-0.1096008108973158,-0.8197622598605845,-0.3797034355287269,1.5659918585665724,0.47369391743369466,-1.0052249065792784,1.4653535650451168,-0.5791907411549233,1.6833035040767894,-0.2151387483035001,-0.02778498579200104,-1.8253735436657794,1.7357976627677765,0.14703490240602807,1.3218211452135187,-0.019175948673778823,1.7028367545888647,1.687907523437458,0.05920302483356529,1.5612034484475423,-0.033845160936945805,0.9339239147449214,-0.5533836619400445,-0.340216506563484,-0.5972961300007198,0.09222039600069719,-1.6785174625859116,0.2897316628921814,0.11271101678246012,-1.9783758311953719,0.6047718937644476,-0.37077810013640417,1.25828475960227,1.8756143219676786,0.7596808638130063,-0.10627467554265171,-0.13819344681719276,-1.574966823839981,-0.78917096880797,1.884844578811391,0.1093904591794173,-1.8215729305843364,-0.7685042569808538,0.2026654261210815,-1.2991371389218247,0.23009874950574727,1.1148799669593354,-1.2135940670481697,-1.2778228929486786,0.9846689006675758,1.4547357033365522,1.0511537898231236,-1.3205069023234253,1.1699676562610966,0.8792735224042666,1.3532027428906588,1.9703484637992785,-0.4485015865018046,0.3549608981618524,-0.6451283294241789,-0.14226572193576953,0.5559457778283947,0.9045169883751368,0.8486958839399208,-1.0787327739968955,-1.6076578263819634,-0.5102086679736754,0.2876994187749334,-1.1218049569218103,-1.047872666628678,-0.7257882266547034,0.4979186580500001,-1.188906112892206,0.3992946891555824,-0.6758750231787962,1.369728689322411,-1.046482190596294,-0.8874057757153703,0.7395261462762751,1.4553801038939818,0.2883002276922677,-1.4366273301362487,1.2063953168799812,0.32199959414773444,-1.8363176121990978,0.3990369146913924,-1.9309907396162873,-1.6886954254568156,-1.8606863404833467,1.9536130789418478,-1.112103184138117,1.53371095505506,-1.1572899924617186,-0.30288503484793333,-0.5720277842980369,0.6348056665507023,-1.0226358533256148,0.38772916839000976,-1.6350272871738625,-1.822842381388241,1.1091048356582238,0.4400482751145064,1.4152243749323143,-0.7033182564769572,-0.5360558255468526,-0.5209902796928119,1.5665636607271942,-1.1340743570597094,1.2445369188269226,1.5048404828659072,-0.40695952800856655,-1.899210595735323,-0.2341021738613017,-0.09097974406255048,0.24536493214643904,-0.5044278980961445,-0.16764331589235848,-0.25827945357336257,-1.6535031072071225,1.223243805715589,-0.741981923373203,0.20537295525148241,1.628552114574605,-1.1572913728765708,0.25657636059414896,1.5835751372358067,1.209817420512049,-1.9652187577365399,1.6208553485608352,0.1367334777231996,1.1348660546345783,-1.265569821480844,-1.7828652381399808,-1.7574514937902066,-1.454310784627594,-1.0541438903142124,-1.7412990785501634,0.21666074558417153,-1.0591992885423096,-1.7961610217163315,0.7343335827837768,-1.9300026578637035,-1.6429806774578615,-1.4110241646199153,1.4009892464949492,-0.5070574007723988,0.8020364822327382,0.5414034840335908,-1.1831215502422494,-1.121688898489003,-1.7160257443112434,1.659276669831618,1.5489769950166346,-0.7306389718731143,1.4902194006889686,0.4060311344248184,-0.8050164113063488,-0.12514654710790654,-1.2149300934869651,-1.2291260378841566,-1.9313645407934614,1.0966081354993393,-1.5220083925503785,-1.401856163323525,-0.18328300661588806,-0.428685595965366,-1.7808056523501437,-1.0311115204336865,-0.3274016474349444,-1.3934044166598554,1.3950879408304262,0.9039131009172142,0.17046833262895736,0.6329557533482089,0.7570498161347641,1.5815520637516216,1.0224024116455754,0.09529946986154901,1.898685853689897,-0.8505691887088107,0.9024620140053379,-1.2599650874249027,1.0920137668192906,-0.4125805154936455,1.9611456041360542,0.1644540579781687,1.577554965416066,0.7163317281341784,-0.5237663857625533,-0.44548849499127224,-1.8466129407814362,-1.9365468162138075,1.6055941927350361,1.784789700058533,0.15895432614306074,-0.6543960934559718,-0.8851046945827709,-0.6239041305917455,-1.1402147303017962,0.7350023446110787,1.6919907883252598,1.9775352726402022,-1.6035244017134174,0.0754191809727917,1.0858361499895695,1.0954251358639813,-1.3618939253249107,-1.72285985510051,0.6563985879936586,1.487802636887678,-0.3043255201843701,1.381438274307799,-0.27505196977147156,-0.5850227295399416,0.011239264311277688,1.6442621709407788,1.6869825577072817,1.1781035921815108,-1.1674985783659428,0.5298314053620414,1.0492763051068004,1.6273956253480766,0.794610512971697,0.8140695702446985,1.384057389860158,-1.2676043186825208,-1.0988384401379037,1.7201530916861387,-0.43827409519159943,0.542578238924071,1.2961305502912,0.6140701388830341,-1.8065238467016678,0.2709267797839784,-1.4010607614405792,-0.3133991390025944,1.4434818589491265,0.04460966369024396,-0.5962481198448724,-1.0396733147718265,-0.4362932410971532,0.7563418847231527,-0.7592341849342923,1.4098744701797497,1.1243225383314255,1.3746313875653091,1.7880572850068808,-1.8555054966973663,-0.8932515635249342,-1.833196352486679,-1.8921087586382246,-1.88741222156371,1.4950519562487703,-1.7982227132621613,-0.577687332674373,-0.9068293817125233,-0.3097896166251841,-1.8267897010918959,-0.17460986966908104,-0.3410808156797105,-1.3151819411695813,-0.4553446740948859,-1.8946821056116026,0.704834079085151,0.7151589050620067,0.03212153761706634,0.518249468236969,-1.916687428179741,1.4375043510750904,-1.4767554765083264,-0.2763271436465795,-0.7862121446398772,0.2387786534355789,-0.20628334951905114,-1.4992565096696118,-0.4226652912096317,-1.286517419773419,-1.163214693175349,0.6191438823693742,-1.194434262194998,0.8834669882143418,1.1412125671419096,-0.28995801854819714,0.09861335761123127,-0.19647344979976838,-0.6047518186775251,0.8521738155442664,-0.11872424598911353,-1.4606860909189447,0.11444751972075068,1.3701232535996746,-0.6158591649921991,0.17883057411622422,0.3016900768624264,-1.7036103855370355,0.021601417308520172,0.2644554682969401,-0.19736681989321947,-1.8470125537288271,-1.8831178559838495,-0.1925020810052951,-0.03937561752980006,0.695379760530966,1.8701336149508785,-1.8997723666083468,0.9725927605834995,0.5074360585758577,1.0179907423010173,-1.777218227516057,1.0524181459453783,0.9435176991272629,0.6988155184071921,0.4121242811344147,-1.4151156084380285,-1.8696304506616173,-1.373705850201588,-0.8964730436320386,-1.3904100050434525,-1.296786104459017,-1.1816895372178386,0.2565351108196399,-0.12161133713894443,0.05826018474088679,0.31273773967897334,0.47236969246767363,0.4902504039151286,1.7955039440601799,-1.983909716555249,-1.3093948343872173,-1.609804209839624,-1.1777842197245154,0.9099705289897727,1.2170659338332952,-0.26751548072603765,1.3249059149584008,0.8580205553927469,-1.604876264565743,0.17615818542978387,-0.4749794359383725,-1.6060279737898808,0.9646050131005612,1.3125682036289583,1.752828577631528,0.3705033926653228,0.8105022609680634,-1.4685514010125829,0.2264894093899205,-1.6885639516638324,-0.4486274984874601,1.480279467896333,-1.6862170752226624,-1.992529350682883,1.9358625001684726,-1.403227529218133,-0.1417545658103448,0.40591593972244316,1.4518193501066883,-0.5041480785196792,0.08668121091842296,-0.1739733277399467,-1.3591907050448473,1.153980274525261,-1.1381657832182852,-1.1749405527794856,1.9772355331149492,1.8849214769141804,1.0955834873284458,-1.3834320820164079,-0.16535974788570038,1.9746194200241258,1.7525179113655962,1.632210910867292,0.8999227391390692,1.9942637252534026,1.4329567758981652,-1.2177589767574029,-0.5144413988311651,-0.06662841510577888,1.6064159671161906,1.2716819506749464,0.7765798124347,1.5087441094512084,0.6238541429666156,-1.834306309280691,-0.3033229090553002,-0.6767949693963241,-0.3570105121000656,0.701012032014935,1.3140147679215008,0.509464249933521,1.4777156707275125,-1.0589163401093398,0.705110839810474,0.1888907667582499,1.380491355530489,0.19110266789325497,0.7150426157978862,-0.5759756397621254,0.8618462823905603,-0.9189413299133252,-0.6729355094546173,0.6013251245666672,-0.19934856301387116,0.6612269817669382,-0.49783136618344703,0.10063825382928784,-1.1980580624902917,1.936032242149192,0.8384424048857732,-1.9214544687832862,-1.9041565329676895,1.5768811260631501,0.028733515255947015,0.20598029785317337,-1.370443682627592,1.2269581472615456,-1.9048948825931116,-0.8280287438257977,-1.266477583827815,0.9621528795579625,-0.766831861429664,0.7262906047896605,1.866876541403772,0.4152892314043809,-0.1751366220474033,1.4479409462517003,-0.9536188011670017,-1.4846496905142006,-0.8344833673373531,-1.1025937816166675,1.69325469765429,0.38947577145670154,0.8039134938772439,-0.6236936268535284,0.8317494896346739,1.342752737276762,-1.909657356128537,1.550561060574407,0.7895415638805499,0.8779902525157016,1.313743089453543,0.07584304450054007,-0.36428072597629724,1.3945222068201932,0.12624980160975754,1.8630348982564533,-1.5441305051797283,0.5628026752200399,1.4742165233268825,1.5958370844235406,0.6642352753629949,1.7032890659198148,1.7396519289180303,1.4577012570420673,-1.4086564869689826,-1.0321468312561777,-0.06456589042176404,-0.9178369880656772,-0.4117546804410992,1.9669549675215905,1.4313784912243086,1.672562211987632,-0.26694689399558374,0.15369507119640288,-0.12032479512291817,0.4998192476154377,0.04806092898236502,1.8275114302990996,0.6941713355883438,-1.7253385832403154,0.45994117749580854,1.0090337382449401,1.065481894768694,-0.5013154966280085,-0.061362921457659515,0.7780030671809384,0.049365224009385575,0.7743995487991803,1.2608213243678241,0.5377302479143927,-0.19624867989507372,1.5189345708310928,-0.7936151182851334,1.325891119387688,1.9563292525832656,-0.8874522049720235,1.4078719461047589,-1.6033908656993567,0.4744500331987143,0.746855566747193,-0.5216717989466703,1.4476739037560682,0.11071329036069034,1.9139481480282754,-0.1961936970216193,-1.4217761274841583,1.0491195619280476,1.0541497813535772,-1.1642170999737824,0.20641571976767226,-0.6146353248791107,-0.37044336586188087,1.5787901850532893,-0.01741881139241745,-0.1230684256479637,-1.7712896917530077,1.166690219823736,1.1340547456570838,0.6274792760601083,0.965899539011227,1.2934200758487993,0.5581802477015679,-0.28794110772199266,-1.7265334188428816,0.2385642099089505,-0.4694086893331533,1.543501673193316,1.0273569687357813,-0.41933642477761746,-1.9467918635463604,0.7185139608767888,1.7928023501660788,-0.2435379404585175,-0.9641380335877253,0.35290454770632046,1.0840950547269395,-0.6186117006343321,-1.316133084507329,-0.6612643824390861,-0.8576044972086386,1.7073930693028485,-1.1801720533777038,-1.283980111194726,0.38574536030388873,-1.619202933551454,-1.6708466781947426,-0.6275204436269259,-0.6367667422247822,-1.6824922763592975,-0.6429276427343829,-0.2073430963942302,-0.296812561837986
0:0:0.04664176893043691,-0.002377965842979785,-0.012740712058786324,0.0015345819786539996,0.06457801350533063,0.026010003616950297,0.011654132004613075,0.0028434285141887717,-0.028766833865232475,0.059439186841617656,0.017190824180944295,-0.0544187426343718,-0.0023857295305711157,-0.08304224254043611,-0.0166106215691755,-0.012747658086728328,-0.07373503059169802,-0.05396267195168677,0.04576473653683722,-0.0066221435888183695,0.060118266538964946,0.02597348887770552,-0.07704123841764209,0.010800805186685643,-0.06332976172885761,-0.002736785778226511,-0.05317867377708951,-0.06732809900496275,-0.0219280333012993,0.005951409842222051,-0.019107468710620724,0.009681534298573201,0.03590467106624522,-0.052702806184919536,0.04255047968725274,0.009384457283540957,-0.010948516107847087,-0.015308616194788287,-0.06189517525513088,0.008158923770135676,-0.05423395572196883,-0.01335476555866803,0.03325967826643635,-0.03625237255823297,-0.0500747199486426,-0.008587723708685034,0.0036458657115484654,-0.014052289793308892,0.03475462129307109,0.028246649346294984,0.004329680101496693,-0.03823646794769255,0.03019377210263824,0.021755830658971704,-0.009189380591372611,0.03638713119448181,0.003922978630804703,0.05429690009300199,-0.04938329130884232,-0.041266933318431794,-0.010126159618159382,-0.0135673740631747,-0.0019439184640251113,-0.025710660927640586,-0.003583987307652,0.03207230891188876,0.0036374534377869106,-0.0316431835139887,0.07633977373175005,-0.043434769000430334,0.01908261564236933,-0.02409124325923942,0.03173158477641273,-0.006760318705205254,0.031740897002471256,-0.0024780188724044102,-0.0027497235752394224,0.011482784730533676,0.016064791111971084,0.06573358869422603,-0.07571456805049367,0.0034297623398929465,-0.049703521205743194,-0.024799760596321687,0.016181026933039765,-0.039235650801744154,-0.06306982568248932,0.0052053332617288455,-0.02010017288542924,0.04328070117531236,-0.030970408038280266,0.035231393147094676,0.013949977007983326,0.040770308130958444,0.007169316220673709,-0.003191556071617356,-0.04303327553429134,-0.018557658837709216,0.0061352646279273304,-0.011676874996066643,0.04523087259507942,0.015811678957683633,0.06573805351600913,0.047891153000183,-0.016214732552133054,-0.03410224408887979,-0.03314239722423921,0.010987504646230458,-0.038423543037797665,0.06481432898843667,-0.043636164942625816,-0.04471932376295691,0.018132562207752022,0.061154189131735565,-0.0006185224767731353,0.03530125601643324,-0.032895424598984126,0.03277779652149628,0.017296034413603324,-0.016194751817839276,0.027960788154945827,0.07617632686655335,0.03356161547846979,-0.004526815591966459,0.11577035505789587,0.055569717941122906,0.08017061081844014,0.06268431312539131,0.028979363210542654,0.03347013773882639,0.016511176240599834,0.0063627264758112255,0.03508346852108642,-0.004519928805739447,-0.03171447732097072,0.04478590131732739,-0.01496558127984821,-0.019261013304303798,0.02981236294810786,0.0025263867777610637,0.0018204344797377002,-0.021334172006144476,-0.016159129684502404,0.026747008137406,-0.002367732522018738,0.010988022308308882,-0.026427233567499476,0.03220219152613387,0.02796876738979055,0.024983598136020514,0.06511898486023884,0.042108401000100805,0.0407443393651033,0.018570207471849193,-0.006031815060655843,0.026134930235680733,0.031055055958095715,-0.0008314918964040767,-0.024899520235832147,0.03639217899713734,0.06846886087014596,-0.04230874195023117,-0.003621574679487727,-0.02620120255433092,0.03853081139937486,0.061346167021500836,-0.07793660867230874,-0.007915515739091335,-0.02054769464873763,-0.00572896514849082,-0.0671050061227118,0.02176161922056196,-0.07276529784826126,0.02635556099988146,0.016676808060610494,0.0022686540194396783,0.11010641992313124,0.020677028606603202,0.016875518637069823,0.033173381277904056,0.019574404825078124,0.009221369658499783,-0.017890028699986318,-0.05843999105721602,-0.06688708484853029,-0.03359976490998291,-0.012333469979781958,-0.03005692991107548,-0.006565122747318076,0.0009642134772117761,-0.09346404173140348,-0.015144164365910855,-0.055956177166477925,-0.01454763325022273,0.05884525999220621,-0.028054648642022267,0.05681934819899217,-0.03897234899736885,-0.0012375273117303113,-0.01701965582953798,0.05589935100163594,0.029377964827347013,-0.016449202226321194,0.012852079330799078,0.0061464133368840405,-0.0367531290889934,0.05038872832859501,-0.01635580250645422,-0.015110569436324916,-0.012989908150162363,-0.029756010090189897,-0.012304658105267348,-0.024771789164246903,0.03942667509199842,-0.01697511590833949,0.05726317669207971,0.0033788486113522902,0.006884570150659606,-0.049616552881126944,-0.02092723741373434,-0.03368771408382749,0.05463241488686924,-0.06967128513136563,0.037603363469950066,0.016765397123777344,-0.05720713422509638,-0.0003233353460137676,-0.006723694735867942,0.02311482164242288,-0.0307491176755095,0.0536892187932327,0.017565516977858853,-0.00720188013113145,0.014266496053712656,-0.01455036126980147,-0.007851302187990034,-0.049658617452492074,-0.002545866987061612,-0.0007791432021088262,-0.017538687978384253,-0.006645919971517434,-0.04363686230115182,-0.0014643361307513701,-0.08798136303012945,-0.04430273524595622,-0.04960090724831981,-0.043152497134382524,-0.015193777125292119,0.00158715660200794,-0.07207137680258523,0.005956384992462914,-0.042632437124545376,-0.03479793565316069,0.01908001898479515,0.006886789830507461,-0.011097211639825216,0.01626945337483534,-0.04290291394407108,0.005349430113163012,0.021875208108856535,-0.006571709191739738,-0.03952526419993531,-0.066018959562994,-0.06578858965370418,-0.06907092612726787,0.023573491714687138,-0.03155179141093406,-0.03967050128335839,0.01702512881067506,0.1259180513259112,0.032077955689227854,0.01382075114609568,0.01845451916614111,-0.016972937139825152,-0.023282653323236174,-0.021254221272793954,0.0166424410956757,-0.06639774508102993,0.00144998645440356,-0.010244077739784509,0.019289683898102296,0.002336127837469681,-0.030312602913959496,-0.02649237007243256,-0.00450671762842785,0.02389758177801015,-0.05770115768572085,-0.0010793757465327835,-0.04267204836027519,-0.0179796033862101,-0.05334681447840713,-0.10215778247455608,-0.10339887517459068,-0.05061675563405841,-0.006661731906944154,0.027429989817391736,0.007630093354671054,0.012022630425810386,0.07740706222585815,-0.031181379749451996,0.002596746796926754,-0.04676107030843343,0.01936513800448026,-0.03011407037256797,0.013569004632203532,0.013090712929922347,-0.01767265673243392,-0.0162076927310303,0.04828386920486924,-0.03293854161112677,-0.061951223716716686,0.03811264187245893,-0.022140880330161015,-0.014789025047738692,-0.02043202832842165,-0.04865509872109656,-0.08716431638199752,-0.11264451221330868,-0.08441042692891348,-0.03942004656705706,-0.06096962084693754,-0.051870809505129276,0.04230044956062092,0.02740967340511604,0.09150183394292559,-0.02101085547235157,0.04643018395949051,-0.04609336379636474,-0.01821313766902247,-0.032213277391182855,-0.13015489006082454,-0.06837515829451823,-0.05200884609801371,-0.0062846079268989675,0.01367426917455515,-0.0013093062203573384,0.06430619134317941,0.024098472228860288,-0.0020221605321995187,0.038321521688010375,0.029516677053436465,-0.010652298543407442,0.026200887959747468,-0.0476867620108627,-0.025943648467552594,-0.13105729935572413,-0.088923472461636,-0.08928625803423418,-0.03021413604115751,-0.06275577104445905,-0.03284441273708142,0.03744548083539605,0.017363960714130933,0.053479646837931334,0.015291685305122692,-0.015197175739102764,-0.054444171620695696,-0.06449595520649276,0.03795473796987041,0.029785537284545912,-0.014959163471235482,-0.0075614408139305185,0.01641884929511913,-0.07181380673672322,0.0013083006055749876,-0.007222237342949434,-0.04430731060934923,-0.0006846819716820685,-0.009497682154028662,-0.055517373768749864,0.03192727448968071,0.0250720917997854,-0.048376327911363086,-0.07830604239962034,-0.06412297433999238,-0.0342111374463125,-0.016032132619109414,-0.03522917628995372,-0.009593285579575698,0.056571991244665054,0.0858294526830308,0.0333899320132069,-0.052043586620084785,0.006162355260951044,0.03676373488471854,0.025212230570227298,-0.005980613488082528,-0.018263764943744567,0.00942127545542671,0.0009697250989110925,0.04640114558282511,-0.017104161310280988,0.05042401543534296,-0.06568585138373008,-0.007546296041424217,-0.014861718934984683,0.05066254965703465,-0.0030153427209282124,-0.08507543937159563,-0.005090678329887807,-0.048780215648164794,-0.024186962547824573,-0.005589150528056874,-0.02758947629670883,-0.08500603903544025,-0.03934480312748159,0.04377616951870628,0.029023094077825766,0.043789590531460434,0.002981281735656724,0.09362956991598868,-0.049613563867216305,-0.01993578528982857,0.031205348273477308,-0.006344121612292194,-0.1134831827155005,-0.02624998921249753,0.009017065471043608,0.046223380290294706,-0.06458469233786657,-0.043768926314255864,-0.010791917655370145,-0.012515795637535496,-0.018045524022881777,-0.00029294600160158777,-0.028344884183521102,-0.05681728485183641,-0.01236487506890878,-0.04190364132229457,0.029443278284803368,-0.03144419315953465,0.00941136294480128,0.017149938152151926,-0.01047506438033424,0.03423520290622475,0.017649010875839748,0.0130160998411299,-0.0015387025949489892,0.015657288814791684,0.05801184165270015,-0.015555165660640156,-0.004441932743042558,-0.010125289649259388,-0.028269964348441,-0.02926419978396848,0.005280886677277144,0.010838711357565442,0.036285351173157,0.04012219662368825,-0.011114718049052784,-0.034077970569385455,0.007632237545237412,0.009749149362834879,-0.004498361549668964,-0.01813968762144469,-0.013440151765925836,-0.02736024896532643,0.038985894642199856,-0.004887093989064383,0.03633583191709922,0.0732078681366968,-0.01137449172196764,0.021986695199098686,0.028557948193952874,0.0420805404286732,0.05800438815240525,0.02600927984673342,-0.024789066959911416,0.02852512882178934,0.028440748490903858,-0.01750270562879372,-0.028900126630984013,0.02654774259154505,-0.00890658677665437,0.026750200103337864,0.00506836405214043,0.02811985849544651,-0.010429895978005092,0.009917359647256934,-0.02679910741682761,0.0069530412532082505,0.042174417539155275,-0.02318269145362457,-0.030107160593377272,0.03267480803476122,0.11429314394714706,-0.02353396760767733,0.03951441524384203,0.0486396881907466,-0.016876549275931033,0.019667390627459064,0.056450995211892514,0.044872815561353294,0.06637821394927475,0.06196041415183634,0.024182545221451378,-0.029915575787263612,0.008944028100935246,-0.038694681954302625,0.05343163252958407,-0.0006653739540352793,-0.04256932220164237,0.025788906659076943,0.005976051863378392,-0.023817644683725377,0.029060032962216816,0.03684166330145577,-0.032667707074519964,0.03530217977866178,-0.008587484283456246,0.03039583408246833,0.026354891947405062,-0.0038596053681416776,-0.029467448115035752,0.0930541586935068,0.018260189110796157,0.03760643931829885,-0.03338372422210907,-0.028491698436912464,0.038004857447232566,-0.014156785952492002,0.0605431316339512,0.013998309686031614,-0.016745998630296098,0.020332542138576278,-0.06041526779510588,-0.01625766633953329,-0.01974598911041808,-0.04219242681151163,0.0538343109414235,0.012944526522851316,-0.03411306131705877,-0.008348425435143542,0.04171945745394111,0.04239874596444061,0.050101535726607534,0.022117892661612286,0.05349090069509604,0.011994825038681147,0.04656239474538816,0.01851822653414513,-0.041250067554665586,0.050748993283839174,-0.01847091826520343,0.01739744263167526,0.07115470780736914,-0.011394797763116526,0.0471053072635251,-0.004195343755026513,-0.015809800477285748,0.009075078152418968,0.09451037377690635,0.018208308468946163,0.04610437552268294,0.014112793706485304,0.041607731907012495,0.050888324863560014,0.006555976300786837,-0.047008162596803404,-0.017270246191013812,0.007598044462482094,0.00026029344589927967,-0.003690015087870485,-0.02801951938508712,0.012127872271989368,-0.009654919458309253,0.004358874091509748,0.05307235824802852,0.03615405940401614,-0.043161418284762366,-0.06910146990611805,-0.010317587751807486,-0.054132406757899515,0.0518102422706715,-0.01648207836430302,-0.0005429866250626444,-0.0135598214969299,0.05468052338698043,-0.02932185230849025,0.03373496199614327,0.01233175467756649,0.06150420912618906,0.02679535752214993,0.0373864575538715,0.025611565721944222,0.012008795729758975,0.028243605412058108,-0.018146212119455926,-0.04712285834621538,0.014970595366942363,-0.031197081333434944,-0.021037197793103413,0.031924564311116045,-0.05931633936827701,0.022088349944963524,-0.016715904418420843,-0.025419966188723424,-0.01654087714871661,-0.036935775680062115,-0.03730800222639282,-0.011882643950798324,0.03321254050384403,-0.014478815176945806,0.005844556223979885,0.050618825579565194,-0.0519620971911129,0.015651961131872786,0.03643229159823214,0.013407648343883555,0.0931754774879365,-0.027113933332855052,0.01095654409355186,-0.00654400597003581,-0.024928668267818407,-0.044400016275976756,0.010262638358953366,-0.018693143289923702,0.0447578758696841,-0.04735676614686518,0.015034479361253062,0.06778974708330371,0.03708075416230355,0.04664489069602235,0.021744334801721967,-0.01622845179566683,-0.02224870292328975,-0.001815825538011805,-0.09511408989268741,-0.02961026308019051,-0.08724792999252454,-0.025385247451299227,-0.00406525127702786,-0.024751302734729638,-0.009844200666056329,0.027996564002494884,-0.01963830429559566,0.07642036302949126,-0.015186483426632653,0.027160552114317536,-0.0008244856129317363,0.05537338757956071,0.019891523430686477,0.06922026424428332,-0.04814549847546383,0.0002746591662414933,-0.023551700299169923,0.018123871339492427,-0.026089289441652085,0.0014748543564400607,0.004483175260320784,-0.012149541793478078,0.014243165705176596,-0.027192952563736397,-0.0445830981279703,0.016061418381796547,-0.028440803924873363,-0.06156147156123487,-0.018951290382121743,-0.06603204371776122,-0.09077995603361202,-0.015453273222089791,-0.011946830296807575,-0.014827326157557006,0.03944631352508148,0.013393407181868544,-0.014904568169743913,0.024861746572026396,0.02215878925314305,0.010164815917460253,0.03468338703399692,-0.04826315720760247,0.00043426391123920345,-0.05805767704900613,0.00637578561004928,0.08129007000241273,0.039981569110641435,-0.10339950288636345,0.017291361353491602,-0.01628228940619498,-0.042131460588348754,0.017342344389167326,-0.0673696689094005,-0.04857384494906358,-0.04621156754764476,-0.048302276308362396,-0.0926073634866136,-0.0256482964968046,-0.018248895289518265,0.009196675513850821,-0.0033450111913440363,-0.06783187055590435,-0.024885994459291846,-0.06358881395473083,0.02100382883236759,0.032087187963696445,-0.04293619905916484,0.012793938961203998,0.0464101642323338,0.02401468061508258,0.005428879492723986,0.05214109084044765,0.01798252905396172,0.0462981378848325,-0.05561186359157119,0.003312358356574414,-0.0032468686239784214,-0.03257647658631655,-0.040660024250514945,-0.03891001632839036,0.015725839561833464,0.013294716613409235,-0.03606664278943861,0.02131147062732106,0.004452165772269964,-0.018945994608872068,0.05035842092362386,0.007789436689438151,-0.005326652633605221,-0.023945946378641,-0.0347889095643877,-0.012103995106233157,-0.04508308792302484,-0.011493571427033764,0.03027528823170037,-0.017484928335984,0.05839005874312041,-0.0015762349862524143,-0.022574377147067098,0.03630969722460103,0.016588306330237404,0.06078087457116771,-0.011011239762378933,0.03867351220601211,0.06254058846776486,0.06042261983270538,-0.06738036325179265,-0.02198938301747782,-0.008862726844882712,0.03705102557848498,0.06255306186002942,0.010962501276114077,-0.01466089596966237,-0.018662865689720542,-0.035935864385134325,0.004285517854293067,-0.019663929371237693,0.029726916976200994,-0.026340670261797868,0.03545195956245856,0.012696337857063483,-0.007771520064277769,0.01656513992045442,0.04165336078460075,0.03234689187577849,-0.03328650385484563,-0.08873100863389703,-0.008068038953681404,0.02866615761493103,0.0078544075754017,-0.0006780421309494369,0.006096762449288172,0.0317726176476281,0.05150927896104212,-0.027780259194325457,0.05059576407802404,-0.057111453890200545,0.06002070363311862,0.012871513383318873,0.030860812183944767,-0.028782990844804814,0.046930005617339295,-0.010813704760534419,0.047796516384440664,0.02890292115914467,-0.026400310023138467,-0.055260475376646,-0.045999389302481326,0.02331947028018953,-0.04045384025328447,-0.07567171567096535,0.0650062790572256,-0.011912397907272594,-0.0071460229390181715,0.05405155658743518
0:1:0.04604054621878708,-0.03876950147724623,-0.0011179260080497106,0.021246574240686832,-0.006525777483946898,0.06007943920031816,-0.005312964399682839,0.0010110236032376217,0.017065006294822098,-0.0616775161631588,-0.05137390479312179,-0.0038693229173765637,-0.04100141914424619,0.0043525966096029664,0.01624694371796939,-0.012311333212937967,0.08668178443913592,0.02289132184546193,0.022092290167364977,0.0444091811783192,0.031839591104863785,0.008604795792157631,-0.07353038008628777,0.01694131756970612,0.010759443356779586,-0.08726704752196338,-0.017356673952270057,0.02914655722108986,-0.03397871767295338,0.02193253509359017,-0.06541355241092006,-0.04588781108745896,-0.0022131742506661355,0.01787039893973363,0.026066336597990042,0.0033386219780732643,0.004856216698180076,-0.03710252911373608,-0.01655192562229802,-0.03833402037827782,-0.038651784089925145,0.009603314337654842,-0.004141047425070025,-0.06391641797912397,0.0004050099764710265,-0.039866747159594144,0.04805517396163977,-0.04101101591124906,0.023676391607909013,-0.0030912724959582193,0.004033694204347688,-0.03956640277866387,-0.03027536330549887,0.04132621212742532,-0.01815353642195706,-0.06580497924810913,0.0006782295890944813,0.03545603251229245,-0.00972744362548423,0.03227589751449244,-0.02230529067484577,0.013097704051239327,-0.060729369911228,-0.025574088726338564,-0.06179752770757004,0.026491973900541185,-0.012194279336745564,0.057601969042267366,0.015493987604468778,-0.029375420961205403,0.019554400397782338,-0.009313041046269217,-0.007821015834932431,-0.058487436337724824,-0.02780122117804902,-0.004590712062108453,-0.04329978557335304,0.020689417203061247,0.015494383381884372,0.06172420379496315,-0.0754350549018223,0.008409457956843107,0.005104936477099007,-0.026409688155918806,0.009838689402598801,-0.008154087008742508,-0.05877002765083339,0.003606073475053672,-0.05158373049447844,-0.0061690004170361955,-0.018451832116508627,0.025095796066070493,0.003344593915192434,-0.033224506488219466,0.005173841497592597,-0.009217806917394726,-0.00018537494986124305,0.04244683414734491,0.0526018828057761,0.01863966804384092,-0.014977903024453789,0.10561922570244187,0.04876051265546781,-0.024779548481873807,-0.023075215615561008,-0.06466709493931447,0.005313789873041994,0.037955191580042506,0.02014970912414527,-0.040574721089893066,0.055084586362921045,0.011614442969124464,-0.015230304546185994,-0.04993378400337891,-0.016751415581946396,0.04875016138278718,-0.011503023676624232,-0.02014611459990058,0.010310172319137344,0.032169036103801264,0.07081198052785886,-0.06448772320414764,-0.05333362125707668,-0.04231504775659001,0.03560039679515539,0.047397751159965695,-0.062077481575603735,-0.004617381023605867,-0.0004358693553650657,-0.01524087021561475,0.04438214733799986,0.02261349234420346,0.06702132347479423,0.01588984809918311,-0.014192570967434119,-0.06250737162313008,0.07421139520093585,0.01583491836980592,-0.04341776782093033,0.013344058895043073,-0.00394011327061825,-0.011715747982438567,-0.026341131416663933,0.02105737075194966,-0.09814471078825887,-0.05613528564570424,-0.018282320999930206,0.019764643620004536,0.06528185747441166,-0.014177045243112979,0.03635978342119509,-0.03167363932864444,-0.03586396024666112,-0.0022562221167348054,0.025827205719697172,0.01690614856702632,-0.00850065766479269,-0.014550716346537646,-0.0500438079387722,0.005441114246416637,0.05593395713378817,0.022840974195587407,0.006022620653026079,-0.039059672088259285,-0.01739381534552966,0.07031064436139443,0.006306861888344708,0.030952064630654294,-0.028419471860220622,-0.03683862201758201,0.0025036528907925286,-0.0032484858448227883,0.04030106544659871,0.02467854153947131,0.05674754559636452,-0.013986425734157672,-0.013392489643687338,0.008086842450770172,0.04376572238161409,-0.04123489236024877,0.023801660203986465,0.03164270725197305,0.05066890463229684,-0.00015536766892247184,-0.050663945234434696,-0.0029965602608842973,0.01652334897849949,-0.03652783273879979,-0.0013868668317562828,0.023382404228405363,0.03310820241826094,-0.03339743119915423,0.05603694965265778,-0.033680449230129646,0.011918825031236894,0.02349756873674834,0.06768046016102729,0.10489371195860026,0.04343252581133076,-0.0191573771451688,0.04750597617065106,0.03861431728364418,-0.018408317024675255,0.04100643188706001,-0.007595961830503044,0.03706298595243872,0.03844985580929209,0.0027345580026666653,-0.005828020828420361,0.004115504016264902,0.047804936474725106,0.07956897190057739,0.05708193846440216,0.07697707280022187,0.0487579423117434,0.08528635433638337,-0.04518374074926545,0.044464907142302806,-0.06140738509341485,-0.009631436175002778,-0.018058109938421853,-0.05475584157822815,-0.009620923369206865,-0.0030293887975188483,0.009509548259684288,-0.0197961612217719,0.01724233191389984,-0.0006076780532319013,-0.020313680495478808,-0.0013325371796911777,-0.002097288063725582,0.010819394757535692,0.0124375573069495,0.08724971282203295,0.034866930676361645,0.06873835645881764,0.03567416403002753,0.042019559817972375,0.08960442361783678,0.13393124294892986,0.12766402333680013,0.17882378572471064,0.11144206159693008,0.023186756428693858,0.043649520574199886,0.001623309110115164,-0.019613365896514818,-0.03535347210280859,0.053089519480349484,-0.05773827037450887,0.06302765530587578,-0.10180678537003066,-0.03958617651924834,0.008518606562741447,0.03247222167862374,-0.008004274189888212,0.08489387295605516,-0.035469658177235235,0.07244947648070056,0.021191320424901534,0.07578709193273514,-0.029932200444064316,0.061517927802239726,-0.0426691557380181,-0.06421311971346644,0.07133409107141477,0.1210869630829383,0.12141561244783469,0.09137939852390205,0.0809057117362187,0.0844670978253605,-0.027262374511123795,-0.03417898682508437,0.03014331441134677,0.010588173445624164,0.015149890181303017,-0.003786595587391325,-0.05355482306575741,-0.027062163864800183,0.029792739709761814,-0.0583829501504657,-0.009926511668011291,-0.04365469332180858,0.03208516955981396,0.026399716946925455,-0.012906063112415529,0.002900162475718976,-0.005606547979605151,0.017627149202732388,-0.028065777300539333,-0.020414667853928415,-0.017266203579126747,-0.017045248071301963,-0.031763582454810244,0.08476686452731827,0.14832657278397304,0.02702838284684635,0.03961035996363358,0.0063507750141277705,0.004039994106014046,-0.00963545190688618,0.0028707911520387103,-0.01919777504739155,-0.06549479082277904,-0.07247718379242199,0.0027421895082047902,0.015750379568876927,-0.023199382163309665,-0.02392062080152649,0.05188974563684354,0.0004761041558054281,0.02148096904616422,-0.0036542839173287086,0.019795683143403152,-0.07169347301332131,-0.011518939819423339,0.027320646196072326,-0.027278203427822847,-0.11241434174670002,-0.08489295994538312,-0.01824784715019384,-0.03484920948253703,0.07275227285886347,0.07236986639370536,0.0016644220644950532,0.010792698945955422,-0.036475305135296184,-0.016753775272881577,-0.02164325757761965,-0.03026071055853875,0.017736562091222263,0.0010497777179521695,-0.04667831363877624,0.008595767594794435,0.03965518909506855,0.002293844665120433,-0.0026997077046785763,0.015431309715502788,0.0018882704256750888,0.025519127644135442,-0.027059581106525312,-0.052555205755351775,0.004210333346967103,-0.07378490255773988,-0.0199582583513805,-0.14065199527777641,-0.1494294956577376,-0.14048826418281476,-0.08872126765034329,0.03269404072730439,0.020509829064817756,-0.03477947479217151,-0.038222238293813895,-0.10813860045344259,-0.014628956066158091,-0.05957128671437224,-0.04490169472528795,-0.08516344497250368,0.02011688032731493,0.024878558359812945,-0.051754111799492124,0.017457066007031334,-0.07995136847722638,-0.03146574932253681,-0.003897228909499649,-0.040398453196010126,0.030707136015219245,-0.013531594488112838,-0.03887751878690127,0.09102769002348021,-0.047875864755717326,-0.04043160335071816,-0.11306583968948304,-0.08541367058861532,-0.16549097539766128,-0.11217633900073294,-0.1773510076360236,-0.1092070066265209,0.030896609292359718,0.02378270470445183,-0.11315470359104876,-0.08916388411243854,-0.02573565844278041,-0.08188439643898507,-0.030563480163380424,0.011700665828159394,-0.013985777366042068,-0.02574642171967691,0.02059469850038976,0.04422970395243215,-0.02798577765815473,-0.0036400591512000834,-0.004365398137985072,0.006535924820472609,-0.0178293481191331,0.0069828011207985555,0.05051563546946424,0.014184989159919899,-0.026846590072887807,-0.06945338772051005,-0.1444980081714941,-0.0727430434764628,-0.10696321021937923,-0.14039797038672525,-0.13105966835792562,-0.07215025250185897,-0.05467188170733777,-0.14209274011206643,-0.18752879204206394,-0.02641683096747997,-0.07354168789857617,-0.03304911705877775,-0.029409019201292172,-0.009495680018750579,0.023810854859786897,-0.03524812972615597,0.00028404916102431094,0.03616925551486157,0.046532624649471645,0.04221144743120954,-0.03246058005161817,0.006728105801873749,-0.006262831867129928,-0.026055776690144913,-0.02752189428036511,-0.043775369274246405,-0.004177898113623006,-0.08868137332948269,-0.10382472067923022,-0.13270977123175948,-0.10942961070901415,-0.17861791201188598,-0.1888795707578234,-0.1354195232669222,-0.027464766897410398,-0.08378086742531389,-0.09489623614283696,-0.0701647268829418,-0.03896028487032068,-0.006765415779650828,0.045836651847131975,-0.04986653953077542,-0.009470489175882576,-0.03246015285033861,0.05106035889824972,0.034972467466862604,0.027291914531464363,-0.08367676764505194,0.02895868987808227,-0.01423070309527842,0.03851475551760393,-0.05113267407364704,-0.027088345835190323,0.06832256568515763,-0.04458825955450732,0.024406120659749397,-0.09864972260133142,-0.10669482327728191,-0.11608680595442986,-0.11130257969314336,-0.17514050803077436,-0.0830099154053336,-0.04558202888641245,-0.013332085593422907,-0.02875675821731583,0.0006432883401155318,0.01975771280146609,0.0081841975381477,-0.10084302644588818,0.0466552155917093,0.0419069767420014,0.0198442994073188,0.0359346750990309,0.014291016038235476,-0.02341412551062295,-0.016294544838084048,0.04517964768476201,0.022786183299461284,-0.04438585486276326,0.020278563306883973,0.08006709603012917,0.012902107924999765,-0.04413550371721422,-0.006466145632373502,-0.01487918840614291,-0.08565857891566604,-0.15994506425042598,-0.11949637963310306,-0.11661435636300559,-0.026602183598016242,-0.04072056802386041,-0.05076823093033338,-0.011575710003940169,-0.008790463013410302,-0.02651240832129548,0.07828059391163948,0.021794695294663602,-0.01384340034119241,-0.0020181523468703515,0.0443886157066028,-0.03864093644973709,0.004304540417791778,-0.05021497202411816,-0.027067865609952745,-0.03343347466632186,-0.015694838942855904,0.04792238484485917,0.021048932817726473,0.00052891447305341,-0.007433416598377318,-0.06118783238343016,-0.05540888401600426,-0.03273008670282225,-0.08728685225294688,0.015718665020802165,-0.1267457971258018,-0.039368678351910436,-0.011476256587875395,-0.003615351994829554,-0.007486496463024459,0.03447126311159461,0.03554187221531315,0.06401392946662911,0.0033267852173222965,0.032437661314549705,-0.012024612538511727,-0.0028414344341153495,0.03393155590559345,-0.03054517113982272,-0.06781200650690662,-0.055435765941533086,-0.04589710737298307,0.012088087138355592,-0.018668030454836247,0.020560234165437306,-0.050288188064367335,-0.008132190210664336,-0.001066003151770666,0.10597733238892358,0.04601551093138966,-0.02007850491050798,-0.010390899513330672,0.0040610892262279135,-0.07052959414051273,0.04081834371954234,0.026645424049885284,0.00267097597115525,0.030432823576225822,-0.06967949094899675,-0.014950788562486272,-0.02565066650396705,-0.02566257590682614,0.01448856387285018,0.01523097261330079,0.03556776270092889,0.018756528907524057,0.006596413976755014,0.04104473814972616,-0.05743598736222495,-0.06632901896764264,0.023261728184401614,-0.02920191964049453,0.012647476377154661,0.05529740105382673,0.043622366287301734,0.0326008554496915,0.07732966360143428,0.07087042390243271,0.02745894286148598,0.03152338011179881,-0.019308295757291816,-0.09676591262671344,-0.061415869403732656,0.04912306859503903,0.003069555714472392,-0.0022568054737924777,-0.035225615539487,-0.07076439216170029,0.025273072460031194,0.015225266090976738,0.030792066792484987,0.020138754533678496,0.026925956979415144,-0.023664955876535713,-0.03726618824711145,-0.020266049640055933,-0.03315541418570454,0.02863463893155427,0.018331852611497067,-0.022498762937651812,-0.017906828397906777,-0.004329774748579889,0.01182566731032864,0.06061730161407553,0.023651449559158395,0.10027353901636436,0.08247777548307285,0.06622129634621832,0.008799424607128119,0.05909229069857959,0.04728925120858823,-0.004476196355334339,0.008318304641732272,0.060011102420595146,-0.06114645481307771,-0.019550664393173472,-0.010637477626486844,0.03407414122452103,-0.005055063493189953,0.0506030317949043,0.022074833644636426,0.05890284341963306,-0.008330003403471245,0.02853036827429567,0.022834092299370373,0.020887846769782403,0.043549767405544226,0.0223499833784251,-0.046260926826451894,0.02771082215363128,0.006199080693585884,0.003058828340078842,0.02057524955431247,0.07577456666560631,0.0545679204758967,0.07917896861631196,0.07993431514407891,-0.00581603172775181,-0.01352931540448735,0.01538789954584014,0.07764277696092611,-0.03680874352245141,-0.05008050925180158,-0.047450109299916006,-0.10334137692977825,-0.032701660362683724,-0.010690910209308272,0.01726712453568999,0.055022743286493134,0.01775763159451752,-0.015510928199761603,0.028295199834092864,-0.022535134379056427,0.0040869738135973525,0.01770599193195943,-0.024039041848349863,0.07035115953672269,-0.04490979256882605,0.022735720886742333,0.07128595909340311,0.01652660638082739,0.03037345972615762,-0.01960514861060917,0.05994436138753888,0.03133427641774185,0.04986865974891248,-0.03310016439553293,-0.01570188124819157,-0.010584822955808145,-0.019181782352270357,0.002205948902346936,0.002902237243936791,-0.0036872658347690975,-0.010858071701324865,-0.01015140255957475,-0.006607455816933188,-0.01938762273216627,0.00962543708084251,-0.031898758294143126,0.0508009291806465,0.045146507137218926,0.02321251682032281,0.011165193792542563,-0.0325783286476243,0.024700411094838965,-0.005250677276814728,-0.03455684359644386,0.004861616880650694,-0.027118883528480204,0.12497340264522608,0.03364600193765595,-0.011719002499924394,0.016204426642728826,0.017733000460471236,-0.07143650451558778,0.0020676788416376895,-0.02565866182495658,-0.0006616143522716747,0.06197037267520779,0.0013744987693494113,0.010117291518408816,-0.04902152005799739,0.04547447165825465,-0.05609705863393489,0.029067961130871237,-0.0016690308899204355,0.002758461292325374,0.016179046821223,-0.008460926712486286,-0.03625761302926878,-0.01661740721231931,0.03843131611375101,0.04630270228188466,-0.006490320268145302,-0.009841909577109306,0.05555938485369026,-0.004243970015296875,-0.030467715686974955,0.05300108492322657,0.030571633047721414,0.02018479618040854,0.07730910085444688,-0.0071351469941129606,0.016392765996322452,0.05414999933632196,-0.010010218037075804,0.022779108913002596,0.028836201214472355,0.014717456581239454,-0.044638633918532414,-0.027412182712037474,0.0201927561019229,0.024975700083905202,0.016898573752194765,0.006180731500154795,0.036686435733014035,0.034340620448570315,0.045722562362191244,-0.011956462281997067,-0.034212937386546065,0.007535314016313511,0.01744476662564012,-0.028529117161107686,-0.04501872798847385,0.003733812449923235,0.00993372647649639,0.0033050487563095385,0.013478635580854225,0.06318548933632197,0.04830114746647708,0.012529395566775682,0.054240844001082804,0.08881717211845759,0.06930117901645694,0.011927961469331626,0.017064430106476056,-0.004138497108423944,0.02987695844235796,0.02347704920950529,0.014640623992147106,0.049764668427199885,-0.00484551385065007,0.02602761183293685,-0.03740233381938216,-0.017188143956430386,0.008807057910103675,0.03284141347405926,-0.03154088914811921,-0.020061913944328102,0.016441738921504113,-0.02093548628780946,-0.0759740975447324,-0.020012531966099985,0.0350712060286969,0.028685053635217176,0.032097137654780526,-0.03327370831600256,-0.09579348082086939,-0.07003437356360133,0.0017872336325381144,-0.008269079635955669,-0.003221400662106675,0.003543278337443353,-0.027972771650729877,0.02602150940057067,-0.0779750942331083,0.006623967564169125,0.018146030422690015,-0.004162197212775188,-0.047681531651558015,-0.00879484430676659,-0.033255328086517016,0.02833189783691101,-0.08297738339314656
0:2:-0.03459051511639174,0.009966248417326122,0.07079701067502665,-0.010284412665522664,-0.040427717865670246,-0.009227319618643664,0.025091234503520955,-0.027403786524557085,0.046483853511539275,0.02573672633177033,0.014192213219504817,-0.036534973596641235,-0.017913663401118995,-0.04085437034269495,0.08128833323559201,-0.08628014884166796,0.01610259483219822,-0.0158896679155635,-0.010239688211881393,-0.007070225312750145,0.04354530216164703,-0.029235648651871844,-0.033120168286768496,0.0046751673543265464,-0.024082780186902415,-0.05786100962204198,0.07460891886470265,0.027359335749527862,-0.08355733832222562,0.01206734795509557,0.004778247657295467,0.012543395082599457,-0.01753247469343656,0.04785952361852855,-0.04787453257740353,-0.03484040118197204,-0.03556706690302452,-0.026574980763847636,-0.01775434034224426,-0.017846386877468406,0.003240559773514126,0.0034271554245067486,-0.00012369376908786015,-0.016516067762566398,-0.008900116949365267,-0.010742741604801162,-0.02513492033204801,-0.015635163307276236,-0.07683086149758492,-0.02191290510090114,-0.03929925112119209,-0.08354809518434765,0.019483799703963238,-0.005378206280070745,0.018641445131530703,0.01461200343245729,-0.005559841958958695,0.022786110743590094,-0.06573591590958451,0.008667342318886159,-0.04251570193705629,-0.022972032415307368,-0.04405275973953545,-0.051943258441235866,-0.023268144415910335,-0.01016719998880886,-0.060058698076844094,-0.038784011004150735,-0.019267093949594444,-0.023322854129265644,-0.041309225490235704,0.012865207284944837,-0.022951641883103256,-0.01088292497718801,0.05010881264526212,0.011461047813036905,0.02394726605164982,-0.08165734200759936,0.0012886647511095371,0.02225712829458428,-0.007753857168074361,-0.04657013568544501,-0.03770332576203898,0.014330984408606095,0.0045534950553451975,-0.07971648536957104,-0.002265468085572259,0.036230098260975147,-0.043605311648498235,0.014884713492077786,0.03389391161483209,0.009026495579528506,0.0014616676336603378,-0.006438892081302508,0.03340869741713995,-0.0011825669953674828,0.0038645297197797512,0.07303148698331935,-0.014463885295263034,-0.001487225154741837,-0.01007916540921997,0.0025090856681725692,0.04432236721485618,-0.03571135555968991,-0.06720804424659764,-0.03385434324858245,0.027286786121812533,0.014703666909880201,-0.016347444396573915,0.0017796541243780078,0.10289387722137112,-0.051103985493165936,-0.035995550717808626,-0.022478300600690067,0.026831063760364496,-0.010243532689638691,-0.06198531683435575,-0.025761469772767602,0.005297000719018664,-0.006011296725569034,0.020381317356099694,-0.001618324443822065,-0.030258540287245984,-0.00957739053081059,0.007313194639674998,0.06345866926199455,-0.04146355371261594,0.029393115522917335,0.035092408852070246,-0.04783122188621439,-0.04601341538230614,0.030577986317567,0.04348701044227557,-0.06879760139897254,-0.04658894226456636,0.04185961134874348,-0.00048354677560108575,0.030197845715261212,0.042514057590068405,-0.018816244613077508,0.019122157131603812,-0.024655669641461098,0.031100680597541615,0.0050837119680149446,-0.011389024120845394,0.020017653956715092,0.023965434736982198,-0.07194038227412893,0.00019447992142362978,-0.025149990673855854,0.04023291830700383,-0.060990682778995324,-0.00408591037593371,0.005424013274577937,-0.016843672108395467,0.0028046255682202324,0.03977555245906254,0.021790745751448442,0.027868258179100373,-0.011858391491963622,-0.03300143889397381,0.06794059524509805,-0.01673255047411058,0.020781719210883197,-0.03228536542772132,-0.03220600021050955,-0.07797840201398464,-0.053680027279147724,-0.008317701698162792,0.04697839265572845,-0.011453100039857736,0.0025989101388779524,-0.03452687571779548,-0.028099876966775964,-0.056165812895738576,-0.039815193609708685,-0.07891431701865648,-0.031979994790227326,0.02681849217727711,0.018607013649576325,0.0070190019062663775,-0.0084024539807054,0.00453679196599881,-0.0038749056318395426,0.028710056263412293,0.0067824615085075365,0.02354934381479074,-0.0010538909610256944,0.012526749066266649,-0.05672102255862361,0.03180778165958002,-0.058349236416459276,0.0407336963410324,-0.011579307193214003,-0.034969954642217076,0.016970824410729664,0.057409416060887626,-0.05634280686381481,0.043856687513234176,0.062249175210583436,-0.031659115990325004,0.015171121828408499,0.0008252702912171229,-0.05572393780158721,0.01955565445045483,0.03949333062894459,-0.028145831804064336,0.004586195824111558,-0.0191717758106758,-0.019275642729832152,0.02844638147479086,0.05072588610351251,0.018928415702550223,0.049660439924135956,-0.027672074334412516,0.03931079201592776,0.003978138540747034,-0.011753516659057894,-0.010098781718134442,0.006364244769435427,-0.04448605883507564,-0.01399670373122486,-0.0004668262496854507,0.015269936532458662,-0.04326579255611562,-0.005159462395550659,-0.018944841739900256,-0.012466935753306966,-0.004553497261678854,0.003275264335345769,-0.011237157835582132,0.004703762801473553,0.020435514086089478,-0.012421455841409464,0.013705905905853992,-0.05833006691188822,0.05391761108319987,-0.00311404447228472,0.005623766221087212,-0.003135419613744035,0.03402224154624908,-0.015861191938458242,-0.029032316291255054,0.031204712688186306,0.019619028729350736,0.04368929674373468,0.004651870668503546,0.006358100277677979,-0.03635962968033266,-0.03282685886626296,-0.07579800914015775,0.01158029793015055,0.04237964616212767,-0.0023405078129843755,-0.011435172793022553,0.06152770438638289,0.005647641003596716,0.034726893256306526,0.01976426035691884,0.0418873271067488,-0.04041244214837217,0.06338923660913638,-0.02546746774101638,-0.008017262127227231,-0.032917942957143426,0.02078347527817502,-0.05976078282095798,0.024714060919627964,-0.03838644722175209,-0.014777303535049618,0.022746828496299235,0.0007309454644094006,0.047653213549884714,0.03138196776547838,-0.024368654217838254,-0.0054288000360468245,0.01056708508178115,-0.02681103958333406,0.028469286252965267,0.056097085052569995,0.00884403203221611,0.01685607833433614,0.011627943621127372,-0.06551141390897869,0.05181807341781885,-0.013870495877028275,-0.07947979004531747,0.013271539349796024,-0.02811765365985372,0.01904988546564194,-0.005023456472211004,0.039079724618140646,0.07231209647674403,-0.02080454725247054,-0.009476591040073801,-0.022052476987834857,0.0007560343598524299,0.0327926848591009,0.0537981501718962,-0.0035179706238537257,0.002454153681484898,0.02102174670375801,-0.05277392860706647,-0.04255598705204095,-0.02551806012447432,0.007613595231150068,-0.02751342872865445,-0.017140478502938393,-0.028999915328379276,-0.015868304929557497,-0.018212639789005697,0.04901205598886953,-0.03015409336860208,-0.021657684460639436,-0.009589412285349413,0.011903099343393779,0.013714909704305488,0.006849176958759212,-0.015587726987322094,0.014017763918171852,-0.05566104115413069,-0.04198542923525562,-0.016154854989121305,-8.513834715822107e-05,-0.01386527375521472,-0.0021573018627624807,-0.03184972782862833,0.008457272890872874,-0.010743675157749724,-0.031906989562790755,-0.030929867260280856,-0.0003000036585273905,-0.03795598746073819,-0.021210460765910506,0.04437624043420671,-0.031818497870710526,0.04377225934283231,0.050541512799612255,0.01248254534150819,0.004610270335042241,-0.018906004256394313,0.010238118683448927,-0.014670672122563375,-0.032041151686996436,0.00871662752882959,-0.05650325411553652,-0.053128684918473564,0.003648883353411565,-0.013211964969500863,-0.013932604384994244,-0.006506064225287666,-0.025727319254223478,-0.07867736233247472,0.027478693048021093,-0.04781682091815294,-0.007970958104350901,-0.03034465463563982,0.019738391488220337,0.06067046524528483,0.0427477309398487,-0.02187537616717447,-0.037763579171994514,0.032833181536711754,0.05605498848068167,0.04570979798418448,0.06057624590381357,-0.027077929336985152,0.022295136957750546,0.026888418230978633,0.01776320274728781,0.00047661891214635454,-0.003254635249450801,0.019558607127712034,0.03253942510297213,-0.011548306577065917,0.0441717413747619,-0.008792850880184035,-0.017053284926595292,-0.023698863932144883,0.008964852094235093,-0.02749872994369878,0.0431329650065181,-0.047065541395539014,0.007110581458125972,-0.03551406345176054,-0.023224649366399758,0.0370096153433992,0.03132228792214814,-0.044196824915449316,0.03245332460755271,0.02198928583310472,0.002473926144408845,-0.041604594762109946,-0.0716828269465292,0.00030255205505631203,-0.0034880161037088566,0.05163312142023021,-0.03405254733572685,-0.015059014289461242,0.049413816517704,-0.03773179789386178,-0.043213380848175754,-0.03841720075816149,-0.002187723354913126,-0.07419767055349119,0.004168081372764661,0.011507555223733435,-0.061021090593141106,-0.0023167828294596263,-0.0036606905706010086,-0.011689031742021173,-0.029793662599920213,0.04910410683245977,0.007400831699122784,-0.0538702176773479,-0.04161930245008481,-0.012270553596710825,-0.04952745002329825,-0.06208007415017542,0.03119298484215877,0.023914161406148816,-0.018485464745359552,0.06269696458286417,-0.032082445897611,0.04656249989659147,0.014665396525520787,0.029333302802867715,0.02225619351945954,0.044885156707208614,-0.01470627053792459,0.010681795687649015,0.02642966900008779,0.009799561351537712,-0.06698468912720898,0.01503712286158798,-0.007048671215304928,0.024624737686742518,-0.0674181105456006,-0.02908634392783975,0.015332966979277747,-0.07619927204116887,0.023644819564881587,0.06379061816686954,-0.03015738054617913,-0.006069853133027376,0.03618882545155427,-0.06267943817166705,-0.04859370943845911,0.010524708723962039,0.017044752596581895,0.01366204114439299,-0.04423860143943393,-0.005505938951754158,0.00637583317483191,0.03466743796811043,0.04746404660053761,-0.04295360592688405,-0.0034999729775215854,0.013964206057163819,0.012424128300137846,-0.07784307570661506,-0.003920627497642098,0.03777163203783689,0.05812886858860837,0.0142244926635884,-0.03802300051782893,-0.0595051340915289,-0.06363062230668785,0.005364885091397949,-0.033049772853596726,-0.011724803377859673,0.048633668643627045,0.023721215997034875,-0.003325879389374114,0.006385895257556706,0.06770522191169641,0.01436158562811364,0.012678249448231876,0.014322971025062727,-0.008356802343031442,0.012277208511209002,0.042564307404892546,0.004278467429772122,-0.007735774013827293,0.025634274751171807,0.046575126194427614,0.008755292408935076,-0.006905710534693438,-0.012236866950944907,0.06188207083772998,-0.02823076551303115,-0.04658945014172961,-0.0059259662131454045,-0.015288609974759669,-0.03330984179382518,-0.01467305530628532,0.043196880420469014,0.007888628268138617,-0.07607719772533719,0.03956686684363822,-0.0711825169678323,0.005601889342394277,-0.02115731985627549,-0.07364542454767091,0.004835582600713376,0.029600547831154657,0.023542182076099444,0.04172137211921774,-0.005538108739485364,-0.05310442155488779,0.032470789933824414,-0.03006472512728217,-0.009381006661405808,-0.004661656901093393,0.012831123319629283,0.056354885058800055,0.02505268721635306,-0.00736988111812127,-0.008496175020273602,-0.019111740369524045,-0.01848861456836436,-0.0653344560658257,0.04853428429223949,-0.019810363941684502,-0.03077125279873502,0.035712334335050125,-0.02775103771404185,0.031819188906788816,0.03195762148107364,0.020447328480202517,-0.005107954123091182,-0.006318761415171966,-0.084074778314561,0.03544071590859093,0.0028885116861460556,0.008022317024623617,0.08539113766221779,-0.018842885959176527,0.0314287743273049,0.006044136639764989,-0.03711854023273954,0.03555479136388729,0.030772287502040918,-0.016061363937577587,-0.01567372701577847,0.002622586629938589,-0.03714602970667389,0.00845175079218594,-0.012316405898941918,-0.01699925380509765,-0.02594608360685133,0.030489277841614232,0.05588427035314771,0.04598379821241196,0.0038499386356109955,0.05786578733771157,0.005669720127667741,0.01518447067494806,0.09187757848374119,-0.010942811382609136,-0.010655202247387188,0.016411741561521982,-0.0677010954713912,0.02708851680574506,0.05812828732368482,-0.03296106592519208,-0.03467423859815848,0.0004072003284879528,0.06416273952291036,-0.020359944678149455,0.06720754128719668,0.047409289836097435,0.02723177313789856,-0.09285046275811563,0.01761156654642874,0.009465841861435217,-0.032607544780833664,-0.0442222189385954,-0.09899882725164165,0.062370768429078974,0.016420084683145892,-0.04250606138791185,0.007585752767598089,-0.030723287445798702,-0.004339653632106014,0.020312473801938968,0.06476178519175095,-0.07777075533238006,-0.03681927397665127,-0.08756479361841435,-0.04619235162941141,0.09209114447797202,0.005867520105579768,-0.02271585171681591,0.028839369920127103,0.011385859179701332,-0.03232684399439709,-0.03097021097166602,0.015669934943214375,0.03412051557849177,9.25812461389368e-05,0.05193410116954574,-0.012192773352633433,0.10000663125819934,-0.02189873438763626,0.03966985220277221,-0.08506291858268089,0.026286857722126244,0.028155011834836707,-0.06379365119561065,-0.056046763249582056,0.023245295810156767,-0.02122336258774805,0.016103470232263297,0.04161952079502458,-0.013219533282391158,0.011716061503528215,0.057409823526703735,-0.046698283346861234,0.02256670294170731,-0.033943397694765336,0.011530751599328499,0.08066061062646204,-0.02240900744223915,-0.015513515447714614,0.00154140786329326,-0.01790455061606464,-0.005547644171478623,-0.04989805273541198,-0.012783015077323748,0.037516019868249796,-0.029586588962462468,0.01336859466614093,0.09219812562951304,0.019758964246035078,-0.044682468855905294,-0.07312745317318024,0.010648231148845465,-0.0025238584045159155,0.025831869822849244,-0.007114952713184484,-0.07079581885583311,0.05996314988673242,-0.0005700542293777191,-0.022504256677386317,0.0015975129974000737,0.008228996245840151,-0.0015448323925127095,0.0024759489951940565,0.04387288188860281,0.0010869449650926304,-0.03803588897087356,-0.019386497397408657,0.0034302853399546082,0.05869620770020932,-0.0010831742726770581,0.021345259398680882,-0.02771757567978576,0.09139573513305296,0.03381130486058463,-0.03064052702501335,-0.007306559577671348,-0.04412629820932887,0.008783619969518557,0.03628206401222781,0.04521008074012962,-0.06083766920851331,-0.0003669936249552156,0.014210270509410183,-0.05249930942451689,-0.007137798248046582,0.035151893648202565,-0.013061560497253571,0.007573283331980335,0.02157360112791089,0.05110208677725574,-0.0023808554879008554,-0.031583903944935904,0.0687105495918358,-0.03253706015250107,-0.045260053245051196,-0.043867070700264174,0.018061965951906796,0.01721281102785283,-0.024618398338229062,0.029306619378254933,-0.05679685496015457,0.02882578583271501,-0.028549391831421325,-0.056335102545794366,-0.018963126590559595,-0.011378908299494847,-0.07474323890762592,0.03549341522860873,-0.04177615691487173,0.014272931864325596,-0.004310192611913362,0.08957187560397435,-0.010006201164090555,0.04429598204704677,0.014641031648583935,-0.005537779811166329,0.02504143072027228,0.05600012546375442,0.006205999793376902,0.026592981659302097,0.017671869259600535,0.08269270068168288,0.022149746465063486,-0.10000655361570542,-0.0016414430425759912,-0.007892092133561601,0.06249304602060797,-0.060142015902658295,0.0823937177861689,0.01163135666887722,-0.012802464791935655,-0.07953495702595464,0.005306134660411048,-0.010745708589980528,-0.02246037155164614,-0.013098952379984687,-0.05866167587289163,-0.033036968836022876,0.05106470895313394,-0.02836850510967694,-0.024265998944036287,0.11670753088402325,-0.0009816055466270275,-0.008517442669369444,-0.019774057663433917,-0.01674486896709484,-0.008425766082484019,-0.06893162029448635,0.03318445146580069,-0.03688587289604516,-0.01583644823945936,-0.014193656218193535,-0.051830590052864764,-0.09222997649852775,-0.00038240318347892077,0.09070898234273235,0.013121006874319196,0.03697172974957296,-0.050761463501024444,0.020573123308556727,0.012364479812275097,0.014218214596243731,0.022490444145521593,-0.010175400006356305,-0.014540046147650526,0.006221931127846905,-0.06429021462561302,0.04183477913992815,-0.0661677808493266,0.03469969367047258,-0.009199709857298836,0.05678399625744379,-0.0615920930431252,-0.055625543044801,-0.021961262306100043,0.0414471888049579,-0.0456212467472671,-0.061886182111064975,0.022463534759028337,-0.02196396285185366,-0.06794834489520635,0.02487121605236639,0.04866859422083735,-0.0010671046136088529,0.02645340815635983,-0.02891786401054922,-0.008165129409570161,-0.003068335467649669,-0.0126587887279274,0.02683626969847506,-0.027740147653365087,0.023662242666724436,-0.031043791172485624,0.04020007510476189,-0.006800279215104182,-0.04805311131691358,0.0016665370848818752,-0.014388311279303853
0:3:-0.0004647437412755843,-0.023170440416550545,-0.004018199426712208,0.018049534199217333,-0.005898650592639286,0.0012400288298702255,0.01799802917413362,0.02985134876253899,0.012628026225869875,-0.10187124310869985,-0.013833452718738252,0.020987494200808213,0.026926768985546277,-0.03450618889584815,-0.0052040594272528655,-0.023840573320179255,-0.046328296036630676,0.018752655617176466,-0.04178933454606531,0.017490268359757075,0.0022276753332648937,0.029119778740878104,0.007482303771412228,0.019672385337919998,-0.05355565414647586,-0.00474296323375263,0.027831593110399205,-0.027606567458570146,-0.004794452439019179,-0.01635419476576909,-0.010898348764229751,-0.021212364934927015,0.0015858516576311267,-0.07318558676619263,0.03284111609367041,-0.044301123831943484,-0.0006629175830465789,-0.021693710502309095,0.036203944447716456,0.026948563527092254,-0.014240141785887903,-0.08997264470840487,-0.020320353744673423,0.03242961049144038,-0.07847076870222554,-0.0005274897276304276,-0.030116153910650117,0.06954687534281236,0.014280372292335551,-0.00819955833988312,-0.028258336903385344,-0.035317680565283845,-0.0210552376420121,-0.042949690798457694,-0.010704450982122103,-0.05244492975889115,-0.013479864670248684,0.00417617306008059,0.04553781510851691,0.0024926776227658324,0.07281450439547725,-0.05362222211762835,0.04565416444702027,0.01517884011702292,0.011005300858970592,0.01929374213653524,0.031208266284830262,0.052522808624938855,0.020944712726514714,-0.06623042962874058,0.04130392467894806,-0.0562061372228405,0.007722811306087478,0.015273108641017434,-0.04375959273119631,0.07290452414540634,-0.05259849313794993,-0.0394517044714291,-0.03571063578476207,-0.022171299161180387,0.018326492356825916,-0.026315810951612093,-0.038997990495457636,-0.0014168512373435363,-0.0245158978080524,-0.02412251775409617,-0.014867566634619961,-0.026222315215937857,-0.08442521672214882,0.06370407949698732,0.0012451308593388025,-0.003570422739429392,-0.008141292381679686,0.03448289794655952,0.027866937801744686,0.05011415755764004,-0.03645685950752159,-0.03409417623634722,0.027299928891901026,-0.00026839187954493166,-0.013929773416676988,-0.03591211807554952,-0.044720824521880094,-0.03357126306439725,0.00019691614220622772,-0.035205681538556535,-0.0621387870163906,0.055958598002910365,0.0013231037155035715,-0.012671913882745385,0.020120475571088488,-0.012913996968542538,0.016766018057738613,0.016494462608287068,0.00959818586159916,0.00978028588876654,0.0043096696444716335,-0.05692975418558208,-0.07053021030082392,-0.013748384426245108,-0.00372980566340927,0.03102586571432143,-0.08812960168671706,0.012006647920977592,-0.07346067569129858,-0.017370305258971847,-0.0165567232915396,0.006490058006103435,0.008790337406469086,-0.05017509233554897,-0.03556429308153505,-0.10225953504567128,0.049179495160053835,-0.048520207325146864,0.06480234058488932,-0.06592220649461344,-0.014766373405553363,0.060495931067089566,0.1019461984757668,-0.010952513232763042,-0.040590596713212884,0.01943497942121214,-0.009208759489891864,-0.012242787100211943,-0.05104611151826245,0.040542234415813866,-0.04193148478887798,-0.01956030159671976,0.002811474831796824,0.02728525313643726,-0.010844718888404367,0.005713897927378225,-0.04022012696945282,-0.043906855060841084,0.0053778257806924735,-0.0033701369274948584,-0.006861642508232753,0.0398924197759521,-0.016920504261812148,-0.005612739113792748,-0.018778915357360596,0.028661060363118055,-0.01603677216658063,-0.005827372696495311,0.0060502380365717815,-0.11604807764489837,-0.008060890247692706,-0.005739780380880788,0.017538538086007003,0.06240990498716418,0.027465247232609423,0.028805868446818015,-0.022317681935385147,0.044787034930767924,-0.03364664058025182,0.04120653441031743,-0.03691892366126029,0.03643956936741028,-0.006292925587403813,-0.030126258803763805,-0.05819813668079504,0.09928874748231414,0.02042343351965302,-0.030914139043474988,0.03670190449456489,0.08404254024963091,-0.03198019451224849,0.007260983696298199,-0.06215932549036964,-0.0076975474172802216,-0.02511243427085042,-0.01922710093431979,-0.02532106685633954,0.008078728303867034,0.01017466748533681,0.0516250855149076,-0.024388622997218258,0.032315107477577175,-0.002976813032474065,0.04619540084434178,0.037410945109533814,0.01167931282329689,-0.015728447135897015,0.05381589961213671,-0.020755432055658135,-0.048787140046805184,-0.03771855619944153,0.07497189096568534,0.04709867517841406,0.029957965413318664,0.014213286455348534,0.004936178040579768,-0.050195871068978784,0.017250974674117858,0.04733190971954035,0.015169982654566951,-0.0424273535675972,-0.010023411406908581,-0.008856580948332065,-0.024494922188009905,0.04086835395540184,-0.00872207065803011,0.03440536173046201,0.04459406137018735,-0.03885368307716527,-0.038111651768095806,-0.002966704275975373,0.07128545552726016,0.022951134175215642,0.019155076463312964,-0.029414168942156774,-0.009080016228719054,-0.011254098473775828,4.1176013695447994e-05,0.01540618839812238,-0.05138581583947562,-0.055706450645456686,0.04700651021347153,0.02716702552377124,0.017709407729308357,0.003920467861937169,0.02419376286675249,0.02713773653200731,-0.055758836218465536,-0.02396644997845157,-0.05117217560059846,0.03545684604075387,0.10458440069204575,0.05241472359354671,-0.02414410611520666,0.02758653409457837,-0.02711051436627153,-0.04330810856123059,0.01489364083665742,0.027294391471408812,0.02862137388442625,0.01613018136699202,0.006486376630126859,0.010198411902939911,-0.003092670098185749,-0.05965565496164695,0.015073457543779156,-0.020048771579022986,-0.012890936895875445,0.007992095030112856,0.03392984867804176,0.02294306964402628,-0.015174112195878253,0.006100381839094547,0.048538370740368944,0.034449358842378625,0.02499160223686702,0.04025149042857112,0.04287293886896287,-0.0872777983476383,0.026628352878119425,0.0608993289587396,0.00420659615722621,0.010443616804185306,-0.024991381322602497,0.03809547832012522,-0.011544848486937428,-0.025174657155562812,-0.012010306492722384,-0.033681048022733064,0.0042609419816370345,0.029184718833336586,0.012162649003497315,-0.008199803770583535,-0.053931843500562994,-0.005642219814383833,-0.01759746371145708,0.014332107352120187,0.035815267870571606,-0.003114766196925867,-0.006214226155676275,0.029082629971456393,-0.011036224446027382,-0.07162571964464783,0.01804928164311021,-0.0002237934011222198,-0.036222572686608605,-0.014417629820922697,0.04027053490017832,0.004964553228583396,-0.022909268262171534,0.008587689224354985,-0.002631508103681738,-0.027456470759351495,0.009981001936999198,-0.04413482172283578,0.01774169009221993,-0.02627791765110644,-0.016252304300526103,-0.030900073020101435,0.0008905104989377739,0.00015051741893911958,0.015427268090598625,-0.035031670465876165,0.037509449959598345,-0.00017995511419410017,-0.06438930532037732,0.008651242449841102,-0.05676983877553327,-0.029043627196919622,-0.039803113223963994,0.033109352788396836,-0.035983402372887996,0.033592583392000566,-0.05743927621184094,-0.030777134193631348,0.041565662686606275,-0.053834857458911006,-0.030284025050552395,0.02632764932918371,-0.02619351860091868,-0.017856299610185953,0.00037618953181778173,0.037017649056288876,-0.009643372032034981,0.020070303876019557,0.03557923939729975,0.06501136434081091,0.0015121267288819582,-0.03143993456686394,0.016173492137062876,0.026474905027802847,0.059811012799729515,0.0626940160454315,-0.04486868603139039,0.000901296858442546,0.015846794177037386,-0.06295406572201805,-0.042102912616937264,0.055094477241544274,-0.06214087061478694,0.04336161563464997,-0.013503913651906178,0.017964795594394633,-0.04938549961668962,0.004818565080263018,0.02860170889120147,-0.04405408040827729,0.0006123762715468524,-0.02809019373005922,0.050471413014301865,0.07532554995338453,-0.02583432474361928,0.058368559499448115,-0.07027924576940361,0.061344255833736525,0.05652177636646611,0.02527026778839553,-0.0289302692768621,-0.000862589518482258,0.0657358802128961,-0.06883048756520216,-0.03226952940685566,-0.04792663163317795,0.03531750454569207,0.02886989007525395,0.009131891592716249,-0.06980762425132087,0.062206565693165405,-0.04670225913571127,-0.006540685424720322,0.026542871654427577,-0.07275918355496327,0.017711667285918165,-0.08055357768626537,0.0649566280872048,0.015049179087768169,0.04229396724917161,0.02053500848574207,0.0059328043689462285,-0.030245723454645924,-0.005264427418007227,0.03610109788922489,-0.01220779951483718,0.03877064392656377,0.028452846903447578,0.02499775611990604,0.009885766821273878,-0.009437540471226212,0.04551919811912709,-0.04827708580593727,0.016906120636884694,0.025772690187691655,0.005805031322155402,0.07448643474173466,0.015384700882030413,0.016000889746658607,-0.049536741909078974,0.04227982587888931,-0.016712905913103662,0.04721409301537556,0.02989076114408501,0.04787610444274982,0.00593946738348717,-0.00048528620774414104,-0.03917825981167101,0.06884459157472761,-0.01069637425170975,-0.011797924465535006,0.0756747247994272,0.011920149216267772,0.010271620618630038,-0.018753653837212583,-0.042881969053727036,-0.016407561716558775,0.005248583870180679,0.002269477949394306,0.06762407744740352,-0.024695308775579003,0.0267332591700641,-0.059243338844887514,-0.061122683274006884,0.06438154016881427,0.007394591166292106,-0.043231125347274794,0.017607653752530025,-0.031227040738805723,-0.007140835671235028,0.0072064124861396985,0.021399956396241093,-0.011656010291949747,-0.023716189667042743,-0.01204057774271541,0.02994050613539556,-0.03690534620470464,0.055826403526191025,-0.03667932912195664,0.03251142734803656,0.01850736958381833,0.005373921581171251,-0.052419456767818236,0.013613024196836455,0.00900276993352607,-0.02075357946356525,0.041858936866641015,0.02743674023553129,0.011037092645429444,0.06923696567554698,0.051265219048354994,-0.04043459524424155,0.020022040173170334,0.02927183095522502,0.028848495389695535,0.029833004099340633,0.03554202030129855,0.01046642760764506,-0.016613660261575524,0.045647199634525765,0.013145887638512696,0.05906304547578834,0.04548536331765951,-0.018211425050313448,-0.08295957302654787,-0.008582056243758747,0.012523625339729963,-0.03872374426024657,-0.011198212134037636,0.014259851358836836,-0.02089757308058775,-0.012051962643685523,-0.022922475058450895,0.03802258956168222,-0.002292043554597468,-0.07180706412811166,-0.02751752071065467,0.0385855513124973,0.021427201809256904,0.014779142599084256,-0.047032981718827374,0.06651711155412046,-0.0011177839924619674,0.012030205907570294,0.00850992746202667,-0.036671386694899846,-0.02058453526453709,0.0008349159679072862,0.0034054080965289194,0.030369750679817363,0.00036111663902609514,0.005357073849859676,0.0254357568471129,-0.040652981715936926,-3.174915587356249e-05,0.014424863858893288,-0.0685974825489105,-0.013233030485501044,-0.04202542909907472,0.027689698928429415,-0.004956944076194268,0.011776456238112801,-0.008109104275161897,0.022608444009216917,-0.06154060176322514,0.00220738803505628,0.039833044737450134,-0.022298761332991197,0.05071279369461129,0.016981217458078648,0.04208401401549506,0.03444432706154289,0.02779064518076455,-0.03246063363906451,-0.029633270004633186,0.03358703859491113,-0.012880795295073475,0.013607531344929712,-0.0031030353383520704,-0.012852267156068999,-0.009940253958537369,0.06826475307773917,-0.006720864908770865,-0.006974153866640302,0.0032809390591988213,-0.04339059849189675,-0.004436843677210337,0.022680501950977334,0.022181048299238736,0.0020103936287438756,0.017160166296856016,-0.025025158422124005,-0.021977448031952906,-0.006387306241166065,-0.03313454071119202,0.0020264137563250047,0.0014012392618256955,0.002774177674393193,0.051672000513588966,0.017770983945148405,-0.04986277230906769,-0.05636073713124975,0.037045028566691805,-0.006704594873934878,-0.03512027228267208,-0.0249935416137552,-0.025330664946356697,-0.04940789540854951,0.022253313703834918,-0.05583196989884017,0.0251446972128791,0.022775610540688065,-0.041192114890977294,0.045080558103741515,-0.06304143918596876,0.005754079160506104,0.0390430373275352,-0.029831738399810716,0.005552762929805218,0.024472493821452022,0.0524190678545959,-0.006606527426060015,0.033533915412994914,0.014156365623031995,0.021288620575602473,0.040286914025042656,0.0428064522550868,0.005656788333344588,0.011926391587300689,-0.058777795928508215,-0.014182110320849435,-0.006782444429274978,-0.029995809363733916,-0.055857918396867504,0.009357603476711612,-0.03394991029608274,-0.004065114130094155,-0.006237517867208243,-0.06231096809874922,-0.005448102005861359,-0.025048110605596707,-0.0943773501626965,0.07967488445443803,0.00767396046163039,0.08084429943605405,0.02561012427690921,0.0012931378432074346,-0.02429228530063455,-0.03630948305697029,0.04446337849258059,0.004998062184536556,0.009754051859660306,-0.012053168262077998,-0.026707035415315918,-0.0008948854464650576,0.01085511561098925,-0.07676350302270134,0.03379852625820213,0.011663079506462443,0.010915358969768214,-0.04100498299607891,0.05637596727053118,-0.005868779883560293,0.021271261196985875,-0.03463913003275232,0.04006314412911928,0.05107649574690946,-0.023672542006607136,-0.005178399145528045,0.04522506978160313,0.018537868665065693,0.056478883263768855,0.024319874416158658,-0.032471938534765404,0.05516126372185304,-0.003908608453913025,-0.028776170111016748,0.035978707140089196,0.015331816133080526,0.10437204626644497,0.010565060095972504,-0.008197399898164556,0.009299491750019631,0.046274201096650314,-0.0027586331422503924,-0.03320075988169668,-0.04868419149022492,-0.005677841680024478,-0.0281154735430709,-0.01347189505068998,0.027903030886987302,0.060579126790941885,-0.0344542525000617,-0.09237111882691326,0.04050562792954863,0.06062703971954804,0.0003240547154233341,0.04838538027356859,0.014199644209945276,0.0010888928491562492,-0.0014218810784012877,0.007223228267212102,-0.05850124436479306,0.06097497358599272,-0.03905257059174622,-0.012923281742441995,0.03278317564751149,0.0021368525273059605,-0.07574838301210321,-0.01628930694126254,-0.008373405901715718,-0.07209394247057292,0.012612060950687627,0.05553160258118376,0.007561047276505752,0.011279808040496005,0.06333071880186136,-0.0465377214517765,-0.050329014230205756,-0.0024850292123811965,-0.022942914291716944,-0.0005728420050312012,-0.041707887703627516,-0.025810929899839956,-0.06756228391178538,-0.00904002892826409,-0.01970770714288371,0.008434703974245809,-0.05532656280935064,-0.05047932675043907,0.011662596428574439,-0.00970249317778714,-0.052855467066043216,-0.060925605990018804,0.026697733966110707,0.03488736049440395,-0.021967914561702693,0.02166135795044664,-0.07388825796671337,0.00836102465483187,0.01597087388658848,-0.012325845628313967,0.004222699574675431,0.038652787502679864,-0.008550961459650556,-0.07047391497930562,0.017078804006591536,-0.053010309225314266,0.02754513421347371,0.02235680850247138,-0.013670919292391547,0.01989134390218942,0.012412928592516123,-0.022999973048859285,-0.002078304767722789,0.0001241600289767655,0.009942371140159894,0.0006879814718597126,0.03982246057762192,-0.0012605529252182272,-0.04517759378550093,-0.013677995479633874,-0.010371060651485462,-0.07832829439039217,0.027313742799950528,0.03749335656602349,-0.026109104336787103,0.03823063069101901,0.06819037094849066,0.03367663153972598,-0.00039889098567450886,-0.025152692133987145,0.01633167099066053,-0.02679857177066458,-0.058515837000368914,-0.03731567594299411,-0.054399291973179685,0.015997923593673306,0.022762833192247815,-0.010090749786018842,0.05491771581416114,-0.010688854211638224,0.0001283182610703296,-0.0011119170583266005,0.001994659312557326,0.06177046865809973,0.037723354997976466,0.03221308586740016,-0.019790355281751475,0.0340198420009317,0.01374796954684759,0.017251538015455786,0.0038467743753685993,0.03375175930696345,0.024708966480673597,-0.00015333296219702207,-0.05778009048108451,0.004876131351673884,0.03802775863484977,0.037741797695115126,0.015290209886380407,0.04515413447202461,-0.021764757648549567,0.0020175028270777505,-0.027776103442055923,0.049155177681561066,0.019235649841291537,-0.010961375979490179,-0.05151634872944126,-0.04194110139667914,-0.03345127222177292,-0.04613715535649283,-0.0037193931531175166,-0.029070543438852188,-0.012162335230331086,0.012675945139353282,-0.0049090760336567745,0.014228611838454249,0.03300461601343527,-0.016932777331067673,0.003655800749134606,-0.024580735708905038,0.0047845395036450284,0.004621840742198077,0.0009028968705058482,-0.02673497932676079,-0.038305927731338084,-0.0200818619146303,-0.0021320915963345256,0.018977987091312303,-0.026597459041208377
0:4:-0.004110498741521395,0.01439780105263797,-0.011766063633941514,0.026893661763960113,0.04498783839886723,-0.0344260641763202,-0.048982380518441226,-0.0009452432656456399,-0.026803982087322643,-0.041124229619297584,0.02520517698596562,-0.01349208759556037,0.022013620450452652,0.007246465409419985,-0.038117174995333535,0.028871080658448577,-0.0027187134248191007,-0.040440332270881715,-0.0066844534300165605,-0.008147552870044567,-0.0014112297177188207,-0.09732631132160063,-0.01664106353000686,-0.0719598962364253,0.013787362458459901,0.018854158262430858,0.007292303843317089,-0.0064032380761673375,-0.0516655143213422,-0.009510661882771327,-0.07066735639473724,-0.03654862162505673,-0.05377828263805469,0.019071502619132857,0.03252352119063169,-0.002008825194569052,0.052366261597480375,-0.014258677124118832,-0.041060640722639555,-0.04663291789673858,0.0049818630342356495,0.03653328624747839,-0.006106930054263298,-0.02486796983733617,0.031576856994551886,0.0005263263568296916,0.020479258119189863,-0.05448937526304754,-0.028056910701658114,-0.062017932541193754,0.001967793060730055,0.1034506058161189,0.051411084793761386,0.07284639794297963,-0.023946958137108534,-0.023644137320821473,0.016123576834163475,0.008562565539672374,-0.017976483951991758,-0.03857259346758976,0.030182217471049932,0.03520695374265278,0.026396106150778583,0.0365941735644906,-0.0035697176960593816,-0.014571295985917505,0.026120634896202016,-0.008954177848749984,0.03820761637142322,0.02393309854130172,0.028796365112418933,-0.001035820642588633,0.021513916812096964,0.009260659232728974,0.001246789898693055,-0.01930260722441967,0.006178143957917034,-0.002184270744320978,-0.05842643491146439,-0.03380409771597235,-0.07432297000366239,0.016941380059198624,0.002336732551562632,0.0005573353778143079,-0.007494473372426424,0.030347418087616016,0.03739794297212357,-0.004777958133099658,0.0061051350890776665,-0.03012471827254196,0.05107345577859539,0.013402117291945055,-0.0390374937183255,0.008102824486038177,-0.012402880547356079,0.005879275537335247,-0.008289386115283178,0.030280051724698682,-0.001986736390970515,0.012683066786218127,0.08434741371306266,0.05068372948820739,0.013800186463800247,-0.02733322891109956,0.004901167604627174,0.014605829957038704,0.03669673615981525,0.023619337878263633,-0.02492424266776558,-0.018698600606371168,0.0794730536053069,0.023897485046566982,0.00425891347174019,0.024291703750881303,0.0368371981815355,0.015672485662939196,0.03234817429061599,0.023899814202754,-0.022533383565643137,-0.045474865848885826,0.03698494657112012,0.024267853139368217,-0.01207900697232582,-0.0520310756214069,-0.023600602325933962,0.03693975193380223,0.05101850087386883,-0.03512419669038208,0.08105214688659393,-0.015617158185694478,-0.014322812290669467,-0.014593800754860322,0.006035710662765894,0.007863282962985682,0.007414771403815923,0.01293680668890126,0.028986025564745985,0.024078070690943525,0.06628957442093059,0.05493867799310315,-0.021017097745482008,0.017460186628613674,-0.011627503409675536,0.01919922821547726,0.022652233511900603,-0.04444697291127086,0.04206588842754243,-0.012424017583108534,0.04368908185983357,-0.009239521650467628,0.03916810317672448,0.017789619084834483,0.05099476229087242,-0.0001404203197777098,0.07367489249227466,-0.012522200584849184,-0.0277961956839854,-0.001256456341278063,0.02721738752934523,0.014390337957330034,0.005959236538419897,0.01454723079689965,0.03974205229637643,0.03843709210746917,-0.0018222194263332993,-0.018644333263896543,0.009439324248690394,-0.043400983022967014,-0.028184397629383615,0.0008000242138115567,0.04515418589447828,0.0020718343621397516,-0.03212018773539369,0.012254996049127498,0.0148257788052493,-0.024360981192659815,0.10475307781831639,-0.05452255250087867,0.11071094037000205,0.0359902634921565,0.05242744757185355,0.06413509504699412,0.05138188885565322,0.04571583450416796,0.09909175303723032,-0.034091940595418015,0.08464240724721073,-0.026402734510478594,-0.06184549183733131,-0.013889516391277031,0.04579592114135855,0.0007687932285779691,0.024352988380158414,0.030497086948524266,-0.006022775792488318,0.049196961402816757,0.0016671829466693713,0.018589753741018723,0.032713559766572635,0.00244041610386272,0.04346078322351941,0.06645549101290799,0.03850791568382462,-0.04142515024720063,0.014578487367466789,-0.019543867548195558,0.028264758082209514,-0.05420596744711384,0.06359093310509781,0.03209373603056208,0.005273449945610957,-0.043788115403959854,0.043448069796587566,0.031492146916399205,0.05706236038519703,-0.016700932142009167,0.03254488104148371,-0.019304234299578275,0.014257557814693764,-0.0174768786644162,-0.006436485553031659,-0.016641389813471366,-0.057934181806788464,0.0017888398195081417,0.05068453336654653,0.005014058881507006,-0.05821068692529199,0.011130509357121832,-0.01328844608846194,-0.0028142043421160424,0.006171322199275967,-0.013372188439982956,0.07405813165497559,0.04804057865197112,0.03056819844715702,-0.004271163650760944,-0.009530063515640662,-0.010388507268530472,-0.042469395728406016,-0.03456040672925472,0.02601850358834939,0.002668197770811415,0.006953786889610024,-0.018917902517180434,0.0983889654331665,0.08925143841624548,-0.02042685002550404,0.050364278932536435,-0.010569125620610468,0.019578568318617057,-0.0419502620779066,0.03458247881034173,0.02598686251529982,0.04447847102954249,-0.008055706584781015,0.06693302628034836,0.04425269849012043,0.021606376781029082,0.017137834535094435,0.03932902891041401,0.003977293883530841,0.033948111458249046,0.09870390803769541,0.06545149615699829,0.019895148940023737,0.025912929443347204,-0.06355656641825755,-0.0075351529297378326,-0.09609187848711297,-0.030583138320746994,0.09606024118855044,0.046061692677213044,0.07359462327306339,0.03625878394406105,0.031982779218823004,0.0028179937224778843,-0.03459264241888383,0.04327302004136065,0.0027653906724157333,0.03814456906100316,-0.0673071621030828,-0.011938495865229819,-0.024870397481058144,0.02890346050652657,0.009991777023203663,0.002429287796698628,-0.059637358088079434,-0.015428211660685792,-0.030232541387094854,0.023463098699357622,0.05420685864896459,0.02439499179240946,-0.029583482919188657,-0.0011257568298825365,0.005858359237471471,-0.01708589733402995,-0.02154338749742928,0.03844073924309961,0.0464034622376725,0.007230886174716912,0.08162813256420307,0.01646493003775716,-0.03310875217304278,-0.04566120603850696,-0.01877794412598977,0.019798085249681963,-0.05694578131467017,0.002682696519393798,0.03808621903341114,-0.0791264833815253,0.009332781399718243,-0.04703747490432315,-0.021766445101860127,-0.054654702744518044,0.018830910730027694,0.04213767608150843,-0.009613339024692958,0.006146681337655018,0.05197205765158209,-0.03790538785030573,0.04382981036863483,-0.039672441269722136,0.024906194823343865,-0.04447225734601353,0.002081084187798072,0.00658414870667406,0.053089757703050404,0.0220156534985752,0.052561487796991734,-0.054601290662051744,-0.06633030271777689,0.014782426188274073,-0.05310613847457512,0.0706605765096291,0.016361384483356032,-0.0836681374038793,-0.013850002627283888,0.05113615231821035,0.010177330528860886,0.003147128347884162,0.03165023092891006,-0.040470040619613,-0.02388850119237725,-0.03725783547837474,0.05601495950880062,0.003249840404040324,0.01688924508726264,-0.04138620133365968,-0.00022817918443882065,-0.08829188339321774,-0.004733532825494846,0.0130784714811659,0.046839946385258756,0.03071759099026972,0.041365303861015605,-0.028291794234666955,0.0005818219903261367,0.0017658395539454103,0.006618697631686698,0.02925842609376328,0.04759565771641843,-0.010505646931860901,-0.050691276360040866,-0.00754565167690253,0.1006273055494047,-0.008387203795476661,0.006894195694739242,0.019833977275350072,0.0509979428190111,-0.030656971488947797,0.0033865396866008383,-0.06484850434569435,0.07776027525114292,-0.017064053480991347,0.0014313571839076529,-0.04210960110349582,-0.010807108012439384,-0.011375766148797576,0.01523395853190374,0.06594866603182198,0.08808125395408944,-0.012575197405043623,0.040138836748191374,-0.009124998449524776,0.03231791999136962,-0.050629864875497095,-0.030135427029200974,0.00887653922551792,0.015814326601852804,-0.0019296079452415385,0.07166196978328492,0.001816257344098447,0.00953208744692713,0.050626972359961456,0.0022673398036574927,0.013689464636355817,-0.004640015463238162,0.017415187832283,-0.10954066188659481,-0.06449375322520806,-0.06185055920731599,-0.04693189376411513,-0.07305386882618559,-0.002576108283166986,0.007087565374737326,-0.005101063087059371,-0.026974976652924754,0.07911812954158128,0.024182400817690197,0.05743876283816687,-0.02145027506540123,0.00145220026951212,-0.011569151021139298,-0.06644839221705302,-0.037171476116673985,-0.055170206338780454,-0.04199418956877401,0.03037654951874267,0.040797189365909946,0.0018577491464994147,0.027136783945367383,0.0371062774053222,-0.008532168067121886,-0.03860472755060633,-0.021037670337633423,0.006207193126789692,-0.0401434869260839,-0.018703098133323673,-0.007073014737496953,-0.006227173578771229,-0.03784873063110846,0.03459590552777942,0.015502868697753098,0.019852492025406357,0.049290650449819826,-0.020181712509222925,0.049765585201271445,-0.010650445628936349,0.012702927983358694,-0.029279363059550416,0.02013379642022516,-0.06052946507080561,0.0531083767244647,0.03206130987131836,0.023093440981049308,-0.04037251291228426,0.025340500669018072,0.0057491531977639275,-0.014447229628659007,-0.009491883926491466,-0.03810307092944794,0.02971487076611148,-0.03476785407647982,0.021066775081614298,-0.06390317310597655,0.023102899609264854,0.03914146411545297,-0.01226825782621688,0.03895719254797769,0.0420733061079028,-0.040879159510126384,0.02680467004226884,0.023364923905968005,0.02940570525426344,0.042284388887824216,0.053624964095423375,0.04142755532711868,-0.022469650836706784,-0.012680154503441347,0.06487451785932614,-0.019342541223206094,-0.07322413507189701,-0.06658718105756954,0.011642853013310585,-0.024696364686136372,-0.002256843439421681,0.06509794790722541,0.028677658036679966,-0.014058797816188087,0.0102851226941821,-0.009613654275181207,-0.09411936469359128,-0.007584832658744154,0.012467033815591317,-0.013815205666909112,0.012037669193972868,-0.034045409633156505,0.06998867875766632,-0.013510551859122222,0.014398755285247677,0.07643356448364197,0.046618052437850534,0.040541074994023006,-0.021877395090547917,-0.029662299365665074,-0.0032924683101196294,0.08314043555118215,0.001969212803260933,-0.002727684474408619,-0.0008066984357715549,0.017572082774213345,0.0011509111591123428,-0.02935416902088339,0.025444283705385172,0.0013859678560262777,-0.02864589640509915,-0.057106939408129546,-0.034800778506304836,0.01272830727188721,0.051860978879189855,-0.04761194770606514,-0.040532972643592895,-0.0048673203993776035,0.0327248235030623,0.017568908825846656,-0.0028850505984195293,0.025207584277098908,-0.009351387608282696,0.010890730246211344,0.03616706993771414,0.04810063342646494,-0.02547871727252921,0.03253156403319212,0.012632649466391992,-0.035433825813574855,0.05724905536265319,-0.00410682541782799,0.05334585453861693,-0.007693842969420573,0.0023868752850778004,0.003172890716431537,0.013982000088006551,0.015415456645231945,-0.04147244553616907,0.028475943825794985,0.010873449707842726,0.033254674783089834,0.03436389763927993,-0.038770808080726506,-0.00016895917870058966,-0.02018285128124999,-0.0159663432861353,0.01461914072543266,-0.0069317081582916384,0.062353413923712714,0.07940227876357886,0.021844492325701848,0.08083413368734715,-0.0327967385817383,0.06612201890387406,0.01123125164582464,0.004699852840410168,0.020259931705690196,0.009125464088374766,0.08063393024210784,0.030810888094924885,-0.010567995684670801,-0.053629658571584776,0.013287773595345467,-0.08411941694501997,-0.01751831776041735,0.016437792029490025,0.009583875615669826,0.0210855359781469,-0.029356651814600298,0.05463396761167981,0.0005156996288406142,0.006810001149141565,0.10518803367809074,-0.04586576856342202,0.010355830715223906,0.03209268341438149,0.06367004576539292,0.004345895231254257,-0.01790961449508431,0.05127938470092882,0.037189050538668465,0.0041656869909479435,0.0027317617372755293,0.0634568584040298,0.015951650409398273,-0.0031166241642762113,-0.005430522503182186,-0.00458999095322467,0.08294237819205855,0.05273615918527232,0.015252446534375932,-0.04244074814226746,-0.07199582617219481,0.01242302046825552,-0.025003748984907436,0.004564277386620954,-0.001923940835401775,-0.07826996315627728,0.0358013707668374,0.028881879628973074,0.08494311087956993,0.06686906428449996,0.0342728507419718,0.018200134215244416,-0.0023813304639398202,0.0028317076145757754,0.011264477747723498,0.024708751776342894,0.06938157339223111,0.0746923571006706,0.06336128289085062,0.02631387750689396,0.044293144825880135,0.037443479847930665,0.062467338689824285,-0.012336521779243118,0.008663190557918851,-0.06171007151352873,0.013127053516226426,0.008614722237548307,0.018485418753860266,0.03898338597373173,0.031849721345384954,-0.022383815125385863,0.04452741116083524,-0.003113294903214699,0.026630100426827754,0.012346046818996127,0.03367653152900386,0.04642302178909039,-0.026176242293816824,-0.006069881203849891,0.03720357222657921,-0.010205022334561832,0.06215019687413481,0.056235301290702186,0.042946991763846136,0.002654596354220052,0.05489253685101732,0.015904164515106345,0.012034490363283934,0.05581000142301259,0.052949850821321906,0.016440189323907842,0.01338265398509055,-0.011159417013831803,0.03810540334937669,0.006449653934036184,-0.0006361836774521537,-0.005471552989238746,0.012483519245240441,-0.035429691429854714,-0.03884818519678384,0.0016823281515370543,-0.028816173982810424,-0.03969596082877101,0.025243408812758068,0.0515485579296509,0.045748709807094376,0.01634656632933615,0.015732764963118814,0.0420905147825861,-0.0064902650765860555,-0.016497574494591195,-0.0346942395608089,-0.01623997790398903,-0.014778776121098642,0.022569262890788203,0.008498972257583686,0.028926075847830593,0.02026207515258813,-0.03876329407308815,-0.020218508888495083,0.03628406342695767,-0.019947050316770354,-0.023046824067656083,-1.2853778760150644e-05,0.029179028874792165,0.009229973109876876,-0.04112433375796331,0.003524459515472861,0.010168985278339152,-0.05272447622118594,0.05829337054414816,-0.03066845023047872,0.053776148567535764,0.027982991695693845,0.021560657428244666,0.006968220788356666,0.03841786624624238,0.003119464781074923,-0.006041533145002686,0.07548720817002398,0.044728780635903555,0.04378896059234262,0.07650850384801354,-0.044416533078603194,-0.06656864837748368,0.05790866279972509,0.018968592596729984,0.03397493357251306,0.02084183607668647,0.07403109118465666,-0.08799159842981126,0.03209905418856577,0.013236363972571979,0.007628152497512336,-0.012657663864005202,-0.03850867798279005,-0.024041898950841828,0.055304372210343886,0.010214879769875817,-0.023462430997103313,-0.05131613294502567,0.052422420853133395,-0.06500498992469952,0.04738924090560714,-0.044748976889113765,-0.0018056407213050605,0.06378495796357472,0.005962902672691466,0.001691973284741753,-0.02808879267520439,0.03337398989951074,0.04808006797705093,0.017295518534396533,-0.004475653971763999,0.00020005075548340623,-0.005692037492321583,0.029201115900130744,0.022277010326179875,-0.021369059144674712,0.021921650568774632,-0.029532923655733116,0.026164724990519184,-0.0037340748770178754,-0.06357297198844336,-0.057965790930981365,-0.036158324230144395,0.004184581556027372,-0.0207811350501598,-0.026446785361846085,0.033093872340366974,-0.012431614492247276,0.025999438343484747,-0.013188297041653294,-0.008567699649340977,0.021636217121168134,0.08354505534729309,0.008139566551614174,0.03943490863657649,-0.00409740565880308,-0.054310840964523634,0.043996089456427155,-0.002771078111486423,-0.027518737420462156,0.05020492674237136,-0.012906425058457785,0.038804143711154114,0.023157351545909435,0.021765259553485693,-0.058299581446352,-0.025066041308121713,-0.011302511839761697,0.025777707106164678,-0.030406302367938592,-0.003056164090123015,0.018653609264022143,0.02149693048335814,0.011513098141422968,0.04284317854641299,0.006926253970072941,0.03600366631735945,-0.01634939443926793,-0.016065258706916767,-0.005391587529452988,0.015690369457577513,-0.007856119468960213,-0.06121457694353781,-0.055934024997392376,-0.09919785718684737,-0.011557317993631362,-0.014483508213125896,0.026966545867621147,0.044470779575655386,-0.01508951901014393,0.04670974958464704,-0.005552826941069045
