-1:b:1.3653986939129519,1.2341577231208185,0.9502202951643993,-0.26254851693119363,1.5496965292235094,0.6668768277581724,-0.3032974384389937,-0.12684212340988132,-0.7928864086173162,-1.8494826785216882,-1.7924043254345268,-1.6245619625655108,-0.34581663116136324,1.029585324492081,-0.49125786648087577,0.21628819025184795,1.8718746888182602,-1.3986188286709411,0.31191824800108214,1.6457279251935504,-1.9320684134651973,0.11180003929628377,0.0035133439986258443,1.3201893879943822,1.2381389412436647,-1.2659550158291122,1.4617615566293045,-0.4435139840590039,1.9788183190167405,0.5096440021486256,-1.8442508346372941,-1.5229623250478745,0.8779169152768705,-1.7331434012551306,1.4006792227218183,1.1818839811759385,0.69603285496672,1.4208654655333495,-1.7092424774050836,-1.606619289076324,1.3777042906815216,0.31502256128875344,1.265572168638634,1.1913043743853375,1.7076063405064692,-0.7893803845371655,0.5962090415652738,0.07174842624066105,1.8195632205729484,-1.6463252446529677,1.2107746834977064,-1.4502811320884494,-0.9205172925245835,1.25170821429803,1.6326068450974247,0.5463900444893982,-1.4797510547142227,0.06896966577081366,-0.27695895684709093,0.03314524258718471,1.1350782787173297,-1.2138691205270997,1.021404045391246,0.3989289086648311,0.7723390842251056,0.9299729595240692,-1.0000100169399704,-1.6659631128677144,0.3793653768750928,-0.496207641530351,-0.7378350213254462,-0.6205177677268935,-0.8749902495575375,-1.7157603919439963,-1.3655153485646645,-1.9685739672008413,-0.07886542921505497,1.6850720083840554,-0.7035900963082392,-0.07760110338020458,-1.644750184841151,-0.3715789024053854,1.9958217202479982,-0.6407657372506343,0.5565821269266962,0.05737821146127427,1.1506609997947677,0.38678276990329913,-0.21693319290144386,0.9745009588352624,1.3280187313432135,1.4260671783743348,0.9447552039788084,-1.7014187389609465,-1.1573167505055348,1.0922124407397966,1.7195181983029406,0.7013367736953824,0.9304437003419935,-0.434122396958957,-0.15462815999276447,-1.3813662488385634,0.543530337357607,0.811359389686601,0.9600492072140725,0.4715013184853438,-1.1907898942785473,-0.5074511870713398,0.04095370084313354,0.9150196720008006,-0.4937139778385822,1.978761321010577,-1.4046264086822768,0.884630152908031,0.4562953302486785,-1.649463507666233,1.4135993108822715,-1.2455002593047637,0.1898844554093193,-0.426373213059482,1.50932957215354,-0.12281254131912284,1.765200887697359,-1.5390119545158925,0.989112312271509,0.8150331057310739,-1.6023086009682048,-0.2848533045656354,0.6550802672407353,-1.383817214414162,0.4568642870820386,-1.2263985651046045,-1.9448203021094481,-1.7728918739041166,-1.47662751970913,0.6867682875515627,1.294660936661751,-1.985691990951329,-1.4558094659645993,0.1489655318653842,1.715093765196576,0.22722378891373726,-0.3851459606626415,0.6237676842109177,-0.314281979154998,0.4449353258715096,-1.906630987860002,-1.129889066813289,0.8682775433924425,1.2822736035490543,1.8356844919166897,0.6730129529713342,-1.559010317408223,-1.8862212730761128,0.30074679126841924,0.9969823058145881,-0.026683307015940034,0.3842299391364292,0.12412102319251292,0.6183803360947814,0.7969530792180018,0.20443015262896072,-0.8240464139030017,-0.39105313407405534,-1.252712797883789,-1.7201487216961207,-1.533248268196119,0.303686102408202,-1.8848168828737144,0.2960123309854397,1.390498601097058,-1.2368329524534398,-1.050318278555249,0.23919242505266092,1.5632462907913316,-0.5767342644736093,-1.8757609933470047,0.6644241280618581,1.2603237150934177,-0.8178951198965112,1.9498339773636988,0.9930026845881837,0.22594287123759785,-1.7752214070304335,-0.5074470309791901,-0.03360841218116901,1.079409475272624,0.8060642510060481,-1.2427706744464055,1.2330651804034924,1.017830123672555,-1.1077470247522525,0.8740191390942007,-1.6851327913566232,0.007621228656149809,-1.746980890653759,1.7608521416774598,1.8808842529946599,0.9732860599267394,0.6481036016468363,0.7056966016628128,1.2374869891669191,1.2967459777501045,0.7634969291518942,-1.9476243093105858,-0.7494424586858578,0.243326658712796,-1.6324243395574993,-0.2019448989313097,-1.1016964570931758,-1.7305410424046936,1.5998775872814204,-1.4302718469814266,-1.68352292682779,1.7273915383748348,-1.3684405286309693,-1.115753419905356,-1.6198666788818876,0.721982458193941,-1.2777127949329854,-0.3455192081568284,-0.19008282097752266,-1.3918093898780644,-1.199730896891149,1.9721370376374188,-0.24700369532643676,-1.6550715379659846,-1.0170710453090135,-1.432264007292353,1.3149794166326487,-0.22906011947107033,1.8477808186325868,0.9544325841931285,1.1963156031786872,-0.8882594323579822,-0.01643593254233422,1.0543055593203208,-0.8645671858306986,-0.3487275378377886,-1.6580893904416545,1.4799750491294192,0.032793733578902806,-0.10945891935018212,-0.8197177433419568,-0.3796136453169085,1.5659942281955084,0.47369259613543635,-1.0052249065792784,1.4653556294964267,-0.5791875779572712,1.6833048347231612,-0.215138418544646,-0.027785001025401507,-1.8253735436657794,1.7358010889601272,0.14703380483933914,1.3218235217438616,-0.01917783409457642,1.7028399815903175,1.6879103511361204,0.059203779162077676,1.5612068183754588,-0.03369331753722573,0.9339249404373796,-0.5533415571522545,-0.3401569904820404,-0.5971202335104498,0.09221901085505645,-1.6785174625859116,0.28973253995688103,0.11271216203633531,-1.9783758311953719,0.6047722737733296,-0.37070953450281957,1.2582850651871365,1.8756168852216766,0.7596804593082819,-0.1062588976662601,-0.13819666569104413,-1.574966823839981,-0.7891709720093802,1.8848449970672316,0.109389360129648,-1.8215729305843364,-0.7685004120176752,0.20266512904867792,-1.2991371389218247,0.23009933280050698,1.1148822596288737,-1.2135940670481697,-1.2778228929486786,0.9846707433794868,1.4547357625504664,1.0511530768453579,-1.3205069023234253,1.169967397822443,0.8792728745217349,1.35320564787747,1.9703496353642564,-0.44842261890708257,0.35496084341540524,-0.6450480303087579,-0.1422488175995435,0.5559429611919754,0.9045168584086137,0.8486967669841163,-1.0787327739968955,-1.6076578263819634,-0.5102086669072008,0.2876985287622379,-1.1218049569218103,-1.047872666628678,-0.7257850327530053,0.4979208627267848,-1.188906112892206,0.3992959887862575,-0.6757915238112083,1.369732311396355,-1.046482190596294,-0.8871689424689625,0.7395316043008797,1.4553792811075947,0.28829899451016966,-1.4366273301362487,1.2063966183104007,0.32200413873114886,-1.8363176121990978,0.39903575801612495,-1.9309907396162873,-1.6886954254568156,-1.8606863404833467,1.9536137540894956,-1.112103184138117,1.5337117039488037,-1.1572899924617186,-0.30288508064439074,-0.5720277841424964,0.6348056664070539,-1.0226358533256148,0.38773062896985955,-1.6350272871738625,-1.822842381388241,1.1091070547031154,0.44004832236188174,1.4152300096179435,-0.7032276453117554,-0.5357952977914221,-0.5206183173701101,1.5665665332856284,-1.1340743570597094,1.244534709685314,1.5048402501414573,-0.4067623529676972,-1.899210595735323,-0.2339183804042608,-0.09091919053814607,0.24536410081430146,-0.5043787859983219,-0.1675992800595863,-0.2582560556784628,-1.6535031072071225,1.223245656563045,-0.7419817730191451,0.20537141137581033,1.6285550701028886,-1.1572913728765708,0.25657619128062276,1.5835753792903668,1.209817656863766,-1.9652187577365399,1.6208593901367743,0.13673472816267557,1.1348707286268422,-1.265569821480844,-1.7828652381399808,-1.7574514937902066,-1.454310784627594,-1.0541438903142124,-1.7412990785501634,0.2166619824429298,-1.0591992885423096,-1.7961610217163315,0.7343372844720286,-1.9300026578637035,-1.6429806774578615,-1.4110241646199153,1.400989699334988,-0.5070026877960756,0.8020385789469013,0.5414048091885978,-1.1831215502422494,-1.121688898489003,-1.7160257443112434,1.6592779493343577,1.5489762361743364,-0.7306378129440023,1.4902225049378137,0.4060345928113375,-0.8049802419723776,-0.12510255084554808,-1.2149300934869651,-1.2291260378841566,-1.9313645407934614,1.0966098680266747,-1.5220083925503785,-1.401856163323525,-0.18301096337579062,-0.42852898864456934,-1.7808056523501437,-1.0311115204336865,-0.3273540057099485,-1.3934044166598554,1.3950889194638556,0.9039148743459167,0.17046801724698993,0.6329552919004768,0.7570488874200504,1.581554918447894,1.0224047388148796,0.09530160012395496,1.8986886297869345,-0.8505691415341902,0.9024635214679546,-1.2599650874249027,1.092013792948802,-0.41256239437006814,1.961147385633218,0.16445431181346695,1.577558129514309,0.7163362704119712,-0.5237303281535387,-0.44528003165488256,-1.8466129407814362,-1.9365468162138075,1.6055946244271406,1.784793310914316,0.15896187656928987,-0.6543247606139231,-0.8850734329977353,-0.6239210508159566,-1.1402147303017962,0.7350030476085906,1.691991458342625,1.9775363136110549,-1.6035244017134174,0.07542155354036281,1.085836864551277,1.0954243975536473,-1.3618939253249107,-1.72285985510051,0.6563980865878527,1.487802431522091,-0.30432763157936504,1.3814387949027802,-0.27503587946396224,-0.584986339277739,0.011241124569355835,1.6442661403813859,1.6869865604466292,1.1781064981676965,-1.1674985783659428,0.529830682646209,1.0492747062569963,1.6274001709353294,0.7946180214195011,0.8140750442072079,1.3840629720838964,-1.2676043186825208,-1.0988384401379037,1.7201556247989844,-0.43826516484667816,0.5425775458833785,1.2961300107029785,0.6140695318063457,-1.8065238467016678,0.27092768845693305,-1.4010607614405792,-0.31339913228369026,1.4434825807405864,0.044613095496455216,-0.5962340917669042,-1.0396733147718265,-0.4362698520688378,0.7563414482375088,-0.7591673144276858,1.4098741430473327,1.124323845584753,1.3746334397704596,1.7880565574656733,-1.8555054966973663,-0.8931086938950739,-1.833196352486679,-1.8921087586382246,-1.88741222156371,1.4950549265992557,-1.7982227132621613,-0.5776967805649588,-0.9068265567615046,-0.30978154472944286,-1.8267897010918959,-0.17460321489878852,-0.3410768941436721,-1.3151819411695813,-0.4553446740948859,-1.8946821056116026,0.704834963320308,0.7151590232702605,0.03212122835178516,0.5182507262640969,-1.916687428179741,1.4375031059000232,-1.4767554765083264,-0.27622813221599624,-0.7860423546718665,0.23877912618488578,-0.2058212722539352,-1.4992565096696118,-0.4225964745652028,-1.286517419773419,-1.163214693175349,0.6191474493056963,-1.194434262194998,0.8834687660088352,1.1412131125164224,-0.2899254723516549,0.09861383317861697,-0.19643723230436586,-0.604743262828228,0.8521740558378454,-0.1187253079573954,-1.4606860909189447,0.11444641758199393,1.3701235279485555,-0.6158591610274649,0.17883262334341354,0.30168947774744626,-1.7036103855370355,0.021602092030426536,0.2644543795660997,-0.19735791931959076,-1.8470125537288271,-1.8831178559838495,-0.19217664098348414,-0.039088950152215717,0.6953814642639577,1.870137544546621,-1.8997723666083468,0.9725955582894352,0.5074352829139723,1.0179944780410661,-1.777218227516057,1.052421299282584,0.9435155277909092,0.698815624200129,0.41212626430059557,-1.4151156084380285,-1.8696304506616173,-1.373705850201588,-0.896473081381805,-1.3904100050434525,-1.296786104459017,-1.1816895372178386,0.2565329706469651,-0.12159771950919827,0.05825999793597432,0.31273762221564894,0.472368347509781,0.4902485208685971,1.7955026183869616,-1.983909716555249,-1.3093948343872173,-1.609804209839624,-1.1777842197245154,0.9099720928703,1.2170669474529487,-0.2674911652468831,1.3249096746156086,0.8580208477395168,-1.604876264565743,0.17615825918915282,-0.47496300362247557,-1.6060279737898808,0.9646066838084348,1.3125686050472063,1.7528294397659248,0.37050401316628495,0.8105030151055991,-1.4685514010125829,0.22648740908309323,-1.6885639516638324,-0.4486270372227904,1.4802795440860588,-1.6862170752226624,-1.992529350682883,1.9358618719456286,-1.403227529218133,-0.14165204015933083,0.4059151591347177,1.4518193964395523,-0.5040996952311957,0.08668112908626224,-0.17391741695528015,-1.3591907050448473,1.1539817305387416,-1.1381657832182852,-1.1749405527794856,1.9772372668463722,1.8849239572122882,1.0955830510999223,-1.3834320820164079,-0.16532461694784586,1.974621973289768,1.7525209776972954,1.6322141149968865,0.8999245360929783,1.9942657187895458,1.4329572467527423,-1.2177589767574029,-0.514442015849785,-0.06663456609004696,1.6064188804682427,1.27168306568229,0.7765801323777668,1.508745187778908,0.623853106415606,-1.834306309280691,-0.303276820871565,-0.6767627591475217,-0.35704481231466667,0.7010122425509896,1.3140172711764146,0.5094645361294425,1.4777168946943864,-1.0589163401093398,0.7051106796145702,0.18889172071960347,1.380493140051782,0.19110247251672555,0.7150428052173841,-0.575972527142118,0.861847543022704,-0.9189412873136131,-0.6729355156102733,0.6013263259265424,-0.19934856301387116,0.6612272323599776,-0.49783148491328355,0.10063730583629447,-1.1980580624902917,1.9360325174934754,0.8384406723888752,-1.9214544687832862,-1.9041565329676895,1.5768796043627658,0.028732777880126598,0.20597796738175275,-1.370443682627592,1.2269579438449285,-1.9048948825931116,-0.8280400119717105,-1.266477583827815,0.9621532533944106,-0.766832525845594,0.7262916779708825,1.8668775921041825,0.4152897492343998,-0.17513045810522662,1.447941836850885,-0.953618836833793,-1.4846496905142006,-0.8344833673373531,-1.1025937816166675,1.6932563787738404,0.38947775136644963,0.8039150862009571,-0.6236936500162974,0.8317498337815479,1.3427561231762308,-1.909657356128537,1.5505626675123925,0.789540417457409,0.8779910368233084,1.313742329243111,0.07584319861593972,-0.36424471028152594,1.3945225186553933,0.1262489606752183,1.863035815796238,-1.5441305051797283,0.5628035171998581,1.4742176594372052,1.5958377029747968,0.6642346182164027,1.7032905136981953,1.7396531976398173,1.4577030288659252,-1.4086564869689826,-1.0321468312561777,-0.06456586685443313,-0.9178369880656772,-0.4117546804410992,1.9669571591586874,1.4313783334769048,1.6725628701424884,-0.26694620511263695,0.15369579300567068,-0.12032581808175209,0.4998208595387462,0.04806041887623648,1.8275106819115912,0.6941723494299664,-1.7253385832403154,0.45994265237268656,1.0090346772555097,1.0654826004770737,-0.5012913237729163,-0.06134676630823996,0.7780045957157179,0.04936529004016985,0.7743995221420966,1.2608222559648865,0.5377287793330953,-0.1962477786138564,1.5189361555783234,-0.7936151526126864,1.3258924077326444,1.9563308707058877,-0.8874522049720235,1.4078729762346998,-1.6033908656993567,0.4744500657155957,0.746855660792246,-0.5216718343994184,1.4476746773844105,0.11071503428052683,1.913950571105409,-0.19619284602249143,-1.4217761274841583,1.0491221620620632,1.0541528068238408,-1.1642170999737824,0.20641514174818984,-0.6146264947428727,-0.3704421938997275,1.5787908464973597,-0.01741322002593346,-0.12306982909511884,-1.7712896917530077,1.166690113288543,1.1340566204442868,0.6274810148076078,0.965900786225161,1.2934219595474414,0.5581792642557802,-0.28794110772199266,-1.7265334188428816,0.23856492514622507,-0.4694086893331533,1.5435001478602295,1.027356455880172,-0.41933642477761746,-1.9467918635463604,0.7185157272688174,1.792800934038986,-0.24353785193063093,-0.964137986764256,0.35290425691786886,1.084093311500668,-0.6186119336991365,-1.316133084507329,-0.6612649944831863,-0.8576045791064519,1.7073940716513847,-1.1801720533777038,-1.283980111194726,0.38574511854150617,-1.619202933551454,-1.6708466781947426,-0.6275204749748942,-0.6367667422247822,-1.6824922763592975,-0.6429276427343829,-0.2073430963942302,-0.296812561837986
0:0:0.046648107403461855,-0.0023722365167688896,-0.012736300916273209,0.0015333631613967831,0.06458520754921973,0.026013099350968617,0.01165272402045695,0.002842839680662819,-0.028770514646404392,0.05943060107075927,0.017182503382376185,-0.05442628426583584,-0.0023873261929182187,-0.08303743125790666,-0.016612888111779547,-0.012746653495590801,-0.07372634085689607,-0.053969164697425576,0.04576618455875365,-0.006614503741944771,0.06010929738403556,0.02597400791680248,-0.07704122206580051,0.010806933882248902,-0.06332401395944445,-0.002742662664671173,-0.053171887923054016,-0.06733015791012921,-0.021918847046218676,0.005953775747402015,-0.019116030193923998,0.009674464318572539,0.03590874534965863,-0.05271085452104732,0.042557073706692226,0.009390095443910444,-0.010945405205988298,-0.015302556782064112,-0.06190381094928176,0.008150359003232776,-0.05422855151616311,-0.013354045925833965,0.03326480253303277,-0.03624757025201372,-0.05006677304555316,-0.008591965896483473,0.003648170102250653,-0.014052002901397478,0.034763021272368785,0.028238941388715365,0.004335324962163196,-0.038243166696191835,0.03018949882631319,0.021761641394627083,-0.009181801582204633,0.03638966768196476,0.003916109248554891,0.05429722026026942,-0.04938457746788614,-0.04126678166819335,-0.010120922197317788,-0.013573001464871158,-0.0019391338327476998,-0.0257086192215864,-0.0035805337885558425,0.03207623440279926,0.003631859029245451,-0.03165217719007857,0.07634078520091146,-0.04343851519774407,0.01907754020603074,-0.024095095311743246,0.031728150379767533,-0.0067681346887120694,0.03173526159826232,-0.0024841998944176904,-0.0027461543215402296,0.01149294945224091,0.016062654400888558,0.06573377838071479,-0.07572181598765786,0.0034281490125985165,-0.04969425609258591,-0.02480273519449279,0.01618361069878565,-0.03923538446834271,-0.06306448508600493,0.005207210269865645,-0.020101107456117637,0.04328608524192128,-0.030962817324999753,0.03524316641829719,0.013962450210540378,0.040777265264591196,0.007183526622863192,-0.003161821397055897,-0.0429965300424278,-0.018524372065206674,0.006169932221743306,-0.011647689553291955,0.045266550640090754,0.015847767464490407,0.06578121922128032,0.04793063640498228,-0.016184748906405543,-0.03408627727958742,-0.03314230047839696,0.010987009781833564,-0.03842255704018382,0.06481871882666958,-0.04363843159196759,-0.04471013784597902,0.018126041573291906,0.06115830102637588,-0.0006163845009129179,0.035293796857739874,-0.032887646968491585,0.032778445261639415,0.01731031167822055,-0.016171738592213814,0.028011483932436052,0.07624030952550186,0.03365540130386933,-0.0044307400289430145,0.1158851248177188,0.055676361671178426,0.08024828556950223,0.06275318446197145,0.02905159273245546,0.03353278468792227,0.016576918193587645,0.00640632733368648,0.03510237695871328,-0.004524759956355972,-0.03173193826935211,0.04477503044552996,-0.014968344691124529,-0.019272566888107696,0.029805242153242754,0.0025270784356260616,0.0018283963712648734,-0.021333117118352105,-0.01616080440305711,0.026750888930656185,-0.002362907783929541,0.011011216106130707,-0.026397222698434177,0.032261115158478404,0.028068921694587242,0.02510790200734243,0.06524891417829319,0.04222114818712009,0.040819149610295674,0.018612808398117308,-0.006004465053258466,0.026155027721254276,0.031063531260767146,-0.0008369323380009246,-0.024911104732658073,0.03637387910268973,0.06843632044993102,-0.04236350698827754,-0.0036928670287361552,-0.026261268030951995,0.038490777341429035,0.06132593557580875,-0.07794596593431292,-0.007914113049389387,-0.02055644444999505,-0.005727588353898923,-0.06709841255961115,0.02175968728887933,-0.07275556003698369,0.026393285662817543,0.01674537113236892,0.0023568921873203417,0.11020506504265536,0.020775627862001,0.016936130672567204,0.033178269123292345,0.019557385966640393,0.009182191807529154,-0.017935753766146766,-0.058493113270871984,-0.06694279666189552,-0.033674374664662464,-0.012404894116625948,-0.030134879991333553,-0.00666079254543192,0.0008590958504089037,-0.09358395925543236,-0.015263202167385565,-0.056023233808306275,-0.01458490075529543,0.05883931006124712,-0.028063137940041748,0.05682752270691483,-0.038963430657227044,-0.0012321783981117686,-0.017010254097760878,0.055926625293020865,0.029429940708932754,-0.016375049621044,0.01292796356091509,0.006189767050074627,-0.03675134886032469,0.05033658898107921,-0.016456062986439073,-0.015212431607731064,-0.013072577533872969,-0.02982019834316995,-0.012350086146419284,-0.024850278068051273,0.039318531795365624,-0.01706809985527535,0.057163709376214546,0.003279437201115822,0.006760725969618065,-0.049750351065840616,-0.021078660562202214,-0.03379092704771362,0.0545875734645556,-0.06968624605969224,0.0375972963990001,0.01677449226370189,-0.0572079783026182,-0.0003294774730352916,-0.006719773987700526,0.02313704798489799,-0.030698438533964503,0.053737233943375706,0.017599301170637623,-0.007225988711021077,0.014176741262723327,-0.01469804033843527,-0.008010037891704182,-0.04978185297204018,-0.0026215529479325255,-0.0008046797953565776,-0.017561051148663433,-0.006671993279335826,-0.043685545319367455,-0.001525543804367087,-0.08805683431896576,-0.044387101841631,-0.04970171494414199,-0.04328510735463183,-0.015352305131353926,0.0014772152681791428,-0.07212602557325468,0.005954856606715836,-0.04263401471124347,-0.03479805837329803,0.019071832630700107,0.00689647259465568,-0.011087008127632244,0.016300416757396196,-0.04287092264417213,0.005369085742489223,0.02184292759359607,-0.006693800949076895,-0.03970504392746013,-0.06623769615373679,-0.06599942285867241,-0.0692225888720531,0.023503322963430592,-0.03155149592917175,-0.039633918127763894,0.01706730549158746,0.12594932518589794,0.03206704549786649,0.013757952355023412,0.018381249681219704,-0.01707287898741961,-0.023391031648473438,-0.02137540951737172,0.016546451655816766,-0.06644062998455338,0.00144139093071021,-0.01025200968752891,0.01928602828520276,0.0023451681378900574,-0.0303104919313916,-0.026491780004117328,-0.004495889716790936,0.02390939971695875,-0.05773246407708605,-0.0011776458107878897,-0.04284484266120061,-0.018229421287831407,-0.053628785648277714,-0.10241192763112085,-0.10356849696518641,-0.05068653550881947,-0.006654985990143316,0.027511242535946234,0.007754671716243306,0.012121834717118118,0.07743761104583882,-0.031214400758313967,0.0025452966907389516,-0.046825646891897145,0.019292925607477557,-0.030192615392416904,0.013513164359967963,0.013068414733559778,-0.01768338916295209,-0.016215670920128936,0.04828150457907736,-0.032936876474040894,-0.06195443564168551,0.03811461315284056,-0.022135933282975476,-0.014795854348504186,-0.020498030103265667,-0.04878507352402077,-0.0873684883504789,-0.11289358362565212,-0.08470052654651561,-0.03968806336979426,-0.0611503747271745,-0.05194798634622897,0.04232172260167514,0.02751395793470496,0.09164806948378618,-0.020919113460494704,0.04644510323858281,-0.04609960798169243,-0.018240651653659155,-0.03224238052013123,-0.1301982227734872,-0.06841296441238141,-0.05204474655494427,-0.006288050595429362,0.013665704680181707,-0.0013108190882539321,0.06430353702249203,0.024101699520701365,-0.0020253072552405284,0.03832739021096332,0.029514536679932667,-0.010682805722966152,0.026131319565785398,-0.04781348826631804,-0.026110468728635507,-0.13126744855391453,-0.08915686495230077,-0.08950522839685558,-0.030368992620452128,-0.06283703269247343,-0.03280511675505091,0.03753980758432984,0.01744122707552173,0.05349553822083641,0.015289802727027575,-0.01518564488196048,-0.05442957065559656,-0.064494756171141,0.03793116655682946,0.029748147891226328,-0.014983470253086962,-0.007556955442070211,0.01641541972475729,-0.07181275663713946,0.0013158602532353442,-0.007227499409452777,-0.044305206448820175,-0.0006741899662240546,-0.009489609451917123,-0.05555331129805508,0.03187233155202872,0.02498301840034231,-0.048470440695396244,-0.07842191944041374,-0.06424677586634608,-0.03432344329638013,-0.016125616336614274,-0.035264284988812185,-0.00957796899258236,0.056591720591446806,0.08582309181481741,0.033376265169182434,-0.05202342361273254,0.006200685386147126,0.036803819898120316,0.025222657177229543,-0.005995918127485071,-0.01829556024743333,0.009412054116296859,0.0009749031288174347,0.046398032999042764,-0.017108619359202812,0.05041600967037913,-0.06567803258836868,-0.007538582664019225,-0.01486205603435862,0.050673008052336516,-0.003031966976612182,-0.08510718093242828,-0.00511366449652067,-0.048793419039292976,-0.024187881545669542,-0.005594126283792117,-0.02757903616428219,-0.08502059628101369,-0.039354787011989564,0.043764780732284646,0.02898999484824445,0.04377177561982615,0.003000773620577654,0.0937010199943271,-0.049526740263463584,-0.01985255301349051,0.03124063459541179,-0.006352370785451181,-0.11350238879700006,-0.02625871427142617,0.009029581485370768,0.046232102703619285,-0.06458412423918679,-0.043760124106618094,-0.010795779860264967,-0.012511130544184313,-0.018045712755812623,-0.0002762780607371621,-0.028337861696763594,-0.05678781915929159,-0.012330061692874799,-0.041853673556020175,0.029492366377570047,-0.03140432160890611,0.009441499595456536,0.017140383166292607,-0.010498887911458902,0.034213627402718036,0.017633977245152758,0.013031416013769524,-0.001471438834886879,0.01575050918816896,0.058122136575014215,-0.015468626734659615,-0.004388386206832166,-0.010109705759582848,-0.028272786196565463,-0.0292750244682411,0.005291821974937895,0.010849649272461978,0.03629098269638633,0.040115879805112456,-0.011122688526058844,-0.034073923833741075,0.00764988303473472,0.009774141812739622,-0.0044542189761915055,-0.018088773269617837,-0.013388646711471464,-0.0273303947928986,0.03900141752844864,-0.004888455992772411,0.03632303728761893,0.07316279516922844,-0.011415932975423164,0.021953974609195508,0.028550607555153165,0.042108875669316835,0.05807940202305793,0.026117207273487698,-0.024681763349807977,0.02861480362718917,0.02851122621403121,-0.017481322795552985,-0.028893600245049847,0.02656103799358443,-0.008885591414896631,0.026749366910417804,0.0050703469024442425,0.028113354413631407,-0.010431309552791354,0.009925662249220826,-0.026780179812659014,0.006994262741018256,0.042223290135834986,-0.02314031820451295,-0.030072173513342754,0.03265429798009417,0.11422692703237347,-0.023614764299232652,0.03944328337108714,0.04857272655109363,-0.016946162361173193,0.01962097808691498,0.05642580578950144,0.044865228271990056,0.06641093605959997,0.062055168654862436,0.02427504564146139,-0.02983808375987661,0.008992776330588727,-0.03866822940812337,0.05343923881420322,-0.0006478890480845853,-0.04254966222114685,0.025788236051021905,0.005974229406806999,-0.023826426661741666,0.029063332995989524,0.03684679150014391,-0.03264119099382819,0.03536223801292946,-0.008539544595625169,0.03042479627095977,0.02634317684151928,-0.003925035798265511,-0.029595613099855447,0.0929282872786268,0.01815602206663145,0.03751477345640695,-0.03345680424647823,-0.028560422165635667,0.037955056891729726,-0.014160789681918848,0.060582479852181355,0.014089226296945043,-0.016657973767888377,0.02038117290966798,-0.060380913079103184,-0.01623087171818085,-0.01971813807383304,-0.0421620757633125,0.053851995446285175,0.012940653046943272,-0.0341120793141403,-0.008342065188342776,0.04171660694642193,0.04240229008201973,0.05013247277340244,0.022173484065655825,0.05354546241654891,0.01200491701181588,0.046529745459371934,0.01842425557364394,-0.04139179639199412,0.0506115096025471,-0.01858604677119669,0.017296559526366793,0.07107712164456575,-0.011467781174758643,0.04708364376865134,-0.004162735850942999,-0.01572648805585405,0.00914976744037233,0.09457039592455813,0.018239599029666518,0.04612798702867169,0.01413668744169209,0.04162789978956392,0.05090593186635856,0.0065641432890676575,-0.04700931166274935,-0.017276498020442538,0.0075920244502513815,0.00025476207166404553,-0.0036857204807810547,-0.02798990415707383,0.012194952919574377,-0.009594247030819663,0.004376908571915634,0.053043315999309795,0.036085829750307406,-0.04328440602536041,-0.06923541299065783,-0.01043215921331335,-0.05422817232206471,0.05176338628045228,-0.01647867741486496,-0.0005025423074070715,-0.013473752659806253,0.05477130178358957,-0.029264638538986996,0.033765412681463235,0.012344451666380358,0.061512326851930664,0.026816813726204737,0.037420282959856915,0.0256459148501204,0.01201891703634484,0.028248932405804582,-0.0181530390387765,-0.047121807512717925,0.014962849485566641,-0.03119587908659558,-0.02100721708753357,0.031968963020805714,-0.05926609983202962,0.02212863818917638,-0.01673291403377431,-0.02546471985139382,-0.016617154289148423,-0.037021338247756004,-0.037386884053249476,-0.011929523055377136,0.033201189347255404,-0.014459951474937418,0.005900637280787659,0.05067173986573953,-0.05192224249453515,0.015681925393568604,0.036450906168032815,0.013413715947837277,0.09317702746154144,-0.027098432258304418,0.010989978874090025,-0.00651754659230327,-0.024916031995075773,-0.04439529346707026,0.010271893390459755,-0.018686491652351943,0.04475222771966731,-0.047356612830099364,0.0150486327870497,0.0678355155072996,0.03713740082022813,0.04668834861048962,0.021768060339511196,-0.016238281581688965,-0.022298335469938334,-0.0018875564019409962,-0.09520492405602632,-0.029704078521467465,-0.08733365346438117,-0.025448812427308475,-0.004116354977989834,-0.02479155116650843,-0.009892064001294096,0.02796462335343175,-0.01965776065312255,0.07642080347615715,-0.015177673247476034,0.027177629198850164,-0.0008148559000669326,0.05538521116823313,0.019888941264774355,0.0692170035747117,-0.048142712275208256,0.0002737337393083977,-0.023548630644105076,0.01812252472816317,-0.026082223921360777,0.001492182795974434,0.00452685705611416,-0.012109661639103049,0.014256412691358897,-0.02720965254622514,-0.044615338384175376,0.01597746925108289,-0.028573435265215642,-0.061745127346738655,-0.019143280641887698,-0.06622515203484804,-0.09093840172115945,-0.015581273768882726,-0.012026129879505739,-0.014872632981259402,0.039431099711549185,0.013395586296102248,-0.01490048606533656,0.024865283994924374,0.022168873775023103,0.010162462567460118,0.034677178758799616,-0.0482670482626259,0.0004291453893580033,-0.05804981648052642,0.006377593686914683,0.08129408201398337,0.03998187529318518,-0.10338549326515588,0.017315298374084423,-0.016270497154185756,-0.04210858692539183,0.017347217512394354,-0.06738551822906823,-0.0486079261098858,-0.0462725883458265,-0.04839072217135815,-0.09270257649332651,-0.02574285211367809,-0.018316331030280936,0.009139237227169366,-0.003367948597968469,-0.06783818824213833,-0.024888121659846087,-0.06359045697493872,0.02101078161288315,0.032094733362890156,-0.04292988819543992,0.012788132247898749,0.046406083674051496,0.024014443107892545,0.005424618659055942,0.052139179370079086,0.01799166017934878,0.046304803560400204,-0.0556043316635889,0.003311775132549922,-0.0032437956961742375,-0.03257283403550457,-0.040652688067709955,-0.038901259812514674,0.015746803289883385,0.01331519167722115,-0.03605565692582565,0.02133383268215948,0.004470595765881115,-0.01892902163038191,0.05036743510974676,0.007801056661179883,-0.005313044408571185,-0.023938847300985937,-0.03478199522715297,-0.012095984662180028,-0.04508041801442291,-0.011495508947454883,0.03028116774058554,-0.017489124752355138,0.058396269876779254,-0.0015670908513409903,-0.022578496926812856,0.03631623293219639,0.016580862980414023,0.06078307707938803,-0.01100776956062351,0.03867126583286482,0.062547944071496,0.06042438355529868,-0.06736960803243426,-0.021986649270273547,-0.008863288328963902,0.037062925352212464,0.06256493157162821,0.010964056551952307,-0.01465170532721352,-0.01865631460861826,-0.03592892366025198,0.004300524331347572,-0.019658130833969202,0.029731121690631666,-0.026345928233506496,0.03545886869517626,0.012702279719073733,-0.007768388904433448,0.016569692761907368,0.04165936745673797,0.032349483603133104,-0.033287840550993625,-0.08873902364290169,-0.008066931522425049,0.028663978499931138,0.007861572914058722,-0.000673272898209193,0.006094820155175068,0.031763602815862095,0.051512659275469844,-0.027771819682821587,0.05059487601272845,-0.05711555946369304,0.0600227310204031,0.012876839601040491,0.030858609534968565,-0.028787692408983004,0.046929007723823135,-0.010816222418462649,0.04780563249226021,0.028898348636101894,-0.02640543322334403,-0.055258148487161665,-0.04600669395141395,0.02331188687094197,-0.040456504748295576,-0.07567462352961273,0.06499846849845764,-0.011915382541561262,-0.007146985478616682,0.05405017870773081
0:1:0.04605190655331935,-0.03875923281082472,-0.0011100199562232278,0.021244389756222313,-0.0065128836112921945,0.06008498758792907,-0.005315487927715074,0.0010099682377332296,0.01705840923588042,-0.061692904428251184,-0.05138881814874973,-0.003882839772889217,-0.04100428472764246,0.004361211530966001,0.016242881565598416,-0.012309532727982502,0.08669735898716276,0.0228796849063611,0.022094885541456468,0.04442287409544385,0.03182351570103916,0.008605726101019338,-0.07353035079508537,0.01695230201023302,0.010769745057948893,-0.08727758065731576,-0.01734451169680031,0.02914286704824404,-0.03396225316725171,0.021936775546561423,-0.06542889714546286,-0.04590048260271845,-0.002205872139046188,0.01785597357398809,0.02607809703316374,0.003348597664670205,0.004861237132541693,-0.037092134538291285,-0.01656797826320574,-0.03834967835774408,-0.03864219806281839,0.009604056353512825,-0.00413255492123593,-0.06390794754592735,0.00041800437660534265,-0.039875255891651314,0.04805856397626462,-0.0410115240223393,0.023690464459849445,-0.0031053156478624885,0.004043808838476103,-0.03957839929949493,-0.03028302229267582,0.04133662672098783,-0.01813995255770162,-0.06580043307440503,0.0006659176049028905,0.0354566063052327,-0.009729749159251715,0.03227617597045533,-0.02229592883467123,0.013087575052790422,-0.060721251723033894,-0.025571947582620408,-0.061794938179872916,0.026491978651987835,-0.012214322253655978,0.05757411094580099,0.015480139278035657,-0.029401960133164422,0.019514733738880772,-0.009359075116652696,-0.007876333979607547,-0.05855262259593287,-0.02786337288350772,-0.004647339401998305,-0.04332496590766471,0.020689675585920424,0.015481524932862327,0.06172119674631141,-0.07544925676637006,0.008406515509565128,0.005121542348125692,-0.02641501952405805,0.00984332030651077,-0.008153609646826522,-0.05876045384827208,0.003609181546179468,-0.05158582448990024,-0.006160819003922032,-0.01844139297168086,0.025109308275415472,0.0033517945352779703,-0.033243383466514696,0.005155863189271369,-0.009216152337600255,-0.00017434616569165774,0.04244264923407305,0.052579967103584924,0.018584735682974935,-0.015056237241251148,0.10550236427392194,0.04864744206123643,-0.024871045867177373,-0.02313250250559032,-0.06470593027149266,0.005278929636390727,0.037938668218444785,0.020145554999999614,-0.04056748364847545,0.05508035078054442,0.011630906870869526,-0.015241991470201957,-0.049926415682720854,-0.01674760734419416,0.048736611131816106,-0.01149119339894766,-0.020155043383698796,0.010314951607660598,0.03215889464559844,0.07081674193388605,-0.06450262899770894,-0.053307619299935965,-0.0422782666368501,0.035684123114559256,0.04748263192687906,-0.0620569204748468,-0.004624009652334467,-0.0004915782345739205,-0.015337108702846625,0.04431272708609778,0.02256193990983902,0.06698825214388006,0.015869987434990337,-0.014210832475944216,-0.06250793340569269,0.07421942496330287,0.015817979964846,-0.043429949342873246,0.013345149903179955,-0.003925843214498746,-0.011713857186424216,-0.026344319789831833,0.021063509076210088,-0.09814519851860874,-0.05612333271559986,-0.01829600593143593,0.019745470128982878,0.0652916809958655,-0.014157835150142578,0.03640756775728194,-0.0315970142279772,-0.03581300645245103,-0.0022395880989306925,0.02576538934922024,0.016748719451487436,-0.008733343260078649,-0.014777808322372766,-0.05019094692203089,0.005383310305831532,0.05594233365764416,0.02285681523576153,0.006013142934410744,-0.039074421016980415,-0.0174047355463264,0.07029715722154661,0.006294702747896213,0.030954456084625326,-0.02843515411676827,-0.03683615706627276,0.0025155007523694796,-0.003255515216091636,0.04029793164178344,0.024702448623882427,0.05675975167478862,-0.013988661046739712,-0.01340656117112041,0.008077121678497404,0.04377091156695366,-0.04119711661361465,0.023893503720512858,0.031743431815819755,0.05073209780010068,-0.0001847494206165731,-0.05072653137329063,-0.003054782169992801,0.016548469709115735,-0.03646195404006019,-0.0013219283320629652,0.02342781805885973,0.03310546769497507,-0.03343053924265177,0.056042322932703725,-0.03368816223524204,0.01192145008384858,0.02348309486564018,0.06769511385624692,0.1049096015058539,0.04344168897316982,-0.019145578125234198,0.04752418089619055,0.03865382839964691,-0.01837037357426932,0.041021120207446575,-0.007637725723054673,0.03702810915178033,0.03846579008583548,0.002837573685216866,-0.005623828613187461,0.004360287175809161,0.04802783774824143,0.07976207220808218,0.05721334199211313,0.07707786789685157,0.04894958763962482,0.0854754300924108,-0.04502297238476404,0.04451900076770603,-0.06140251696291515,-0.009665480516740342,-0.018065116571063793,-0.05474227693426382,-0.009627612601640296,-0.003039366961997408,0.009525977549239447,-0.019797322752655975,0.017232527700019692,-0.0006037698179164635,-0.020305428272412458,-0.0012908121313365331,-0.0020739193844802307,0.010820839707348104,0.012384922991733084,0.0871705335629971,0.03485388783658679,0.06886888837986423,0.035929244596211,0.042298663918063785,0.0899078263846169,0.13420580277354266,0.12792045388716758,0.1790168033250072,0.11166787290849274,0.023403189155736002,0.043822188941514836,0.0016968016001522852,-0.01961782973987213,-0.03539650465724794,0.05308810883062851,-0.057730061835291786,0.06304556944833638,-0.10180878244429965,-0.039586347811702685,0.008504752388412208,0.0324928205387771,-0.007984056082885658,0.08493213932074664,-0.03543854569195947,0.07246412935713206,0.0211412259153019,0.0756708310203665,-0.03002526700081434,0.061486983763206875,-0.04258160447491933,-0.06408035615829033,0.07152128335872336,0.12137550564042743,0.12172014692440784,0.09163429725566495,0.08108704318402928,0.08462998563631605,-0.02710614589612792,-0.03405721993469334,0.030170168519187388,0.010578430211492093,0.015120061547492918,-0.0037963053474208744,-0.053546583499459496,-0.02706101739766853,0.02977994352977946,-0.058389440487339093,-0.009909436822254824,-0.04364652661246661,0.032089633471629325,0.02641889796794079,-0.012879357776745193,0.0028607762654865652,-0.005706941384219158,0.01749536857436417,-0.028201360390331852,-0.02052136196417803,-0.017334675206287602,-0.017111073954969698,-0.031721397149419094,0.08496731877218403,0.14860978133010477,0.02725220209427652,0.039685111373854845,0.0063964826052356795,0.004108499795864886,-0.00957645965312786,0.002865434616753539,-0.019234209123731135,-0.06553793300767324,-0.07249381022450688,0.0027498480936118935,0.015742711775153205,-0.02321281558262414,-0.023924833706415512,0.05189381456043297,0.00047473942092875594,0.021489702158870132,-0.0036367991608186032,0.019807683777900854,-0.07175201533562481,-0.011626797214622507,0.027164124027441082,-0.02741404132124621,-0.11260336796993065,-0.08515295880413798,-0.018515194162800896,-0.03493606134569705,0.07288096086890114,0.07254162470937241,0.001686194351327427,0.010661364198092363,-0.0365848757822026,-0.016761882600069083,-0.021634898752466204,-0.030283521717842345,0.01768326611851236,0.0010160984522316124,-0.04671683652271065,0.008603207117272856,0.039644504242124894,0.002291261517749081,-0.0027044529206433185,0.015437880681085087,0.0018855158919249744,0.025537045638438793,-0.02704899274573971,-0.05256954259981827,0.004163048095473553,-0.07388995773620041,-0.020064473424540125,-0.14078858178375958,-0.14964730141421959,-0.14085001471404432,-0.08909103971355815,0.032488458655446396,0.02055795265075125,-0.034766527000013155,-0.03844125335858442,-0.10845418398565233,-0.014798908497153472,-0.05960012824294082,-0.04487935791814491,-0.08519149324582877,0.020066519410052077,0.024821048981334352,-0.051799929588303095,0.017462996215197694,-0.07995665620001813,-0.031463957574078244,-0.0038836771835090585,-0.04040767649164281,0.03071254996935254,-0.013508040068305898,-0.03884961265714794,0.09100502294291302,-0.04792606660323656,-0.04052876567091883,-0.11312322603032478,-0.0854807923879187,-0.16567833223948125,-0.11254481650056106,-0.1777529554390742,-0.10944066800662311,0.03082040410859889,0.023623193041878147,-0.11347542838624992,-0.08946279874723659,-0.025854489610543593,-0.0818901804353454,-0.030562896932667633,0.01164321561774799,-0.014048429068141417,-0.025810780230565912,0.020572119185898064,0.04423142865090622,-0.027993129315752416,-0.0036486580392217868,-0.004379643179948632,0.006549911565992602,-0.01781503356499031,0.006981504542168873,0.05053720378171147,0.014173734934461503,-0.026921401308637703,-0.06953332458838349,-0.1445143506822729,-0.0727101663910085,-0.10705808511247164,-0.1406524859593435,-0.13138651183726405,-0.07235642671219357,-0.05476979187520051,-0.14226022039083153,-0.18777408221170674,-0.026590890300818827,-0.07353215680327443,-0.03300181067320701,-0.02938440023599737,-0.009543378209841675,0.023733495177501146,-0.035294328907275165,0.00026714994268547926,0.03618206933310972,0.046545712765115356,0.04221234651230929,-0.03244476873466253,0.0067210976554206445,-0.006254977231017917,-0.026062939149607865,-0.02749977316296441,-0.04377973885255873,-0.0042017111198215445,-0.08872335658012458,-0.10379000039774612,-0.1326336755583147,-0.1094569357912916,-0.17882602399792707,-0.18916246863578506,-0.1356118128290692,-0.027566594543299027,-0.08389795636163618,-0.09504042404998023,-0.07017224509175492,-0.03883007985219327,-0.006654924452452543,0.045859079904173976,-0.04989842236862165,-0.00951283833181335,-0.03247899451710402,0.05103697770357743,0.03497625795776232,0.027306300275710446,-0.08366722173520677,0.028947374980829135,-0.014245006777372038,0.03852129242544514,-0.05111081223732376,-0.027056937376213654,0.06837140432848206,-0.04458118481668574,0.02438555730730703,-0.09864791474455369,-0.10666740794048411,-0.1161444186923069,-0.11151851014669054,-0.17540218709649225,-0.08315348034053967,-0.04565930139584447,-0.013415059385455038,-0.02880434342469767,0.0007455476131784242,0.01994433807888694,0.00829858064528854,-0.10081487419625804,0.046667073277065395,0.04188623338779538,0.0198342521087108,0.03594490120255464,0.014305473374895168,-0.02342227978878855,-0.01629159026178056,0.04516799042802802,0.022783629061652124,-0.04437302668744825,0.020298718639596994,0.08012329859692022,0.012982292830283423,-0.04407456302680886,-0.006471228781249185,-0.014968958754782003,-0.0857826444005494,-0.16016885631134603,-0.11979791818450092,-0.11686147546518316,-0.026763731822945207,-0.04079852741045742,-0.05082135031810826,-0.011572308861234377,-0.008690420406593426,-0.02637683665460966,0.07833430404823137,0.021819827942612665,-0.013827065870226607,-0.0020028551101130432,0.044378568183177536,-0.038628730438650845,0.004317200818716664,-0.05022053210711431,-0.0270711509819664,-0.03344919459847584,-0.015688942731521965,0.04792955472452709,0.02107751380577831,0.000616495428001326,-0.007334028488503692,-0.06107905849481636,-0.05542517946307834,-0.032869253950822665,-0.0875657322614854,0.015343747939805833,-0.12711017555392679,-0.039632218107858316,-0.011569914559268908,-0.0036419506294747468,-0.007494711698742826,0.03450054904549469,0.035580539209875646,0.06404324781658005,0.003344592131855088,0.03245390540397781,-0.011979280029164605,-0.0027963535364777183,0.033953839436047885,-0.030516755430801352,-0.06779934585693875,-0.055445496691230806,-0.045895791593422434,0.012099487673970653,-0.018672873024474186,0.020564375825806416,-0.05025487213030096,-0.008057860553133993,-0.0009394213008219334,0.10610556479989884,0.046059513669385675,-0.020183894686362634,-0.010661028561200901,0.0037222824584807624,-0.07082021971238245,0.040656545910135025,0.026626100029633153,0.0026468515131450624,0.030410929141727366,-0.06971398369245099,-0.014981339460879602,-0.025704483560515124,-0.025665090797122647,0.014524979499348402,0.015279661175962028,0.03559425133173621,0.018769018315321406,0.006612143543642004,0.041045398536508404,-0.057441262078299395,-0.06634039030305806,0.02325093852490638,-0.029211578461074122,0.012652368007045202,0.05532724114408403,0.04370755459643256,0.03272900012888628,0.07747822874454051,0.07097404182887287,0.027499865768663714,0.031412508203943236,-0.019490738436422718,-0.096945960364475,-0.06156738025269289,0.04903773729527531,0.0029908319939101697,-0.00236010633433428,-0.03531053813683579,-0.07082050242213603,0.025210862366933096,0.015208179404492489,0.030794735792271925,0.020140581123517864,0.0269333198796314,-0.023640257504152728,-0.03722365922697397,-0.0202561444469294,-0.03314768210429115,0.02862244785255725,0.018333738332246278,-0.022512742657805934,-0.017907981772286686,-0.004294354116550332,0.011877261268366496,0.060708322091897256,0.023801983716422264,0.10039589443630925,0.08259826581737341,0.06627488450722915,0.008786904886067764,0.059002309883226724,0.04713226094583302,-0.00467021381882649,0.008126917941300592,0.05988351978344473,-0.06122189158722391,-0.019596942024999085,-0.010654053676742924,0.03407424504983685,-0.005049002479053716,0.050595161657110074,0.022071476329492034,0.05893447211797657,-0.008298330303849044,0.028548594397454823,0.02284228650100697,0.020904443383183435,0.04356169140971491,0.022339854062170164,-0.04626325414258167,0.027724576704327267,0.006258217233498287,0.0031552862042282352,0.020692632823848194,0.07592173105391502,0.054736812471760016,0.07932383974186105,0.07999388188798894,-0.005858572622003253,-0.013666699622061552,0.0152141313335034,0.07750780822284609,-0.036888709227443625,-0.05009223465450742,-0.04747315071606655,-0.10337512458476934,-0.032745959260549976,-0.01070900132303261,0.017266936589512595,0.055041508785330255,0.017768336501512657,-0.01549395432106399,0.02828973193950127,-0.022540573223097632,0.004091983980593073,0.01770433329056228,-0.024033540025667308,0.07034756155959655,-0.0449032420536605,0.022753970886222448,0.07136548524155846,0.016626123408618933,0.030476489838478785,-0.019498934717346005,0.060086639303470586,0.03140632652802193,0.04980811463084807,-0.03325423296167887,-0.015880239704203446,-0.01076252538256912,-0.019317090758879357,0.002113004357711061,0.0028438408834176674,-0.003751794814664368,-0.010899428996188024,-0.01015517182574196,-0.00661041291597204,-0.019383278439430135,0.009644904449143878,-0.031901578026458446,0.05078943280092724,0.04513972627216429,0.023203342900720174,0.011179282210028835,-0.03257508806742299,0.02470709056255752,-0.005253963084671244,-0.03453702109043653,0.004908455695173277,-0.027078820102084844,0.12506316582341623,0.0337324428443549,-0.011639052339981679,0.01626352896441158,0.017744325444277745,-0.07145268358600174,0.0020456089818647752,-0.025711550959447733,-0.0007045648866317933,0.06191698892809068,0.0013753003841805458,0.010120028753381484,-0.04901706340678777,0.04548002459592008,-0.05607787201347222,0.029087784387762085,-0.0016537909468522403,0.0027482554686253887,0.016170477121861676,-0.008461375222621841,-0.03626524971548778,-0.016620833137984476,0.03844768186225498,0.046314587778649205,-0.006475865861004171,-0.009839771243241313,0.055573372759312754,-0.004217949235787864,-0.030413648291398483,0.053081846270279086,0.030688187600847593,0.020307285439097888,0.07743531907127313,-0.006976825470149974,0.016540226105634867,0.054266417379054493,-0.009928762323682805,0.022866517959253735,0.028930498452919964,0.014786521905932685,-0.04458662895044325,-0.027374976581442702,0.020212696391957437,0.024980937761604642,0.016913687416853,0.006175223458400943,0.03669756390413018,0.034356978571643444,0.04571517848671819,-0.011944748278738634,-0.034226278092016074,0.007539261656939943,0.017450983134639803,-0.02853253852776875,-0.045004269549514836,0.0037414696911702455,0.009963346086995381,0.0033265561401313233,0.013497459623944502,0.06323136762359677,0.04835224435649386,0.012564212927282768,0.05429122320583854,0.08886027792403803,0.06934471319506796,0.011986660745949958,0.01710215281478413,-0.004111424203705955,0.02988099678112336,0.023497414234992957,0.014654827325835722,0.0497717819995162,-0.004837325808489763,0.02603840250829198,-0.037397684373655225,-0.017190539715064904,0.008792692620691139,0.032843398340777166,-0.03154479477288204,-0.020049071573221233,0.0164502867930738,-0.020938920216964876,-0.07599011812851267,-0.020006238713048435,0.03508691135242375,0.028684435307898073,0.03209108947411155,-0.03326772755785539,-0.09578155894180397,-0.07003562117415446,0.001782091676725869,-0.00826735732037697,-0.003223267868611743,0.0035628908464189033,-0.02797804923783985,0.026014488617669376,-0.07796973079706607,0.00661089083868274,0.018132577518996492,-0.0041668725784702815,-0.04768674395696546,-0.00880884316031911,-0.033260677442375895,0.02833017267853618,-0.08297985296501123
0:2:-0.03459046940694934,0.009966289733169284,0.07079704248553409,-0.010284421454853589,-0.040427665986550364,-0.009227297293607923,0.025091224350039274,-0.027403790770848053,0.0464838269680984,0.02573666441667938,0.014192153215224624,-0.036535027982066336,-0.017913674978014157,-0.04085433587531139,0.08128831678976321,-0.08628014160097355,0.016102657496883742,-0.01588971473709528,-0.010239677769855307,-0.007070170218814824,0.04354523748183523,-0.029235644909180496,-0.033120168169125205,0.004675211550280118,-0.02408273873777483,-0.0578610520023902,0.07460896780008325,0.027359320902019976,-0.08355727207741474,0.012067365016410701,0.004778185917350826,0.012543344098423188,-0.017532445303412768,0.04785946559812501,-0.04787448568691666,-0.03484036161603392,-0.03556704360191941,-0.026574933197583937,-0.01775439756251709,-0.01784644066222702,0.0032406058948508637,0.003427165970501102,-0.00012365140157917623,-0.01651602788133763,-0.008900059783918718,-0.010742768030871576,-0.025134900372716488,-0.015635160905410225,-0.07683080058416408,-0.021912960214895142,-0.03929921058811389,-0.08354814373537724,0.01948376888782608,-0.0053781643766725425,0.018641499786247295,0.014612021723922317,-0.005559891496552215,0.02278611305246366,-0.06573592518133342,0.00866734342850045,-0.0425156639380441,-0.022972073051977227,-0.044052725545979686,-0.05194324508630426,-0.023268118560288587,-0.010167168856090663,-0.06005873155415743,-0.038784066775561205,-0.019267081249660117,-0.023322870740814582,-0.0413092501907456,0.012865186511782757,-0.022951671175139535,-0.010882982415660925,0.05010876693193481,0.011460981911129492,0.02394726341141736,-0.08165728559654852,0.0012886411970412315,0.022257125696746396,-0.007753912229340133,-0.04657014812478443,-0.037703258947985784,0.014330962957705591,0.004553513688064318,-0.07971648344868226,-0.0022654295649814906,0.03623011120930593,-0.04360531891076786,0.014884746115465133,0.033893956072858014,0.009026543319916657,0.0014616992612071146,-0.006438949039660221,0.03340865867367253,-0.001182530431416041,0.003864587284012646,0.0730315104619057,-0.014463854146860475,-0.0014872396881984477,-0.01007917058609345,0.002509039424205031,0.044322385410537915,-0.035711328397831074,-0.0672080121070714,-0.03385432746417839,0.027286746257765407,0.014703649921949502,-0.01634744302556515,0.001779684756449967,0.10289386069331917,-0.05110391925020532,-0.03599559774045605,-0.02247827098593809,0.026831079035722242,-0.010243587908692267,-0.06198526951134609,-0.025761511468352396,0.005297007075737257,-0.006011310999338992,0.020381367883839464,-0.0016183285555013258,-0.030258478410383267,-0.009577435191138888,0.007313242318534334,0.06345871518211028,-0.041463586558319235,0.02939312547603611,0.03509244591573898,-0.0478312622828617,-0.046013398689347264,0.030577945346014348,0.04348694533556908,-0.06879766075003485,-0.046588991697593375,0.0418596343396697,-0.00048350343432695844,0.030197779240294084,0.04251400885396692,-0.018816239626186115,0.019122214547729412,-0.024655662034771344,0.031100667704018755,0.005083732849856638,-0.011389034642032907,0.02001766885179953,0.023965370908738536,-0.07194042009940035,0.000194508988694996,-0.025149945706113473,0.04023299044093729,-0.060990637808545085,-0.0040859371596279875,0.0054239786149179415,-0.016843631517358546,0.0028046878307544367,0.03977557842580595,0.021790781904390606,0.027868276355640605,-0.011858367544054284,-0.03300141182633863,0.06794060208873325,-0.016732578060791342,0.020781706119247303,-0.03228540736476011,-0.032206057795890496,-0.07797845334250321,-0.053680017112645605,-0.008317764796136135,0.04697840256530793,-0.011453053490162792,0.002598868733448399,-0.034526910879277416,-0.028099868959291507,-0.05616576056301443,-0.039815212917246386,-0.07891437875862174,-0.03197995966387227,0.026818555607857432,0.018607015225543495,0.007019097359294419,-0.00840239294573512,0.004536827741869992,-0.003874931737342693,0.028710072330379238,0.006782491935856781,0.023549407910744957,-0.001053845546983443,0.012526711684447814,-0.056720981124757174,0.03180781573341815,-0.05834927350048207,0.04073372560058803,-0.011579363606367403,-0.034969954387104436,0.016970765927088807,0.05740947500894167,-0.05634274389744605,0.04385672009590427,0.06224919690711689,-0.031659092365721994,0.015171163255697706,0.0008253137022873379,-0.05572391190632086,0.019555600327635553,0.03949332959399649,-0.028145794770574717,0.004586171956445897,-0.01917176306778824,-0.01927566281999081,0.028446342857103974,0.05072596276608484,0.018928396598296954,0.04966041596779172,-0.027671983555697492,0.0393107785452242,0.003978118818415659,-0.011753566734204995,-0.010098757289665247,0.0063642019954722835,-0.04448607040256946,-0.01399671009456874,-0.00046687284325779216,0.015269896369093802,-0.04326572653490939,-0.005159470664489782,-0.018944897146693743,-0.012466969801771983,-0.004553545209549531,0.0032753083568985205,-0.011237164872728465,0.004703830834599444,0.020435568459515042,-0.012421387154183972,0.013705905648216369,-0.058330040772976176,0.053917661120349694,-0.003114060681160102,0.005623762986834118,-0.0031354652994341555,0.0340223085887606,-0.015861166101194285,-0.02903228996047312,0.031204716601139017,0.019619048423792057,0.04368936204961498,0.004651890124388041,0.006358066838379262,-0.03635958062465558,-0.03282687825576749,-0.07579795278819364,0.011580290727961288,0.042379645231970096,-0.0023405689209743605,-0.011435114683682274,0.06152770930866792,0.005647685254225161,0.03472689276090012,0.019764319855783485,0.04188740018239472,-0.040412413606941325,0.06338932017975717,-0.02546744217745524,-0.008017209634771419,-0.0329179548716447,0.02078346818688919,-0.05976080182716915,0.024714066497663535,-0.03838649978368334,-0.014777287975971347,0.022746850551710728,0.0007309096117991063,0.04765326690810302,0.031381984040870774,-0.024368603237341777,-0.00542873605974103,0.010567110513614343,-0.026811043140830514,0.02846928162661373,0.056097032327440254,0.008844005613156895,0.016856141433231085,0.011627947283157814,-0.06551147488973563,0.051818047882361135,-0.013870487220523494,-0.07947982864674419,0.013271572427760442,-0.02811758737789919,0.019049875791888337,-0.005023480396339196,0.039079770507119395,0.0723121469050926,-0.020804511810233867,-0.009476635246654338,-0.02205243782071431,0.0007560646297199884,0.03279273110742265,0.053798219182778384,-0.003517967958112684,0.002454195456332092,0.021021757691092893,-0.05277391507987667,-0.042555965404583465,-0.025518029843990025,0.007613623642947201,-0.027513464841367803,-0.017140532322464107,-0.028999932408623617,-0.01586829529828473,-0.018212677343645574,0.0490120209092593,-0.030154117096343424,-0.0216576649452604,-0.009589437867582158,0.011903140636171828,0.013714918993917094,0.006849247781667372,-0.01558775160650995,0.01401774292249414,-0.05566101588401956,-0.041985380513497046,-0.016154845337588354,-8.518644109976318e-05,-0.013865233368739308,-0.0021572910831902424,-0.031849789122586986,0.00845729567164795,-0.01074371646482618,-0.03190701447998745,-0.03092990331901144,-0.0002999304539158138,-0.0379560246094653,-0.021210409421891393,0.04437620169163508,-0.03181850801038695,0.04377224019307076,0.05054153405099856,0.01248251110675021,0.0046102833150676635,-0.018906058291193458,0.010238063534129595,-0.01467061570673655,-0.03204110632885268,0.008716704194524704,-0.056503260103186966,-0.05312870052576484,0.003648866727860124,-0.013211912450259568,-0.013932642350376556,-0.006506022561889705,-0.025727268876673686,-0.07867737595310616,0.02747862946818974,-0.0478168287521965,-0.007970959486468799,-0.030344629792768328,0.019738403257820523,0.060670489820235325,0.04274773677298788,-0.02187543107739331,-0.03776353822144023,0.03283315669740172,0.05605499535592161,0.04570985250321661,0.06057620716119572,-0.02707792074756985,0.02229518997105241,0.026888460123710593,0.01776314608934313,0.0004766916229789966,-0.0032545978074966578,0.019558671386091842,0.03253939633474386,-0.011548364953193472,0.044171682540596884,-0.008792899566114188,-0.01705332021614713,-0.023698922225575854,0.008964859347433265,-0.02749876540249007,0.04313290487647509,-0.04706551681229367,0.007110517770359315,-0.035514108378817535,-0.02322467167470183,0.03700969234321869,0.031322292356006885,-0.044196795231237714,0.03245334273211398,0.021989246225770597,0.0024738885936542543,-0.04160465220946604,-0.07168277139893,0.00030260391014160057,-0.0034880405632756913,0.05163317280966742,-0.034052524469702604,-0.015059021054019133,0.04941384524508039,-0.03773181402752613,-0.04321341099943061,-0.03841726483610031,-0.00218768664387899,-0.07419772150573269,0.004168034442856705,0.011507549092431776,-0.061021104941675675,-0.0023168424454512934,-0.0036607250890987055,-0.011689042701641054,-0.029793707715130312,0.04910415899924574,0.007400885608703133,-0.05387018061754466,-0.04161926040081093,-0.01227052176688389,-0.04952739707767245,-0.062080039923185754,0.031192988032518396,0.02391422496845138,-0.01848549321984477,0.06269699479459662,-0.032082488077434516,0.046562537955260136,0.014665392259729666,0.029333389663659816,0.02225622724781248,0.04488523347800388,-0.014706234441815232,0.010681783064958017,0.026429654089787653,0.009799499532516893,-0.06698475395694416,0.01503717661197522,-0.007048611465984138,0.024624743008030935,-0.0674181324515898,-0.029086373557932952,0.015332947883665852,-0.0761993039929098,0.023644867099250864,0.06379070673083316,-0.03015729391065264,-0.006069898804170903,0.03618882797637045,-0.06267940182113019,-0.048593672766968764,0.010524663131869045,0.017044694920440407,0.013662063118665259,-0.04423855163230873,-0.005505948285219231,0.006375885923969117,0.0346674502902499,0.04746405526195755,-0.04295358161210059,-0.003499904283141262,0.013964267246821921,0.012424167739360566,-0.07784311479093933,-0.003920609760623728,0.037771667164316215,0.05812892306884489,0.014224519264736238,-0.03802297326521435,-0.05950508775740816,-0.06363066253859144,0.005364858993757211,-0.03304969222448313,-0.01172478928548389,0.048633705936945826,0.023721267300909416,-0.0033258588321671517,0.006385834780597613,0.0677052309814941,0.014361538724833338,0.01267823895657589,0.014323019348468531,-0.008356800849598086,0.012277188742541207,0.042564277520548595,0.004278473060128708,-0.007735720407332911,0.02563427790614398,0.046575191258848736,0.00875534078974708,-0.006905664516303283,-0.012236807092332526,0.061882008721013265,-0.028230795414147452,-0.046589511511603586,-0.005926029555228712,-0.01528867315961711,-0.033309791676950994,-0.014673109555646425,0.04319688124547397,0.007888622404089983,-0.07607718108509029,0.039566823680641086,-0.07118251659385649,0.005601877924103252,-0.02115736388459242,-0.07364543979123454,0.004835519172482188,0.029600571426900063,0.02354220601748972,0.04172137319455118,-0.005538091390044645,-0.05310448276178631,0.03247085524122066,-0.03006475104359114,-0.009380984393517417,-0.004661659617336553,0.012831145408898586,0.056354885363725335,0.025052637025775842,-0.007369895266629066,-0.00849621808898897,-0.019111779310436738,-0.018488593841263005,-0.06533449596368733,0.04853431587350768,-0.01981031117304003,-0.030771238293277665,0.035712365879011915,-0.02775101971996669,0.03181918229393327,0.031957652400603324,0.020447324505655454,-0.00510800302244733,-0.006318757583823994,-0.08407473244696383,0.03544069529148726,0.002888517672896753,0.008022327124290823,0.08539108063049036,-0.01884288402831249,0.03142879287321335,0.006044150873551321,-0.03711857427282549,0.03555476091116038,0.03077230601627871,-0.016061350526008517,-0.015673703007875253,0.0026226492583400667,-0.03714609330531163,0.008451783536456092,-0.012316388121719939,-0.016999216555625807,-0.02594613119819347,0.030489337522873253,0.055884334064502716,0.04598385245397433,0.003849970872268712,0.057865746459174576,0.005669657565499408,0.015184424687427523,0.09187754847253225,-0.010942857929334306,-0.010655245659867096,0.01641170200212733,-0.06770108688338235,0.02708851273478833,0.05812828927408438,-0.032961055448794505,-0.034674219624533695,0.00040722983799618514,0.06416281945775819,-0.020359978992992172,0.06720753058669346,0.04740926558081753,0.027231754205633098,-0.09285042684675164,0.017611612185879814,0.009465838402420147,-0.03260749171989305,-0.04422217105454942,-0.09899885401139151,0.062370807580800575,0.01642010120610732,-0.042506093402492735,0.007585790716378814,-0.03072324317583134,-0.004339594952705225,0.020312486205272658,0.06476181232493951,-0.07777080449504307,-0.03681926639449419,-0.08756485014643262,-0.04619236664809687,0.09209119403325429,0.0058674636561278195,-0.02271591842067716,0.028839434774954355,0.01138581741092927,-0.032326835205173335,-0.03097017123082125,0.015670016351878938,0.034120532038188454,9.261745531755938e-05,0.0519341262847173,-0.012192791815481526,0.10000669901067538,-0.021898741094229054,0.03966984615266,-0.08506281909049888,0.026286952107100185,0.02815506449881072,-0.06379369322963242,-0.05604676873179311,0.023245361914499243,-0.02122330391871698,0.016103524873776115,0.041619550921775474,-0.01321946652042802,0.011716109474601262,0.05740978275981323,-0.04669830056881445,0.02256670071108872,-0.0339433439167521,0.011530794171438595,0.0806606366240505,-0.022408956554480948,-0.015513491010805826,0.00154135800688677,-0.01790453571357553,-0.005547634638438725,-0.049898031895962515,-0.01278295829532623,0.037516097150501526,-0.029586538583555734,0.013368677413883019,0.09219812295496409,0.019759015866441215,-0.04468245307467361,-0.07312740554702146,0.010648237546390847,-0.0025238344670564924,0.02583185054097212,-0.007114923861158288,-0.07079584961921125,0.05996312735888507,-0.0005700340988440872,-0.022504263350973774,0.0015975351332584728,0.00822897957994868,-0.0015448290234442222,0.002475908887830641,0.04387294670115881,0.0010869730336026783,-0.03803595329536255,-0.019386561122258172,0.00343033921301975,0.05869621460132414,-0.0010831502524416112,0.021345242833732705,-0.027717503709918243,0.09139570374925747,0.03381130760237584,-0.030640542683806754,-0.007306512894403007,-0.04412632140642717,0.00878364458098988,0.036282126509626346,0.04521009464277296,-0.06083767507146101,-0.0003669451522722836,0.014210238585134,-0.05249935912610195,-0.007137826184027921,0.03515185673669477,-0.013061503812161715,0.007573296370468626,0.02157362804054064,0.0511020658978774,-0.0023808276434306966,-0.03158385899357827,0.06871048566227846,-0.03253700824432008,-0.04526002681355311,-0.04386704130776485,0.018062009932087567,0.01721281371127443,-0.024618409810530543,0.029306666784790252,-0.05679685030041231,0.028825848201530276,-0.028549443524244295,-0.056335083704852164,-0.01896307723822363,-0.011378854875677493,-0.07474321667102315,0.03549347224958114,-0.04177609867655611,0.014272980663769301,-0.004310239769475604,0.08957184105081759,-0.010006203325561035,0.04429595132063811,0.014641017864281554,-0.005537713963446131,0.025041478638511628,0.05600018145610163,0.006205990856813224,0.026592986804572706,0.017671865231472322,0.08269271741414223,0.02214974807401691,-0.10000649243611326,-0.0016414198037830615,-0.007892149892683418,0.06249306141810184,-0.060141982123237576,0.0823937534553131,0.011631339886740038,-0.012802466845912406,-0.07953493098074695,0.005306136313030887,-0.010745682665430542,-0.022460329343130993,-0.013098934378419597,-0.058661682442688996,-0.03303691798665481,0.05106468238529755,-0.028368460722838544,-0.02426593345199657,0.11670750117480527,-0.0009815584153131268,-0.008517496346050204,-0.01977404178030059,-0.016744843964639527,-0.00842578354648001,-0.06893157183073699,0.033184455172172354,-0.03688580882280365,-0.0158364548074167,-0.014193703814961683,-0.05183055493147814,-0.09222994120870807,-0.00038244215794917754,0.09070898925294092,0.013120986298326346,0.03697171734826906,-0.05076141064786735,0.020573122725517666,0.012364475692293072,0.014218155298817668,0.022490483202795515,-0.010175362041612982,-0.014540025141511193,0.006221963463254926,-0.06429017132577716,0.041834797826110263,-0.06616779048872473,0.03469963587135129,-0.009199701870859304,0.056783980543059435,-0.06159204137136138,-0.055625508651993484,-0.021961276344216313,0.0414471236322495,-0.04562122269357138,-0.061886122093483605,0.02246352660611535,-0.021963995128280785,-0.06794833308105451,0.024871252344561584,0.04866857351158327,-0.0010671486737671835,0.026453386019216513,-0.028917892720557416,-0.008165072251165507,-0.0030683749762435513,-0.01265883171170135,0.0268362826120554,-0.027740201859386093,0.023662186731826927,-0.031043812179974224,0.04020005378773566,-0.006800335539861124,-0.04805313284018811,0.0016665301436615968,-0.014388321215691462
0:3:-0.0004647437412755843,-0.023170440416550545,-0.004018199426712208,0.018049534199217333,-0.005898650592639286,0.0012400288298702255,0.01799802917413362,0.02985134876253899,0.012628026225869875,-0.10187124310869985,-0.013833452718738252,0.020987494200808213,0.026926768985546277,-0.03450618889584815,-0.0052040594272528655,-0.023840573320179255,-0.046328296036630676,0.018752655617176466,-0.04178933454606531,0.017490268359757075,0.0022276753332648937,0.029119778740878104,0.007482303771412228,0.019672385337919998,-0.05355565414647586,-0.00474296323375263,0.027831593110399205,-0.027606567458570146,-0.004794452439019179,-0.01635419476576909,-0.010898348764229751,-0.021212364934927015,0.0015858516576311267,-0.07318558676619263,0.03284111609367041,-0.044301123831943484,-0.0006629175830465789,-0.021693710502309095,0.036203944447716456,0.026948563527092254,-0.014240141785887903,-0.08997264470840487,-0.020320353744673423,0.03242961049144038,-0.07847076870222554,-0.0005274897276304276,-0.030116153910650117,0.06954687534281236,0.014280372292335551,-0.00819955833988312,-0.028258336903385344,-0.035317680565283845,-0.0210552376420121,-0.042949690798457694,-0.010704450982122103,-0.05244492975889115,-0.013479864670248684,0.00417617306008059,0.04553781510851691,0.0024926776227658324,0.07281450439547725,-0.05362222211762835,0.04565416444702027,0.01517884011702292,0.011005300858970592,0.01929374213653524,0.031208266284830262,0.052522808624938855,0.020944712726514714,-0.06623042962874058,0.04130392467894806,-0.0562061372228405,0.007722811306087478,0.015273108641017434,-0.04375959273119631,0.07290452414540634,-0.05259849313794993,-0.0394517044714291,-0.03571063578476207,-0.022171299161180387,0.018326492356825916,-0.026315810951612093,-0.038997990495457636,-0.0014168512373435363,-0.0245158978080524,-0.02412251775409617,-0.014867566634619961,-0.026222315215937857,-0.08442521672214882,0.06370407949698732,0.0012451308593388025,-0.003570422739429392,-0.008141292381679686,0.03448289794655952,0.027866937801744686,0.05011415755764004,-0.03645685950752159,-0.03409417623634722,0.027299928891901026,-0.00026839187954493166,-0.013929773416676988,-0.03591211807554952,-0.044720824521880094,-0.03357126306439725,0.00019691614220622772,-0.035205681538556535,-0.0621387870163906,0.055958598002910365,0.0013231037155035715,-0.012671913882745385,0.020120475571088488,-0.012913996968542538,0.016766018057738613,0.016494462608287068,0.00959818586159916,0.00978028588876654,0.0043096696444716335,-0.05692975418558208,-0.07053021030082392,-0.013748384426245108,-0.00372980566340927,0.03102586571432143,-0.08812960168671706,0.012006647920977592,-0.07346067569129858,-0.017370305258971847,-0.0165567232915396,0.006490058006103435,0.008790337406469086,-0.05017509233554897,-0.03556429308153505,-0.10225953504567128,0.049179495160053835,-0.048520207325146864,0.06480234058488932,-0.06592220649461344,-0.014766373405553363,0.060495931067089566,0.1019461984757668,-0.010952513232763042,-0.040590596713212884,0.01943497942121214,-0.009208759489891864,-0.012242787100211943,-0.05104611151826245,0.040542234415813866,-0.04193148478887798,-0.01956030159671976,0.002811474831796824,0.02728525313643726,-0.010844718888404367,0.005713897927378225,-0.04022012696945282,-0.043906855060841084,0.0053778257806924735,-0.0033701369274948584,-0.006861642508232753,0.0398924197759521,-0.016920504261812148,-0.005612739113792748,-0.018778915357360596,0.028661060363118055,-0.01603677216658063,-0.005827372696495311,0.0060502380365717815,-0.11604807764489837,-0.008060890247692706,-0.005739780380880788,0.017538538086007003,0.06240990498716418,0.027465247232609423,0.028805868446818015,-0.022317681935385147,0.044787034930767924,-0.03364664058025182,0.04120653441031743,-0.03691892366126029,0.03643956936741028,-0.006292925587403813,-0.030126258803763805,-0.05819813668079504,0.09928874748231414,0.02042343351965302,-0.030914139043474988,0.03670190449456489,0.08404254024963091,-0.03198019451224849,0.007260983696298199,-0.06215932549036964,-0.0076975474172802216,-0.02511243427085042,-0.01922710093431979,-0.02532106685633954,0.008078728303867034,0.01017466748533681,0.0516250855149076,-0.024388622997218258,0.032315107477577175,-0.002976813032474065,0.04619540084434178,0.037410945109533814,0.01167931282329689,-0.015728447135897015,0.05381589961213671,-0.020755432055658135,-0.048787140046805184,-0.03771855619944153,0.07497189096568534,0.04709867517841406,0.029957965413318664,0.014213286455348534,0.004936178040579768,-0.050195871068978784,0.017250974674117858,0.04733190971954035,0.015169982654566951,-0.0424273535675972,-0.010023411406908581,-0.008856580948332065,-0.024494922188009905,0.04086835395540184,-0.00872207065803011,0.03440536173046201,0.04459406137018735,-0.03885368307716527,-0.038111651768095806,-0.002966704275975373,0.07128545552726016,0.022951134175215642,0.019155076463312964,-0.029414168942156774,-0.009080016228719054,-0.011254098473775828,4.1176013695447994e-05,0.01540618839812238,-0.05138581583947562,-0.055706450645456686,0.04700651021347153,0.02716702552377124,0.017709407729308357,0.003920467861937169,0.02419376286675249,0.02713773653200731,-0.055758836218465536,-0.02396644997845157,-0.05117217560059846,0.03545684604075387,0.10458440069204575,0.05241472359354671,-0.02414410611520666,0.02758653409457837,-0.02711051436627153,-0.04330810856123059,0.01489364083665742,0.027294391471408812,0.02862137388442625,0.01613018136699202,0.006486376630126859,0.010198411902939911,-0.003092670098185749,-0.05965565496164695,0.015073457543779156,-0.020048771579022986,-0.012890936895875445,0.007992095030112856,0.03392984867804176,0.02294306964402628,-0.015174112195878253,0.006100381839094547,0.048538370740368944,0.034449358842378625,0.02499160223686702,0.04025149042857112,0.04287293886896287,-0.0872777983476383,0.026628352878119425,0.0608993289587396,0.00420659615722621,0.010443616804185306,-0.024991381322602497,0.03809547832012522,-0.011544848486937428,-0.025174657155562812,-0.012010306492722384,-0.033681048022733064,0.0042609419816370345,0.029184718833336586,0.012162649003497315,-0.008199803770583535,-0.053931843500562994,-0.005642219814383833,-0.01759746371145708,0.014332107352120187,0.035815267870571606,-0.003114766196925867,-0.006214226155676275,0.029082629971456393,-0.011036224446027382,-0.07162571964464783,0.01804928164311021,-0.0002237934011222198,-0.036222572686608605,-0.014417629820922697,0.04027053490017832,0.004964553228583396,-0.022909268262171534,0.008587689224354985,-0.002631508103681738,-0.027456470759351495,0.009981001936999198,-0.04413482172283578,0.01774169009221993,-0.02627791765110644,-0.016252304300526103,-0.030900073020101435,0.0008905104989377739,0.00015051741893911958,0.015427268090598625,-0.035031670465876165,0.037509449959598345,-0.00017995511419410017,-0.06438930532037732,0.008651242449841102,-0.05676983877553327,-0.029043627196919622,-0.039803113223963994,0.033109352788396836,-0.035983402372887996,0.033592583392000566,-0.05743927621184094,-0.030777134193631348,0.041565662686606275,-0.053834857458911006,-0.030284025050552395,0.02632764932918371,-0.02619351860091868,-0.017856299610185953,0.00037618953181778173,0.037017649056288876,-0.009643372032034981,0.020070303876019557,0.03557923939729975,0.06501136434081091,0.0015121267288819582,-0.03143993456686394,0.016173492137062876,0.026474905027802847,0.059811012799729515,0.0626940160454315,-0.04486868603139039,0.000901296858442546,0.015846794177037386,-0.06295406572201805,-0.042102912616937264,0.055094477241544274,-0.06214087061478694,0.04336161563464997,-0.013503913651906178,0.017964795594394633,-0.04938549961668962,0.004818565080263018,0.02860170889120147,-0.04405408040827729,0.0006123762715468524,-0.02809019373005922,0.050471413014301865,0.07532554995338453,-0.02583432474361928,0.058368559499448115,-0.07027924576940361,0.061344255833736525,0.05652177636646611,0.02527026778839553,-0.0289302692768621,-0.000862589518482258,0.0657358802128961,-0.06883048756520216,-0.03226952940685566,-0.04792663163317795,0.03531750454569207,0.02886989007525395,0.009131891592716249,-0.06980762425132087,0.062206565693165405,-0.04670225913571127,-0.006540685424720322,0.026542871654427577,-0.07275918355496327,0.017711667285918165,-0.08055357768626537,0.0649566280872048,0.015049179087768169,0.04229396724917161,0.02053500848574207,0.0059328043689462285,-0.030245723454645924,-0.005264427418007227,0.03610109788922489,-0.01220779951483718,0.03877064392656377,0.028452846903447578,0.02499775611990604,0.009885766821273878,-0.009437540471226212,0.04551919811912709,-0.04827708580593727,0.016906120636884694,0.025772690187691655,0.005805031322155402,0.07448643474173466,0.015384700882030413,0.016000889746658607,-0.049536741909078974,0.04227982587888931,-0.016712905913103662,0.04721409301537556,0.02989076114408501,0.04787610444274982,0.00593946738348717,-0.00048528620774414104,-0.03917825981167101,0.06884459157472761,-0.01069637425170975,-0.011797924465535006,0.0756747247994272,0.011920149216267772,0.010271620618630038,-0.018753653837212583,-0.042881969053727036,-0.016407561716558775,0.005248583870180679,0.002269477949394306,0.06762407744740352,-0.024695308775579003,0.0267332591700641,-0.059243338844887514,-0.061122683274006884,0.06438154016881427,0.007394591166292106,-0.043231125347274794,0.017607653752530025,-0.031227040738805723,-0.007140835671235028,0.0072064124861396985,0.021399956396241093,-0.011656010291949747,-0.023716189667042743,-0.01204057774271541,0.02994050613539556,-0.03690534620470464,0.055826403526191025,-0.03667932912195664,0.03251142734803656,0.01850736958381833,0.005373921581171251,-0.052419456767818236,0.013613024196836455,0.00900276993352607,-0.02075357946356525,0.041858936866641015,0.02743674023553129,0.011037092645429444,0.06923696567554698,0.051265219048354994,-0.04043459524424155,0.020022040173170334,0.02927183095522502,0.028848495389695535,0.029833004099340633,0.03554202030129855,0.01046642760764506,-0.016613660261575524,0.045647199634525765,0.013145887638512696,0.05906304547578834,0.04548536331765951,-0.018211425050313448,-0.08295957302654787,-0.008582056243758747,0.012523625339729963,-0.03872374426024657,-0.011198212134037636,0.014259851358836836,-0.02089757308058775,-0.012051962643685523,-0.022922475058450895,0.03802258956168222,-0.002292043554597468,-0.07180706412811166,-0.02751752071065467,0.0385855513124973,0.021427201809256904,0.014779142599084256,-0.047032981718827374,0.06651711155412046,-0.0011177839924619674,0.012030205907570294,0.00850992746202667,-0.036671386694899846,-0.02058453526453709,0.0008349159679072862,0.0034054080965289194,0.030369750679817363,0.00036111663902609514,0.005357073849859676,0.0254357568471129,-0.040652981715936926,-3.174915587356249e-05,0.014424863858893288,-0.0685974825489105,-0.013233030485501044,-0.04202542909907472,0.027689698928429415,-0.004956944076194268,0.011776456238112801,-0.008109104275161897,0.022608444009216917,-0.06154060176322514,0.00220738803505628,0.039833044737450134,-0.022298761332991197,0.05071279369461129,0.016981217458078648,0.04208401401549506,0.03444432706154289,0.02779064518076455,-0.03246063363906451,-0.029633270004633186,0.03358703859491113,-0.012880795295073475,0.013607531344929712,-0.0031030353383520704,-0.012852267156068999,-0.009940253958537369,0.06826475307773917,-0.006720864908770865,-0.006974153866640302,0.0032809390591988213,-0.04339059849189675,-0.004436843677210337,0.022680501950977334,0.022181048299238736,0.0020103936287438756,0.017160166296856016,-0.025025158422124005,-0.021977448031952906,-0.006387306241166065,-0.03313454071119202,0.0020264137563250047,0.0014012392618256955,0.002774177674393193,0.051672000513588966,0.017770983945148405,-0.04986277230906769,-0.05636073713124975,0.037045028566691805,-0.006704594873934878,-0.03512027228267208,-0.0249935416137552,-0.025330664946356697,-0.04940789540854951,0.022253313703834918,-0.05583196989884017,0.0251446972128791,0.022775610540688065,-0.041192114890977294,0.045080558103741515,-0.06304143918596876,0.005754079160506104,0.0390430373275352,-0.029831738399810716,0.005552762929805218,0.024472493821452022,0.0524190678545959,-0.006606527426060015,0.033533915412994914,0.014156365623031995,0.021288620575602473,0.040286914025042656,0.0428064522550868,0.005656788333344588,0.011926391587300689,-0.058777795928508215,-0.014182110320849435,-0.006782444429274978,-0.029995809363733916,-0.055857918396867504,0.009357603476711612,-0.03394991029608274,-0.004065114130094155,-0.006237517867208243,-0.06231096809874922,-0.005448102005861359,-0.025048110605596707,-0.0943773501626965,0.07967488445443803,0.00767396046163039,0.08084429943605405,0.02561012427690921,0.0012931378432074346,-0.02429228530063455,-0.03630948305697029,0.04446337849258059,0.004998062184536556,0.009754051859660306,-0.012053168262077998,-0.026707035415315918,-0.0008948854464650576,0.01085511561098925,-0.07676350302270134,0.03379852625820213,0.011663079506462443,0.010915358969768214,-0.04100498299607891,0.05637596727053118,-0.005868779883560293,0.021271261196985875,-0.03463913003275232,0.04006314412911928,0.05107649574690946,-0.023672542006607136,-0.005178399145528045,0.04522506978160313,0.018537868665065693,0.056478883263768855,0.024319874416158658,-0.032471938534765404,0.05516126372185304,-0.003908608453913025,-0.028776170111016748,0.035978707140089196,0.015331816133080526,0.10437204626644497,0.010565060095972504,-0.008197399898164556,0.009299491750019631,0.046274201096650314,-0.0027586331422503924,-0.03320075988169668,-0.04868419149022492,-0.005677841680024478,-0.0281154735430709,-0.01347189505068998,0.027903030886987302,0.060579126790941885,-0.0344542525000617,-0.09237111882691326,0.04050562792954863,0.06062703971954804,0.0003240547154233341,0.04838538027356859,0.014199644209945276,0.0010888928491562492,-0.0014218810784012877,0.007223228267212102,-0.05850124436479306,0.06097497358599272,-0.03905257059174622,-0.012923281742441995,0.03278317564751149,0.0021368525273059605,-0.07574838301210321,-0.01628930694126254,-0.008373405901715718,-0.07209394247057292,0.012612060950687627,0.05553160258118376,0.007561047276505752,0.011279808040496005,0.06333071880186136,-0.0465377214517765,-0.050329014230205756,-0.0024850292123811965,-0.022942914291716944,-0.0005728420050312012,-0.041707887703627516,-0.025810929899839956,-0.06756228391178538,-0.00904002892826409,-0.01970770714288371,0.008434703974245809,-0.05532656280935064,-0.05047932675043907,0.011662596428574439,-0.00970249317778714,-0.052855467066043216,-0.060925605990018804,0.026697733966110707,0.03488736049440395,-0.021967914561702693,0.02166135795044664,-0.07388825796671337,0.00836102465483187,0.01597087388658848,-0.012325845628313967,0.004222699574675431,0.038652787502679864,-0.008550961459650556,-0.07047391497930562,0.017078804006591536,-0.053010309225314266,0.02754513421347371,0.02235680850247138,-0.013670919292391547,0.01989134390218942,0.012412928592516123,-0.022999973048859285,-0.002078304767722789,0.0001241600289767655,0.009942371140159894,0.0006879814718597126,0.03982246057762192,-0.0012605529252182272,-0.04517759378550093,-0.013677995479633874,-0.010371060651485462,-0.07832829439039217,0.027313742799950528,0.03749335656602349,-0.026109104336787103,0.03823063069101901,0.06819037094849066,0.03367663153972598,-0.00039889098567450886,-0.025152692133987145,0.01633167099066053,-0.02679857177066458,-0.058515837000368914,-0.03731567594299411,-0.054399291973179685,0.015997923593673306,0.022762833192247815,-0.010090749786018842,0.05491771581416114,-0.010688854211638224,0.0001283182610703296,-0.0011119170583266005,0.001994659312557326,0.06177046865809973,0.037723354997976466,0.03221308586740016,-0.019790355281751475,0.0340198420009317,0.01374796954684759,0.017251538015455786,0.0038467743753685993,0.03375175930696345,0.024708966480673597,-0.00015333296219702207,-0.05778009048108451,0.004876131351673884,0.03802775863484977,0.037741797695115126,0.015290209886380407,0.04515413447202461,-0.021764757648549567,0.0020175028270777505,-0.027776103442055923,0.049155177681561066,0.019235649841291537,-0.010961375979490179,-0.05151634872944126,-0.04194110139667914,-0.03345127222177292,-0.04613715535649283,-0.0037193931531175166,-0.029070543438852188,-0.012162335230331086,0.012675945139353282,-0.0049090760336567745,0.014228611838454249,0.03300461601343527,-0.016932777331067673,0.003655800749134606,-0.024580735708905038,0.0047845395036450284,0.004621840742198077,0.0009028968705058482,-0.02673497932676079,-0.038305927731338084,-0.0200818619146303,-0.0021320915963345256,0.018977987091312303,-0.026597459041208377
0:4:-0.0041013324656451605,0.014406086417337375,-0.011759684531670627,0.026891899188064797,0.044998241995202616,-0.034421587327137224,-0.048984416655459405,-0.0009460947991903718,-0.02680930499863915,-0.04113664581431779,0.025193143976995094,-0.013502993822683019,0.02201132586891221,0.007253448472508589,-0.03812045967889736,0.0288725331527924,-0.0027061469161092765,-0.040449721666272344,-0.006682359356556216,-0.008136504577390664,-0.0014242003383658239,-0.09732556072845508,-0.016641039912295073,-0.07195103333358144,0.013795674486455042,0.018845659483530324,0.007302117120609264,-0.006406215533693661,-0.05165222976871247,-0.009507240463983579,-0.07067973746664333,-0.036558845779874345,-0.05377238985254515,0.019059867366129135,0.03253312232446523,-0.002000486518634072,0.05237101858318015,-0.014249470004403571,-0.04107238716253981,-0.04664407924976376,0.004991035732119397,0.036535266665168285,-0.0060989470040146345,-0.024860538749222342,0.03158842899649727,0.0005205349177408492,0.020482808069675222,-0.05448906728077631,-0.028044893882033337,-0.062029044103871805,0.001976013679123097,0.10344095217012048,0.05140490505368719,0.07285480105952548,-0.023935997878197588,-0.023640469183025193,0.016113642771038023,0.008563028540903695,-0.017978343828198955,-0.03857237291441003,0.030189818256008517,0.035198819994876,0.02640311541045856,0.03659746565529066,-0.0035643146283703335,-0.01456533784142841,0.026113463810892138,-0.008965440826129307,0.03821076427144574,0.02392836799326269,0.028786185596065963,-0.0010475919073620102,0.021500178543644364,0.009241149957382986,0.0012301586039912902,-0.01932090664556956,0.006175861230614074,-0.0021739925105492834,-0.05843166568208703,-0.03380463805034962,-0.07433386242724278,0.016938976120090952,0.0023501311654490287,0.0005530337033790092,-0.007490736895370713,0.030347803235888468,0.03740566550358979,-0.004775315257140119,0.006103708319872221,-0.030117768136473363,0.05108323472478302,0.013415830100062667,-0.039025233760804266,0.008100512846906513,-0.012398908499924711,0.005901269425276394,-0.008261202642375828,0.030297113109292863,-0.0019769310904636473,0.012676095358282012,0.08433697609494373,0.050663562781158314,0.013795124050786173,-0.027332560239395117,0.004907020253571172,0.01460897273068857,0.03668864698207784,0.023615647580555666,-0.02492410114046381,-0.018692364205675254,0.0794697379543229,0.02391076911781707,0.00424948374545788,0.024297641695618474,0.03684026381974842,0.015661492113351824,0.03235770448587234,0.023893398410141157,-0.02252662321391679,-0.04546879065049439,0.0370118543162595,0.024291750084662368,-0.012030585768063384,-0.05199688551932848,-0.02354702246044332,0.036991329013196655,0.051052424696887935,-0.03508983151538259,0.08108313599899847,-0.015609929780289574,-0.014312825634515369,-0.014606894951611219,0.006012314098223751,0.007839272696497071,0.007394495431947352,0.012935806664945248,0.02899360739289866,0.024065465136780623,0.06628009796321188,0.05493969231481809,-0.02100558376438857,0.01746171215961706,-0.011630072974157678,0.01920345374466462,0.022650748666676424,-0.04443913878048583,0.04206094406562137,-0.01241462625314219,0.04372987086315831,-0.009181644088003777,0.039238353635046345,0.017862926949251682,0.051054372736983364,-7.984599928904845e-05,0.07376108450137782,-0.01242694430836891,-0.02771440606577254,-0.0011960026448178782,0.02724762049838821,0.014398899592053444,0.005958261881545752,0.014537987841192661,0.0397242249943629,0.03842576569624169,-0.001832679839289139,-0.018654324854477405,0.009429801881181329,-0.043398927059824566,-0.028197051034721764,0.000802011034285322,0.045163615148649375,0.0020641100014545336,-0.03212556811685492,0.012265353610062712,0.0148482615129724,-0.024335600527609212,0.10478913385352927,-0.05445764300556216,0.11079107389796157,0.03607642266216772,0.05254477111705375,0.06426354061868723,0.051533729289854016,0.04586330207648543,0.09922837426824509,-0.03398806158960431,0.08471859403959567,-0.026350113956671844,-0.061817116418471464,-0.013860379251244696,0.045809144008348235,0.0007626734856790109,0.02436357062866872,0.030490197399426655,-0.006021234647443689,0.04918538603719811,0.0016790048282870184,0.018602376374125144,0.032720597581889166,0.0024463308300164415,0.04347123123808802,0.06647874060666219,0.038545167722197834,-0.04137611354894072,0.014626697811396427,-0.019469447869222948,0.02837892769332535,-0.05406402342760137,0.06376292673722658,0.032269853961571816,0.005448053144839465,-0.04360131254784425,0.04357182942461341,0.03155688137946935,0.05714177085401784,-0.016632836585459713,0.032628122845329045,-0.019238472504210364,0.014313764780195318,-0.017456386342524985,-0.006418106598296027,-0.016631753324980143,-0.057940484129901354,0.0017809808101583923,0.050697725123828564,0.005012644665689792,-0.05822049583260802,0.011127523477848187,-0.013286972553760336,-0.0027810704377054323,0.006211460926698264,-0.013301852451260697,0.07413760615358184,0.0481545247576993,0.03072614241174131,-0.00406918615391977,-0.009318063929240247,-0.01022206072010357,-0.0423226699706695,-0.03444793675017515,0.02610143905136731,0.0026856195386389353,0.00698729205630024,-0.018836137088415132,0.09850849502289019,0.08937859960135151,-0.020335457394206974,0.050407280738852304,-0.010528805194909658,0.01958967418765978,-0.041935172510510106,0.03458147173812558,0.025986692703882767,0.04446651230417916,-0.00804227954294784,0.06694058797494806,0.04427835586889271,0.02163656708672524,0.017192038533309265,0.039392048663081686,0.004051111900609202,0.0340840809551602,0.09888154788962887,0.06564284037560143,0.020022980061681715,0.025982508910951246,-0.06350746911965909,-0.007501649670485288,-0.09610234772224073,-0.030608179526469634,0.09607104756068623,0.046140710588676484,0.0737390002027435,0.03639018954460557,0.03209042602902507,0.0028840168037771725,-0.034558385481641064,0.043286675342896666,0.0027682744712810323,0.03813442502462062,-0.06731243890646149,-0.011925507457980235,-0.024867614727820644,0.028898455791275965,0.010003253291368492,0.0024580897090566195,-0.05961241732618042,-0.015389231559567021,-0.03015450585302232,0.023572763782495683,0.0543391048486339,0.024502171007866252,-0.029552911125538567,-0.0011443505932537171,0.005822135476412896,-0.017106199893115265,-0.021571199475445307,0.038416908217377733,0.04645196105027563,0.007353218564169605,0.08178336567206113,0.016590969630122212,-0.03302706296981717,-0.0456205384936527,-0.018751352533781927,0.01981477329333423,-0.05695022147656101,0.0026722902109286057,0.03808280289893896,-0.07912412151519427,0.009327638707626599,-0.04703851811100206,-0.021757703555779075,-0.054635082787496826,0.01883286398979138,0.04215713510071639,-0.00956506119190262,0.006248473476887674,0.052035811873461256,-0.03790206032070925,0.043787729331119386,-0.039721962295717894,0.024855262034243333,-0.04452981122573707,0.002056293567763546,0.006596386134607465,0.05317975013745397,0.022183705515817206,0.052702197537845205,-0.05451113595141232,-0.06629700486779036,0.014803649159358863,-0.053105291982828845,0.07067815249431958,0.016355532783779228,-0.0836700496481435,-0.013853839068696666,0.051140772801597074,0.0101722726728311,0.0031545213425374446,0.03164978628912527,-0.040482667724168774,-0.02390037570722726,-0.03726901155282801,0.056048545646400445,0.0032873835381959757,0.016879761605784135,-0.0414452507322363,-0.0002886416670620315,-0.08835843102899586,-0.004785428727888805,0.01304487996503635,0.04683988892897451,0.030770878219622638,0.0415137926820016,-0.028117641304890244,0.0007101002354742331,0.0018188540125209738,0.006618569326398428,0.02923474668698426,0.04757761886258801,-0.010492969111331237,-0.05069419538213746,-0.007544070087144403,0.10063823721825854,-0.008394918214435996,0.006896992777105907,0.019848094114786618,0.05100901469723874,-0.030690272385256262,0.003352768809058229,-0.06488842077550937,0.07776184465263687,-0.017075666195435768,0.0013703635523230808,-0.042188260952925785,-0.01085938626814975,-0.011407488782230052,0.01518366167924071,0.06594636181582347,0.08812067413432183,-0.012487108017393394,0.040287889821638063,-0.009003367649412558,0.032383268412531405,-0.05062758058071446,-0.03015741909672883,0.008835766232035438,0.015804527491048458,-0.0019223563113328751,0.07165657914071896,0.0018093751856047419,0.009520561141462897,0.05063813657226878,0.002278231212815506,0.013686201087558659,-0.004632642983714392,0.01738468038499174,-0.10960420116097142,-0.06454779616215513,-0.06188079215630133,-0.04695392813532189,-0.07310287156656935,-0.0025909770236833803,0.007096565552143198,-0.005070498121863194,-0.02693858198809071,0.07917322721347606,0.024254174151101676,0.057519865209949846,-0.021357054540465388,0.001514068294955983,-0.011527288938996868,-0.06645170334854819,-0.03720847813444896,-0.05520507700993767,-0.04200600761856799,0.03039135453953661,0.04080730359776321,0.0018584774157320689,0.027149529500125676,0.03710055665953789,-0.008526137423760603,-0.03861118123957193,-0.02103154327962011,0.0061773872951389145,-0.04017313511150438,-0.01874274404889103,-0.007079673417611597,-0.006217216139619694,-0.03783249321673198,0.034643528815165386,0.015597667983679868,0.01996891104933895,0.0494115695120658,-0.020063195283970246,0.04986015993743133,-0.010584351505033314,0.012744414054323396,-0.029250073216496753,0.0201443709124356,-0.060525941409625965,0.05309659310345437,0.032048046353711536,0.023075451521758696,-0.04036387485755183,0.025352120705386883,0.005756889106660522,-0.01445636666597172,-0.009503484184814993,-0.038098658783898315,0.029730565989946285,-0.03476106211920669,0.021070937580559303,-0.06391693764120406,0.023089047389086945,0.03914716032636798,-0.012213533217234765,0.039056415425888016,0.04222581184209808,-0.040682704359117056,0.0269935740205346,0.02349668382471456,0.02951612530160789,0.04237422588133482,0.05369465842531941,0.04147110793298102,-0.022449028512401974,-0.012657334647875334,0.0649079151571499,-0.019341416274375387,-0.07322189006817993,-0.06657287191031169,0.01166137249443224,-0.024702483170352625,-0.0022545082583912478,0.06508854211832463,0.02867554248808633,-0.014049071533221678,0.010296122281288098,-0.009595614791642072,-0.09410215830243462,-0.007564361868794542,0.012495641708658052,-0.013793165150047151,0.012109083347735533,-0.033923812090411086,0.07018144147825783,-0.013289179355295364,0.014541252091490812,0.0765159963650798,0.04666489394980668,0.04058309608768097,-0.021839896894902622,-0.02960861322845088,-0.0032567457253088695,0.083191104390946,0.0020054681177042806,-0.002701718320691633,-0.0007977675148179173,0.017591415766933977,0.0011655154888471457,-0.029358378680292,0.025441501246898448,0.0013732502333227005,-0.028641169645396945,-0.05710240866545908,-0.03478690298407634,0.012764740784911488,0.051894727397234344,-0.04754386028214216,-0.04047806328573074,-0.004813520415354619,0.032780548552275655,0.017670650995970757,-0.0027388090181699643,0.02533909050679267,-0.00925942689393273,0.010911787416365629,0.03616556268663016,0.04812217902755427,-0.025447333365719714,0.032599372756761044,0.012708041815154269,-0.03537391471834572,0.05729970632684947,-0.004060723615856631,0.05338467777138021,-0.007659738648917965,0.002400494563401375,0.0031653592329279803,0.013983093097992068,0.015424654277569186,-0.041476580418376964,0.028476976690847543,0.010887446600787986,0.03327769142117871,0.0344219342213727,-0.03868433787038356,-6.359094912108017e-05,-0.020094490323530886,-0.015895258526558265,0.014702945970514154,-0.006846111833752979,0.062431407306168224,0.07944558074464748,0.021812921901567462,0.08080908998252802,-0.03279780418794507,0.06616817812965052,0.01129542936720788,0.004786942337727951,0.020333587128020233,0.009185617522996273,0.08068808622691596,0.03084615965505421,-0.010551447166529792,-0.05362721344774724,0.013284020239222679,-0.0841286075783955,-0.017527023518714147,0.016429731326468123,0.009585374259791498,0.021094299358659037,-0.02932587385417539,0.05469048464832908,0.0006084411590617764,0.006934430073356333,0.10532787968725169,-0.045768340447970575,0.010430324655880046,0.03214072414827717,0.06369815179600402,0.004361876612021127,-0.017919581545404354,0.0512512768312659,0.03719958124738379,0.004224348891189796,0.002811228663455376,0.06354692836715065,0.016018770874952324,-0.0030685238134467063,-0.005374411023242081,-0.0045396655273419765,0.08298054950536096,0.052745591518932954,0.015259007926851387,-0.04245061545469838,-0.07199430688648187,0.012411688507920383,-0.025006699340731943,0.004579829810581952,-0.001917771459740703,-0.07824761157532208,0.03587839469714973,0.02896986040798987,0.08506118553765898,0.06698970134847848,0.03438291795863144,0.018280902530150907,-0.002312135185038072,0.00288106822347923,0.011275410070151948,0.02472143871003941,0.06940367597750703,0.07475537981451674,0.06346748975175279,0.02641313928147244,0.044364667312705525,0.037484879188552055,0.06250832421112792,-0.012292071294941889,0.00869142425668462,-0.06169509765097292,0.01313351161186848,0.008628107204088945,0.018495037556912265,0.03897521069048365,0.03184623544503451,-0.02238143322497002,0.0445473470605258,-0.003089145328746206,0.026665635326097094,0.012410828884099596,0.03376019806877068,0.04650980658339718,-0.026071815352692276,-0.005960447537920581,0.03731210438511777,-0.010111948535353252,0.06221303255924756,0.05626561960280273,0.042992243531209534,0.002704797876764027,0.054963393603206234,0.015959851420817548,0.012084959320589986,0.055845672543895546,0.052982079699034165,0.016452551103256757,0.013395845329844237,-0.011164025785549314,0.038100827805425425,0.0064536849178512155,-0.0006375219709459884,-0.005467113847155538,0.012480119181401928,-0.0354282113488781,-0.03885231248944962,0.001698725319127845,-0.028802080633876688,-0.039692104206757,0.025260907133373055,0.051608949300528686,0.04581860760754412,0.016432394512976095,0.015820362131278916,0.04218646759431994,-0.006446938228319237,-0.0164828316536519,-0.03468568735534656,-0.016209222599566257,-0.014751529023616624,0.02260025481931738,0.008529288937786065,0.02894231641143526,0.020271142528966363,-0.03874712254144585,-0.020222390062113495,0.036274633161641624,-0.019952705650837187,-0.02305422614802197,-1.486372915881107e-06,0.029181643580153325,0.009235345904640748,-0.04112730736001368,0.003532619639529015,0.010181435210844709,-0.05273041776412613,0.05831889829242842,-0.03063658863491077,0.05382003581674956,0.028044352735605193,0.021632366345059113,0.007053360253085342,0.03851352597429176,0.0031841925983072785,-0.0059905755742187755,0.07550804731748201,0.04476119305277937,0.04381992566593562,0.07653094707375362,-0.04440639686638289,-0.06655378633116862,0.05792267166660578,0.018979695440504533,0.03396648287383355,0.020835252450193006,0.07403070538951485,-0.08799776017610507,0.03209628994185351,0.013249568872158463,0.0076377580302162025,-0.012646431060303888,-0.03850982210962004,-0.024038498934657513,0.055309541937377915,0.010230120804875835,-0.02344315247246527,-0.05127678624949026,0.05246510846442633,-0.0649672641206813,0.047449779845315246,-0.044686834633167846,-0.0017524260789949172,0.0638173944373645,0.005995584484093447,0.0017289894653702636,-0.02806339907758623,0.033395155946095274,0.04809757885510478,0.017303482575533633,-0.004475718125717315,0.00021051078150897674,-0.005697179196416542,0.029210069818695058,0.02229019853556789,-0.021375016907770425,0.021931102126743665,-0.02954368775420993,0.026167910153363335,-0.003729060473240609,-0.06357628621074185,-0.05795536835201314,-0.03615559753529611,0.004201656859478214,-0.020775023744692606,-0.026445825030908164,0.03311399127878972,-0.012409083308319403,0.026008082555450483,-0.013168855057292369,-0.008554257678160922,0.021649685270715088,0.08357089322436864,0.008152321702035953,0.03944412052453508,-0.004102763981340552,-0.05429917748804325,0.04400545552277869,-0.0027661722645910295,-0.02751214869680034,0.05021361953362614,-0.012902676456811311,0.03880221066631358,0.023145760750338442,0.021766861074486825,-0.05830273274368437,-0.025055679284448427,-0.011295614879383381,0.025774905863099183,-0.030419322067881095,-0.003051244531576679,0.01866590362725888,0.021495775097903364,0.011507309082271572,0.042846501718191585,0.006934473491689826,0.03600089502773019,-0.016356132333773258,-0.01606692475621715,-0.005395329178017094,0.015703744105169608,-0.007862515540547238,-0.06122188242358163,-0.055930588835712086,-0.09920848960190166,-0.011568313666583853,-0.014487438402441159,0.02696231885208863,0.04445948444298428,-0.015093835198173073,0.04670835762117996,-0.005554819542943733
