-1:b:-0.47687182453562604,-0.14596409336727678,0.484200564126071,0.6907388278630958,0.8205081864205399,0.10366299361366786,-0.8669446592001329,-0.270966782855913,-0.5387466970503314,-1.5791926885855632,-0.03037783253949211,-0.06912719579025373,1.0760424426587696,1.5813849424718331,-0.3291960178008112,-1.7903529991138143,0.5582827823702261,0.298656333041901,-1.4110204926426717,-1.1468483465268982,0.929681538177941,1.2902691963383115,0.5762296558082869,0.7907634193601982,1.873894981724485,-0.09859676995560696,-0.2867773159634872,-1.2501078077103918,1.6989689681634768,-1.4762080622738454,1.9936079766304304,-0.6853423067393756,0.7624057273798933,-1.7144276827195668,0.25606036096948886,0.7736681686578447,-1.7385738490789215,0.3370215543568044,0.940685531378813,0.7370280649565818,-1.0264118068568204,-0.1808288642238704,0.8925741195832512,-1.9656900790876572,-0.060058590833485456,-1.0324167335953645,0.819692886341958,1.1181115605200147,-0.9991747638158035,-1.5672371174795185,1.2743799122451327,0.49123644091140023,-1.3974847510893986,1.0631631856059403,0.9080514217892406,-0.7437042428724729,-0.34377919045197247,0.1121517158528985,-0.9900949022523289,-1.7144390980297755,-0.021484485137994145,-0.32169741714519073,-1.4780464972724725,-0.6482641827703801,1.669155994254578,1.4573818929583287,0.3572274437727926,0.3530847274183948,1.7381845984831508,-1.0476043498075942,-1.0442670142802206,0.8263936916464728,1.9230681002783792,0.044137140290048185,1.6200851908698097,-0.2000039660668818,-0.8832351558197631,1.698782779776313,-1.5282176030799297,0.8456850043634323,-1.6768471470230257,-0.8257803179586825,1.162960753886972,1.5958204914190723,1.1767940168352085,1.3516726078818333,1.2762312405806069,-1.9427725495644657,-1.7935190547369664,-0.5409428240230773,1.4061493101209626,-1.443361353737835,1.1289926022291814,-0.2469158022772757,-0.5187463391889675,-1.781847078208013,-1.2306326767907203,1.7489426040014309,-0.5190628570652391,1.2840113828377133,-1.9258787657932617,0.36331979300172784,1.8320849402899384,1.3154085400541826,-1.1621298795334716,-0.4594879926376795,0.9070611542903454,0.5594685746812669,-0.8488260390773072,1.5904321913121302,-0.6313492017705902,-1.0954552016365313,-1.3963574786363302,-0.677366129959081,0.5734303613490905,0.19432398848709498,-1.3898643097872836,-0.7717664370015357,-0.9955560196946807,1.808324462358526,0.24352049269120646,1.5396878595297427,1.5713631809615523,-0.9486467487445225,-1.5598853354096098,1.0531642125030163,1.9560766383337551,-1.0119606693598824,-1.6416592145968325,-1.1510799920887718,-0.8255733699361738,-1.6394900542237791,1.5298161707581055,0.11542776883123117,0.6441632653436867,-1.7669189493259898,0.7528941311960482,1.1101873253290055,0.0791836215696423,1.876862122090035,0.11289021309267734,-1.9914805304225633,1.7447992209752088,0.21538465290319542,0.39829861496435603,0.6329020425549107,1.0149109756733479,0.11537674853882131,1.404175166713809,0.6562842345233559,0.3572199029720684,1.3604951624933765,0.671033751347322,-1.224818237985267,-1.9911222300463947,-0.37791405469575845,1.448441580859116,0.61287945200258,-0.808453416847356,-1.2283457270076554,-1.055905636502104,-0.7268304230147774,1.2389969728472645,0.03268772741477244,0.08818259460497124,0.7283412473876648,-0.14624681189585065,-1.7423659618019847,1.9753462093014191,0.4111006603588627,-1.9098794281991127,0.34841870163188005,-1.6237695792498386,0.002823470450823077,0.6396427473538993,0.4463577148455019,-1.2431002027428577,-1.3446156828520563,1.984063506041773,-0.5469366599361739,-0.6511763968341759,-0.46087230335928037,1.9425604405188608,-1.1108718581686223,-1.4905247678431448,-1.8105855563528581,-0.207319700921807,-0.2565140420790875,1.8213282403354047,-0.01476507713532714,-1.7105967528942712,1.8830573637732517,0.4771747829516771,-1.8833805961257668,-0.9281832795982425,0.5360187199041989,0.4544585790579774,-1.2038389709812982,1.4218500859344236,-0.857734150758754,-1.8985650545622654,0.12768047166026134,-0.7297193178400578,1.4184101778498879,1.8691814353078164,0.1784645637582921,-0.16944549865389966,-1.9667901005846815,-0.753223599042003,1.0236594204725638,-1.3928730725428626,1.8749276682308171,-0.9272746958976733,-0.8599154644521717,-0.12990800338721556,1.365701088947891,0.27399267758857954,-1.3251403384804936,-1.197491385216888,-0.5794608132721556,0.45993796878904747,0.022852098329656543,1.8240820724526552,0.23767320451748813,1.4329467928726287,0.08411349153349562,-0.10721798555464053,-1.4822711369785684,-0.2897076919250288,-1.5301110297279128,1.5431420309126689,1.2438803493154116,1.281829620368155,1.308679235366087,1.1038730566743273,-0.6301795227722788,1.7193859647495506,-1.3168370065467379,-1.660406042043185,0.6658330175396391,0.545232026036143,1.1798148185471313,-1.2122471590844737,0.9178972543385191,1.1645379878489248,0.42742224371775905,-0.7992690691649958,-0.5057810787500221,-0.3463604407788832,-0.6431616784569897,0.6032426210937846,-1.1756088347986249,-0.5496167885849944,-0.37711067495396355,-1.6611927049075241,-1.0290618533279887,-0.04383940425312663,0.5620591066792373,1.3460893311989663,-0.7490379611409989,-0.29903748868559504,0.6857263316156975,0.2683989645091639,1.4879200057039677,0.8386152355064274,0.27689268472075523,1.0155816324090379,-1.354438610177768,1.8769707571405276,1.620082734743182,1.1338688593536321,1.7110412369106536,1.293527923541906,-0.2568453605051109,1.5364573726219257,1.9428445475615084,1.1638380925943208,1.8331504257045534,0.40767465628541805,-0.40766783712674487,-0.9382036942201029,-1.8516448826268785,1.4250869547894403,0.2814037952888218,-0.8194475908445208,0.5239293179706506,-1.5694426155476924,-1.18430572979786,-1.752359698669399,0.22963229052156336,1.4031780069578623,0.5493786469989417,1.9143138475075412,0.04765345157826533,0.41583179890772276,0.7350922941531269,-1.5214471270260113,-0.2990858264086247,-1.6729365488696155,0.2852425142814984,-0.42539094209834083,0.061529580030327824,1.8451417791205778,-0.5215751729365434,1.0314001188993707,-1.1912100115168194,0.04432502466526435,-1.5940237809697337,0.07795439136096055,-1.726382945188322,-1.1915471003834273,1.790707960273267,-1.8395600622959414,-0.4563177069185209,1.9674805136326727,0.568452695974642,1.0010982421068042,1.9071648311739144,-0.6467654814594257,0.22549998950299396,0.4133244189181389,-1.6102601831877439,1.5817355262089376,1.86591446476355,1.3527489398643058,1.4613343703615462,0.002702075246607147,0.9220606039343439,0.5937489209705508,-0.15364034680966518,-0.8770335918369486,1.6044475732231895,0.8696592147449764,-0.7281703166822957,-1.8667990462428432,1.2316478013405927,-1.4365964345186266,-1.6832557025018953,-0.11423823529705568,0.8387182420665881,1.7023221990667488,0.9365463669039511,1.9384692609420047,-0.03355579375936108,-0.23435472766527363,0.0003016320822945711,-0.04142771177305803,-0.34706356719184295,0.13675278340801686,-0.988546657005618,1.2541885689811374,0.4055067651634399,-0.5927571680113688,-1.4708213555446608,-0.5684974781080973,0.49809405838267173,0.7800771868739755,1.0325045212430113,1.4590577623205978,-0.9535092194057605,1.9092023146682695,-1.3454464773714712,-0.668699739499647,-1.9229725011500274,-0.20508052808056076,1.8791131333101776,1.468087187203001,1.1464636402415787,1.7365760605475273,-0.7090298291316081,-1.5432195139095697,0.651027451757726,-1.5875184542480767,-1.3152735125088744,-1.9266767194735506,1.5695038155066434,-0.20228429483245894,1.4365091709510536,-0.5900110765269599,-0.9181272944595893,-1.8459241802212363,-1.684364090233763,-1.3479703799649947,-0.365562747091936,1.8426891807085095,0.4196976016679109,0.09524476240934035,-0.8972245129950692,1.2927607182262415,-0.8738169420650496,-1.6561209728232908,-1.1380334988288574,-1.3240263896449194,-0.8870624871580639,-1.1045182509951514,1.4449385333345748,0.9048407661744662,1.1573589130080002,0.9821608502125292,1.080927043478915,0.1200112581432924,-1.3725343213532697,-1.9594318399779151,-1.8714847350703598,-0.4623320754931813,-1.080965062718998,0.42545592596177834,-1.4209049322593539,0.9330855418336116,0.029769696855616045,0.2853723631025146,-0.17830091214318364,0.09009573082062924,1.4324689305377973,-1.9885481017046311,-1.7067254576364723,-0.9873581977098067,1.592064808297601,-1.8980046608245922,1.6093649020470513,-0.5682674001240322,0.6466028765716589,-1.6516327579403636,1.7049125539637495,-0.18147083465795766,1.3760742105794685,0.9627480826046175,1.1208860518276524,1.870576298882267,1.1301557387017922,1.3394847420598983,1.592169089065044,-0.42712006556250653,0.9003492791487075,1.1325180587356678,-1.5344776270454341,0.3347616906693345,0.6681530745953554,-1.94134402497457,-1.6151701038267743,-1.3265774135016644,1.7860502474577673,1.983176718031582,-1.9882501975861455,1.8649526598730666,-0.8919235489785585,1.9463145837976958,-0.7159122841549932,0.5959678851029087,-1.703515687522244,1.3331966968392088,-0.1258223928929866,0.6454247612882261,0.5612754514766825,0.0006226247171209954,0.7515535356890687,-0.7377410955148634,-0.8301776957768673,1.9995720192385282,-1.6397024005558967,-0.16486489695471868,1.052571474865911,-0.32800934347164123,1.6201480240908825,0.9001934766141217,0.25226236950038733,0.9178875626174745,0.24209466678011465,0.07860433764260752,-0.2580126757675539,0.4034058601141284,1.0487443330723611,-0.5630862537649802,-1.977828589377447,-0.60861806277646,0.7944167566362016,-0.07461874250382916,-1.96032756809963,1.042988318317381,-0.38662924146609273,-0.8111728786990441,0.8502863287246266,-1.506642526884208,-0.06373222746465113,0.5139590810194503,0.7832095978612804,0.30923783494364326,-1.6897709007913906,-1.788696418818656,-0.05638139954014038,-0.5771204776371687,0.5581016774607808,1.8337428677135525,-0.5921884962794678,-1.2555442734818434,-0.25044855450857995,-0.6445275105039073,-1.8642420580009174,1.5090242062539787,-0.13273362260802196,1.9232540847791864,-0.9073241026105603,-1.4890229941777338,-1.9920274377184821,1.3923783881005345,1.2802588216587159,-1.5120245156554617,-0.6629344186539406,0.9115815048400204,0.7204742484851062,0.7790048545453262,0.8802714496807141,-1.8880634594573706,-0.7097048977839856,0.8868008886772631,-1.4932310611943551,-0.5124845001498037,-1.942589896344928,0.0001814239274510576,0.7246287146367737,1.693872817725448,1.6688895458623587,0.05090012573949058,1.7451304334503142,-1.453683878072034,-1.9798779378753988,-1.5648110462246825,1.0942809498070203,-0.25576534672546886,0.1600943274179229,-0.7941749870397492,-1.6688011295117757,-0.4975797020159023,-1.4276345468921212,0.15112998737054023,1.5192517419930627,1.4014096796848374,1.0732328739909043,0.5175655633055861,0.07337769832443632,0.8290726401037101,0.5468643364684347,0.14126243275174588,0.4491115707511941,-1.6337077092029038,-1.0521014886289146,0.5902743775538943,-1.5387787007698899,1.3755110973261113,0.4623931582397772,-0.5344376930521639,-1.936182265576925,-0.1476120963832071,1.2580927976917444,1.9703146773770452,-1.0215047997370066,0.3506102455218936,0.8223136135831899,-1.8860412246808655,-1.4057380514086013,-0.1543864926749552,-0.17915857862646767,-1.0892696511710644,-0.7394021546296533,0.632685088629287,-1.8181385350723769,1.8873128877822265,0.4978007448861586,0.481337353669019,1.460766390914871,0.7817113067732082,-0.3914094236256173,-4.990257097319323e-05,-0.7470882236260699,-1.795593449634337,0.7302362261549361,-1.2526297580273464,-1.090492082646116,1.8153279316678308,-0.8202028475472539,-0.07840357720463824,1.4945574758021922,1.8654906319220574,1.44491598866144,0.885304054574126,0.6170595759399524,1.9953256764023468,-1.7380282927376545,1.6061643332615274,-0.7311548170397177,1.4337135284764504,-1.2832268328515464,0.9271418142299934,-1.798288549563463,-1.989890204601004,0.38505519652029385,-1.7962530251635105,-1.8209303824133265,-0.8982917615422897,-0.5543689686186092,-0.26825803718716784,1.3771591324098658,1.0958183306917881,-1.1914923446162526,1.2853007716116747,0.21931988620121012,0.5837218645171087,0.7584218896569025,-1.0588091550439462,-1.3789654179818225,1.9406745822976526,-1.1508340725857429,1.0664471763570431,-1.2177825758321124,0.8833248619580178,-1.2512743354670715,1.9344604775326697,0.021673639689669833,0.8328030441922979,0.25850947477782765,-1.2848862167322492,0.553964803872353,-1.3020361566179872,-1.8102261058271618,-1.3168911559795395,0.7478671055007485,0.4500512963849022,0.7660866000865543,1.4711610070048124,-0.9578097315214738,0.14425137346471675,1.4674565157886816,-1.907286867990805,1.3781964529605766,1.4570147172996122,-0.8132322914214006,-1.7330623669336616,0.9771342634361944,1.6778006539251866,0.44126306415167715,0.5454024899822958,1.8403629874983374,-1.9824298231221453,-0.5566355855665477,-1.7972196199062296,1.434731997805923,-0.2332087768975759,1.129083356829768,-1.4261456173855098,1.4673945333508127,-1.113401211322715,-1.4674819040075207,1.9357632529704931,-1.2327609437972944,-1.3799924512382757,-1.2844814181437214,-1.6368956291120567,-0.7664678013428817,-1.3815770288841245,-1.421764615216457,-1.8177848159131176,1.0300322393978556,-0.07943293514615428,1.3926506682080524,-0.220480960228864,-1.119007926985855,-1.6884296505123921,-0.17307522529667774,-0.490888733832523,-1.842083539853522,1.5005218274383856,-1.4630557154064778,0.24977759908135197,1.0087133835690028,-0.3582014961456922,-0.8646448258480255,0.4762687541375861,1.1652724292583478,-0.17266687077060885,-1.0232657812683792,-1.8645773783020525,-1.7127213515929296,-0.15578075568824865,-1.0976549650741116,-0.3956947797787639,1.6993855812772585,-1.14592259970255,-0.8202269066484107,-0.8010360728283589,-0.1073458404653437,0.8817226556035227,1.815085567517676,1.4585472039717633,1.387098532533701,0.8371295799922609,0.6771289523815653,0.9522719887954691,0.6637378680874327,-1.5114777003117505,-1.7271872115751479,1.8629974221017174,-1.6047575175011923,-0.8319604591016372,-0.9365304365236067,0.6048853585613646,-0.9336552249087542,0.5353798651309578,-0.5476731629016467,-0.4685717142524566,-0.31779256775580034,-1.0628244990751292,0.9381127672933398,1.0604255813341235,-1.0660190383569157,1.7809877458740946,-0.011815634874712214,-1.1789679140140876,1.6123111907022516,-1.6463434341987697,-0.988009354610181,-0.3747210703765058,-1.3755205013237126,-0.22799489363268866,-1.122440570873978,0.9362736456613366,-0.01562519785739145,1.9260157833670815,-0.38759594128509844,-1.479158367335888,1.9533939948628785,-1.3591544893754026,-1.2501149482984908,-1.9274902063295674,1.6967080802044943,-1.4728723138907336,0.5133717122232754,-0.28874537973426667,-1.0518310693222253,1.3632007338124261,-0.020624747890745906,1.1658170716595118,-1.1381017825452777,-0.17581596789904474,0.021375485322222026,1.781484586203485,0.8976625820717623,0.4052355411918504,1.8786638504166624,-0.4194391541771803,1.6486183058450126,-1.7802720599391666,-0.8790844110455365,-0.40095489430748055,1.0996223981363842,-1.1621555722412715,-0.6819223833324126,1.6218145479457615,-0.36965851918730497,-0.7611763146341404,0.3765252403013142,0.6570062809045716,1.2776473299179865,-1.1617760955965908,-1.2640827518109163,1.259204596496847,-0.47385471723042705,-0.7629715157297656,-0.565867209943778,0.8403315709350541,0.8687770228534437,-0.47112662042867437,-0.9218919111935308,1.1227947030799654,-0.06258960927618586,-0.955359287592677,-0.2666176589990218,0.8144890596841318,-0.23074444755711165,0.10155360871067674,-1.1297868010548395,-1.8418848225359912,1.5086826633548445,0.9540932217769175,0.654281525716914
0:0:0.03023649886343502,-0.024639767410229482,0.14708694805828446,0.12844680398109445,0.03443772027677546,-0.025058494603010743,0.09914410866720125,0.06075757249318505,-0.003288765495431512,-0.09265915473300654,-0.03263991563655667,-0.07265878637166515,-0.1380851169013533,0.11651575371189343,0.0698141034448135,0.19882614251146227,-0.09133300820813177,-0.21921383137043415,0.02457291339142099,-0.007319519838423506,0.0057188543491394316,0.05321542790513579,0.05582083475671808,0.1953762091621365,-0.05343756652112538,0.10662735627501452,-0.03423569353361454,-0.018219322778078053,0.12282491724267139,-0.01671214896820893,0.04008532934265274,-0.087777001249194,0.017128157968504937,-0.024030685071888613,0.060226853456854995,0.10010804102117889,0.011958141401426575,0.015048673807063855,0.03672906324573218,0.017374632480255694,0.057674828007954156,0.0571033093041831,0.07759834752465973,-0.01563359626740078,-0.0472623454148753,-0.062445671830256684,0.037450230296747176,-0.09235066799269827,-0.07935999535714822,-0.004409145697221979,0.05612865784618305,-0.036901321620520317,-0.05835041456516146,0.1625918369659595,0.06695107924157533,0.051057750600072796,0.030584139048862702,0.08532417856469376,0.0106746445181657,-0.007600863098035263,-0.1650137420974841,-0.04920299019874195,0.06104402583854028,0.013005346377931815,0.0076387063585973015,-0.06720577688447753,0.08162950515598247,0.04825372608493443,-0.10763618434852155,-0.08548308194846367,-0.09683560619700421,-0.09369628365936605,-0.04479471530038439,-0.13695559336693325,-0.11382682037469297,0.01919867171364839,0.0422137269182753,-0.036270498195611255,0.055066368093455345,0.009263955965794933,0.021227068092182142,0.03057255381387246,0.0957242050583,-0.14494033115632254,-0.03495470231706608,-0.01775094653742236,-0.18468405390598844,0.07551127161044542,0.11799913906826727,0.015965679100560525,0.05382165172806186,0.0590766446903505,-0.06603737940420511,0.016084779497147515,0.05043560252405735,0.07316029851600465,0.0011381020979464814,-0.020247698941842283,-0.14168730979808933,-0.007887719187564786,-0.06780232271744395,-0.01684157454514783,-0.10817607402659463,-0.0974788133299152,-0.03374487686930342,-0.02762519653430396,-0.040432507792447274,-0.0004074651782650502,0.04424510527773946,-0.08912691594911407,-0.004282374217465048,-0.0040092984885833115,-0.050067589374986246,0.050643730059969104,-0.018748282404768155,0.19276687554839314,-0.004704590945631561,-0.042032313431863345,-0.05401227739517364,0.06190688794203218,0.02112958572307648,0.060159681898677465,-0.04146035404458426,-0.050318766023637676,-0.054850102622775385,-0.034338947237975745,-0.16450473531244067,0.03907840455072931,0.024936012899005204,0.034733028585916315,-0.13375223536756,-0.0012432286802836637,0.03810359915036573,-0.09216393744911441,-0.04808521111120269,-0.03299812823400015,-0.02485758815037818,-0.12199311045237186,-0.08782340530876612,-0.1510854147746992,-0.11782952710700875,-0.07005450972500424,0.010700908419357226,0.018617481472995124,0.15967535480042047,-0.09446906298130532,0.044252207430873776,0.13899426912993446,-0.04951471343859384,-0.096443395884611,-0.06901662063616733,-0.0083382070680401,-0.02758850794889219,-0.052066089979203534,-0.003998569014971779,-0.07573698022213372,0.17530075222218794,0.08508634477339311,-0.0294536686886725,-0.05110325602322415,0.0868513591788263,0.03746001981383305,0.10330149697393057,0.03541108418559137,0.04981450934521639,0.04375440502459976,0.026572850902194398,0.07490796793724336,-0.03544755066470162,-0.04477607380548271,0.04203552698395914,0.019037294071390244,0.08115228401466568,0.01824502309704107,-0.17526691933808528,-0.10182029174462255,0.0902874358678592,0.052533410878106465,-0.03784003476474914,0.06587472429946967,0.03397848838200284,-0.015115033198005341,0.049698986823639504,0.06986041843357743,0.0060633279341806385,-0.023157610025990833,-0.04431786447237187,-0.09638240625578648,-0.10345196940250874,-0.04341556838996698,-0.0007200218432721574,0.042075451156582566,-0.039007781076843606,0.023471822293372628,0.006876750003370414,-0.05362513130111859,0.05440147843286276,-0.11523557341606308,0.0017173120609213634,-0.017366584839159663,0.009497197883599016,0.027525933013688962,-0.0372429293625503,-0.014820240158117674,-0.17543378315744912,-0.022539792914881483,0.08394400691331609,0.05208912858576165,-0.0755201536159025,0.11728351911242058,0.08873271715302061,0.04799439079548742,-0.01378058705854205,-0.01533280792328274,0.008349725783928895,0.009941323384256342,0.024181279714227177,0.03633351937524529,0.003433244521422246,-0.014895248278366944,-0.06738442030090062,0.029680888973358306,-0.12453165406053007,-0.0810428878743613,-0.00800892316889327,0.008547400537486082,-0.033538147444335004,0.019834644685778776,-0.011938321883478738,-0.013369982581126188,0.01503069943489792,-0.08653803257997576,0.05065084846823675,0.06663636826024566,0.1132575275856796,0.03125167972124788,0.06844167720456644,0.026163711494273312,-0.06087279847722178,0.031913490152951966,-0.07754380404037944,-0.0256991401550674,0.013405497401384862,-0.07184513465909159,-0.021872505536447092,0.012379969068448241,0.08931461949236101,-0.01562988619572087,-0.05476574356399445,-0.049159768141816176,-0.05010424739826323,0.0515653349077775,0.048328648738180144,0.1839163020118761,0.012850885911079173,0.07707275942554495,0.127094009086368,0.008461238420435556,0.014323355923435418,0.15131137746863996,0.09477205259070434,0.044609741184261954,0.011621670395111729,-0.04290956930254966,-0.02498025352509465,0.057380625145295815,0.05072513126627988,0.028991426755092354,0.10965523000291937,-0.009932884416580598,-0.004694919446612302,0.07599573415869149,0.0769233134123808,0.09598502895398728,-0.070142373431539,0.053658796233952366,-0.03537181932659807,0.022022056637123016,-0.026611307027315543,0.07533589129812424,-0.05239305559556346,0.009362123192285065,-0.04180868253609478,-0.022831607973681462,-0.052889510705351896,-0.09571987204195617,0.09393575871307677,0.031212488209436187,-0.0037071113881784884,-0.00898814763860783,-0.07643308243193994,-0.04268289821733534,-0.03862701668080826,0.09153183957623261,-0.04215491735773503,-0.10534301549920791,-0.0033111576906580146,0.07388990854347038,0.023347218828884717,0.13717902834534568,0.12593823781873767,-0.08036841349440041,-0.029203195053267565,0.025674903321670682,0.021086510531577632,0.05981437071279848,-0.05009653083882799,-0.1631234833736712,-0.08933547659711782,-0.00481066469769129,0.05385858590447143,0.03422567651020134,0.038788238491953446,0.1718232829911544,0.0742621962439351,-0.039033360573928456,-0.024348016531286865,-0.03718954513124701,0.08888018134297189,0.008814210850458738,0.07159523631002089,0.013170470625561056,0.023000101837577756,-0.006083757638865522,0.03864007748112089,0.08746969534688534,0.012186059282922494,-0.0035387655495285955,0.07049763128335337,-0.04968451553824803,0.08371285958926195,-0.0183434779194227,0.01232216298746818,0.09345376008221955,-0.04215873566180261,-0.009399046885595433,-0.12235136236166728,0.13494699291316048,-0.02391068854736238,0.026076871335739382,-0.025074200019060477,0.008619317246898609,-0.020048445074742297,-0.0809926035420126,0.12347087880020059,-0.04858512164797153,0.07184700250937089,-0.01246729154542672,0.019674867779755884,-0.025601890820977018,0.00363823256670589,0.026553125693647605,0.06519633020766545,0.019696059263900115,-0.0815935613031076,0.04432027362071307,0.05436387194609233,0.032446396784294625,0.09589295932829056,-0.027678798573580587,-0.11258390541727556,-0.0076416470598581615,-0.03435972228433082,0.03712840868988712,-0.07917287222678371,0.09407239882947854,0.028034201616194177,0.01609368816146691,-0.11033490877841381,0.021802193874636836,0.0930777188202287,0.017142821249024307,0.03651532036342784,-0.05661858429747824,0.016913287527048043,-0.03481976964311342,0.0077830999030633384,-0.10326131995669453,0.1608217032024682,-0.115009054983709,-0.08902647992117606,-0.015746391604069484,0.13360042642506875,-0.020352947295543374,-0.036049440374125684,0.10855863169724211,0.06540541166310143,-0.02262644348553805,0.10655362433908518,-0.017201048671103426,0.12895930391794075,0.054720869809116446,-0.10100599255611316,0.08753627992411568,0.009369361500297067,-0.049972059376029165,-0.0591427672027499,-0.0277573594135472,0.004464669244439383,0.032496978584265014,0.10951043582644797,-0.008886615013314744,-0.03812381517703851,-0.15777814584971153,0.04761954634277255,0.034710742186047173,0.011223851427937004,-0.06004018250659472,-0.03813431297254116,0.049697929688975774,-0.014511046403248845,-0.0362482738216674,0.0024605130364370796,-0.0021624490136999564,0.024254765558878417,-0.024857934077683944,-0.05059302508519932,-0.013445453307885194,0.024085323616841223,-0.021520268720097616,0.02964034296892544,-0.055327931248565755,-0.01578682822153637,-0.04390386354073313,0.02456539624282538,0.09443687837805248,-0.0731797140936669,-0.03374138778423243,0.06839107992292769,-0.056931179413520216,-0.09483841617340572,0.00697004354653946,-0.0004730753162783292,0.04054581156179382,-0.027736346204060035,-0.10010790191868901,0.11170854721351861,0.023469098181021008,0.0779451284967934,0.0027596034813641983,0.03977262097106663,0.08792182924488082,-0.01933271598251637,0.06175922817700036,-0.017877861301814554,-0.08240377681342369,-0.018973915492492006,0.03584032589654985,0.007322429612465103,0.15209435667271853,-0.009264541130995342,-0.026357458662381886,-0.08195561526902309,0.11062427814703726,0.04105901603269046,0.04981100025498534,0.1342908345968755,0.018138121045813485,0.06079241128842946,0.16081774041056196,0.05256984221847076,0.016467025366074,0.03398933416447673,-0.06444514248991341,-0.05166486957617425,-0.03995102878400599,0.05624964592566352,0.07404380342381281,-0.036611680419783514,-0.142970300437776,-0.08057853749249122,-0.14777170567956108,-0.0016243943335213095,-0.04399680018921866,-0.1169690874010152,0.07015237072165006,-0.003910437356168935,0.05115001408963048,-0.008056988384268412,0.029668659740592115,0.03820311949929469,-0.007514725563207021,-0.11338472088199589,-0.03825056746703895,-0.02795496315021541,0.17501307687885662,0.11386957170395788,0.08666121270688243,0.06623572968027601,-0.11768574441732506,-0.09818347880118253,-0.05232308771477814,0.05861531747160012,0.03861795117970158,-0.04511886619536569,-0.02355350762499617,-0.015650281764527072,0.035753342289082855,-0.03336360260469238,0.013019705776320077,0.024888853740179552,0.03636832445812246,0.05235035508996961,-0.02757794235688924,-0.009413058478365028,0.005362551888804323,0.11876968631058928,0.180618044710977,0.09045797433937794,0.09311698042783115,0.017923765721722752,0.062086898980350004,0.035071082325723285,-0.02232250462915934,-0.03775603338699271,-0.15157241261971757,-0.0009643011800808434,-0.03217796806741021,0.13956117367817691,-0.026845772713775206,-0.005228106617439578,0.1112657137695561,0.011803827035654921,-0.011239366675468482,0.005214240180156171,-0.017940358515493676,0.07877506111906542,0.08925186776292089,0.06870062877847039,0.022524352788192974,-0.08133839173152707,0.03941314903090607,0.04594352983135955,0.022959151575095402,-0.006912628519946067,0.02359012311118778,0.08535730059373653,0.016652460035211234,0.034377679840732804,0.00855592290721236,0.02445966861645019,-0.02200794446971313,-0.0768945822171279,0.020204639596853986,-0.052354974281021635,0.09266844493387053,-0.06488252211320539,0.0671024491238572,-0.01726330872531412,0.03300714461736068,-0.056564753855491624,-0.027859049094887116,-0.013675725498753497,0.14504653291142816,0.048463935427809066,0.07827049602615066,0.06344712669748938,-0.06983030739816097,0.04128217148695547,0.13599972038435265,-0.0015515502322430796,0.1143474283690985,-0.0021479328992901666,-0.057929630361883505,0.03155644943155591,-0.0030077526884230293,-0.10290415014930678,-0.017278996538561252,0.05657181237394852,-0.06906383658512062,0.057350139812157454,0.06829985453387828,-0.14629599978540211,0.030201824513786002,0.019273057694238014,0.06130867531741886,-0.13735539908549965,-0.0033574622744544,-0.022264587174515762,-0.021292935969943912,-0.0014409448780636307,0.050977234208327324,0.04265535721054366,-0.026358990500856966,-0.025947843743706345,0.053920096974749074,-0.14471693402766084,0.15041047380267636,-0.018321738258197977,0.00625548676425858,-0.09406115967064956,-0.024047772686260287,0.13201777397606868,-0.11459275574507338,0.06417911941830844,-0.12687664602700338,-0.018317103976288756,0.09827219683563479,-0.11548808415241489,0.11699587789380117,-0.011057726362680513,-0.09808608628883603,0.0222145867207598,-0.05686672345579256,0.04161404621006487,0.008020649131915492,-0.010275089483635444,-0.06715424306842147,0.028869065515785594,0.0767012962033183,-0.10488875727187326,-0.0002847897053140477,0.03097683730981005,-0.10737808627845417,0.03383031293831153,-0.05014535008928468,0.04794826268662969,-0.07924556359869663,0.030492419928536834,0.043075283760225916,0.0621785415354166,-0.11333693415657986,0.14439614187738814,-0.03447276094499937,-0.028057224369775452,0.06180038274380235,0.06288450111443451,-0.02968735354005914,0.08784788283669868,-0.050977221308889625,0.0009225427613023475,0.033032008743781455,-0.06982167904426675,-0.08356298729543853,-0.019470529967788062,0.05853722212572824,0.14198700731449856,-0.013276662455731069,-0.01709514610236254,-0.12307929914659561,-0.14665048716015286,-0.018805734540391767,0.06686906417864746,-0.18600564686715546,0.193934474601851,-0.009811005113060335,0.032321261454049954,0.11992940992219976,-0.036451363698161536,-0.0016407575234800103,0.09097919852349905,-0.02103434832406777,0.1569554346150393,-0.042994514541770994,0.00135845656113401,-0.15205788976069456,-0.04654819852221749,0.0159236223757929,0.05343409860741498,-0.10742977960167459,0.1027772797090039,-0.006838374195570603,0.05105185656147804,0.03397061295857726,-0.10242891350530417,0.08734487430317482,-0.06995890283849648,0.03343794239260274,-0.004631818415879602,0.043120698181457064,0.0106826404510718,0.0255305760363001,-0.01728350764441509,-0.06335463325767755,0.07151230890773257,0.0910221622783726,0.04113016007950274,-0.05245981417202084,0.006297126398992537,0.11000150719448631,0.08606559144801323,-0.05039393093859618,-0.08934193947982122,0.10992501841230215,-0.05055830344180942,-0.08938482364202924,-0.025077955465708054,0.05364061013476143,-0.023217879010611796,-0.08146890088743737,0.0447218943347637,0.001168590982631271,0.012481908025747878,-0.1071833184400422,0.03496978608818316,0.011982444597412316,-0.05777433869308938,0.04842875231135921,-0.11358441170634752,0.11681257205426347,-0.08420356991695044,-0.014781452865089511,-0.02710837404580084,0.03202703226228729,-0.06683710210227066,-0.10151660644546864,-0.17221814148142686,0.08586345573680902,-0.07703429532334519,-0.04215433583077024,-0.050076984697959855,0.015620176610399014,0.1393583039199953,0.0470999618999071,0.08378162298185225,0.08781878002113432,-0.002216236567800166,0.13884369395771018,-0.030810482300890292,-0.004593203406124383,0.02342530049879807,-0.022159553049065805,0.04730022253040651,-0.03532519305225141,0.04617229799723261,0.008176475406370577,0.0322759140271,-0.03165254019494851,0.03968988588103536,0.03340762708274791,0.08268166043501805,-0.07180915920631961,-0.009275498973979559,0.05247134835823518,0.049876897641023106,-0.019573172303857356,-0.10526100474274044,-0.020321407025680846,0.014697379016662796,0.020363489938852987,0.040966290680343,-0.01639456504992541,-0.13825351233266883,0.08145019946959235,-0.049188024271318694,0.06124269855395128,0.00949644172013541,-0.0496624833228091,0.022891427784728385,0.02143917994520769,-0.2010651632726607,0.10133854114956292,0.06493346510554882,-0.05971676354440409,0.08264729338271803,0.17461220161534555,0.058073888364902244,0.0012081959206872474,-0.08586911168797622,-0.13039340253650977,0.06492902263389817,-0.06394339073205696,-0.1787196660833196,0.06529406816824429,0.05800562947774882,-0.10072157757238787,0.03410532766254701,-0.004628916506889582,0.053474591171019714,0.020774981853634935,0.0912561668564247,-0.06246662600441433,-0.044850773372723196,0.01464747603390706,0.1333384311502036,0.11140728580157541,-0.030105605231552937,-0.059282586258730854,-0.06286095169775027,0.020251193504359073,-0.044591214115551614,0.006576097898898198,-0.08824866563147467,-0.010465023042105932
0:1:0.028110338146428108,0.14436663037171205,-0.0798379287324722,-0.023291328757737494,-0.025422660238490494,0.18910441911283443,-0.00915571240002911,-0.07607839247293788,-0.19299485026188387,-0.12684872781638792,-0.013158389012427954,0.050331378861737046,-0.14586289808351505,0.11141447331819555,-0.030915273839799993,0.10719631416204316,-0.10902277089713375,-0.024523136417690567,-0.06881102632622585,0.0028216508017744986,0.053482305267661165,0.03888457588386533,0.03858029663782961,-0.08075437550626843,0.058073833160541884,0.08655388182300536,-0.07533880532159687,-0.039616014505450235,-0.08282831660935706,-0.04655056974225866,0.016417388594408146,0.03726257202661615,0.0645950829293923,-0.06982177220602047,0.04656311531364756,-0.004698315558307107,-0.043533924781561165,0.05264829035092213,0.019297121416615333,-0.05164869545325174,0.045160804657998994,0.020111451427643607,0.06566473523523106,-0.004532317424478441,-0.04088811206098176,-0.0830127053222333,0.11723251469374571,0.0008496106752048497,0.00491798770917408,0.04799558341859047,0.09357335710773051,0.025628470925016876,0.10908517896783644,-0.028279624329306825,-0.10184736759875901,-0.00881501099880096,-0.10837498923401659,0.04962577119308317,-0.019253997065163612,-0.06183232883923724,-0.04619511656378772,0.026556786407352338,-0.09270035053185295,0.18609361676461467,-0.0036946009224475542,0.023910359274920922,-0.0026537416963147145,-0.001298685523513487,0.03397181092082399,0.08934118934741485,0.020575842198250264,-0.043516904763587196,-0.06473589076623827,-0.07415503210017112,0.07130023199990826,0.0666156294343136,0.06486326907788409,-0.05500508519193132,0.10616127971608909,0.13669981287929522,-0.08484986074230558,0.030241838132701853,0.018827368764073114,-0.07398370455169345,-0.016741909825084632,-0.07642834767465242,0.049776551538295195,0.0246439298047215,-0.1513109245605436,0.07379098707826855,-0.04997783534496418,-0.010507758917156941,0.059903092840108856,-0.06684845728116498,0.07734182729169622,0.05945160782090178,-0.07964601608142534,0.028836744157571013,-0.02963619034200035,0.05067223935439179,-0.04015849526298169,-0.060916029294578365,0.008474495390718869,0.126934542878569,0.013314842840961587,-0.015376869140331872,0.11689359653365841,-0.14452288782822606,0.04577772450075358,-0.1039926883193296,0.0788332576655574,-0.01642054781536065,0.15796156677366763,-0.0013991490868732457,-0.061738151182277844,-0.04986993925483363,-0.026636860264890604,-0.0732080011742425,-0.01194964495862035,0.10452068986410705,0.06409398851890508,0.03600957692736438,-0.07269131450320289,0.0987953675433061,0.004513443472815327,-0.00815007664384394,0.0327997318818587,-0.0008592308815433743,0.11641238606925382,-0.06788285820992794,-0.0810357999012698,0.025255966607941924,-0.04284312412094285,0.09161790989246148,-0.06661976846592943,-0.1595953162042813,-0.04625895988980814,0.012156347888156853,0.029495725076407058,0.041724189552667164,0.019255260807048386,0.06075603126069695,0.048916711629286666,0.025513941068739526,-0.03901937244597066,-0.12208748225572963,-0.1242364878134483,0.01752173931403562,-0.03987631292179729,-0.0336477689323151,0.07195772995222235,0.037972116412710165,0.032377214761564785,0.009245522812239153,0.09531101620411388,0.0389405353239868,-0.051492134032185104,-0.012317287940744865,-0.05312434259276431,0.05432823146289137,0.07084903531383153,0.004520670779322377,-0.014565429627471567,-0.09955729415615701,-0.001269255170372114,-0.12801695187277778,-0.06441676196406294,0.17953369921596632,0.03352864723477046,0.0009657552028288179,-0.08478474403583096,0.0047259317715733955,0.06666683653402862,0.06600016221927775,0.08391297247227061,-0.012537332777659303,0.03026248755903475,-0.015704182174701875,-0.11259547548977529,-0.044041887103085264,0.024062337058635863,-0.012748168815443849,0.020185643830931407,0.03816322781699275,0.07921353625373065,-0.014450176410994938,-0.10212806127396046,-0.027150873403087035,-0.07545806884182245,-0.015025642809407143,0.0012763966612579756,8.29675570416384e-06,-0.04249396629407898,0.051920824855670324,-0.01754670658703585,-0.020832451549744398,-0.04741729565667545,0.06925757944855078,0.12416839097647125,-0.026543263144242314,-0.0754797647924665,0.15494217359695084,2.157610036031583e-06,-0.049838789805964054,0.06899726222959904,-0.06449532457136305,0.05905499093671468,-0.012073855996420529,-0.013753162081024515,0.1135836097959052,0.105673162035741,0.11534379207339387,0.17514317597266948,-0.0863981472779442,-0.06427930826421989,-0.02543022910208041,-0.03419566081433415,-0.035638858551473133,-0.13089486988629032,0.032877014936307764,-0.07634441597412069,0.14692847290421052,0.11721425729136484,0.010194632556927858,-0.00817435851595156,0.04625566327816042,-0.14295782225285075,-0.03992311252098394,0.046964808907945244,-0.04172857109655361,0.01996064210942919,0.1301371049041145,-0.006084384931758777,-0.18113238374027307,-0.1779962354292486,0.030778513875227433,0.05533987323865491,0.0018641450946457775,0.02511281783878716,0.08135009048637089,0.06807414623088294,0.011452287299782626,0.044329813442076656,0.012117643472578467,-0.04313243775595609,-0.002887107669701202,-0.10075970104016438,-0.06507397987290604,-0.06131249940386871,0.10153175315035619,-0.12296890510302246,-0.12836573543030852,0.04883407011258234,0.08846409429529134,0.036324203034524896,0.04514866685148068,0.03234977992867856,-0.0075029628954474325,0.028943655334715837,-0.09292495578153893,-0.06797086626557503,0.08428711545475656,-0.027460146749954117,-0.015529183201299254,-0.19790930491537806,-0.14042754039548452,-0.07539992672943001,-0.04370370317489893,0.15939571434018882,0.03427468022202726,0.05983744734922008,0.005692024247462842,-0.17869050532685557,-0.07340956162038341,0.006955230367033522,-0.1677288771741226,-0.0427970022391568,0.1161300183720076,0.0010177286351874917,-0.050578101155491,0.021831451243382337,0.04184920066586806,-0.026373019829435927,0.01584396428862915,-0.04289865206455926,-0.025415349457389647,-0.04353306938726945,0.017326680587215537,0.055858536675422475,-0.08198762868369636,-0.09689370018414376,0.0032317823228467314,0.028211894283524115,-0.12046335225189722,-0.021520396914611994,-0.03455462127996979,0.1659972049324972,-0.0736424247235059,0.034836749714143654,-0.02438134168842383,-0.01661615085171731,0.006874548695163061,0.09171833144466734,-0.041541577599673446,0.008312166908522866,-0.05451206501637821,-0.05057734968906677,0.0247161297514904,0.05196929146231181,-0.13720244481580035,0.04277861797378457,0.12315897940121141,0.017660350409934463,0.10658285410213462,-0.07371464416661123,-0.04745199654430127,0.08303098885952999,-0.004835540190963254,0.0054018318775781405,-0.04065718482290695,-0.0725563003387873,-0.05072402429499485,-0.04327639896063146,0.036992933101656085,0.19448347514465922,0.02854345595960882,-0.027210529893500625,0.026219161448856252,0.0061710342710811425,0.03377870595094624,-0.08850250794310124,-0.04220733222691105,-0.11329816097454075,0.001621577712211842,-0.004503759231852187,0.029008349109808353,0.0878492169851286,-0.004970944048038979,-0.0044846211364017,-0.10971607941824266,0.07548791005109232,0.03326487943730427,0.0384267486129381,-0.0608391661874447,0.031018773658418458,-0.039626290805515725,0.041487030908706,0.01485576474157489,-0.12100173003936328,-0.008317581951123252,-0.08496946292098859,0.014916172098148474,0.16823943317512632,0.14709571040007338,0.02118188251903393,-0.0743536493757876,-0.02690079804573265,-0.044442549728374095,-0.001311836228781714,-0.06659755088047732,-0.21740089764120055,-0.1780859731735255,-0.16981029187371974,0.03848050720410189,-0.01530726416608058,0.023625488762791542,-0.022175581223705585,-0.014946202132029577,0.12229430762046796,-0.10961018576784896,-0.01981373968207105,-0.03159199155433528,-0.09822085472298518,-0.007792607354094149,-0.09943252641275958,-0.16628177518764342,-0.1264973267455214,0.12090114248824836,-0.06757986825402228,0.11930512844284366,-0.0086707957035932,0.045549742040897574,-0.12031422677761709,0.026164463395552964,-0.008786446492159813,-0.027208356071850657,-0.014771976611986704,-0.1167514203552094,-0.06766100804564411,-0.06725623469534868,0.020809498156795586,0.058651799871486,-0.07165957866644557,0.010389574642223497,0.10338971525790427,-0.1090186194142554,-0.1318259688587864,-0.12839293293227635,-0.09127306652684221,0.07872157028836924,-0.06098083906604067,-0.01179018262399457,-0.095921891584508,-0.13361872736664784,0.050974963163060605,0.07718123417854154,0.1550997998594765,-0.030580530213603484,0.0012389801939446676,0.12469441235778754,0.018650203023533332,-0.07254284641045686,-0.08165903780466639,-0.11389565846017813,-0.030851035249292356,-0.052675858530307415,-0.007984726920861905,-0.048449631501326175,0.0739201568222532,0.030731763205023254,-0.09209053239740737,0.04728365229069916,-0.011749290003286799,0.09719254500555669,-0.007396024078564384,0.024884882652094764,0.034197127821978986,-0.06381981375432078,0.09099174126670864,-0.2142275344318586,-0.001998711133272022,-0.01764509894957905,0.124038525754611,0.07678116484472518,0.0527779367421384,-0.11806341338695629,0.006622001272331535,-0.012448120620100563,-0.025766444252742392,-0.0273495614504369,-0.14303602204536395,-0.02322924161866747,-0.02613775649745385,0.11686094632868158,-0.023070585379500113,0.0533265458106936,0.058476026995918404,-0.13885798742577066,-0.07221689924686224,0.07407448293185324,-0.11825728712665887,-0.02290675934804193,-4.3882778475340815e-05,0.028766709634216306,-0.02640004569178167,-0.0958322018164339,-0.044446276679888576,-0.018572901064588313,0.0979292982715345,0.014546856584923766,0.12675561735341775,-0.040582378718671035,0.08456634798909948,-0.03158078050293899,-0.13927648060284262,0.09275200941339642,-0.009930521659998946,-0.11786100608741366,-0.0656180706857962,0.013719240280847854,-0.09240637228898009,-0.07761778405796416,0.02816921807525643,-0.0732220354361125,-0.012335921063262806,0.01573182274688376,0.03369770504551795,-0.041922860083158923,-0.12924980559150695,-0.071870288489408,-0.12483223316289027,-0.006406478076152415,-0.02959677602716751,0.023293592420001667,0.017776218114313336,0.05553714536652568,-0.07437063076736501,0.061018312017870883,0.12960271185012967,0.12838304956599125,0.1774386528975467,0.03286551601172481,0.09373932712916175,-0.030867431322228973,-0.054292382282588786,0.028967645538581447,0.12708954941738318,0.015767497781704918,-0.052072481225361324,0.027385705083192213,0.044703052826833165,0.04697750520071431,0.07159664960374662,0.10519245360597476,0.03737295836603796,0.018850294211771472,0.10409372032309963,0.15661459402400443,-0.007765303709250325,0.01729229287022673,0.020859709394033102,-0.0943213938702483,-0.03398595207093912,0.10313770346601818,0.04369960789040569,0.07604509943784982,0.0039057355826941564,0.10921341097002928,-0.06250002154280437,0.08133695003646799,0.013095573112121896,0.0061531868993729005,-0.09535286049330909,0.01040422220713518,-0.05528676350174906,-0.0393188928233296,0.03534451723416175,0.035948289451015844,0.015645417837069023,0.11176613446902091,0.013668832425436043,-0.08554643291828569,0.042934733097227396,-0.06888116967311632,0.028580199213021233,0.047294407682467156,-0.14118820813866892,0.14963652702490526,-0.022510410157731676,-0.08565048880117994,0.09418024053060305,-0.007893491585654442,-0.03937455514495519,0.019177397939998862,-0.11993125163437117,0.012360469962981608,0.1469314498430896,0.0450065752802744,0.020931719296176533,-0.08222674587656165,-0.021872776222522587,-0.1340177956197599,-0.11156171603958323,0.08391736434163112,0.0718779836801201,0.13484994009425053,0.0043810632495022445,0.12702189242313972,0.03705044585539096,-0.07797930706198793,0.05358477917942287,0.00033786345333157544,-0.01559795592381831,-0.06845176633010308,-0.002971100733712989,-0.01611067144224469,0.05655782918843053,0.02481406515452208,-0.0335396270467331,-0.06716003545309228,0.08110888837731049,-0.09459668020135528,0.06488762348905228,-0.07610191614341597,-0.0699721958188982,-0.019970922172542538,-0.0011710630666074081,0.04723433212027526,-0.11184395308257866,0.14061288532585592,-0.12396434222872252,-0.030004780992909937,0.009604652810952964,-0.00752686298987456,0.11755110970582257,-0.10452939103627047,-0.04610810451217661,0.10061667195543082,0.03200434253203395,0.001374599210735531,-0.13588156718051356,-0.03043433488354353,0.10385614712757194,0.04775563237490234,-0.058356570858001305,-0.030657578202514465,-0.07034210503943465,0.005687267564634836,0.008168752976216831,0.02023692169472569,-0.05779408050359041,-0.16759280066268234,-0.08100989370966995,0.005184689137358927,0.03479146623200469,0.038211597427658034,-0.006535785780400934,-0.04737122433888071,-0.04018062738370367,0.017950646516089245,-0.06971879709764642,-0.036384117870522745,0.058758358174474175,0.04639302861102312,0.028501886772270658,-0.050989140639555716,0.11992174687937872,0.07611441529098611,0.019611275917544496,0.014296278358261982,-0.032668347203293056,-0.07528970145720217,-0.028753060952900613,0.05875366034700259,0.02405162807111198,-0.16376759620633363,-0.12152345972953038,-0.037103305017374744,-0.032342330785786896,-0.04529100096962852,0.02951975869633217,-0.08335452428361971,0.03998935058580009,-0.0351798009759649,0.05622385484709028,0.08355917385326914,0.04467222667539742,-0.09133198202531251,-0.16224025019856433,-0.06393444911337998,-0.008600775602249226,0.10983001098082726,0.020580022575869314,0.051755974160172864,-0.002027433481243389,-0.11999625693365099,0.02420370185755735,0.013963341352043707,-0.011369582840857583,0.011291228196095088,-0.022917464927396554,-0.1397693134882419,0.10918851808319972,-0.04184401615949449,0.07160177812274303,0.005287891486943554,-0.10116224157089052,-0.026146832115788513,-0.035969697971561014,0.08285351584634054,-0.08134913407873848,0.08726356086520753,0.11705801162235764,0.10717382134776464,0.07301967158204072,0.007254452030857313,-0.10631587615621389,0.15185114875315464,0.03473019827323624,0.046794654013548646,0.00804429327580282,-0.06822363577931262,-0.04338783711234708,-0.0020757873724966663,-0.09216333170834928,-0.0904669010934366,-0.035170857452140776,0.04009198861328291,0.10255857160851828,-0.05101303019909342,-0.0290474929880957,-0.002947626266936195,-0.10150673320213903,-0.02729270400461336,-0.1819634539281254,-0.06722665470218762,-0.10011960506365308,0.017069390913717914,-0.10729879247296854,-0.015646904590291312,-0.020488028425827094,0.04613574753528169,-0.011116655334067145,-0.012218091437536827,-0.01156839280577056,-0.08204174698358901,-0.05860066413027083,0.04645027521362035,0.018052432937122564,-0.040024559158172594,-0.008291602772143051,0.13292359244519855,-0.047844462226991104,-0.008364193519471973,-0.04075040648476923,-0.02809314190654291,0.08313477919476116,-0.1563551273103402,-0.033153731751673694,-0.18061022471623905,-0.016206232865666793,-0.030025508132274812,0.047554877584600586,0.06110479908063326,0.003960689386296919,0.0005102439891229972,0.006350371835619164,0.008365589325952794,0.041767190970245935,-0.009155560084477939,0.02375807445254871,-0.016209513176005753,-0.12274585695895812,0.010862667647342002,0.07041368813786343,-0.10288228188921208,-0.05161803881854777,-0.08366978005373765,0.013413527084689968,0.04969294793088788,0.1026633074872323,-0.03586336657318648,-0.021690046420754797,0.03132989056262486,0.15282333898122694,0.0023998782205133483,0.06764491085235406,-0.03456720093781793,-0.04950028925133436,0.0292259261016436,0.034306371189208845,0.05841737900941435,-0.038218326898190665,-0.026090645537998426,-0.09406408523587893,0.08236576477154964,0.053844122934343486,-0.095575764661791,-0.10509285427359981,0.003043066275540174,0.01968975208365117,-0.01607408345855553,0.004830454862298585,0.0022331807816702485,-0.011085274231189348,-0.006570955542216814,0.07044617994576417,-0.06008769435996132,-0.050065069972201164,0.10574384107081657,-0.10634235740830894,0.014337179188774987,-0.10198140010178978,-0.014547392099930037,0.02238896915692673,-0.06329906518014379,-0.10066340402085534,-0.09697365758425068,-0.042760226768716415,-0.016385873955610798,0.013416824529247362,-0.050556342143852843,-0.05083061706401515,0.09786054857548966,-0.06441918190489156,-0.07757372899094009,-0.0017897307793631326,0.05831593146637844,0.061176954952316474,0.08456630997548753,-0.05682367212414568,-0.02672668497506181,-0.12635877625925052,-0.0632894057232345
0:2:-0.04623337718990076,0.06851997770147103,0.0024732790593491516,0.055543491968322665,-0.01602706756449713,0.03207765883050737,0.07100853641562743,-0.03739773764081882,-0.08550984222614612,-0.18146910234382152,-0.03801823292718804,-0.1415948439689678,-0.006781960524209671,0.010309278855401182,-0.16715377532000364,0.009582485616265507,0.04539307234802296,-0.03534043657677514,-0.04762259596819864,0.04975855617919053,-0.07172423344858743,0.10002518223422727,0.002358363683401751,0.010023973311660443,-0.012032773816677944,0.07813429959977451,0.03031133160770782,-0.03648720500261408,0.09856208807040802,-0.05484904195980366,-0.18103122694708212,0.04115445664649717,0.09201017575458147,-0.02142886486280187,-0.01677759030729244,0.012509644167997852,0.0015615342335531578,0.030543333676987264,-0.039885175712936406,-0.025592374573298507,0.19308975993608676,-0.017314269187668457,0.10791247117188835,0.07891206264524714,0.0023632643162614353,0.05677322860778815,0.0035064871734494557,0.0018518085546737977,0.09482517266691126,-0.03366438347052513,0.0203308800423773,0.03392602800948708,-0.07084774410927779,-0.017021779553776237,-0.1552143597503787,-0.029712324917130335,0.03348358724719611,-0.04602084958909987,0.12434144510086632,-0.041468611747033944,0.04422704825946777,0.02845181580899691,-0.046543508450127245,0.10646117540550859,-0.08111428707202145,0.023792296379447967,-0.011256564819103471,-0.03842411676764997,0.08394222816350395,-0.04658210883960168,-0.11664277456027085,0.09566202494899133,0.020816907726173034,-0.08330738428559771,0.036293097462904204,0.00311474692497409,0.027116051891491147,0.09483273980189491,0.0022173003712038205,-0.07863493910333064,0.10713765076238126,0.017258744815192514,0.03375743694589833,0.02801872736609995,0.09238234375049745,-0.023546784011445436,0.008648922427693898,-0.050305236248028934,-0.13486710369340682,0.0407456705695955,0.055043630092737515,0.012850917719690194,-0.033968305369333145,-0.05356594463591779,-0.02740075715248798,-0.017714955983881057,0.057067719690684325,-0.2044246064191201,-0.06987106655393839,-0.09209130788159442,-0.07628454144288929,-0.05742305876275376,0.027911992418436848,-0.13731736619331972,0.09130737322404171,0.08032263559589496,0.10940672682491759,0.08107939276397073,-0.011960243546164139,-0.029129643915703215,0.01728684316583044,-0.07090580691635048,-0.10731053090536341,-0.03423064379131618,-0.012533740933705332,0.03504112153418203,0.0516473813264518,0.07885795243463815,0.07434726126336694,0.058105240804757624,-0.08352827295847944,0.019295957569667486,0.0899614529289879,-0.19477063789253532,-0.0721034343527526,-0.12415136638964605,-0.061001934465197825,-0.20281191239369945,-0.05711153579318431,-0.0038769458408824736,-0.023004395055063298,-0.10220782526047147,0.0304561602434722,-0.03862037788151567,0.06405289508031521,0.002001444123797666,0.03485768425543924,-0.01982793090234396,0.05917456862543766,0.0882308971980975,0.03647324982871993,-0.07175713270653336,-0.00017274870215831838,-0.03621286596630974,0.12463454021347432,0.12609349528431674,-0.02847435205784221,0.20572064745314989,-0.0074038055861392425,-0.08440491341545858,-0.08360651230400494,-0.12394794306165106,-0.08833183424679698,-0.2056921006144663,-0.09173318310279198,-0.08510164108006822,-0.09599019254095797,-0.18837757966464874,-0.023372812790150823,0.04762246648630591,-0.10213794822578326,-0.12124860759656714,0.04094733099135577,0.04637779364356977,0.07060358458556361,0.14446564190793185,0.0665833941163819,-0.12912095356261158,0.05018512722597663,-0.023440680572966065,-0.05504426552388737,0.08146534636659633,0.09502411056398116,0.07650750355842623,0.13099833782975462,-0.06711324371097775,0.06567587234233754,-0.04650466116434942,-0.052410720179415185,-0.06665765619306545,-0.12814035777472782,-0.05444368515754166,-0.08403900363989841,-0.06794756633606146,-0.18152359084482408,-0.19722943678869342,-0.07928612494298631,-0.05146384467280738,-0.06526421663504846,-0.05094134035696102,0.08135083188832781,-0.0589731715155464,-0.04400397051419652,-0.052401462996675835,-0.02262399238663068,0.05100018390551152,0.005721000990736479,-0.09860341078324067,0.057612702045374206,-0.13055271534036653,-0.006112877249542007,-0.069696740390996,0.09817772648248904,-0.020224249928449903,-0.012801296208811859,-0.1281488685483851,-0.04131315493722614,-0.1383054420211793,-0.16016186210752462,0.04911042770354141,-0.14750236391318589,0.009076013320210189,-0.10069729471708559,-0.11657790799280743,-0.08329909066814624,0.06287933463901829,-0.0575162999210855,-0.03132575965323378,-0.07618721153283076,-0.09740727501948185,-0.051829098466855385,0.021616768716652492,0.05228089629258114,-0.07570990475153896,-0.120112633617347,0.14218079280780055,0.04229018953586799,-0.08218873974882883,0.060876671430433266,0.0035406744150702557,0.13992139254623903,-0.04218184319114472,-0.06164446235451469,-0.06750325055250431,-0.1717737949314133,0.06473313027012023,-0.07570092891472967,0.059402964064775285,-0.03381022336391091,0.10820398020132534,-0.016473735849776565,-0.030678741664986655,-0.03220384486033806,-0.06481021585610182,-0.08151448585997102,-0.0511008573503321,-0.06959617727586222,-0.03993058573974071,0.04256749459269542,0.06694108749809227,0.1278284693330114,0.08209030777564214,-0.01738410075650612,0.06891396397864465,0.010248347620000266,0.015600439738850603,-0.07614379718237443,-0.03493802493457627,0.0986281113017382,0.088914244065169,-0.07261174677465464,-0.06179984227842071,0.05331714480115041,0.04171022710954305,-0.09845639784487369,0.08513679149413374,0.07691028028676311,0.029348106456785816,0.07082707297099884,-0.058504479577879284,-0.16569725605328067,-0.003542834234184984,-0.08297201639845554,0.032260185685962145,0.017623958505244324,0.037791087652575855,-0.14347269509117133,-0.033116582645821145,-0.022883180199385306,-0.01772593485879348,0.061325912291517855,-0.060015896074835796,0.0724267499681134,-0.15396177041692205,-0.006891495286064869,0.04815602880942978,0.02696274665133395,0.020272989253558363,-0.06326125289142678,-0.08906634753234464,-0.018631450657362793,-0.07720088710097703,-0.074021255023419,-0.10963093959448883,0.04213341139971595,0.15155172029871686,0.19573006236380763,0.0776683281630376,-0.04629326188244439,0.0053966902558555945,-0.03912060401142988,-0.013189115646517318,0.005913874364917766,-0.009945753321635024,0.04955402811386886,-0.022868943305468153,-0.008311727198213126,-0.15574995738922567,0.005163813767650856,-0.02247910587739782,0.00027835935002364597,0.0014860426514320473,0.09827769106487097,-0.08144608969053137,0.020657268033647886,0.10035888001204168,0.034605094334264466,0.020961564566018408,-0.02842251658121062,-0.047756083365932664,-0.04136385288995241,-0.11551401727647988,0.0717697517217651,0.18092935219535566,0.12808053000058237,0.054516461518523074,0.04886118694212708,0.02014058707365836,0.08175287222313062,0.003870341698835606,-0.07719930752217295,-0.07668421897940211,-0.07929076356872514,-0.06989431704874206,-0.0033972469988090013,-0.069295590468345,-0.023734526351959332,0.1253655741608367,0.045103953858745154,-0.16173109450316456,0.14385876994088942,-0.059112718443255795,0.13782943959741184,-0.07615499258389968,0.1419449512729032,0.09775286344389383,0.2244565955690246,0.11934200166772713,0.09004335862760056,0.007921729035977996,-0.01866879605558834,-0.0051753061300784655,0.07957977686577906,-0.01723129747141285,0.010949827282392424,-0.012026420199952027,0.03498715962556166,0.22472800358415457,-0.07189670840928854,-0.0773867481628613,0.11974164541366268,-0.009285075879409023,-0.06706952027399807,-0.0012816538278241202,0.013938873524970596,-0.13691134104412217,0.035604521038859895,-0.013648290576988858,0.07027174975445051,0.12063729808506662,0.022448969882700755,-0.0014084327428394868,0.13140628423060566,0.036906796030331306,-0.03283822720449517,0.031193289611687363,-0.03770205803274524,-0.11687850279372142,-0.005243072375757315,0.09203155868124559,0.1222032425273489,0.11596002843424263,-0.07478191469252533,0.037795265689187646,0.09919802998017073,0.05029718708956638,0.12730267516602883,0.10803660936257248,0.11289849381230366,-0.07495660412238551,0.10005613385500296,0.05106099177360441,0.03481639632170159,-0.09549195135281419,0.02443248092027348,0.010076545119961488,0.02057964037853705,0.13224183803109021,0.05815368436104348,0.1505365971409211,0.1511017902257406,-0.03205790736855303,-0.03132568979183327,-0.049631545164130965,-0.12181176226560847,-0.026322256812309177,-0.002042807594762438,-0.0011567169691236853,-0.01880955594821762,0.04359565659964393,0.10652437516735962,0.12441082362145028,-0.014831737087233298,-0.023602298479138285,-0.04738353478369611,0.08773334211915504,0.10027435796156599,0.060957035070660685,-0.006431255577582756,0.05676653787569036,0.0159988510777363,-0.06461084705323382,-0.013093107038979942,0.022128948489238465,-0.08542853529943306,-0.0003229065526487159,0.05968690919626628,0.07742719077422998,0.007302266302560027,0.05876025719426279,0.20448485142146736,-0.003716246808004879,-0.17909054887876727,0.026947178469098033,-0.08125340398997828,-0.01986162396686046,-0.0378851337264966,0.12084232251974308,0.15910442257540275,0.1407007604287164,0.19694652133391025,0.0823675340176483,-0.040244885126781704,0.045248301752242356,0.06542188040306028,-0.060106658637260425,0.0034020452558468704,-0.014241193683802294,-0.13559172635472191,0.029810670458701668,0.05774822994038522,0.03877113305524924,-0.03513959120246158,-0.03933609009867382,-0.04737061562035227,0.08554389438586447,-0.06590868769205453,0.000988622019803057,0.06648968245643462,-0.03052597552922727,-0.09220216385123546,-0.1691508138481772,-0.03863983954671554,-0.17655431619664602,0.09892777032126189,0.007564783064896969,0.026088566809655423,0.07462836629590142,-0.020094391711126952,-0.06059300945370732,0.09575723754721963,0.08684145435572327,-0.03980443634369917,0.006239095324949835,-0.06175207963609081,0.0993255774016512,-0.03609304818327593,0.04119709379974093,-5.817708192461469e-05,0.055534967330996166,-0.034867502313031686,-0.08775206473573832,0.08348731713483741,-0.07176563466649931,-0.16334802536148885,-0.0511669840416911,-0.15875537011443558,-0.18608431417883758,0.03102655344819152,0.03718934105156898,-0.1573656473966311,-0.05076449633356761,0.032912235961629205,0.023958371285537988,-0.015914100759689014,0.05901138615037849,0.0743782436761828,-0.06306111324777214,0.08334608559741025,-0.07794847476897654,0.06101832769442184,-0.06603586622062728,-0.02871907405866266,-0.03130948613712666,0.17094950293999894,0.023458509181749798,0.1138969977371037,0.0730470949947161,0.02901160808776233,0.08596198767508866,-0.05781283651977249,-0.07046640934902494,-0.17106792781617047,-0.12800143826714863,-0.1419874254804765,-0.03845129939612559,-0.15703703623133927,-0.04514950219276193,-0.036025118213494835,-0.038528347799487724,0.016362067720914558,-0.0025718805238121533,-0.02359990190313576,0.04021867971711345,-0.09033129083748637,0.036936347271726504,0.03302717339753413,0.03627575679300901,-0.08870120877609333,-0.035961372897296826,-0.009385384819581,-0.04645214283545518,-0.12468892207916346,-0.02552195720877903,-0.08465506085974903,0.08035103882139824,0.01764460540681739,-0.04388083372525603,-0.0402368730451343,-0.11029870093625507,-0.23476956782219272,-0.24179912248805555,-0.0809956483603005,-0.05611222933717045,-0.11326099875996633,-0.14224708976942976,-0.10399318148188545,-0.05591936280753407,0.06796263378650295,-0.07662955362935345,-0.07279205796720754,-0.03673821030662759,0.04557401985480524,-0.08184182192146972,-0.009072317768476699,-0.032136752401383965,0.042417328120496985,0.02231780153519071,0.046154710043495265,-0.037674057552395605,-0.03526801312988013,0.0756998207260935,0.10578132316249791,-0.03417812135531382,-0.012121788596709355,0.006458714051988629,-0.14552006015555757,-0.08735093578607817,-0.1553876295703286,-0.1461989146063317,-0.17261905626330648,-0.10828380065103659,-0.13753322197947182,0.03228503584238493,0.0009053215812298997,-0.06045409835801768,-0.05628669747639826,-0.08803838952759523,0.04988964043181391,-0.0806676117138678,0.04168028374548261,0.011289974386012527,-0.11610062676101487,0.07093529056088554,0.059533057593516736,0.01862227514547396,0.02845374894407881,0.13013774430363442,0.014391111485227011,0.027171311323713556,-0.016791730835646095,-0.08535535325356165,0.01138049021041612,-0.03831832427013188,-0.03355219898341976,-0.10531605587949897,0.002121594054709025,-0.21923636652268153,-0.05273788275251024,-0.035363598403858665,0.04696543216514291,-0.13457350502017432,-0.03889412052274766,0.030915817797434134,0.004189616794596373,0.016491682504596483,-0.011502944307926265,0.01406828336597197,-0.08850566099961424,-0.09251103948636157,-0.09885987097372781,-0.00882542373567947,0.08324094256784562,-0.02274628125225513,-0.0731453226499926,-0.14212654582161277,0.017606415926328972,-0.002132310326110403,-0.0015446022159348411,0.05883456727832645,-0.03425904714034335,0.060421133454296054,0.13907080351545437,-0.028737814675299792,-0.009168239618517229,-0.05405291729654192,-0.08107188858147187,-0.1748907233608467,-0.17808306051240577,-0.046880341972647316,-0.1414350905687446,0.057683472514998405,-0.02830349778352149,-0.11437445604096257,-0.012955444747128288,-0.06545630871723788,-0.028469544164513312,-0.13680965208442192,-0.06521351306508696,-0.059655202250427634,-0.00568556260742052,-0.012192398136632454,0.044976321106332935,-0.07475866885589398,0.12195478811630597,0.0637386376042757,-0.05259802241833714,-0.09662490519619579,0.05509065037281649,0.08033921234927356,0.17152263211654592,0.0642747459416066,0.016536600873771845,-0.048647497343487875,-0.08157918087239537,-0.04360873340941454,-0.11264202249658885,-0.22402253030438302,-0.11188633898452581,-0.14551052841621231,0.039694136290860466,0.14300613104381418,-0.013130774350773174,-0.04298641996015035,-0.12404160984315862,0.08515155111801523,-0.050868570146059985,0.061180061876023685,0.036463859511015544,0.014932553832147281,-0.030856243331703625,-0.06097976136511127,-0.08935293510051305,-0.15067722855901947,-0.0856794084640669,0.005764545402943666,-0.043876586537139675,-0.08154854939151278,0.004232548073934517,-0.015465737316902577,0.05831191603305133,0.12957314052038882,-0.03700853986047637,0.007691252494861108,0.06400894380029333,-0.12764109127988776,-0.024383801626772138,0.09903072250899295,0.04195689844245008,-0.05363803900587599,-0.026127859166782934,-0.05675239888881467,0.15461817092665844,0.053540452065877014,0.04834174424531552,-0.007609306067208241,-0.09694275812897263,-0.0455628531984775,0.05224211656105441,0.04039036876498384,-0.10013486247672863,0.03570452294187656,0.0014073110378117625,-0.05866683898267526,0.08983088547500068,0.11073024867721293,0.004739305527131428,0.028890610964826584,-0.054138437902777926,0.03914839245982468,0.11216360316774608,0.037325800695656206,-0.024385833640885854,0.07145110848648217,0.12624506916373981,-0.006695151340508472,0.053227346563887314,-0.11974310615662302,-0.04912962237496839,0.008897880990777964,0.0627834957419372,-0.12152606925622064,0.0001614513986249112,-0.0015221014977836401,-0.07065282719662039,0.007056860279879759,0.017539924051292396,0.04861243998919683,-0.05941880794652743,0.027316452395206314,-0.07970202484390196,-0.025345576697314787,-0.09914729894643538,-0.00580609377888133,-0.019426890050569506,0.10327473299003245,0.09893190195878411,0.19032476349790795,0.055329143776691694,0.0050848232299767265,0.08104671275708421,0.13758516322115194,0.10146685350567576,0.08141446504299704,0.07501993184823098,0.003258642125748372,0.03923202667941788,0.16726559681830552,0.08692117841676278,-0.042804366117141036,-0.03503778933882054,-0.009847470954018908,-0.027142951191851575,-0.008292799195515505,-0.0332730369548444,-0.1496879865049547,-0.06938733409312475,0.07715116494560106,0.05415954508856952,0.05445088025960946,-0.04247564135828056,-0.12938946346931518,0.00873211959025875,-0.11627714961837629,-0.03220274949833607,0.138470120769228,0.02503459436376078,0.06405229744680857,0.05513138115537078,-0.054911517768958765,-0.04001082933253835,0.09868044587185745,-0.1304642169573783,-0.04298601755296573,-0.05742731313252751,0.023193513213015046,-0.05727447697291866,-0.02068708554618925,-0.0350174821097827,0.015837714984144453,-0.03240260627783344,0.09189746151296599,-0.06561224770693302,-0.1409426476311005
0:3:0.0646527081284781,0.05113592625284993,0.0059152161485841155,-0.017890492505732027,0.01898471281707629,0.04537543461672585,0.00786395056455692,0.03044454766614871,-0.01868053865842318,0.0064332866251469905,0.0956541157460379,-0.01950231497182187,-0.06321220599948142,-0.04562071028735271,0.07099628149806747,-0.0017158205319313257,-0.04098267207208087,-0.047154978752376675,-0.015653521783764057,0.018538899863602906,0.012940087161513333,-0.1178286328225943,-0.004198506310762822,0.021960516926993974,0.023813250549965533,0.04320260288255756,0.09015936772458151,0.09345834500410206,-0.03475045933057985,-0.0723656743156616,-0.04501517203295604,0.02399080601681761,-0.008252153613604553,0.09013411396406752,0.013147840136657657,0.07652228084018459,0.011322366534939777,-0.1015403791093268,0.012604372401858924,0.004752190129267,-0.08095945975065327,0.015133125080816236,0.007950772255074125,0.0028907696088409066,-0.12437941397717729,0.11085625676127675,-0.017193942017642072,-0.0082973277368425,0.034464846222083956,0.0472430646459434,0.028498699770512566,-0.0032866616318680767,-0.04534041029652356,-0.03247648118364458,0.09635563928845672,0.028755066448541162,-0.11836292720218192,-0.07892784307488772,-0.016732471465312475,0.0343146953470764,-0.05606343496964834,-0.02425817812673343,-0.0735897921828136,0.0839523599981147,-0.11416336261274307,0.006467744845692765,0.03209076136945731,-0.011867265282221102,-0.044823042092347186,-0.011317681200394268,-0.06951575665346023,0.18095196588179552,-0.028327421962986883,-0.00758906276685837,-0.040447400755341645,-0.015391808419220785,0.031904007225627015,0.0543650754447916,0.09112115447800091,-0.008168605939053244,-0.10321476492180862,0.014414291990376209,0.1490015554572983,-0.03866584365621941,-0.028532840870341542,0.0023072262322507003,0.047382882006845026,0.030615455818516886,-0.02528809740061567,0.0259132484925577,-0.020705099314200566,-0.019935943420256914,0.08606413888876867,-0.09501051129232464,0.052027212457926145,0.04293897733892035,0.026086884009319643,-0.05042017998492082,0.045897972258305664,0.04601976490667588,-0.01945992760853544,-0.09035209346121077,-0.0194802610940137,0.08298471613841912,-0.1930255115403427,0.04301819300989873,-0.009243582273299187,-0.05139639341713867,0.1255802477592954,0.03295208240853976,0.063274359148544,0.07976661997074622,-0.16340125543781234,0.03054929370042611,-0.06585954889368795,-0.004570583868525181,0.11690729916725079,0.015077601264295803,-0.014423498201968456,-0.029414113232039213,0.05518477389197165,0.016871944351254543,0.03066395862841626,0.011457929958983442,0.07741749518123259,-0.035878813367306334,0.052772074690223526,-0.056818557050652765,-0.14054196654577572,-0.16047299613702884,0.05474846347466363,0.1401420909301773,-0.05920861401708757,-0.04804197150543024,-0.20707485714328025,0.06121112998771653,0.005992692025903704,0.09228142735567606,0.10217092347654068,0.03648773469023225,0.0329318195471661,-0.21909152561493456,0.039942032781194875,0.04698049662138097,0.016434269820122922,-0.09014096074178904,-0.02418455922573283,0.001847511877858091,-0.006213919101056553,0.006227551458149602,0.00614983178759006,0.05462285184920336,0.06244085347029705,-0.03421120181827935,0.0744117116681655,-0.03001274921500041,-0.09209013517448762,-0.11217474831512349,0.060518562272059116,-0.011513641917182436,0.015452643579569287,-0.03179464798945245,0.0998153368221591,0.06590385067620996,0.05677024664921625,-0.012290250216934808,0.042940934177106274,0.12589012395029098,0.06333477070004082,-0.015436478901595486,-0.013808871420965681,-0.0003098677423802148,-0.06427682700783859,-0.06741301925651878,0.07858255277074883,-0.048324313280236134,0.08960286665731214,-0.01429661509733034,0.029172591186147047,-0.05363258705960157,0.11612413449887019,0.011015421226030808,0.08968019264002003,-0.04290519982644561,0.04557448323860644,0.06650110549674314,0.018416931752209723,-0.000713791552941175,0.11077914159928394,-0.033980636441731216,0.006685738169372856,0.04873248043507797,0.05830109842973306,-0.08697395913645893,-0.0008382203861136706,0.09535015375070674,0.02116227573082596,0.027812395887547657,-0.04851114754851817,0.011982898534446767,0.043182327115667725,0.09576541407981391,0.08438087998899367,0.057649949747214116,0.13733040300881466,0.048429768324791976,-0.0016630170621924627,-0.15637392703050546,-0.10842303608250765,0.02630753439563046,-0.07480736734230176,0.019056005274552094,-0.05106669771409091,0.17706549014333733,-0.053758425430799464,-0.010703786600775284,0.08677686522816111,-0.11658039071976072,-0.035846288112653994,-0.11619673126127394,-0.1095673118990499,0.09707001571824316,-0.04738106751080895,-0.17633961225114364,-0.10219289214958455,0.042394703796962696,0.01795593894694225,-0.0696924476800794,-0.07147344917401542,-0.05609910757948592,-0.028264284073014238,0.02388050514755145,-0.016065779499378218,-0.09803210276974805,-0.06941680282266678,0.05165567006598349,0.029487555117383102,-0.02604800844400608,0.15690951261964173,0.03552758959779075,-0.006633855641046176,-0.00581322649324883,0.07341445748331543,0.04719605861560451,0.13820675547747552,-0.00737773412122413,-0.055540297037570206,0.05426675619932886,-0.041496348280117085,-0.0032949367360553977,-0.059652605883547094,0.08225960523737415,-0.03372569132671776,-0.07292470554926092,0.10849271663339694,-0.008323259203943813,-0.04304098528425306,-0.05264018237151645,-0.1296804662128458,-0.060959930944284646,-0.21299669658036685,0.0005332069489802585,-0.10421599278828476,-0.11281428856579245,-0.08038009149933396,0.0368397021467002,0.053260901256343016,0.07724705456546262,0.016419799398713256,-0.08108263660815997,-0.04275595240841726,-0.058224509830575505,-0.03636878215711571,0.030350424721235617,-0.031614903499235646,-0.026247379630530636,-0.14495766461288592,0.025950665544931733,0.0006352820486100826,-0.027975242586901018,-0.008312186161381739,-0.060865662645837315,-0.04254458018795712,-0.06430244596071699,-0.07261429592448164,-0.10582657056023378,0.11789307143938633,0.02892879394995071,-0.01176568397259166,0.10138600410479494,-0.065350654090088,-0.03419248434182647,-0.1279519854160338,-0.08179281352080603,0.030566505329015718,0.0482144670943139,0.1066075108196585,0.044354563586815846,0.11180726084273666,-0.03645311866116657,-0.05747487718052926,-0.09458758021067976,0.07379172565386101,-0.016226141566516455,-0.09321277889284403,0.14114718514284427,-0.058307632131971945,-0.05947815350036188,0.008586526357448977,-0.029665202163727526,0.0035198470452431846,0.06244163832763961,0.02535165526970951,0.1130254872261355,0.03675980121519809,0.011128329122632358,0.039184145016865755,-0.035190183918790335,-0.06959909197973554,0.07286958540418607,-0.020650814537310522,-0.09971486647796413,0.05400147626639019,-0.06610917641627337,0.041355771787636775,-0.049969235623952474,-0.05850722035088911,0.019158366698905614,0.0104740508835722,0.04796484766507093,-0.0002886997857187885,-0.13856921099656683,-0.0003867234323211642,-0.12592024343195118,0.11884071037208936,0.004912805868719208,0.05262793770609636,0.11451416037482183,0.07511646510136367,0.0999141557013071,0.034416442062736155,0.15383070697331325,-0.03545674548555732,-0.06507604255015863,0.07082075751589578,0.01980450642828733,0.020066114822037864,-0.016476535407201773,0.07292096603229847,-0.059895079623032615,0.011001547978206863,-0.07949183530531988,0.013328717924520634,0.006647295221407559,0.18392704181035185,-0.009379174105876742,0.019289878561980032,0.10248277972174588,0.08131999210004547,-0.023230672933868518,0.09796928449355781,-0.08715247486727616,0.08047976535995142,-0.02238430139005382,-0.06562271925721465,-0.01891566559871528,0.061649101000007846,-0.02657900818816715,-0.04350217774879274,-0.0016274135099304814,0.12909459637374956,-0.04916658025783424,-0.06275873383004436,-0.08788671012331019,0.00280540757946284,-0.030619653092483948,-0.04744417687963154,-0.03963342169617981,-0.09513792784876104,0.033104911356412664,0.0392462763506022,-0.0803799597206278,-0.0455465824025868,0.027084858849141445,-0.07963743692482621,0.10626193648639999,0.029938424238609776,-0.029454549946214482,0.12874611701040575,-0.11090541820833794,0.03854182282069241,-0.11444001616370596,-0.027255849236699114,0.047641099726042975,-0.10234785293970153,-0.04571513991209938,-0.006975809859067986,0.00038842472713803913,-0.03517402821343623,0.06262748256384819,-0.07367983072950285,-0.006456887195788505,0.02321246046823263,-0.05547906275216809,0.02081203935256354,0.06991689766259071,-0.022780492525540763,-0.07557139938398655,-0.05660592816975124,0.04760727076166436,0.03158135685062424,0.06285098844693593,0.004564565113816955,-0.05556665181131637,-0.0039542002077238144,-0.03011694830055334,0.11754553883187764,-0.0647796290710051,-0.16426624811266427,-0.09419424993328535,0.06972742474827813,0.06327602888033307,-0.02488039379404861,0.010924734051636784,-0.16447425931863838,0.09685450408086298,-0.07145754903409814,-0.054538289080504294,-0.053467294671718645,-0.019227503097446964,-0.1256168340498612,0.1458292692144442,0.026244833077295054,-0.013842300409665458,-0.03010016481259818,0.11963896115813205,-0.015975516107938726,0.03887685658909141,-0.12491427172491436,0.12754791362736004,0.06489213164632263,0.06531273724598056,-0.019571152351388232,0.04848354238683973,-0.0546104482270961,0.11882670380570916,-0.0010748156652893208,0.10789338881138533,0.1610643649759285,-0.0320919694056735,-0.07285021773066168,-0.02223380137288661,-0.0669382815300718,-0.032357694533766544,0.10136631507211315,-0.020078978001868482,0.03265161235934036,0.06160892085445447,0.13740590612679238,-0.07529964855474791,-0.029525651809704366,0.06284259382756302,-0.010258865816216534,-0.029656137931213432,-0.026349905172667377,0.0723992370371279,-0.018618873454179296,-0.011717877471056617,-0.0653570874787452,-0.06545179865516464,0.08676107524390593,-0.125197595057621,-0.0551298270069859,-0.06815157920095397,-0.012239895426353509,0.0709292835597115,0.008817335295292307,-0.0805970502876793,0.06439616655181285,-0.06375021105520157,-0.009469566815005399,-0.050402265600251614,-0.10165934315294074,-0.03760811440708323,-0.042468156117734204,-0.07675867374685826,-0.02201618485147437,0.15762946553445684,-0.06331493908333952,-0.040222585597391246,-0.11342815641720905,-0.20332155070529595,-0.06695972804732166,-0.13374511498267042,0.07307706994891298,-0.14252898742886075,-0.08371064392080396,-0.0013564045488369694,-0.2112327233483984,0.04250675074209299,-0.01146471174935921,-0.009911606828390493,0.06942554930560361,0.06430488756791342,0.1581684141778832,0.042777092002650376,0.0077561359021693175,-0.01236976455833055,0.14391095668188447,0.1130089819151131,0.04153246323800097,-0.028090273814544008,-0.028521606701048925,-0.03616423771626948,-0.00898865053434786,-0.09222043846677938,-0.002908881883186948,-0.04755996706427475,0.0003008027970901064,0.07990862542979776,-0.01014476286050286,0.028521059495857384,-0.05390589786318823,0.07159948751375068,0.09347639772373423,0.09171790869420805,0.04524024689803398,-0.052061247891621164,0.14682640770453145,-0.04028510911720953,-0.045324508346821835,0.03718471434732082,-0.1883955298848829,0.06513282385613174,0.026740065918015882,-0.02846703692307515,-0.03452633965285421,-0.004617408999003063,-0.05287914410682418,-0.06780677758727756,-0.07164217719933935,-0.002733707739085153,0.04767105657581885,-0.08417167360789896,0.12526533612217972,0.054463468021739125,0.06452524070562408,0.031173135952148143,-0.02684896541186861,-0.049633356972920775,-0.020236766627559397,0.0714630211172276,0.11245427707770365,-0.11671088732331071,0.07639188889220873,0.0678713813726569,-0.007596612377551723,-0.01404377516139673,-0.04715032280567261,-0.04524511536414243,0.0396792499691869,-0.1035272263222941,0.07823897893767079,-0.01576873210041357,0.016131176552210937,0.05100234178789468,-0.008521991380304947,0.05251506790497433,0.0580488880797091,-0.008863844925084751,-0.08238293766810206,-0.0003316874526689813,0.09389651440304377,-0.022618490979897765,-0.03254553946743597,0.07800259004917592,-0.02160244692223521,0.08363375583190906,0.05363825303744687,0.08709655185678059,0.04246694786568895,-0.13646536282971475,-0.04992935922468298,-0.16035763233067524,0.07987504896869822,0.03853648798410475,0.06948360132310526,0.04721621314022194,-0.2043239008395074,0.06035692272532722,-0.11624157879067214,0.06563213623866693,-0.06792548156712437,-0.11177908595029615,-0.023960728393507484,-0.023957700479736405,-0.05210873892967164,-0.008559661937134951,0.047505896590638384,0.02913337713976182,-0.061452971832533856,-0.008621046527023694,-0.049879698665103646,-0.12319003682422608,0.05991465211910155,-0.021985931037897064,-0.01630482159432329,0.0937790729514341,0.017511639431250673,0.03111264826661543,-0.054666526843380046,0.006878100202918645,0.04782441729456706,0.03133923516608176,0.03910126053971271,0.04726984066278812,0.09460019811873108,0.041049141322771286,-0.03744222413360761,-0.06754644313212353,-0.010005551593076945,-0.0064457679491228635,0.12041145848981294,0.031535337624794935,0.020696387107591446,0.032180177605131866,-0.08735260218260038,0.03645219923847648,0.0036930235501834237,-0.06733145047795487,0.0033657686705710556,0.004564436865168714,0.07340845218368741,-0.06580464704407447,0.011738409541532583,0.1483638965156183,0.0303768428017213,-0.015854777025098906,0.014095256020025941,0.1056660450895847,-0.05525239140034964,-0.11015593807876106,-0.07677234671573056,-0.11203250773863575,0.14073935262256865,0.044923725309292645,0.028073834198663543,0.014890902699314416,-0.01070411245768774,0.0012953578730837978,0.006083241258860744,0.003998269987008325,-0.06936150195550084,0.01460244128157766,-0.13156330136547625,0.05162824643333119,0.1655336892801026,0.007193693309814405,-0.12779734701402393,-0.05413257818560169,0.04004836123168965,0.007562256559790871,-0.0542271060357301,0.18514229925904135,0.03592035377176729,-0.04108967037589636,0.08163946230375478,0.034886278509169553,-0.08256122819494459,0.04415629551393738,-0.003146610909067607,-0.002860497240128852,0.020848726253297627,0.04990627392668349,-0.009486072565481236,0.07255767248158611,0.008224022010225622,-0.012494744152035213,-0.08407607034735716,0.055868729684220186,0.10907368500055607,-0.04759758413168816,0.042644326696168126,-0.04323302010795167,-0.02844400509740398,0.03583722925623168,-0.01619475365630597,0.08834183842764322,-0.0035822366700659193,0.04163516451826071,-0.10367263104649566,-0.021588058407385504,0.03599095911042966,-0.04967285154763843,-0.035590549962840536,0.03098231273411751,0.007809748987444735,-0.04308207837065116,0.13455104528361891,0.10123822630631209,-0.0006758675021678318,0.127504555476768,0.20824028944540618,-0.11396680820220109,-0.03464844260357758,-0.05477296218710685,-0.10447868818410445,0.021661210761078204,0.019456246706907383,0.09263210163936197,-0.023179429469509218,0.031176598240236674,-0.07649619321460828,0.026873734961238564,0.0006020688766998451,-0.15746778757709984,-0.0067453950481623625,-0.0346421335969451,-0.01569956711189356,0.01905767423354547,0.015715720683364673,0.01964589837474381,0.021760569071520665,0.011020807566379177,0.08353624787559821,0.00650490706874883,0.016957118322187926,0.06249881576712438,-0.06612952256863568,-0.13327310853497742,-0.010532154196270552,-0.16580100044632107,-0.02931772066706859,-0.055255790017276846,-0.05363898445902804,-0.05804865474876189,0.0014820058095767166,0.04423318872248561,0.05843471435241982,-0.036577222771938624,-0.020692017876898762,0.013445395366989986,-0.011051446740557443,0.12734778559727108,-0.029806278046533824,-0.01675205618533195,0.03206063291139662,0.0868014312452885,-0.034593767662158825,0.020279207891188127,0.03062469976906621,-0.058695132080873805,-0.10738163123465876,-0.07703901142281892,0.011157713362502814,0.01489265281342975,-0.04220182738082458,0.06613482551077243,0.02072671788420039,-0.05780103852110134,-0.15672954750596513,0.08229978304251112,-0.06350774221037431,0.04181972730366399,-0.01425936077484916,-0.08103617635588499,0.02677655902700022,-0.0943273964629197,0.059736048552014066,-0.03974159239264546,0.045492929075914054,-0.04058037203697253,0.028176628132032124,-0.029884345943384422,-0.00022452528336185614,-0.08624893710823422,-0.1574972410258114,-0.10854978143091883,0.03416744458606107,-0.053822047044754434,0.01952316844871482,-0.1204305539153869,0.13779541921012697,0.09002386199081491
0:4:0.0625505759722331,0.048067345067424015,0.061052294511765054,-0.026090628215079677,0.02917764298253183,0.07537432773436366,-0.06911349533700062,-0.005903065120329522,-0.056982960967395246,0.03920478615620321,0.14746400279428792,0.08335337374592106,-0.055243406287707617,-0.07286313086580788,0.08508156586012613,0.038427111867285584,0.05673066416677816,0.07668315502889421,-0.0686758914503237,0.14296600771418919,-0.04031498114307407,-0.06753610134127412,0.13336304267462318,-0.011074510558439223,-0.05977740601348062,0.029159010938684324,0.13431723330767112,0.04443953633650304,-0.008104063050055158,-0.0031713190657080884,-0.03344715677281284,-0.023175680738443744,-0.011043673182489475,-0.026563179035112697,-0.07784257453962483,0.18243214687061574,0.054940445618781385,-0.054513841991541974,0.029359399870483242,-0.03300750588215547,0.07850100348545744,-0.005971535270754988,0.05793778854843721,0.031096133766782406,-0.0034641719109053896,-0.06486021592226221,-0.09999882624847034,-0.048125606744634244,-0.07945876182127691,0.05563986081529091,0.02168248943753315,0.04867220710714467,-0.08227429787743479,-0.11719103489098646,0.09862879952008678,0.08161701503861055,0.05613661069085624,-0.023236718374451775,-0.05797172705217021,-0.01583978246133404,-0.01512086636405046,-0.044954918600758474,0.045954641496726976,0.05961184882093992,-0.008965554108862227,0.047984174431147525,0.06159588512091369,0.003947354123475303,-0.09507655050159737,-0.12630248432287133,-0.03347670276695842,-0.11994323764805594,0.05531739093130613,-0.058453307514155825,0.05592001265524154,-0.04270127757395467,-0.0335785830077423,-0.07138778466324841,-0.05746158791904829,-0.0016390868348356792,-0.11579672881910462,0.030253483238767354,-0.01365565308412189,-0.07653713540308578,-0.04234373429597186,-0.016987253935245958,-0.021521114101735128,-0.15361580033732186,-0.06046037571298797,0.005152967356444955,-0.000874754089701533,0.07211985554349033,-0.0022542615365120375,0.12015048374986999,-0.03427667147154677,0.04562662618215035,0.11255280259937561,0.08829655727242251,0.004011287456687061,-0.026086552240151384,-0.0007024357556201528,0.05002558229745831,-0.009266313741217277,-0.11374440937025225,0.10386813658976199,-0.04274871701669915,0.035291458299879494,0.020761116058400347,0.024320575497251827,-0.020234588391599397,-0.004095552449538363,0.012773812295395346,0.02478888402481084,0.07998719358026937,0.08514196477459199,-0.12969004186763683,-0.0050855033743438605,-0.0670782136667226,-0.06292005096443239,-0.12159558564044845,0.019924223728916217,0.10841374511804,0.08967912478027275,0.06802536557744926,-0.039733387229530036,0.07705598176230594,0.07595429617276858,0.0012528010298571758,-0.029622316884432214,0.14504401999020003,-0.07525420428205659,0.05351899490256478,0.04946951866460435,-0.06534707314275559,-0.058511151180917396,-0.07070454613238034,0.006540421839258849,0.0324275694857422,0.051188056742374644,-0.12053258553376962,0.08487067669539368,-0.1101832116987432,0.09535155183726837,-0.07753899401267719,-0.07252349992156033,0.08459753082547027,0.24336848593228616,-0.05799918701400376,0.12340691560850943,-0.017582123925927992,0.09139171999073743,-0.07089878883873393,0.13707825965284284,-0.042896674213331154,0.051310506584838704,-0.07310634968058453,-0.023418109581784946,0.007666681895545365,0.025559873739965076,0.0779115486836273,0.12744055429463289,-0.04129720924169335,-0.07041949390164688,0.02025125350674574,-0.08388711989094823,-0.020331175456807685,-0.03482995740692409,-0.06947176097950124,-0.04036094329662599,0.027875987977458376,-0.05889159628669681,-0.08548216771489209,0.08683231259401397,-0.026023721658262253,-0.1333845530894114,0.04240539156023225,-0.07510261002594078,0.141447090820139,0.020923023545329742,0.09418179401945033,0.03168589563072019,0.09513935867194112,-0.05164100730149389,-0.004051986883163463,0.08832670754365783,0.06387843054287569,0.1720194029261012,0.05651112799792329,0.0098941022260615,0.038380485560575675,-0.18419973142450938,0.03159829719833471,-0.00011417646567456537,-0.06883803231736065,0.020584061525539005,-0.10446075241612869,-0.024439734787834667,0.17040882336729565,0.055183907087666156,0.0752209841814765,-0.1631635622878994,-0.08636771394043836,-0.04966391730951625,0.03274136495258128,0.002518219279180996,0.03126089836143329,0.04296320862791246,0.06754862406909518,0.0817511210608981,0.03312974907222674,0.12072839385826815,0.1168709645075294,-0.022460452209532352,0.053434035447372435,0.005725105107041069,0.010681630870497737,-0.1728696846857283,0.04631025982750651,-0.021059716846728232,-0.03250474847983953,-0.05465725604502672,0.10376049687308378,0.038874371976455685,0.03784808213084073,0.10046411290968298,0.020246959162361917,-0.024516461075772638,0.011211794284905067,-0.1112028313949271,0.024439916149325575,0.08751886978526131,-0.024512027949687713,0.0342187462821539,-0.04682411538840117,0.1369098445307004,0.022166409041048298,-0.025953326613778874,-0.0456180124553507,-0.07527681502665853,0.053671134327441423,0.12001603473714371,0.024031748721482882,-0.034491964353096045,0.05862790693632209,0.07459821371324055,-0.05942362515814309,0.02283179111533324,-0.10595733753840195,0.021464436928440675,0.01962603547243712,-0.14853546845293036,0.08729902282326052,0.015102372237240154,0.08995842306608197,-0.013385297030928542,-0.06006463967893894,0.06021394287430671,-0.08873018323379783,-0.07098545172620842,-0.029195505197839963,0.12761503403863414,0.08043536284180502,0.041488884972516536,-0.05125498766167391,0.13950509184374335,-0.18985075428105075,0.06139531150025961,-0.019500100154562685,-0.04896708419747445,-0.07951845116189371,-0.08596826787539022,-0.1125732571696856,-0.06233013570651811,0.03078984069694046,0.021381566358569713,-0.0155417993705141,-0.1863257423814563,-0.06609777189554018,0.19433461458150705,-0.07854946998858181,-0.0035331418348292665,-0.03358894597110921,0.0015034058749425923,0.08811800941714135,0.09729835022459507,0.0031179176142932053,-0.10693639918175338,0.11025551083565888,-0.09011922121670621,0.10161389062747787,-0.009702899392622987,-0.0062726977671615095,-0.03480530615194327,0.0016672539032774126,-0.02833733392659382,-0.05225290136390705,-0.04001863248151437,-0.09880528879952581,0.02469757890717173,0.04769192645404376,0.10830747581742307,-0.038184117823688406,-0.012571006041995552,-0.08612378428924568,-0.009889344261345821,0.08052556489738309,0.039369837738853705,0.03333200002052329,0.0005023864135303404,0.12706172252321773,-0.04439688880255423,0.10828704387565391,0.002273994437938396,-0.0937221155184606,0.07300401051834345,-0.07522018012640584,-0.027884677442842672,0.0537093506608853,0.004215167340650598,0.09368194499074896,-0.10724905265806832,-0.12429138085845745,-0.08141935806310487,-0.035981591454397444,-0.01857769525224561,0.05704677298997101,-0.005855662342629498,0.21424155631653782,0.018604187631856974,0.08378037124802884,-0.019149985026246655,0.0783175945703883,0.019312909750541365,0.05482900170398778,-0.01105925897866296,0.08195453542879394,0.03315584445249186,-0.08802240263516593,-0.14522107316328714,0.05947398858347398,0.023999502774628777,-0.003040156731305763,0.04361483212516176,-0.04385172875992186,0.0727920625577957,0.0011658760189538575,0.1023242106387955,0.05991445983032225,0.0778143299001954,-0.021500655945756293,-0.11111783417727177,-0.0216834080170202,-0.028403729143801872,0.0947191417941586,0.13298561953022625,0.26540135308816415,0.056219770054498526,0.15475986371825876,-0.06528452158242215,0.05154278723395182,-0.04392838750776884,-0.05842516326808103,0.06815784097494523,-0.05946068534447679,0.1535162133601604,0.06304701860348,-0.061240559796439,0.005585197793054878,0.06546682090181478,-0.017474197088298164,0.08114596415405165,0.004028063206061369,-0.03505517009455737,-0.02625054161010267,0.03893185566751447,0.09227601469394868,0.057100928982194175,-0.010439359094219709,-0.0064429120173632205,0.06135428724721734,0.1522571685861991,-0.016945703249300278,0.1617053358928818,-0.002333816392180448,0.03459915081000929,0.009916137549524189,0.05946245079037226,-0.05453452148287044,-0.01147107482667329,0.06557176808757441,-0.10546503682116662,0.0679639762572686,0.0958220476034502,0.03983931959725336,-0.03099057138735917,-0.11955734092656373,-0.09135214434044917,-0.03058666555438078,0.06758412696429089,0.027478300623771327,0.036094387428195214,0.10233498648788329,0.09169646892401463,0.05926401665053625,0.026099447789010796,0.038243757199130084,0.15700264685839851,0.014787225800816156,-0.14789546365419062,0.14139199971808977,-0.065245957219035,0.0008406831771221407,0.10270377901483174,-0.21834124047692202,0.08380081609496152,-0.07085956295562626,0.1464503886966576,0.01653280554250286,-0.0790155403321873,-0.11068947843274678,0.06791373748884626,-0.06622282361323287,-0.0072789805744334895,-0.04388936926510238,-0.05792741733096277,-0.04376097703141312,-0.0438062622083064,0.17308550314521995,0.053220959822324,0.18582516079909925,0.11307621044285608,0.07976425191032031,0.03947865368280536,-0.026185957462582562,0.10158116149510385,0.16052765389281592,-0.020876750833844427,0.05053425114844481,0.025557635611811177,0.06020882012712834,-0.012329133383093608,-0.09669749534335421,0.025727039735269012,-0.03473365711291137,0.18834688943037958,-0.05418482784704101,0.0016027419555582384,-0.07690741544837941,0.049349777700206064,-0.008587711859586697,0.05512357114981113,-0.11914046883520155,0.054749114687552954,-0.031372167283112214,0.0005044821256999241,0.1450340527109541,0.105202512866646,-0.005527777189711461,-0.025064167567356507,0.03096938115416839,0.1650507166298495,0.057481968151687365,-0.05438976485912421,-0.0056942225273831845,-0.0026602327622810107,-0.03451003031753412,0.08602934634906831,-0.11356182141500926,-0.028868981646260602,-0.052147985874148574,-0.06370420118701808,-0.04113415498752989,0.03270444712882655,0.032662307161194025,-0.15974617462548976,-0.06618456991742847,0.03739171948119851,0.10601628742200396,0.03218910779779107,-0.015500455168364222,0.004143749668831746,0.05482317415238526,0.06643639029728178,-0.05284187643844485,0.10134871175924175,0.15806294395549636,0.1692889856455853,0.13616907376373122,0.05822710496641582,0.052215218523441465,-0.023952775779468537,-0.041384480088571464,0.07899147079807889,0.09992445338999331,-0.045499251190560495,0.024409867928366313,0.11422198200043833,-0.12243041324958055,0.004802249098688964,-0.02075772860804311,0.03811837821211808,0.026817050538480255,0.05425372996669088,-0.029015536757267094,-0.08334018157568926,-0.1415961999036607,-0.034110507812478444,-0.03443378968989372,-0.08096556083949562,0.10677900745239396,0.013211153335734553,0.11444353878151804,-0.024348346959930146,0.06223366994477142,0.06172790720480341,0.002570812407492714,0.048554637930254683,-0.014321846439674789,-0.04727238080326314,0.010119112699190717,0.03391713549385115,0.1793166816496884,-0.03284442254225801,-0.04658870233450699,0.028203310917030253,-0.0329686966485814,-0.05454829923399344,0.052656028164044036,0.12257696375644317,0.00554697442897901,0.023633064959751857,-0.0738695708190099,-0.04713477038321294,0.08461418889573685,-0.036363564396614,0.052726561353406934,0.017442732459749262,-0.003536684525532821,0.000782277811581396,0.03990496471388041,0.0216628833040974,-0.004510804698030735,-0.002288275410627345,0.1271660966100077,0.12210254702145902,-0.0509274052847151,0.0652336534991967,-0.03101605724895494,-0.016684547532035948,0.05491508362709598,0.09285075519196824,-0.1298358708263222,0.14879474672232862,0.061820508854956595,0.06659276783779543,-0.08748234044815983,-0.04057431956037457,0.06400869903954051,0.027430547708047943,0.030174423625840194,0.04186336018836824,0.11597007357874033,-0.05121810389150291,-0.11689361623800719,-0.0023094083638928544,-0.1033554501368088,-0.0847614699668445,-0.006999356793421946,-0.06704416576310562,-0.010538792538286506,-0.035467802502572844,0.02959069299940842,0.007784832190070158,-0.0011405499843540662,-0.09373486610498638,-0.07699128405653581,0.09180671356194449,0.013421655780932526,-0.12769762840666887,-0.08770931348428432,0.04258920605309056,0.02371527952903719,-0.02795913293901652,-0.07574943918724077,0.0162770587648685,-0.11183131249302354,0.01832106527882524,-0.06219569797200758,-0.08836810552653046,0.15901724122297498,-0.10623349577617619,-0.04465487181560765,-0.051765886500204035,0.008744909801708252,0.050681705634818976,0.037920794473698435,0.06800952524916122,0.07615638376760987,0.03141201766347264,0.043336208536541125,0.03985745825517849,-0.06879349276667547,-0.16212270871410062,-0.002612646938616012,0.035732104938542765,-0.019962791901065324,0.07765974764903417,0.07256256568051857,0.027117403482491906,0.129029919296649,0.030482698417783845,0.15435885895709694,0.05303819618835145,-0.03935053225490089,-0.014718930921428317,0.06662302843421467,-0.03322421593542142,-0.034556840787856986,0.11057231856705611,0.08388120992135333,0.09301078304859238,0.00815580221866733,-0.13578879685752726,0.08174389846715248,-0.11737160444201576,0.041309390097810636,0.052001743662996126,0.09801319202471875,0.05867350335474772,0.06478846735884973,0.04385572778631262,-0.05565300302433613,0.023843501598713034,0.08080912349938243,0.10594897636479358,0.06793284333252732,-0.006131431370785657,0.13885013155313206,0.0666755949512556,-0.011658147758823886,-0.008283137121629564,0.040134885422928965,0.05090770044677222,0.011142682760828585,-0.00530909275505775,-0.10246326102775628,0.08147949873948135,0.024582016700045492,-0.10943400762168229,0.0601960158134551,-0.036413972959967345,0.002754569034280045,0.027606632466697464,-0.017632865576959995,-0.08357359358662468,-0.13447522994674357,-0.036795254256190686,-0.08604203032302056,0.028444496628212853,-0.0008302252722070257,-0.06585507921609074,-0.08260794623502954,-0.07335344808055919,0.06031003849563955,-0.003026870242371664,-0.042041334906831124,0.031053605161689587,0.04759856137846137,-0.0914012363980584,-0.04732176030774474,0.05190069579677627,-0.0479554037471563,-0.017558338297925056,-0.09352993171607775,0.10251792244626051,0.01166411205483338,-0.10327662485635652,-0.0011014014384980724,-0.09479803597637625,-0.07221320038574627,-0.04447507361069641,-0.055852087372326484,0.06971849262210629,0.03461206874763396,0.08085537491287961,-0.10464536606247697,-0.10086513152784118,-0.03692684927035966,0.08496021808746068,0.15614113261408283,0.05906895258231585,0.1161040542280254,-0.020347410347543074,0.012393174533069437,0.1296258119342892,0.09352370680937051,0.1013078742800234,0.10057400776856726,-0.09308466219808766,0.02110191681875258,0.005471604787326939,0.15881841281436004,0.03120474141196933,0.010541958798336666,0.0351427301937219,-0.06605277433187394,-0.1157321132997331,0.01382490219394174,0.07064328343960685,-0.053858535703151064,-0.0644632747858996,-0.009932137636371756,-0.09526233434048428,-0.002036261125898423,-0.04891388528771014,0.02377265483014873,0.05033007937944483,-0.07593624424549149,0.07172581018198397,0.10896313538487022,-0.07658093181825822,-0.061821992167849345,-0.03207984338999153,-0.0883162368413808,0.05248601895785308,0.038649449439193635,0.11222297845984924,0.0803446787239514,0.07876679710193102,-0.03389935225646913,0.08245297754581161,-0.16121924709133886,0.10065761349417708,-0.17082824240358474,0.007606836488231901,0.09147798456489127,-0.14510276525599566,0.08398672535696401,0.015336740832917441,0.059542462593988085,0.0015628954268539716,-0.06527423766440354,-0.0676162052980429,-0.002017227362429237,-0.028650322830712786,-0.14057972874464056,0.04489801440242905,0.04042380397691058,0.08235460123872698,0.04940412067684279,-0.030447476198648807,-0.03762646745041144,-0.05058133905270596,-0.1469026756905544,0.06938760950368801,0.03593152104904183,-0.07698216683630968,-0.003119790094844045,0.1004390504667072,-0.024602517525506736,-0.08654073265123893,0.004204905711465874,-0.07093919094744718,-0.07199289577839332,-0.028322403029984275,-0.024402764476807268,0.04606279718698436,-0.05204153260401666,0.06275528869239735,0.02910344781698361,-0.14229970678134904,-0.12878340778353475,0.1788606635808312,-0.12539279645726936,0.09295301599952457,0.08122269399421453,0.06647772998787117,-0.07316192013846776,-0.0026577028065176847,-0.040619244420300626,-0.020817845934514363,0.06133719767657335,0.10733369261431705,0.03419070239226022
